Compound_ID	AD	f_0	f_1	f_2	f_3	f_4	f_5	f_6	f_7	f_8	f_9	f_10	f_11	f_12	f_13	f_14	f_15	f_16	f_17	f_18	f_19	f_20	f_21	f_22	f_23	f_24	f_25	f_26	f_27	f_28	f_29	f_30	f_31	f_32	f_33	f_34	f_35	f_36	f_37	f_38	f_39	f_40	f_41	f_42	f_43	f_44	f_45	f_46	f_47	f_48	f_49	f_50	f_51	f_52	f_53	f_54	f_55	f_56	f_57	f_58	f_59	f_60	f_61	f_62	f_63	f_64	f_65	f_66	f_67	f_68	f_69	f_70	f_71	f_72	f_73	f_74	f_75	f_76	f_77	f_78	f_79	f_80	f_81	f_82	f_83	f_84	f_85	f_86	f_87	f_88	f_89	f_90	f_91	f_92	f_93	f_94	f_95	f_96	f_97	f_98	f_99	f_100	f_101	f_102	f_103	f_104	f_105	f_106	f_107	f_108	f_109	f_110	f_111	f_112	f_113	f_114	f_115	f_116	f_117	f_118	f_119	f_120	f_121	f_122	f_123	f_124	f_125	f_126	f_127	f_128	f_129	f_130	f_131	f_132	f_133	f_134	f_135	f_136	f_137	f_138	f_139	f_140	f_141	f_142	f_143	f_144	f_145	f_146	f_147	f_148	f_149	f_150	f_151	f_152	f_153	f_154	f_155	f_156	f_157	f_158	f_159	f_160	f_161	f_162	f_163	f_164	f_165	f_166	f_167	f_168	f_169	f_170	f_171	f_172	f_173	f_174	f_175	f_176	f_177	f_178	f_179	f_180	f_181	f_182	f_183	f_184	f_185	f_186	f_187	f_188	f_189	f_190	f_191	f_192	f_193	f_194	f_195	f_196	f_197	f_198	f_199	f_200	f_201	f_202	f_203	f_204	f_205	f_206	f_207	f_208	f_209	f_210	f_211	f_212	f_213	f_214	f_215	f_216	f_217	f_218	f_219	f_220	f_221	f_222	f_223	f_224	f_225	f_226	f_227	f_228	f_229	f_230	f_231	f_232	f_233	f_234	f_235	f_236	f_237	f_238	f_239	f_240	f_241	f_242	f_243	f_244	f_245	f_246	f_247	f_248	f_249	f_250	f_251	f_252	f_253	f_254	f_255	f_256	f_257	f_258	f_259	f_260	f_261	f_262	f_263	f_264	f_265	f_266	f_267	f_268	f_269	f_270	f_271	f_272	f_273	f_274	f_275	f_276	f_277	f_278	f_279	f_280	f_281	f_282	f_283	f_284	f_285	f_286	f_287	f_288	f_289	f_290	f_291	f_292	f_293	f_294	f_295	f_296	f_297	f_298	f_299	f_300	f_301	f_302	f_303	f_304	f_305	f_306	f_307	f_308	f_309	f_310	f_311	f_312	f_313	f_314	f_315	f_316	f_317	f_318	f_319	f_320	f_321	f_322	f_323	f_324	f_325	f_326	f_327	f_328	f_329	f_330	f_331	f_332	f_333	f_334	f_335	f_336	f_337	f_338	f_339	f_340	f_341	f_342	f_343	f_344	f_345	f_346	f_347	f_348	f_349	f_350	f_351	f_352	f_353	f_354	f_355	f_356	f_357	f_358	f_359	f_360	f_361	f_362	f_363	f_364	f_365	f_366	f_367	f_368	f_369	f_370	f_371	f_372	f_373	f_374	f_375	f_376	f_377	f_378	f_379	f_380	f_381	f_382	f_383	f_384	f_385	f_386	f_387	f_388	f_389	f_390	f_391	f_392	f_393	f_394	f_395	f_396	f_397	f_398	f_399	f_400	f_401	f_402	f_403	f_404	f_405	f_406	f_407	f_408	f_409	f_410	f_411	f_412	f_413	f_414	f_415	f_416	f_417	f_418	f_419	f_420	f_421	f_422	f_423	f_424	f_425	f_426	f_427	f_428	f_429	f_430	f_431	f_432	f_433	f_434	f_435	f_436	f_437	f_438	f_439	f_440	f_441	f_442	f_443	f_444	f_445	f_446	f_447	f_448	f_449	f_450	f_451	f_452	f_453	f_454	f_455	f_456	f_457	f_458	f_459	f_460	f_461	f_462	f_463	f_464	f_465	f_466	f_467	f_468	f_469	f_470	f_471	f_472	f_473	f_474	f_475	f_476	f_477	f_478	f_479	f_480	f_481	f_482	f_483	f_484	f_485	f_486	f_487	f_488	f_489	f_490	f_491	f_492	f_493	f_494	f_495	f_496	f_497	f_498	f_499	f_500	f_501	f_502	f_503	f_504	f_505	f_506	f_507	f_508	f_509	f_510	f_511
CHEMBL4213416	1.0	-0.5180633764587427	-0.4104852841432546	-0.29160592175990213	-0.29788790066934195	2.1908902300206647	-0.285229613124917	-0.35944893910402465	-0.2916059217599021	-0.30408182027976866	-0.3162277660168379	3.630120904016528	2.2790732233259976	-0.2688287699689622	-0.38938996999982173	-0.3920549099823004	1.1864009313091932	-0.31321991086861617	-0.2335496832484569	-0.2551637007693633	-0.3368056492626247	-0.285229613124917	-0.27216552697590873	-0.2688287699689622	-0.2372580677837464	-0.21424667872399394	-0.3867163683496595	-0.3310063706204223	3.5059473279937716	-0.2335496832484569	-0.4362321715127009	5.0579969684978385	-0.2884299752006152	-0.5180633764587427	-1.632993161855452	-0.34823178754370987	-0.3453957811178867	-0.7482661294546197	-0.3566629789666584	-0.2551637007693633	-0.3101933772205295	-0.39205490998230036	2.679456508228335	2.6223163824902103	-0.4564354645876384	2.969071338884368	-0.5713171854612167	1.7141387356157236	-0.2516611478423583	-0.2884299752006152	-0.4285714285714285	1.4125527120498012	-0.17989569074028863	-0.42085837429913664	-0.5664900467659482	-0.25863030005593585	-0.2335496832484569	-0.30408182027976866	-0.24812105896148035	-0.2654614824371289	-0.3221897397089213	-0.21021382614017328	-0.4311306135592269	-0.2551637007693633	-0.4104852841432546	0.7431765843479694	-0.3566629789666584	-0.4000000000000001	-0.5737304826019501	-0.3162277660168379	-0.23725806778374642	-0.2551637007693633	-0.3510547487497047	2.483654429634424	-0.5857968032832223	-0.6831300510639732	-0.34823178754370987	3.255764119219941	-0.3867163683496595	-0.2445417437817667	-0.30408182027976866	0.9813648266964345	-0.5229274269077644	-0.4182749807056911	-0.35105474874970477	-0.29475829615401566	-0.2754729185172745	-0.37593056870462555	-0.29160592175990213	-0.35666297896665844	-0.197706721895681	-1.0189890373046044	-0.27216552697590873	-0.3101933772205295	-0.24092139328961693	-0.3566629789666584	-0.29788790066934195	-0.3732100136460895	-0.33968311024337877	-0.28842997520061525	-0.2445417437817667	-0.21424667872399394	-0.3009954992990603	-0.3867163683496595	-0.18898223650461365	3.9735970711951314	3.255764119219941	-0.30714755841697555	2.895229341723462	-0.31321991086861617	-0.5374838498865699	-0.38938996999982173	-0.5857968032832223	-0.3538650287239357	-0.36498619161695417	1.607566379009386	-0.27216552697590873	2.919312943091489	-0.40525742021872446	-0.31321991086861617	-0.48377944684689667	-0.1703885502741194	-0.7079381827449593	-0.4130886125698243	-0.2688287699689622	-0.28200394808290996	-0.4208583742991367	-0.23725806778374642	-0.29475829615401566	0.6708203932499369	-0.4911671163532535	-0.3538650287239357	-0.4738862080666385	-0.285229613124917	-0.2884299752006152	-0.4714045207910317	-0.3840338714078345	-1.061445555206044	-0.21424667872399394	0.5302117482590968	-0.3867163683496595	-0.6147924547512001	-0.27216552697590873	-0.5761436842361264	-0.3538650287239357	1.4125527120498014	-0.3162277660168379	-0.25863030005593585	0.8787617550976045	4.030290714482423	-0.2884299752006152	-0.27216552697590873	-0.2654614824371289	-0.25863030005593585	-0.3009954992990603	-0.2787520451991388	-0.5689037284832624	-0.3339135484518729	-0.5326370370896847	-0.3339135484518729	-0.3009954992990603	1.613852463520535	-0.593038713115963	1.986387785430762	2.347382389307855	-0.2372580677837464	-0.3453957811178867	3.9190527374576574	-0.29788790066934195	-0.44637217688914244	3.356967496004507	-0.29160592175990213	-0.25863030005593585	-0.2182178902359924	-0.2916059217599021	-0.2654614824371289	1.27072975032485	-0.34823178754370987	-0.285229613124917	-0.2754729185172745	-0.2297939958485704	-0.3510547487497047	-0.42085837429913664	-0.7305161505085607	-0.9362000791686008	-0.4738862080666385	-0.319217523467037	-0.6366210361057312	-0.5640760748177661	-0.319217523467037	-0.3649861916169541	-0.36222323746395024	1.2498995943610574	-0.285229613124917	-0.45643546458763845	-0.2754729185172745	-0.27216552697590873	1.364179807461319	-0.4689192651690203	-0.4208583742991367	-0.3538650287239357	2.167124493754009	-0.30714755841697555	1.948587303972549	-0.44889485554759906	-0.3132199108686162	-0.36222323746395024	-0.5761436842361264	-0.3704792868174742	3.392610192988376	-0.675737378399486	2.361634939534234	-0.4104852841432546	2.0462140332620877	-0.3453957811178867	0.17989569074028863	-0.21021382614017328	2.0359669177868733	-0.2372580677837464	-0.49362406479924353	-0.2182178902359924	-0.28200394808290996	-0.3251449483461317	1.9578900207451215	-0.31321991086861617	-0.4285714285714285	-0.2551637007693633	-0.4000000000000001	-0.45894028583057983	-0.47636443708895504	-0.37321001364608947	-0.4514128763179673	-0.3425463523417335	-0.34823178754370987	2.361634939534234	-0.2654614824371289	-0.3566629789666584	-0.3566629789666584	-0.40787494947085207	-0.2445417437817667	-0.30408182027976866	2.895229341723462	-0.29475829615401566	-0.3396831102433788	-0.3280836614171587	-0.3310063706204223	-0.285229613124917	-0.3162277660168379	-0.2516611478423583	-0.26882876996896216	-0.47636443708895504	-0.34823178754370987	-0.3566629789666584	2.7607284585090257	-0.24092139328961693	-0.2884299752006152	-0.5785568541403716	-0.25863030005593585	-0.2654614824371289	-0.27216552697590873	-0.44889485554759906	-0.3396831102433788	-0.3453957811178867	-0.27875204519913876	-0.24092139328961693	-0.3368056492626247	-0.28200394808290996	2.4517318391269898	-0.42600643361512924	-0.33968311024337877	-0.3677381088845411	-0.262062429428415	-0.4539263699526326	-0.33968311024337877	-0.3368056492626247	-0.653676575132502	-0.5592469952052407	-0.2787520451991388	-0.3162277660168379	-0.3566629789666584	-0.262062429428415	1.632993161855452	3.5460496450425487	-0.40787494947085207	-0.5156287578025646	-0.3566629789666584	2.8037673068767868	-0.23354968324845685	-0.29475829615401566	-0.3677381088845411	1.7429786813223802	-0.40787494947085207	-0.319217523467037	-0.31321991086861617	3.1926450563976494	-0.45894028583057983	0.6585650045124926	-0.4362321715127009	-0.44131230926308435	-0.2297939958485704	-0.3101933772205295	-0.4311306135592269	-0.8456085166558225	-0.2516611478423583	-0.26206242942841496	-0.4738862080666385	-0.36498619161695417	-0.3280836614171587	-0.28200394808290996	-0.27216552697590873	-0.4911671163532535	2.376096238230542	-0.2754729185172745	-0.42600643361512924	-0.30714755841697555	-0.6487953545045818	2.132563266812153	-0.36498619161695417	-0.39735970711951313	3.075551396651115	0.9273932871430011	-0.3453957811178867	-0.37593056870462555	-0.753370803500884	-0.8239826262859263	-0.3566629789666584	2.077658938966323	-0.3947114154027919	-0.41568511838536965	-0.3867163683496595	-0.7004671338524576	-0.6905446052586697	1.552985739111069	-0.27216552697590873	-0.6414861064580909	-0.36498619161695417	-0.31321991086861617	3.7198399565472684	0.07943014707895375	-0.27875204519913876	-0.28200394808290996	-0.39735970711951313	-0.25863030005593585	-0.5664900467659482	-0.3840338714078345	-0.3310063706204223	-0.26206242942841496	2.5334965267714087	-0.21021382614017323	4.150731432961115	-0.1551678012635246	1.7141387356157236	-0.2884299752006152	1.1825803315637815	2.5166114784235836	-0.285229613124917	3.866522985836241	0.0	-0.2654614824371289	-0.3677381088845411	-0.18448755080477627	-0.3594489391040247	1.6201851746019649	-0.2551637007693633	0.6269075692928592	-0.3009954992990603	-0.19770672189568103	-0.4104852841432546	-0.48131095111188943	-0.29788790066934195	-0.583383351196948	-0.22598858421985296	-0.3251449483461317	-0.319217523467037	-0.34823178754370987	2.420788105919938	-0.2884299752006152	-0.580970055554272	-0.4837794468468967	0.30408182027976866	-0.3101933772205295	-0.3786412228313766	0.7559289460184545	-0.30408182027976866	-0.31321991086861617	-0.826666382954529	-0.3867163683496595	-0.46643032910435495	-0.39735970711951313	-0.3339135484518729	-0.6269075692928592	-0.18898223650461365	-0.42600643361512924	-0.8538133812332175	-0.49116711635325344	-0.28200394808290996	-0.21021382614017328	-0.3310063706204224	-0.197706721895681	-0.38403387140783457	-0.3425463523417335	-0.3759305687046256	-0.3251449483461317	-0.18448755080477625	-0.3510547487497047	2.895229341723462	-0.25863030005593585	-0.42857142857142855	2.4056670681025647	-0.197706721895681	2.782036309503753	-0.3566629789666584	-0.6341906670692988	-0.3009954992990603	-0.30408182027976866	0.7330411977442751	-0.3368056492626247	2.7398296784046026	2.7398296784046026	-0.2787520451991388	2.7193265420146333	-0.6781992578952081	-0.3339135484518729	-0.29788790066934195	0.6317616694747663	-0.3009954992990603	-0.3009954992990603	3.2237954561133595	-0.28200394808290996	-1.392871912954891	-0.39205490998230036	-0.3947114154027919	-0.2754729185172745	-0.3786412228313766	1.27072975032485	-0.4539263699526326	1.4225669342651175	-0.3280836614171587	-0.3947114154027919	2.1439429162340526	-0.2654614824371289	-0.3280836614171587	-0.3538650287239357	-0.25863030005593585	-0.29160592175990213	-0.2372580677837464	-0.2551637007693633	-0.4714045207910317	-0.4714045207910317	-0.7154357701654478	1.9767883821219476	-0.2688287699689622	-0.2787520451991388	-0.3973597071195131	-0.28200394808290996	-0.3786412228313765	2.347382389307855	1.1749880913972588	-0.26882876996896216	-0.4788393160119237	-0.3453957811178867	-0.2182178902359924	-0.3101933772205295	-0.3280836614171587	-0.42600643361512913	-0.5737304826019501	3.4670460284318847	-0.3566629789666584	-0.29160592175990213	-0.6855990686613488	2.895229341723462	-0.23725806778374642	-0.48624490591381186	1.9212434698882477	-0.5302117482590968	-0.22598858421985296	-0.3162277660168379	-0.3251449483461317	-0.37593056870462555	-0.23354968324845685	-0.3425463523417335	-0.4714045207910317	-0.3510547487497047	-0.36222323746395024	-0.2688287699689622	2.550663120237789	-0.40525742021872446	1.5768128607460705	-0.36222323746395024	-0.2688287699689622	-0.6147924547512	-0.2787520451991388	1.4327007988227578	-0.3510547487497047	-0.2445417437817667	-0.197706721895681	-0.24092139328961693	-0.29475829615401566	-0.41827498070569097	2.0462140332620877	-0.2516611478423583	2.4361409254588806	-0.2688287699689622	2.84855853271189	3.162277660168379	-0.39735970711951313	-0.3368056492626247	-0.3704792868174742	-0.9691283333200867	-0.20611564746694744	-0.2445417437817667	3.429285639896449	-0.7636272329274841
CHEMBL3647971	1.0	-0.5180633764587427	2.4361409254588806	-0.29160592175990213	-0.29788790066934195	2.1908902300206647	-0.285229613124917	-0.35944893910402465	3.429285639896449	-0.30408182027976866	-0.3162277660168379	-0.2754729185172745	-0.43877484486463125	-0.2688287699689622	-0.38938996999982173	-0.3920549099823004	-0.8428853801526439	-0.31321991086861617	-0.2335496832484569	-0.2551637007693633	-0.3368056492626247	-0.285229613124917	-0.27216552697590873	-0.2688287699689622	-0.2372580677837464	-0.21424667872399394	-0.3867163683496595	-0.3310063706204223	-0.285229613124917	-0.2335496832484569	-0.4362321715127009	-0.19770672189568098	-0.2884299752006152	-0.5180633764587427	0.6123724356957945	-0.34823178754370987	-0.3453957811178867	1.33642291243205	-0.3566629789666584	-0.2551637007693633	-0.3101933772205295	-0.39205490998230036	-0.3732100136460895	-0.3813422387463322	-0.4564354645876384	-0.3368056492626247	-0.5713171854612167	-0.5833833511969478	-0.2516611478423583	-0.2884299752006152	-0.4285714285714285	1.4125527120498012	5.558776843874918	-0.42085837429913664	1.7652560812126	-0.25863030005593585	-0.2335496832484569	-0.30408182027976866	-0.24812105896148035	3.7670248460125912	-0.3221897397089213	-0.21021382614017328	-0.4311306135592269	-0.2551637007693633	-0.4104852841432546	0.7431765843479694	-0.3566629789666584	-0.4000000000000001	-0.5737304826019501	-0.3162277660168379	-0.23725806778374642	-0.2551637007693633	-0.3510547487497047	2.483654429634424	-0.5857968032832223	-0.6831300510639732	-0.34823178754370987	-0.30714755841697555	-0.3867163683496595	-0.2445417437817667	-0.30408182027976866	-1.0189890373046044	1.9123112473050363	-0.4182749807056911	-0.35105474874970477	-0.29475829615401566	-0.2754729185172745	-0.37593056870462555	-0.29160592175990213	-0.35666297896665844	-0.197706721895681	-1.0189890373046044	-0.27216552697590873	-0.3101933772205295	-0.24092139328961693	-0.3566629789666584	-0.29788790066934195	-0.3732100136460895	-0.33968311024337877	-0.28842997520061525	-0.2445417437817667	-0.21424667872399394	-0.3009954992990603	-0.3867163683496595	-0.18898223650461365	-0.2516611478423583	-0.30714755841697555	-0.30714755841697555	-0.3453957811178867	-0.31321991086861617	1.860521018838127	-0.38938996999982173	-0.5857968032832223	-0.3538650287239357	-0.36498619161695417	-0.6220582944862406	-0.27216552697590873	-0.3425463523417334	-0.40525742021872446	-0.31321991086861617	-0.48377944684689667	-0.1703885502741194	-0.7079381827449593	-0.4130886125698243	-0.2688287699689622	-0.28200394808290996	2.376096238230542	-0.23725806778374642	-0.29475829615401566	-1.4907119849998598	-0.4911671163532535	-0.3538650287239357	2.110211234211271	-0.285229613124917	-0.2884299752006152	-0.4714045207910317	-0.3840338714078345	0.9421114395319917	-0.21424667872399394	0.5302117482590968	-0.3867163683496595	-0.6147924547512001	-0.27216552697590873	1.7356781430761294	-0.3538650287239357	-0.7079381827449593	-0.3162277660168379	-0.25863030005593585	0.8787617550976045	-0.24812105896148035	-0.2884299752006152	-0.27216552697590873	-0.2654614824371289	-0.25863030005593585	-0.3009954992990603	-0.2787520451991388	-0.5689037284832624	-0.3339135484518729	-0.5326370370896847	-0.3339135484518729	-0.3009954992990603	1.613852463520535	-0.593038713115963	-0.5034263739107432	-0.42600643361512924	-0.2372580677837464	-0.3453957811178867	-0.2551637007693633	-0.29788790066934195	-0.44637217688914244	-0.29788790066934195	-0.29160592175990213	-0.25863030005593585	4.58257569495584	-0.2916059217599021	-0.2654614824371289	1.27072975032485	-0.34823178754370987	-0.285229613124917	-0.2754729185172745	-0.2297939958485704	-0.3510547487497047	-0.42085837429913664	1.3688951288809068	1.068147741333303	-0.4738862080666385	-0.319217523467037	-0.6366210361057312	-0.5640760748177661	-0.319217523467037	-0.3649861916169541	-0.36222323746395024	-0.8000642647709596	-0.285229613124917	2.1908902300206647	-0.2754729185172745	-0.27216552697590873	1.364179807461319	-0.4689192651690203	2.376096238230542	-0.3538650287239357	-0.4614409568449601	-0.30714755841697555	-0.5131922998581169	2.2276931616427578	-0.3132199108686162	-0.36222323746395024	1.7356781430761294	-0.3704792868174742	-0.2947582961540156	1.479864858694874	-0.42343546975013074	-0.4104852841432546	2.0462140332620877	-0.3453957811178867	0.17989569074028863	-0.21021382614017328	-0.49116711635325344	-0.2372580677837464	-0.49362406479924353	-0.2182178902359924	-0.28200394808290996	-0.3251449483461317	-0.5107539184552491	-0.31321991086861617	-0.4285714285714285	-0.2551637007693633	-0.4000000000000001	2.1789327084028427	2.0992331125953947	-0.37321001364608947	2.2152668930418766	-0.3425463523417335	-0.34823178754370987	-0.42343546975013074	-0.2654614824371289	-0.3566629789666584	-0.3566629789666584	-0.40787494947085207	-0.2445417437817667	-0.30408182027976866	-0.3453957811178867	3.3926101929883763	-0.3396831102433788	-0.3280836614171587	3.021089890583219	-0.285229613124917	-0.3162277660168379	-0.2516611478423583	-0.26882876996896216	-0.47636443708895504	-0.34823178754370987	-0.3566629789666584	-0.36222323746395024	-0.24092139328961693	-0.2884299752006152	1.7284386017443605	-0.25863030005593585	-0.2654614824371289	-0.27216552697590873	-0.44889485554759906	-0.3396831102433788	-0.3453957811178867	-0.27875204519913876	-0.24092139328961693	-0.3368056492626247	-0.28200394808290996	-0.40787494947085207	2.347382389307855	-0.33968311024337877	-0.3677381088845411	-0.262062429428415	-0.4539263699526326	-0.33968311024337877	-0.3368056492626247	1.5298085292367978	-0.5592469952052407	-0.2787520451991388	-0.3162277660168379	-0.3566629789666584	-0.262062429428415	-0.6123724356957945	-0.28200394808290996	-0.40787494947085207	-0.5156287578025646	-0.3566629789666584	-0.3566629789666584	-0.23354968324845685	-0.29475829615401566	-0.3677381088845411	-0.5737304826019501	-0.40787494947085207	-0.319217523467037	-0.31321991086861617	-0.31321991086861617	-0.45894028583057983	0.6585650045124926	-0.4362321715127009	-0.44131230926308435	-0.2297939958485704	-0.3101933772205295	-0.4311306135592269	1.1825803315637815	-0.2516611478423583	-0.26206242942841496	-0.4738862080666385	-0.36498619161695417	-0.3280836614171587	3.5460496450425487	-0.27216552697590873	-0.4911671163532535	-0.4208583742991367	-0.2754729185172745	2.347382389307855	-0.30714755841697555	-0.6487953545045818	-0.4689192651690203	-0.36498619161695417	-0.39735970711951313	3.075551396651115	-1.0782911779323707	-0.3453957811178867	-0.37593056870462555	1.3273676061682242	1.213617821661442	-0.3566629789666584	-0.4813109511118895	-0.3947114154027919	-0.41568511838536965	-0.3867163683496595	-0.7004671338524576	-0.6905446052586697	-0.6439209162167847	3.6742346141747677	-0.6414861064580909	-0.36498619161695417	-0.31321991086861617	-0.2688287699689622	0.07943014707895375	-0.27875204519913876	-0.28200394808290996	-0.39735970711951313	-0.25863030005593585	-0.5664900467659482	-0.3840338714078345	-0.3310063706204223	3.815884643140578	-0.3947114154027919	-0.21021382614017323	-0.24092139328961693	-0.1551678012635246	1.7141387356157236	-0.2884299752006152	-0.8456085166558225	2.5166114784235836	-0.285229613124917	-0.25863030005593585	0.0	-0.2654614824371289	-0.3677381088845411	-0.18448755080477627	-0.3594489391040247	-0.6172133998483675	-0.2551637007693633	-1.5951314818673865	-0.3009954992990603	-0.19770672189568103	-0.4104852841432546	-0.48131095111188943	-0.29788790066934195	1.7141387356157238	-0.22598858421985296	-0.3251449483461317	-0.319217523467037	-0.34823178754370987	2.420788105919938	-0.2884299752006152	1.7212591086918494	2.06705763652765	0.30408182027976866	-0.3101933772205295	-0.3786412228313766	0.7559289460184545	-0.30408182027976866	-0.31321991086861617	1.209677834516473	-0.3867163683496595	-0.46643032910435495	-0.39735970711951313	-0.3339135484518729	1.5951314818673865	-0.18898223650461365	2.347382389307855	-0.8538133812332175	2.0359669177868733	-0.28200394808290996	-0.21021382614017328	-0.3310063706204224	-0.197706721895681	-0.38403387140783457	-0.3425463523417335	-0.3759305687046256	-0.3251449483461317	-0.18448755080477625	-0.3510547487497047	-0.3453957811178867	-0.25863030005593585	-0.42857142857142855	-0.41568511838536965	-0.197706721895681	-0.3594489391040247	-0.3566629789666584	1.576812860746071	-0.3009954992990603	-0.30408182027976866	0.7330411977442751	-0.3368056492626247	-0.36498619161695417	-0.36498619161695417	-0.2787520451991388	-0.3677381088845411	1.4744929139313727	-0.3339135484518729	-0.29788790066934195	0.6317616694747663	-0.3009954992990603	-0.3009954992990603	-0.3101933772205295	-0.28200394808290996	0.7179411047772241	-0.39205490998230036	-0.3947114154027919	-0.2754729185172745	-0.3786412228313766	1.27072975032485	-0.4539263699526326	1.4225669342651175	-0.3280836614171587	-0.3947114154027919	-0.46643032910435495	-0.2654614824371289	-0.3280836614171587	-0.3538650287239357	-0.25863030005593585	-0.29160592175990213	-0.2372580677837464	-0.2551637007693633	2.121320343559643	2.121320343559643	1.3977495139343472	-0.5058710426690024	-0.2688287699689622	-0.2787520451991388	-0.3973597071195131	-0.28200394808290996	-0.3786412228313765	-0.42600643361512924	1.1749880913972588	3.719839956547268	-0.4788393160119237	2.895229341723462	-0.2182178902359924	-0.3101933772205295	-0.3280836614171587	-0.42600643361512913	-0.5737304826019501	-0.2884299752006152	-0.3566629789666584	-0.29160592175990213	-0.6855990686613488	2.895229341723462	-0.23725806778374642	2.0565768151764505	-0.5204962388541866	1.8860389330930731	-0.22598858421985296	-0.3162277660168379	3.075551396651115	-0.37593056870462555	-0.23354968324845685	-0.3425463523417335	-0.4714045207910317	-0.3510547487497047	-0.36222323746395024	-0.2688287699689622	-0.39205490998230036	-0.40525742021872446	-0.6341906670692987	-0.36222323746395024	-0.2688287699689622	1.626565180284604	-0.2787520451991388	-0.6979824404521128	-0.3510547487497047	-0.2445417437817667	-0.197706721895681	-0.24092139328961693	-0.29475829615401566	-0.41827498070569097	-0.4887074293033724	-0.2516611478423583	-0.4104852841432546	-0.2688287699689622	-0.3510547487497047	-0.3162277660168379	-0.39735970711951313	-0.3368056492626247	-0.3704792868174742	1.0318550862857883	-0.20611564746694744	-0.2445417437817667	-0.2916059217599021	-0.7636272329274841
CHEMBL4111890	1.0	1.9302657656203523	-0.4104852841432546	-0.29160592175990213	3.356967496004507	-0.45643546458763845	-0.285229613124917	-0.35944893910402465	-0.2916059217599021	-0.30408182027976866	3.162277660168379	-0.2754729185172745	-0.43877484486463125	-0.2688287699689622	-0.38938996999982173	-0.3920549099823004	-0.8428853801526439	-0.31321991086861617	-0.2335496832484569	-0.2551637007693633	-0.3368056492626247	-0.285229613124917	-0.27216552697590873	-0.2688287699689622	-0.2372580677837464	-0.21424667872399394	-0.3867163683496595	-0.3310063706204223	-0.285229613124917	-0.2335496832484569	-0.4362321715127009	-0.19770672189568098	-0.2884299752006152	1.9302657656203523	0.6123724356957945	-0.34823178754370987	-0.3453957811178867	1.33642291243205	-0.3566629789666584	-0.2551637007693633	-0.3101933772205295	-0.39205490998230036	-0.3732100136460895	-0.3813422387463322	-0.4564354645876384	-0.3368056492626247	-0.5713171854612167	-0.5833833511969478	-0.2516611478423583	-0.2884299752006152	-0.4285714285714285	1.4125527120498012	-0.17989569074028863	-0.42085837429913664	-0.5664900467659482	-0.25863030005593585	-0.2335496832484569	-0.30408182027976866	-0.24812105896148035	-0.2654614824371289	-0.3221897397089213	-0.21021382614017328	-0.4311306135592269	3.9190527374576574	-0.4104852841432546	0.7431765843479694	-0.3566629789666584	-0.4000000000000001	1.7429786813223802	-0.3162277660168379	-0.23725806778374642	-0.2551637007693633	-0.3510547487497047	2.483654429634424	-0.5857968032832223	1.4638501094227998	-0.34823178754370987	-0.30714755841697555	-0.3867163683496595	-0.2445417437817667	-0.30408182027976866	-1.0189890373046044	-0.5229274269077644	-0.4182749807056911	2.8485585327118903	-0.29475829615401566	-0.2754729185172745	-0.37593056870462555	-0.29160592175990213	-0.35666297896665844	-0.197706721895681	0.9813648266964345	-0.27216552697590873	-0.3101933772205295	-0.24092139328961693	-0.3566629789666584	-0.29788790066934195	-0.3732100136460895	-0.33968311024337877	3.467046028431885	4.089281382128433	-0.21424667872399394	-0.3009954992990603	-0.3867163683496595	-0.18898223650461365	-0.2516611478423583	-0.30714755841697555	-0.30714755841697555	-0.3453957811178867	-0.31321991086861617	1.860521018838127	-0.38938996999982173	-0.5857968032832223	-0.3538650287239357	-0.36498619161695417	-0.6220582944862406	-0.27216552697590873	-0.3425463523417334	-0.40525742021872446	-0.31321991086861617	-0.48377944684689667	-0.1703885502741194	-0.7079381827449593	-0.4130886125698243	-0.2688287699689622	-0.28200394808290996	-0.4208583742991367	-0.23725806778374642	-0.29475829615401566	0.6708203932499369	-0.4911671163532535	-0.3538650287239357	-0.4738862080666385	-0.285229613124917	-0.2884299752006152	-0.4714045207910317	-0.3840338714078345	0.9421114395319917	-0.21424667872399394	0.5302117482590968	-0.3867163683496595	1.6265651802846042	-0.27216552697590873	-0.5761436842361264	-0.3538650287239357	-0.7079381827449593	-0.3162277660168379	-0.25863030005593585	0.8787617550976045	-0.24812105896148035	-0.2884299752006152	-0.27216552697590873	-0.2654614824371289	-0.25863030005593585	-0.3009954992990603	-0.2787520451991388	1.7577666482623877	-0.3339135484518729	1.8774511165501653	-0.3339135484518729	3.3223088130179295	1.613852463520535	1.686230557775509	-0.5034263739107432	-0.42600643361512924	-0.2372580677837464	2.895229341723462	-0.2551637007693633	-0.29788790066934195	-0.44637217688914244	-0.29788790066934195	-0.29160592175990213	-0.25863030005593585	-0.2182178902359924	-0.2916059217599021	-0.2654614824371289	1.27072975032485	-0.34823178754370987	-0.285229613124917	-0.2754729185172745	-0.2297939958485704	-0.3510547487497047	-0.42085837429913664	1.3688951288809068	1.068147741333303	-0.4738862080666385	-0.319217523467037	1.5707932086521845	-0.5640760748177661	-0.319217523467037	-0.3649861916169541	2.760728458509026	-0.8000642647709596	-0.285229613124917	-0.45643546458763845	-0.2754729185172745	-0.27216552697590873	-0.733041197744275	-0.4689192651690203	-0.4208583742991367	-0.3538650287239357	2.167124493754009	-0.30714755841697555	1.948587303972549	-0.44889485554759906	-0.3132199108686162	2.760728458509026	-0.5761436842361264	-0.3704792868174742	-0.2947582961540156	-0.675737378399486	2.361634939534234	-0.4104852841432546	-0.48870742930337235	-0.3453957811178867	0.17989569074028863	-0.21021382614017328	-0.49116711635325344	-0.2372580677837464	-0.49362406479924353	-0.2182178902359924	-0.28200394808290996	-0.3251449483461317	-0.5107539184552491	-0.31321991086861617	-0.4285714285714285	-0.2551637007693633	-0.4000000000000001	-0.45894028583057983	-0.47636443708895504	-0.37321001364608947	-0.4514128763179673	-0.3425463523417335	-0.34823178754370987	-0.42343546975013074	-0.2654614824371289	-0.3566629789666584	-0.3566629789666584	-0.40787494947085207	-0.2445417437817667	-0.30408182027976866	2.895229341723462	-0.29475829615401566	-0.3396831102433788	-0.3280836614171587	-0.3310063706204223	-0.285229613124917	-0.3162277660168379	-0.2516611478423583	-0.26882876996896216	2.0992331125953947	-0.34823178754370987	-0.3566629789666584	-0.36222323746395024	-0.24092139328961693	-0.2884299752006152	1.7284386017443605	-0.25863030005593585	-0.2654614824371289	-0.27216552697590873	-0.44889485554759906	-0.3396831102433788	-0.3453957811178867	-0.27875204519913876	-0.24092139328961693	-0.3368056492626247	3.5460496450425487	-0.40787494947085207	-0.42600643361512924	-0.33968311024337877	-0.3677381088845411	-0.262062429428415	-0.4539263699526326	-0.33968311024337877	-0.3368056492626247	-0.653676575132502	-0.5592469952052407	-0.2787520451991388	-0.3162277660168379	-0.3566629789666584	-0.262062429428415	1.632993161855452	-0.28200394808290996	-0.40787494947085207	-0.5156287578025646	-0.3566629789666584	-0.3566629789666584	4.281744192888375	-0.29475829615401566	-0.3677381088845411	-0.5737304826019501	-0.40787494947085207	3.1326601031765153	-0.31321991086861617	-0.31321991086861617	-0.45894028583057983	0.6585650045124926	-0.4362321715127009	-0.44131230926308435	-0.2297939958485704	-0.3101933772205295	-0.4311306135592269	1.1825803315637815	-0.2516611478423583	-0.26206242942841496	-0.4738862080666385	2.7398296784046026	-0.3280836614171587	-0.28200394808290996	-0.27216552697590873	2.0359669177868733	-0.4208583742991367	-0.2754729185172745	-0.42600643361512924	-0.30714755841697555	-0.6487953545045818	-0.4689192651690203	-0.36498619161695417	2.5166114784235836	-0.3251449483461317	-1.0782911779323707	-0.3453957811178867	-0.37593056870462555	-0.753370803500884	1.213617821661442	-0.3566629789666584	-0.4813109511118895	-0.3947114154027919	-0.41568511838536965	-0.3867163683496595	1.4276187299469134	1.4481323760764333	-0.6439209162167847	-0.27216552697590873	1.558880215693855	-0.36498619161695417	-0.31321991086861617	-0.2688287699689622	0.07943014707895375	-0.27875204519913876	-0.28200394808290996	-0.39735970711951313	-0.25863030005593585	1.7652560812126	-0.3840338714078345	-0.3310063706204223	-0.26206242942841496	-0.3947114154027919	-0.21021382614017323	-0.24092139328961693	-0.1551678012635246	-0.5833833511969478	-0.2884299752006152	-0.8456085166558225	2.5166114784235836	-0.285229613124917	-0.25863030005593585	0.0	-0.2654614824371289	-0.3677381088845411	-0.18448755080477627	-0.3594489391040247	-0.6172133998483675	-0.2551637007693633	0.6269075692928592	-0.3009954992990603	-0.19770672189568103	-0.4104852841432546	2.0776589389663225	-0.29788790066934195	-0.583383351196948	-0.22598858421985296	3.075551396651115	-0.319217523467037	-0.34823178754370987	-0.4130886125698243	3.4670460284318847	-0.580970055554272	-0.4837794468468967	0.30408182027976866	-0.3101933772205295	-0.3786412228313766	0.7559289460184545	-0.30408182027976866	-0.31321991086861617	1.209677834516473	-0.3867163683496595	-0.46643032910435495	2.5166114784235836	-0.3339135484518729	-0.6269075692928592	-0.18898223650461365	-0.42600643361512924	-0.8538133812332175	-0.49116711635325344	-0.28200394808290996	-0.21021382614017328	3.0210898905832195	-0.197706721895681	-0.38403387140783457	-0.3425463523417335	-0.3759305687046256	-0.3251449483461317	-0.18448755080477625	-0.3510547487497047	2.895229341723462	-0.25863030005593585	-0.42857142857142855	-0.41568511838536965	-0.197706721895681	-0.3594489391040247	2.8037673068767868	-0.6341906670692988	-0.3009954992990603	-0.30408182027976866	0.7330411977442751	-0.3368056492626247	-0.36498619161695417	-0.36498619161695417	-0.2787520451991388	2.7193265420146333	1.4744929139313727	-0.3339135484518729	-0.29788790066934195	0.6317616694747663	-0.3009954992990603	-0.3009954992990603	-0.3101933772205295	-0.28200394808290996	-1.392871912954891	-0.39205490998230036	-0.3947114154027919	-0.2754729185172745	-0.3786412228313766	-0.7869493885260492	2.203000456008648	-0.7029546209132079	3.048003048004572	2.5334965267714087	-0.46643032910435495	-0.2654614824371289	3.048003048004572	-0.3538650287239357	-0.25863030005593585	-0.29160592175990213	-0.2372580677837464	-0.2551637007693633	-0.4714045207910317	2.121320343559643	-0.7154357701654478	-0.5058710426690024	-0.2688287699689622	-0.2787520451991388	-0.3973597071195131	-0.28200394808290996	-0.3786412228313765	-0.42600643361512924	-0.8510724553904468	-0.26882876996896216	-0.4788393160119237	2.895229341723462	-0.2182178902359924	-0.3101933772205295	-0.3280836614171587	-0.42600643361512913	1.7429786813223802	-0.2884299752006152	-0.3566629789666584	-0.29160592175990213	1.458578410779536	-0.3453957811178867	-0.23725806778374642	-0.48624490591381186	-0.5204962388541866	-0.5302117482590968	-0.22598858421985296	-0.3162277660168379	-0.3251449483461317	-0.37593056870462555	-0.23354968324845685	-0.3425463523417335	2.121320343559643	-0.3510547487497047	-0.36222323746395024	-0.2688287699689622	-0.39205490998230036	-0.40525742021872446	-0.6341906670692987	2.760728458509026	-0.2688287699689622	-0.6147924547512	-0.2787520451991388	-0.6979824404521128	-0.3510547487497047	-0.2445417437817667	-0.197706721895681	-0.24092139328961693	-0.29475829615401566	-0.41827498070569097	-0.4887074293033724	-0.2516611478423583	2.4361409254588806	-0.2688287699689622	-0.3510547487497047	3.162277660168379	-0.39735970711951313	-0.3368056492626247	-0.3704792868174742	1.0318550862857883	-0.20611564746694744	-0.2445417437817667	-0.2916059217599021	-0.7636272329274841
CHEMBL3921017	1.0	-0.5180633764587427	-0.4104852841432546	-0.29160592175990213	-0.29788790066934195	-0.45643546458763845	-0.285229613124917	-0.35944893910402465	-0.2916059217599021	-0.30408182027976866	-0.3162277660168379	-0.2754729185172745	-0.43877484486463125	-0.2688287699689622	-0.38938996999982173	-0.3920549099823004	1.1864009313091932	-0.31321991086861617	-0.2335496832484569	-0.2551637007693633	-0.3368056492626247	-0.285229613124917	-0.27216552697590873	-0.2688287699689622	-0.2372580677837464	-0.21424667872399394	-0.3867163683496595	-0.3310063706204223	-0.285229613124917	-0.2335496832484569	-0.4362321715127009	-0.19770672189568098	-0.2884299752006152	-0.5180633764587427	0.6123724356957945	-0.34823178754370987	-0.3453957811178867	1.33642291243205	-0.3566629789666584	-0.2551637007693633	-0.3101933772205295	-0.39205490998230036	-0.3732100136460895	-0.3813422387463322	-0.4564354645876384	-0.3368056492626247	-0.5713171854612167	-0.5833833511969478	-0.2516611478423583	-0.2884299752006152	-0.4285714285714285	1.4125527120498012	-0.17989569074028863	-0.42085837429913664	-0.5664900467659482	-0.25863030005593585	-0.2335496832484569	-0.30408182027976866	-0.24812105896148035	-0.2654614824371289	-0.3221897397089213	-0.21021382614017328	-0.4311306135592269	-0.2551637007693633	-0.4104852841432546	0.7431765843479694	-0.3566629789666584	-0.4000000000000001	-0.5737304826019501	-0.3162277660168379	-0.23725806778374642	-0.2551637007693633	-0.3510547487497047	-0.40263250316477917	-0.5857968032832223	-0.6831300510639732	-0.34823178754370987	-0.30714755841697555	-0.3867163683496595	4.089281382128433	-0.30408182027976866	0.9813648266964345	1.9123112473050363	-0.4182749807056911	-0.35105474874970477	-0.29475829615401566	-0.2754729185172745	-0.37593056870462555	-0.29160592175990213	-0.35666297896665844	-0.197706721895681	-1.0189890373046044	-0.27216552697590873	-0.3101933772205295	-0.24092139328961693	-0.3566629789666584	-0.29788790066934195	-0.3732100136460895	-0.33968311024337877	-0.28842997520061525	-0.2445417437817667	-0.21424667872399394	-0.3009954992990603	-0.3867163683496595	-0.18898223650461365	-0.2516611478423583	-0.30714755841697555	-0.30714755841697555	-0.3453957811178867	-0.31321991086861617	1.860521018838127	-0.38938996999982173	-0.5857968032832223	-0.3538650287239357	-0.36498619161695417	-0.6220582944862406	-0.27216552697590873	-0.3425463523417334	-0.40525742021872446	-0.31321991086861617	-0.48377944684689667	-0.1703885502741194	1.4125527120498014	-0.4130886125698243	-0.2688287699689622	-0.28200394808290996	-0.4208583742991367	-0.23725806778374642	-0.29475829615401566	0.6708203932499369	-0.4911671163532535	-0.3538650287239357	2.110211234211271	-0.285229613124917	-0.2884299752006152	-0.4714045207910317	-0.3840338714078345	0.9421114395319917	-0.21424667872399394	0.5302117482590968	2.5858745112537473	-0.6147924547512001	-0.27216552697590873	1.7356781430761294	-0.3538650287239357	-0.7079381827449593	3.162277660168379	-0.25863030005593585	0.8787617550976045	-0.24812105896148035	-0.2884299752006152	-0.27216552697590873	-0.2654614824371289	-0.25863030005593585	-0.3009954992990603	-0.2787520451991388	-0.5689037284832624	-0.3339135484518729	-0.5326370370896847	2.994787137677735	-0.3009954992990603	1.613852463520535	-0.593038713115963	-0.5034263739107432	-0.42600643361512924	-0.2372580677837464	-0.3453957811178867	-0.2551637007693633	-0.29788790066934195	-0.44637217688914244	-0.29788790066934195	3.4292856398964497	-0.25863030005593585	-0.2182178902359924	-0.2916059217599021	-0.2654614824371289	1.27072975032485	-0.34823178754370987	-0.285229613124917	-0.2754729185172745	-0.2297939958485704	-0.3510547487497047	-0.42085837429913664	1.3688951288809068	1.068147741333303	-0.4738862080666385	-0.319217523467037	-0.6366210361057312	-0.5640760748177661	-0.319217523467037	-0.3649861916169541	-0.36222323746395024	-0.8000642647709596	-0.285229613124917	2.1908902300206647	-0.2754729185172745	-0.27216552697590873	1.364179807461319	-0.4689192651690203	-0.4208583742991367	-0.3538650287239357	-0.4614409568449601	-0.30714755841697555	-0.5131922998581169	2.2276931616427578	-0.3132199108686162	-0.36222323746395024	1.7356781430761294	-0.3704792868174742	-0.2947582961540156	1.479864858694874	-0.42343546975013074	-0.4104852841432546	-0.48870742930337235	-0.3453957811178867	0.17989569074028863	-0.21021382614017328	-0.49116711635325344	-0.2372580677837464	-0.49362406479924353	-0.2182178902359924	-0.28200394808290996	-0.3251449483461317	-0.5107539184552491	3.1926450563976494	-0.4285714285714285	-0.2551637007693633	-0.4000000000000001	-0.45894028583057983	2.0992331125953947	-0.37321001364608947	2.2152668930418766	-0.3425463523417335	-0.34823178754370987	-0.42343546975013074	-0.2654614824371289	2.8037673068767868	-0.3566629789666584	-0.40787494947085207	-0.2445417437817667	-0.30408182027976866	-0.3453957811178867	-0.29475829615401566	-0.3396831102433788	-0.3280836614171587	-0.3310063706204223	-0.285229613124917	-0.3162277660168379	-0.2516611478423583	-0.26882876996896216	-0.47636443708895504	-0.34823178754370987	-0.3566629789666584	-0.36222323746395024	-0.24092139328961693	-0.2884299752006152	-0.5785568541403716	-0.25863030005593585	-0.2654614824371289	-0.27216552697590873	-0.44889485554759906	-0.3396831102433788	-0.3453957811178867	-0.27875204519913876	-0.24092139328961693	-0.3368056492626247	-0.28200394808290996	-0.40787494947085207	2.347382389307855	-0.33968311024337877	-0.3677381088845411	-0.262062429428415	-0.4539263699526326	-0.33968311024337877	-0.3368056492626247	1.5298085292367978	-0.5592469952052407	-0.2787520451991388	-0.3162277660168379	-0.3566629789666584	-0.262062429428415	-0.6123724356957945	-0.28200394808290996	-0.40787494947085207	-0.5156287578025646	-0.3566629789666584	-0.3566629789666584	-0.23354968324845685	-0.29475829615401566	-0.3677381088845411	-0.5737304826019501	-0.40787494947085207	-0.319217523467037	-0.31321991086861617	-0.31321991086861617	-0.45894028583057983	0.6585650045124926	-0.4362321715127009	2.265968972562375	-0.2297939958485704	-0.3101933772205295	-0.4311306135592269	-0.8456085166558225	-0.2516611478423583	-0.26206242942841496	-0.4738862080666385	-0.36498619161695417	3.048003048004572	-0.28200394808290996	-0.27216552697590873	-0.4911671163532535	-0.4208583742991367	-0.2754729185172745	2.347382389307855	-0.30714755841697555	-0.6487953545045818	-0.4689192651690203	-0.36498619161695417	-0.39735970711951313	-0.3251449483461317	-1.0782911779323707	-0.3453957811178867	-0.37593056870462555	1.3273676061682242	1.213617821661442	-0.3566629789666584	2.077658938966323	-0.3947114154027919	-0.41568511838536965	-0.3867163683496595	-0.7004671338524576	-0.6905446052586697	-0.6439209162167847	-0.27216552697590873	-0.6414861064580909	2.7398296784046026	-0.31321991086861617	-0.2688287699689622	0.07943014707895375	-0.27875204519913876	-0.28200394808290996	-0.39735970711951313	-0.25863030005593585	1.7652560812126	-0.3840338714078345	-0.3310063706204223	-0.26206242942841496	-0.3947114154027919	-0.21021382614017323	-0.24092139328961693	-0.1551678012635246	1.7141387356157236	-0.2884299752006152	-0.8456085166558225	-0.39735970711951313	-0.285229613124917	3.866522985836241	0.0	-0.2654614824371289	-0.3677381088845411	-0.18448755080477627	-0.3594489391040247	-0.6172133998483675	-0.2551637007693633	-1.5951314818673865	-0.3009954992990603	-0.19770672189568103	-0.4104852841432546	-0.48131095111188943	-0.29788790066934195	1.7141387356157238	-0.22598858421985296	-0.3251449483461317	-0.319217523467037	-0.34823178754370987	-0.4130886125698243	-0.2884299752006152	-0.580970055554272	2.06705763652765	0.30408182027976866	-0.3101933772205295	2.6410225292488514	0.7559289460184545	-0.30408182027976866	-0.31321991086861617	1.209677834516473	-0.3867163683496595	-0.46643032910435495	-0.39735970711951313	-0.3339135484518729	1.5951314818673865	-0.18898223650461365	2.347382389307855	-0.8538133812332175	-0.49116711635325344	3.5460496450425487	4.757061028579477	-0.3310063706204224	-0.197706721895681	2.603936981740927	-0.3425463523417335	-0.3759305687046256	-0.3251449483461317	-0.18448755080477625	-0.3510547487497047	-0.3453957811178867	-0.25863030005593585	-0.42857142857142855	-0.41568511838536965	-0.197706721895681	-0.3594489391040247	-0.3566629789666584	1.576812860746071	-0.3009954992990603	-0.30408182027976866	-1.3641798074613192	2.969071338884368	-0.36498619161695417	-0.36498619161695417	3.5874176251715255	-0.3677381088845411	1.4744929139313727	-0.3339135484518729	-0.29788790066934195	0.6317616694747663	-0.3009954992990603	-0.3009954992990603	-0.3101933772205295	-0.28200394808290996	0.7179411047772241	-0.39205490998230036	-0.3947114154027919	-0.2754729185172745	-0.3786412228313766	1.27072975032485	-0.4539263699526326	1.4225669342651175	-0.3280836614171587	-0.3947114154027919	-0.46643032910435495	-0.2654614824371289	-0.3280836614171587	-0.3538650287239357	-0.25863030005593585	-0.29160592175990213	-0.2372580677837464	-0.2551637007693633	-0.4714045207910317	2.121320343559643	1.3977495139343472	-0.5058710426690024	-0.2688287699689622	-0.2787520451991388	-0.3973597071195131	-0.28200394808290996	-0.3786412228313765	-0.42600643361512924	-0.8510724553904468	-0.26882876996896216	-0.4788393160119237	2.895229341723462	-0.2182178902359924	-0.3101933772205295	-0.3280836614171587	-0.42600643361512913	-0.5737304826019501	-0.2884299752006152	-0.3566629789666584	-0.29160592175990213	-0.6855990686613488	2.895229341723462	-0.23725806778374642	2.0565768151764505	-0.5204962388541866	-0.5302117482590968	-0.22598858421985296	-0.3162277660168379	3.075551396651115	-0.37593056870462555	-0.23354968324845685	-0.3425463523417335	-0.4714045207910317	-0.3510547487497047	-0.36222323746395024	-0.2688287699689622	-0.39205490998230036	-0.40525742021872446	-0.6341906670692987	-0.36222323746395024	-0.2688287699689622	1.626565180284604	-0.2787520451991388	-0.6979824404521128	-0.3510547487497047	-0.2445417437817667	-0.197706721895681	-0.24092139328961693	-0.29475829615401566	-0.41827498070569097	-0.4887074293033724	-0.2516611478423583	-0.4104852841432546	-0.2688287699689622	-0.3510547487497047	-0.3162277660168379	-0.39735970711951313	-0.3368056492626247	-0.3704792868174742	-0.9691283333200867	-0.20611564746694744	-0.2445417437817667	-0.2916059217599021	-0.7636272329274841
CHEMBL3670089	1.0	-0.5180633764587427	-0.4104852841432546	-0.29160592175990213	-0.29788790066934195	2.1908902300206647	-0.285229613124917	-0.35944893910402465	-0.2916059217599021	-0.30408182027976866	-0.3162277660168379	-0.2754729185172745	-0.43877484486463125	-0.2688287699689622	-0.38938996999982173	-0.3920549099823004	1.1864009313091932	-0.31321991086861617	4.281744192888376	-0.2551637007693633	-0.3368056492626247	-0.285229613124917	-0.27216552697590873	3.7198399565472684	-0.2372580677837464	-0.21424667872399394	-0.3867163683496595	-0.3310063706204223	-0.285229613124917	-0.2335496832484569	2.292357293439291	-0.19770672189568098	-0.2884299752006152	-0.5180633764587427	0.6123724356957945	-0.34823178754370987	-0.3453957811178867	-0.7482661294546197	-0.3566629789666584	-0.2551637007693633	-0.3101933772205295	-0.39205490998230036	-0.3732100136460895	2.6223163824902103	2.1908902300206643	-0.3368056492626247	-0.5713171854612167	-0.5833833511969478	-0.2516611478423583	-0.2884299752006152	-0.4285714285714285	-0.7079381827449592	-0.17989569074028863	-0.42085837429913664	-0.5664900467659482	-0.25863030005593585	-0.2335496832484569	-0.30408182027976866	-0.24812105896148035	-0.2654614824371289	-0.3221897397089213	-0.21021382614017328	-0.4311306135592269	-0.2551637007693633	2.4361409254588806	0.7431765843479694	-0.3566629789666584	-0.4000000000000001	-0.5737304826019501	-0.3162277660168379	-0.23725806778374642	-0.2551637007693633	-0.3510547487497047	-0.40263250316477917	-0.5857968032832223	1.4638501094227998	-0.34823178754370987	-0.30714755841697555	-0.3867163683496595	-0.2445417437817667	-0.30408182027976866	0.9813648266964345	-0.5229274269077644	-0.4182749807056911	2.8485585327118903	-0.29475829615401566	-0.2754729185172745	-0.37593056870462555	-0.29160592175990213	2.803767306876787	-0.197706721895681	-1.0189890373046044	-0.27216552697590873	-0.3101933772205295	-0.24092139328961693	-0.3566629789666584	-0.29788790066934195	-0.3732100136460895	-0.33968311024337877	-0.28842997520061525	-0.2445417437817667	-0.21424667872399394	-0.3009954992990603	-0.3867163683496595	-0.18898223650461365	-0.2516611478423583	-0.30714755841697555	3.255764119219941	2.895229341723462	3.1926450563976494	-0.5374838498865699	-0.38938996999982173	1.70707657398485	-0.3538650287239357	-0.36498619161695417	-0.6220582944862406	-0.27216552697590873	-0.3425463523417334	-0.40525742021872446	-0.31321991086861617	-0.48377944684689667	-0.1703885502741194	1.4125527120498014	-0.4130886125698243	-0.2688287699689622	-0.28200394808290996	-0.4208583742991367	-0.23725806778374642	-0.29475829615401566	0.6708203932499369	-0.4911671163532535	-0.3538650287239357	-0.4738862080666385	-0.285229613124917	-0.2884299752006152	-0.4714045207910317	-0.3840338714078345	-1.061445555206044	-0.21424667872399394	0.5302117482590968	-0.3867163683496595	-0.6147924547512001	-0.27216552697590873	-0.5761436842361264	-0.3538650287239357	-0.7079381827449593	-0.3162277660168379	3.866522985836241	-1.1379648627163226	-0.24812105896148035	-0.2884299752006152	-0.27216552697590873	-0.2654614824371289	-0.25863030005593585	-0.3009954992990603	-0.2787520451991388	1.7577666482623877	-0.3339135484518729	1.8774511165501653	-0.3339135484518729	3.3223088130179295	-0.6196353276423746	-0.593038713115963	1.986387785430762	2.347382389307855	-0.2372580677837464	-0.3453957811178867	-0.2551637007693633	-0.29788790066934195	-0.44637217688914244	-0.29788790066934195	3.4292856398964497	-0.25863030005593585	-0.2182178902359924	-0.2916059217599021	-0.2654614824371289	-0.7869493885260492	-0.34823178754370987	-0.285229613124917	-0.2754729185172745	-0.2297939958485704	-0.3510547487497047	-0.42085837429913664	-0.7305161505085607	-0.9362000791686008	-0.4738862080666385	-0.319217523467037	-0.6366210361057312	-0.5640760748177661	-0.319217523467037	-0.3649861916169541	-0.36222323746395024	1.2498995943610574	-0.285229613124917	-0.45643546458763845	-0.2754729185172745	-0.27216552697590873	1.364179807461319	2.132563266812153	-0.4208583742991367	-0.3538650287239357	2.167124493754009	-0.30714755841697555	1.948587303972549	-0.44889485554759906	-0.3132199108686162	2.760728458509026	-0.5761436842361264	-0.3704792868174742	-0.2947582961540156	-0.675737378399486	2.361634939534234	-0.4104852841432546	-0.48870742930337235	-0.3453957811178867	0.17989569074028863	-0.21021382614017328	-0.49116711635325344	-0.2372580677837464	-0.49362406479924353	-0.2182178902359924	3.5460496450425487	-0.3251449483461317	1.9578900207451215	-0.31321991086861617	-0.4285714285714285	-0.2551637007693633	-0.4000000000000001	-0.45894028583057983	-0.47636443708895504	2.6794565082283346	-0.4514128763179673	-0.3425463523417335	-0.34823178754370987	-0.42343546975013074	-0.2654614824371289	2.8037673068767868	-0.3566629789666584	-0.40787494947085207	-0.2445417437817667	-0.30408182027976866	-0.3453957811178867	-0.29475829615401566	-0.3396831102433788	-0.3280836614171587	-0.3310063706204223	-0.285229613124917	-0.3162277660168379	-0.2516611478423583	-0.26882876996896216	-0.47636443708895504	-0.34823178754370987	-0.3566629789666584	-0.36222323746395024	-0.24092139328961693	3.4670460284318847	-0.5785568541403716	-0.25863030005593585	-0.2654614824371289	-0.27216552697590873	-0.44889485554759906	-0.3396831102433788	-0.3453957811178867	3.587417625171525	-0.24092139328961693	2.969071338884368	3.5460496450425487	2.4517318391269898	-0.42600643361512924	-0.33968311024337877	-0.3677381088845411	-0.262062429428415	2.203000456008648	-0.33968311024337877	-0.3368056492626247	-0.653676575132502	-0.5592469952052407	-0.2787520451991388	-0.3162277660168379	-0.3566629789666584	-0.262062429428415	1.632993161855452	3.5460496450425487	2.4517318391269898	-0.5156287578025646	-0.3566629789666584	-0.3566629789666584	-0.23354968324845685	-0.29475829615401566	-0.3677381088845411	-0.5737304826019501	-0.40787494947085207	-0.319217523467037	-0.31321991086861617	-0.31321991086861617	-0.45894028583057983	0.6585650045124926	-0.4362321715127009	-0.44131230926308435	-0.2297939958485704	3.2237954561133595	-0.4311306135592269	-0.8456085166558225	3.9735970711951314	-0.26206242942841496	-0.4738862080666385	-0.36498619161695417	-0.3280836614171587	-0.28200394808290996	-0.27216552697590873	-0.4911671163532535	2.376096238230542	-0.2754729185172745	-0.42600643361512924	-0.30714755841697555	1.5413180644050648	-0.4689192651690203	-0.36498619161695417	-0.39735970711951313	-0.3251449483461317	0.9273932871430011	-0.3453957811178867	-0.37593056870462555	1.3273676061682242	-0.8239826262859263	-0.3566629789666584	2.077658938966323	2.5334965267714087	2.4056670681025647	-0.3867163683496595	-0.7004671338524576	-0.6905446052586697	1.552985739111069	-0.27216552697590873	-0.6414861064580909	-0.36498619161695417	-0.31321991086861617	-0.2688287699689622	0.07943014707895375	-0.27875204519913876	-0.28200394808290996	2.5166114784235836	-0.25863030005593585	-0.5664900467659482	-0.3840338714078345	-0.3310063706204223	-0.26206242942841496	-0.3947114154027919	-0.21021382614017323	-0.24092139328961693	-0.1551678012635246	1.7141387356157236	-0.2884299752006152	1.1825803315637815	-0.39735970711951313	-0.285229613124917	-0.25863030005593585	0.0	-0.2654614824371289	-0.3677381088845411	-0.18448755080477627	-0.3594489391040247	1.6201851746019649	-0.2551637007693633	-1.5951314818673865	-0.3009954992990603	-0.19770672189568103	-0.4104852841432546	2.0776589389663225	-0.29788790066934195	1.7141387356157238	-0.22598858421985296	-0.3251449483461317	-0.319217523467037	-0.34823178754370987	-0.4130886125698243	-0.2884299752006152	1.7212591086918494	-0.4837794468468967	0.30408182027976866	-0.3101933772205295	-0.3786412228313766	-1.3228756555322954	-0.30408182027976866	-0.31321991086861617	-0.826666382954529	2.5858745112537473	-0.46643032910435495	-0.39735970711951313	-0.3339135484518729	-0.6269075692928592	-0.18898223650461365	-0.42600643361512924	-0.8538133812332175	-0.49116711635325344	3.5460496450425487	-0.21021382614017328	-0.3310063706204224	-0.197706721895681	-0.38403387140783457	-0.3425463523417335	-0.3759305687046256	-0.3251449483461317	-0.18448755080477625	-0.3510547487497047	-0.3453957811178867	-0.25863030005593585	-0.42857142857142855	-0.41568511838536965	-0.197706721895681	-0.3594489391040247	-0.3566629789666584	-0.6341906670692988	-0.3009954992990603	-0.30408182027976866	0.7330411977442751	-0.3368056492626247	-0.36498619161695417	-0.36498619161695417	-0.2787520451991388	-0.3677381088845411	-0.6781992578952081	-0.3339135484518729	-0.29788790066934195	0.6317616694747663	-0.3009954992990603	-0.3009954992990603	-0.3101933772205295	-0.28200394808290996	-1.392871912954891	-0.39205490998230036	-0.3947114154027919	-0.2754729185172745	-0.3786412228313766	1.27072975032485	-0.4539263699526326	-0.7029546209132079	-0.3280836614171587	-0.3947114154027919	-0.46643032910435495	-0.2654614824371289	-0.3280836614171587	-0.3538650287239357	-0.25863030005593585	-0.29160592175990213	-0.2372580677837464	-0.2551637007693633	-0.4714045207910317	2.121320343559643	1.3977495139343472	-0.5058710426690024	-0.2688287699689622	-0.2787520451991388	-0.3973597071195131	-0.28200394808290996	-0.3786412228313765	-0.42600643361512924	1.1749880913972588	-0.26882876996896216	-0.4788393160119237	-0.3453957811178867	-0.2182178902359924	-0.3101933772205295	-0.3280836614171587	-0.42600643361512913	1.7429786813223802	-0.2884299752006152	-0.3566629789666584	3.4292856398964497	1.458578410779536	-0.3453957811178867	-0.23725806778374642	-0.48624490591381186	1.9212434698882477	1.8860389330930731	-0.22598858421985296	-0.3162277660168379	3.075551396651115	-0.37593056870462555	4.281744192888375	-0.3425463523417335	-0.4714045207910317	-0.3510547487497047	-0.36222323746395024	-0.2688287699689622	-0.39205490998230036	-0.40525742021872446	-0.6341906670692987	2.760728458509026	-0.2688287699689622	-0.6147924547512	-0.2787520451991388	1.4327007988227578	2.84855853271189	-0.2445417437817667	-0.197706721895681	-0.24092139328961693	-0.29475829615401566	-0.41827498070569097	2.0462140332620877	-0.2516611478423583	-0.4104852841432546	-0.2688287699689622	-0.3510547487497047	-0.3162277660168379	2.5166114784235836	2.969071338884368	-0.3704792868174742	1.0318550862857883	-0.20611564746694744	-0.2445417437817667	-0.2916059217599021	1.3095394675309624
CHEMBL4209148	1.0	-0.5180633764587427	-0.4104852841432546	-0.29160592175990213	-0.29788790066934195	-0.45643546458763845	-0.285229613124917	-0.35944893910402465	-0.2916059217599021	-0.30408182027976866	3.162277660168379	-0.2754729185172745	2.2790732233259976	-0.2688287699689622	-0.38938996999982173	-0.3920549099823004	1.1864009313091932	-0.31321991086861617	-0.2335496832484569	-0.2551637007693633	-0.3368056492626247	3.5059473279937716	-0.27216552697590873	-0.2688287699689622	-0.2372580677837464	-0.21424667872399394	-0.3867163683496595	-0.3310063706204223	-0.285229613124917	-0.2335496832484569	2.292357293439291	-0.19770672189568098	-0.2884299752006152	-0.5180633764587427	0.6123724356957945	-0.34823178754370987	-0.3453957811178867	-0.7482661294546197	-0.3566629789666584	-0.2551637007693633	-0.3101933772205295	2.550663120237789	-0.3732100136460895	-0.3813422387463322	-0.4564354645876384	-0.3368056492626247	-0.5713171854612167	1.7141387356157236	-0.2516611478423583	-0.2884299752006152	-0.4285714285714285	1.4125527120498012	-0.17989569074028863	2.376096238230542	-0.5664900467659482	-0.25863030005593585	-0.2335496832484569	-0.30408182027976866	-0.24812105896148035	-0.2654614824371289	-0.3221897397089213	-0.21021382614017328	-0.4311306135592269	-0.2551637007693633	-0.4104852841432546	0.7431765843479694	-0.3566629789666584	-0.4000000000000001	-0.5737304826019501	-0.3162277660168379	-0.23725806778374642	-0.2551637007693633	-0.3510547487497047	-0.40263250316477917	-0.5857968032832223	1.4638501094227998	-0.34823178754370987	-0.30714755841697555	-0.3867163683496595	-0.2445417437817667	-0.30408182027976866	-1.0189890373046044	-0.5229274269077644	-0.4182749807056911	-0.35105474874970477	-0.29475829615401566	-0.2754729185172745	-0.37593056870462555	-0.29160592175990213	2.803767306876787	-0.197706721895681	-1.0189890373046044	-0.27216552697590873	3.2237954561133595	-0.24092139328961693	-0.3566629789666584	-0.29788790066934195	-0.3732100136460895	-0.33968311024337877	-0.28842997520061525	-0.2445417437817667	-0.21424667872399394	-0.3009954992990603	-0.3867163683496595	-0.18898223650461365	3.9735970711951314	3.255764119219941	-0.30714755841697555	2.895229341723462	-0.31321991086861617	-0.5374838498865699	-0.38938996999982173	-0.5857968032832223	-0.3538650287239357	-0.36498619161695417	1.607566379009386	-0.27216552697590873	-0.3425463523417334	-0.40525742021872446	-0.31321991086861617	-0.48377944684689667	-0.1703885502741194	-0.7079381827449593	-0.4130886125698243	-0.2688287699689622	-0.28200394808290996	-0.4208583742991367	-0.23725806778374642	-0.29475829615401566	0.6708203932499369	2.0359669177868733	-0.3538650287239357	-0.4738862080666385	-0.285229613124917	-0.2884299752006152	-0.4714045207910317	-0.3840338714078345	-1.061445555206044	-0.21424667872399394	0.5302117482590968	-0.3867163683496595	-0.6147924547512001	-0.27216552697590873	-0.5761436842361264	-0.3538650287239357	1.4125527120498014	-0.3162277660168379	-0.25863030005593585	0.8787617550976045	-0.24812105896148035	-0.2884299752006152	-0.27216552697590873	-0.2654614824371289	-0.25863030005593585	-0.3009954992990603	-0.2787520451991388	-0.5689037284832624	-0.3339135484518729	1.8774511165501653	-0.3339135484518729	-0.3009954992990603	1.613852463520535	1.686230557775509	-0.5034263739107432	-0.42600643361512924	-0.2372580677837464	-0.3453957811178867	-0.2551637007693633	-0.29788790066934195	-0.44637217688914244	-0.29788790066934195	-0.29160592175990213	-0.25863030005593585	-0.2182178902359924	-0.2916059217599021	-0.2654614824371289	-0.7869493885260492	-0.34823178754370987	-0.285229613124917	-0.2754729185172745	-0.2297939958485704	-0.3510547487497047	-0.42085837429913664	-0.7305161505085607	-0.9362000791686008	-0.4738862080666385	-0.319217523467037	1.5707932086521845	-0.5640760748177661	-0.319217523467037	-0.3649861916169541	2.760728458509026	1.2498995943610574	-0.285229613124917	-0.45643546458763845	-0.2754729185172745	-0.27216552697590873	-0.733041197744275	-0.4689192651690203	-0.4208583742991367	-0.3538650287239357	2.167124493754009	-0.30714755841697555	-0.5131922998581169	-0.44889485554759906	-0.3132199108686162	-0.36222323746395024	-0.5761436842361264	-0.3704792868174742	-0.2947582961540156	-0.675737378399486	-0.42343546975013074	-0.4104852841432546	-0.48870742930337235	-0.3453957811178867	0.17989569074028863	-0.21021382614017328	2.0359669177868733	-0.2372580677837464	-0.49362406479924353	-0.2182178902359924	-0.28200394808290996	-0.3251449483461317	-0.5107539184552491	-0.31321991086861617	-0.4285714285714285	-0.2551637007693633	-0.4000000000000001	-0.45894028583057983	-0.47636443708895504	-0.37321001364608947	-0.4514128763179673	-0.3425463523417335	-0.34823178754370987	2.361634939534234	-0.2654614824371289	-0.3566629789666584	-0.3566629789666584	-0.40787494947085207	-0.2445417437817667	-0.30408182027976866	-0.3453957811178867	-0.29475829615401566	-0.3396831102433788	-0.3280836614171587	-0.3310063706204223	-0.285229613124917	-0.3162277660168379	-0.2516611478423583	-0.26882876996896216	-0.47636443708895504	-0.34823178754370987	-0.3566629789666584	2.7607284585090257	-0.24092139328961693	-0.2884299752006152	-0.5785568541403716	-0.25863030005593585	-0.2654614824371289	-0.27216552697590873	2.2276931616427578	-0.3396831102433788	-0.3453957811178867	-0.27875204519913876	-0.24092139328961693	-0.3368056492626247	-0.28200394808290996	2.4517318391269898	-0.42600643361512924	-0.33968311024337877	-0.3677381088845411	-0.262062429428415	-0.4539263699526326	-0.33968311024337877	-0.3368056492626247	-0.653676575132502	-0.5592469952052407	-0.2787520451991388	-0.3162277660168379	-0.3566629789666584	-0.262062429428415	1.632993161855452	-0.28200394808290996	-0.40787494947085207	-0.5156287578025646	-0.3566629789666584	2.8037673068767868	-0.23354968324845685	-0.29475829615401566	-0.3677381088845411	-0.5737304826019501	-0.40787494947085207	-0.319217523467037	-0.31321991086861617	3.1926450563976494	-0.45894028583057983	0.6585650045124926	-0.4362321715127009	-0.44131230926308435	-0.2297939958485704	-0.3101933772205295	-0.4311306135592269	-0.8456085166558225	-0.2516611478423583	-0.26206242942841496	2.110211234211271	-0.36498619161695417	-0.3280836614171587	-0.28200394808290996	-0.27216552697590873	-0.4911671163532535	-0.4208583742991367	-0.2754729185172745	-0.42600643361512924	-0.30714755841697555	-0.6487953545045818	2.132563266812153	-0.36498619161695417	2.5166114784235836	3.075551396651115	0.9273932871430011	-0.3453957811178867	-0.37593056870462555	-0.753370803500884	-0.8239826262859263	-0.3566629789666584	-0.4813109511118895	-0.3947114154027919	-0.41568511838536965	-0.3867163683496595	-0.7004671338524576	-0.6905446052586697	1.552985739111069	-0.27216552697590873	-0.6414861064580909	-0.36498619161695417	-0.31321991086861617	3.7198399565472684	0.07943014707895375	-0.27875204519913876	-0.28200394808290996	2.5166114784235836	-0.25863030005593585	-0.5664900467659482	-0.3840338714078345	-0.3310063706204223	-0.26206242942841496	2.5334965267714087	-0.21021382614017323	-0.24092139328961693	-0.1551678012635246	-0.5833833511969478	-0.2884299752006152	1.1825803315637815	-0.39735970711951313	-0.285229613124917	-0.25863030005593585	0.0	-0.2654614824371289	-0.3677381088845411	-0.18448755080477627	-0.3594489391040247	1.6201851746019649	-0.2551637007693633	-1.5951314818673865	-0.3009954992990603	-0.19770672189568103	-0.4104852841432546	-0.48131095111188943	-0.29788790066934195	-0.583383351196948	-0.22598858421985296	-0.3251449483461317	-0.319217523467037	-0.34823178754370987	2.420788105919938	-0.2884299752006152	-0.580970055554272	-0.4837794468468967	0.30408182027976866	-0.3101933772205295	-0.3786412228313766	0.7559289460184545	-0.30408182027976866	-0.31321991086861617	-0.826666382954529	-0.3867163683496595	-0.46643032910435495	-0.39735970711951313	-0.3339135484518729	-0.6269075692928592	-0.18898223650461365	-0.42600643361512924	1.1712161251860866	2.0359669177868733	-0.28200394808290996	-0.21021382614017328	-0.3310063706204224	-0.197706721895681	-0.38403387140783457	-0.3425463523417335	-0.3759305687046256	-0.3251449483461317	-0.18448755080477625	-0.3510547487497047	-0.3453957811178867	-0.25863030005593585	-0.42857142857142855	2.4056670681025647	-0.197706721895681	2.782036309503753	2.8037673068767868	-0.6341906670692988	-0.3009954992990603	-0.30408182027976866	0.7330411977442751	-0.3368056492626247	-0.36498619161695417	2.7398296784046026	3.5874176251715255	-0.3677381088845411	-0.6781992578952081	-0.3339135484518729	-0.29788790066934195	0.6317616694747663	-0.3009954992990603	-0.3009954992990603	3.2237954561133595	-0.28200394808290996	-1.392871912954891	-0.39205490998230036	2.5334965267714087	-0.2754729185172745	-0.3786412228313766	1.27072975032485	-0.4539263699526326	1.4225669342651175	-0.3280836614171587	-0.3947114154027919	2.1439429162340526	-0.2654614824371289	-0.3280836614171587	-0.3538650287239357	-0.25863030005593585	-0.29160592175990213	-0.2372580677837464	-0.2551637007693633	-0.4714045207910317	-0.4714045207910317	-0.7154357701654478	-0.5058710426690024	-0.2688287699689622	-0.2787520451991388	-0.3973597071195131	-0.28200394808290996	-0.3786412228313765	-0.42600643361512924	1.1749880913972588	-0.26882876996896216	-0.4788393160119237	-0.3453957811178867	-0.2182178902359924	-0.3101933772205295	-0.3280836614171587	-0.42600643361512913	-0.5737304826019501	3.4670460284318847	-0.3566629789666584	-0.29160592175990213	-0.6855990686613488	2.895229341723462	-0.23725806778374642	-0.48624490591381186	1.9212434698882477	1.8860389330930731	-0.22598858421985296	3.162277660168379	-0.3251449483461317	-0.37593056870462555	-0.23354968324845685	-0.3425463523417335	2.121320343559643	-0.3510547487497047	-0.36222323746395024	-0.2688287699689622	-0.39205490998230036	-0.40525742021872446	1.5768128607460705	2.760728458509026	-0.2688287699689622	-0.6147924547512	-0.2787520451991388	1.4327007988227578	-0.3510547487497047	-0.2445417437817667	-0.197706721895681	-0.24092139328961693	-0.29475829615401566	2.3907717318230546	-0.4887074293033724	-0.2516611478423583	2.4361409254588806	-0.2688287699689622	-0.3510547487497047	-0.3162277660168379	-0.39735970711951313	-0.3368056492626247	-0.3704792868174742	-0.9691283333200867	-0.20611564746694744	-0.2445417437817667	-0.2916059217599021	-0.7636272329274841
CHEMBL4096669	1.0	-0.5180633764587427	-0.4104852841432546	-0.29160592175990213	-0.29788790066934195	-0.45643546458763845	-0.285229613124917	-0.35944893910402465	-0.2916059217599021	3.2885885748774983	3.162277660168379	-0.2754729185172745	-0.43877484486463125	-0.2688287699689622	-0.38938996999982173	2.5506631202377896	-0.8428853801526439	-0.31321991086861617	-0.2335496832484569	-0.2551637007693633	-0.3368056492626247	-0.285229613124917	3.6742346141747677	-0.2688287699689622	-0.2372580677837464	-0.21424667872399394	-0.3867163683496595	-0.3310063706204223	-0.285229613124917	-0.2335496832484569	-0.4362321715127009	-0.19770672189568098	-0.2884299752006152	-0.5180633764587427	0.6123724356957945	-0.34823178754370987	2.895229341723462	-0.7482661294546197	-0.3566629789666584	-0.2551637007693633	-0.3101933772205295	-0.39205490998230036	-0.3732100136460895	-0.3813422387463322	-0.4564354645876384	-0.3368056492626247	-0.5713171854612167	1.7141387356157236	-0.2516611478423583	-0.2884299752006152	-0.4285714285714285	-0.7079381827449592	-0.17989569074028863	-0.42085837429913664	1.7652560812126	3.866522985836241	-0.2335496832484569	-0.30408182027976866	-0.24812105896148035	-0.2654614824371289	-0.3221897397089213	-0.21021382614017328	-0.4311306135592269	3.9190527374576574	2.4361409254588806	-1.3455752254053541	-0.3566629789666584	-0.4000000000000001	-0.5737304826019501	-0.3162277660168379	-0.23725806778374642	-0.2551637007693633	-0.3510547487497047	-0.40263250316477917	1.70707657398485	-0.6831300510639732	2.8716505378604484	3.255764119219941	2.5858745112537473	-0.2445417437817667	-0.30408182027976866	-1.0189890373046044	-0.5229274269077644	-0.4182749807056911	2.8485585327118903	-0.29475829615401566	3.630120904016528	-0.37593056870462555	-0.29160592175990213	-0.35666297896665844	-0.197706721895681	-1.0189890373046044	-0.27216552697590873	-0.3101933772205295	-0.24092139328961693	-0.3566629789666584	-0.29788790066934195	-0.3732100136460895	-0.33968311024337877	3.467046028431885	-0.2445417437817667	-0.21424667872399394	-0.3009954992990603	2.5858745112537473	-0.18898223650461365	-0.2516611478423583	-0.30714755841697555	3.255764119219941	-0.3453957811178867	-0.31321991086861617	-0.5374838498865699	-0.38938996999982173	-0.5857968032832223	-0.3538650287239357	2.7398296784046026	1.607566379009386	-0.27216552697590873	-0.3425463523417334	-0.40525742021872446	-0.31321991086861617	-0.48377944684689667	-0.1703885502741194	-0.7079381827449593	-0.4130886125698243	-0.2688287699689622	3.5460496450425487	-0.4208583742991367	-0.23725806778374642	-0.29475829615401566	0.6708203932499369	-0.4911671163532535	-0.3538650287239357	-0.4738862080666385	-0.285229613124917	-0.2884299752006152	-0.4714045207910317	-0.3840338714078345	-1.061445555206044	-0.21424667872399394	0.5302117482590968	-0.3867163683496595	-0.6147924547512001	3.6742346141747677	-0.5761436842361264	-0.3538650287239357	1.4125527120498014	-0.3162277660168379	-0.25863030005593585	0.8787617550976045	-0.24812105896148035	-0.2884299752006152	-0.27216552697590873	-0.2654614824371289	-0.25863030005593585	-0.3009954992990603	-0.2787520451991388	-0.5689037284832624	-0.3339135484518729	-0.5326370370896847	-0.3339135484518729	-0.3009954992990603	-0.6196353276423746	1.686230557775509	-0.5034263739107432	-0.42600643361512924	-0.2372580677837464	-0.3453957811178867	-0.2551637007693633	-0.29788790066934195	2.2402830009907904	-0.29788790066934195	-0.29160592175990213	-0.25863030005593585	-0.2182178902359924	-0.2916059217599021	-0.2654614824371289	-0.7869493885260492	-0.34823178754370987	-0.285229613124917	-0.2754729185172745	-0.2297939958485704	-0.3510547487497047	-0.42085837429913664	-0.7305161505085607	-0.9362000791686008	-0.4738862080666385	-0.319217523467037	-0.6366210361057312	1.7728105208558367	-0.319217523467037	-0.3649861916169541	2.760728458509026	-0.8000642647709596	-0.285229613124917	-0.45643546458763845	-0.2754729185172745	-0.27216552697590873	-0.733041197744275	-0.4689192651690203	-0.4208583742991367	-0.3538650287239357	-0.4614409568449601	-0.30714755841697555	1.948587303972549	-0.44889485554759906	3.19264505639765	-0.36222323746395024	-0.5761436842361264	-0.3704792868174742	-0.2947582961540156	-0.675737378399486	-0.42343546975013074	-0.4104852841432546	-0.48870742930337235	-0.3453957811178867	0.17989569074028863	-0.21021382614017328	-0.49116711635325344	-0.2372580677837464	-0.49362406479924353	-0.2182178902359924	-0.28200394808290996	3.075551396651115	-0.5107539184552491	-0.31321991086861617	-0.4285714285714285	-0.2551637007693633	-0.4000000000000001	2.1789327084028427	-0.47636443708895504	-0.37321001364608947	-0.4514128763179673	-0.3425463523417335	-0.34823178754370987	-0.42343546975013074	-0.2654614824371289	-0.3566629789666584	2.8037673068767868	-0.40787494947085207	-0.2445417437817667	-0.30408182027976866	-0.3453957811178867	-0.29475829615401566	2.9439202887759492	-0.3280836614171587	-0.3310063706204223	-0.285229613124917	-0.3162277660168379	-0.2516611478423583	-0.26882876996896216	-0.47636443708895504	2.8716505378604484	2.8037673068767868	-0.36222323746395024	-0.24092139328961693	-0.2884299752006152	-0.5785568541403716	-0.25863030005593585	-0.2654614824371289	-0.27216552697590873	2.2276931616427578	-0.3396831102433788	2.895229341723462	3.587417625171525	-0.24092139328961693	-0.3368056492626247	-0.28200394808290996	-0.40787494947085207	-0.42600643361512924	2.943920288775949	-0.3677381088845411	-0.262062429428415	-0.4539263699526326	-0.33968311024337877	-0.3368056492626247	-0.653676575132502	1.788118682037809	-0.2787520451991388	-0.3162277660168379	-0.3566629789666584	-0.262062429428415	1.632993161855452	-0.28200394808290996	-0.40787494947085207	-0.5156287578025646	-0.3566629789666584	2.8037673068767868	-0.23354968324845685	-0.29475829615401566	-0.3677381088845411	-0.5737304826019501	2.4517318391269898	-0.319217523467037	-0.31321991086861617	-0.31321991086861617	-0.45894028583057983	0.6585650045124926	-0.4362321715127009	2.265968972562375	-0.2297939958485704	-0.3101933772205295	2.3194827009486403	1.1825803315637815	-0.2516611478423583	-0.26206242942841496	2.110211234211271	-0.36498619161695417	-0.3280836614171587	3.5460496450425487	-0.27216552697590873	-0.4911671163532535	2.376096238230542	-0.2754729185172745	-0.42600643361512924	-0.30714755841697555	-0.6487953545045818	-0.4689192651690203	-0.36498619161695417	-0.39735970711951313	-0.3251449483461317	0.9273932871430011	-0.3453957811178867	-0.37593056870462555	-0.753370803500884	1.213617821661442	-0.3566629789666584	-0.4813109511118895	-0.3947114154027919	-0.41568511838536965	-0.3867163683496595	1.4276187299469134	1.4481323760764333	-0.6439209162167847	-0.27216552697590873	-0.6414861064580909	-0.36498619161695417	-0.31321991086861617	3.7198399565472684	0.07943014707895375	-0.27875204519913876	-0.28200394808290996	-0.39735970711951313	-0.25863030005593585	1.7652560812126	-0.3840338714078345	-0.3310063706204223	-0.26206242942841496	-0.3947114154027919	-0.21021382614017323	-0.24092139328961693	-0.1551678012635246	-0.5833833511969478	-0.2884299752006152	1.1825803315637815	-0.39735970711951313	-0.285229613124917	-0.25863030005593585	0.0	-0.2654614824371289	-0.3677381088845411	-0.18448755080477627	-0.3594489391040247	1.6201851746019649	-0.2551637007693633	0.6269075692928592	-0.3009954992990603	-0.19770672189568103	-0.4104852841432546	-0.48131095111188943	-0.29788790066934195	-0.583383351196948	-0.22598858421985296	-0.3251449483461317	-0.319217523467037	2.8716505378604484	-0.4130886125698243	-0.2884299752006152	-0.580970055554272	-0.4837794468468967	0.30408182027976866	3.2237954561133595	-0.3786412228313766	0.7559289460184545	-0.30408182027976866	-0.31321991086861617	-0.826666382954529	-0.3867163683496595	2.1439429162340526	2.5166114784235836	-0.3339135484518729	-0.6269075692928592	-0.18898223650461365	-0.42600643361512924	1.1712161251860866	2.0359669177868733	-0.28200394808290996	4.757061028579477	-0.3310063706204224	-0.197706721895681	-0.38403387140783457	-0.3425463523417335	-0.3759305687046256	-0.3251449483461317	-0.18448755080477625	2.84855853271189	2.895229341723462	-0.25863030005593585	2.3333333333333335	2.4056670681025647	-0.197706721895681	-0.3594489391040247	-0.3566629789666584	1.576812860746071	-0.3009954992990603	-0.30408182027976866	0.7330411977442751	-0.3368056492626247	2.7398296784046026	-0.36498619161695417	-0.2787520451991388	-0.3677381088845411	-0.6781992578952081	-0.3339135484518729	-0.29788790066934195	0.6317616694747663	-0.3009954992990603	-0.3009954992990603	-0.3101933772205295	3.5460496450425487	0.7179411047772241	2.550663120237789	-0.3947114154027919	-0.2754729185172745	-0.3786412228313766	1.27072975032485	-0.4539263699526326	1.4225669342651175	-0.3280836614171587	-0.3947114154027919	-0.46643032910435495	-0.2654614824371289	3.048003048004572	-0.3538650287239357	-0.25863030005593585	-0.29160592175990213	-0.2372580677837464	-0.2551637007693633	-0.4714045207910317	-0.4714045207910317	-0.7154357701654478	-0.5058710426690024	-0.2688287699689622	-0.2787520451991388	-0.3973597071195131	-0.28200394808290996	-0.3786412228313765	-0.42600643361512924	-0.8510724553904468	-0.26882876996896216	-0.4788393160119237	-0.3453957811178867	-0.2182178902359924	-0.3101933772205295	3.048003048004572	-0.42600643361512913	-0.5737304826019501	-0.2884299752006152	-0.3566629789666584	-0.29160592175990213	1.458578410779536	-0.3453957811178867	-0.23725806778374642	-0.48624490591381186	-0.5204962388541866	-0.5302117482590968	-0.22598858421985296	-0.3162277660168379	-0.3251449483461317	-0.37593056870462555	-0.23354968324845685	-0.3425463523417335	-0.4714045207910317	2.84855853271189	-0.36222323746395024	-0.2688287699689622	-0.39205490998230036	-0.40525742021872446	1.5768128607460705	-0.36222323746395024	-0.2688287699689622	-0.6147924547512	-0.2787520451991388	-0.6979824404521128	-0.3510547487497047	-0.2445417437817667	-0.197706721895681	-0.24092139328961693	-0.29475829615401566	-0.41827498070569097	2.0462140332620877	-0.2516611478423583	-0.4104852841432546	-0.2688287699689622	-0.3510547487497047	-0.3162277660168379	-0.39735970711951313	2.969071338884368	-0.3704792868174742	1.0318550862857883	-0.20611564746694744	-0.2445417437817667	-0.2916059217599021	1.3095394675309624
CHEMBL3913800	1.0	1.9302657656203523	-0.4104852841432546	-0.29160592175990213	-0.29788790066934195	-0.45643546458763845	-0.285229613124917	2.7820363095037526	-0.2916059217599021	-0.30408182027976866	-0.3162277660168379	-0.2754729185172745	-0.43877484486463125	-0.2688287699689622	2.5681195640464436	-0.3920549099823004	1.1864009313091932	-0.31321991086861617	-0.2335496832484569	-0.2551637007693633	-0.3368056492626247	-0.285229613124917	-0.27216552697590873	-0.2688287699689622	-0.2372580677837464	-0.21424667872399394	-0.3867163683496595	-0.3310063706204223	-0.285229613124917	-0.2335496832484569	-0.4362321715127009	-0.19770672189568098	-0.2884299752006152	-0.5180633764587427	0.6123724356957945	2.8716505378604484	-0.3453957811178867	1.33642291243205	-0.3566629789666584	-0.2551637007693633	-0.3101933772205295	-0.39205490998230036	-0.3732100136460895	-0.3813422387463322	-0.4564354645876384	-0.3368056492626247	-0.5713171854612167	-0.5833833511969478	-0.2516611478423583	-0.2884299752006152	-0.4285714285714285	-0.7079381827449592	-0.17989569074028863	-0.42085837429913664	-0.5664900467659482	-0.25863030005593585	-0.2335496832484569	-0.30408182027976866	-0.24812105896148035	-0.2654614824371289	-0.3221897397089213	-0.21021382614017328	-0.4311306135592269	-0.2551637007693633	-0.4104852841432546	0.7431765843479694	-0.3566629789666584	-0.4000000000000001	1.7429786813223802	-0.3162277660168379	-0.23725806778374642	-0.2551637007693633	2.84855853271189	-0.40263250316477917	-0.5857968032832223	-0.6831300510639732	2.8716505378604484	-0.30714755841697555	-0.3867163683496595	-0.2445417437817667	-0.30408182027976866	0.9813648266964345	1.9123112473050363	-0.4182749807056911	-0.35105474874970477	-0.29475829615401566	3.630120904016528	-0.37593056870462555	-0.29160592175990213	-0.35666297896665844	-0.197706721895681	0.9813648266964345	-0.27216552697590873	-0.3101933772205295	4.150731432961115	-0.3566629789666584	3.356967496004507	-0.3732100136460895	-0.33968311024337877	-0.28842997520061525	-0.2445417437817667	-0.21424667872399394	-0.3009954992990603	-0.3867163683496595	-0.18898223650461365	-0.2516611478423583	3.255764119219941	-0.30714755841697555	-0.3453957811178867	-0.31321991086861617	1.860521018838127	-0.38938996999982173	-0.5857968032832223	-0.3538650287239357	-0.36498619161695417	-0.6220582944862406	-0.27216552697590873	-0.3425463523417334	-0.40525742021872446	-0.31321991086861617	-0.48377944684689667	-0.1703885502741194	1.4125527120498014	2.420788105919938	-0.2688287699689622	-0.28200394808290996	-0.4208583742991367	-0.23725806778374642	-0.29475829615401566	0.6708203932499369	-0.4911671163532535	2.8259362153024163	-0.4738862080666385	-0.285229613124917	-0.2884299752006152	-0.4714045207910317	-0.3840338714078345	0.9421114395319917	-0.21424667872399394	0.5302117482590968	-0.3867163683496595	-0.6147924547512001	-0.27216552697590873	-0.5761436842361264	-0.3538650287239357	-0.7079381827449593	-0.3162277660168379	-0.25863030005593585	-1.1379648627163226	-0.24812105896148035	-0.2884299752006152	-0.27216552697590873	3.7670248460125912	-0.25863030005593585	-0.3009954992990603	-0.2787520451991388	1.7577666482623877	2.994787137677735	1.8774511165501653	-0.3339135484518729	-0.3009954992990603	-0.6196353276423746	-0.593038713115963	-0.5034263739107432	-0.42600643361512924	-0.2372580677837464	-0.3453957811178867	-0.2551637007693633	-0.29788790066934195	-0.44637217688914244	-0.29788790066934195	-0.29160592175990213	-0.25863030005593585	-0.2182178902359924	-0.2916059217599021	-0.2654614824371289	-0.7869493885260492	2.8716505378604484	-0.285229613124917	-0.2754729185172745	-0.2297939958485704	-0.3510547487497047	-0.42085837429913664	1.3688951288809068	1.068147741333303	-0.4738862080666385	3.1326601031765153	1.5707932086521845	-0.5640760748177661	-0.319217523467037	-0.3649861916169541	-0.36222323746395024	-0.8000642647709596	-0.285229613124917	-0.45643546458763845	3.630120904016528	-0.27216552697590873	-0.733041197744275	2.132563266812153	-0.4208583742991367	-0.3538650287239357	2.167124493754009	-0.30714755841697555	-0.5131922998581169	-0.44889485554759906	-0.3132199108686162	-0.36222323746395024	1.7356781430761294	-0.3704792868174742	-0.2947582961540156	-0.675737378399486	2.361634939534234	2.4361409254588806	2.0462140332620877	2.895229341723462	0.17989569074028863	-0.21021382614017328	-0.49116711635325344	-0.2372580677837464	2.0258331619360956	-0.2182178902359924	-0.28200394808290996	-0.3251449483461317	1.9578900207451215	3.1926450563976494	-0.4285714285714285	-0.2551637007693633	-0.4000000000000001	-0.45894028583057983	-0.47636443708895504	-0.37321001364608947	-0.4514128763179673	-0.3425463523417335	-0.34823178754370987	-0.42343546975013074	-0.2654614824371289	2.8037673068767868	2.8037673068767868	2.4517318391269898	-0.2445417437817667	-0.30408182027976866	-0.3453957811178867	-0.29475829615401566	-0.3396831102433788	-0.3280836614171587	-0.3310063706204223	-0.285229613124917	-0.3162277660168379	-0.2516611478423583	-0.26882876996896216	-0.47636443708895504	2.8716505378604484	2.8037673068767868	-0.36222323746395024	-0.24092139328961693	3.4670460284318847	-0.5785568541403716	-0.25863030005593585	-0.2654614824371289	-0.27216552697590873	2.2276931616427578	-0.3396831102433788	2.895229341723462	-0.27875204519913876	-0.24092139328961693	-0.3368056492626247	3.5460496450425487	2.4517318391269898	-0.42600643361512924	-0.33968311024337877	2.7193265420146333	-0.262062429428415	-0.4539263699526326	-0.33968311024337877	-0.3368056492626247	1.5298085292367978	1.788118682037809	-0.2787520451991388	3.162277660168379	-0.3566629789666584	-0.262062429428415	-0.6123724356957945	-0.28200394808290996	-0.40787494947085207	-0.5156287578025646	-0.3566629789666584	2.8037673068767868	4.281744192888375	-0.29475829615401566	-0.3677381088845411	-0.5737304826019501	-0.40787494947085207	-0.319217523467037	-0.31321991086861617	-0.31321991086861617	-0.45894028583057983	0.6585650045124926	-0.4362321715127009	-0.44131230926308435	-0.2297939958485704	3.2237954561133595	-0.4311306135592269	-0.8456085166558225	-0.2516611478423583	3.815884643140578	-0.4738862080666385	-0.36498619161695417	-0.3280836614171587	-0.28200394808290996	-0.27216552697590873	-0.4911671163532535	-0.4208583742991367	-0.2754729185172745	-0.42600643361512924	3.255764119219941	1.5413180644050648	2.132563266812153	-0.36498619161695417	-0.39735970711951313	-0.3251449483461317	0.9273932871430011	-0.3453957811178867	-0.37593056870462555	-0.753370803500884	1.213617821661442	2.8037673068767868	2.077658938966323	-0.3947114154027919	-0.41568511838536965	-0.3867163683496595	-0.7004671338524576	1.4481323760764333	-0.6439209162167847	-0.27216552697590873	-0.6414861064580909	-0.36498619161695417	-0.31321991086861617	-0.2688287699689622	0.07943014707895375	-0.27875204519913876	3.5460496450425487	2.5166114784235836	3.866522985836241	1.7652560812126	-0.3840338714078345	3.021089890583219	-0.26206242942841496	2.5334965267714087	-0.21021382614017323	-0.24092139328961693	-0.1551678012635246	-0.5833833511969478	-0.2884299752006152	1.1825803315637815	-0.39735970711951313	-0.285229613124917	3.866522985836241	0.0	3.7670248460125912	-0.3677381088845411	-0.18448755080477627	-0.3594489391040247	-0.6172133998483675	-0.2551637007693633	0.6269075692928592	-0.3009954992990603	-0.19770672189568103	-0.4104852841432546	2.0776589389663225	-0.29788790066934195	-0.583383351196948	-0.22598858421985296	-0.3251449483461317	-0.319217523467037	-0.34823178754370987	-0.4130886125698243	-0.2884299752006152	-0.580970055554272	-0.4837794468468967	0.30408182027976866	-0.3101933772205295	-0.3786412228313766	0.7559289460184545	-0.30408182027976866	-0.31321991086861617	-0.826666382954529	2.5858745112537473	-0.46643032910435495	-0.39735970711951313	-0.3339135484518729	1.5951314818673865	-0.18898223650461365	-0.42600643361512924	-0.8538133812332175	-0.49116711635325344	-0.28200394808290996	4.757061028579477	-0.3310063706204224	-0.197706721895681	2.603936981740927	-0.3425463523417335	-0.3759305687046256	-0.3251449483461317	-0.18448755080477625	-0.3510547487497047	-0.3453957811178867	-0.25863030005593585	-0.42857142857142855	-0.41568511838536965	-0.197706721895681	-0.3594489391040247	-0.3566629789666584	1.576812860746071	-0.3009954992990603	-0.30408182027976866	0.7330411977442751	2.969071338884368	-0.36498619161695417	-0.36498619161695417	-0.2787520451991388	-0.3677381088845411	-0.6781992578952081	-0.3339135484518729	-0.29788790066934195	0.6317616694747663	-0.3009954992990603	-0.3009954992990603	3.2237954561133595	-0.28200394808290996	0.7179411047772241	-0.39205490998230036	-0.3947114154027919	3.630120904016528	-0.3786412228313766	1.27072975032485	-0.4539263699526326	-0.7029546209132079	-0.3280836614171587	-0.3947114154027919	-0.46643032910435495	-0.2654614824371289	-0.3280836614171587	-0.3538650287239357	-0.25863030005593585	3.4292856398964497	-0.2372580677837464	-0.2551637007693633	2.121320343559643	2.121320343559643	-0.7154357701654478	-0.5058710426690024	-0.2688287699689622	-0.2787520451991388	-0.3973597071195131	-0.28200394808290996	-0.3786412228313765	-0.42600643361512924	1.1749880913972588	-0.26882876996896216	-0.4788393160119237	-0.3453957811178867	-0.2182178902359924	3.2237954561133595	-0.3280836614171587	2.3473823893078545	1.7429786813223802	-0.2884299752006152	-0.3566629789666584	-0.29160592175990213	-0.6855990686613488	-0.3453957811178867	-0.23725806778374642	-0.48624490591381186	1.9212434698882477	-0.5302117482590968	4.4250022781113145	-0.3162277660168379	-0.3251449483461317	-0.37593056870462555	-0.23354968324845685	-0.3425463523417335	-0.4714045207910317	-0.3510547487497047	-0.36222323746395024	-0.2688287699689622	-0.39205490998230036	-0.40525742021872446	-0.6341906670692987	-0.36222323746395024	-0.2688287699689622	-0.6147924547512	3.5874176251715255	1.4327007988227578	2.84855853271189	-0.2445417437817667	-0.197706721895681	-0.24092139328961693	-0.29475829615401566	-0.41827498070569097	2.0462140332620877	-0.2516611478423583	-0.4104852841432546	-0.2688287699689622	-0.3510547487497047	-0.3162277660168379	2.5166114784235836	-0.3368056492626247	2.6992062325273123	-0.9691283333200867	-0.20611564746694744	-0.2445417437817667	-0.2916059217599021	1.3095394675309624
CHEMBL4163691	1.0	-0.5180633764587427	-0.4104852841432546	-0.29160592175990213	-0.29788790066934195	-0.45643546458763845	-0.285229613124917	2.7820363095037526	-0.2916059217599021	-0.30408182027976866	-0.3162277660168379	3.630120904016528	-0.43877484486463125	-0.2688287699689622	-0.38938996999982173	2.5506631202377896	1.1864009313091932	-0.31321991086861617	-0.2335496832484569	-0.2551637007693633	-0.3368056492626247	-0.285229613124917	-0.27216552697590873	-0.2688287699689622	-0.2372580677837464	-0.21424667872399394	-0.3867163683496595	-0.3310063706204223	-0.285229613124917	-0.2335496832484569	-0.4362321715127009	-0.19770672189568098	-0.2884299752006152	-0.5180633764587427	0.6123724356957945	-0.34823178754370987	-0.3453957811178867	-0.7482661294546197	2.8037673068767868	-0.2551637007693633	-0.3101933772205295	-0.39205490998230036	-0.3732100136460895	-0.3813422387463322	-0.4564354645876384	-0.3368056492626247	-0.5713171854612167	1.7141387356157236	-0.2516611478423583	3.4670460284318847	-0.4285714285714285	1.4125527120498012	-0.17989569074028863	-0.42085837429913664	1.7652560812126	-0.25863030005593585	-0.2335496832484569	-0.30408182027976866	-0.24812105896148035	-0.2654614824371289	-0.3221897397089213	-0.21021382614017328	-0.4311306135592269	-0.2551637007693633	-0.4104852841432546	0.7431765843479694	-0.3566629789666584	-0.4000000000000001	1.7429786813223802	-0.3162277660168379	-0.23725806778374642	-0.2551637007693633	-0.3510547487497047	-0.40263250316477917	1.70707657398485	-0.6831300510639732	-0.34823178754370987	-0.30714755841697555	-0.3867163683496595	-0.2445417437817667	-0.30408182027976866	-1.0189890373046044	1.9123112473050363	-0.4182749807056911	-0.35105474874970477	-0.29475829615401566	-0.2754729185172745	-0.37593056870462555	-0.29160592175990213	-0.35666297896665844	-0.197706721895681	-1.0189890373046044	-0.27216552697590873	-0.3101933772205295	-0.24092139328961693	-0.3566629789666584	-0.29788790066934195	-0.3732100136460895	-0.33968311024337877	-0.28842997520061525	-0.2445417437817667	-0.21424667872399394	-0.3009954992990603	-0.3867163683496595	-0.18898223650461365	-0.2516611478423583	-0.30714755841697555	-0.30714755841697555	-0.3453957811178867	-0.31321991086861617	1.860521018838127	-0.38938996999982173	-0.5857968032832223	-0.3538650287239357	-0.36498619161695417	1.607566379009386	-0.27216552697590873	-0.3425463523417334	-0.40525742021872446	-0.31321991086861617	-0.48377944684689667	-0.1703885502741194	1.4125527120498014	2.420788105919938	-0.2688287699689622	-0.28200394808290996	2.376096238230542	-0.23725806778374642	-0.29475829615401566	0.6708203932499369	-0.4911671163532535	-0.3538650287239357	-0.4738862080666385	-0.285229613124917	3.4670460284318847	-0.4714045207910317	-0.3840338714078345	-1.061445555206044	-0.21424667872399394	0.5302117482590968	-0.3867163683496595	-0.6147924547512001	-0.27216552697590873	-0.5761436842361264	-0.3538650287239357	1.4125527120498014	-0.3162277660168379	-0.25863030005593585	-1.1379648627163226	-0.24812105896148035	-0.2884299752006152	-0.27216552697590873	-0.2654614824371289	-0.25863030005593585	-0.3009954992990603	-0.2787520451991388	-0.5689037284832624	-0.3339135484518729	1.8774511165501653	-0.3339135484518729	-0.3009954992990603	-0.6196353276423746	1.686230557775509	-0.5034263739107432	-0.42600643361512924	-0.2372580677837464	-0.3453957811178867	3.9190527374576574	-0.29788790066934195	-0.44637217688914244	-0.29788790066934195	-0.29160592175990213	3.866522985836241	-0.2182178902359924	-0.2916059217599021	-0.2654614824371289	1.27072975032485	-0.34823178754370987	-0.285229613124917	-0.2754729185172745	-0.2297939958485704	-0.3510547487497047	-0.42085837429913664	1.3688951288809068	1.068147741333303	2.110211234211271	-0.319217523467037	-0.6366210361057312	-0.5640760748177661	-0.319217523467037	-0.3649861916169541	-0.36222323746395024	1.2498995943610574	-0.285229613124917	-0.45643546458763845	-0.2754729185172745	-0.27216552697590873	-0.733041197744275	-0.4689192651690203	-0.4208583742991367	-0.3538650287239357	-0.4614409568449601	-0.30714755841697555	-0.5131922998581169	2.2276931616427578	-0.3132199108686162	-0.36222323746395024	-0.5761436842361264	2.6992062325273123	3.392610192988376	1.479864858694874	-0.42343546975013074	-0.4104852841432546	2.0462140332620877	-0.3453957811178867	0.17989569074028863	-0.21021382614017328	-0.49116711635325344	4.214819792393612	-0.49362406479924353	-0.2182178902359924	-0.28200394808290996	-0.3251449483461317	-0.5107539184552491	-0.31321991086861617	-0.4285714285714285	-0.2551637007693633	-0.4000000000000001	-0.45894028583057983	-0.47636443708895504	-0.37321001364608947	-0.4514128763179673	-0.3425463523417335	-0.34823178754370987	2.361634939534234	-0.2654614824371289	-0.3566629789666584	-0.3566629789666584	-0.40787494947085207	-0.2445417437817667	-0.30408182027976866	-0.3453957811178867	3.3926101929883763	-0.3396831102433788	-0.3280836614171587	-0.3310063706204223	-0.285229613124917	-0.3162277660168379	3.9735970711951314	-0.26882876996896216	-0.47636443708895504	-0.34823178754370987	-0.3566629789666584	-0.36222323746395024	-0.24092139328961693	-0.2884299752006152	-0.5785568541403716	-0.25863030005593585	-0.2654614824371289	-0.27216552697590873	-0.44889485554759906	-0.3396831102433788	-0.3453957811178867	-0.27875204519913876	-0.24092139328961693	-0.3368056492626247	3.5460496450425487	2.4517318391269898	-0.42600643361512924	-0.33968311024337877	-0.3677381088845411	-0.262062429428415	-0.4539263699526326	-0.33968311024337877	-0.3368056492626247	-0.653676575132502	1.788118682037809	-0.2787520451991388	-0.3162277660168379	-0.3566629789666584	3.815884643140579	1.632993161855452	-0.28200394808290996	-0.40787494947085207	-0.5156287578025646	-0.3566629789666584	-0.3566629789666584	-0.23354968324845685	-0.29475829615401566	-0.3677381088845411	1.7429786813223802	-0.40787494947085207	-0.319217523467037	-0.31321991086861617	-0.31321991086861617	-0.45894028583057983	0.6585650045124926	-0.4362321715127009	-0.44131230926308435	-0.2297939958485704	-0.3101933772205295	2.3194827009486403	-0.8456085166558225	-0.2516611478423583	-0.26206242942841496	-0.4738862080666385	-0.36498619161695417	-0.3280836614171587	-0.28200394808290996	-0.27216552697590873	2.0359669177868733	-0.4208583742991367	-0.2754729185172745	-0.42600643361512924	-0.30714755841697555	-0.6487953545045818	-0.4689192651690203	-0.36498619161695417	-0.39735970711951313	3.075551396651115	0.9273932871430011	-0.3453957811178867	-0.37593056870462555	1.3273676061682242	-0.8239826262859263	-0.3566629789666584	-0.4813109511118895	-0.3947114154027919	-0.41568511838536965	-0.3867163683496595	-0.7004671338524576	-0.6905446052586697	1.552985739111069	-0.27216552697590873	-0.6414861064580909	-0.36498619161695417	-0.31321991086861617	-0.2688287699689622	0.07943014707895375	-0.27875204519913876	-0.28200394808290996	-0.39735970711951313	-0.25863030005593585	1.7652560812126	-0.3840338714078345	-0.3310063706204223	-0.26206242942841496	2.5334965267714087	-0.21021382614017323	-0.24092139328961693	-0.1551678012635246	-0.5833833511969478	-0.2884299752006152	1.1825803315637815	-0.39735970711951313	-0.285229613124917	-0.25863030005593585	0.0	-0.2654614824371289	-0.3677381088845411	-0.18448755080477627	-0.3594489391040247	-0.6172133998483675	-0.2551637007693633	0.6269075692928592	-0.3009954992990603	-0.19770672189568103	-0.4104852841432546	-0.48131095111188943	3.356967496004507	-0.583383351196948	-0.22598858421985296	-0.3251449483461317	-0.319217523467037	-0.34823178754370987	2.420788105919938	3.4670460284318847	-0.580970055554272	-0.4837794468468967	0.30408182027976866	-0.3101933772205295	-0.3786412228313766	0.7559289460184545	-0.30408182027976866	-0.31321991086861617	-0.826666382954529	-0.3867163683496595	2.1439429162340526	2.5166114784235836	-0.3339135484518729	-0.6269075692928592	-0.18898223650461365	-0.42600643361512924	-0.8538133812332175	-0.49116711635325344	-0.28200394808290996	-0.21021382614017328	-0.3310063706204224	-0.197706721895681	-0.38403387140783457	-0.3425463523417335	-0.3759305687046256	3.075551396651115	-0.18448755080477625	-0.3510547487497047	-0.3453957811178867	-0.25863030005593585	-0.42857142857142855	2.4056670681025647	-0.197706721895681	-0.3594489391040247	-0.3566629789666584	-0.6341906670692988	3.3223088130179295	-0.30408182027976866	0.7330411977442751	-0.3368056492626247	-0.36498619161695417	-0.36498619161695417	-0.2787520451991388	-0.3677381088845411	1.4744929139313727	-0.3339135484518729	-0.29788790066934195	0.6317616694747663	-0.3009954992990603	3.3223088130179295	3.2237954561133595	-0.28200394808290996	-1.392871912954891	-0.39205490998230036	-0.3947114154027919	-0.2754729185172745	2.6410225292488514	-0.7869493885260492	-0.4539263699526326	-0.7029546209132079	-0.3280836614171587	-0.3947114154027919	-0.46643032910435495	-0.2654614824371289	-0.3280836614171587	-0.3538650287239357	-0.25863030005593585	-0.29160592175990213	-0.2372580677837464	-0.2551637007693633	-0.4714045207910317	2.121320343559643	-0.7154357701654478	-0.5058710426690024	-0.2688287699689622	3.5874176251715255	-0.3973597071195131	-0.28200394808290996	-0.3786412228313765	-0.42600643361512924	1.1749880913972588	-0.26882876996896216	-0.4788393160119237	-0.3453957811178867	4.58257569495584	-0.3101933772205295	-0.3280836614171587	-0.42600643361512913	-0.5737304826019501	-0.2884299752006152	-0.3566629789666584	-0.29160592175990213	-0.6855990686613488	-0.3453957811178867	-0.23725806778374642	-0.48624490591381186	-0.5204962388541866	-0.5302117482590968	-0.22598858421985296	-0.3162277660168379	-0.3251449483461317	-0.37593056870462555	-0.23354968324845685	-0.3425463523417335	-0.4714045207910317	-0.3510547487497047	-0.36222323746395024	3.7198399565472684	2.550663120237789	-0.40525742021872446	-0.6341906670692987	-0.36222323746395024	-0.2688287699689622	-0.6147924547512	-0.2787520451991388	1.4327007988227578	-0.3510547487497047	-0.2445417437817667	-0.197706721895681	-0.24092139328961693	-0.29475829615401566	-0.41827498070569097	-0.4887074293033724	-0.2516611478423583	2.4361409254588806	-0.2688287699689622	-0.3510547487497047	3.162277660168379	-0.39735970711951313	-0.3368056492626247	-0.3704792868174742	-0.9691283333200867	-0.20611564746694744	-0.2445417437817667	-0.2916059217599021	-0.7636272329274841
