Compound_ID	AD	f_0	f_1	f_2	f_3	f_4	f_5	f_6	f_7	f_8	f_9	f_10	f_11	f_12	f_13	f_14	f_15	f_16	f_17	f_18	f_19	f_20	f_21	f_22	f_23	f_24	f_25	f_26	f_27	f_28	f_29	f_30	f_31	f_32	f_33	f_34	f_35	f_36	f_37	f_38	f_39	f_40	f_41	f_42	f_43	f_44	f_45	f_46	f_47	f_48	f_49	f_50	f_51	f_52	f_53	f_54	f_55	f_56	f_57	f_58	f_59	f_60	f_61	f_62	f_63	f_64	f_65	f_66	f_67	f_68	f_69	f_70	f_71	f_72	f_73	f_74	f_75	f_76	f_77	f_78	f_79	f_80	f_81	f_82	f_83	f_84	f_85	f_86	f_87	f_88	f_89	f_90	f_91	f_92	f_93	f_94	f_95	f_96	f_97	f_98	f_99	f_100	f_101	f_102	f_103	f_104	f_105	f_106	f_107	f_108	f_109	f_110	f_111	f_112	f_113	f_114	f_115	f_116	f_117	f_118	f_119	f_120	f_121	f_122	f_123	f_124	f_125	f_126	f_127	f_128	f_129	f_130	f_131	f_132	f_133	f_134	f_135	f_136	f_137	f_138	f_139	f_140	f_141	f_142	f_143	f_144	f_145	f_146	f_147	f_148	f_149	f_150	f_151	f_152	f_153	f_154	f_155	f_156	f_157	f_158	f_159	f_160	f_161	f_162	f_163	f_164	f_165	f_166	f_167	f_168	f_169	f_170	f_171	f_172	f_173	f_174	f_175	f_176	f_177	f_178	f_179	f_180	f_181	f_182	f_183	f_184	f_185	f_186	f_187	f_188	f_189	f_190	f_191	f_192	f_193	f_194	f_195	f_196	f_197	f_198	f_199	f_200	f_201	f_202	f_203	f_204	f_205	f_206	f_207	f_208	f_209	f_210	f_211	f_212	f_213	f_214	f_215	f_216	f_217	f_218	f_219	f_220	f_221	f_222	f_223	f_224	f_225	f_226	f_227	f_228	f_229	f_230	f_231	f_232	f_233	f_234	f_235	f_236	f_237	f_238	f_239	f_240	f_241	f_242	f_243	f_244	f_245	f_246	f_247	f_248	f_249	f_250	f_251	f_252	f_253	f_254	f_255	f_256	f_257	f_258	f_259	f_260	f_261	f_262	f_263	f_264	f_265	f_266	f_267	f_268	f_269	f_270	f_271	f_272	f_273	f_274	f_275	f_276	f_277	f_278	f_279	f_280	f_281	f_282	f_283	f_284	f_285	f_286	f_287	f_288	f_289	f_290	f_291	f_292	f_293	f_294	f_295	f_296	f_297	f_298	f_299	f_300	f_301	f_302	f_303	f_304	f_305	f_306	f_307	f_308	f_309	f_310	f_311	f_312	f_313	f_314	f_315	f_316	f_317	f_318	f_319	f_320	f_321	f_322	f_323	f_324	f_325	f_326	f_327	f_328	f_329	f_330	f_331	f_332	f_333	f_334	f_335	f_336	f_337	f_338	f_339	f_340	f_341	f_342	f_343	f_344	f_345	f_346	f_347	f_348	f_349	f_350	f_351	f_352	f_353	f_354	f_355	f_356	f_357	f_358	f_359	f_360	f_361	f_362	f_363	f_364	f_365	f_366	f_367	f_368	f_369	f_370	f_371	f_372	f_373	f_374	f_375	f_376	f_377	f_378	f_379	f_380	f_381	f_382	f_383	f_384	f_385	f_386	f_387	f_388	f_389	f_390	f_391	f_392	f_393	f_394	f_395	f_396	f_397	f_398	f_399	f_400	f_401	f_402	f_403	f_404	f_405	f_406	f_407	f_408	f_409	f_410	f_411	f_412	f_413	f_414	f_415	f_416	f_417	f_418	f_419	f_420	f_421	f_422	f_423	f_424	f_425	f_426	f_427	f_428	f_429	f_430	f_431	f_432	f_433	f_434	f_435	f_436	f_437	f_438	f_439	f_440	f_441	f_442	f_443	f_444	f_445	f_446	f_447	f_448	f_449	f_450	f_451	f_452	f_453	f_454	f_455	f_456	f_457	f_458	f_459	f_460	f_461	f_462	f_463	f_464	f_465	f_466	f_467	f_468	f_469	f_470	f_471	f_472	f_473	f_474	f_475	f_476	f_477	f_478	f_479	f_480	f_481	f_482	f_483	f_484	f_485	f_486	f_487	f_488	f_489	f_490	f_491	f_492	f_493	f_494	f_495	f_496	f_497	f_498	f_499	f_500	f_501	f_502	f_503	f_504	f_505	f_506	f_507	f_508	f_509	f_510	f_511
CHEMBL4115569	1.0	-0.452204354307721	1.5891971071127315	-0.20783778356318636	-0.26637086328481074	1.8095127198187477	-0.14540168172557633	-0.24806946917841693	-0.12977713690461004	-0.27517963357590003	-0.17902871850985821	-0.22866478019001177	-0.3730294135805197	-0.24806946917841693	-0.2573425063274894	-0.35847548437403115	1.2152872405003998	3.2833653169999297	-0.12977713690461004	-0.09138233247699075	-0.28802715367757503	-0.3126136157099891	-0.17902871850985821	-0.1212678125181665	-0.23852207234014103	-0.14540168172557633	-0.19099917982881232	3.082207001484488	2.605824740968809	-0.1377945636523876	-0.2336346567579989	-0.09138233247699076	-0.29222124910239894	-0.3004886915086905	0.6388765649999398	-0.3165877294413065	-0.0790569415042095	-0.539855397553252	2.3699026047845058	-0.14540168172557633	-0.22866478019001182	-0.4013199375905618	-0.21320071635561044	-0.3165877294413065	1.9694638556693238	-0.16631167868819402	-0.5813347903782768	-0.504524979109513	-0.09138233247699075	-0.15266002995467645	-0.39082557499682524	-0.47527710324935324	-0.172773685116272	-0.3766217885773547	-0.5526349657824823	-0.27950849718747367	-0.2751796335759	-0.3621429841700741	-0.19099917982881232	-0.2336346567579989	-0.22360679774997894	-0.11215443081840884	-0.3978358723078702	-0.19674775073518586	-0.29637448918190956	-1.0272872767323509	-0.23852207234014103	-0.26637086328481074	2.5819888974716108	-0.3621429841700741	-0.12977713690461004	-0.11215443081840884	-0.32444284226152503	-0.24333213169614376	-0.6388765649999399	-0.4488792012484348	-0.3730294135805197	-0.18509792535309902	-0.3908255749968252	-0.0790569415042095	-0.2751796335759	1.0020725410834093	-0.3473465876788741	-0.17277368511627197	-0.3086066999241839	-0.22866478019001177	-0.17902871850985821	-0.26637086328481074	-0.17277368511627197	-0.19099917982881232	-0.12977713690461004	-0.8844703629168298	-0.15266002995467648	-0.16631167868819402	-0.0790569415042095	2.449489742783178	-0.26637086328481074	-0.22360679774997894	-0.2573425063274894	-0.3086066999241839	-0.16631167868819402	-0.11215443081840884	-0.18509792535309902	-0.523838078468744	-0.35107807387173634	-0.172773685116272	-0.17902871850985821	-0.22360679774997894	-0.2618856063178352	-0.304565561079179	-0.09138233247699075	-0.2837902619042413	-0.270801280154532	-0.48832523840319625	-0.22360679774997894	1.7686732677928756	-0.16631167868819402	-0.19099917982881232	-0.2618856063178352	-0.2618856063178352	-0.4818120558297157	-0.1212678125181665	-0.606854146129217	-0.19099917982881232	-0.20783778356318633	-0.19674775073518586	-0.21320071635561044	-0.15961737689352445	-0.2078377835631863	0.4785474204170223	-0.2837902619042412	-0.23852207234014103	-0.2837902619042413	-0.15266002995467645	-0.2023568033500949	1.8633899812498247	-0.15266002995467648	-0.6614378277661476	-0.2573425063274894	0.5877107279278204	-0.29637448918190956	-0.41854806384909343	-0.15266002995467645	-0.3126136157099891	-0.19099917982881232	-0.6164414002968976	-0.16631167868819402	-0.2023568033500949	-0.787912031338218	-0.09138233247699075	-0.23852207234014103	-0.2336346567579989	-0.2078377835631863	2.8789688324922067	-0.1212678125181665	-0.19674775073518586	-0.4850712500726659	-0.22866478019001177	-0.21320071635561044	-0.1377945636523876	5.402545696243578	1.7587553380112457	-0.3730294135805197	-0.6679130066342005	-0.4850712500726659	-0.15266002995467645	-0.172773685116272	-0.1377945636523876	-0.15266002995467645	-0.2618856063178352	-0.23852207234014103	-0.19099917982881232	-0.21320071635561044	-0.17277368511627197	-0.2751796335759	-0.09138233247699075	-0.6549763986894769	-0.22360679774997894	-0.27517963357590003	1.9820624179302295	-0.18509792535309902	-0.3165877294413065	2.6058247409688087	-0.3730294135805197	-0.6972473349922869	-0.34359213546813844	-0.10227536871615327	-0.4621340056693295	-0.44887920124843483	-0.26637086328481074	-0.248069469178417	-0.18509792535309902	-0.7038153430777868	-0.36579067361184664	-0.15266002995467648	-0.2527383073108998	-0.1377945636523876	-0.5590169943749475	1.874571602150418	-0.22360679774997894	-0.2336346567579989	1.5419540776632674	-0.15266002995467648	-0.4151266036854042	-0.43885372573625553	-0.3086066999241839	-0.17902871850985821	-0.3126136157099891	-0.4287464628562721	-0.22866478019001177	1.9694638556693238	-0.1377945636523876	-0.4588314677411236	-0.3360107525161235	2.513599375036089	-2.680753751832887	-0.16631167868819402	-0.4321251979833932	2.35096299992727	-0.38729833462074165	-0.17277368511627197	-0.21320071635561044	3.956661776522363	-0.4116934847963091	-0.19099917982881232	-0.26637086328481074	2.244437568746344	-0.29637448918190956	-0.4151266036854042	-0.1377945636523876	-0.18509792535309905	-0.3045655610791789	-0.3584754843740312	-0.2527383073108998	-0.43549417035569277	-0.10227536871615327	-0.24333213169614376	-0.2184544408639676	-0.24333213169614376	-0.2837902619042413	-0.14540168172557633	-0.2184544408639676	-0.2573425063274894	-0.19674775073518586	-0.26637086328481074	-0.19099917982881232	-0.22360679774997894	-0.22866478019001177	5.402545696243578	-0.1377945636523876	-0.4354941703556927	-0.2618856063178352	1.885896013460155	-0.16631167868819405	-0.19674775073518586	-0.2336346567579989	-0.34359213546813844	-0.19674775073518586	-0.2184544408639676	-0.2078377835631863	-0.24333213169614376	-0.2078377835631863	-0.29222124910239894	-0.16631167868819402	-0.16631167868819402	-0.15961737689352443	2.3892118644719087	-0.10227536871615327	-0.22360679774997894	-0.3045655610791789	-0.324442842261525	-0.270801280154532	-0.24333213169614376	-0.33218191941495995	-0.29222124910239894	-0.43212519798339316	-0.4422041999522907	-0.1212678125181665	-0.2184544408639676	-0.49805824509175234	-0.0790569415042095	-0.5077524002897476	-0.17902871850985821	-0.29637448918190956	1.5652475842498528	-0.39433791644286204	-0.15961737689352443	-0.2184544408639676	-0.270801280154532	-0.3126136157099891	-0.5366563145999494	-0.2618856063178352	-0.24806946917841693	-0.18509792535309902	2.6551836094703507	2.3699026047845058	0.7269669955769847	-0.2527383073108998	-0.35107807387173634	-0.12977713690461004	-0.2023568033500949	-0.19674775073518586	-0.7104033341674726	5.2356245764839136	-0.23852207234014103	-0.3360107525161235	-0.5012936632230302	-0.1454016817255763	-0.19099917982881232	-0.17902871850985821	-0.312613615709989	-0.23852207234014103	-0.1377945636523876	-0.1212678125181665	-0.22866478019001177	-0.5270462766947298	-0.2618856063178352	2.4289915602982237	-0.1454016817255763	-0.1377945636523876	0.6809084840390547	-0.23852207234014103	-0.35478743759344955	-0.42535760878879697	-0.4785474204170223	-0.324442842261525	-0.24806946917841693	-0.2837902619042413	-0.14540168172557633	-0.22866478019001177	-0.684167454928235	-0.6132441406718666	1.710797845536603	-0.0790569415042095	-0.5366563145999494	-0.14540168172557633	-0.3086066999241839	3.158682118743944	0.0644825880219161	-0.3004886915086905	-0.17902871850985821	-0.18509792535309902	4.941766144970738	-0.2184544408639676	-0.4151266036854042	-0.19674775073518586	-0.2573425063274894	-0.16631167868819402	-0.0644825880219161	-0.0790569415042095	-0.09138233247699075	-0.4621340056693295	-0.22866478019001177	-0.4980582450917523	-0.18509792535309902	-0.1377945636523876	-0.0790569415042095	0.0	-0.11215443081840884	-0.2527383073108998	-0.18509792535309902	-0.51741331199832	-0.4219582686567534	-0.12977713690461004	0.5908993240588318	-0.17277368511627197	-0.15266002995467645	-0.2837902619042413	-0.2837902619042413	-0.14540168172557633	2.104035715508373	-0.22866478019001177	-0.15961737689352445	2.8185890875479607	-0.3473465876788741	-0.2963744891819096	-0.2795084971874737	-0.2837902619042413	-0.24333213169614376	0.29222124910239894	-0.23852207234014103	-0.23363465675799888	0.7810249675906654	-0.18509792535309902	-0.35478743759344966	-0.5685839174940465	-0.16631167868819402	-0.4047905899187221	-0.26637086328481074	-0.24333213169614376	-0.3694192580731196	-0.20783778356318636	-0.16631167868819402	1.2205288696501546	-0.3473465876788741	-0.2837902619042413	-0.1212678125181665	-0.24806946917841693	-0.1377945636523876	-0.4287464628562721	-0.3004886915086905	-0.3801970055552455	-0.2527383073108998	-0.27517963357590003	-0.24806946917841693	-0.17902871850985821	-0.3004886915086905	-0.2618856063178352	-0.38375566256547783	-0.0644825880219161	-0.2184544408639676	-0.24806946917841693	-0.1212678125181665	-0.21320071635561044	-0.15266002995467648	-1.0272872767323509	-0.2573425063274894	-0.17902871850985821	-0.26637086328481074	-0.2618856063178352	-0.1377945636523876	-0.4720008581841587	-0.15266002995467645	-0.18509792535309902	0.7913675671030665	-0.28802715367757503	-0.19099917982881232	-0.1377945636523876	-0.19099917982881232	0.6776536737232182	-0.34359213546813844	-0.22866478019001177	-0.1454016817255763	-0.20783778356318636	-0.43885372573625553	-0.445545919354113	-0.4488792012484349	-0.22866478019001177	-0.2618856063178352	-0.42535760878879697	-0.2336346567579989	-0.10227536871615327	-0.2336346567579989	-0.20783778356318636	-0.14540168172557633	-0.21320071635561044	-0.14540168172557633	-0.3621429841700741	-0.09138233247699075	-0.404790589918722	-0.47854742041702225	-0.26637086328481074	-0.172773685116272	-0.41854806384909343	-0.2618856063178352	-0.29637448918190956	1.6392141107138378	-0.5877107279278204	-0.185097925353099	-0.36579067361184664	-0.17277368511627203	-0.12977713690461004	-0.2527383073108998	-0.36579067361184664	-0.312613615709989	-0.404790589918722	-0.2837902619042413	-0.2023568033500949	-0.11215443081840884	-0.6292485655330758	-0.2078377835631863	-0.3086066999241839	-0.2963744891819096	-0.270801280154532	-0.3004886915086905	-0.17902871850985821	-0.1212678125181665	-0.1377945636523876	-0.2023568033500949	3.119829055146025	-0.3045655610791789	-0.23852207234014103	-0.2527383073108998	-0.3473465876788741	5.787918451395111	-0.22866478019001177	-0.3004886915086905	1.3693063937629153	-0.10227536871615327	-0.22866478019001177	1.778705457193033	-0.19099917982881232	-0.6132441406718667	-0.3165877294413065	4.10960933531265	-0.2023568033500949	-0.15266002995467648	-0.17277368511627197	-0.34359213546813844	-0.2023568033500949	-0.172773685116272	-0.2573425063274894	-0.20235680335009487	-0.2527383073108998	-0.19674775073518586	-0.1454016817255763	-0.19674775073518586	-0.22360679774997894	-0.85146931829632	-0.12977713690461004	-0.1909991798288123	-0.24806946917841693	1.040142563173019
CHEMBL4075955	1.0	-0.452204354307721	1.5891971071127315	-0.20783778356318636	-0.26637086328481074	-0.5526349657824824	-0.14540168172557633	-0.24806946917841693	-0.12977713690461004	-0.27517963357590003	-0.17902871850985821	-0.22866478019001177	-0.3730294135805197	-0.24806946917841693	-0.2573425063274894	-0.35847548437403115	-0.822850735755479	-0.304565561079179	-0.12977713690461004	-0.09138233247699075	-0.28802715367757503	-0.3126136157099891	-0.17902871850985821	8.246211251235321	-0.23852207234014103	-0.14540168172557633	-0.19099917982881232	-0.32444284226152503	-0.38375566256547783	-0.1377945636523876	-0.2336346567579989	-0.09138233247699076	3.422064627646514	-0.3004886915086905	0.6388765649999398	-0.3165877294413065	-0.0790569415042095	1.852347877843268	2.3699026047845058	-0.14540168172557633	-0.22866478019001182	-0.4013199375905618	4.69041575982343	-0.3165877294413065	-0.5077524002897476	6.012806844880862	1.7201791748078519	-0.504524979109513	-0.09138233247699075	-0.15266002995467645	-0.39082557499682524	2.104035715508373	-0.172773685116272	-0.3766217885773547	-0.5526349657824823	-0.27950849718747367	-0.2751796335759	-0.3621429841700741	-0.19099917982881232	4.28018691180654	-0.22360679774997894	-0.11215443081840884	-0.3978358723078702	-0.19674775073518586	-0.29637448918190956	0.9734375404520262	-0.23852207234014103	-0.26637086328481074	-0.38729833462074165	-0.3621429841700741	-0.12977713690461004	-0.11215443081840884	-0.32444284226152503	-0.24333213169614376	1.5652475842498528	-0.4488792012484348	2.680753751832887	-0.18509792535309902	-0.3908255749968252	-0.0790569415042095	-0.2751796335759	1.0020725410834093	-0.3473465876788741	-0.17277368511627197	-0.3086066999241839	-0.22866478019001177	-0.17902871850985821	-0.26637086328481074	-0.17277368511627197	-0.19099917982881232	-0.12977713690461004	-0.8844703629168298	-0.15266002995467648	-0.16631167868819402	-0.0790569415042095	-0.408248290463863	-0.26637086328481074	-0.22360679774997894	-0.2573425063274894	-0.3086066999241839	-0.16631167868819402	-0.11215443081840884	-0.18509792535309902	1.9089868436505188	-0.35107807387173634	-0.172773685116272	-0.17902871850985821	-0.22360679774997894	-0.2618856063178352	-0.304565561079179	-0.09138233247699075	3.523729085310996	-0.270801280154532	-0.48832523840319625	-0.22360679774997894	-0.565395552819034	-0.16631167868819402	-0.19099917982881232	-0.2618856063178352	-0.2618856063178352	-0.4818120558297157	-0.1212678125181665	-0.606854146129217	-0.19099917982881232	-0.20783778356318633	-0.19674775073518586	-0.21320071635561044	-0.15961737689352445	-0.2078377835631863	0.4785474204170223	-0.2837902619042412	-0.23852207234014103	-0.2837902619042413	-0.15266002995467645	-0.2023568033500949	-0.5366563145999494	-0.15266002995467648	-0.6614378277661476	-0.2573425063274894	0.5877107279278204	-0.29637448918190956	-0.41854806384909343	-0.15266002995467645	-0.3126136157099891	-0.19099917982881232	-0.6164414002968976	-0.16631167868819402	-0.2023568033500949	-0.787912031338218	-0.09138233247699075	-0.23852207234014103	-0.2336346567579989	-0.2078377835631863	-0.3473465876788741	-0.1212678125181665	-0.19674775073518586	-0.4850712500726659	-0.22866478019001177	-0.21320071635561044	-0.1377945636523876	-0.18509792535309902	-0.5685839174940465	-0.3730294135805197	-0.6679130066342005	2.06155281280883	-0.15266002995467645	-0.172773685116272	-0.1377945636523876	-0.15266002995467645	-0.2618856063178352	-0.23852207234014103	-0.19099917982881232	-0.21320071635561044	-0.17277368511627197	-0.2751796335759	-0.09138233247699075	1.526772570738229	4.472135954999579	-0.27517963357590003	1.9820624179302295	-0.18509792535309902	-0.3165877294413065	-0.3837556625654778	-0.3730294135805197	-0.6972473349922869	-0.34359213546813844	-0.10227536871615327	-0.4621340056693295	-0.44887920124843483	-0.26637086328481074	-0.248069469178417	-0.18509792535309902	1.4208272238382822	-0.36579067361184664	-0.15266002995467648	-0.2527383073108998	-0.1377945636523876	-0.5590169943749475	-0.5334552165694009	-0.22360679774997894	-0.2336346567579989	1.5419540776632674	-0.15266002995467648	-0.4151266036854042	-0.43885372573625553	-0.3086066999241839	-0.17902871850985821	-0.3126136157099891	-0.4287464628562721	-0.22866478019001177	-0.5077524002897476	-0.1377945636523876	2.179449471770337	-0.3360107525161235	-0.39783587230787015	0.3730294135805197	-0.16631167868819402	2.3141441523584345	-0.425357608788797	-0.38729833462074165	-0.17277368511627197	-0.21320071635561044	-0.2527383073108998	2.4289915602982237	-0.19099917982881232	-0.26637086328481074	-0.4455459193541129	-0.29637448918190956	2.4089036720899513	-0.1377945636523876	-0.18509792535309905	-0.3045655610791789	-0.3584754843740312	-0.2527383073108998	-0.43549417035569277	-0.10227536871615327	-0.24333213169614376	-0.2184544408639676	-0.24333213169614376	-0.2837902619042413	-0.14540168172557633	-0.2184544408639676	-0.2573425063274894	-0.19674775073518586	-0.26637086328481074	-0.19099917982881232	-0.22360679774997894	-0.22866478019001177	-0.18509792535309902	-0.1377945636523876	-0.4354941703556927	-0.2618856063178352	1.885896013460155	-0.16631167868819405	-0.19674775073518586	-0.2336346567579989	-0.34359213546813844	-0.19674775073518586	-0.2184544408639676	-0.2078377835631863	-0.24333213169614376	-0.2078377835631863	-0.29222124910239894	-0.16631167868819402	-0.16631167868819402	-0.15961737689352443	-0.41854806384909343	-0.10227536871615327	-0.22360679774997894	-0.3045655610791789	-0.324442842261525	-0.270801280154532	-0.24333213169614376	-0.33218191941495995	-0.29222124910239894	-0.43212519798339316	-0.4422041999522907	-0.1212678125181665	-0.2184544408639676	-0.49805824509175234	-0.0790569415042095	-0.5077524002897476	-0.17902871850985821	-0.29637448918190956	-0.6388765649999399	-0.39433791644286204	-0.15961737689352443	-0.2184544408639676	-0.270801280154532	-0.3126136157099891	-0.5366563145999494	-0.2618856063178352	-0.24806946917841693	-0.18509792535309902	-0.3766217885773547	-0.42195826865675345	0.7269669955769847	-0.2527383073108998	-0.35107807387173634	-0.12977713690461004	-0.2023568033500949	-0.19674775073518586	1.4076510510355476	-0.19099917982881232	-0.23852207234014103	-0.3360107525161235	-0.5012936632230302	-0.1454016817255763	-0.19099917982881232	-0.17902871850985821	-0.312613615709989	-0.23852207234014103	-0.1377945636523876	-0.1212678125181665	-0.22866478019001177	-0.5270462766947298	-0.2618856063178352	-0.4116934847963091	-0.1454016817255763	-0.1377945636523876	-1.46862614204502	-0.23852207234014103	2.8185890875479607	-0.42535760878879697	-0.4785474204170223	-0.324442842261525	-0.24806946917841693	-0.2837902619042413	-0.14540168172557633	-0.22866478019001177	1.461630471892139	-0.6132441406718666	1.710797845536603	-0.0790569415042095	-0.5366563145999494	-0.14540168172557633	-0.3086066999241839	-0.3165877294413065	0.0644825880219161	-0.3004886915086905	-0.17902871850985821	-0.18509792535309902	4.941766144970738	-0.2184544408639676	-0.4151266036854042	-0.19674775073518586	3.88587184554509	-0.16631167868819402	-0.0644825880219161	-0.0790569415042095	-0.09138233247699075	-0.4621340056693295	-0.22866478019001177	-0.4980582450917523	-0.18509792535309902	-0.1377945636523876	-0.0790569415042095	0.0	-0.11215443081840884	-0.2527383073108998	-0.18509792535309902	-0.51741331199832	-0.4219582686567534	-0.12977713690461004	0.5908993240588318	-0.17277368511627197	-0.15266002995467645	-0.2837902619042413	-0.2837902619042413	-0.14540168172557633	-0.47527710324935324	-0.22866478019001177	-0.15961737689352445	-0.35478743759344955	2.8789688324922067	-0.2963744891819096	-0.2795084971874737	-0.2837902619042413	4.10960933531265	0.29222124910239894	-0.23852207234014103	-0.23363465675799888	0.7810249675906654	-0.18509792535309902	-0.35478743759344966	-0.5685839174940465	-0.16631167868819402	-0.4047905899187221	-0.26637086328481074	-0.24333213169614376	2.7069514600185487	-0.20783778356318636	-0.16631167868819402	-0.8193169574814186	-0.3473465876788741	-0.2837902619042413	-0.1212678125181665	-0.24806946917841693	-0.1377945636523876	-0.4287464628562721	-0.3004886915086905	-0.3801970055552455	-0.2527383073108998	-0.27517963357590003	-0.24806946917841693	-0.17902871850985821	-0.3004886915086905	3.8184610985697263	-0.38375566256547783	-0.0644825880219161	-0.2184544408639676	-0.24806946917841693	-0.1212678125181665	-0.21320071635561044	-0.15266002995467648	-1.0272872767323509	-0.2573425063274894	-0.17902871850985821	-0.26637086328481074	3.8184610985697263	-0.1377945636523876	-0.4720008581841587	-0.15266002995467645	-0.18509792535309902	-1.2636353087613479	-0.28802715367757503	-0.19099917982881232	-0.1377945636523876	-0.19099917982881232	0.6776536737232182	-0.34359213546813844	-0.22866478019001177	-0.1454016817255763	-0.20783778356318636	-0.43885372573625553	-0.445545919354113	-0.4488792012484349	-0.22866478019001177	-0.2618856063178352	-0.42535760878879697	-0.2336346567579989	-0.10227536871615327	-0.2336346567579989	-0.20783778356318636	-0.14540168172557633	-0.21320071635561044	-0.14540168172557633	-0.3621429841700741	-0.09138233247699075	-0.404790589918722	2.0896570691543306	-0.26637086328481074	-0.172773685116272	-0.41854806384909343	-0.2618856063178352	-0.29637448918190956	1.6392141107138378	-0.5877107279278204	-0.185097925353099	-0.36579067361184664	-0.17277368511627203	-0.12977713690461004	-0.2527383073108998	-0.36579067361184664	-0.312613615709989	-0.404790589918722	-0.2837902619042413	-0.2023568033500949	-0.11215443081840884	-0.6292485655330758	-0.2078377835631863	-0.3086066999241839	-0.2963744891819096	-0.270801280154532	-0.3004886915086905	-0.17902871850985821	-0.1212678125181665	-0.1377945636523876	4.941766144970738	-0.32053038237801623	-0.3045655610791789	-0.23852207234014103	3.956661776522363	2.8789688324922067	-0.17277368511627197	-0.22866478019001177	-0.3004886915086905	1.3693063937629153	-0.10227536871615327	-0.22866478019001177	-0.5622066295215036	-0.19099917982881232	1.630671919513827	-0.3165877294413065	-0.24333213169614376	-0.2023568033500949	-0.15266002995467648	-0.17277368511627197	-0.34359213546813844	-0.2023568033500949	-0.172773685116272	-0.2573425063274894	-0.20235680335009487	-0.2527383073108998	-0.19674775073518586	-0.1454016817255763	-0.19674775073518586	-0.22360679774997894	1.174440439029407	-0.12977713690461004	-0.1909991798288123	4.031128874149275	1.040142563173019
CHEMBL3353190	1.0	-0.452204354307721	1.5891971071127315	-0.20783778356318636	-0.26637086328481074	1.8095127198187477	-0.14540168172557633	-0.24806946917841693	-0.12977713690461004	-0.27517963357590003	-0.17902871850985821	-0.22866478019001177	-0.3730294135805197	-0.24806946917841693	-0.2573425063274894	-0.35847548437403115	-0.822850735755479	3.2833653169999297	-0.12977713690461004	-0.09138233247699075	-0.28802715367757503	3.1988369979626787	-0.17902871850985821	-0.1212678125181665	-0.23852207234014103	-0.14540168172557633	-0.19099917982881232	3.082207001484488	2.605824740968809	-0.1377945636523876	-0.2336346567579989	-0.09138233247699076	-0.29222124910239894	-0.3004886915086905	0.6388765649999398	-0.3165877294413065	-0.0790569415042095	1.852347877843268	2.3699026047845058	-0.14540168172557633	-0.22866478019001182	-0.4013199375905618	-0.21320071635561044	-0.3165877294413065	-0.5077524002897476	-0.16631167868819402	-0.5813347903782768	-0.504524979109513	-0.09138233247699075	-0.15266002995467645	2.5586861863073405	-0.47527710324935324	-0.172773685116272	-0.3766217885773547	-0.5526349657824823	-0.27950849718747367	3.6339898669287964	-0.3621429841700741	-0.19099917982881232	-0.2336346567579989	-0.22360679774997894	-0.11215443081840884	-0.3978358723078702	-0.19674775073518586	-0.29637448918190956	-1.0272872767323509	-0.23852207234014103	-0.26637086328481074	-0.38729833462074165	-0.3621429841700741	-0.12977713690461004	-0.11215443081840884	-0.32444284226152503	-0.24333213169614376	-0.6388765649999399	-0.4488792012484348	2.680753751832887	-0.18509792535309902	-0.3908255749968252	-0.0790569415042095	-0.2751796335759	1.0020725410834093	-0.3473465876788741	-0.17277368511627197	-0.3086066999241839	-0.22866478019001177	-0.17902871850985821	-0.26637086328481074	-0.17277368511627197	-0.19099917982881232	-0.12977713690461004	-0.8844703629168298	-0.15266002995467648	-0.16631167868819402	-0.0790569415042095	2.449489742783178	-0.26637086328481074	-0.22360679774997894	-0.2573425063274894	-0.3086066999241839	-0.16631167868819402	-0.11215443081840884	-0.18509792535309902	1.9089868436505188	-0.35107807387173634	-0.172773685116272	-0.17902871850985821	-0.22360679774997894	-0.2618856063178352	-0.304565561079179	-0.09138233247699075	-0.2837902619042413	-0.270801280154532	2.0478155158843716	-0.22360679774997894	1.7686732677928756	-0.16631167868819402	-0.19099917982881232	-0.2618856063178352	-0.2618856063178352	-0.4818120558297157	-0.1212678125181665	-0.606854146129217	-0.19099917982881232	-0.20783778356318633	-0.19674775073518586	-0.21320071635561044	-0.15961737689352445	-0.2078377835631863	0.4785474204170223	-0.2837902619042412	-0.23852207234014103	-0.2837902619042413	-0.15266002995467645	-0.2023568033500949	-0.5366563145999494	-0.15266002995467648	-0.6614378277661476	-0.2573425063274894	0.5877107279278204	-0.29637448918190956	-0.41854806384909343	-0.15266002995467645	-0.3126136157099891	-0.19099917982881232	-0.6164414002968976	-0.16631167868819402	-0.2023568033500949	1.2691772180475078	-0.09138233247699075	-0.23852207234014103	-0.2336346567579989	-0.2078377835631863	-0.3473465876788741	-0.1212678125181665	-0.19674775073518586	-0.4850712500726659	-0.22866478019001177	-0.21320071635561044	-0.1377945636523876	-0.18509792535309902	-0.5685839174940465	-0.3730294135805197	1.4972009678914295	-0.4850712500726659	-0.15266002995467645	-0.172773685116272	-0.1377945636523876	-0.15266002995467645	-0.2618856063178352	-0.23852207234014103	-0.19099917982881232	-0.21320071635561044	-0.17277368511627197	-0.2751796335759	-0.09138233247699075	-0.6549763986894769	-0.22360679774997894	-0.27517963357590003	1.9820624179302295	-0.18509792535309902	-0.3165877294413065	-0.3837556625654778	-0.3730294135805197	1.4342112903322353	-0.34359213546813844	-0.10227536871615327	-0.4621340056693295	-0.44887920124843483	-0.26637086328481074	-0.248069469178417	-0.18509792535309902	-0.7038153430777868	-0.36579067361184664	-0.15266002995467648	-0.2527383073108998	-0.1377945636523876	1.7888543819998317	1.874571602150418	-0.22360679774997894	-0.2336346567579989	1.5419540776632674	-0.15266002995467648	-0.4151266036854042	-0.43885372573625553	-0.3086066999241839	-0.17902871850985821	-0.3126136157099891	-0.4287464628562721	-0.22866478019001177	-0.5077524002897476	-0.1377945636523876	-0.4588314677411236	-0.3360107525161235	-0.39783587230787015	-2.680753751832887	-0.16631167868819402	-0.4321251979833932	-0.425357608788797	-0.38729833462074165	-0.17277368511627197	-0.21320071635561044	-0.2527383073108998	2.4289915602982237	-0.19099917982881232	-0.26637086328481074	-0.4455459193541129	-0.29637448918190956	2.4089036720899513	-0.1377945636523876	-0.18509792535309905	-0.3045655610791789	-0.3584754843740312	-0.2527383073108998	-0.43549417035569277	-0.10227536871615327	-0.24333213169614376	-0.2184544408639676	-0.24333213169614376	-0.2837902619042413	-0.14540168172557633	-0.2184544408639676	-0.2573425063274894	-0.19674775073518586	-0.26637086328481074	-0.19099917982881232	-0.22360679774997894	-0.22866478019001177	-0.18509792535309902	-0.1377945636523876	-0.4354941703556927	-0.2618856063178352	1.885896013460155	-0.16631167868819405	-0.19674775073518586	-0.2336346567579989	-0.34359213546813844	-0.19674775073518586	-0.2184544408639676	-0.2078377835631863	-0.24333213169614376	-0.2078377835631863	-0.29222124910239894	-0.16631167868819402	-0.16631167868819402	-0.15961737689352443	2.3892118644719087	-0.10227536871615327	-0.22360679774997894	-0.3045655610791789	-0.324442842261525	-0.270801280154532	-0.24333213169614376	-0.33218191941495995	-0.29222124910239894	-0.43212519798339316	-0.4422041999522907	-0.1212678125181665	-0.2184544408639676	2.0077973005261267	-0.0790569415042095	-0.5077524002897476	-0.17902871850985821	-0.29637448918190956	1.5652475842498528	-0.39433791644286204	-0.15961737689352443	-0.2184544408639676	-0.270801280154532	-0.3126136157099891	-0.5366563145999494	-0.2618856063178352	-0.24806946917841693	-0.18509792535309902	2.6551836094703507	-0.42195826865675345	0.7269669955769847	-0.2527383073108998	-0.35107807387173634	-0.12977713690461004	-0.2023568033500949	-0.19674775073518586	-0.7104033341674726	-0.19099917982881232	-0.23852207234014103	-0.3360107525161235	1.9948387010730888	-0.1454016817255763	-0.19099917982881232	-0.17902871850985821	-0.312613615709989	-0.23852207234014103	-0.1377945636523876	-0.1212678125181665	-0.22866478019001177	-0.5270462766947298	-0.2618856063178352	-0.4116934847963091	-0.1454016817255763	-0.1377945636523876	-1.46862614204502	-0.23852207234014103	-0.35478743759344955	-0.42535760878879697	-0.4785474204170223	3.0822070014844876	-0.24806946917841693	-0.2837902619042413	-0.14540168172557633	-0.22866478019001177	-0.684167454928235	-0.6132441406718666	-0.584522597225006	-0.0790569415042095	-0.5366563145999494	-0.14540168172557633	-0.3086066999241839	3.158682118743944	0.0644825880219161	-0.3004886915086905	-0.17902871850985821	-0.18509792535309902	-0.2023568033500949	-0.2184544408639676	-0.4151266036854042	-0.19674775073518586	-0.2573425063274894	-0.16631167868819402	-0.0644825880219161	-0.0790569415042095	-0.09138233247699075	-0.4621340056693295	-0.22866478019001177	-0.4980582450917523	-0.18509792535309902	-0.1377945636523876	-0.0790569415042095	0.0	-0.11215443081840884	-0.2527383073108998	-0.18509792535309902	1.9326909006996071	-0.4219582686567534	-0.12977713690461004	0.5908993240588318	-0.17277368511627197	-0.15266002995467645	3.523729085310996	-0.2837902619042413	-0.14540168172557633	-0.47527710324935324	-0.22866478019001177	-0.15961737689352445	2.8185890875479607	-0.3473465876788741	-0.2963744891819096	-0.2795084971874737	-0.2837902619042413	4.10960933531265	0.29222124910239894	-0.23852207234014103	-0.23363465675799888	0.7810249675906654	-0.18509792535309902	-0.35478743759344966	-0.5685839174940465	-0.16631167868819402	-0.4047905899187221	-0.26637086328481074	-0.24333213169614376	-0.3694192580731196	-0.20783778356318636	-0.16631167868819402	1.2205288696501546	-0.3473465876788741	-0.2837902619042413	-0.1212678125181665	-0.24806946917841693	-0.1377945636523876	-0.4287464628562721	-0.3004886915086905	-0.3801970055552455	-0.2527383073108998	-0.27517963357590003	-0.24806946917841693	-0.17902871850985821	-0.3004886915086905	-0.2618856063178352	-0.38375566256547783	-0.0644825880219161	-0.2184544408639676	-0.24806946917841693	-0.1212678125181665	-0.21320071635561044	-0.15266002995467648	-1.0272872767323509	-0.2573425063274894	-0.17902871850985821	-0.26637086328481074	-0.2618856063178352	-0.1377945636523876	-0.4720008581841587	-0.15266002995467645	-0.18509792535309902	-1.2636353087613479	-0.28802715367757503	-0.19099917982881232	-0.1377945636523876	-0.19099917982881232	0.6776536737232182	-0.34359213546813844	-0.22866478019001177	-0.1454016817255763	-0.20783778356318636	-0.43885372573625553	-0.445545919354113	-0.4488792012484349	-0.22866478019001177	3.8184610985697263	-0.42535760878879697	-0.2336346567579989	-0.10227536871615327	-0.2336346567579989	-0.20783778356318636	-0.14540168172557633	-0.21320071635561044	-0.14540168172557633	-0.3621429841700741	-0.09138233247699075	-0.404790589918722	-0.47854742041702225	-0.26637086328481074	-0.172773685116272	-0.41854806384909343	-0.2618856063178352	3.374109569147894	1.6392141107138378	-0.5877107279278204	-0.185097925353099	-0.36579067361184664	-0.17277368511627203	-0.12977713690461004	-0.2527383073108998	-0.36579067361184664	-0.312613615709989	-0.404790589918722	-0.2837902619042413	-0.2023568033500949	-0.11215443081840884	-0.6292485655330758	-0.2078377835631863	-0.3086066999241839	-0.2963744891819096	-0.270801280154532	-0.3004886915086905	-0.17902871850985821	-0.1212678125181665	-0.1377945636523876	-0.2023568033500949	3.119829055146025	-0.3045655610791789	-0.23852207234014103	-0.2527383073108998	-0.3473465876788741	-0.17277368511627197	-0.22866478019001177	-0.3004886915086905	1.3693063937629153	-0.10227536871615327	-0.22866478019001177	1.778705457193033	-0.19099917982881232	1.630671919513827	-0.3165877294413065	-0.24333213169614376	-0.2023568033500949	-0.15266002995467648	-0.17277368511627197	-0.34359213546813844	-0.2023568033500949	-0.172773685116272	-0.2573425063274894	-0.20235680335009487	-0.2527383073108998	-0.19674775073518586	-0.1454016817255763	-0.19674775073518586	-0.22360679774997894	-0.85146931829632	-0.12977713690461004	-0.1909991798288123	4.031128874149275	1.040142563173019
CHEMBL4113697	1.0	-0.452204354307721	-0.6292485655330758	-0.20783778356318636	-0.26637086328481074	1.8095127198187477	-0.14540168172557633	-0.24806946917841693	-0.12977713690461004	-0.27517963357590003	-0.17902871850985821	-0.22866478019001177	-0.3730294135805197	-0.24806946917841693	-0.2573425063274894	-0.35847548437403115	-0.822850735755479	-0.304565561079179	-0.12977713690461004	10.943034314119641	-0.28802715367757503	-0.3126136157099891	-0.17902871850985821	-0.1212678125181665	-0.23852207234014103	-0.14540168172557633	-0.19099917982881232	-0.32444284226152503	-0.38375566256547783	-0.1377945636523876	-0.2336346567579989	-0.09138233247699076	-0.29222124910239894	-0.3004886915086905	-1.5652475842498528	-0.3165877294413065	-0.0790569415042095	1.852347877843268	-0.4219582686567534	-0.14540168172557633	-0.22866478019001182	-0.4013199375905618	-0.21320071635561044	-0.3165877294413065	-0.5077524002897476	-0.16631167868819402	1.7201791748078519	1.9820624179302295	-0.09138233247699075	-0.15266002995467645	2.5586861863073405	-0.47527710324935324	-0.172773685116272	-0.3766217885773547	1.8095127198187473	3.5777087639996634	-0.2751796335759	2.761340254296815	-0.19099917982881232	-0.2336346567579989	-0.22360679774997894	-0.11215443081840884	-0.3978358723078702	-0.19674775073518586	-0.29637448918190956	0.9734375404520262	-0.23852207234014103	-0.26637086328481074	-0.38729833462074165	-0.3621429841700741	-0.12977713690461004	-0.11215443081840884	-0.32444284226152503	-0.24333213169614376	1.5652475842498528	-0.4488792012484348	-0.3730294135805197	-0.18509792535309902	-0.3908255749968252	-0.0790569415042095	-0.2751796335759	-0.9979317454590976	2.8789688324922067	-0.17277368511627197	3.2403703492039306	-0.22866478019001177	-0.17902871850985821	-0.26637086328481074	-0.17277368511627197	-0.19099917982881232	-0.12977713690461004	1.1306201337285888	-0.15266002995467648	-0.16631167868819402	-0.0790569415042095	-0.408248290463863	-0.26637086328481074	-0.22360679774997894	-0.2573425063274894	-0.3086066999241839	-0.16631167868819402	-0.11215443081840884	-0.18509792535309902	-0.523838078468744	-0.35107807387173634	-0.172773685116272	-0.17902871850985821	-0.22360679774997894	-0.2618856063178352	3.2833653169999297	-0.09138233247699075	-0.2837902619042413	-0.270801280154532	-0.48832523840319625	-0.22360679774997894	1.7686732677928756	-0.16631167868819402	-0.19099917982881232	-0.2618856063178352	-0.2618856063178352	-0.4818120558297157	-0.1212678125181665	-0.606854146129217	-0.19099917982881232	-0.20783778356318633	-0.19674775073518586	-0.21320071635561044	-0.15961737689352445	-0.2078377835631863	0.4785474204170223	-0.2837902619042412	-0.23852207234014103	-0.2837902619042413	-0.15266002995467645	-0.2023568033500949	-0.5366563145999494	-0.15266002995467648	-0.6614378277661476	3.88587184554509	0.5877107279278204	-0.29637448918190956	-0.41854806384909343	-0.15266002995467645	-0.3126136157099891	-0.19099917982881232	-0.6164414002968976	-0.16631167868819402	-0.2023568033500949	1.2691772180475078	-0.09138233247699075	-0.23852207234014103	-0.2336346567579989	-0.2078377835631863	-0.3473465876788741	-0.1212678125181665	-0.19674775073518586	-0.4850712500726659	-0.22866478019001177	-0.21320071635561044	-0.1377945636523876	-0.18509792535309902	-0.5685839174940465	-0.3730294135805197	1.4972009678914295	2.06155281280883	-0.15266002995467645	-0.172773685116272	-0.1377945636523876	-0.15266002995467645	-0.2618856063178352	-0.23852207234014103	-0.19099917982881232	-0.21320071635561044	-0.17277368511627197	-0.2751796335759	-0.09138233247699075	1.526772570738229	-0.22360679774997894	-0.27517963357590003	1.9820624179302295	-0.18509792535309902	-0.3165877294413065	-0.3837556625654778	-0.3730294135805197	-0.6972473349922869	2.910427500435996	-0.10227536871615327	-0.4621340056693295	-0.44887920124843483	-0.26637086328481074	-0.248069469178417	-0.18509792535309902	-0.7038153430777868	2.733803981730643	-0.15266002995467648	-0.2527383073108998	-0.1377945636523876	1.7888543819998317	-0.5334552165694009	-0.22360679774997894	-0.2336346567579989	-0.6485277444289625	-0.15266002995467648	-0.4151266036854042	2.2786635759382503	-0.3086066999241839	-0.17902871850985821	-0.3126136157099891	-0.4287464628562721	-0.22866478019001177	1.9694638556693238	-0.1377945636523876	2.179449471770337	-0.3360107525161235	-0.39783587230787015	0.3730294135805197	-0.16631167868819402	2.3141441523584345	-0.425357608788797	-0.38729833462074165	-0.17277368511627197	-0.21320071635561044	-0.2527383073108998	-0.4116934847963091	-0.19099917982881232	-0.26637086328481074	-0.4455459193541129	-0.29637448918190956	-0.4151266036854042	-0.1377945636523876	-0.18509792535309905	3.283365316999929	-0.3584754843740312	-0.2527383073108998	2.296241989148198	-0.10227536871615327	-0.24333213169614376	-0.2184544408639676	-0.24333213169614376	3.523729085310996	-0.14540168172557633	-0.2184544408639676	-0.2573425063274894	-0.19674775073518586	-0.26637086328481074	-0.19099917982881232	-0.22360679774997894	-0.22866478019001177	-0.18509792535309902	-0.1377945636523876	-0.4354941703556927	-0.2618856063178352	-0.5302519295139958	-0.16631167868819405	-0.19674775073518586	-0.2336346567579989	-0.34359213546813844	-0.19674775073518586	-0.2184544408639676	-0.2078377835631863	-0.24333213169614376	-0.2078377835631863	-0.29222124910239894	-0.16631167868819402	-0.16631167868819402	-0.15961737689352443	-0.41854806384909343	-0.10227536871615327	-0.22360679774997894	-0.3045655610791789	-0.324442842261525	-0.270801280154532	-0.24333213169614376	-0.33218191941495995	-0.29222124910239894	-0.43212519798339316	-0.4422041999522907	-0.1212678125181665	-0.2184544408639676	-0.49805824509175234	-0.0790569415042095	-0.5077524002897476	-0.17902871850985821	-0.29637448918190956	-0.6388765649999399	2.535896139586405	-0.15961737689352443	-0.2184544408639676	-0.270801280154532	-0.3126136157099891	1.8633899812498247	-0.2618856063178352	4.031128874149275	-0.18509792535309902	-0.3766217885773547	-0.42195826865675345	-1.3755782670798036	-0.2527383073108998	-0.35107807387173634	-0.12977713690461004	-0.2023568033500949	-0.19674775073518586	1.4076510510355476	-0.19099917982881232	-0.23852207234014103	2.9760952365713798	1.9948387010730888	-0.1454016817255763	-0.19099917982881232	-0.17902871850985821	-0.312613615709989	-0.23852207234014103	-0.1377945636523876	-0.1212678125181665	-0.22866478019001177	1.8973665961010275	-0.2618856063178352	-0.4116934847963091	-0.1454016817255763	-0.1377945636523876	0.6809084840390547	-0.23852207234014103	-0.35478743759344955	-0.42535760878879697	-0.4785474204170223	-0.324442842261525	-0.24806946917841693	-0.2837902619042413	-0.14540168172557633	-0.22866478019001177	-0.684167454928235	-0.6132441406718666	-0.584522597225006	-0.0790569415042095	-0.5366563145999494	-0.14540168172557633	-0.3086066999241839	-0.3165877294413065	0.0644825880219161	3.3279122584587473	-0.17902871850985821	-0.18509792535309902	-0.2023568033500949	-0.2184544408639676	-0.4151266036854042	-0.19674775073518586	-0.2573425063274894	-0.16631167868819402	-0.0644825880219161	-0.0790569415042095	-0.09138233247699075	-0.4621340056693295	-0.22866478019001177	-0.4980582450917523	-0.18509792535309902	-0.1377945636523876	-0.0790569415042095	0.0	-0.11215443081840884	-0.2527383073108998	-0.18509792535309902	-0.51741331199832	-0.4219582686567534	-0.12977713690461004	-1.6923356641044942	-0.17277368511627197	-0.15266002995467645	-0.2837902619042413	-0.2837902619042413	-0.14540168172557633	-0.47527710324935324	-0.22866478019001177	-0.15961737689352445	-0.35478743759344955	2.8789688324922067	-0.2963744891819096	-0.2795084971874737	-0.2837902619042413	-0.24333213169614376	0.29222124910239894	-0.23852207234014103	-0.23363465675799888	0.7810249675906654	-0.18509792535309902	-0.35478743759344966	-0.5685839174940465	6.012806844880862	-0.4047905899187221	-0.26637086328481074	-0.24333213169614376	-0.3694192580731196	-0.20783778356318636	-0.16631167868819402	1.2205288696501546	2.8789688324922067	3.523729085310996	-0.1212678125181665	-0.24806946917841693	-0.1377945636523876	2.33238075793812	-0.3004886915086905	-0.3801970055552455	-0.2527383073108998	-0.27517963357590003	-0.24806946917841693	-0.17902871850985821	-0.3004886915086905	-0.2618856063178352	2.605824740968809	-0.0644825880219161	-0.2184544408639676	-0.24806946917841693	-0.1212678125181665	-0.21320071635561044	-0.15266002995467648	0.9734375404520262	-0.2573425063274894	-0.17902871850985821	-0.26637086328481074	-0.2618856063178352	-0.1377945636523876	-0.4720008581841587	-0.15266002995467645	-0.18509792535309902	0.7913675671030665	-0.28802715367757503	-0.19099917982881232	-0.1377945636523876	-0.19099917982881232	-1.4756800394893763	-0.34359213546813844	-0.22866478019001177	-0.1454016817255763	-0.20783778356318636	-0.43885372573625553	-0.445545919354113	-0.4488792012484349	-0.22866478019001177	-0.2618856063178352	2.35096299992727	-0.2336346567579989	-0.10227536871615327	-0.2336346567579989	-0.20783778356318636	-0.14540168172557633	-0.21320071635561044	-0.14540168172557633	-0.3621429841700741	-0.09138233247699075	-0.404790589918722	-0.47854742041702225	-0.26637086328481074	-0.172773685116272	-0.41854806384909343	-0.2618856063178352	-0.29637448918190956	-0.6100484332486158	1.7015173494039315	-0.185097925353099	-0.36579067361184664	-0.17277368511627203	-0.12977713690461004	3.956661776522363	-0.36579067361184664	-0.312613615709989	-0.404790589918722	-0.2837902619042413	-0.2023568033500949	-0.11215443081840884	1.5891971071127315	-0.2078377835631863	3.2403703492039306	-0.2963744891819096	-0.270801280154532	-0.3004886915086905	-0.17902871850985821	-0.1212678125181665	-0.1377945636523876	-0.2023568033500949	-0.32053038237801623	-0.3045655610791789	-0.23852207234014103	-0.2527383073108998	-0.3473465876788741	-0.17277368511627197	-0.22866478019001177	-0.3004886915086905	-0.7302967433402215	-0.10227536871615327	-0.22866478019001177	-0.5622066295215036	5.2356245764839136	-0.6132441406718667	-0.3165877294413065	-0.24333213169614376	-0.2023568033500949	-0.15266002995467648	-0.17277368511627197	-0.34359213546813844	-0.2023568033500949	-0.172773685116272	-0.2573425063274894	-0.20235680335009487	-0.2527383073108998	-0.19674775073518586	-0.1454016817255763	-0.19674775073518586	-0.22360679774997894	1.174440439029407	-0.12977713690461004	-0.1909991798288123	-0.24806946917841693	-0.9614066719368143
CHEMBL4113330	1.0	-0.452204354307721	1.5891971071127315	-0.20783778356318636	-0.26637086328481074	-0.5526349657824824	-0.14540168172557633	-0.24806946917841693	-0.12977713690461004	-0.27517963357590003	-0.17902871850985821	-0.22866478019001177	2.680753751832887	4.031128874149275	-0.2573425063274894	-0.35847548437403115	1.2152872405003998	3.2833653169999297	-0.12977713690461004	-0.09138233247699075	-0.28802715367757503	3.1988369979626787	-0.17902871850985821	-0.1212678125181665	-0.23852207234014103	-0.14540168172557633	-0.19099917982881232	3.082207001484488	-0.38375566256547783	-0.1377945636523876	-0.2336346567579989	-0.09138233247699076	-0.29222124910239894	-0.3004886915086905	0.6388765649999398	-0.3165877294413065	-0.0790569415042095	-0.539855397553252	-0.4219582686567534	-0.14540168172557633	-0.22866478019001182	2.4917775229503536	-0.21320071635561044	-0.3165877294413065	-0.5077524002897476	-0.16631167868819402	-0.5813347903782768	-0.504524979109513	-0.09138233247699075	-0.15266002995467645	-0.39082557499682524	-0.47527710324935324	-0.172773685116272	2.6551836094703507	1.8095127198187473	-0.27950849718747367	3.6339898669287964	-0.3621429841700741	-0.19099917982881232	-0.2336346567579989	-0.22360679774997894	-0.11215443081840884	-0.3978358723078702	-0.19674775073518586	-0.29637448918190956	-1.0272872767323509	-0.23852207234014103	-0.26637086328481074	-0.38729833462074165	-0.3621429841700741	-0.12977713690461004	-0.11215443081840884	-0.32444284226152503	-0.24333213169614376	1.5652475842498528	-0.4488792012484348	-0.3730294135805197	-0.18509792535309902	-0.3908255749968252	-0.0790569415042095	-0.2751796335759	1.0020725410834093	-0.3473465876788741	-0.17277368511627197	-0.3086066999241839	-0.22866478019001177	-0.17902871850985821	-0.26637086328481074	-0.17277368511627197	-0.19099917982881232	-0.12977713690461004	-0.8844703629168298	-0.15266002995467648	-0.16631167868819402	-0.0790569415042095	2.449489742783178	-0.26637086328481074	-0.22360679774997894	-0.2573425063274894	3.2403703492039306	6.012806844880862	-0.11215443081840884	-0.18509792535309902	1.9089868436505188	-0.35107807387173634	-0.172773685116272	-0.17902871850985821	-0.22360679774997894	-0.2618856063178352	-0.304565561079179	-0.09138233247699075	-0.2837902619042413	-0.270801280154532	2.0478155158843716	-0.22360679774997894	1.7686732677928756	-0.16631167868819402	-0.19099917982881232	-0.2618856063178352	-0.2618856063178352	-0.4818120558297157	-0.1212678125181665	-0.606854146129217	-0.19099917982881232	-0.20783778356318633	-0.19674775073518586	-0.21320071635561044	-0.15961737689352445	-0.2078377835631863	0.4785474204170223	-0.2837902619042412	-0.23852207234014103	-0.2837902619042413	-0.15266002995467645	-0.2023568033500949	-0.5366563145999494	-0.15266002995467648	-0.6614378277661476	-0.2573425063274894	0.5877107279278204	-0.29637448918190956	-0.41854806384909343	-0.15266002995467645	-0.3126136157099891	-0.19099917982881232	1.6222142113076252	-0.16631167868819402	-0.2023568033500949	-0.787912031338218	-0.09138233247699075	-0.23852207234014103	-0.2336346567579989	-0.2078377835631863	-0.3473465876788741	-0.1212678125181665	-0.19674775073518586	-0.4850712500726659	-0.22866478019001177	-0.21320071635561044	-0.1377945636523876	-0.18509792535309902	1.7587553380112457	-0.3730294135805197	1.4972009678914295	-0.4850712500726659	-0.15266002995467645	-0.172773685116272	-0.1377945636523876	-0.15266002995467645	-0.2618856063178352	-0.23852207234014103	-0.19099917982881232	-0.21320071635561044	-0.17277368511627197	-0.2751796335759	-0.09138233247699075	-0.6549763986894769	-0.22360679774997894	-0.27517963357590003	-0.504524979109513	-0.18509792535309902	-0.3165877294413065	-0.3837556625654778	-0.3730294135805197	-0.6972473349922869	-0.34359213546813844	-0.10227536871615327	-0.4621340056693295	-0.44887920124843483	-0.26637086328481074	-0.248069469178417	-0.18509792535309902	-0.7038153430777868	2.733803981730643	-0.15266002995467648	-0.2527383073108998	-0.1377945636523876	-0.5590169943749475	1.874571602150418	-0.22360679774997894	-0.2336346567579989	1.5419540776632674	-0.15266002995467648	-0.4151266036854042	-0.43885372573625553	-0.3086066999241839	-0.17902871850985821	-0.3126136157099891	2.33238075793812	-0.22866478019001177	-0.5077524002897476	-0.1377945636523876	-0.4588314677411236	-0.3360107525161235	-0.39783587230787015	-2.680753751832887	-0.16631167868819402	-0.4321251979833932	2.35096299992727	-0.38729833462074165	-0.17277368511627197	-0.21320071635561044	-0.2527383073108998	-0.4116934847963091	-0.19099917982881232	-0.26637086328481074	2.244437568746344	-0.29637448918190956	2.4089036720899513	-0.1377945636523876	-0.18509792535309905	-0.3045655610791789	-0.3584754843740312	3.956661776522363	-0.43549417035569277	-0.10227536871615327	-0.24333213169614376	-0.2184544408639676	-0.24333213169614376	-0.2837902619042413	-0.14540168172557633	-0.2184544408639676	-0.2573425063274894	-0.19674775073518586	-0.26637086328481074	-0.19099917982881232	4.472135954999579	-0.22866478019001177	-0.18509792535309902	-0.1377945636523876	-0.4354941703556927	-0.2618856063178352	1.885896013460155	-0.16631167868819405	-0.19674775073518586	-0.2336346567579989	-0.34359213546813844	-0.19674775073518586	-0.2184544408639676	-0.2078377835631863	-0.24333213169614376	-0.2078377835631863	-0.29222124910239894	-0.16631167868819402	-0.16631167868819402	-0.15961737689352443	-0.41854806384909343	-0.10227536871615327	-0.22360679774997894	-0.3045655610791789	-0.324442842261525	-0.270801280154532	-0.24333213169614376	-0.33218191941495995	-0.29222124910239894	-0.43212519798339316	-0.4422041999522907	-0.1212678125181665	-0.2184544408639676	2.0077973005261267	-0.0790569415042095	-0.5077524002897476	-0.17902871850985821	-0.29637448918190956	-0.6388765649999399	-0.39433791644286204	-0.15961737689352443	-0.2184544408639676	-0.270801280154532	-0.3126136157099891	-0.5366563145999494	-0.2618856063178352	-0.24806946917841693	-0.18509792535309902	2.6551836094703507	-0.42195826865675345	0.7269669955769847	-0.2527383073108998	-0.35107807387173634	-0.12977713690461004	-0.2023568033500949	-0.19674775073518586	-0.7104033341674726	-0.19099917982881232	-0.23852207234014103	-0.3360107525161235	1.9948387010730888	-0.1454016817255763	-0.19099917982881232	-0.17902871850985821	-0.312613615709989	-0.23852207234014103	-0.1377945636523876	-0.1212678125181665	-0.22866478019001177	-0.5270462766947298	-0.2618856063178352	-0.4116934847963091	-0.1454016817255763	-0.1377945636523876	-1.46862614204502	-0.23852207234014103	-0.35478743759344955	-0.42535760878879697	-0.4785474204170223	-0.324442842261525	-0.24806946917841693	-0.2837902619042413	-0.14540168172557633	-0.22866478019001177	-0.684167454928235	-0.6132441406718666	-0.584522597225006	-0.0790569415042095	-0.5366563145999494	-0.14540168172557633	-0.3086066999241839	3.158682118743944	0.0644825880219161	-0.3004886915086905	-0.17902871850985821	-0.18509792535309902	-0.2023568033500949	-0.2184544408639676	-0.4151266036854042	-0.19674775073518586	-0.2573425063274894	-0.16631167868819402	-0.0644825880219161	-0.0790569415042095	-0.09138233247699075	-0.4621340056693295	-0.22866478019001177	-0.4980582450917523	-0.18509792535309902	-0.1377945636523876	-0.0790569415042095	0.0	-0.11215443081840884	-0.2527383073108998	-0.18509792535309902	1.9326909006996071	-0.4219582686567534	-0.12977713690461004	0.5908993240588318	-0.17277368511627197	6.550503103509753	-0.2837902619042413	-0.2837902619042413	-0.14540168172557633	-0.47527710324935324	-0.22866478019001177	-0.15961737689352445	2.8185890875479607	-0.3473465876788741	-0.2963744891819096	-0.2795084971874737	-0.2837902619042413	-0.24333213169614376	0.29222124910239894	-0.23852207234014103	-0.23363465675799888	0.7810249675906654	-0.18509792535309902	-0.35478743759344966	-0.5685839174940465	-0.16631167868819402	-0.4047905899187221	3.7541643544203014	-0.24333213169614376	-0.3694192580731196	-0.20783778356318636	-0.16631167868819402	1.2205288696501546	-0.3473465876788741	-0.2837902619042413	-0.1212678125181665	-0.24806946917841693	-0.1377945636523876	2.33238075793812	-0.3004886915086905	-0.3801970055552455	-0.2527383073108998	-0.27517963357590003	-0.24806946917841693	-0.17902871850985821	3.3279122584587473	-0.2618856063178352	-0.38375566256547783	-0.0644825880219161	-0.2184544408639676	-0.24806946917841693	-0.1212678125181665	-0.21320071635561044	-0.15266002995467648	0.9734375404520262	-0.2573425063274894	-0.17902871850985821	-0.26637086328481074	-0.2618856063178352	-0.1377945636523876	2.118640215712985	-0.15266002995467645	-0.18509792535309902	0.7913675671030665	-0.28802715367757503	-0.19099917982881232	-0.1377945636523876	-0.19099917982881232	0.6776536737232182	-0.34359213546813844	-0.22866478019001177	-0.1454016817255763	-0.20783778356318636	-0.43885372573625553	-0.445545919354113	-0.4488792012484349	-0.22866478019001177	3.8184610985697263	-0.42535760878879697	-0.2336346567579989	-0.10227536871615327	-0.2336346567579989	-0.20783778356318636	-0.14540168172557633	-0.21320071635561044	-0.14540168172557633	-0.3621429841700741	-0.09138233247699075	-0.404790589918722	-0.47854742041702225	-0.26637086328481074	-0.172773685116272	-0.41854806384909343	-0.2618856063178352	-0.29637448918190956	1.6392141107138378	-0.5877107279278204	-0.185097925353099	-0.36579067361184664	-0.17277368511627203	-0.12977713690461004	-0.2527383073108998	-0.36579067361184664	-0.312613615709989	-0.404790589918722	-0.2837902619042413	-0.2023568033500949	-0.11215443081840884	-0.6292485655330758	-0.2078377835631863	-0.3086066999241839	-0.2963744891819096	-0.270801280154532	-0.3004886915086905	-0.17902871850985821	-0.1212678125181665	-0.1377945636523876	-0.2023568033500949	3.119829055146025	-0.3045655610791789	-0.23852207234014103	-0.2527383073108998	-0.3473465876788741	-0.17277368511627197	-0.22866478019001177	-0.3004886915086905	1.3693063937629153	-0.10227536871615327	4.373213921133976	1.778705457193033	-0.19099917982881232	-0.6132441406718667	-0.3165877294413065	-0.24333213169614376	-0.2023568033500949	-0.15266002995467648	-0.17277368511627197	-0.34359213546813844	-0.2023568033500949	-0.172773685116272	-0.2573425063274894	-0.20235680335009487	-0.2527383073108998	-0.19674775073518586	-0.1454016817255763	-0.19674775073518586	-0.22360679774997894	1.174440439029407	-0.12977713690461004	5.235624576483913	-0.24806946917841693	1.040142563173019
CHEMBL3353188	1.0	-0.452204354307721	-0.6292485655330758	-0.20783778356318636	-0.26637086328481074	-0.5526349657824824	6.87749954561976	-0.24806946917841693	-0.12977713690461004	-0.27517963357590003	-0.17902871850985821	-0.22866478019001177	-0.3730294135805197	-0.24806946917841693	-0.2573425063274894	-0.35847548437403115	-0.822850735755479	-0.304565561079179	-0.12977713690461004	-0.09138233247699075	3.471894879464823	-0.3126136157099891	-0.17902871850985821	-0.1212678125181665	4.19248411767094	-0.14540168172557633	5.2356245764839136	-0.32444284226152503	-0.38375566256547783	-0.1377945636523876	-0.2336346567579989	-0.09138233247699076	-0.29222124910239894	-0.3004886915086905	-1.5652475842498528	-0.3165877294413065	-0.0790569415042095	-0.539855397553252	-0.4219582686567534	-0.14540168172557633	-0.22866478019001182	2.4917775229503536	-0.21320071635561044	-0.3165877294413065	-0.5077524002897476	-0.16631167868819402	-0.5813347903782768	-0.504524979109513	-0.09138233247699075	-0.15266002995467645	-0.39082557499682524	2.104035715508373	-0.172773685116272	2.6551836094703507	1.8095127198187473	-0.27950849718747367	-0.2751796335759	-0.3621429841700741	-0.19099917982881232	-0.2336346567579989	-0.22360679774997894	-0.11215443081840884	-0.3978358723078702	-0.19674775073518586	-0.29637448918190956	0.9734375404520262	-0.23852207234014103	-0.26637086328481074	2.5819888974716108	2.761340254296815	-0.12977713690461004	-0.11215443081840884	-0.32444284226152503	-0.24333213169614376	-0.6388765649999399	-0.4488792012484348	2.680753751832887	5.402545696243578	2.55868618630734	-0.0790569415042095	-0.2751796335759	1.0020725410834093	-0.3473465876788741	-0.17277368511627197	-0.3086066999241839	-0.22866478019001177	-0.17902871850985821	-0.26637086328481074	-0.17277368511627197	-0.19099917982881232	-0.12977713690461004	-0.8844703629168298	-0.15266002995467648	-0.16631167868819402	-0.0790569415042095	-0.408248290463863	-0.26637086328481074	-0.22360679774997894	-0.2573425063274894	-0.3086066999241839	-0.16631167868819402	-0.11215443081840884	-0.18509792535309902	-0.523838078468744	-0.35107807387173634	-0.172773685116272	-0.17902871850985821	-0.22360679774997894	-0.2618856063178352	3.2833653169999297	-0.09138233247699075	-0.2837902619042413	-0.270801280154532	2.0478155158843716	-0.22360679774997894	1.7686732677928756	-0.16631167868819402	-0.19099917982881232	-0.2618856063178352	-0.2618856063178352	-0.4818120558297157	-0.1212678125181665	-0.606854146129217	-0.19099917982881232	-0.20783778356318633	-0.19674775073518586	-0.21320071635561044	-0.15961737689352445	-0.2078377835631863	0.4785474204170223	-0.2837902619042412	-0.23852207234014103	-0.2837902619042413	-0.15266002995467645	-0.2023568033500949	-0.5366563145999494	-0.15266002995467648	1.5118578920369086	-0.2573425063274894	0.5877107279278204	-0.29637448918190956	2.3892118644719087	-0.15266002995467645	-0.3126136157099891	-0.19099917982881232	1.6222142113076252	-0.16631167868819402	-0.2023568033500949	1.2691772180475078	-0.09138233247699075	-0.23852207234014103	-0.2336346567579989	-0.2078377835631863	-0.3473465876788741	-0.1212678125181665	-0.19674775073518586	-0.4850712500726659	-0.22866478019001177	-0.21320071635561044	-0.1377945636523876	-0.18509792535309902	-0.5685839174940465	-0.3730294135805197	-0.6679130066342005	-0.4850712500726659	-0.15266002995467645	-0.172773685116272	-0.1377945636523876	-0.15266002995467645	3.8184610985697263	-0.23852207234014103	-0.19099917982881232	-0.21320071635561044	-0.17277368511627197	-0.2751796335759	-0.09138233247699075	-0.6549763986894769	-0.22360679774997894	-0.27517963357590003	-0.504524979109513	-0.18509792535309902	-0.3165877294413065	-0.3837556625654778	-0.3730294135805197	-0.6972473349922869	-0.34359213546813844	-0.10227536871615327	-0.4621340056693295	-0.44887920124843483	-0.26637086328481074	-0.248069469178417	-0.18509792535309902	-0.7038153430777868	-0.36579067361184664	-0.15266002995467648	-0.2527383073108998	-0.1377945636523876	-0.5590169943749475	-0.5334552165694009	-0.22360679774997894	-0.2336346567579989	1.5419540776632674	-0.15266002995467648	-0.4151266036854042	-0.43885372573625553	-0.3086066999241839	-0.17902871850985821	-0.3126136157099891	-0.4287464628562721	-0.22866478019001177	1.9694638556693238	-0.1377945636523876	-0.4588314677411236	-0.3360107525161235	2.513599375036089	0.3730294135805197	-0.16631167868819402	-0.4321251979833932	-0.425357608788797	-0.38729833462074165	-0.17277368511627197	-0.21320071635561044	-0.2527383073108998	-0.4116934847963091	-0.19099917982881232	-0.26637086328481074	2.244437568746344	-0.29637448918190956	-0.4151266036854042	-0.1377945636523876	-0.18509792535309905	-0.3045655610791789	-0.3584754843740312	-0.2527383073108998	-0.43549417035569277	-0.10227536871615327	-0.24333213169614376	-0.2184544408639676	-0.24333213169614376	-0.2837902619042413	-0.14540168172557633	-0.2184544408639676	3.88587184554509	-0.19674775073518586	-0.26637086328481074	-0.19099917982881232	-0.22360679774997894	4.373213921133976	-0.18509792535309902	-0.1377945636523876	-0.4354941703556927	-0.2618856063178352	-0.5302519295139958	-0.16631167868819405	-0.19674775073518586	-0.2336346567579989	-0.34359213546813844	-0.19674775073518586	-0.2184544408639676	-0.2078377835631863	-0.24333213169614376	-0.2078377835631863	-0.29222124910239894	-0.16631167868819402	-0.16631167868819402	-0.15961737689352443	-0.41854806384909343	-0.10227536871615327	-0.22360679774997894	-0.3045655610791789	-0.324442842261525	-0.270801280154532	-0.24333213169614376	-0.33218191941495995	-0.29222124910239894	-0.43212519798339316	2.2613986934269046	-0.1212678125181665	-0.2184544408639676	-0.49805824509175234	-0.0790569415042095	1.9694638556693238	-0.17902871850985821	-0.29637448918190956	1.5652475842498528	-0.39433791644286204	-0.15961737689352443	-0.2184544408639676	-0.270801280154532	3.1988369979626787	1.8633899812498247	-0.2618856063178352	-0.24806946917841693	-0.18509792535309902	-0.3766217885773547	-0.42195826865675345	0.7269669955769847	-0.2527383073108998	-0.35107807387173634	-0.12977713690461004	4.941766144970738	-0.19674775073518586	-0.7104033341674726	-0.19099917982881232	-0.23852207234014103	-0.3360107525161235	-0.5012936632230302	-0.1454016817255763	-0.19099917982881232	-0.17902871850985821	3.1988369979626783	-0.23852207234014103	7.2571803523590805	-0.1212678125181665	-0.22866478019001177	-0.5270462766947298	-0.2618856063178352	-0.4116934847963091	-0.1454016817255763	-0.1377945636523876	0.6809084840390547	-0.23852207234014103	-0.35478743759344955	-0.42535760878879697	-0.4785474204170223	-0.324442842261525	-0.24806946917841693	-0.2837902619042413	-0.14540168172557633	-0.22866478019001177	-0.684167454928235	1.6306719195138268	-0.584522597225006	-0.0790569415042095	-0.5366563145999494	-0.14540168172557633	-0.3086066999241839	-0.3165877294413065	0.0644825880219161	-0.3004886915086905	-0.17902871850985821	-0.18509792535309902	-0.2023568033500949	-0.2184544408639676	2.4089036720899513	-0.19674775073518586	3.88587184554509	-0.16631167868819402	-0.0644825880219161	-0.0790569415042095	-0.09138233247699075	-0.4621340056693295	-0.22866478019001177	-0.4980582450917523	-0.18509792535309902	-0.1377945636523876	-0.0790569415042095	0.0	-0.11215443081840884	-0.2527383073108998	-0.18509792535309902	-0.51741331199832	-0.4219582686567534	-0.12977713690461004	0.5908993240588318	-0.17277368511627197	-0.15266002995467645	-0.2837902619042413	-0.2837902619042413	-0.14540168172557633	-0.47527710324935324	-0.22866478019001177	-0.15961737689352445	-0.35478743759344955	-0.3473465876788741	-0.2963744891819096	-0.2795084971874737	-0.2837902619042413	-0.24333213169614376	0.29222124910239894	-0.23852207234014103	-0.23363465675799888	0.7810249675906654	-0.18509792535309902	-0.35478743759344966	1.7587553380112457	-0.16631167868819402	-0.4047905899187221	-0.26637086328481074	-0.24333213169614376	-0.3694192580731196	-0.20783778356318636	-0.16631167868819402	1.2205288696501546	-0.3473465876788741	-0.2837902619042413	-0.1212678125181665	-0.24806946917841693	-0.1377945636523876	-0.4287464628562721	-0.3004886915086905	-0.3801970055552455	-0.2527383073108998	-0.27517963357590003	-0.24806946917841693	-0.17902871850985821	-0.3004886915086905	-0.2618856063178352	-0.38375566256547783	-0.0644825880219161	-0.2184544408639676	-0.24806946917841693	-0.1212678125181665	-0.21320071635561044	-0.15266002995467648	-1.0272872767323509	-0.2573425063274894	-0.17902871850985821	-0.26637086328481074	-0.2618856063178352	-0.1377945636523876	2.118640215712985	-0.15266002995467645	-0.18509792535309902	0.7913675671030665	-0.28802715367757503	-0.19099917982881232	-0.1377945636523876	-0.19099917982881232	0.6776536737232182	2.910427500435996	-0.22866478019001177	6.877499545619759	-0.20783778356318636	-0.43885372573625553	-0.445545919354113	2.2277708506403804	-0.22866478019001177	3.8184610985697263	-0.42535760878879697	-0.2336346567579989	-0.10227536871615327	-0.2336346567579989	-0.20783778356318636	-0.14540168172557633	-0.21320071635561044	-0.14540168172557633	-0.3621429841700741	-0.09138233247699075	-0.404790589918722	-0.47854742041702225	-0.26637086328481074	-0.172773685116272	-0.41854806384909343	-0.2618856063178352	-0.29637448918190956	-0.6100484332486158	1.7015173494039315	-0.185097925353099	-0.36579067361184664	-0.17277368511627203	-0.12977713690461004	-0.2527383073108998	-0.36579067361184664	-0.312613615709989	2.470413159062789	-0.2837902619042413	-0.2023568033500949	-0.11215443081840884	-0.6292485655330758	-0.2078377835631863	-0.3086066999241839	-0.2963744891819096	-0.270801280154532	-0.3004886915086905	-0.17902871850985821	-0.1212678125181665	-0.1377945636523876	4.941766144970738	-0.32053038237801623	-0.3045655610791789	-0.23852207234014103	3.956661776522363	-0.3473465876788741	-0.17277368511627197	-0.22866478019001177	-0.3004886915086905	1.3693063937629153	-0.10227536871615327	-0.22866478019001177	-0.5622066295215036	5.2356245764839136	-0.6132441406718667	-0.3165877294413065	-0.24333213169614376	-0.2023568033500949	-0.15266002995467648	-0.17277368511627197	2.910427500435996	-0.2023568033500949	-0.172773685116272	-0.2573425063274894	-0.20235680335009487	-0.2527383073108998	-0.19674775073518586	-0.1454016817255763	-0.19674775073518586	-0.22360679774997894	-0.85146931829632	-0.12977713690461004	-0.1909991798288123	-0.24806946917841693	1.040142563173019
CHEMBL3634381	1.0	-0.452204354307721	1.5891971071127315	-0.20783778356318636	-0.26637086328481074	1.8095127198187477	-0.14540168172557633	-0.24806946917841693	-0.12977713690461004	-0.27517963357590003	-0.17902871850985821	-0.22866478019001177	-0.3730294135805197	-0.24806946917841693	-0.2573425063274894	-0.35847548437403115	-0.822850735755479	-0.304565561079179	-0.12977713690461004	-0.09138233247699075	-0.28802715367757503	-0.3126136157099891	-0.17902871850985821	-0.1212678125181665	-0.23852207234014103	-0.14540168172557633	-0.19099917982881232	3.082207001484488	-0.38375566256547783	-0.1377945636523876	-0.2336346567579989	-0.09138233247699076	-0.29222124910239894	3.3279122584587473	0.6388765649999398	-0.3165877294413065	-0.0790569415042095	-0.539855397553252	-0.4219582686567534	-0.14540168172557633	4.373213921133977	-0.4013199375905618	-0.21320071635561044	-0.3165877294413065	-0.5077524002897476	-0.16631167868819402	-0.5813347903782768	1.9820624179302295	-0.09138233247699075	6.550503103509753	-0.39082557499682524	-0.47527710324935324	-0.172773685116272	-0.3766217885773547	1.8095127198187473	-0.27950849718747367	-0.2751796335759	-0.3621429841700741	-0.19099917982881232	-0.2336346567579989	-0.22360679774997894	-0.11215443081840884	-0.3978358723078702	-0.19674775073518586	-0.29637448918190956	-1.0272872767323509	-0.23852207234014103	-0.26637086328481074	-0.38729833462074165	-0.3621429841700741	-0.12977713690461004	-0.11215443081840884	-0.32444284226152503	-0.24333213169614376	-0.6388765649999399	-0.4488792012484348	-0.3730294135805197	-0.18509792535309902	-0.3908255749968252	-0.0790569415042095	-0.2751796335759	-0.9979317454590976	-0.3473465876788741	-0.17277368511627197	-0.3086066999241839	-0.22866478019001177	-0.17902871850985821	-0.26637086328481074	-0.17277368511627197	-0.19099917982881232	-0.12977713690461004	-0.8844703629168298	-0.15266002995467648	-0.16631167868819402	-0.0790569415042095	-0.408248290463863	-0.26637086328481074	-0.22360679774997894	-0.2573425063274894	-0.3086066999241839	-0.16631167868819402	-0.11215443081840884	-0.18509792535309902	-0.523838078468744	-0.35107807387173634	-0.172773685116272	-0.17902871850985821	-0.22360679774997894	-0.2618856063178352	-0.304565561079179	-0.09138233247699075	-0.2837902619042413	-0.270801280154532	-0.48832523840319625	-0.22360679774997894	-0.565395552819034	-0.16631167868819402	-0.19099917982881232	-0.2618856063178352	-0.2618856063178352	-0.4818120558297157	-0.1212678125181665	1.647842412181643	-0.19099917982881232	-0.20783778356318633	-0.19674775073518586	-0.21320071635561044	-0.15961737689352445	-0.2078377835631863	0.4785474204170223	-0.2837902619042412	-0.23852207234014103	-0.2837902619042413	-0.15266002995467645	-0.2023568033500949	-0.5366563145999494	6.550503103509754	-0.6614378277661476	-0.2573425063274894	0.5877107279278204	-0.29637448918190956	-0.41854806384909343	-0.15266002995467645	-0.3126136157099891	-0.19099917982881232	-0.6164414002968976	-0.16631167868819402	-0.2023568033500949	1.2691772180475078	-0.09138233247699075	4.19248411767094	-0.2336346567579989	-0.2078377835631863	-0.3473465876788741	-0.1212678125181665	-0.19674775073518586	-0.4850712500726659	-0.22866478019001177	-0.21320071635561044	-0.1377945636523876	-0.18509792535309902	-0.5685839174940465	2.680753751832887	-0.6679130066342005	-0.4850712500726659	-0.15266002995467645	-0.172773685116272	-0.1377945636523876	-0.15266002995467645	-0.2618856063178352	-0.23852207234014103	-0.19099917982881232	-0.21320071635561044	-0.17277368511627197	-0.2751796335759	-0.09138233247699075	-0.6549763986894769	-0.22360679774997894	-0.27517963357590003	-0.504524979109513	-0.18509792535309902	-0.3165877294413065	-0.3837556625654778	-0.3730294135805197	-0.6972473349922869	-0.34359213546813844	-0.10227536871615327	-0.4621340056693295	-0.44887920124843483	-0.26637086328481074	4.0311288741492755	-0.18509792535309902	-0.7038153430777868	-0.36579067361184664	-0.15266002995467648	-0.2527383073108998	-0.1377945636523876	-0.5590169943749475	-0.5334552165694009	4.472135954999579	-0.2336346567579989	1.5419540776632674	-0.15266002995467648	-0.4151266036854042	-0.43885372573625553	3.2403703492039306	5.585696017507576	-0.3126136157099891	-0.4287464628562721	-0.22866478019001177	-0.5077524002897476	-0.1377945636523876	-0.4588314677411236	-0.3360107525161235	-0.39783587230787015	0.3730294135805197	-0.16631167868819402	-0.4321251979833932	2.35096299992727	-0.38729833462074165	-0.17277368511627197	4.69041575982343	3.956661776522363	-0.4116934847963091	-0.19099917982881232	-0.26637086328481074	2.244437568746344	3.374109569147894	-0.4151266036854042	-0.1377945636523876	-0.18509792535309905	-0.3045655610791789	-0.3584754843740312	-0.2527383073108998	-0.43549417035569277	-0.10227536871615327	-0.24333213169614376	-0.2184544408639676	-0.24333213169614376	-0.2837902619042413	-0.14540168172557633	-0.2184544408639676	-0.2573425063274894	-0.19674775073518586	-0.26637086328481074	-0.19099917982881232	-0.22360679774997894	-0.22866478019001177	-0.18509792535309902	-0.1377945636523876	-0.4354941703556927	-0.2618856063178352	-0.5302519295139958	-0.16631167868819405	-0.19674775073518586	-0.2336346567579989	-0.34359213546813844	-0.19674775073518586	-0.2184544408639676	-0.2078377835631863	-0.24333213169614376	-0.2078377835631863	-0.29222124910239894	-0.16631167868819402	-0.16631167868819402	-0.15961737689352443	-0.41854806384909343	-0.10227536871615327	4.472135954999579	-0.3045655610791789	-0.324442842261525	-0.270801280154532	-0.24333213169614376	-0.33218191941495995	-0.29222124910239894	-0.43212519798339316	-0.4422041999522907	-0.1212678125181665	-0.2184544408639676	-0.49805824509175234	-0.0790569415042095	1.9694638556693238	-0.17902871850985821	-0.29637448918190956	-0.6388765649999399	-0.39433791644286204	-0.15961737689352443	-0.2184544408639676	-0.270801280154532	-0.3126136157099891	-0.5366563145999494	-0.2618856063178352	-0.24806946917841693	-0.18509792535309902	-0.3766217885773547	-0.42195826865675345	0.7269669955769847	3.956661776522363	-0.35107807387173634	-0.12977713690461004	-0.2023568033500949	-0.19674775073518586	1.4076510510355476	-0.19099917982881232	-0.23852207234014103	-0.3360107525161235	-0.5012936632230302	-0.1454016817255763	-0.19099917982881232	-0.17902871850985821	-0.312613615709989	-0.23852207234014103	-0.1377945636523876	-0.1212678125181665	-0.22866478019001177	-0.5270462766947298	-0.2618856063178352	-0.4116934847963091	-0.1454016817255763	-0.1377945636523876	-1.46862614204502	-0.23852207234014103	-0.35478743759344955	-0.42535760878879697	-0.4785474204170223	-0.324442842261525	4.031128874149275	3.523729085310996	-0.14540168172557633	-0.22866478019001177	-0.684167454928235	-0.6132441406718666	-0.584522597225006	-0.0790569415042095	1.8633899812498247	-0.14540168172557633	-0.3086066999241839	-0.3165877294413065	0.0644825880219161	-0.3004886915086905	5.585696017507576	-0.18509792535309902	-0.2023568033500949	-0.2184544408639676	-0.4151266036854042	-0.19674775073518586	-0.2573425063274894	-0.16631167868819402	-0.0644825880219161	-0.0790569415042095	-0.09138233247699075	-0.4621340056693295	-0.22866478019001177	-0.4980582450917523	-0.18509792535309902	-0.1377945636523876	-0.0790569415042095	0.0	-0.11215443081840884	-0.2527383073108998	-0.18509792535309902	-0.51741331199832	-0.4219582686567534	-0.12977713690461004	-1.6923356641044942	-0.17277368511627197	-0.15266002995467645	-0.2837902619042413	-0.2837902619042413	-0.14540168172557633	-0.47527710324935324	-0.22866478019001177	-0.15961737689352445	-0.35478743759344955	-0.3473465876788741	-0.2963744891819096	-0.2795084971874737	-0.2837902619042413	-0.24333213169614376	0.29222124910239894	-0.23852207234014103	-0.23363465675799888	0.7810249675906654	-0.18509792535309902	-0.35478743759344966	-0.5685839174940465	-0.16631167868819402	-0.4047905899187221	-0.26637086328481074	-0.24333213169614376	-0.3694192580731196	4.8114446894877645	-0.16631167868819402	1.2205288696501546	-0.3473465876788741	-0.2837902619042413	8.246211251235321	-0.24806946917841693	-0.1377945636523876	-0.4287464628562721	-0.3004886915086905	-0.3801970055552455	3.956661776522363	-0.27517963357590003	-0.24806946917841693	-0.17902871850985821	-0.3004886915086905	-0.2618856063178352	-0.38375566256547783	-0.0644825880219161	-0.2184544408639676	-0.24806946917841693	-0.1212678125181665	4.69041575982343	-0.15266002995467648	0.9734375404520262	-0.2573425063274894	-0.17902871850985821	-0.26637086328481074	-0.2618856063178352	-0.1377945636523876	2.118640215712985	-0.15266002995467645	-0.18509792535309902	0.7913675671030665	-0.28802715367757503	-0.19099917982881232	-0.1377945636523876	-0.19099917982881232	0.6776536737232182	-0.34359213546813844	-0.22866478019001177	-0.1454016817255763	-0.20783778356318636	-0.43885372573625553	-0.445545919354113	2.2277708506403804	-0.22866478019001177	-0.2618856063178352	-0.42535760878879697	-0.2336346567579989	-0.10227536871615327	-0.2336346567579989	-0.20783778356318636	-0.14540168172557633	-0.21320071635561044	-0.14540168172557633	-0.3621429841700741	-0.09138233247699075	-0.404790589918722	-0.47854742041702225	-0.26637086328481074	-0.172773685116272	-0.41854806384909343	-0.2618856063178352	-0.29637448918190956	-0.6100484332486158	-0.5877107279278204	-0.185097925353099	-0.36579067361184664	-0.17277368511627203	-0.12977713690461004	-0.2527383073108998	2.733803981730643	-0.312613615709989	2.470413159062789	-0.2837902619042413	-0.2023568033500949	-0.11215443081840884	-0.6292485655330758	-0.2078377835631863	3.2403703492039306	-0.2963744891819096	-0.270801280154532	-0.3004886915086905	-0.17902871850985821	-0.1212678125181665	-0.1377945636523876	-0.2023568033500949	-0.32053038237801623	-0.3045655610791789	-0.23852207234014103	-0.2527383073108998	-0.3473465876788741	-0.17277368511627197	-0.22866478019001177	-0.3004886915086905	1.3693063937629153	-0.10227536871615327	4.373213921133976	-0.5622066295215036	-0.19099917982881232	-0.6132441406718667	-0.3165877294413065	-0.24333213169614376	-0.2023568033500949	-0.15266002995467648	-0.17277368511627197	-0.34359213546813844	-0.2023568033500949	-0.172773685116272	-0.2573425063274894	-0.20235680335009487	-0.2527383073108998	-0.19674775073518586	-0.1454016817255763	-0.19674775073518586	-0.22360679774997894	1.174440439029407	-0.12977713690461004	-0.1909991798288123	-0.24806946917841693	1.040142563173019
CHEMBL4061890	1.0	2.2113895863097084	-0.6292485655330758	-0.20783778356318636	-0.26637086328481074	-0.5526349657824824	-0.14540168172557633	-0.24806946917841693	-0.12977713690461004	-0.27517963357590003	-0.17902871850985821	-0.22866478019001177	-0.3730294135805197	-0.24806946917841693	-0.2573425063274894	-0.35847548437403115	-0.822850735755479	-0.304565561079179	-0.12977713690461004	-0.09138233247699075	-0.28802715367757503	3.1988369979626787	-0.17902871850985821	-0.1212678125181665	-0.23852207234014103	-0.14540168172557633	-0.19099917982881232	-0.32444284226152503	-0.38375566256547783	-0.1377945636523876	-0.2336346567579989	-0.09138233247699076	-0.29222124910239894	-0.3004886915086905	0.6388765649999398	-0.3165877294413065	-0.0790569415042095	-0.539855397553252	-0.4219582686567534	-0.14540168172557633	4.373213921133977	-0.4013199375905618	-0.21320071635561044	-0.3165877294413065	-0.5077524002897476	-0.16631167868819402	-0.5813347903782768	-0.504524979109513	-0.09138233247699075	-0.15266002995467645	-0.39082557499682524	-0.47527710324935324	-0.172773685116272	-0.3766217885773547	-0.5526349657824823	-0.27950849718747367	-0.2751796335759	-0.3621429841700741	-0.19099917982881232	-0.2336346567579989	-0.22360679774997894	-0.11215443081840884	-0.3978358723078702	-0.19674775073518586	-0.29637448918190956	-1.0272872767323509	-0.23852207234014103	-0.26637086328481074	-0.38729833462074165	-0.3621429841700741	-0.12977713690461004	-0.11215443081840884	-0.32444284226152503	-0.24333213169614376	1.5652475842498528	-0.4488792012484348	-0.3730294135805197	-0.18509792535309902	-0.3908255749968252	-0.0790569415042095	-0.2751796335759	1.0020725410834093	-0.3473465876788741	-0.17277368511627197	-0.3086066999241839	4.373213921133976	-0.17902871850985821	-0.26637086328481074	-0.17277368511627197	-0.19099917982881232	-0.12977713690461004	1.1306201337285888	-0.15266002995467648	-0.16631167868819402	-0.0790569415042095	-0.408248290463863	-0.26637086328481074	-0.22360679774997894	-0.2573425063274894	-0.3086066999241839	-0.16631167868819402	-0.11215443081840884	5.402545696243578	-0.523838078468744	-0.35107807387173634	-0.172773685116272	5.585696017507576	-0.22360679774997894	-0.2618856063178352	3.2833653169999297	-0.09138233247699075	3.523729085310996	-0.270801280154532	2.0478155158843716	-0.22360679774997894	-0.565395552819034	-0.16631167868819402	-0.19099917982881232	-0.2618856063178352	-0.2618856063178352	-0.4818120558297157	-0.1212678125181665	-0.606854146129217	-0.19099917982881232	-0.20783778356318633	-0.19674775073518586	-0.21320071635561044	-0.15961737689352445	-0.2078377835631863	-2.0896570691543306	-0.2837902619042412	-0.23852207234014103	-0.2837902619042413	-0.15266002995467645	-0.2023568033500949	-0.5366563145999494	6.550503103509754	-0.6614378277661476	-0.2573425063274894	0.5877107279278204	3.374109569147894	2.3892118644719087	-0.15266002995467645	-0.3126136157099891	-0.19099917982881232	-0.6164414002968976	-0.16631167868819402	-0.2023568033500949	1.2691772180475078	-0.09138233247699075	-0.23852207234014103	-0.2336346567579989	-0.2078377835631863	-0.3473465876788741	-0.1212678125181665	-0.19674775073518586	-0.4850712500726659	-0.22866478019001177	-0.21320071635561044	-0.1377945636523876	-0.18509792535309902	-0.5685839174940465	2.680753751832887	-0.6679130066342005	-0.4850712500726659	-0.15266002995467645	-0.172773685116272	-0.1377945636523876	-0.15266002995467645	-0.2618856063178352	-0.23852207234014103	-0.19099917982881232	-0.21320071635561044	-0.17277368511627197	-0.2751796335759	-0.09138233247699075	-0.6549763986894769	-0.22360679774997894	-0.27517963357590003	-0.504524979109513	-0.18509792535309902	-0.3165877294413065	-0.3837556625654778	-0.3730294135805197	1.4342112903322353	-0.34359213546813844	-0.10227536871615327	-0.4621340056693295	-0.44887920124843483	-0.26637086328481074	-0.248069469178417	-0.18509792535309902	-0.7038153430777868	-0.36579067361184664	-0.15266002995467648	-0.2527383073108998	-0.1377945636523876	-0.5590169943749475	-0.5334552165694009	-0.22360679774997894	-0.2336346567579989	-0.6485277444289625	-0.15266002995467648	2.4089036720899513	-0.43885372573625553	-0.3086066999241839	-0.17902871850985821	-0.3126136157099891	-0.4287464628562721	-0.22866478019001177	-0.5077524002897476	-0.1377945636523876	-0.4588314677411236	-0.3360107525161235	-0.39783587230787015	0.3730294135805197	-0.16631167868819402	-0.4321251979833932	-0.425357608788797	-0.38729833462074165	-0.17277368511627197	-0.21320071635561044	-0.2527383073108998	-0.4116934847963091	-0.19099917982881232	-0.26637086328481074	-0.4455459193541129	-0.29637448918190956	-0.4151266036854042	-0.1377945636523876	-0.18509792535309905	3.283365316999929	2.789591042037915	-0.2527383073108998	-0.43549417035569277	-0.10227536871615327	-0.24333213169614376	-0.2184544408639676	-0.24333213169614376	-0.2837902619042413	-0.14540168172557633	-0.2184544408639676	-0.2573425063274894	-0.19674775073518586	-0.26637086328481074	-0.19099917982881232	-0.22360679774997894	-0.22866478019001177	-0.18509792535309902	-0.1377945636523876	2.2962419891481978	-0.2618856063178352	-0.5302519295139958	-0.16631167868819405	-0.19674775073518586	-0.2336346567579989	-0.34359213546813844	-0.19674775073518586	-0.2184544408639676	-0.2078377835631863	-0.24333213169614376	-0.2078377835631863	-0.29222124910239894	-0.16631167868819402	-0.16631167868819402	-0.15961737689352443	-0.41854806384909343	-0.10227536871615327	-0.22360679774997894	-0.3045655610791789	-0.324442842261525	-0.270801280154532	-0.24333213169614376	-0.33218191941495995	-0.29222124910239894	-0.43212519798339316	2.2613986934269046	-0.1212678125181665	-0.2184544408639676	-0.49805824509175234	-0.0790569415042095	-0.5077524002897476	-0.17902871850985821	-0.29637448918190956	-0.6388765649999399	-0.39433791644286204	-0.15961737689352443	-0.2184544408639676	-0.270801280154532	-0.3126136157099891	-0.5366563145999494	-0.2618856063178352	-0.24806946917841693	-0.18509792535309902	-0.3766217885773547	-0.42195826865675345	0.7269669955769847	-0.2527383073108998	-0.35107807387173634	-0.12977713690461004	-0.2023568033500949	-0.19674775073518586	1.4076510510355476	-0.19099917982881232	-0.23852207234014103	-0.3360107525161235	-0.5012936632230302	-0.1454016817255763	-0.19099917982881232	-0.17902871850985821	3.1988369979626783	-0.23852207234014103	-0.1377945636523876	-0.1212678125181665	-0.22866478019001177	1.8973665961010275	-0.2618856063178352	-0.4116934847963091	-0.1454016817255763	-0.1377945636523876	-1.46862614204502	-0.23852207234014103	-0.35478743759344955	-0.42535760878879697	-0.4785474204170223	-0.324442842261525	-0.24806946917841693	-0.2837902619042413	-0.14540168172557633	-0.22866478019001177	1.461630471892139	1.6306719195138268	-0.584522597225006	-0.0790569415042095	1.8633899812498247	-0.14540168172557633	3.2403703492039306	-0.3165877294413065	0.0644825880219161	-0.3004886915086905	-0.17902871850985821	-0.18509792535309902	-0.2023568033500949	-0.2184544408639676	-0.4151266036854042	-0.19674775073518586	-0.2573425063274894	-0.16631167868819402	-0.0644825880219161	-0.0790569415042095	-0.09138233247699075	-0.4621340056693295	-0.22866478019001177	-0.4980582450917523	-0.18509792535309902	-0.1377945636523876	-0.0790569415042095	0.0	-0.11215443081840884	-0.2527383073108998	-0.18509792535309902	-0.51741331199832	-0.4219582686567534	-0.12977713690461004	0.5908993240588318	-0.17277368511627197	-0.15266002995467645	-0.2837902619042413	-0.2837902619042413	-0.14540168172557633	-0.47527710324935324	4.373213921133976	-0.15961737689352445	-0.35478743759344955	-0.3473465876788741	-0.2963744891819096	-0.2795084971874737	-0.2837902619042413	-0.24333213169614376	0.29222124910239894	-0.23852207234014103	-0.23363465675799888	0.7810249675906654	-0.18509792535309902	-0.35478743759344966	-0.5685839174940465	-0.16631167868819402	-0.4047905899187221	-0.26637086328481074	-0.24333213169614376	-0.3694192580731196	-0.20783778356318636	6.012806844880861	-0.8193169574814186	-0.3473465876788741	-0.2837902619042413	-0.1212678125181665	-0.24806946917841693	-0.1377945636523876	-0.4287464628562721	-0.3004886915086905	2.63021534990678	-0.2527383073108998	-0.27517963357590003	-0.24806946917841693	-0.17902871850985821	-0.3004886915086905	-0.2618856063178352	-0.38375566256547783	-0.0644825880219161	-0.2184544408639676	-0.24806946917841693	-0.1212678125181665	-0.21320071635561044	-0.15266002995467648	0.9734375404520262	-0.2573425063274894	-0.17902871850985821	-0.26637086328481074	-0.2618856063178352	-0.1377945636523876	-0.4720008581841587	-0.15266002995467645	-0.18509792535309902	-1.2636353087613479	-0.28802715367757503	-0.19099917982881232	-0.1377945636523876	-0.19099917982881232	0.6776536737232182	-0.34359213546813844	-0.22866478019001177	-0.1454016817255763	-0.20783778356318636	-0.43885372573625553	2.244437568746344	-0.4488792012484349	-0.22866478019001177	-0.2618856063178352	-0.42535760878879697	-0.2336346567579989	-0.10227536871615327	-0.2336346567579989	-0.20783778356318636	-0.14540168172557633	-0.21320071635561044	-0.14540168172557633	-0.3621429841700741	-0.09138233247699075	-0.404790589918722	-0.47854742041702225	-0.26637086328481074	-0.172773685116272	-0.41854806384909343	-0.2618856063178352	-0.29637448918190956	1.6392141107138378	-0.5877107279278204	-0.185097925353099	-0.36579067361184664	-0.17277368511627203	-0.12977713690461004	-0.2527383073108998	-0.36579067361184664	-0.312613615709989	-0.404790589918722	-0.2837902619042413	-0.2023568033500949	-0.11215443081840884	-0.6292485655330758	-0.2078377835631863	-0.3086066999241839	-0.2963744891819096	-0.270801280154532	-0.3004886915086905	-0.17902871850985821	-0.1212678125181665	-0.1377945636523876	-0.2023568033500949	-0.32053038237801623	-0.3045655610791789	-0.23852207234014103	-0.2527383073108998	-0.3473465876788741	-0.17277368511627197	-0.22866478019001177	-0.3004886915086905	-0.7302967433402215	-0.10227536871615327	-0.22866478019001177	-0.5622066295215036	-0.19099917982881232	-0.6132441406718667	-0.3165877294413065	-0.24333213169614376	-0.2023568033500949	-0.15266002995467648	-0.17277368511627197	-0.34359213546813844	-0.2023568033500949	-0.172773685116272	-0.2573425063274894	-0.20235680335009487	-0.2527383073108998	-0.19674775073518586	-0.1454016817255763	-0.19674775073518586	-0.22360679774997894	1.174440439029407	-0.12977713690461004	-0.1909991798288123	-0.24806946917841693	-0.9614066719368143
CHEMBL3353200	1.0	-0.452204354307721	-0.6292485655330758	-0.20783778356318636	-0.26637086328481074	-0.5526349657824824	-0.14540168172557633	-0.24806946917841693	-0.12977713690461004	-0.27517963357590003	-0.17902871850985821	-0.22866478019001177	-0.3730294135805197	-0.24806946917841693	-0.2573425063274894	2.789591042037915	1.2152872405003998	-0.304565561079179	-0.12977713690461004	-0.09138233247699075	-0.28802715367757503	-0.3126136157099891	-0.17902871850985821	-0.1212678125181665	-0.23852207234014103	-0.14540168172557633	5.2356245764839136	-0.32444284226152503	-0.38375566256547783	-0.1377945636523876	-0.2336346567579989	-0.09138233247699076	-0.29222124910239894	3.3279122584587473	0.6388765649999398	-0.3165877294413065	-0.0790569415042095	-0.539855397553252	2.3699026047845058	-0.14540168172557633	-0.22866478019001182	-0.4013199375905618	-0.21320071635561044	-0.3165877294413065	-0.5077524002897476	-0.16631167868819402	1.7201791748078519	1.9820624179302295	-0.09138233247699075	-0.15266002995467645	-0.39082557499682524	2.104035715508373	-0.172773685116272	-0.3766217885773547	1.8095127198187473	-0.27950849718747367	-0.2751796335759	-0.3621429841700741	-0.19099917982881232	-0.2336346567579989	-0.22360679774997894	-0.11215443081840884	-0.3978358723078702	-0.19674775073518586	-0.29637448918190956	0.9734375404520262	-0.23852207234014103	-0.26637086328481074	-0.38729833462074165	-0.3621429841700741	-0.12977713690461004	-0.11215443081840884	-0.32444284226152503	-0.24333213169614376	1.5652475842498528	-0.4488792012484348	-0.3730294135805197	-0.18509792535309902	-0.3908255749968252	-0.0790569415042095	-0.2751796335759	1.0020725410834093	-0.3473465876788741	-0.17277368511627197	3.2403703492039306	-0.22866478019001177	-0.17902871850985821	-0.26637086328481074	-0.17277368511627197	-0.19099917982881232	7.705517503711222	-0.8844703629168298	-0.15266002995467648	-0.16631167868819402	-0.0790569415042095	-0.408248290463863	-0.26637086328481074	-0.22360679774997894	-0.2573425063274894	-0.3086066999241839	-0.16631167868819402	-0.11215443081840884	-0.18509792535309902	-0.523838078468744	-0.35107807387173634	-0.172773685116272	-0.17902871850985821	-0.22360679774997894	-0.2618856063178352	-0.304565561079179	-0.09138233247699075	-0.2837902619042413	-0.270801280154532	-0.48832523840319625	-0.22360679774997894	1.7686732677928756	-0.16631167868819402	-0.19099917982881232	-0.2618856063178352	-0.2618856063178352	-0.4818120558297157	-0.1212678125181665	1.647842412181643	-0.19099917982881232	-0.20783778356318633	-0.19674775073518586	-0.21320071635561044	-0.15961737689352445	-0.2078377835631863	0.4785474204170223	-0.2837902619042412	-0.23852207234014103	-0.2837902619042413	-0.15266002995467645	-0.2023568033500949	-0.5366563145999494	-0.15266002995467648	-0.6614378277661476	-0.2573425063274894	-1.7015173494039315	-0.29637448918190956	-0.41854806384909343	-0.15266002995467645	-0.3126136157099891	-0.19099917982881232	-0.6164414002968976	-0.16631167868819402	-0.2023568033500949	1.2691772180475078	-0.09138233247699075	-0.23852207234014103	4.28018691180654	-0.2078377835631863	-0.3473465876788741	-0.1212678125181665	-0.19674775073518586	-0.4850712500726659	-0.22866478019001177	-0.21320071635561044	-0.1377945636523876	-0.18509792535309902	-0.5685839174940465	-0.3730294135805197	1.4972009678914295	2.06155281280883	-0.15266002995467645	-0.172773685116272	-0.1377945636523876	-0.15266002995467645	-0.2618856063178352	-0.23852207234014103	-0.19099917982881232	-0.21320071635561044	-0.17277368511627197	-0.2751796335759	-0.09138233247699075	1.526772570738229	-0.22360679774997894	-0.27517963357590003	-0.504524979109513	-0.18509792535309902	-0.3165877294413065	-0.3837556625654778	-0.3730294135805197	-0.6972473349922869	-0.34359213546813844	-0.10227536871615327	-0.4621340056693295	-0.44887920124843483	-0.26637086328481074	-0.248069469178417	-0.18509792535309902	1.4208272238382822	-0.36579067361184664	-0.15266002995467648	-0.2527383073108998	-0.1377945636523876	1.7888543819998317	-0.5334552165694009	-0.22360679774997894	-0.2336346567579989	-0.6485277444289625	-0.15266002995467648	-0.4151266036854042	-0.43885372573625553	-0.3086066999241839	-0.17902871850985821	-0.3126136157099891	2.33238075793812	4.373213921133976	-0.5077524002897476	-0.1377945636523876	-0.4588314677411236	2.9760952365713798	-0.39783587230787015	0.3730294135805197	-0.16631167868819402	-0.4321251979833932	-0.425357608788797	-0.38729833462074165	-0.17277368511627197	-0.21320071635561044	-0.2527383073108998	2.4289915602982237	-0.19099917982881232	-0.26637086328481074	-0.4455459193541129	-0.29637448918190956	-0.4151266036854042	-0.1377945636523876	-0.18509792535309905	-0.3045655610791789	2.789591042037915	-0.2527383073108998	2.296241989148198	-0.10227536871615327	-0.24333213169614376	-0.2184544408639676	-0.24333213169614376	-0.2837902619042413	-0.14540168172557633	-0.2184544408639676	-0.2573425063274894	-0.19674775073518586	-0.26637086328481074	-0.19099917982881232	-0.22360679774997894	-0.22866478019001177	-0.18509792535309902	-0.1377945636523876	-0.4354941703556927	-0.2618856063178352	-0.5302519295139958	-0.16631167868819405	-0.19674775073518586	-0.2336346567579989	-0.34359213546813844	-0.19674775073518586	-0.2184544408639676	-0.2078377835631863	-0.24333213169614376	-0.2078377835631863	-0.29222124910239894	-0.16631167868819402	-0.16631167868819402	-0.15961737689352443	-0.41854806384909343	-0.10227536871615327	-0.22360679774997894	3.283365316999929	-0.324442842261525	-0.270801280154532	-0.24333213169614376	-0.33218191941495995	-0.29222124910239894	-0.43212519798339316	-0.4422041999522907	-0.1212678125181665	-0.2184544408639676	-0.49805824509175234	-0.0790569415042095	-0.5077524002897476	-0.17902871850985821	-0.29637448918190956	-0.6388765649999399	-0.39433791644286204	-0.15961737689352443	-0.2184544408639676	-0.270801280154532	3.1988369979626787	1.8633899812498247	-0.2618856063178352	4.031128874149275	-0.18509792535309902	-0.3766217885773547	-0.42195826865675345	0.7269669955769847	-0.2527383073108998	-0.35107807387173634	-0.12977713690461004	-0.2023568033500949	-0.19674775073518586	-0.7104033341674726	-0.19099917982881232	4.19248411767094	-0.3360107525161235	-0.5012936632230302	-0.1454016817255763	-0.19099917982881232	-0.17902871850985821	-0.312613615709989	-0.23852207234014103	-0.1377945636523876	-0.1212678125181665	-0.22866478019001177	-0.5270462766947298	-0.2618856063178352	-0.4116934847963091	-0.1454016817255763	-0.1377945636523876	0.6809084840390547	-0.23852207234014103	-0.35478743759344955	-0.42535760878879697	-0.4785474204170223	-0.324442842261525	-0.24806946917841693	-0.2837902619042413	-0.14540168172557633	-0.22866478019001177	1.461630471892139	-0.6132441406718666	-0.584522597225006	-0.0790569415042095	-0.5366563145999494	-0.14540168172557633	-0.3086066999241839	-0.3165877294413065	0.0644825880219161	-0.3004886915086905	-0.17902871850985821	5.402545696243578	-0.2023568033500949	4.577613510831321	-0.4151266036854042	-0.19674775073518586	-0.2573425063274894	-0.16631167868819402	-0.0644825880219161	-0.0790569415042095	-0.09138233247699075	-0.4621340056693295	-0.22866478019001177	2.0077973005261263	-0.18509792535309902	7.2571803523590805	-0.0790569415042095	0.0	-0.11215443081840884	-0.2527383073108998	5.402545696243578	-0.51741331199832	-0.4219582686567534	-0.12977713690461004	0.5908993240588318	-0.17277368511627197	-0.15266002995467645	-0.2837902619042413	-0.2837902619042413	-0.14540168172557633	-0.47527710324935324	-0.22866478019001177	-0.15961737689352445	-0.35478743759344955	2.8789688324922067	-0.2963744891819096	-0.2795084971874737	-0.2837902619042413	-0.24333213169614376	0.29222124910239894	4.19248411767094	-0.23363465675799888	-1.2803687993289599	-0.18509792535309902	-0.35478743759344966	-0.5685839174940465	-0.16631167868819402	-0.4047905899187221	-0.26637086328481074	-0.24333213169614376	-0.3694192580731196	-0.20783778356318636	-0.16631167868819402	-0.8193169574814186	-0.3473465876788741	-0.2837902619042413	-0.1212678125181665	-0.24806946917841693	-0.1377945636523876	2.33238075793812	-0.3004886915086905	-0.3801970055552455	3.956661776522363	-0.27517963357590003	-0.24806946917841693	-0.17902871850985821	-0.3004886915086905	-0.2618856063178352	2.605824740968809	-0.0644825880219161	-0.2184544408639676	-0.24806946917841693	-0.1212678125181665	4.69041575982343	-0.15266002995467648	0.9734375404520262	-0.2573425063274894	-0.17902871850985821	-0.26637086328481074	-0.2618856063178352	-0.1377945636523876	-0.4720008581841587	-0.15266002995467645	-0.18509792535309902	0.7913675671030665	-0.28802715367757503	-0.19099917982881232	-0.1377945636523876	-0.19099917982881232	0.6776536737232182	-0.34359213546813844	-0.22866478019001177	-0.1454016817255763	-0.20783778356318636	-0.43885372573625553	-0.445545919354113	-0.4488792012484349	-0.22866478019001177	-0.2618856063178352	-0.42535760878879697	-0.2336346567579989	-0.10227536871615327	-0.2336346567579989	-0.20783778356318636	-0.14540168172557633	-0.21320071635561044	-0.14540168172557633	-0.3621429841700741	-0.09138233247699075	-0.404790589918722	-0.47854742041702225	-0.26637086328481074	-0.172773685116272	-0.41854806384909343	-0.2618856063178352	-0.29637448918190956	-0.6100484332486158	1.7015173494039315	-0.185097925353099	2.733803981730643	-0.17277368511627203	-0.12977713690461004	3.956661776522363	-0.36579067361184664	-0.312613615709989	-0.404790589918722	-0.2837902619042413	-0.2023568033500949	-0.11215443081840884	1.5891971071127315	-0.2078377835631863	-0.3086066999241839	-0.2963744891819096	-0.270801280154532	-0.3004886915086905	-0.17902871850985821	-0.1212678125181665	-0.1377945636523876	-0.2023568033500949	-0.32053038237801623	-0.3045655610791789	-0.23852207234014103	-0.2527383073108998	-0.3473465876788741	-0.17277368511627197	4.373213921133976	-0.3004886915086905	-0.7302967433402215	-0.10227536871615327	-0.22866478019001177	-0.5622066295215036	-0.19099917982881232	1.630671919513827	3.158682118743944	-0.24333213169614376	-0.2023568033500949	-0.15266002995467648	5.787918451395111	-0.34359213546813844	-0.2023568033500949	-0.172773685116272	-0.2573425063274894	-0.20235680335009487	-0.2527383073108998	-0.19674775073518586	-0.1454016817255763	-0.19674775073518586	-0.22360679774997894	1.174440439029407	-0.12977713690461004	-0.1909991798288123	-0.24806946917841693	1.040142563173019
