Compound_ID	AD	f_0	f_1	f_2	f_3	f_4	f_5	f_6	f_7	f_8	f_9	f_10	f_11	f_12	f_13	f_14	f_15	f_16	f_17	f_18	f_19	f_20	f_21	f_22	f_23	f_24	f_25	f_26	f_27	f_28	f_29	f_30	f_31	f_32	f_33	f_34	f_35	f_36	f_37	f_38	f_39	f_40	f_41	f_42	f_43	f_44	f_45	f_46	f_47	f_48	f_49	f_50	f_51	f_52	f_53	f_54	f_55	f_56	f_57	f_58	f_59	f_60	f_61	f_62	f_63	f_64	f_65	f_66	f_67	f_68	f_69	f_70	f_71	f_72	f_73	f_74	f_75	f_76	f_77	f_78	f_79	f_80	f_81	f_82	f_83	f_84	f_85	f_86	f_87	f_88	f_89	f_90	f_91	f_92	f_93	f_94	f_95	f_96	f_97	f_98	f_99	f_100	f_101	f_102	f_103	f_104	f_105	f_106	f_107	f_108	f_109	f_110	f_111	f_112	f_113	f_114	f_115	f_116	f_117	f_118	f_119	f_120	f_121	f_122	f_123	f_124	f_125	f_126	f_127	f_128	f_129	f_130	f_131	f_132	f_133	f_134	f_135	f_136	f_137	f_138	f_139	f_140	f_141	f_142	f_143	f_144	f_145	f_146	f_147	f_148	f_149	f_150	f_151	f_152	f_153	f_154	f_155	f_156	f_157	f_158	f_159	f_160	f_161	f_162	f_163	f_164	f_165	f_166	f_167	f_168	f_169	f_170	f_171	f_172	f_173	f_174	f_175	f_176	f_177	f_178	f_179	f_180	f_181	f_182	f_183	f_184	f_185	f_186	f_187	f_188	f_189	f_190	f_191	f_192	f_193	f_194	f_195	f_196	f_197	f_198	f_199	f_200	f_201	f_202	f_203	f_204	f_205	f_206	f_207	f_208	f_209	f_210	f_211	f_212	f_213	f_214	f_215	f_216	f_217	f_218	f_219	f_220	f_221	f_222	f_223	f_224	f_225	f_226	f_227	f_228	f_229	f_230	f_231	f_232	f_233	f_234	f_235	f_236	f_237	f_238	f_239	f_240	f_241	f_242	f_243	f_244	f_245	f_246	f_247	f_248	f_249	f_250	f_251	f_252	f_253	f_254	f_255
CHEMBL247333	1.0	-0.31108550841912763	-0.5547001962252291	-0.25	2.318404623873925	-0.4152273992686998	2.408318915758459	-0.29172998299578906	-0.25	-0.31108550841912763	-0.25	-0.27144835701531844	-0.2917299829957891	-0.5698028822981897	-0.34767674768255774	1.8027756377319948	-0.4629100498862759	-0.47845131690758524	-0.34767674768255774	-0.31108550841912763	1.5865816648727369	-0.29172998299578906	-0.32969023669789355	-0.3296902366978935	-0.17407765595569782	1.963961012123931	-0.447213595499958	-0.25	-0.4152273992686998	-0.36514837167011077	1.6256866681058633	-0.3651483716701107	-0.4313310928137535	-0.2020305089104421	0.6761234037828131	-0.20203050891044214	-0.22703830459324992	-0.7867957924694431	1.963961012123931	-0.3988620176087328	0.8885233166386385	-0.5395732021758765	-0.4313310928137535	-0.4152273992686998	-0.3110855084191275	-0.5091750772173156	-0.8537057803025783	-0.3651483716701107	2.318404623873925	-0.4152273992686998	-0.7071067811865475	-0.3296902366978936	-0.39886201760873274	3.0331501776206204	3.0331501776206204	-0.31108550841912763	-0.2020305089104421	-0.3651483716701107	-0.31108550841912763	1.040015698468645	-0.34767674768255774	-0.34767674768255774	-0.29172998299578906	-0.25	-0.7544738360147216	-0.9063269671749654	2.876234912646614	-0.5244044240850758	-0.5091750772173156	-0.29172998299578906	-0.36514837167011077	-0.2020305089104421	-0.38218767082460564	-0.2917299829957891	-0.4938647983247948	1.040015698468645	3.6839419880650364	-0.2917299829957891	1.963961012123931	-0.25	-0.17407765595569782	-0.7385489458759964	0.36514837167011077	-0.4152273992686998	-0.2917299829957891	-0.32969023669789355	-0.3988620176087328	-0.29172998299578906	2.318404623873925	-0.32969023669789355	-0.09950371902099893	0.7867957924694433	-0.09950371902099894	3.0331501776206204	-0.32969023669789355	-0.47845131690758524	-0.4938647983247948	-0.6454972243679029	-0.4313310928137535	-0.34767674768255774	3.0331501776206204	0.22703830459324986	-0.4313310928137535	-0.31108550841912763	3.427827300200522	-0.4152273992686998	1.6256866681058633	-0.38218767082460564	0.8709883407113855	-0.29172998299578917	-0.25	-0.38218767082460564	-0.36514837167011077	1.8027756377319948	-0.4152273992686998	-0.4152273992686998	-0.3110855084191275	-0.3651483716701107	-0.4938647983247948	-0.32969023669789355	2.0900768054383985	-0.25	1.040015698468645	0.7385489458759964	-0.3296902366978936	-0.2020305089104421	1.1713637450663283	-0.2020305089104421	-0.3476767476825578	0.9428090415820632	-0.5395732021758763	2.507132682112035	-0.39886201760873274	-0.27144835701531844	1.5133811749341808	-0.32969023669789355	-0.17407765595569782	-0.8198360491836056	-0.3110855084191275	0.5999999999999998	-0.2020305089104421	2.408318915758459	-0.39886201760873274	-0.31108550841912763	3.03315017762062	-0.7544738360147215	-0.22703830459324986	-0.3651483716701107	1.0	-0.2020305089104421	-0.29172998299578906	-0.27144835701531844	-0.31108550841912763	-0.1414213562373095	-0.38218767082460564	-0.36514837167011077	2.0248456731316584	-0.3988620176087328	-0.3651483716701107	0.6151246852292457	-0.34767674768255774	-0.38218767082460564	1.9069251784911847	-0.5698028822981897	-0.6761234037828131	-0.6151246852292457	-0.3296902366978936	-0.1414213562373095	-0.9244162777371755	-0.36514837167011077	-0.38218767082460564	2.876234912646614	-0.3296902366978936	1.270977818604485	-0.29172998299578906	-0.27144835701531844	-0.7544738360147217	-0.25	-0.6607720622952057	-0.3110855084191275	2.1602468994692865	-0.22703830459324986	-0.27144835701531844	-0.47845131690758524	-0.46291004988627577	-0.39886201760873274	-0.3651483716701107	1.963961012123931	-0.43133109281375365	-0.4152273992686998	-0.32969023669789355	-0.447213595499958	2.23606797749979	-0.38218767082460564	-0.6761234037828131	-0.25	-0.4152273992686998	-0.36514837167011077	-0.4152273992686998	-0.5091750772173155	-0.4938647983247948	-0.7227641798688508	-0.3651483716701107	1.4142135623730951	-0.5848976518656018	-0.36514837167011077	-0.32969023669789355	-0.29172998299578906	-0.3651483716701107	-0.39886201760873274	1.754992877478424	-0.3110855084191275	-0.1414213562373095	-0.6302858668672516	-0.3476767476825578	0.5848976518656017	-0.27144835701531844	-0.5244044240850758	-0.36514837167011077	-0.3988620176087328	-0.32969023669789355	-0.27144835701531844	-0.3110855084191275	-0.38218767082460564	-0.31108550841912763	-0.38218767082460564	-0.2917299829957891	-0.3476767476825578	-0.39886201760873274	-0.25	2.23606797749979	1.8533166509519234	-0.31108550841912763	-0.22703830459324986	-0.5395732021758765	-0.22703830459324992	2.160246899469287	-0.32969023669789355	-0.4629100498862757	-0.3476767476825578	-0.27144835701531844	-0.31108550841912763	-0.5091750772173156	-0.3651483716701107	-0.27144835701531844	-0.31108550841912763	-0.2917299829957891	-0.29172998299578906	-0.22703830459324986	-0.31108550841912763	-0.43133109281375365	-0.47845131690758524	0.9244162777371755	-0.17407765595569782	-0.22703830459324986	-0.25	1.8533166509519234
CHEMBL603469	1.0	-0.31108550841912763	-0.5547001962252291	-0.25	-0.4313310928137535	-0.4152273992686998	2.408318915758459	-0.29172998299578906	-0.25	3.214550253664318	-0.25	-0.27144835701531844	3.4278273002005224	-0.5698028822981897	-0.34767674768255774	-0.5547001962252291	-0.4629100498862759	-0.47845131690758524	-0.34767674768255774	-0.31108550841912763	-0.6302858668672516	-0.29172998299578906	-0.32969023669789355	-0.3296902366978935	-0.17407765595569782	-0.5091750772173156	-0.447213595499958	-0.25	-0.4152273992686998	2.7386127875258306	-0.6151246852292457	-0.3651483716701107	-0.4313310928137535	-0.2020305089104421	0.6761234037828131	-0.20203050891044214	-0.22703830459324992	1.270977818604485	1.963961012123931	-0.3988620176087328	0.8885233166386385	-0.5395732021758765	-0.4313310928137535	-0.4152273992686998	-0.3110855084191275	-0.5091750772173156	1.1713637450663281	2.73861278752583	-0.4313310928137535	-0.4152273992686998	-0.7071067811865475	-0.3296902366978936	-0.39886201760873274	-0.3296902366978936	-0.3296902366978936	-0.31108550841912763	-0.2020305089104421	-0.3651483716701107	-0.31108550841912763	1.040015698468645	-0.34767674768255774	-0.34767674768255774	-0.29172998299578906	-0.25	-0.7544738360147216	1.1033545687347406	-0.3476767476825578	1.9069251784911847	-0.5091750772173156	-0.29172998299578906	-0.36514837167011077	-0.2020305089104421	-0.38218767082460564	-0.2917299829957891	-0.4938647983247948	1.040015698468645	-0.27144835701531844	-0.2917299829957891	1.963961012123931	-0.25	-0.17407765595569782	1.3540064007726598	0.36514837167011077	-0.4152273992686998	-0.2917299829957891	-0.32969023669789355	-0.3988620176087328	-0.29172998299578906	-0.4313310928137535	3.03315017762062	-0.09950371902099893	0.7867957924694433	-0.09950371902099894	-0.3296902366978936	-0.32969023669789355	-0.47845131690758524	-0.4938647983247948	-0.6454972243679029	-0.4313310928137535	-0.34767674768255774	-0.32969023669789355	0.22703830459324986	-0.4313310928137535	-0.31108550841912763	-0.29172998299578906	-0.4152273992686998	1.6256866681058633	2.616515592568454	0.8709883407113855	-0.29172998299578917	-0.25	-0.38218767082460564	-0.36514837167011077	-0.5547001962252291	-0.4152273992686998	-0.4152273992686998	-0.3110855084191275	-0.3651483716701107	-0.4938647983247948	3.03315017762062	-0.47845131690758524	-0.25	1.040015698468645	0.7385489458759964	-0.3296902366978936	-0.2020305089104421	-0.8537057803025784	4.949747468305832	2.876234912646614	-1.0606601717798212	-0.5395732021758763	2.507132682112035	-0.39886201760873274	3.6839419880650364	1.5133811749341808	-0.32969023669789355	5.744562646538028	-0.8198360491836056	-0.3110855084191275	0.5999999999999998	-0.2020305089104421	-0.4152273992686998	-0.39886201760873274	-0.31108550841912763	-0.32969023669789355	1.3254270092150513	-0.22703830459324986	-0.3651483716701107	-1.0	-0.2020305089104421	-0.29172998299578906	-0.27144835701531844	-0.31108550841912763	-0.1414213562373095	-0.38218767082460564	-0.36514837167011077	-0.4938647983247948	-0.3988620176087328	-0.3651483716701107	0.6151246852292457	-0.34767674768255774	2.616515592568454	-0.5244044240850758	-0.5698028822981897	-0.6761234037828131	-0.6151246852292457	3.0331501776206204	7.071067811865476	1.0817637292669078	-0.36514837167011077	-0.38218767082460564	-0.3476767476825578	-0.3296902366978936	-0.7867957924694431	-0.29172998299578906	-0.27144835701531844	1.3254270092150515	-0.25	-0.6607720622952057	-0.3110855084191275	-0.46291004988627577	-0.22703830459324986	-0.27144835701531844	-0.47845131690758524	-0.46291004988627577	-0.39886201760873274	2.73861278752583	-0.5091750772173156	-0.43133109281375365	-0.4152273992686998	-0.32969023669789355	2.23606797749979	-0.447213595499958	2.616515592568454	-0.6761234037828131	-0.25	-0.4152273992686998	2.7386127875258306	-0.4152273992686998	-0.5091750772173155	-0.4938647983247948	-0.7227641798688508	-0.3651483716701107	-0.7071067811865475	-0.5848976518656018	-0.36514837167011077	-0.32969023669789355	-0.29172998299578906	-0.3651483716701107	2.5071326821120348	-0.5698028822981897	-0.3110855084191275	7.071067811865476	1.5865816648727369	-0.3476767476825578	0.5848976518656017	3.6839419880650364	-0.5244044240850758	-0.36514837167011077	-0.3988620176087328	-0.32969023669789355	-0.27144835701531844	-0.3110855084191275	2.616515592568454	-0.31108550841912763	-0.38218767082460564	-0.2917299829957891	-0.3476767476825578	-0.39886201760873274	4.0	-0.447213595499958	-0.5395732021758765	-0.31108550841912763	-0.22703830459324986	-0.5395732021758765	-0.22703830459324992	-0.4629100498862759	-0.32969023669789355	-0.4629100498862757	-0.3476767476825578	-0.27144835701531844	-0.31108550841912763	-0.5091750772173156	2.73861278752583	-0.27144835701531844	3.214550253664318	-0.2917299829957891	-0.29172998299578906	-0.22703830459324986	-0.31108550841912763	-0.43133109281375365	2.0900768054383985	0.9244162777371755	-0.17407765595569782	-0.22703830459324986	-0.25	-0.5395732021758765
CHEMBL226470	1.0	-0.31108550841912763	-0.5547001962252291	-0.25	-0.4313310928137535	-0.4152273992686998	-0.4152273992686998	-0.29172998299578906	-0.25	-0.31108550841912763	-0.25	-0.27144835701531844	-0.2917299829957891	1.754992877478424	-0.34767674768255774	-0.5547001962252291	-0.4629100498862759	-0.47845131690758524	-0.34767674768255774	-0.31108550841912763	1.5865816648727369	-0.29172998299578906	-0.32969023669789355	-0.3296902366978935	-0.17407765595569782	-0.5091750772173156	-0.447213595499958	-0.25	-0.4152273992686998	-0.36514837167011077	-0.6151246852292457	-0.3651483716701107	-0.4313310928137535	-0.2020305089104421	-1.4790199457749036	-0.20203050891044214	-0.22703830459324992	1.270977818604485	-0.5091750772173156	-0.3988620176087328	-1.1254628677422756	1.8533166509519234	-0.4313310928137535	-0.4152273992686998	-0.3110855084191275	1.963961012123931	-0.8537057803025783	2.73861278752583	-0.4313310928137535	2.408318915758459	1.4142135623730951	-0.3296902366978936	-0.39886201760873274	-0.3296902366978936	-0.3296902366978936	-0.31108550841912763	-0.2020305089104421	2.73861278752583	-0.31108550841912763	1.040015698468645	-0.34767674768255774	-0.34767674768255774	-0.29172998299578906	-0.25	-0.7544738360147216	-0.9063269671749654	-0.3476767476825578	-0.5244044240850758	-0.5091750772173156	-0.29172998299578906	-0.36514837167011077	-0.2020305089104421	-0.38218767082460564	-0.2917299829957891	-0.4938647983247948	1.040015698468645	-0.27144835701531844	-0.2917299829957891	-0.5091750772173156	-0.25	-0.17407765595569782	-0.7385489458759964	0.36514837167011077	2.408318915758459	-0.2917299829957891	-0.32969023669789355	-0.3988620176087328	-0.29172998299578906	-0.4313310928137535	-0.32969023669789355	-0.09950371902099893	0.7867957924694433	-0.09950371902099894	-0.3296902366978936	-0.32969023669789355	-0.47845131690758524	-0.4938647983247948	1.5491933384829668	-0.4313310928137535	-0.34767674768255774	-0.32969023669789355	0.22703830459324986	2.318404623873925	-0.31108550841912763	-0.29172998299578906	-0.4152273992686998	-0.6151246852292457	-0.38218767082460564	0.8709883407113855	-0.29172998299578917	-0.25	-0.38218767082460564	-0.36514837167011077	-0.5547001962252291	-0.4152273992686998	-0.4152273992686998	-0.3110855084191275	-0.3651483716701107	-0.4938647983247948	-0.32969023669789355	-0.47845131690758524	-0.25	1.040015698468645	0.7385489458759964	-0.3296902366978936	-0.2020305089104421	1.1713637450663283	-0.2020305089104421	-0.3476767476825578	0.9428090415820632	-0.5395732021758763	-0.3988620176087328	-0.39886201760873274	-0.27144835701531844	-0.6607720622952057	-0.32969023669789355	-0.17407765595569782	1.2197560731756083	-0.3110855084191275	0.5999999999999998	-0.2020305089104421	-0.4152273992686998	-0.39886201760873274	-0.31108550841912763	-0.32969023669789355	1.3254270092150513	-0.22703830459324986	-0.3651483716701107	1.0	-0.2020305089104421	-0.29172998299578906	-0.27144835701531844	-0.31108550841912763	-0.1414213562373095	-0.38218767082460564	-0.36514837167011077	-0.4938647983247948	-0.3988620176087328	-0.3651483716701107	0.6151246852292457	-0.34767674768255774	-0.38218767082460564	-0.5244044240850758	-0.5698028822981897	-0.6761234037828131	1.6256866681058635	-0.3296902366978936	-0.1414213562373095	-0.9244162777371755	-0.36514837167011077	-0.38218767082460564	-0.3476767476825578	-0.3296902366978936	1.270977818604485	-0.29172998299578906	-0.27144835701531844	-0.7544738360147217	-0.25	-0.6607720622952057	-0.3110855084191275	2.1602468994692865	-0.22703830459324986	-0.27144835701531844	-0.47845131690758524	-0.46291004988627577	-0.39886201760873274	-0.3651483716701107	-0.5091750772173156	-0.43133109281375365	-0.4152273992686998	-0.32969023669789355	-0.447213595499958	-0.447213595499958	-0.38218767082460564	1.4790199457749038	-0.25	-0.4152273992686998	-0.36514837167011077	-0.4152273992686998	1.9639610121239308	2.0248456731316584	1.3835771443203715	-0.3651483716701107	1.4142135623730951	-0.5848976518656018	-0.36514837167011077	-0.32969023669789355	-0.29172998299578906	-0.3651483716701107	-0.39886201760873274	1.754992877478424	-0.3110855084191275	-0.1414213562373095	1.5865816648727369	-0.3476767476825578	0.5848976518656017	-0.27144835701531844	1.906925178491185	-0.36514837167011077	-0.3988620176087328	-0.32969023669789355	-0.27144835701531844	-0.3110855084191275	-0.38218767082460564	-0.31108550841912763	-0.38218767082460564	-0.2917299829957891	-0.3476767476825578	-0.39886201760873274	-0.25	-0.447213595499958	-0.5395732021758765	-0.31108550841912763	-0.22703830459324986	-0.5395732021758765	-0.22703830459324992	-0.4629100498862759	-0.32969023669789355	2.160246899469286	-0.3476767476825578	-0.27144835701531844	-0.31108550841912763	-0.5091750772173156	-0.3651483716701107	-0.27144835701531844	-0.31108550841912763	-0.2917299829957891	-0.29172998299578906	-0.22703830459324986	-0.31108550841912763	-0.43133109281375365	-0.47845131690758524	-1.0817637292669078	-0.17407765595569782	-0.22703830459324986	-0.25	-0.5395732021758765
CHEMBL1801301	1.0	-0.31108550841912763	-0.5547001962252291	-0.25	2.318404623873925	-0.4152273992686998	-0.4152273992686998	-0.29172998299578906	-0.25	-0.31108550841912763	-0.25	3.6839419880650364	3.4278273002005224	-0.5698028822981897	2.876234912646614	-0.5547001962252291	-0.4629100498862759	-0.47845131690758524	-0.34767674768255774	-0.31108550841912763	-0.6302858668672516	-0.29172998299578906	3.0331501776206204	-0.3296902366978935	-0.17407765595569782	-0.5091750772173156	-0.447213595499958	-0.25	-0.4152273992686998	-0.36514837167011077	-0.6151246852292457	-0.3651483716701107	-0.4313310928137535	-0.2020305089104421	-1.4790199457749036	-0.20203050891044214	-0.22703830459324992	1.270977818604485	1.963961012123931	-0.3988620176087328	-1.1254628677422756	1.8533166509519234	-0.4313310928137535	-0.4152273992686998	-0.3110855084191275	-0.5091750772173156	-0.8537057803025783	-0.3651483716701107	-0.4313310928137535	-0.4152273992686998	-0.7071067811865475	-0.3296902366978936	-0.39886201760873274	-0.3296902366978936	-0.3296902366978936	-0.31108550841912763	-0.2020305089104421	-0.3651483716701107	3.214550253664318	1.040015698468645	-0.34767674768255774	-0.34767674768255774	-0.29172998299578906	-0.25	1.3254270092150513	-0.9063269671749654	-0.3476767476825578	1.9069251784911847	1.963961012123931	-0.29172998299578906	-0.36514837167011077	-0.2020305089104421	-0.38218767082460564	-0.2917299829957891	-0.4938647983247948	1.040015698468645	-0.27144835701531844	-0.2917299829957891	1.963961012123931	4.0	-0.17407765595569782	1.3540064007726598	0.36514837167011077	-0.4152273992686998	-0.2917299829957891	-0.32969023669789355	-0.3988620176087328	-0.29172998299578906	-0.4313310928137535	-0.32969023669789355	-0.09950371902099893	0.7867957924694433	-0.09950371902099894	-0.3296902366978936	3.0331501776206204	-0.47845131690758524	-0.4938647983247948	-0.6454972243679029	-0.4313310928137535	2.876234912646614	3.0331501776206204	0.22703830459324986	-0.4313310928137535	3.214550253664318	-0.29172998299578906	-0.4152273992686998	1.6256866681058633	-0.38218767082460564	-1.1481209945740989	-0.29172998299578917	-0.25	-0.38218767082460564	-0.36514837167011077	-0.5547001962252291	-0.4152273992686998	-0.4152273992686998	-0.3110855084191275	2.73861278752583	-0.4938647983247948	-0.32969023669789355	-0.47845131690758524	-0.25	1.040015698468645	0.7385489458759964	-0.3296902366978936	-0.2020305089104421	1.1713637450663283	-0.2020305089104421	-0.3476767476825578	0.9428090415820632	1.8533166509519232	-0.3988620176087328	-0.39886201760873274	-0.27144835701531844	-0.6607720622952057	-0.32969023669789355	5.744562646538028	1.2197560731756083	-0.3110855084191275	0.5999999999999998	-0.2020305089104421	2.408318915758459	-0.39886201760873274	3.214550253664318	-0.32969023669789355	1.3254270092150513	-0.22703830459324986	-0.3651483716701107	-1.0	-0.2020305089104421	-0.29172998299578906	3.6839419880650364	-0.31108550841912763	-0.1414213562373095	-0.38218767082460564	-0.36514837167011077	2.0248456731316584	-0.3988620176087328	-0.3651483716701107	0.6151246852292457	-0.34767674768255774	-0.38218767082460564	1.9069251784911847	-0.5698028822981897	-0.6761234037828131	1.6256866681058635	-0.3296902366978936	-0.1414213562373095	1.0817637292669078	2.7386127875258306	-0.38218767082460564	-0.3476767476825578	3.0331501776206204	1.270977818604485	-0.29172998299578906	-0.27144835701531844	-0.7544738360147217	-0.25	-0.6607720622952057	-0.3110855084191275	-0.46291004988627577	-0.22703830459324986	-0.27144835701531844	2.0900768054383985	2.1602468994692865	-0.39886201760873274	-0.3651483716701107	-0.5091750772173156	-0.43133109281375365	-0.4152273992686998	-0.32969023669789355	-0.447213595499958	-0.447213595499958	-0.38218767082460564	-0.6761234037828131	-0.25	-0.4152273992686998	-0.36514837167011077	-0.4152273992686998	1.9639610121239308	-0.4938647983247948	1.3835771443203715	-0.3651483716701107	1.4142135623730951	-0.5848976518656018	-0.36514837167011077	-0.32969023669789355	3.427827300200522	-0.3651483716701107	-0.39886201760873274	1.754992877478424	-0.3110855084191275	7.071067811865476	1.5865816648727369	-0.3476767476825578	0.5848976518656017	-0.27144835701531844	-0.5244044240850758	-0.36514837167011077	-0.3988620176087328	-0.32969023669789355	-0.27144835701531844	-0.3110855084191275	-0.38218767082460564	-0.31108550841912763	2.616515592568454	-0.2917299829957891	-0.3476767476825578	-0.39886201760873274	-0.25	-0.447213595499958	-0.5395732021758765	-0.31108550841912763	-0.22703830459324986	-0.5395732021758765	-0.22703830459324992	-0.4629100498862759	-0.32969023669789355	-0.4629100498862757	-0.3476767476825578	-0.27144835701531844	-0.31108550841912763	-0.5091750772173156	-0.3651483716701107	3.6839419880650364	-0.31108550841912763	-0.2917299829957891	-0.29172998299578906	-0.22703830459324986	-0.31108550841912763	-0.43133109281375365	-0.47845131690758524	-1.0817637292669078	-0.17407765595569782	-0.22703830459324986	-0.25	1.8533166509519234
CHEMBL603322	1.0	-0.31108550841912763	-0.5547001962252291	-0.25	-0.4313310928137535	-0.4152273992686998	-0.4152273992686998	-0.29172998299578906	-0.25	-0.31108550841912763	-0.25	3.6839419880650364	-0.2917299829957891	-0.5698028822981897	-0.34767674768255774	-0.5547001962252291	-0.4629100498862759	-0.47845131690758524	-0.34767674768255774	-0.31108550841912763	-0.6302858668672516	-0.29172998299578906	-0.32969023669789355	-0.3296902366978935	-0.17407765595569782	-0.5091750772173156	-0.447213595499958	-0.25	-0.4152273992686998	2.7386127875258306	1.6256866681058633	-0.3651483716701107	-0.4313310928137535	-0.2020305089104421	0.6761234037828131	-0.20203050891044214	-0.22703830459324992	1.270977818604485	-0.5091750772173156	-0.3988620176087328	0.8885233166386385	-0.5395732021758765	-0.4313310928137535	-0.4152273992686998	-0.3110855084191275	1.963961012123931	1.1713637450663281	-0.3651483716701107	2.318404623873925	-0.4152273992686998	1.4142135623730951	-0.3296902366978936	-0.39886201760873274	-0.3296902366978936	-0.3296902366978936	-0.31108550841912763	-0.2020305089104421	-0.3651483716701107	-0.31108550841912763	-0.9615239476408229	-0.34767674768255774	-0.34767674768255774	-0.29172998299578906	4.0	1.3254270092150513	1.1033545687347406	-0.3476767476825578	-0.5244044240850758	-0.5091750772173156	-0.29172998299578906	-0.36514837167011077	-0.2020305089104421	2.616515592568454	-0.2917299829957891	-0.4938647983247948	1.040015698468645	-0.27144835701531844	-0.2917299829957891	-0.5091750772173156	-0.25	-0.17407765595569782	1.3540064007726598	0.36514837167011077	-0.4152273992686998	-0.2917299829957891	3.0331501776206204	-0.3988620176087328	-0.29172998299578906	-0.4313310928137535	3.03315017762062	-0.09950371902099893	0.7867957924694433	-0.09950371902099894	-0.3296902366978936	3.0331501776206204	-0.47845131690758524	-0.4938647983247948	1.5491933384829668	2.318404623873925	-0.34767674768255774	-0.32969023669789355	0.22703830459324986	-0.4313310928137535	-0.31108550841912763	-0.29172998299578906	-0.4152273992686998	-0.6151246852292457	2.616515592568454	0.8709883407113855	-0.29172998299578917	4.0	-0.38218767082460564	-0.36514837167011077	-0.5547001962252291	2.408318915758459	-0.4152273992686998	-0.3110855084191275	-0.3651483716701107	2.0248456731316584	-0.32969023669789355	-0.47845131690758524	-0.25	1.040015698468645	0.7385489458759964	3.0331501776206204	-0.2020305089104421	1.1713637450663283	-0.2020305089104421	-0.3476767476825578	-1.0606601717798212	-0.5395732021758763	-0.3988620176087328	-0.39886201760873274	-0.27144835701531844	-0.6607720622952057	-0.32969023669789355	-0.17407765595569782	1.2197560731756083	-0.3110855084191275	0.5999999999999998	-0.2020305089104421	2.408318915758459	-0.39886201760873274	-0.31108550841912763	-0.32969023669789355	-0.7544738360147215	-0.22703830459324986	-0.3651483716701107	1.0	-0.2020305089104421	-0.29172998299578906	-0.27144835701531844	-0.31108550841912763	-0.1414213562373095	2.616515592568454	-0.36514837167011077	-0.4938647983247948	-0.3988620176087328	2.73861278752583	-1.6256866681058633	-0.34767674768255774	-0.38218767082460564	-0.5244044240850758	1.754992877478424	1.4790199457749038	-0.6151246852292457	-0.3296902366978936	-0.1414213562373095	1.0817637292669078	-0.36514837167011077	-0.38218767082460564	2.876234912646614	-0.3296902366978936	1.270977818604485	-0.29172998299578906	-0.27144835701531844	1.3254270092150515	-0.25	1.5133811749341808	-0.3110855084191275	-0.46291004988627577	-0.22703830459324986	-0.27144835701531844	-0.47845131690758524	-0.46291004988627577	-0.39886201760873274	-0.3651483716701107	-0.5091750772173156	-0.43133109281375365	2.408318915758459	-0.32969023669789355	-0.447213595499958	-0.447213595499958	-0.38218767082460564	-0.6761234037828131	-0.25	-0.4152273992686998	-0.36514837167011077	-0.4152273992686998	-0.5091750772173155	-0.4938647983247948	-0.7227641798688508	-0.3651483716701107	-0.7071067811865475	-0.5848976518656018	2.7386127875258306	3.03315017762062	-0.29172998299578906	-0.3651483716701107	2.5071326821120348	-0.5698028822981897	-0.3110855084191275	-0.1414213562373095	-0.6302858668672516	-0.3476767476825578	0.5848976518656017	-0.27144835701531844	-0.5244044240850758	-0.36514837167011077	2.507132682112035	-0.32969023669789355	-0.27144835701531844	-0.3110855084191275	-0.38218767082460564	-0.31108550841912763	-0.38218767082460564	-0.2917299829957891	-0.3476767476825578	-0.39886201760873274	-0.25	-0.447213595499958	-0.5395732021758765	-0.31108550841912763	-0.22703830459324986	-0.5395732021758765	-0.22703830459324992	-0.4629100498862759	-0.32969023669789355	-0.4629100498862757	-0.3476767476825578	3.6839419880650364	3.214550253664318	-0.5091750772173156	2.73861278752583	-0.27144835701531844	-0.31108550841912763	-0.2917299829957891	-0.29172998299578906	-0.22703830459324986	-0.31108550841912763	-0.43133109281375365	2.0900768054383985	-1.0817637292669078	-0.17407765595569782	-0.22703830459324986	-0.25	1.8533166509519234
CHEMBL1940654	1.0	3.214550253664318	-0.5547001962252291	-0.25	-0.4313310928137535	-0.4152273992686998	-0.4152273992686998	-0.29172998299578906	-0.25	-0.31108550841912763	-0.25	-0.27144835701531844	-0.2917299829957891	-0.5698028822981897	-0.34767674768255774	-0.5547001962252291	2.160246899469287	2.0900768054383985	2.876234912646614	-0.31108550841912763	1.5865816648727369	-0.29172998299578906	-0.32969023669789355	3.0331501776206196	-0.17407765595569782	-0.5091750772173156	-0.447213595499958	-0.25	-0.4152273992686998	2.7386127875258306	-0.6151246852292457	-0.3651483716701107	2.318404623873925	-0.2020305089104421	0.6761234037828131	4.949747468305833	-0.22703830459324992	1.270977818604485	-0.5091750772173156	-0.3988620176087328	0.8885233166386385	1.8533166509519234	-0.4313310928137535	-0.4152273992686998	-0.3110855084191275	-0.5091750772173156	-0.8537057803025783	-0.3651483716701107	-0.4313310928137535	-0.4152273992686998	1.4142135623730951	-0.3296902366978936	-0.39886201760873274	-0.3296902366978936	-0.3296902366978936	3.214550253664318	-0.2020305089104421	-0.3651483716701107	-0.31108550841912763	-0.9615239476408229	-0.34767674768255774	-0.34767674768255774	3.427827300200522	-0.25	-0.7544738360147216	1.1033545687347406	-0.3476767476825578	-0.5244044240850758	1.963961012123931	3.427827300200522	2.7386127875258306	-0.2020305089104421	-0.38218767082460564	3.4278273002005224	2.0248456731316584	1.040015698468645	-0.27144835701531844	-0.2917299829957891	-0.5091750772173156	-0.25	-0.17407765595569782	1.3540064007726598	0.36514837167011077	-0.4152273992686998	-0.2917299829957891	-0.32969023669789355	-0.3988620176087328	-0.29172998299578906	-0.4313310928137535	-0.32969023669789355	-0.09950371902099893	0.7867957924694433	-0.09950371902099894	-0.3296902366978936	-0.32969023669789355	-0.47845131690758524	-0.4938647983247948	1.5491933384829668	2.318404623873925	2.876234912646614	-0.32969023669789355	0.22703830459324986	-0.4313310928137535	3.214550253664318	-0.29172998299578906	2.408318915758459	-0.6151246852292457	-0.38218767082460564	0.8709883407113855	-0.29172998299578917	-0.25	-0.38218767082460564	-0.36514837167011077	1.8027756377319948	2.408318915758459	2.408318915758459	-0.3110855084191275	-0.3651483716701107	-0.4938647983247948	-0.32969023669789355	-0.47845131690758524	-0.25	1.040015698468645	0.7385489458759964	-0.3296902366978936	-0.2020305089104421	1.1713637450663283	-0.2020305089104421	-0.3476767476825578	0.9428090415820632	-0.5395732021758763	-0.3988620176087328	-0.39886201760873274	-0.27144835701531844	-0.6607720622952057	-0.32969023669789355	-0.17407765595569782	1.2197560731756083	-0.3110855084191275	0.5999999999999998	-0.2020305089104421	-0.4152273992686998	-0.39886201760873274	-0.31108550841912763	-0.32969023669789355	1.3254270092150513	4.4045431091090474	-0.3651483716701107	-1.0	-0.2020305089104421	-0.29172998299578906	-0.27144835701531844	3.214550253664318	-0.1414213562373095	-0.38218767082460564	-0.36514837167011077	-0.4938647983247948	-0.3988620176087328	-0.3651483716701107	0.6151246852292457	-0.34767674768255774	-0.38218767082460564	-0.5244044240850758	1.754992877478424	-0.6761234037828131	-0.6151246852292457	-0.3296902366978936	-0.1414213562373095	1.0817637292669078	-0.36514837167011077	-0.38218767082460564	-0.3476767476825578	-0.3296902366978936	1.270977818604485	-0.29172998299578906	-0.27144835701531844	1.3254270092150515	-0.25	-0.6607720622952057	-0.3110855084191275	-0.46291004988627577	-0.22703830459324986	-0.27144835701531844	-0.47845131690758524	2.1602468994692865	-0.39886201760873274	-0.3651483716701107	-0.5091750772173156	-0.43133109281375365	-0.4152273992686998	-0.32969023669789355	-0.447213595499958	-0.447213595499958	2.616515592568454	-0.6761234037828131	-0.25	-0.4152273992686998	-0.36514837167011077	2.408318915758459	-0.5091750772173155	-0.4938647983247948	1.3835771443203715	-0.3651483716701107	1.4142135623730951	-0.5848976518656018	-0.36514837167011077	-0.32969023669789355	-0.29172998299578906	-0.3651483716701107	-0.39886201760873274	-0.5698028822981897	-0.3110855084191275	-0.1414213562373095	-0.6302858668672516	-0.3476767476825578	0.5848976518656017	-0.27144835701531844	1.906925178491185	-0.36514837167011077	2.507132682112035	-0.32969023669789355	-0.27144835701531844	-0.3110855084191275	-0.38218767082460564	-0.31108550841912763	2.616515592568454	-0.2917299829957891	-0.3476767476825578	-0.39886201760873274	4.0	2.23606797749979	-0.5395732021758765	-0.31108550841912763	-0.22703830459324986	1.8533166509519234	-0.22703830459324992	-0.4629100498862759	3.0331501776206204	-0.4629100498862757	-0.3476767476825578	-0.27144835701531844	-0.31108550841912763	-0.5091750772173156	-0.3651483716701107	3.6839419880650364	-0.31108550841912763	-0.2917299829957891	-0.29172998299578906	-0.22703830459324986	-0.31108550841912763	-0.43133109281375365	-0.47845131690758524	0.9244162777371755	-0.17407765595569782	-0.22703830459324986	-0.25	-0.5395732021758765
CHEMBL1801315	1.0	-0.31108550841912763	-0.5547001962252291	4.0	-0.4313310928137535	-0.4152273992686998	-0.4152273992686998	-0.29172998299578906	4.0	3.214550253664318	-0.25	-0.27144835701531844	-0.2917299829957891	-0.5698028822981897	-0.34767674768255774	-0.5547001962252291	-0.4629100498862759	2.0900768054383985	-0.34767674768255774	-0.31108550841912763	-0.6302858668672516	-0.29172998299578906	-0.32969023669789355	-0.3296902366978935	-0.17407765595569782	-0.5091750772173156	-0.447213595499958	-0.25	-0.4152273992686998	-0.36514837167011077	-0.6151246852292457	-0.3651483716701107	-0.4313310928137535	-0.2020305089104421	0.6761234037828131	4.949747468305833	-0.22703830459324992	-0.7867957924694431	-0.5091750772173156	-0.3988620176087328	-1.1254628677422756	-0.5395732021758765	-0.4313310928137535	2.408318915758459	3.2145502536643176	-0.5091750772173156	-0.8537057803025783	-0.3651483716701107	-0.4313310928137535	-0.4152273992686998	-0.7071067811865475	-0.3296902366978936	-0.39886201760873274	-0.3296902366978936	-0.3296902366978936	-0.31108550841912763	-0.2020305089104421	-0.3651483716701107	-0.31108550841912763	1.040015698468645	-0.34767674768255774	-0.34767674768255774	-0.29172998299578906	-0.25	1.3254270092150513	1.1033545687347406	-0.3476767476825578	-0.5244044240850758	1.963961012123931	-0.29172998299578906	-0.36514837167011077	-0.2020305089104421	-0.38218767082460564	-0.2917299829957891	2.0248456731316584	-0.9615239476408229	-0.27144835701531844	-0.2917299829957891	1.963961012123931	-0.25	-0.17407765595569782	-0.7385489458759964	0.36514837167011077	-0.4152273992686998	-0.2917299829957891	3.0331501776206204	-0.3988620176087328	-0.29172998299578906	-0.4313310928137535	-0.32969023669789355	-0.09950371902099893	0.7867957924694433	-0.09950371902099894	-0.3296902366978936	-0.32969023669789355	-0.47845131690758524	-0.4938647983247948	-0.6454972243679029	2.318404623873925	-0.34767674768255774	-0.32969023669789355	0.22703830459324986	-0.4313310928137535	-0.31108550841912763	-0.29172998299578906	-0.4152273992686998	-0.6151246852292457	-0.38218767082460564	0.8709883407113855	-0.29172998299578917	-0.25	-0.38218767082460564	-0.36514837167011077	-0.5547001962252291	-0.4152273992686998	-0.4152273992686998	-0.3110855084191275	-0.3651483716701107	-0.4938647983247948	-0.32969023669789355	-0.47845131690758524	-0.25	1.040015698468645	0.7385489458759964	3.0331501776206204	-0.2020305089104421	-0.8537057803025784	-0.2020305089104421	-0.3476767476825578	-1.0606601717798212	-0.5395732021758763	-0.3988620176087328	-0.39886201760873274	-0.27144835701531844	1.5133811749341808	-0.32969023669789355	5.744562646538028	-0.8198360491836056	-0.3110855084191275	0.5999999999999998	-0.2020305089104421	-0.4152273992686998	-0.39886201760873274	-0.31108550841912763	-0.32969023669789355	1.3254270092150513	-0.22703830459324986	2.73861278752583	-1.0	-0.2020305089104421	-0.29172998299578906	-0.27144835701531844	3.214550253664318	-0.1414213562373095	-0.38218767082460564	-0.36514837167011077	2.0248456731316584	-0.3988620176087328	-0.3651483716701107	0.6151246852292457	-0.34767674768255774	-0.38218767082460564	-0.5244044240850758	-0.5698028822981897	-0.6761234037828131	1.6256866681058635	-0.3296902366978936	-0.1414213562373095	-0.9244162777371755	-0.36514837167011077	-0.38218767082460564	-0.3476767476825578	-0.3296902366978936	1.270977818604485	-0.29172998299578906	-0.27144835701531844	1.3254270092150515	-0.25	-0.6607720622952057	-0.3110855084191275	-0.46291004988627577	-0.22703830459324986	-0.27144835701531844	2.0900768054383985	-0.46291004988627577	-0.39886201760873274	-0.3651483716701107	-0.5091750772173156	-0.43133109281375365	-0.4152273992686998	-0.32969023669789355	-0.447213595499958	-0.447213595499958	-0.38218767082460564	-0.6761234037828131	-0.25	-0.4152273992686998	-0.36514837167011077	2.408318915758459	-0.5091750772173155	-0.4938647983247948	-0.7227641798688508	2.73861278752583	-0.7071067811865475	1.709700828530221	-0.36514837167011077	3.03315017762062	-0.29172998299578906	-0.3651483716701107	-0.39886201760873274	1.754992877478424	-0.3110855084191275	7.071067811865476	-0.6302858668672516	-0.3476767476825578	0.5848976518656017	-0.27144835701531844	-0.5244044240850758	-0.36514837167011077	-0.3988620176087328	-0.32969023669789355	-0.27144835701531844	-0.3110855084191275	-0.38218767082460564	-0.31108550841912763	-0.38218767082460564	-0.2917299829957891	-0.3476767476825578	-0.39886201760873274	-0.25	-0.447213595499958	-0.5395732021758765	-0.31108550841912763	-0.22703830459324986	-0.5395732021758765	4.4045431091090474	-0.4629100498862759	-0.32969023669789355	-0.4629100498862757	-0.3476767476825578	-0.27144835701531844	-0.31108550841912763	1.963961012123931	-0.3651483716701107	-0.27144835701531844	-0.31108550841912763	3.4278273002005224	-0.29172998299578906	-0.22703830459324986	-0.31108550841912763	-0.43133109281375365	2.0900768054383985	-1.0817637292669078	-0.17407765595569782	-0.22703830459324986	-0.25	1.8533166509519234
CHEMBL3706781	1.0	-0.31108550841912763	-0.5547001962252291	-0.25	-0.4313310928137535	-0.4152273992686998	2.408318915758459	-0.29172998299578906	-0.25	-0.31108550841912763	-0.25	-0.27144835701531844	-0.2917299829957891	-0.5698028822981897	-0.34767674768255774	-0.5547001962252291	-0.4629100498862759	-0.47845131690758524	-0.34767674768255774	3.214550253664318	1.5865816648727369	-0.29172998299578906	-0.32969023669789355	3.0331501776206196	-0.17407765595569782	-0.5091750772173156	-0.447213595499958	-0.25	2.408318915758459	2.7386127875258306	-0.6151246852292457	-0.3651483716701107	-0.4313310928137535	-0.2020305089104421	-1.4790199457749036	-0.20203050891044214	-0.22703830459324992	-0.7867957924694431	-0.5091750772173156	-0.3988620176087328	0.8885233166386385	-0.5395732021758765	-0.4313310928137535	-0.4152273992686998	-0.3110855084191275	-0.5091750772173156	-0.8537057803025783	-0.3651483716701107	-0.4313310928137535	-0.4152273992686998	-0.7071067811865475	-0.3296902366978936	-0.39886201760873274	-0.3296902366978936	-0.3296902366978936	-0.31108550841912763	-0.2020305089104421	-0.3651483716701107	-0.31108550841912763	-0.9615239476408229	-0.34767674768255774	-0.34767674768255774	-0.29172998299578906	-0.25	1.3254270092150513	-0.9063269671749654	-0.3476767476825578	1.9069251784911847	-0.5091750772173156	-0.29172998299578906	-0.36514837167011077	-0.2020305089104421	2.616515592568454	-0.2917299829957891	-0.4938647983247948	-0.9615239476408229	-0.27144835701531844	-0.2917299829957891	1.963961012123931	-0.25	-0.17407765595569782	-0.7385489458759964	0.36514837167011077	-0.4152273992686998	3.4278273002005224	-0.32969023669789355	-0.3988620176087328	-0.29172998299578906	-0.4313310928137535	-0.32969023669789355	-0.09950371902099893	-1.2709778186044853	-0.09950371902099894	-0.3296902366978936	-0.32969023669789355	-0.47845131690758524	-0.4938647983247948	1.5491933384829668	-0.4313310928137535	-0.34767674768255774	-0.32969023669789355	0.22703830459324986	2.318404623873925	3.214550253664318	-0.29172998299578906	2.408318915758459	1.6256866681058633	-0.38218767082460564	0.8709883407113855	-0.29172998299578917	-0.25	-0.38218767082460564	-0.36514837167011077	1.8027756377319948	2.408318915758459	-0.4152273992686998	3.2145502536643176	-0.3651483716701107	-0.4938647983247948	-0.32969023669789355	-0.47845131690758524	-0.25	-0.9615239476408229	-1.3540064007726598	-0.3296902366978936	-0.2020305089104421	-0.8537057803025784	-0.2020305089104421	-0.3476767476825578	-1.0606601717798212	-0.5395732021758763	-0.3988620176087328	-0.39886201760873274	-0.27144835701531844	-0.6607720622952057	-0.32969023669789355	-0.17407765595569782	-0.8198360491836056	-0.3110855084191275	-1.6666666666666663	-0.2020305089104421	-0.4152273992686998	-0.39886201760873274	3.214550253664318	-0.32969023669789355	1.3254270092150513	-0.22703830459324986	-0.3651483716701107	1.0	-0.2020305089104421	-0.29172998299578906	-0.27144835701531844	-0.31108550841912763	-0.1414213562373095	-0.38218767082460564	-0.36514837167011077	-0.4938647983247948	-0.3988620176087328	-0.3651483716701107	0.6151246852292457	-0.34767674768255774	-0.38218767082460564	1.9069251784911847	1.754992877478424	-0.6761234037828131	-0.6151246852292457	-0.3296902366978936	-0.1414213562373095	-0.9244162777371755	-0.36514837167011077	-0.38218767082460564	-0.3476767476825578	-0.3296902366978936	-0.7867957924694431	-0.29172998299578906	3.6839419880650364	-0.7544738360147217	-0.25	1.5133811749341808	-0.3110855084191275	-0.46291004988627577	-0.22703830459324986	-0.27144835701531844	-0.47845131690758524	-0.46291004988627577	-0.39886201760873274	-0.3651483716701107	-0.5091750772173156	-0.43133109281375365	-0.4152273992686998	-0.32969023669789355	-0.447213595499958	-0.447213595499958	-0.38218767082460564	-0.6761234037828131	-0.25	-0.4152273992686998	-0.36514837167011077	-0.4152273992686998	-0.5091750772173155	-0.4938647983247948	-0.7227641798688508	-0.3651483716701107	-0.7071067811865475	-0.5848976518656018	-0.36514837167011077	-0.32969023669789355	-0.29172998299578906	-0.3651483716701107	-0.39886201760873274	-0.5698028822981897	-0.3110855084191275	-0.1414213562373095	1.5865816648727369	2.876234912646614	-1.7097008285302207	-0.27144835701531844	-0.5244044240850758	-0.36514837167011077	-0.3988620176087328	-0.32969023669789355	-0.27144835701531844	-0.3110855084191275	-0.38218767082460564	3.214550253664318	-0.38218767082460564	-0.2917299829957891	-0.3476767476825578	-0.39886201760873274	-0.25	-0.447213595499958	-0.5395732021758765	3.214550253664318	-0.22703830459324986	-0.5395732021758765	-0.22703830459324992	-0.4629100498862759	-0.32969023669789355	-0.4629100498862757	-0.3476767476825578	-0.27144835701531844	-0.31108550841912763	-0.5091750772173156	-0.3651483716701107	-0.27144835701531844	-0.31108550841912763	-0.2917299829957891	-0.29172998299578906	4.4045431091090474	-0.31108550841912763	-0.43133109281375365	-0.47845131690758524	-1.0817637292669078	-0.17407765595569782	-0.22703830459324986	-0.25	-0.5395732021758765
CHEMBL2163623	1.0	-0.31108550841912763	-0.5547001962252291	-0.25	-0.4313310928137535	2.408318915758459	-0.4152273992686998	-0.29172998299578906	4.0	3.214550253664318	-0.25	-0.27144835701531844	-0.2917299829957891	-0.5698028822981897	-0.34767674768255774	-0.5547001962252291	-0.4629100498862759	-0.47845131690758524	-0.34767674768255774	-0.31108550841912763	-0.6302858668672516	-0.29172998299578906	-0.32969023669789355	-0.3296902366978935	-0.17407765595569782	-0.5091750772173156	-0.447213595499958	-0.25	-0.4152273992686998	2.7386127875258306	-0.6151246852292457	-0.3651483716701107	-0.4313310928137535	-0.2020305089104421	0.6761234037828131	-0.20203050891044214	-0.22703830459324992	-0.7867957924694431	-0.5091750772173156	2.507132682112035	-1.1254628677422756	-0.5395732021758765	-0.4313310928137535	2.408318915758459	3.2145502536643176	-0.5091750772173156	1.1713637450663281	-0.3651483716701107	-0.4313310928137535	2.408318915758459	1.4142135623730951	-0.3296902366978936	2.5071326821120348	-0.3296902366978936	3.0331501776206204	-0.31108550841912763	-0.2020305089104421	2.73861278752583	-0.31108550841912763	-0.9615239476408229	-0.34767674768255774	-0.34767674768255774	-0.29172998299578906	-0.25	1.3254270092150513	-0.9063269671749654	-0.3476767476825578	-0.5244044240850758	-0.5091750772173156	-0.29172998299578906	-0.36514837167011077	-0.2020305089104421	-0.38218767082460564	-0.2917299829957891	2.0248456731316584	1.040015698468645	3.6839419880650364	-0.2917299829957891	-0.5091750772173156	-0.25	-0.17407765595569782	1.3540064007726598	0.36514837167011077	-0.4152273992686998	-0.2917299829957891	-0.32969023669789355	2.507132682112035	-0.29172998299578906	-0.4313310928137535	-0.32969023669789355	-0.09950371902099893	0.7867957924694433	-0.09950371902099894	-0.3296902366978936	-0.32969023669789355	-0.47845131690758524	-0.4938647983247948	-0.6454972243679029	-0.4313310928137535	2.876234912646614	-0.32969023669789355	0.22703830459324986	2.318404623873925	3.214550253664318	3.427827300200522	-0.4152273992686998	-0.6151246852292457	-0.38218767082460564	0.8709883407113855	-0.29172998299578917	-0.25	2.616515592568454	-0.36514837167011077	-0.5547001962252291	-0.4152273992686998	-0.4152273992686998	-0.3110855084191275	-0.3651483716701107	-0.4938647983247948	-0.32969023669789355	-0.47845131690758524	-0.25	-0.9615239476408229	0.7385489458759964	-0.3296902366978936	-0.2020305089104421	-0.8537057803025784	-0.2020305089104421	-0.3476767476825578	0.9428090415820632	-0.5395732021758763	-0.3988620176087328	-0.39886201760873274	-0.27144835701531844	-0.6607720622952057	-0.32969023669789355	-0.17407765595569782	1.2197560731756083	3.2145502536643176	0.5999999999999998	-0.2020305089104421	-0.4152273992686998	-0.39886201760873274	-0.31108550841912763	-0.32969023669789355	1.3254270092150513	-0.22703830459324986	-0.3651483716701107	1.0	-0.2020305089104421	-0.29172998299578906	-0.27144835701531844	-0.31108550841912763	-0.1414213562373095	-0.38218767082460564	-0.36514837167011077	-0.4938647983247948	2.507132682112035	-0.3651483716701107	0.6151246852292457	-0.34767674768255774	-0.38218767082460564	-0.5244044240850758	-0.5698028822981897	-0.6761234037828131	-0.6151246852292457	-0.3296902366978936	7.071067811865476	1.0817637292669078	-0.36514837167011077	-0.38218767082460564	-0.3476767476825578	-0.3296902366978936	1.270977818604485	-0.29172998299578906	-0.27144835701531844	-0.7544738360147217	-0.25	-0.6607720622952057	-0.3110855084191275	-0.46291004988627577	-0.22703830459324986	3.6839419880650364	-0.47845131690758524	-0.46291004988627577	-0.39886201760873274	2.73861278752583	-0.5091750772173156	2.318404623873926	-0.4152273992686998	-0.32969023669789355	-0.447213595499958	2.23606797749979	-0.38218767082460564	-0.6761234037828131	-0.25	-0.4152273992686998	2.7386127875258306	-0.4152273992686998	-0.5091750772173155	-0.4938647983247948	-0.7227641798688508	-0.3651483716701107	-0.7071067811865475	-0.5848976518656018	-0.36514837167011077	-0.32969023669789355	-0.29172998299578906	-0.3651483716701107	2.5071326821120348	1.754992877478424	-0.3110855084191275	-0.1414213562373095	-0.6302858668672516	-0.3476767476825578	0.5848976518656017	-0.27144835701531844	1.906925178491185	-0.36514837167011077	-0.3988620176087328	-0.32969023669789355	-0.27144835701531844	-0.3110855084191275	-0.38218767082460564	-0.31108550841912763	-0.38218767082460564	-0.2917299829957891	-0.3476767476825578	-0.39886201760873274	-0.25	-0.447213595499958	1.8533166509519234	-0.31108550841912763	-0.22703830459324986	-0.5395732021758765	-0.22703830459324992	2.160246899469287	-0.32969023669789355	-0.4629100498862757	-0.3476767476825578	-0.27144835701531844	-0.31108550841912763	-0.5091750772173156	2.73861278752583	-0.27144835701531844	-0.31108550841912763	-0.2917299829957891	-0.29172998299578906	-0.22703830459324986	-0.31108550841912763	-0.43133109281375365	-0.47845131690758524	0.9244162777371755	-0.17407765595569782	-0.22703830459324986	-0.25	-0.5395732021758765
CHEMBL1783563	1.0	-0.31108550841912763	-0.5547001962252291	-0.25	-0.4313310928137535	-0.4152273992686998	-0.4152273992686998	-0.29172998299578906	-0.25	-0.31108550841912763	-0.25	-0.27144835701531844	-0.2917299829957891	-0.5698028822981897	-0.34767674768255774	-0.5547001962252291	-0.4629100498862759	-0.47845131690758524	-0.34767674768255774	-0.31108550841912763	-0.6302858668672516	-0.29172998299578906	-0.32969023669789355	-0.3296902366978935	-0.17407765595569782	1.963961012123931	-0.447213595499958	-0.25	-0.4152273992686998	-0.36514837167011077	-0.6151246852292457	-0.3651483716701107	-0.4313310928137535	-0.2020305089104421	-1.4790199457749036	-0.20203050891044214	-0.22703830459324992	-0.7867957924694431	-0.5091750772173156	-0.3988620176087328	0.8885233166386385	-0.5395732021758765	-0.4313310928137535	-0.4152273992686998	-0.3110855084191275	-0.5091750772173156	1.1713637450663281	-0.3651483716701107	-0.4313310928137535	-0.4152273992686998	-0.7071067811865475	-0.3296902366978936	-0.39886201760873274	-0.3296902366978936	3.0331501776206204	-0.31108550841912763	-0.2020305089104421	-0.3651483716701107	-0.31108550841912763	-0.9615239476408229	-0.34767674768255774	-0.34767674768255774	-0.29172998299578906	-0.25	1.3254270092150513	1.1033545687347406	-0.3476767476825578	-0.5244044240850758	-0.5091750772173156	-0.29172998299578906	-0.36514837167011077	-0.2020305089104421	-0.38218767082460564	-0.2917299829957891	-0.4938647983247948	-0.9615239476408229	-0.27144835701531844	-0.2917299829957891	-0.5091750772173156	-0.25	-0.17407765595569782	1.3540064007726598	0.36514837167011077	-0.4152273992686998	-0.2917299829957891	-0.32969023669789355	-0.3988620176087328	-0.29172998299578906	-0.4313310928137535	-0.32969023669789355	-0.09950371902099893	-1.2709778186044853	-0.09950371902099894	-0.3296902366978936	-0.32969023669789355	-0.47845131690758524	-0.4938647983247948	-0.6454972243679029	2.318404623873925	-0.34767674768255774	-0.32969023669789355	0.22703830459324986	-0.4313310928137535	-0.31108550841912763	-0.29172998299578906	-0.4152273992686998	1.6256866681058633	-0.38218767082460564	-1.1481209945740989	-0.29172998299578917	-0.25	2.616515592568454	-0.36514837167011077	-0.5547001962252291	2.408318915758459	-0.4152273992686998	-0.3110855084191275	-0.3651483716701107	-0.4938647983247948	-0.32969023669789355	-0.47845131690758524	-0.25	-0.9615239476408229	0.7385489458759964	-0.3296902366978936	4.949747468305832	-0.8537057803025784	-0.2020305089104421	-0.3476767476825578	0.9428090415820632	-0.5395732021758763	-0.3988620176087328	-0.39886201760873274	-0.27144835701531844	1.5133811749341808	-0.32969023669789355	-0.17407765595569782	-0.8198360491836056	-0.3110855084191275	-1.6666666666666663	-0.2020305089104421	-0.4152273992686998	-0.39886201760873274	-0.31108550841912763	3.03315017762062	-0.7544738360147215	-0.22703830459324986	-0.3651483716701107	1.0	-0.2020305089104421	-0.29172998299578906	-0.27144835701531844	-0.31108550841912763	-0.1414213562373095	-0.38218767082460564	-0.36514837167011077	-0.4938647983247948	2.507132682112035	-0.3651483716701107	0.6151246852292457	-0.34767674768255774	-0.38218767082460564	-0.5244044240850758	-0.5698028822981897	-0.6761234037828131	-0.6151246852292457	-0.3296902366978936	-0.1414213562373095	-0.9244162777371755	2.7386127875258306	2.616515592568454	-0.3476767476825578	-0.3296902366978936	1.270977818604485	-0.29172998299578906	-0.27144835701531844	1.3254270092150515	-0.25	1.5133811749341808	-0.3110855084191275	2.1602468994692865	4.4045431091090474	-0.27144835701531844	-0.47845131690758524	-0.46291004988627577	-0.39886201760873274	-0.3651483716701107	-0.5091750772173156	-0.43133109281375365	-0.4152273992686998	-0.32969023669789355	-0.447213595499958	2.23606797749979	-0.38218767082460564	-0.6761234037828131	4.0	-0.4152273992686998	-0.36514837167011077	2.408318915758459	-0.5091750772173155	-0.4938647983247948	-0.7227641798688508	-0.3651483716701107	-0.7071067811865475	-0.5848976518656018	-0.36514837167011077	-0.32969023669789355	-0.29172998299578906	-0.3651483716701107	2.5071326821120348	-0.5698028822981897	-0.3110855084191275	-0.1414213562373095	1.5865816648727369	-0.3476767476825578	0.5848976518656017	-0.27144835701531844	-0.5244044240850758	-0.36514837167011077	2.507132682112035	-0.32969023669789355	-0.27144835701531844	-0.3110855084191275	-0.38218767082460564	-0.31108550841912763	-0.38218767082460564	-0.2917299829957891	2.876234912646614	-0.39886201760873274	-0.25	-0.447213595499958	-0.5395732021758765	-0.31108550841912763	-0.22703830459324986	-0.5395732021758765	-0.22703830459324992	-0.4629100498862759	-0.32969023669789355	-0.4629100498862757	-0.3476767476825578	-0.27144835701531844	-0.31108550841912763	-0.5091750772173156	-0.3651483716701107	3.6839419880650364	-0.31108550841912763	-0.2917299829957891	-0.29172998299578906	-0.22703830459324986	-0.31108550841912763	-0.43133109281375365	-0.47845131690758524	0.9244162777371755	-0.17407765595569782	-0.22703830459324986	-0.25	1.8533166509519234
CHEMBL476479	0.0	-0.31108550841912763	1.8027756377319948	-0.25	-0.4313310928137535	2.408318915758459	-0.4152273992686998	-0.29172998299578906	-0.25	-0.31108550841912763	-0.25	-0.27144835701531844	-0.2917299829957891	-0.5698028822981897	-0.34767674768255774	-0.5547001962252291	-0.4629100498862759	-0.47845131690758524	-0.34767674768255774	-0.31108550841912763	-0.6302858668672516	-0.29172998299578906	-0.32969023669789355	-0.3296902366978935	-0.17407765595569782	-0.5091750772173156	-0.447213595499958	-0.25	2.408318915758459	-0.36514837167011077	-0.6151246852292457	-0.3651483716701107	-0.4313310928137535	-0.2020305089104421	0.6761234037828131	-0.20203050891044214	4.4045431091090474	1.270977818604485	1.963961012123931	-0.3988620176087328	0.8885233166386385	-0.5395732021758765	-0.4313310928137535	-0.4152273992686998	-0.3110855084191275	-0.5091750772173156	1.1713637450663281	2.73861278752583	-0.4313310928137535	-0.4152273992686998	-0.7071067811865475	-0.3296902366978936	2.5071326821120348	-0.3296902366978936	3.0331501776206204	-0.31108550841912763	-0.2020305089104421	-0.3651483716701107	-0.31108550841912763	1.040015698468645	2.876234912646614	-0.34767674768255774	-0.29172998299578906	4.0	-0.7544738360147216	-0.9063269671749654	-0.3476767476825578	1.9069251784911847	-0.5091750772173156	-0.29172998299578906	-0.36514837167011077	-0.2020305089104421	2.616515592568454	3.4278273002005224	2.0248456731316584	-0.9615239476408229	-0.27144835701531844	-0.2917299829957891	1.963961012123931	-0.25	-0.17407765595569782	1.3540064007726598	0.36514837167011077	2.408318915758459	-0.2917299829957891	3.0331501776206204	-0.3988620176087328	3.427827300200522	-0.4313310928137535	-0.32969023669789355	-0.09950371902099893	0.7867957924694433	-0.09950371902099894	-0.3296902366978936	3.0331501776206204	-0.47845131690758524	-0.4938647983247948	-0.6454972243679029	-0.4313310928137535	-0.34767674768255774	-0.32969023669789355	0.22703830459324986	-0.4313310928137535	-0.31108550841912763	-0.29172998299578906	-0.4152273992686998	-0.6151246852292457	-0.38218767082460564	-1.1481209945740989	3.427827300200523	4.0	-0.38218767082460564	-0.36514837167011077	-0.5547001962252291	-0.4152273992686998	-0.4152273992686998	-0.3110855084191275	-0.3651483716701107	-0.4938647983247948	-0.32969023669789355	-0.47845131690758524	-0.25	-0.9615239476408229	-1.3540064007726598	-0.3296902366978936	-0.2020305089104421	-0.8537057803025784	4.949747468305832	-0.3476767476825578	-1.0606601717798212	-0.5395732021758763	-0.3988620176087328	-0.39886201760873274	-0.27144835701531844	-0.6607720622952057	3.0331501776206204	-0.17407765595569782	-0.8198360491836056	-0.3110855084191275	0.5999999999999998	-0.2020305089104421	-0.4152273992686998	-0.39886201760873274	-0.31108550841912763	-0.32969023669789355	1.3254270092150513	-0.22703830459324986	-0.3651483716701107	-1.0	-0.2020305089104421	3.427827300200522	-0.27144835701531844	-0.31108550841912763	-0.1414213562373095	-0.38218767082460564	-0.36514837167011077	-0.4938647983247948	-0.3988620176087328	-0.3651483716701107	0.6151246852292457	-0.34767674768255774	-0.38218767082460564	-0.5244044240850758	-0.5698028822981897	-0.6761234037828131	-0.6151246852292457	-0.3296902366978936	-0.1414213562373095	-0.9244162777371755	-0.36514837167011077	2.616515592568454	-0.3476767476825578	-0.3296902366978936	-0.7867957924694431	-0.29172998299578906	-0.27144835701531844	-0.7544738360147217	-0.25	-0.6607720622952057	-0.3110855084191275	-0.46291004988627577	-0.22703830459324986	-0.27144835701531844	2.0900768054383985	-0.46291004988627577	-0.39886201760873274	-0.3651483716701107	-0.5091750772173156	-0.43133109281375365	-0.4152273992686998	-0.32969023669789355	2.23606797749979	2.23606797749979	-0.38218767082460564	-0.6761234037828131	-0.25	2.408318915758459	-0.36514837167011077	-0.4152273992686998	-0.5091750772173155	-0.4938647983247948	-0.7227641798688508	-0.3651483716701107	1.4142135623730951	-0.5848976518656018	-0.36514837167011077	-0.32969023669789355	-0.29172998299578906	-0.3651483716701107	2.5071326821120348	-0.5698028822981897	-0.3110855084191275	-0.1414213562373095	-0.6302858668672516	-0.3476767476825578	-1.7097008285302207	-0.27144835701531844	-0.5244044240850758	-0.36514837167011077	-0.3988620176087328	-0.32969023669789355	-0.27144835701531844	-0.3110855084191275	2.616515592568454	-0.31108550841912763	-0.38218767082460564	-0.2917299829957891	-0.3476767476825578	2.5071326821120348	-0.25	-0.447213595499958	-0.5395732021758765	-0.31108550841912763	-0.22703830459324986	1.8533166509519234	-0.22703830459324992	-0.4629100498862759	3.0331501776206204	-0.4629100498862757	2.876234912646614	-0.27144835701531844	-0.31108550841912763	-0.5091750772173156	-0.3651483716701107	-0.27144835701531844	-0.31108550841912763	-0.2917299829957891	3.427827300200522	-0.22703830459324986	-0.31108550841912763	-0.43133109281375365	2.0900768054383985	0.9244162777371755	-0.17407765595569782	-0.22703830459324986	-0.25	-0.5395732021758765
CHEMBL941	0.0	-0.31108550841912763	1.8027756377319948	-0.25	2.318404623873925	-0.4152273992686998	-0.4152273992686998	-0.29172998299578906	-0.25	-0.31108550841912763	-0.25	-0.27144835701531844	-0.2917299829957891	-0.5698028822981897	-0.34767674768255774	1.8027756377319948	-0.4629100498862759	2.0900768054383985	-0.34767674768255774	-0.31108550841912763	1.5865816648727369	-0.29172998299578906	-0.32969023669789355	-0.3296902366978935	-0.17407765595569782	1.963961012123931	-0.447213595499958	-0.25	2.408318915758459	-0.36514837167011077	1.6256866681058633	-0.3651483716701107	-0.4313310928137535	-0.2020305089104421	0.6761234037828131	-0.20203050891044214	-0.22703830459324992	-0.7867957924694431	-0.5091750772173156	-0.3988620176087328	0.8885233166386385	-0.5395732021758765	-0.4313310928137535	-0.4152273992686998	3.2145502536643176	-0.5091750772173156	-0.8537057803025783	2.73861278752583	-0.4313310928137535	-0.4152273992686998	-0.7071067811865475	3.0331501776206204	-0.39886201760873274	-0.3296902366978936	-0.3296902366978936	3.214550253664318	-0.2020305089104421	-0.3651483716701107	-0.31108550841912763	-0.9615239476408229	-0.34767674768255774	-0.34767674768255774	3.427827300200522	-0.25	1.3254270092150513	1.1033545687347406	-0.3476767476825578	-0.5244044240850758	1.963961012123931	-0.29172998299578906	-0.36514837167011077	-0.2020305089104421	-0.38218767082460564	-0.2917299829957891	-0.4938647983247948	1.040015698468645	3.6839419880650364	-0.2917299829957891	-0.5091750772173156	-0.25	-0.17407765595569782	1.3540064007726598	0.36514837167011077	-0.4152273992686998	-0.2917299829957891	-0.32969023669789355	-0.3988620176087328	-0.29172998299578906	-0.4313310928137535	-0.32969023669789355	-0.09950371902099893	-1.2709778186044853	-0.09950371902099894	-0.3296902366978936	-0.32969023669789355	-0.47845131690758524	-0.4938647983247948	-0.6454972243679029	-0.4313310928137535	-0.34767674768255774	-0.32969023669789355	0.22703830459324986	-0.4313310928137535	-0.31108550841912763	-0.29172998299578906	-0.4152273992686998	1.6256866681058633	-0.38218767082460564	0.8709883407113855	-0.29172998299578917	-0.25	-0.38218767082460564	2.7386127875258306	-0.5547001962252291	-0.4152273992686998	-0.4152273992686998	-0.3110855084191275	-0.3651483716701107	-0.4938647983247948	-0.32969023669789355	-0.47845131690758524	-0.25	1.040015698468645	0.7385489458759964	-0.3296902366978936	-0.2020305089104421	1.1713637450663283	-0.2020305089104421	-0.3476767476825578	0.9428090415820632	1.8533166509519232	-0.3988620176087328	-0.39886201760873274	-0.27144835701531844	-0.6607720622952057	-0.32969023669789355	-0.17407765595569782	1.2197560731756083	-0.3110855084191275	0.5999999999999998	-0.2020305089104421	-0.4152273992686998	-0.39886201760873274	-0.31108550841912763	3.03315017762062	-0.7544738360147215	-0.22703830459324986	2.73861278752583	1.0	-0.2020305089104421	-0.29172998299578906	-0.27144835701531844	-0.31108550841912763	-0.1414213562373095	-0.38218767082460564	-0.36514837167011077	2.0248456731316584	-0.3988620176087328	-0.3651483716701107	0.6151246852292457	-0.34767674768255774	-0.38218767082460564	1.9069251784911847	-0.5698028822981897	-0.6761234037828131	1.6256866681058635	-0.3296902366978936	-0.1414213562373095	1.0817637292669078	-0.36514837167011077	-0.38218767082460564	-0.3476767476825578	-0.3296902366978936	1.270977818604485	-0.29172998299578906	-0.27144835701531844	-0.7544738360147217	-0.25	-0.6607720622952057	-0.3110855084191275	-0.46291004988627577	-0.22703830459324986	3.6839419880650364	-0.47845131690758524	-0.46291004988627577	2.5071326821120348	-0.3651483716701107	1.963961012123931	-0.43133109281375365	-0.4152273992686998	-0.32969023669789355	-0.447213595499958	2.23606797749979	-0.38218767082460564	-0.6761234037828131	-0.25	-0.4152273992686998	-0.36514837167011077	-0.4152273992686998	-0.5091750772173155	-0.4938647983247948	1.3835771443203715	-0.3651483716701107	1.4142135623730951	-0.5848976518656018	-0.36514837167011077	-0.32969023669789355	-0.29172998299578906	2.73861278752583	-0.39886201760873274	-0.5698028822981897	-0.3110855084191275	-0.1414213562373095	1.5865816648727369	-0.3476767476825578	0.5848976518656017	-0.27144835701531844	-0.5244044240850758	-0.36514837167011077	2.507132682112035	-0.32969023669789355	-0.27144835701531844	-0.3110855084191275	-0.38218767082460564	-0.31108550841912763	2.616515592568454	-0.2917299829957891	-0.3476767476825578	-0.39886201760873274	-0.25	2.23606797749979	1.8533166509519234	-0.31108550841912763	-0.22703830459324986	-0.5395732021758765	-0.22703830459324992	2.160246899469287	-0.32969023669789355	-0.4629100498862757	-0.3476767476825578	-0.27144835701531844	-0.31108550841912763	-0.5091750772173156	-0.3651483716701107	-0.27144835701531844	3.214550253664318	-0.2917299829957891	-0.29172998299578906	-0.22703830459324986	-0.31108550841912763	-0.43133109281375365	-0.47845131690758524	-1.0817637292669078	-0.17407765595569782	-0.22703830459324986	-0.25	1.8533166509519234
CHEMBL1909377	0.0	-0.31108550841912763	-0.5547001962252291	-0.25	-0.4313310928137535	2.408318915758459	-0.4152273992686998	-0.29172998299578906	-0.25	3.214550253664318	-0.25	-0.27144835701531844	3.4278273002005224	-0.5698028822981897	-0.34767674768255774	-0.5547001962252291	-0.4629100498862759	-0.47845131690758524	-0.34767674768255774	-0.31108550841912763	-0.6302858668672516	-0.29172998299578906	-0.32969023669789355	-0.3296902366978935	-0.17407765595569782	-0.5091750772173156	-0.447213595499958	-0.25	-0.4152273992686998	-0.36514837167011077	-0.6151246852292457	-0.3651483716701107	-0.4313310928137535	-0.2020305089104421	0.6761234037828131	-0.20203050891044214	-0.22703830459324992	-0.7867957924694431	-0.5091750772173156	-0.3988620176087328	-1.1254628677422756	1.8533166509519234	-0.4313310928137535	-0.4152273992686998	-0.3110855084191275	1.963961012123931	-0.8537057803025783	-0.3651483716701107	-0.4313310928137535	-0.4152273992686998	-0.7071067811865475	-0.3296902366978936	-0.39886201760873274	-0.3296902366978936	-0.3296902366978936	-0.31108550841912763	-0.2020305089104421	-0.3651483716701107	-0.31108550841912763	-0.9615239476408229	2.876234912646614	-0.34767674768255774	-0.29172998299578906	4.0	1.3254270092150513	1.1033545687347406	-0.3476767476825578	-0.5244044240850758	1.963961012123931	-0.29172998299578906	2.7386127875258306	-0.2020305089104421	2.616515592568454	-0.2917299829957891	-0.4938647983247948	1.040015698468645	-0.27144835701531844	-0.2917299829957891	-0.5091750772173156	-0.25	-0.17407765595569782	-0.7385489458759964	0.36514837167011077	-0.4152273992686998	-0.2917299829957891	-0.32969023669789355	-0.3988620176087328	-0.29172998299578906	-0.4313310928137535	-0.32969023669789355	-0.09950371902099893	-1.2709778186044853	-0.09950371902099894	-0.3296902366978936	-0.32969023669789355	-0.47845131690758524	-0.4938647983247948	-0.6454972243679029	-0.4313310928137535	-0.34767674768255774	-0.32969023669789355	0.22703830459324986	-0.4313310928137535	-0.31108550841912763	-0.29172998299578906	-0.4152273992686998	-0.6151246852292457	-0.38218767082460564	0.8709883407113855	-0.29172998299578917	-0.25	-0.38218767082460564	2.7386127875258306	-0.5547001962252291	2.408318915758459	2.408318915758459	-0.3110855084191275	-0.3651483716701107	-0.4938647983247948	-0.32969023669789355	-0.47845131690758524	-0.25	-0.9615239476408229	0.7385489458759964	-0.3296902366978936	-0.2020305089104421	-0.8537057803025784	-0.2020305089104421	-0.3476767476825578	0.9428090415820632	-0.5395732021758763	2.507132682112035	2.5071326821120348	-0.27144835701531844	-0.6607720622952057	3.0331501776206204	-0.17407765595569782	1.2197560731756083	-0.3110855084191275	-1.6666666666666663	-0.2020305089104421	-0.4152273992686998	-0.39886201760873274	-0.31108550841912763	-0.32969023669789355	1.3254270092150513	-0.22703830459324986	-0.3651483716701107	-1.0	-0.2020305089104421	-0.29172998299578906	-0.27144835701531844	-0.31108550841912763	-0.1414213562373095	-0.38218767082460564	-0.36514837167011077	-0.4938647983247948	-0.3988620176087328	-0.3651483716701107	0.6151246852292457	-0.34767674768255774	2.616515592568454	-0.5244044240850758	-0.5698028822981897	-0.6761234037828131	-0.6151246852292457	3.0331501776206204	-0.1414213562373095	1.0817637292669078	-0.36514837167011077	-0.38218767082460564	-0.3476767476825578	-0.3296902366978936	1.270977818604485	3.427827300200522	-0.27144835701531844	1.3254270092150515	-0.25	-0.6607720622952057	-0.3110855084191275	-0.46291004988627577	-0.22703830459324986	-0.27144835701531844	-0.47845131690758524	-0.46291004988627577	-0.39886201760873274	2.73861278752583	-0.5091750772173156	-0.43133109281375365	2.408318915758459	-0.32969023669789355	-0.447213595499958	-0.447213595499958	2.616515592568454	1.4790199457749038	-0.25	-0.4152273992686998	-0.36514837167011077	-0.4152273992686998	-0.5091750772173155	-0.4938647983247948	1.3835771443203715	-0.3651483716701107	1.4142135623730951	-0.5848976518656018	-0.36514837167011077	-0.32969023669789355	-0.29172998299578906	-0.3651483716701107	-0.39886201760873274	-0.5698028822981897	-0.3110855084191275	-0.1414213562373095	1.5865816648727369	-0.3476767476825578	0.5848976518656017	-0.27144835701531844	1.906925178491185	-0.36514837167011077	-0.3988620176087328	3.0331501776206204	-0.27144835701531844	-0.3110855084191275	-0.38218767082460564	-0.31108550841912763	-0.38218767082460564	-0.2917299829957891	2.876234912646614	-0.39886201760873274	-0.25	-0.447213595499958	-0.5395732021758765	-0.31108550841912763	-0.22703830459324986	-0.5395732021758765	-0.22703830459324992	-0.4629100498862759	-0.32969023669789355	-0.4629100498862757	-0.3476767476825578	-0.27144835701531844	-0.31108550841912763	-0.5091750772173156	-0.3651483716701107	-0.27144835701531844	-0.31108550841912763	-0.2917299829957891	-0.29172998299578906	-0.22703830459324986	-0.31108550841912763	-0.43133109281375365	-0.47845131690758524	-1.0817637292669078	-0.17407765595569782	-0.22703830459324986	-0.25	-0.5395732021758765
CHEMBL464257	0.0	3.214550253664318	-0.5547001962252291	-0.25	-0.4313310928137535	-0.4152273992686998	-0.4152273992686998	-0.29172998299578906	4.0	-0.31108550841912763	4.0	-0.27144835701531844	-0.2917299829957891	1.754992877478424	2.876234912646614	-0.5547001962252291	-0.4629100498862759	-0.47845131690758524	-0.34767674768255774	-0.31108550841912763	-0.6302858668672516	-0.29172998299578906	-0.32969023669789355	-0.3296902366978935	-0.17407765595569782	-0.5091750772173156	-0.447213595499958	-0.25	-0.4152273992686998	2.7386127875258306	-0.6151246852292457	-0.3651483716701107	-0.4313310928137535	-0.2020305089104421	-1.4790199457749036	4.949747468305833	-0.22703830459324992	-0.7867957924694431	-0.5091750772173156	-0.3988620176087328	0.8885233166386385	-0.5395732021758765	-0.4313310928137535	-0.4152273992686998	-0.3110855084191275	-0.5091750772173156	-0.8537057803025783	-0.3651483716701107	-0.4313310928137535	2.408318915758459	-0.7071067811865475	-0.3296902366978936	-0.39886201760873274	-0.3296902366978936	-0.3296902366978936	-0.31108550841912763	-0.2020305089104421	-0.3651483716701107	-0.31108550841912763	1.040015698468645	-0.34767674768255774	-0.34767674768255774	-0.29172998299578906	-0.25	-0.7544738360147216	1.1033545687347406	-0.3476767476825578	-0.5244044240850758	-0.5091750772173156	3.427827300200522	-0.36514837167011077	-0.2020305089104421	-0.38218767082460564	-0.2917299829957891	-0.4938647983247948	1.040015698468645	-0.27144835701531844	-0.2917299829957891	-0.5091750772173156	-0.25	-0.17407765595569782	1.3540064007726598	0.36514837167011077	-0.4152273992686998	-0.2917299829957891	-0.32969023669789355	2.507132682112035	3.427827300200522	-0.4313310928137535	3.03315017762062	10.049875621120892	-1.2709778186044853	-0.09950371902099894	-0.3296902366978936	-0.32969023669789355	-0.47845131690758524	-0.4938647983247948	-0.6454972243679029	-0.4313310928137535	-0.34767674768255774	-0.32969023669789355	0.22703830459324986	-0.4313310928137535	-0.31108550841912763	-0.29172998299578906	2.408318915758459	-0.6151246852292457	-0.38218767082460564	0.8709883407113855	-0.29172998299578917	-0.25	-0.38218767082460564	-0.36514837167011077	-0.5547001962252291	-0.4152273992686998	-0.4152273992686998	-0.3110855084191275	-0.3651483716701107	-0.4938647983247948	-0.32969023669789355	2.0900768054383985	4.0	-0.9615239476408229	0.7385489458759964	3.0331501776206204	-0.2020305089104421	1.1713637450663283	-0.2020305089104421	-0.3476767476825578	0.9428090415820632	-0.5395732021758763	-0.3988620176087328	-0.39886201760873274	-0.27144835701531844	1.5133811749341808	-0.32969023669789355	-0.17407765595569782	1.2197560731756083	-0.3110855084191275	0.5999999999999998	-0.2020305089104421	-0.4152273992686998	2.5071326821120348	-0.31108550841912763	-0.32969023669789355	-0.7544738360147215	-0.22703830459324986	-0.3651483716701107	1.0	-0.2020305089104421	3.427827300200522	-0.27144835701531844	-0.31108550841912763	-0.1414213562373095	-0.38218767082460564	-0.36514837167011077	-0.4938647983247948	-0.3988620176087328	-0.3651483716701107	-1.6256866681058633	-0.34767674768255774	-0.38218767082460564	-0.5244044240850758	-0.5698028822981897	-0.6761234037828131	-0.6151246852292457	3.0331501776206204	-0.1414213562373095	-0.9244162777371755	-0.36514837167011077	-0.38218767082460564	-0.3476767476825578	3.0331501776206204	-0.7867957924694431	-0.29172998299578906	-0.27144835701531844	-0.7544738360147217	-0.25	-0.6607720622952057	-0.3110855084191275	2.1602468994692865	-0.22703830459324986	-0.27144835701531844	2.0900768054383985	2.1602468994692865	-0.39886201760873274	-0.3651483716701107	1.963961012123931	2.318404623873926	-0.4152273992686998	3.0331501776206204	-0.447213595499958	2.23606797749979	-0.38218767082460564	1.4790199457749038	-0.25	-0.4152273992686998	-0.36514837167011077	-0.4152273992686998	-0.5091750772173155	2.0248456731316584	1.3835771443203715	2.73861278752583	-0.7071067811865475	1.709700828530221	2.7386127875258306	-0.32969023669789355	-0.29172998299578906	-0.3651483716701107	-0.39886201760873274	-0.5698028822981897	-0.3110855084191275	-0.1414213562373095	-0.6302858668672516	2.876234912646614	0.5848976518656017	-0.27144835701531844	-0.5244044240850758	2.7386127875258306	-0.3988620176087328	3.0331501776206204	-0.27144835701531844	-0.3110855084191275	2.616515592568454	-0.31108550841912763	-0.38218767082460564	-0.2917299829957891	-0.3476767476825578	-0.39886201760873274	-0.25	-0.447213595499958	1.8533166509519234	-0.31108550841912763	-0.22703830459324986	-0.5395732021758765	-0.22703830459324992	2.160246899469287	-0.32969023669789355	-0.4629100498862757	-0.3476767476825578	-0.27144835701531844	-0.31108550841912763	-0.5091750772173156	-0.3651483716701107	3.6839419880650364	-0.31108550841912763	-0.2917299829957891	-0.29172998299578906	-0.22703830459324986	-0.31108550841912763	-0.43133109281375365	-0.47845131690758524	-1.0817637292669078	-0.17407765595569782	-0.22703830459324986	-0.25	-0.5395732021758765
CHEMBL1888586	0.0	-0.31108550841912763	-0.5547001962252291	-0.25	-0.4313310928137535	-0.4152273992686998	-0.4152273992686998	-0.29172998299578906	-0.25	-0.31108550841912763	-0.25	-0.27144835701531844	-0.2917299829957891	-0.5698028822981897	-0.34767674768255774	-0.5547001962252291	-0.4629100498862759	-0.47845131690758524	-0.34767674768255774	-0.31108550841912763	1.5865816648727369	-0.29172998299578906	3.0331501776206204	-0.3296902366978935	-0.17407765595569782	-0.5091750772173156	-0.447213595499958	-0.25	-0.4152273992686998	-0.36514837167011077	-0.6151246852292457	-0.3651483716701107	-0.4313310928137535	-0.2020305089104421	0.6761234037828131	4.949747468305833	-0.22703830459324992	-0.7867957924694431	-0.5091750772173156	2.507132682112035	0.8885233166386385	-0.5395732021758765	-0.4313310928137535	-0.4152273992686998	-0.3110855084191275	-0.5091750772173156	1.1713637450663281	-0.3651483716701107	-0.4313310928137535	-0.4152273992686998	-0.7071067811865475	-0.3296902366978936	-0.39886201760873274	-0.3296902366978936	-0.3296902366978936	-0.31108550841912763	-0.2020305089104421	-0.3651483716701107	-0.31108550841912763	-0.9615239476408229	-0.34767674768255774	-0.34767674768255774	3.427827300200522	-0.25	1.3254270092150513	-0.9063269671749654	2.876234912646614	-0.5244044240850758	1.963961012123931	-0.29172998299578906	-0.36514837167011077	4.949747468305832	-0.38218767082460564	-0.2917299829957891	-0.4938647983247948	1.040015698468645	-0.27144835701531844	-0.2917299829957891	-0.5091750772173156	4.0	-0.17407765595569782	-0.7385489458759964	0.36514837167011077	2.408318915758459	-0.2917299829957891	-0.32969023669789355	-0.3988620176087328	-0.29172998299578906	-0.4313310928137535	-0.32969023669789355	-0.09950371902099893	0.7867957924694433	-0.09950371902099894	-0.3296902366978936	-0.32969023669789355	-0.47845131690758524	-0.4938647983247948	-0.6454972243679029	-0.4313310928137535	-0.34767674768255774	-0.32969023669789355	0.22703830459324986	-0.4313310928137535	-0.31108550841912763	-0.29172998299578906	-0.4152273992686998	-0.6151246852292457	-0.38218767082460564	-1.1481209945740989	-0.29172998299578917	-0.25	-0.38218767082460564	-0.36514837167011077	-0.5547001962252291	-0.4152273992686998	-0.4152273992686998	-0.3110855084191275	-0.3651483716701107	-0.4938647983247948	3.03315017762062	-0.47845131690758524	-0.25	-0.9615239476408229	0.7385489458759964	-0.3296902366978936	-0.2020305089104421	-0.8537057803025784	-0.2020305089104421	-0.3476767476825578	0.9428090415820632	-0.5395732021758763	2.507132682112035	-0.39886201760873274	-0.27144835701531844	-0.6607720622952057	3.0331501776206204	-0.17407765595569782	1.2197560731756083	-0.3110855084191275	-1.6666666666666663	-0.2020305089104421	-0.4152273992686998	-0.39886201760873274	-0.31108550841912763	-0.32969023669789355	-0.7544738360147215	4.4045431091090474	-0.3651483716701107	1.0	-0.2020305089104421	-0.29172998299578906	-0.27144835701531844	-0.31108550841912763	-0.1414213562373095	2.616515592568454	-0.36514837167011077	-0.4938647983247948	-0.3988620176087328	-0.3651483716701107	0.6151246852292457	-0.34767674768255774	-0.38218767082460564	-0.5244044240850758	-0.5698028822981897	-0.6761234037828131	1.6256866681058635	-0.3296902366978936	-0.1414213562373095	1.0817637292669078	-0.36514837167011077	-0.38218767082460564	-0.3476767476825578	-0.3296902366978936	1.270977818604485	-0.29172998299578906	-0.27144835701531844	-0.7544738360147217	-0.25	1.5133811749341808	-0.3110855084191275	-0.46291004988627577	-0.22703830459324986	-0.27144835701531844	-0.47845131690758524	-0.46291004988627577	-0.39886201760873274	-0.3651483716701107	-0.5091750772173156	2.318404623873926	-0.4152273992686998	-0.32969023669789355	-0.447213595499958	-0.447213595499958	-0.38218767082460564	-0.6761234037828131	4.0	-0.4152273992686998	-0.36514837167011077	-0.4152273992686998	-0.5091750772173155	-0.4938647983247948	-0.7227641798688508	-0.3651483716701107	-0.7071067811865475	-0.5848976518656018	2.7386127875258306	-0.32969023669789355	-0.29172998299578906	-0.3651483716701107	-0.39886201760873274	-0.5698028822981897	-0.3110855084191275	-0.1414213562373095	1.5865816648727369	-0.3476767476825578	0.5848976518656017	3.6839419880650364	-0.5244044240850758	-0.36514837167011077	-0.3988620176087328	-0.32969023669789355	-0.27144835701531844	-0.3110855084191275	-0.38218767082460564	-0.31108550841912763	-0.38218767082460564	-0.2917299829957891	-0.3476767476825578	-0.39886201760873274	-0.25	-0.447213595499958	-0.5395732021758765	-0.31108550841912763	-0.22703830459324986	1.8533166509519234	-0.22703830459324992	-0.4629100498862759	-0.32969023669789355	-0.4629100498862757	-0.3476767476825578	-0.27144835701531844	3.214550253664318	-0.5091750772173156	-0.3651483716701107	-0.27144835701531844	-0.31108550841912763	-0.2917299829957891	-0.29172998299578906	-0.22703830459324986	-0.31108550841912763	-0.43133109281375365	-0.47845131690758524	0.9244162777371755	-0.17407765595569782	-0.22703830459324986	-0.25	-0.5395732021758765
CHEMBL1813627	0.0	-0.31108550841912763	-0.5547001962252291	-0.25	-0.4313310928137535	-0.4152273992686998	-0.4152273992686998	-0.29172998299578906	-0.25	-0.31108550841912763	4.0	-0.27144835701531844	-0.2917299829957891	-0.5698028822981897	2.876234912646614	1.8027756377319948	-0.4629100498862759	-0.47845131690758524	-0.34767674768255774	-0.31108550841912763	1.5865816648727369	-0.29172998299578906	-0.32969023669789355	-0.3296902366978935	-0.17407765595569782	-0.5091750772173156	-0.447213595499958	-0.25	-0.4152273992686998	2.7386127875258306	-0.6151246852292457	-0.3651483716701107	-0.4313310928137535	-0.2020305089104421	0.6761234037828131	-0.20203050891044214	-0.22703830459324992	-0.7867957924694431	-0.5091750772173156	-0.3988620176087328	0.8885233166386385	-0.5395732021758765	-0.4313310928137535	-0.4152273992686998	-0.3110855084191275	-0.5091750772173156	-0.8537057803025783	-0.3651483716701107	-0.4313310928137535	-0.4152273992686998	-0.7071067811865475	-0.3296902366978936	-0.39886201760873274	-0.3296902366978936	-0.3296902366978936	-0.31108550841912763	-0.2020305089104421	-0.3651483716701107	-0.31108550841912763	1.040015698468645	-0.34767674768255774	-0.34767674768255774	-0.29172998299578906	-0.25	-0.7544738360147216	-0.9063269671749654	-0.3476767476825578	-0.5244044240850758	-0.5091750772173156	-0.29172998299578906	-0.36514837167011077	-0.2020305089104421	-0.38218767082460564	-0.2917299829957891	2.0248456731316584	-0.9615239476408229	-0.27144835701531844	-0.2917299829957891	-0.5091750772173156	-0.25	-0.17407765595569782	1.3540064007726598	0.36514837167011077	-0.4152273992686998	-0.2917299829957891	-0.32969023669789355	-0.3988620176087328	-0.29172998299578906	2.318404623873925	-0.32969023669789355	-0.09950371902099893	0.7867957924694433	-0.09950371902099894	-0.3296902366978936	-0.32969023669789355	-0.47845131690758524	-0.4938647983247948	-0.6454972243679029	-0.4313310928137535	-0.34767674768255774	-0.32969023669789355	0.22703830459324986	-0.4313310928137535	-0.31108550841912763	-0.29172998299578906	-0.4152273992686998	-0.6151246852292457	2.616515592568454	-1.1481209945740989	-0.29172998299578917	-0.25	-0.38218767082460564	-0.36514837167011077	-0.5547001962252291	-0.4152273992686998	-0.4152273992686998	-0.3110855084191275	-0.3651483716701107	2.0248456731316584	-0.32969023669789355	-0.47845131690758524	-0.25	1.040015698468645	0.7385489458759964	-0.3296902366978936	-0.2020305089104421	1.1713637450663283	4.949747468305832	-0.3476767476825578	0.9428090415820632	-0.5395732021758763	-0.3988620176087328	-0.39886201760873274	-0.27144835701531844	-0.6607720622952057	-0.32969023669789355	-0.17407765595569782	-0.8198360491836056	-0.3110855084191275	0.5999999999999998	-0.2020305089104421	-0.4152273992686998	-0.39886201760873274	-0.31108550841912763	-0.32969023669789355	-0.7544738360147215	-0.22703830459324986	-0.3651483716701107	1.0	-0.2020305089104421	-0.29172998299578906	-0.27144835701531844	-0.31108550841912763	-0.1414213562373095	-0.38218767082460564	-0.36514837167011077	-0.4938647983247948	-0.3988620176087328	-0.3651483716701107	-1.6256866681058633	-0.34767674768255774	2.616515592568454	-0.5244044240850758	-0.5698028822981897	-0.6761234037828131	1.6256866681058635	-0.3296902366978936	-0.1414213562373095	1.0817637292669078	-0.36514837167011077	-0.38218767082460564	-0.3476767476825578	-0.3296902366978936	-0.7867957924694431	-0.29172998299578906	-0.27144835701531844	-0.7544738360147217	-0.25	1.5133811749341808	-0.3110855084191275	2.1602468994692865	4.4045431091090474	-0.27144835701531844	-0.47845131690758524	2.1602468994692865	2.5071326821120348	-0.3651483716701107	1.963961012123931	-0.43133109281375365	-0.4152273992686998	-0.32969023669789355	-0.447213595499958	-0.447213595499958	2.616515592568454	-0.6761234037828131	-0.25	2.408318915758459	2.7386127875258306	-0.4152273992686998	-0.5091750772173155	-0.4938647983247948	-0.7227641798688508	-0.3651483716701107	-0.7071067811865475	-0.5848976518656018	-0.36514837167011077	-0.32969023669789355	-0.29172998299578906	-0.3651483716701107	-0.39886201760873274	1.754992877478424	-0.3110855084191275	-0.1414213562373095	-0.6302858668672516	-0.3476767476825578	-1.7097008285302207	-0.27144835701531844	-0.5244044240850758	-0.36514837167011077	-0.3988620176087328	3.0331501776206204	-0.27144835701531844	-0.3110855084191275	-0.38218767082460564	-0.31108550841912763	-0.38218767082460564	-0.2917299829957891	-0.3476767476825578	-0.39886201760873274	-0.25	-0.447213595499958	-0.5395732021758765	-0.31108550841912763	-0.22703830459324986	-0.5395732021758765	-0.22703830459324992	-0.4629100498862759	-0.32969023669789355	-0.4629100498862757	2.876234912646614	-0.27144835701531844	-0.31108550841912763	-0.5091750772173156	2.73861278752583	-0.27144835701531844	-0.31108550841912763	-0.2917299829957891	-0.29172998299578906	4.4045431091090474	-0.31108550841912763	-0.43133109281375365	-0.47845131690758524	-1.0817637292669078	-0.17407765595569782	-0.22703830459324986	-0.25	-0.5395732021758765
CHEMBL3629013	0.0	-0.31108550841912763	-0.5547001962252291	-0.25	-0.4313310928137535	2.408318915758459	-0.4152273992686998	-0.29172998299578906	-0.25	-0.31108550841912763	-0.25	-0.27144835701531844	3.4278273002005224	-0.5698028822981897	-0.34767674768255774	-0.5547001962252291	-0.4629100498862759	-0.47845131690758524	-0.34767674768255774	-0.31108550841912763	1.5865816648727369	-0.29172998299578906	-0.32969023669789355	3.0331501776206196	-0.17407765595569782	-0.5091750772173156	-0.447213595499958	-0.25	-0.4152273992686998	-0.36514837167011077	-0.6151246852292457	-0.3651483716701107	-0.4313310928137535	-0.2020305089104421	-1.4790199457749036	4.949747468305833	-0.22703830459324992	-0.7867957924694431	-0.5091750772173156	-0.3988620176087328	-1.1254628677422756	-0.5395732021758765	-0.4313310928137535	-0.4152273992686998	-0.3110855084191275	-0.5091750772173156	1.1713637450663281	2.73861278752583	-0.4313310928137535	-0.4152273992686998	1.4142135623730951	-0.3296902366978936	-0.39886201760873274	-0.3296902366978936	-0.3296902366978936	-0.31108550841912763	4.949747468305832	-0.3651483716701107	-0.31108550841912763	-0.9615239476408229	-0.34767674768255774	-0.34767674768255774	-0.29172998299578906	4.0	-0.7544738360147216	-0.9063269671749654	-0.3476767476825578	-0.5244044240850758	-0.5091750772173156	-0.29172998299578906	-0.36514837167011077	-0.2020305089104421	-0.38218767082460564	3.4278273002005224	-0.4938647983247948	1.040015698468645	3.6839419880650364	-0.2917299829957891	-0.5091750772173156	-0.25	-0.17407765595569782	-0.7385489458759964	0.36514837167011077	-0.4152273992686998	-0.2917299829957891	-0.32969023669789355	-0.3988620176087328	-0.29172998299578906	-0.4313310928137535	-0.32969023669789355	-0.09950371902099893	-1.2709778186044853	-0.09950371902099894	-0.3296902366978936	3.0331501776206204	-0.47845131690758524	-0.4938647983247948	1.5491933384829668	-0.4313310928137535	-0.34767674768255774	3.0331501776206204	0.22703830459324986	-0.4313310928137535	3.214550253664318	-0.29172998299578906	2.408318915758459	-0.6151246852292457	-0.38218767082460564	0.8709883407113855	-0.29172998299578917	-0.25	-0.38218767082460564	-0.36514837167011077	1.8027756377319948	2.408318915758459	-0.4152273992686998	-0.3110855084191275	-0.3651483716701107	-0.4938647983247948	3.03315017762062	-0.47845131690758524	-0.25	1.040015698468645	0.7385489458759964	-0.3296902366978936	-0.2020305089104421	-0.8537057803025784	-0.2020305089104421	-0.3476767476825578	0.9428090415820632	-0.5395732021758763	-0.3988620176087328	2.5071326821120348	-0.27144835701531844	-0.6607720622952057	-0.32969023669789355	-0.17407765595569782	-0.8198360491836056	-0.3110855084191275	-1.6666666666666663	-0.2020305089104421	-0.4152273992686998	-0.39886201760873274	-0.31108550841912763	-0.32969023669789355	1.3254270092150513	-0.22703830459324986	-0.3651483716701107	-1.0	-0.2020305089104421	3.427827300200522	-0.27144835701531844	-0.31108550841912763	-0.1414213562373095	-0.38218767082460564	-0.36514837167011077	-0.4938647983247948	-0.3988620176087328	-0.3651483716701107	0.6151246852292457	-0.34767674768255774	-0.38218767082460564	-0.5244044240850758	1.754992877478424	1.4790199457749038	1.6256866681058635	-0.3296902366978936	-0.1414213562373095	1.0817637292669078	-0.36514837167011077	-0.38218767082460564	-0.3476767476825578	-0.3296902366978936	1.270977818604485	-0.29172998299578906	-0.27144835701531844	-0.7544738360147217	-0.25	-0.6607720622952057	-0.3110855084191275	-0.46291004988627577	-0.22703830459324986	-0.27144835701531844	-0.47845131690758524	2.1602468994692865	-0.39886201760873274	2.73861278752583	-0.5091750772173156	-0.43133109281375365	-0.4152273992686998	-0.32969023669789355	-0.447213595499958	-0.447213595499958	-0.38218767082460564	-0.6761234037828131	-0.25	-0.4152273992686998	-0.36514837167011077	-0.4152273992686998	-0.5091750772173155	-0.4938647983247948	1.3835771443203715	2.73861278752583	-0.7071067811865475	-0.5848976518656018	-0.36514837167011077	-0.32969023669789355	-0.29172998299578906	-0.3651483716701107	2.5071326821120348	-0.5698028822981897	-0.3110855084191275	-0.1414213562373095	-0.6302858668672516	-0.3476767476825578	0.5848976518656017	-0.27144835701531844	-0.5244044240850758	-0.36514837167011077	-0.3988620176087328	-0.32969023669789355	-0.27144835701531844	-0.3110855084191275	-0.38218767082460564	-0.31108550841912763	-0.38218767082460564	3.4278273002005224	-0.3476767476825578	-0.39886201760873274	-0.25	-0.447213595499958	-0.5395732021758765	-0.31108550841912763	-0.22703830459324986	-0.5395732021758765	-0.22703830459324992	2.160246899469287	-0.32969023669789355	-0.4629100498862757	-0.3476767476825578	-0.27144835701531844	-0.31108550841912763	-0.5091750772173156	2.73861278752583	-0.27144835701531844	-0.31108550841912763	3.4278273002005224	-0.29172998299578906	-0.22703830459324986	-0.31108550841912763	-0.43133109281375365	-0.47845131690758524	0.9244162777371755	-0.17407765595569782	-0.22703830459324986	4.0	-0.5395732021758765
CHEMBL1813803	0.0	-0.31108550841912763	-0.5547001962252291	-0.25	-0.4313310928137535	2.408318915758459	-0.4152273992686998	-0.29172998299578906	-0.25	-0.31108550841912763	-0.25	-0.27144835701531844	-0.2917299829957891	-0.5698028822981897	-0.34767674768255774	-0.5547001962252291	-0.4629100498862759	-0.47845131690758524	-0.34767674768255774	-0.31108550841912763	-0.6302858668672516	-0.29172998299578906	-0.32969023669789355	-0.3296902366978935	-0.17407765595569782	-0.5091750772173156	-0.447213595499958	-0.25	-0.4152273992686998	-0.36514837167011077	-0.6151246852292457	-0.3651483716701107	-0.4313310928137535	-0.2020305089104421	0.6761234037828131	-0.20203050891044214	-0.22703830459324992	-0.7867957924694431	-0.5091750772173156	-0.3988620176087328	-1.1254628677422756	-0.5395732021758765	-0.4313310928137535	-0.4152273992686998	-0.3110855084191275	-0.5091750772173156	-0.8537057803025783	-0.3651483716701107	-0.4313310928137535	-0.4152273992686998	-0.7071067811865475	-0.3296902366978936	-0.39886201760873274	3.0331501776206204	-0.3296902366978936	3.214550253664318	-0.2020305089104421	2.73861278752583	-0.31108550841912763	-0.9615239476408229	-0.34767674768255774	-0.34767674768255774	-0.29172998299578906	-0.25	-0.7544738360147216	-0.9063269671749654	-0.3476767476825578	-0.5244044240850758	-0.5091750772173156	-0.29172998299578906	-0.36514837167011077	-0.2020305089104421	-0.38218767082460564	-0.2917299829957891	-0.4938647983247948	1.040015698468645	-0.27144835701531844	-0.2917299829957891	1.963961012123931	-0.25	-0.17407765595569782	-0.7385489458759964	0.36514837167011077	-0.4152273992686998	-0.2917299829957891	-0.32969023669789355	-0.3988620176087328	-0.29172998299578906	-0.4313310928137535	-0.32969023669789355	-0.09950371902099893	0.7867957924694433	10.049875621120893	-0.3296902366978936	-0.32969023669789355	-0.47845131690758524	-0.4938647983247948	-0.6454972243679029	-0.4313310928137535	-0.34767674768255774	-0.32969023669789355	0.22703830459324986	-0.4313310928137535	-0.31108550841912763	-0.29172998299578906	-0.4152273992686998	-0.6151246852292457	-0.38218767082460564	0.8709883407113855	-0.29172998299578917	-0.25	-0.38218767082460564	-0.36514837167011077	-0.5547001962252291	-0.4152273992686998	-0.4152273992686998	-0.3110855084191275	-0.3651483716701107	-0.4938647983247948	-0.32969023669789355	2.0900768054383985	-0.25	-0.9615239476408229	0.7385489458759964	-0.3296902366978936	-0.2020305089104421	-0.8537057803025784	-0.2020305089104421	-0.3476767476825578	-1.0606601717798212	-0.5395732021758763	-0.3988620176087328	-0.39886201760873274	-0.27144835701531844	-0.6607720622952057	-0.32969023669789355	-0.17407765595569782	-0.8198360491836056	-0.3110855084191275	-1.6666666666666663	-0.2020305089104421	-0.4152273992686998	-0.39886201760873274	-0.31108550841912763	-0.32969023669789355	-0.7544738360147215	-0.22703830459324986	-0.3651483716701107	1.0	-0.2020305089104421	-0.29172998299578906	-0.27144835701531844	-0.31108550841912763	-0.1414213562373095	-0.38218767082460564	-0.36514837167011077	-0.4938647983247948	-0.3988620176087328	-0.3651483716701107	-1.6256866681058633	-0.34767674768255774	-0.38218767082460564	-0.5244044240850758	-0.5698028822981897	-0.6761234037828131	-0.6151246852292457	-0.3296902366978936	-0.1414213562373095	-0.9244162777371755	-0.36514837167011077	-0.38218767082460564	-0.3476767476825578	-0.3296902366978936	1.270977818604485	-0.29172998299578906	-0.27144835701531844	-0.7544738360147217	-0.25	1.5133811749341808	-0.3110855084191275	2.1602468994692865	-0.22703830459324986	-0.27144835701531844	-0.47845131690758524	-0.46291004988627577	-0.39886201760873274	-0.3651483716701107	1.963961012123931	-0.43133109281375365	-0.4152273992686998	-0.32969023669789355	-0.447213595499958	-0.447213595499958	-0.38218767082460564	-0.6761234037828131	-0.25	2.408318915758459	-0.36514837167011077	-0.4152273992686998	-0.5091750772173155	-0.4938647983247948	-0.7227641798688508	-0.3651483716701107	-0.7071067811865475	-0.5848976518656018	-0.36514837167011077	-0.32969023669789355	-0.29172998299578906	-0.3651483716701107	-0.39886201760873274	-0.5698028822981897	-0.3110855084191275	-0.1414213562373095	1.5865816648727369	-0.3476767476825578	-1.7097008285302207	-0.27144835701531844	-0.5244044240850758	-0.36514837167011077	-0.3988620176087328	-0.32969023669789355	-0.27144835701531844	-0.3110855084191275	-0.38218767082460564	-0.31108550841912763	-0.38218767082460564	-0.2917299829957891	-0.3476767476825578	-0.39886201760873274	-0.25	-0.447213595499958	-0.5395732021758765	-0.31108550841912763	-0.22703830459324986	-0.5395732021758765	-0.22703830459324992	-0.4629100498862759	-0.32969023669789355	-0.4629100498862757	-0.3476767476825578	-0.27144835701531844	-0.31108550841912763	-0.5091750772173156	-0.3651483716701107	-0.27144835701531844	-0.31108550841912763	-0.2917299829957891	-0.29172998299578906	-0.22703830459324986	-0.31108550841912763	-0.43133109281375365	-0.47845131690758524	-1.0817637292669078	-0.17407765595569782	-0.22703830459324986	4.0	1.8533166509519234
CHEMBL3759085	0.0	-0.31108550841912763	1.8027756377319948	-0.25	-0.4313310928137535	2.408318915758459	-0.4152273992686998	-0.29172998299578906	-0.25	-0.31108550841912763	-0.25	-0.27144835701531844	-0.2917299829957891	-0.5698028822981897	-0.34767674768255774	-0.5547001962252291	-0.4629100498862759	2.0900768054383985	-0.34767674768255774	3.214550253664318	-0.6302858668672516	-0.29172998299578906	-0.32969023669789355	-0.3296902366978935	-0.17407765595569782	-0.5091750772173156	2.23606797749979	-0.25	2.408318915758459	-0.36514837167011077	-0.6151246852292457	-0.3651483716701107	-0.4313310928137535	-0.2020305089104421	0.6761234037828131	-0.20203050891044214	-0.22703830459324992	-0.7867957924694431	-0.5091750772173156	-0.3988620176087328	0.8885233166386385	-0.5395732021758765	-0.4313310928137535	-0.4152273992686998	-0.3110855084191275	-0.5091750772173156	1.1713637450663281	-0.3651483716701107	-0.4313310928137535	-0.4152273992686998	-0.7071067811865475	-0.3296902366978936	-0.39886201760873274	-0.3296902366978936	3.0331501776206204	-0.31108550841912763	-0.2020305089104421	-0.3651483716701107	-0.31108550841912763	-0.9615239476408229	2.876234912646614	-0.34767674768255774	-0.29172998299578906	4.0	-0.7544738360147216	1.1033545687347406	-0.3476767476825578	-0.5244044240850758	-0.5091750772173156	-0.29172998299578906	-0.36514837167011077	-0.2020305089104421	-0.38218767082460564	-0.2917299829957891	2.0248456731316584	-0.9615239476408229	-0.27144835701531844	-0.2917299829957891	1.963961012123931	-0.25	-0.17407765595569782	-0.7385489458759964	0.36514837167011077	-0.4152273992686998	-0.2917299829957891	-0.32969023669789355	2.507132682112035	-0.29172998299578906	2.318404623873925	-0.32969023669789355	-0.09950371902099893	-1.2709778186044853	-0.09950371902099894	-0.3296902366978936	-0.32969023669789355	-0.47845131690758524	-0.4938647983247948	1.5491933384829668	-0.4313310928137535	-0.34767674768255774	-0.32969023669789355	0.22703830459324986	-0.4313310928137535	-0.31108550841912763	-0.29172998299578906	-0.4152273992686998	-0.6151246852292457	-0.38218767082460564	0.8709883407113855	3.427827300200523	-0.25	2.616515592568454	-0.36514837167011077	-0.5547001962252291	2.408318915758459	-0.4152273992686998	-0.3110855084191275	-0.3651483716701107	-0.4938647983247948	-0.32969023669789355	-0.47845131690758524	-0.25	-0.9615239476408229	0.7385489458759964	3.0331501776206204	-0.2020305089104421	1.1713637450663283	-0.2020305089104421	-0.3476767476825578	0.9428090415820632	-0.5395732021758763	-0.3988620176087328	-0.39886201760873274	-0.27144835701531844	1.5133811749341808	-0.32969023669789355	-0.17407765595569782	-0.8198360491836056	-0.3110855084191275	0.5999999999999998	-0.2020305089104421	2.408318915758459	-0.39886201760873274	-0.31108550841912763	-0.32969023669789355	-0.7544738360147215	-0.22703830459324986	-0.3651483716701107	1.0	-0.2020305089104421	-0.29172998299578906	-0.27144835701531844	-0.31108550841912763	-0.1414213562373095	-0.38218767082460564	-0.36514837167011077	-0.4938647983247948	-0.3988620176087328	-0.3651483716701107	-1.6256866681058633	-0.34767674768255774	-0.38218767082460564	-0.5244044240850758	1.754992877478424	1.4790199457749038	1.6256866681058635	-0.3296902366978936	-0.1414213562373095	1.0817637292669078	-0.36514837167011077	-0.38218767082460564	2.876234912646614	-0.3296902366978936	1.270977818604485	-0.29172998299578906	-0.27144835701531844	1.3254270092150515	-0.25	1.5133811749341808	3.2145502536643176	-0.46291004988627577	-0.22703830459324986	-0.27144835701531844	-0.47845131690758524	-0.46291004988627577	-0.39886201760873274	-0.3651483716701107	-0.5091750772173156	-0.43133109281375365	-0.4152273992686998	-0.32969023669789355	-0.447213595499958	-0.447213595499958	-0.38218767082460564	-0.6761234037828131	-0.25	-0.4152273992686998	2.7386127875258306	-0.4152273992686998	-0.5091750772173155	2.0248456731316584	-0.7227641798688508	-0.3651483716701107	-0.7071067811865475	-0.5848976518656018	2.7386127875258306	-0.32969023669789355	-0.29172998299578906	-0.3651483716701107	-0.39886201760873274	-0.5698028822981897	-0.3110855084191275	-0.1414213562373095	-0.6302858668672516	-0.3476767476825578	0.5848976518656017	-0.27144835701531844	1.906925178491185	-0.36514837167011077	-0.3988620176087328	-0.32969023669789355	-0.27144835701531844	-0.3110855084191275	-0.38218767082460564	-0.31108550841912763	-0.38218767082460564	-0.2917299829957891	-0.3476767476825578	-0.39886201760873274	-0.25	-0.447213595499958	-0.5395732021758765	-0.31108550841912763	-0.22703830459324986	1.8533166509519234	-0.22703830459324992	-0.4629100498862759	-0.32969023669789355	-0.4629100498862757	-0.3476767476825578	-0.27144835701531844	-0.31108550841912763	-0.5091750772173156	-0.3651483716701107	-0.27144835701531844	-0.31108550841912763	-0.2917299829957891	-0.29172998299578906	4.4045431091090474	-0.31108550841912763	-0.43133109281375365	-0.47845131690758524	-1.0817637292669078	-0.17407765595569782	-0.22703830459324986	-0.25	1.8533166509519234
