Compound_ID	AD	f_0	f_1	f_2	f_3	f_4	f_5	f_6	f_7	f_8	f_9	f_10	f_11	f_12	f_13	f_14	f_15	f_16	f_17	f_18	f_19	f_20	f_21	f_22	f_23	f_24	f_25	f_26	f_27	f_28	f_29	f_30	f_31	f_32	f_33	f_34	f_35	f_36	f_37	f_38	f_39	f_40	f_41	f_42	f_43	f_44	f_45	f_46	f_47	f_48	f_49	f_50	f_51	f_52	f_53	f_54	f_55	f_56	f_57	f_58	f_59	f_60	f_61	f_62	f_63	f_64	f_65	f_66	f_67	f_68	f_69	f_70	f_71	f_72	f_73	f_74	f_75	f_76	f_77	f_78	f_79	f_80	f_81	f_82	f_83	f_84	f_85	f_86	f_87	f_88	f_89	f_90	f_91	f_92	f_93	f_94	f_95	f_96	f_97	f_98	f_99	f_100	f_101	f_102	f_103	f_104	f_105	f_106	f_107	f_108	f_109	f_110	f_111	f_112	f_113	f_114	f_115	f_116	f_117	f_118	f_119	f_120	f_121	f_122	f_123	f_124	f_125	f_126	f_127	f_128	f_129	f_130	f_131	f_132	f_133	f_134	f_135	f_136	f_137	f_138	f_139	f_140	f_141	f_142	f_143	f_144	f_145	f_146	f_147	f_148	f_149	f_150	f_151	f_152	f_153	f_154	f_155	f_156	f_157	f_158	f_159	f_160	f_161	f_162	f_163	f_164	f_165	f_166	f_167	f_168	f_169	f_170	f_171	f_172	f_173	f_174	f_175	f_176	f_177	f_178	f_179	f_180	f_181	f_182	f_183	f_184	f_185	f_186	f_187	f_188	f_189	f_190	f_191	f_192	f_193	f_194	f_195	f_196	f_197	f_198	f_199	f_200	f_201	f_202	f_203	f_204	f_205	f_206	f_207	f_208	f_209	f_210	f_211	f_212	f_213	f_214	f_215	f_216	f_217	f_218	f_219	f_220	f_221	f_222	f_223	f_224	f_225	f_226	f_227	f_228	f_229	f_230	f_231	f_232	f_233	f_234	f_235	f_236	f_237	f_238	f_239	f_240	f_241	f_242	f_243	f_244	f_245	f_246	f_247	f_248	f_249	f_250	f_251	f_252	f_253	f_254	f_255	f_256	f_257	f_258	f_259	f_260	f_261	f_262	f_263	f_264	f_265	f_266	f_267	f_268	f_269	f_270	f_271	f_272	f_273	f_274	f_275	f_276	f_277	f_278	f_279	f_280	f_281	f_282	f_283	f_284	f_285	f_286	f_287	f_288	f_289	f_290	f_291	f_292	f_293	f_294	f_295	f_296	f_297	f_298	f_299	f_300	f_301	f_302	f_303	f_304	f_305	f_306	f_307	f_308	f_309	f_310	f_311	f_312	f_313	f_314	f_315	f_316	f_317	f_318	f_319	f_320	f_321	f_322	f_323	f_324	f_325	f_326	f_327	f_328	f_329	f_330	f_331	f_332	f_333	f_334	f_335	f_336	f_337	f_338	f_339	f_340	f_341	f_342	f_343	f_344	f_345	f_346	f_347	f_348	f_349	f_350	f_351	f_352	f_353	f_354	f_355	f_356	f_357	f_358	f_359	f_360	f_361	f_362	f_363	f_364	f_365	f_366	f_367	f_368	f_369	f_370	f_371	f_372	f_373	f_374	f_375	f_376	f_377	f_378	f_379	f_380	f_381	f_382	f_383	f_384	f_385	f_386	f_387	f_388	f_389	f_390	f_391	f_392	f_393	f_394	f_395	f_396	f_397	f_398	f_399	f_400	f_401	f_402	f_403	f_404	f_405	f_406	f_407	f_408	f_409	f_410	f_411	f_412	f_413	f_414	f_415	f_416	f_417	f_418	f_419	f_420	f_421	f_422	f_423	f_424	f_425	f_426	f_427	f_428	f_429	f_430	f_431	f_432	f_433	f_434	f_435	f_436	f_437	f_438	f_439	f_440	f_441	f_442	f_443	f_444	f_445	f_446	f_447	f_448	f_449	f_450	f_451	f_452	f_453	f_454	f_455	f_456	f_457	f_458	f_459	f_460	f_461	f_462	f_463	f_464	f_465	f_466	f_467	f_468	f_469	f_470	f_471	f_472	f_473	f_474	f_475	f_476	f_477	f_478	f_479	f_480	f_481	f_482	f_483	f_484	f_485	f_486	f_487	f_488	f_489	f_490	f_491	f_492	f_493	f_494	f_495	f_496	f_497	f_498	f_499	f_500	f_501	f_502	f_503	f_504	f_505	f_506	f_507	f_508	f_509	f_510	f_511
CHEMBL3954175	1.0	-0.4034732923929645	-0.49304555839388076	-0.2696397632157249	3.1374150974928234	-0.4773162810930013	-0.19200614429492774	-0.2267198031908075	-0.20412414523193156	-0.27200308856873445	-0.20996077415111275	-0.22941573387056174	-0.34956331860724565	-0.23735633163877065	-0.31661411651647203	-0.3435293617149026	-0.6494620449782256	-0.18246934851039898	-0.10599978800063599	-0.2212488394343549	-0.21282896242613866	-0.19200614429492774	4.038278384125134	-0.13875355177929796	-0.1582938647206532	-0.1981438113515164	-0.26003011049297603	-0.22399783296167977	-0.1690308509457033	-0.20412414523193156	-0.24253562503633297	-0.1655211777204736	-0.31661411651647203	-0.23995690956687127	-1.4213142608824831	-0.27200308856873445	-0.21282896242613866	-0.5687964589945211	-0.30151134457776363	-0.18569533817705186	-0.22941573387056174	-0.26726124191242434	-0.2948839123097943	-0.4982632806157666	-0.35156152465532625	-0.18569533817705186	-0.4860696825186039	-0.33538716258335044	-0.18887346974078106	-0.1791928897671983	-0.5807716340663575	-0.2672612419124243	-0.16194372377257246	-0.22671980319080756	-0.2836056643812807	-0.15075567228888181	-0.17247690788294068	-0.18887346974078106	-0.18246934851039895	-0.1950955759032588	-0.20996077415111275	-0.23208655415225363	-0.2696397632157249	-0.2836056643812807	-0.2624568735074515	0.9004805334635956	-0.23473314273897758	-0.3374335284742965	3.3166247903553994	-0.2948839123097943	-0.20705964456619622	-0.18569533817705186	-0.2881535892102149	4.577250212976685	-0.6615887548252178	3.0	-0.23995690956687127	-0.2501475361591977	-0.31873372471469325	-0.2128289624261387	-0.26726124191242434	-1.3829755454176698	-0.2501475361591977	-0.1655211777204736	-0.18569533817705186	-0.23473314273897758	-0.2813124431081604	-0.38274902388722587	-0.22941573387056174	-0.2551249838734923	-0.1690308509457033	1.4540243640362678	-0.17247690788294068	-0.20996077415111275	-0.14285714285714285	-0.34150448045918413	-0.4685212856658182	-0.2648670947540899	-0.2948839123097943	-0.1920061442949277	-0.15456644196893177	-0.19814381135151637	-0.20412414523193154	-0.3080430342483094	-0.16552117772047362	-0.3229465567669167	-0.1791928897671983	-0.18569533817705186	-0.28131244310816045	-0.18246934851039895	3.3911649915626345	-0.22941573387056174	-0.26486709475408987	-0.447213595499958	-0.2696397632157249	2.679891449633396	-0.18569533817705186	-0.3594921833113794	-0.30151134457776363	-0.2696397632157249	2.9635466413829517	-0.15829386472065318	-0.5	4.762794403112084	-0.24253562503633297	-0.3535533905932738	-0.28131244310816045	-0.20412414523193156	-0.22941573387056174	0.8607045829494878	3.3166247903554	-0.25264557631995566	-0.29040893477575785	-0.17247690788294068	-0.4525696378552518	-0.3394725845892895	-0.21847177966477777	2.5997347344787265	-0.19200614429492774	0.835531691527718	-0.27668578554642986	2.433737233777904	-0.23208655415225363	-0.1582938647206532	-0.2267198031908075	-0.6356541215523501	-0.23735633163877065	-0.22941573387056174	1.083472677771923	-0.18246934851039895	-0.24253562503633297	-0.17586311452816472	-0.2128289624261387	-0.23473314273897755	-0.13875355177929796	-0.32504016005888514	-0.35156152465532625	-0.20412414523193156	2.8607120563572557	-0.28131244310816045	-0.21847177966477777	3.2927352251825366	2.158790716695476	-0.5705073575917088	-0.5636629835321745	-0.17247690788294068	3.7416573867739413	-0.18887346974078106	-0.23473314273897755	-0.2948839123097943	-0.20705964456619622	-0.19509557590325882	-0.2212488394343549	-0.25758631737822163	-0.1655211777204736	-0.13453455879926252	1.407171791335772	-0.2624568735074515	-0.24509318917116377	-0.13875355177929796	-0.17247690788294068	-0.20412414523193154	-0.2858859374484328	2.00697109119535	-0.8014585244561055	-0.2624568735074515	-0.17586311452816475	-0.5602397818244311	-0.4649905549752771	-0.27668578554642986	-0.17586311452816475	4.898979485566357	-0.7590666219788959	-0.3080430342483094	-0.31661411651647203	-0.19509557590325882	-0.1791928897671983	-0.651191702121113	-0.37121456442938844	-0.19814381135151637	-0.23735633163877065	3.0964875737063196	-0.24253562503633297	-0.7939992333804207	-0.36537824161523874	-0.2551249838734923	4.2130748865881795	-0.3333333333333333	-0.27668578554642986	-0.2720030885687344	-0.32920264919416004	-0.18246934851039895	-0.27200308856873445	-0.42556123202745383	-0.38655567174253425	0.4895604370122276	-0.14685503674071937	-0.6150237485921274	-0.15456644196893177	-0.5138530371810842	-0.3374335284742965	-0.1791928897671983	-0.2881535892102149	-0.2993131766627907	-0.13875355177929796	-0.25758631737822163	-0.24763027827182432	-0.21282896242613866	-0.3102001240015427	-0.13453455879926254	-0.37507920583043236	-0.27668578554642986	-0.3250401600588851	-0.20705964456619622	-0.4895604370122276	-0.14285714285714282	-0.3614599097156672	4.762794403112084	-0.320844473959874	-0.24509318917116377	-0.22399783296167977	-0.15829386472065318	-0.27200308856873445	-0.22941573387056174	-0.2212488394343549	-0.20115274729832733	-0.2212488394343549	-0.1920061442949277	-0.28131244310816045	-0.1981438113515164	-0.3922322702763681	-0.3959953779169898	-0.18569533817705186	-0.25512498387349225	-0.1655211777204736	-0.37507920583043236	-0.5086661564732401	-0.21566554640687685	-0.2501475361591977	-0.23735633163877065	-0.2212488394343549	-0.19509557590325882	-0.19509557590325882	-0.21847177966477777	-0.22399783296167977	-0.1655211777204736	-0.2501475361591977	-0.15075567228888181	-0.23208655415225363	-0.4982632806157665	-0.2624568735074515	-0.20412414523193154	-0.2836056643812807	-0.2696397632157249	-0.24509318917116377	-0.6702800625998364	-0.2526455763199557	-0.1981438113515164	-0.20115274729832733	-0.3435293617149026	-0.15075567228888181	2.3104173149052714	-0.18569533817705186	-0.48432210483785254	-0.3884522373020416	-0.23735633163877065	-0.3292026491941601	-0.22671980319080756	-0.3229465567669167	4.762794403112084	-0.40160966445124946	-0.2813124431081604	4.971346468944375	-0.15075567228888181	-0.18887346974078106	-0.5636629835321744	0.8944271909999157	-0.2212488394343549	3.9581140290126386	-0.20115274729832733	-0.2128289624261387	-0.23735633163877065	1.795926533206761	-0.20115274729832733	-0.20412414523193156	-0.36927447293799814	3.5841531560682287	-0.15075567228888181	-0.20412414523193156	-0.18569533817705186	6.3173642374878884	-0.3144854510165755	-0.20996077415111275	-0.20705964456619622	-0.26726124191242434	-0.50866615647324	-0.25512498387349225	-0.2128289624261387	-0.21847177966477777	-0.25264557631995566	-0.6650621717611761	-0.23735633163877065	-0.2156655464068768	-0.39411590014501025	3.6764288422677334	-0.21566554640687685	-0.39034440946753785	-0.3394725845892895	-0.1791928897671983	-0.1690308509457033	-0.8278848098781416	2.561840199950815	-0.5482499746302602	-0.18246934851039895	-0.6201736729460422	-0.18569533817705186	-0.22671980319080756	-0.2648670947540899	0.3374335284742965	-0.20705964456619622	-0.13453455879926252	-0.1981438113515164	-0.2993131766627907	3.5841531560682287	-0.6755077198756877	-0.20996077415111275	-0.22671980319080756	-0.1981438113515164	-0.23208655415225363	-0.1655211777204736	-0.21282896242613866	-0.3673290665430173	-0.19509557590325882	-0.3292026491941601	6.317364237487888	-0.2212488394343549	-0.1791928897671983	0.2128289624261387	-0.13875355177929796	-0.16552117772047362	-0.1690308509457033	-0.36537824161523874	-0.4108907018066591	-0.3435293617149026	-1.2477252028464367	-0.20705964456619622	-0.15075567228888181	-0.47907013758040845	-0.3292026491941601	-0.20996077415111275	-0.47204458153496665	-0.15075567228888181	4.123105625617661	-0.23208655415225368	-0.2373563316387707	-0.22941573387056174	-0.33538716258335044	-0.59959704495119	-0.20115274729832733	0.6460052899517692	-0.2790059343047124	-0.25264557631995566	1.118033988749895	-0.17586311452816472	4.0382783841251335	2.7368898475707506	-0.2993131766627907	-0.3475586442716827	-0.2624568735074515	-0.15075567228888181	-0.4982632806157666	-0.1690308509457033	-0.18887346974078106	1.4466456045468217	4.577250212976685	-0.19509557590325882	-0.14285714285714282	-0.1655211777204736	-0.4596797996101012	-0.31661411651647203	-0.2212488394343549	-0.1791928897671983	-0.27668578554642986	-0.15456644196893177	-0.31661411651647203	4.971346468944375	-0.25758631737822163	-0.31873372471469325	-0.24253562503633297	-0.1690308509457033	-0.18246934851039895	-0.2648670947540899	-0.15456644196893177	-0.2743516305843671	-0.22941573387056174	0.9333283833152567	-0.2790059343047124	-0.2926522780543869	-0.3594921833113794	-0.18569533817705186	2.9282192686181108	2.9282192686181108	-0.23208655415225363	-0.2624568735074515	1.020204061220407	-0.16194372377257246	-0.30151134457776363	-0.1655211777204736	-0.23473314273897755	-0.9780192938436516	3.8457084762382254	-0.30151134457776363	-0.21847177966477777	-0.23208655415225363	-0.4273808630513265	-0.5413902920037097	-0.2993131766627907	-0.20996077415111275	4.762794403112084	-0.38274902388722587	-0.21566554640687685	-0.23995690956687127	-0.35156152465532625	-0.2696397632157249	-0.18569533817705186	-0.30151134457776363	-0.2128289624261387	-0.2790059343047124	3.8821937833431974	-0.39599537791698985	-0.36927447293799814	-0.12106256360515263	-0.2212488394343549	-0.3435293617149026	-0.2624568735074515	-0.20996077415111275	-0.2720030885687344	-0.5482499746302602	-0.30151134457776363	-0.3673290665430172	-0.21566554640687685	-0.1690308509457033	-0.23208655415225363	-0.3692744729379982	-0.3475586442716827	-0.32504016005888514	-0.2881535892102149	-0.22671980319080756	-0.1507556722888818	-0.3435293617149026	-0.1655211777204736	-0.26003011049297603	4.358898943540673	-0.2267198031908075	-0.26003011049297603	-0.3229465567669167	-0.1791928897671983	-0.1655211777204736	-0.2212488394343549	-0.17919288976719827	-0.3144854510165755	4.829526304341279	-0.24509318917116377	-0.24509318917116377	-0.1950955759032588	-0.22671980319080756	-0.4400385804161289	-0.3555390414743726	-0.1981438113515164	-0.15456644196893177	-0.6930102148559838	-0.2624568735074515	-0.7000473020914822	-0.2648670947540899	-0.23735633163877065	-0.2836056643812807	-0.22941573387056174	-0.21847177966477777	-0.3036988799925641	-0.24509318917116377	-0.1791928897671983	-0.22399783296167977	-0.23473314273897755	-0.23995690956687127	-0.20412414523193156	-0.25758631737822163	-0.2836056643812807	-0.2476302782718242	1.1080265214683391	-0.17247690788294068	-0.17247690788294068	-0.2790059343047124	-0.480822368945951
CHEMBL24828	1.0	2.4784787961282104	-0.49304555839388076	-0.2696397632157249	-0.31873372471469325	-0.4773162810930013	-0.19200614429492774	-0.2267198031908075	-0.20412414523193156	-0.27200308856873445	-0.20996077415111275	-0.22941573387056174	-0.34956331860724565	-0.23735633163877065	-0.31661411651647203	-0.3435293617149026	-0.6494620449782256	-0.18246934851039898	-0.10599978800063599	4.5197977198732495	-0.21282896242613866	-0.19200614429492774	-0.24763027827182427	-0.13875355177929796	-0.1582938647206532	-0.1981438113515164	3.845708476238225	-0.22399783296167977	-0.1690308509457033	-0.20412414523193156	4.123105625617661	-0.1655211777204736	-0.31661411651647203	-0.23995690956687127	0.7035741690082724	-0.27200308856873445	-0.21282896242613866	-0.5687964589945211	-0.30151134457776363	-0.18569533817705186	-0.22941573387056174	-0.26726124191242434	-0.2948839123097943	-0.4982632806157666	-0.35156152465532625	-0.18569533817705186	-0.4860696825186039	-0.33538716258335044	-0.18887346974078106	-0.1791928897671983	-0.5807716340663575	-0.2672612419124243	-0.16194372377257246	-0.22671980319080756	-0.2836056643812807	-0.15075567228888181	5.797877595757313	-0.18887346974078106	-0.18246934851039895	-0.1950955759032588	-0.20996077415111275	-0.23208655415225363	-0.2696397632157249	-0.2836056643812807	-0.2624568735074515	-1.1105181765047318	-0.23473314273897758	-0.3374335284742965	-0.30151134457776363	-0.2948839123097943	-0.20705964456619622	-0.18569533817705186	-0.2881535892102149	-0.21847177966477777	-0.6615887548252178	-0.3333333333333333	-0.23995690956687127	-0.2501475361591977	-0.31873372471469325	-0.2128289624261387	-0.26726124191242434	0.7230785846599999	-0.2501475361591977	-0.1655211777204736	-0.18569533817705186	-0.23473314273897758	-0.2813124431081604	-0.38274902388722587	-0.22941573387056174	-0.2551249838734923	-0.1690308509457033	1.4540243640362678	-0.17247690788294068	-0.20996077415111275	-0.14285714285714285	-0.34150448045918413	2.134374745810949	-0.2648670947540899	-0.2948839123097943	-0.1920061442949277	-0.15456644196893177	-0.19814381135151637	-0.20412414523193154	-0.3080430342483094	-0.16552117772047362	-0.3229465567669167	-0.1791928897671983	-0.18569533817705186	-0.28131244310816045	-0.18246934851039895	-0.2948839123097943	-0.22941573387056174	-0.26486709475408987	2.23606797749979	-0.2696397632157249	-0.37314944235401715	-0.18569533817705186	-0.3594921833113794	-0.30151134457776363	-0.2696397632157249	2.9635466413829517	-0.15829386472065318	2.0	-0.20996077415111275	-0.24253562503633297	-0.3535533905932738	-0.28131244310816045	4.898979485566357	-0.22941573387056174	-1.16183882345923	-0.3015113445777637	-0.25264557631995566	-0.29040893477575785	-0.17247690788294068	2.209604702469759	-0.3394725845892895	-0.21847177966477777	-0.3846546290810361	-0.19200614429492774	-1.196842693269434	-0.27668578554642986	-0.4108907018066591	-0.23208655415225363	-0.1582938647206532	-0.2267198031908075	-0.6356541215523501	-0.23735633163877065	-0.22941573387056174	-0.9229582069908974	-0.18246934851039895	-0.24253562503633297	-0.17586311452816472	-0.2128289624261387	-0.23473314273897755	-0.13875355177929796	-0.32504016005888514	-0.35156152465532625	-0.20412414523193156	-0.34956331860724565	-0.28131244310816045	-0.21847177966477777	-0.30369887999256406	-0.46322229953384697	-0.5705073575917088	-0.5636629835321745	-0.17247690788294068	-0.26726124191242434	-0.18887346974078106	-0.23473314273897755	-0.2948839123097943	4.829526304341279	-0.19509557590325882	-0.2212488394343549	-0.25758631737822163	-0.1655211777204736	-0.13453455879926252	-0.7106452859254234	-0.2624568735074515	-0.24509318917116377	-0.13875355177929796	-0.17247690788294068	-0.20412414523193154	-0.2858859374484328	-0.4982632806157665	1.247725202846437	-0.2624568735074515	-0.17586311452816475	-0.5602397818244311	2.1505813167606567	-0.27668578554642986	-0.17586311452816475	4.898979485566357	-0.7590666219788959	-0.3080430342483094	-0.31661411651647203	-0.19509557590325882	-0.1791928897671983	-0.651191702121113	-0.37121456442938844	-0.19814381135151637	-0.23735633163877065	-0.32294655676691675	4.123105625617661	-0.7939992333804207	-0.36537824161523874	-0.2551249838734923	-0.23735633163877065	-0.3333333333333333	3.61420807370024	-0.2720030885687344	-0.32920264919416004	-0.18246934851039895	-0.27200308856873445	2.3498381072820274	2.586949495507729	0.4895604370122276	-0.14685503674071937	1.6259534729986203	-0.15456644196893177	-0.5138530371810842	-0.3374335284742965	-0.1791928897671983	3.4703714874447615	-0.2993131766627907	-0.13875355177929796	-0.25758631737822163	-0.24763027827182432	-0.21282896242613866	-0.3102001240015427	-0.13453455879926254	-0.37507920583043236	-0.27668578554642986	-0.3250401600588851	-0.20705964456619622	-0.4895604370122276	-0.14285714285714282	2.7665585397468377	-0.20996077415111275	-0.320844473959874	-0.24509318917116377	-0.22399783296167977	-0.15829386472065318	-0.27200308856873445	-0.22941573387056174	-0.2212488394343549	-0.20115274729832733	-0.2212488394343549	-0.1920061442949277	-0.28131244310816045	-0.1981438113515164	2.5495097567963927	-0.3959953779169898	-0.18569533817705186	-0.25512498387349225	-0.1655211777204736	2.666103544146046	-0.5086661564732401	-0.21566554640687685	-0.2501475361591977	-0.23735633163877065	-0.2212488394343549	-0.19509557590325882	-0.19509557590325882	-0.21847177966477777	-0.22399783296167977	-0.1655211777204736	-0.2501475361591977	-0.15075567228888181	-0.23208655415225363	-0.4982632806157665	-0.2624568735074515	-0.20412414523193154	-0.2836056643812807	-0.2696397632157249	-0.24509318917116377	-0.6702800625998364	-0.2526455763199557	-0.1981438113515164	-0.20115274729832733	-0.3435293617149026	-0.15075567228888181	-0.4328222410508556	-0.18569533817705186	-0.48432210483785254	-0.3884522373020416	-0.23735633163877065	-0.3292026491941601	-0.22671980319080756	-0.3229465567669167	4.762794403112084	-0.40160966445124946	-0.2813124431081604	-0.20115274729832733	-0.15075567228888181	-0.18887346974078106	1.774109759227996	-1.118033988749895	-0.2212488394343549	-0.25264557631995566	-0.20115274729832733	-0.2128289624261387	-0.23735633163877065	1.795926533206761	-0.20115274729832733	-0.20412414523193156	2.70801280154532	-0.2790059343047124	-0.15075567228888181	-0.20412414523193156	-0.18569533817705186	-0.15829386472065324	-0.3144854510165755	-0.20996077415111275	-0.20705964456619622	-0.26726124191242434	-0.50866615647324	-0.25512498387349225	-0.2128289624261387	-0.21847177966477777	-0.25264557631995566	-0.6650621717611761	-0.23735633163877065	-0.2156655464068768	2.537324679445975	-0.27200308856873445	-0.21566554640687685	-0.39034440946753785	-0.3394725845892895	-0.1791928897671983	-0.1690308509457033	1.2078975094943376	-0.39034440946753785	-0.5482499746302602	-0.18246934851039895	1.6124515496597098	-0.18569533817705186	4.410730716621165	-0.2648670947540899	0.3374335284742965	-0.20705964456619622	-0.13453455879926252	-0.1981438113515164	-0.2993131766627907	-0.2790059343047124	-0.6755077198756877	-0.20996077415111275	-0.22671980319080756	-0.1981438113515164	4.308737331435318	-0.1655211777204736	-0.21282896242613866	-0.3673290665430173	5.125692857821982	-0.3292026491941601	-0.1582938647206532	-0.2212488394343549	-0.1791928897671983	0.2128289624261387	-0.13875355177929796	-0.16552117772047362	-0.1690308509457033	-0.36537824161523874	-0.4108907018066591	-0.3435293617149026	0.8014585244561055	-0.20705964456619622	-0.15075567228888181	-0.47907013758040845	-0.3292026491941601	-0.20996077415111275	-0.47204458153496665	-0.15075567228888181	-0.24253562503633297	4.308737331435319	-0.2373563316387707	-0.22941573387056174	-0.33538716258335044	-0.59959704495119	-0.20115274729832733	0.6460052899517692	-0.2790059343047124	-0.25264557631995566	-0.8944271909999157	-0.17586311452816472	-0.2476302782718242	-0.36537824161523874	-0.2993131766627907	-0.3475586442716827	-0.2624568735074515	-0.15075567228888181	-0.4982632806157666	-0.1690308509457033	-0.18887346974078106	1.4466456045468217	-0.21847177966477777	-0.19509557590325882	-0.14285714285714282	-0.1655211777204736	2.175427331912772	-0.31661411651647203	-0.2212488394343549	-0.1791928897671983	-0.27668578554642986	-0.15456644196893177	-0.31661411651647203	-0.20115274729832733	-0.25758631737822163	-0.31873372471469325	-0.24253562503633297	-0.1690308509457033	-0.18246934851039895	-0.2648670947540899	-0.15456644196893177	-0.2743516305843671	-0.22941573387056174	0.9333283833152567	-0.2790059343047124	-0.2926522780543869	-0.3594921833113794	-0.18569533817705186	-0.34150448045918413	-0.34150448045918413	-0.23208655415225363	-0.2624568735074515	1.020204061220407	-0.16194372377257246	3.3166247903553994	-0.1655211777204736	-0.23473314273897755	1.0224747162910903	-0.2600301104929761	-0.30151134457776363	-0.21847177966477777	-0.23208655415225363	-0.4273808630513265	1.8470962903655979	-0.2993131766627907	-0.20996077415111275	-0.20996077415111275	-0.38274902388722587	-0.21566554640687685	-0.23995690956687127	2.8444523358476395	-0.2696397632157249	-0.18569533817705186	-0.30151134457776363	-0.2128289624261387	-0.2790059343047124	-0.25758631737822163	-0.39599537791698985	-0.36927447293799814	-0.12106256360515263	-0.2212488394343549	-0.3435293617149026	-0.2624568735074515	-0.20996077415111275	-0.2720030885687344	1.8239854925199042	-0.30151134457776363	-0.3673290665430172	-0.21566554640687685	-0.1690308509457033	-0.23208655415225363	-0.3692744729379982	-0.3475586442716827	-0.32504016005888514	-0.2881535892102149	-0.22671980319080756	-0.1507556722888818	-0.3435293617149026	-0.1655211777204736	-0.26003011049297603	-0.22941573387056174	-0.2267198031908075	-0.26003011049297603	-0.3229465567669167	-0.1791928897671983	-0.1655211777204736	-0.2212488394343549	5.5805785670356025	-0.3144854510165755	-0.2070596445661962	4.080080737378785	-0.24509318917116377	-0.1950955759032588	-0.22671980319080756	-0.4400385804161289	-0.3555390414743726	-0.1981438113515164	-0.15456644196893177	-0.6930102148559838	-0.2624568735074515	-0.7000473020914822	-0.2648670947540899	-0.23735633163877065	-0.2836056643812807	-0.22941573387056174	4.577250212976685	-0.3036988799925641	-0.24509318917116377	-0.1791928897671983	-0.22399783296167977	-0.23473314273897755	-0.23995690956687127	-0.20412414523193156	-0.25758631737822163	-0.2836056643812807	-0.2476302782718242	1.1080265214683391	-0.17247690788294068	-0.17247690788294068	-0.2790059343047124	-0.480822368945951
CHEMBL4072620	1.0	2.4784787961282104	-0.49304555839388076	-0.2696397632157249	-0.31873372471469325	-0.4773162810930013	-0.19200614429492774	-0.2267198031908075	-0.20412414523193156	3.6764288422677334	-0.20996077415111275	-0.22941573387056174	-0.34956331860724565	-0.23735633163877065	-0.31661411651647203	-0.3435293617149026	1.5397358594427593	-0.18246934851039898	-0.10599978800063599	-0.2212488394343549	-0.21282896242613866	-0.19200614429492774	-0.24763027827182427	-0.13875355177929796	-0.1582938647206532	-0.1981438113515164	-0.26003011049297603	-0.22399783296167977	-0.1690308509457033	-0.20412414523193156	-0.24253562503633297	-0.1655211777204736	-0.31661411651647203	-0.23995690956687127	0.7035741690082724	-0.27200308856873445	-0.21282896242613866	-0.5687964589945211	3.3166247903553994	-0.18569533817705186	-0.22941573387056174	-0.26726124191242434	-0.2948839123097943	-0.4982632806157666	2.8444523358476395	-0.18569533817705186	-0.4860696825186039	2.9816287310981378	-0.18887346974078106	-0.1791928897671983	-0.5807716340663575	-0.2672612419124243	-0.16194372377257246	-0.22671980319080756	-0.2836056643812807	-0.15075567228888181	-0.17247690788294068	-0.18887346974078106	-0.18246934851039895	-0.1950955759032588	-0.20996077415111275	-0.23208655415225363	3.708651825213003	-0.2836056643812807	-0.2624568735074515	0.9004805334635956	-0.23473314273897758	-0.3374335284742965	3.3166247903553994	-0.2948839123097943	-0.20705964456619622	-0.18569533817705186	-0.2881535892102149	-0.21847177966477777	-0.6615887548252178	-0.3333333333333333	-0.23995690956687127	-0.2501475361591977	3.1374150974928234	-0.2128289624261387	-0.26726124191242434	0.7230785846599999	-0.2501475361591977	-0.1655211777204736	-0.18569533817705186	-0.23473314273897758	-0.2813124431081604	-0.38274902388722587	-0.22941573387056174	-0.2551249838734923	-0.1690308509457033	-0.6877463849533247	-0.17247690788294068	-0.20996077415111275	-0.14285714285714285	-0.34150448045918413	-0.4685212856658182	-0.2648670947540899	-0.2948839123097943	-0.1920061442949277	-0.15456644196893177	5.04683943030627	-0.20412414523193154	-0.3080430342483094	-0.16552117772047362	-0.3229465567669167	-0.1791928897671983	-0.18569533817705186	-0.28131244310816045	-0.18246934851039895	3.3911649915626345	-0.22941573387056174	3.7754784184438916	-0.447213595499958	-0.2696397632157249	-0.37314944235401715	-0.18569533817705186	2.7817016514482464	3.3166247903553994	-0.2696397632157249	-0.3374335284742965	-0.15829386472065318	2.0	-0.20996077415111275	-0.24253562503633297	-0.3535533905932738	-0.28131244310816045	-0.20412414523193156	-0.22941573387056174	0.8607045829494878	-0.3015113445777637	-0.25264557631995566	-0.29040893477575785	-0.17247690788294068	-0.4525696378552518	-0.3394725845892895	-0.21847177966477777	-0.3846546290810361	-0.19200614429492774	0.835531691527718	3.61420807370024	-0.4108907018066591	-0.23208655415225363	-0.1582938647206532	-0.2267198031908075	-0.6356541215523501	-0.23735633163877065	-0.22941573387056174	-0.9229582069908974	-0.18246934851039895	-0.24253562503633297	-0.17586311452816472	-0.2128289624261387	-0.23473314273897755	-0.13875355177929796	-0.32504016005888514	-0.35156152465532625	-0.20412414523193156	2.8607120563572557	-0.28131244310816045	-0.21847177966477777	-0.30369887999256406	2.158790716695476	1.7528257728722636	-0.5636629835321745	-0.17247690788294068	-0.26726124191242434	-0.18887346974078106	-0.23473314273897755	-0.2948839123097943	-0.20705964456619622	-0.19509557590325882	-0.2212488394343549	-0.25758631737822163	-0.1655211777204736	-0.13453455879926252	-0.7106452859254234	-0.2624568735074515	-0.24509318917116377	-0.13875355177929796	-0.17247690788294068	-0.20412414523193154	-0.2858859374484328	2.00697109119535	1.247725202846437	-0.2624568735074515	-0.17586311452816475	-0.5602397818244311	2.1505813167606567	-0.27668578554642986	-0.17586311452816475	-0.20412414523193156	-0.7590666219788959	-0.3080430342483094	-0.31661411651647203	-0.19509557590325882	-0.1791928897671983	-0.651191702121113	-0.37121456442938844	-0.19814381135151637	-0.23735633163877065	3.0964875737063196	-0.24253562503633297	-0.7939992333804207	2.7368898475707506	-0.2551249838734923	-0.23735633163877065	-0.3333333333333333	-0.27668578554642986	-0.2720030885687344	-0.32920264919416004	-0.18246934851039895	-0.27200308856873445	-0.42556123202745383	-0.38655567174253425	0.4895604370122276	-0.14685503674071937	-0.6150237485921274	-0.15456644196893177	-0.5138530371810842	-0.3374335284742965	-0.1791928897671983	3.4703714874447615	-0.2993131766627907	-0.13875355177929796	-0.25758631737822163	-0.24763027827182432	-0.21282896242613866	-0.3102001240015427	-0.13453455879926254	-0.37507920583043236	-0.27668578554642986	-0.3250401600588851	-0.20705964456619622	-0.4895604370122276	-0.14285714285714282	-0.3614599097156672	-0.20996077415111275	-0.320844473959874	-0.24509318917116377	-0.22399783296167977	-0.15829386472065318	-0.27200308856873445	4.358898943540673	-0.2212488394343549	-0.20115274729832733	-0.2212488394343549	5.208166663999914	-0.28131244310816045	-0.1981438113515164	2.5495097567963927	-0.3959953779169898	-0.18569533817705186	-0.25512498387349225	-0.1655211777204736	-0.37507920583043236	-0.5086661564732401	-0.21566554640687685	-0.2501475361591977	-0.23735633163877065	-0.2212488394343549	-0.19509557590325882	-0.19509557590325882	-0.21847177966477777	-0.22399783296167977	-0.1655211777204736	-0.2501475361591977	-0.15075567228888181	-0.23208655415225363	-0.4982632806157665	-0.2624568735074515	-0.20412414523193154	-0.2836056643812807	-0.2696397632157249	-0.24509318917116377	-0.6702800625998364	3.9581140290126395	-0.1981438113515164	-0.20115274729832733	-0.3435293617149026	-0.15075567228888181	2.3104173149052714	-0.18569533817705186	-0.48432210483785254	2.5743190641542077	-0.23735633163877065	-0.3292026491941601	-0.22671980319080756	-0.3229465567669167	-0.20996077415111275	-0.40160966445124946	-0.2813124431081604	-0.20115274729832733	-0.15075567228888181	-0.18887346974078106	-0.5636629835321744	0.8944271909999157	-0.2212488394343549	-0.25264557631995566	-0.20115274729832733	-0.2128289624261387	-0.23735633163877065	-0.5568156500335374	-0.20115274729832733	-0.20412414523193156	2.70801280154532	-0.2790059343047124	-0.15075567228888181	-0.20412414523193156	-0.18569533817705186	-0.15829386472065324	-0.3144854510165755	-0.20996077415111275	-0.20705964456619622	-0.26726124191242434	-0.50866615647324	-0.25512498387349225	-0.2128289624261387	-0.21847177966477777	-0.25264557631995566	1.5036188231122245	-0.23735633163877065	-0.2156655464068768	-0.39411590014501025	-0.27200308856873445	-0.21566554640687685	-0.39034440946753785	-0.3394725845892895	-0.1791928897671983	-0.1690308509457033	1.2078975094943376	2.561840199950815	-0.5482499746302602	-0.18246934851039895	1.6124515496597098	-0.18569533817705186	-0.22671980319080756	-0.2648670947540899	0.3374335284742965	-0.20705964456619622	-0.13453455879926252	-0.1981438113515164	-0.2993131766627907	3.5841531560682287	1.4803679818552302	-0.20996077415111275	-0.22671980319080756	-0.1981438113515164	-0.23208655415225363	-0.1655211777204736	4.698608632023214	-0.3673290665430173	-0.19509557590325882	3.037642626655204	-0.1582938647206532	-0.2212488394343549	-0.1791928897671983	0.2128289624261387	-0.13875355177929796	-0.16552117772047362	-0.1690308509457033	-0.36537824161523874	-0.4108907018066591	-0.3435293617149026	0.8014585244561055	-0.20705964456619622	-0.15075567228888181	-0.47907013758040845	-0.3292026491941601	-0.20996077415111275	2.1184439756691185	6.6332495807108005	-0.24253562503633297	-0.23208655415225368	-0.2373563316387707	-0.22941573387056174	-0.33538716258335044	-0.59959704495119	-0.20115274729832733	0.6460052899517692	-0.2790059343047124	3.9581140290126386	1.118033988749895	-0.17586311452816472	-0.2476302782718242	-0.36537824161523874	3.340982215181961	-0.3475586442716827	3.8101497843667955	-0.15075567228888181	-0.4982632806157666	-0.1690308509457033	-0.18887346974078106	1.4466456045468217	-0.21847177966477777	-0.19509557590325882	-0.14285714285714282	-0.1655211777204736	-0.4596797996101012	-0.31661411651647203	4.5197977198732495	-0.1791928897671983	3.61420807370024	-0.15456644196893177	-0.31661411651647203	-0.20115274729832733	-0.25758631737822163	-0.31873372471469325	-0.24253562503633297	-0.1690308509457033	-0.18246934851039895	-0.2648670947540899	-0.15456644196893177	-0.2743516305843671	4.358898943540673	0.9333283833152567	3.5841531560682287	3.4170244860153067	-0.3594921833113794	-0.18569533817705186	2.9282192686181108	-0.34150448045918413	-0.23208655415225363	-0.2624568735074515	1.020204061220407	-0.16194372377257246	-0.30151134457776363	-0.1655211777204736	4.260156824603145	1.0224747162910903	-0.2600301104929761	-0.30151134457776363	-0.21847177966477777	-0.23208655415225363	-0.4273808630513265	1.8470962903655979	-0.2993131766627907	-0.20996077415111275	-0.20996077415111275	-0.38274902388722587	-0.21566554640687685	-0.23995690956687127	-0.35156152465532625	-0.2696397632157249	-0.18569533817705186	-0.30151134457776363	-0.2128289624261387	-0.2790059343047124	3.8821937833431974	-0.39599537791698985	-0.36927447293799814	-0.12106256360515263	-0.2212488394343549	-0.3435293617149026	-0.2624568735074515	-0.20996077415111275	-0.2720030885687344	-0.5482499746302602	-0.30151134457776363	2.722354670734698	-0.21566554640687685	-0.1690308509457033	-0.23208655415225363	-0.3692744729379982	-0.3475586442716827	3.0765429103247968	-0.2881535892102149	-0.22671980319080756	-0.1507556722888818	2.9109593282157538	-0.1655211777204736	-0.26003011049297603	-0.22941573387056174	-0.2267198031908075	-0.26003011049297603	-0.3229465567669167	-0.1791928897671983	-0.1655211777204736	-0.2212488394343549	-0.17919288976719827	-0.3144854510165755	-0.2070596445661962	-0.24509318917116377	4.080080737378785	-0.1950955759032588	-0.22671980319080756	-0.4400385804161289	-0.3555390414743726	-0.1981438113515164	6.469709642413859	1.4429801733987608	-0.2624568735074515	1.4284749002137	-0.2648670947540899	-0.23735633163877065	-0.2836056643812807	-0.22941573387056174	-0.21847177966477777	-0.3036988799925641	-0.24509318917116377	-0.1791928897671983	-0.22399783296167977	-0.23473314273897755	-0.23995690956687127	-0.20412414523193156	-0.25758631737822163	-0.2836056643812807	-0.2476302782718242	1.1080265214683391	-0.17247690788294068	-0.17247690788294068	-0.2790059343047124	-0.480822368945951
CHEMBL4861796	1.0	2.4784787961282104	2.028210137938464	-0.2696397632157249	-0.31873372471469325	-0.4773162810930013	-0.19200614429492774	-0.2267198031908075	-0.20412414523193156	-0.27200308856873445	-0.20996077415111275	-0.22941573387056174	-0.34956331860724565	-0.23735633163877065	-0.31661411651647203	-0.3435293617149026	-0.6494620449782256	-0.18246934851039898	-0.10599978800063599	-0.2212488394343549	-0.21282896242613866	-0.19200614429492774	-0.24763027827182427	-0.13875355177929796	-0.1582938647206532	-0.1981438113515164	-0.26003011049297603	-0.22399783296167977	-0.1690308509457033	-0.20412414523193156	-0.24253562503633297	-0.1655211777204736	-0.31661411651647203	-0.23995690956687127	0.7035741690082724	-0.27200308856873445	-0.21282896242613866	-0.5687964589945211	-0.30151134457776363	-0.18569533817705186	-0.22941573387056174	-0.26726124191242434	-0.2948839123097943	-0.4982632806157666	-0.35156152465532625	-0.18569533817705186	2.0573181911252534	-0.33538716258335044	-0.18887346974078106	-0.1791928897671983	-0.5807716340663575	-0.2672612419124243	-0.16194372377257246	-0.22671980319080756	-0.2836056643812807	-0.15075567228888181	-0.17247690788294068	-0.18887346974078106	-0.18246934851039895	-0.1950955759032588	-0.20996077415111275	4.308737331435318	-0.2696397632157249	-0.2836056643812807	-0.2624568735074515	-1.1105181765047318	-0.23473314273897758	2.9635466413829517	-0.30151134457776363	-0.2948839123097943	-0.20705964456619622	-0.18569533817705186	-0.2881535892102149	-0.21847177966477777	-0.6615887548252178	-0.3333333333333333	-0.23995690956687127	-0.2501475361591977	-0.31873372471469325	-0.2128289624261387	-0.26726124191242434	-1.3829755454176698	-0.2501475361591977	-0.1655211777204736	-0.18569533817705186	-0.23473314273897758	-0.2813124431081604	-0.38274902388722587	-0.22941573387056174	-0.2551249838734923	-0.1690308509457033	-0.6877463849533247	-0.17247690788294068	-0.20996077415111275	-0.14285714285714285	-0.34150448045918413	2.134374745810949	-0.2648670947540899	-0.2948839123097943	-0.1920061442949277	-0.15456644196893177	5.04683943030627	-0.20412414523193154	-0.3080430342483094	-0.16552117772047362	-0.3229465567669167	-0.1791928897671983	-0.18569533817705186	-0.28131244310816045	-0.18246934851039895	-0.2948839123097943	-0.22941573387056174	-0.26486709475408987	-0.447213595499958	3.708651825213003	-0.37314944235401715	-0.18569533817705186	-0.3594921833113794	3.3166247903553994	-0.2696397632157249	-0.3374335284742965	-0.15829386472065318	-0.5	-0.20996077415111275	-0.24253562503633297	-0.3535533905932738	-0.28131244310816045	-0.20412414523193156	-0.22941573387056174	0.8607045829494878	-0.3015113445777637	-0.25264557631995566	-0.29040893477575785	-0.17247690788294068	2.209604702469759	-0.3394725845892895	-0.21847177966477777	-0.3846546290810361	-0.19200614429492774	0.835531691527718	-0.27668578554642986	-0.4108907018066591	-0.23208655415225363	-0.1582938647206532	-0.2267198031908075	-0.6356541215523501	-0.23735633163877065	-0.22941573387056174	-0.9229582069908974	-0.18246934851039895	-0.24253562503633297	-0.17586311452816472	-0.2128289624261387	-0.23473314273897755	-0.13875355177929796	-0.32504016005888514	-0.35156152465532625	-0.20412414523193156	-0.34956331860724565	-0.28131244310816045	-0.21847177966477777	3.2927352251825366	-0.46322229953384697	-0.5705073575917088	-0.5636629835321745	-0.17247690788294068	-0.26726124191242434	-0.18887346974078106	-0.23473314273897755	-0.2948839123097943	-0.20705964456619622	-0.19509557590325882	-0.2212488394343549	-0.25758631737822163	-0.1655211777204736	7.433034373659254	-0.7106452859254234	-0.2624568735074515	-0.24509318917116377	7.207022718889419	-0.17247690788294068	-0.20412414523193154	-0.2858859374484328	-0.4982632806157665	1.247725202846437	-0.2624568735074515	-0.17586311452816475	-0.5602397818244311	-0.4649905549752771	-0.27668578554642986	5.686240703077327	-0.20412414523193156	1.317407419908661	-0.3080430342483094	-0.31661411651647203	-0.19509557590325882	-0.1791928897671983	-0.651191702121113	-0.37121456442938844	-0.19814381135151637	-0.23735633163877065	-0.32294655676691675	-0.24253562503633297	-0.7939992333804207	2.7368898475707506	-0.2551249838734923	-0.23735633163877065	3.0	-0.27668578554642986	-0.2720030885687344	-0.32920264919416004	-0.18246934851039895	-0.27200308856873445	-0.42556123202745383	-0.38655567174253425	0.4895604370122276	-0.14685503674071937	1.6259534729986203	-0.15456644196893177	-0.5138530371810842	-0.3374335284742965	-0.1791928897671983	-0.2881535892102149	-0.2993131766627907	-0.13875355177929796	-0.25758631737822163	-0.24763027827182432	-0.21282896242613866	-0.3102001240015427	-0.13453455879926254	-0.37507920583043236	-0.27668578554642986	-0.3250401600588851	-0.20705964456619622	2.0426487199475702	-0.14285714285714282	-0.3614599097156672	-0.20996077415111275	-0.320844473959874	-0.24509318917116377	-0.22399783296167977	-0.15829386472065318	-0.27200308856873445	-0.22941573387056174	-0.2212488394343549	-0.20115274729832733	-0.2212488394343549	-0.1920061442949277	-0.28131244310816045	-0.1981438113515164	-0.3922322702763681	-0.3959953779169898	-0.18569533817705186	-0.25512498387349225	-0.1655211777204736	-0.37507920583043236	-0.5086661564732401	-0.21566554640687685	-0.2501475361591977	-0.23735633163877065	-0.2212488394343549	-0.19509557590325882	-0.19509557590325882	-0.21847177966477777	-0.22399783296167977	-0.1655211777204736	-0.2501475361591977	-0.15075567228888181	-0.23208655415225363	2.00697109119535	3.8101497843667955	-0.20412414523193154	-0.2836056643812807	-0.2696397632157249	-0.24509318917116377	-0.6702800625998364	-0.2526455763199557	-0.1981438113515164	-0.20115274729832733	-0.3435293617149026	-0.15075567228888181	-0.4328222410508556	-0.18569533817705186	-0.48432210483785254	-0.3884522373020416	-0.23735633163877065	-0.3292026491941601	4.410730716621165	-0.3229465567669167	-0.20996077415111275	2.489979919597747	-0.2813124431081604	-0.20115274729832733	-0.15075567228888181	-0.18887346974078106	-0.5636629835321744	0.8944271909999157	-0.2212488394343549	-0.25264557631995566	-0.20115274729832733	-0.2128289624261387	-0.23735633163877065	-0.5568156500335374	-0.20115274729832733	-0.20412414523193156	-0.36927447293799814	-0.2790059343047124	-0.15075567228888181	-0.20412414523193156	-0.18569533817705186	-0.15829386472065324	-0.3144854510165755	-0.20996077415111275	-0.20705964456619622	-0.26726124191242434	1.965925956099279	-0.25512498387349225	-0.2128289624261387	4.577250212976685	-0.25264557631995566	1.5036188231122245	-0.23735633163877065	-0.2156655464068768	2.537324679445975	-0.27200308856873445	-0.21566554640687685	-0.39034440946753785	-0.3394725845892895	-0.1791928897671983	-0.1690308509457033	1.2078975094943376	-0.39034440946753785	1.8239854925199042	-0.18246934851039895	-0.6201736729460422	-0.18569533817705186	-0.22671980319080756	-0.2648670947540899	0.3374335284742965	-0.20705964456619622	-0.13453455879926252	-0.1981438113515164	3.340982215181961	-0.2790059343047124	-0.6755077198756877	-0.20996077415111275	-0.22671980319080756	-0.1981438113515164	-0.23208655415225363	-0.1655211777204736	-0.21282896242613866	2.722354670734698	-0.19509557590325882	-0.3292026491941601	-0.1582938647206532	-0.2212488394343549	-0.1791928897671983	0.2128289624261387	-0.13875355177929796	-0.16552117772047362	-0.1690308509457033	-0.36537824161523874	-0.4108907018066591	-0.3435293617149026	0.8014585244561055	-0.20705964456619622	-0.15075567228888181	-0.47907013758040845	-0.3292026491941601	-0.20996077415111275	-0.47204458153496665	-0.15075567228888181	-0.24253562503633297	-0.23208655415225368	-0.2373563316387707	-0.22941573387056174	-0.33538716258335044	-0.59959704495119	-0.20115274729832733	-1.5479749400731073	-0.2790059343047124	3.9581140290126386	1.118033988749895	-0.17586311452816472	-0.2476302782718242	-0.36537824161523874	-0.2993131766627907	-0.3475586442716827	-0.2624568735074515	-0.15075567228888181	-0.4982632806157666	-0.1690308509457033	-0.18887346974078106	-0.6912543036504516	-0.21847177966477777	-0.19509557590325882	-0.14285714285714282	-0.1655211777204736	2.175427331912772	-0.31661411651647203	-0.2212488394343549	-0.1791928897671983	-0.27668578554642986	-0.15456644196893177	-0.31661411651647203	-0.20115274729832733	-0.25758631737822163	-0.31873372471469325	-0.24253562503633297	-0.1690308509457033	-0.18246934851039895	-0.2648670947540899	-0.15456644196893177	-0.2743516305843671	4.358898943540673	-1.0714342538774189	-0.2790059343047124	3.4170244860153067	-0.3594921833113794	-0.18569533817705186	-0.34150448045918413	-0.34150448045918413	4.308737331435318	-0.2624568735074515	1.020204061220407	-0.16194372377257246	-0.30151134457776363	-0.1655211777204736	-0.23473314273897755	-0.9780192938436516	-0.2600301104929761	-0.30151134457776363	-0.21847177966477777	-0.23208655415225363	-0.4273808630513265	-0.5413902920037097	-0.2993131766627907	-0.20996077415111275	-0.20996077415111275	-0.38274902388722587	-0.21566554640687685	-0.23995690956687127	-0.35156152465532625	-0.2696397632157249	-0.18569533817705186	-0.30151134457776363	-0.2128289624261387	-0.2790059343047124	-0.25758631737822163	-0.39599537791698985	-0.36927447293799814	-0.12106256360515263	-0.2212488394343549	-0.3435293617149026	-0.2624568735074515	-0.20996077415111275	-0.2720030885687344	-0.5482499746302602	-0.30151134457776363	-0.3673290665430172	-0.21566554640687685	-0.1690308509457033	-0.23208655415225363	-0.3692744729379982	-0.3475586442716827	-0.32504016005888514	-0.2881535892102149	-0.22671980319080756	-0.1507556722888818	-0.3435293617149026	-0.1655211777204736	-0.26003011049297603	-0.22941573387056174	-0.2267198031908075	-0.26003011049297603	-0.3229465567669167	-0.1791928897671983	-0.1655211777204736	-0.2212488394343549	-0.17919288976719827	-0.3144854510165755	-0.2070596445661962	-0.24509318917116377	-0.24509318917116377	-0.1950955759032588	-0.22671980319080756	2.272528011190145	-0.3555390414743726	-0.1981438113515164	-0.15456644196893177	-0.6930102148559838	-0.2624568735074515	-0.7000473020914822	-0.2648670947540899	-0.23735633163877065	-0.2836056643812807	-0.22941573387056174	-0.21847177966477777	-0.3036988799925641	-0.24509318917116377	-0.1791928897671983	-0.22399783296167977	-0.23473314273897755	-0.23995690956687127	-0.20412414523193156	-0.25758631737822163	-0.2836056643812807	-0.2476302782718242	-0.9025054731314698	-0.17247690788294068	-0.17247690788294068	-0.2790059343047124	-0.480822368945951
CHEMBL515401	1.0	2.4784787961282104	-0.49304555839388076	-0.2696397632157249	-0.31873372471469325	-0.4773162810930013	-0.19200614429492774	-0.2267198031908075	-0.20412414523193156	-0.27200308856873445	-0.20996077415111275	-0.22941573387056174	-0.34956331860724565	-0.23735633163877065	-0.31661411651647203	-0.3435293617149026	-0.6494620449782256	-0.18246934851039898	-0.10599978800063599	-0.2212488394343549	-0.21282896242613866	-0.19200614429492774	-0.24763027827182427	-0.13875355177929796	-0.1582938647206532	-0.1981438113515164	-0.26003011049297603	-0.22399783296167977	-0.1690308509457033	-0.20412414523193156	-0.24253562503633297	-0.1655211777204736	-0.31661411651647203	-0.23995690956687127	0.7035741690082724	-0.27200308856873445	-0.21282896242613866	-0.5687964589945211	-0.30151134457776363	-0.18569533817705186	-0.22941573387056174	-0.26726124191242434	3.3911649915626345	-0.4982632806157666	-0.35156152465532625	-0.18569533817705186	-0.4860696825186039	-0.33538716258335044	-0.18887346974078106	-0.1791928897671983	1.7218471794125927	-0.2672612419124243	-0.16194372377257246	-0.22671980319080756	-0.2836056643812807	-0.15075567228888181	5.797877595757313	-0.18887346974078106	-0.18246934851039895	-0.1950955759032588	-0.20996077415111275	-0.23208655415225363	-0.2696397632157249	-0.2836056643812807	-0.2624568735074515	-1.1105181765047318	-0.23473314273897758	-0.3374335284742965	-0.30151134457776363	-0.2948839123097943	4.829526304341279	5.385164807134504	-0.2881535892102149	-0.21847177966477777	1.51151299460068	-0.3333333333333333	-0.23995690956687127	-0.2501475361591977	-0.31873372471469325	-0.2128289624261387	-0.26726124191242434	-1.3829755454176698	-0.2501475361591977	-0.1655211777204736	-0.18569533817705186	-0.23473314273897758	-0.2813124431081604	-0.38274902388722587	-0.22941573387056174	3.9196474795109273	-0.1690308509457033	1.4540243640362678	-0.17247690788294068	-0.20996077415111275	-0.14285714285714285	-0.34150448045918413	-0.4685212856658182	-0.2648670947540899	-0.2948839123097943	-0.1920061442949277	-0.15456644196893177	-0.19814381135151637	-0.20412414523193154	-0.3080430342483094	-0.16552117772047362	-0.3229465567669167	-0.1791928897671983	-0.18569533817705186	-0.28131244310816045	-0.18246934851039895	-0.2948839123097943	-0.22941573387056174	-0.26486709475408987	2.23606797749979	-0.2696397632157249	-0.37314944235401715	-0.18569533817705186	-0.3594921833113794	-0.30151134457776363	-0.2696397632157249	2.9635466413829517	-0.15829386472065318	-0.5	-0.20996077415111275	-0.24253562503633297	-0.3535533905932738	-0.28131244310816045	-0.20412414523193156	-0.22941573387056174	-1.16183882345923	-0.3015113445777637	-0.25264557631995566	-0.29040893477575785	-0.17247690788294068	-0.4525696378552518	-0.3394725845892895	-0.21847177966477777	-0.3846546290810361	-0.19200614429492774	-1.196842693269434	-0.27668578554642986	-0.4108907018066591	-0.23208655415225363	-0.1582938647206532	-0.2267198031908075	-0.6356541215523501	-0.23735633163877065	-0.22941573387056174	1.083472677771923	-0.18246934851039895	-0.24253562503633297	-0.17586311452816472	-0.2128289624261387	-0.23473314273897755	-0.13875355177929796	-0.32504016005888514	-0.35156152465532625	-0.20412414523193156	-0.34956331860724565	-0.28131244310816045	-0.21847177966477777	-0.30369887999256406	2.158790716695476	-0.5705073575917088	-0.5636629835321745	-0.17247690788294068	-0.26726124191242434	-0.18887346974078106	-0.23473314273897755	-0.2948839123097943	-0.20705964456619622	-0.19509557590325882	-0.2212488394343549	-0.25758631737822163	-0.1655211777204736	-0.13453455879926252	-0.7106452859254234	-0.2624568735074515	-0.24509318917116377	-0.13875355177929796	-0.17247690788294068	-0.20412414523193154	-0.2858859374484328	-0.4982632806157665	1.247725202846437	-0.2624568735074515	-0.17586311452816475	-0.5602397818244311	2.1505813167606567	-0.27668578554642986	-0.17586311452816475	-0.20412414523193156	-0.7590666219788959	-0.3080430342483094	-0.31661411651647203	-0.19509557590325882	-0.1791928897671983	-0.651191702121113	-0.37121456442938844	-0.19814381135151637	-0.23735633163877065	-0.32294655676691675	-0.24253562503633297	1.259447059844805	-0.36537824161523874	-0.2551249838734923	-0.23735633163877065	-0.3333333333333333	-0.27668578554642986	-0.2720030885687344	-0.32920264919416004	-0.18246934851039895	-0.27200308856873445	-0.42556123202745383	-0.38655567174253425	-2.0426487199475702	-0.14685503674071937	-0.6150237485921274	-0.15456644196893177	-0.5138530371810842	-0.3374335284742965	-0.1791928897671983	3.4703714874447615	-0.2993131766627907	-0.13875355177929796	-0.25758631737822163	-0.24763027827182432	-0.21282896242613866	-0.3102001240015427	-0.13453455879926254	-0.37507920583043236	-0.27668578554642986	-0.3250401600588851	-0.20705964456619622	-0.4895604370122276	-0.14285714285714282	-0.3614599097156672	-0.20996077415111275	-0.320844473959874	-0.24509318917116377	-0.22399783296167977	-0.15829386472065318	-0.27200308856873445	-0.22941573387056174	-0.2212488394343549	-0.20115274729832733	-0.2212488394343549	-0.1920061442949277	-0.28131244310816045	-0.1981438113515164	2.5495097567963927	-0.3959953779169898	-0.18569533817705186	-0.25512498387349225	-0.1655211777204736	-0.37507920583043236	-0.5086661564732401	-0.21566554640687685	-0.2501475361591977	-0.23735633163877065	-0.2212488394343549	-0.19509557590325882	-0.19509557590325882	-0.21847177966477777	-0.22399783296167977	-0.1655211777204736	-0.2501475361591977	-0.15075567228888181	-0.23208655415225363	2.00697109119535	-0.2624568735074515	-0.20412414523193154	-0.2836056643812807	-0.2696397632157249	-0.24509318917116377	1.4919136877222166	-0.2526455763199557	5.04683943030627	-0.20115274729832733	-0.3435293617149026	-0.15075567228888181	-0.4328222410508556	-0.18569533817705186	-0.48432210483785254	-0.3884522373020416	-0.23735633163877065	-0.3292026491941601	-0.22671980319080756	-0.3229465567669167	-0.20996077415111275	-0.40160966445124946	-0.2813124431081604	-0.20115274729832733	-0.15075567228888181	-0.18887346974078106	1.774109759227996	-1.118033988749895	-0.2212488394343549	-0.25264557631995566	-0.20115274729832733	-0.2128289624261387	-0.23735633163877065	-0.5568156500335374	-0.20115274729832733	-0.20412414523193156	2.70801280154532	-0.2790059343047124	-0.15075567228888181	-0.20412414523193156	-0.18569533817705186	-0.15829386472065324	-0.3144854510165755	-0.20996077415111275	-0.20705964456619622	-0.26726124191242434	-0.50866615647324	-0.25512498387349225	-0.2128289624261387	-0.21847177966477777	-0.25264557631995566	1.5036188231122245	-0.23735633163877065	-0.2156655464068768	-0.39411590014501025	3.6764288422677334	-0.21566554640687685	-0.39034440946753785	-0.3394725845892895	-0.1791928897671983	-0.1690308509457033	1.2078975094943376	-0.39034440946753785	-0.5482499746302602	-0.18246934851039895	1.6124515496597098	-0.18569533817705186	-0.22671980319080756	-0.2648670947540899	0.3374335284742965	-0.20705964456619622	-0.13453455879926252	-0.1981438113515164	-0.2993131766627907	-0.2790059343047124	1.4803679818552302	-0.20996077415111275	-0.22671980319080756	-0.1981438113515164	-0.23208655415225363	-0.1655211777204736	-0.21282896242613866	-0.3673290665430173	-0.19509557590325882	3.037642626655204	-0.1582938647206532	-0.2212488394343549	-0.1791928897671983	0.2128289624261387	-0.13875355177929796	-0.16552117772047362	-0.1690308509457033	-0.36537824161523874	-0.4108907018066591	-0.3435293617149026	0.8014585244561055	-0.20705964456619622	-0.15075567228888181	2.0873770280289223	-0.3292026491941601	-0.20996077415111275	-0.47204458153496665	-0.15075567228888181	-0.24253562503633297	-0.23208655415225368	-0.2373563316387707	-0.22941573387056174	-0.33538716258335044	-0.59959704495119	-0.20115274729832733	0.6460052899517692	-0.2790059343047124	-0.25264557631995566	-0.8944271909999157	-0.17586311452816472	-0.2476302782718242	-0.36537824161523874	-0.2993131766627907	-0.3475586442716827	-0.2624568735074515	-0.15075567228888181	-0.4982632806157666	-0.1690308509457033	-0.18887346974078106	1.4466456045468217	-0.21847177966477777	-0.19509557590325882	-0.14285714285714282	-0.1655211777204736	-0.4596797996101012	-0.31661411651647203	-0.2212488394343549	-0.1791928897671983	3.61420807370024	-0.15456644196893177	-0.31661411651647203	-0.20115274729832733	-0.25758631737822163	-0.31873372471469325	-0.24253562503633297	-0.1690308509457033	-0.18246934851039895	-0.2648670947540899	-0.15456644196893177	-0.2743516305843671	-0.22941573387056174	-1.0714342538774189	-0.2790059343047124	-0.2926522780543869	-0.3594921833113794	-0.18569533817705186	-0.34150448045918413	-0.34150448045918413	-0.23208655415225363	-0.2624568735074515	1.020204061220407	-0.16194372377257246	-0.30151134457776363	-0.1655211777204736	-0.23473314273897755	1.0224747162910903	-0.2600301104929761	-0.30151134457776363	-0.21847177966477777	-0.23208655415225363	-0.4273808630513265	1.8470962903655979	-0.2993131766627907	-0.20996077415111275	-0.20996077415111275	-0.38274902388722587	4.636809247747852	-0.23995690956687127	-0.35156152465532625	-0.2696397632157249	-0.18569533817705186	-0.30151134457776363	-0.2128289624261387	-0.2790059343047124	-0.25758631737822163	-0.39599537791698985	-0.36927447293799814	-0.12106256360515263	-0.2212488394343549	-0.3435293617149026	-0.2624568735074515	-0.20996077415111275	-0.2720030885687344	-0.5482499746302602	-0.30151134457776363	-0.3673290665430172	-0.21566554640687685	-0.1690308509457033	-0.23208655415225363	-0.3692744729379982	-0.3475586442716827	3.0765429103247968	-0.2881535892102149	-0.22671980319080756	-0.1507556722888818	-0.3435293617149026	-0.1655211777204736	-0.26003011049297603	-0.22941573387056174	-0.2267198031908075	-0.26003011049297603	-0.3229465567669167	-0.1791928897671983	-0.1655211777204736	-0.2212488394343549	-0.17919288976719827	-0.3144854510165755	-0.2070596445661962	-0.24509318917116377	-0.24509318917116377	-0.1950955759032588	-0.22671980319080756	-0.4400385804161289	-0.3555390414743726	-0.1981438113515164	-0.15456644196893177	1.4429801733987608	-0.2624568735074515	-0.7000473020914822	-0.2648670947540899	-0.23735633163877065	-0.2836056643812807	-0.22941573387056174	-0.21847177966477777	-0.3036988799925641	-0.24509318917116377	-0.1791928897671983	-0.22399783296167977	-0.23473314273897755	-0.23995690956687127	-0.20412414523193156	3.8821937833431974	-0.2836056643812807	-0.2476302782718242	-0.9025054731314698	-0.17247690788294068	-0.17247690788294068	-0.2790059343047124	-0.480822368945951
CHEMBL4218431	1.0	-0.4034732923929645	-0.49304555839388076	-0.2696397632157249	-0.31873372471469325	-0.4773162810930013	-0.19200614429492774	-0.2267198031908075	-0.20412414523193156	-0.27200308856873445	-0.20996077415111275	4.358898943540673	-0.34956331860724565	-0.23735633163877065	-0.31661411651647203	-0.3435293617149026	-0.6494620449782256	-0.18246934851039898	-0.10599978800063599	-0.2212488394343549	-0.21282896242613866	-0.19200614429492774	-0.24763027827182427	-0.13875355177929796	-0.1582938647206532	-0.1981438113515164	-0.26003011049297603	-0.22399783296167977	-0.1690308509457033	-0.20412414523193156	-0.24253562503633297	-0.1655211777204736	-0.31661411651647203	-0.23995690956687127	-1.4213142608824831	-0.27200308856873445	-0.21282896242613866	1.7580981459830651	3.3166247903553994	-0.18569533817705186	-0.22941573387056174	-0.26726124191242434	-0.2948839123097943	-0.4982632806157666	-0.35156152465532625	-0.18569533817705186	-0.4860696825186039	-0.33538716258335044	5.294549845314153	-0.1791928897671983	-0.5807716340663575	3.7416573867739404	-0.16194372377257246	-0.22671980319080756	-0.2836056643812807	-0.15075567228888181	-0.17247690788294068	-0.18887346974078106	-0.18246934851039895	-0.1950955759032588	-0.20996077415111275	-0.23208655415225363	-0.2696397632157249	-0.2836056643812807	-0.2624568735074515	0.9004805334635956	-0.23473314273897758	2.9635466413829517	3.3166247903553994	-0.2948839123097943	-0.20705964456619622	-0.18569533817705186	3.4703714874447615	-0.21847177966477777	1.51151299460068	-0.3333333333333333	-0.23995690956687127	-0.2501475361591977	-0.31873372471469325	-0.2128289624261387	-0.26726124191242434	0.7230785846599999	-0.2501475361591977	-0.1655211777204736	-0.18569533817705186	-0.23473314273897758	-0.2813124431081604	-0.38274902388722587	-0.22941573387056174	-0.2551249838734923	-0.1690308509457033	1.4540243640362678	-0.17247690788294068	-0.20996077415111275	-0.14285714285714285	-0.34150448045918413	-0.4685212856658182	-0.2648670947540899	-0.2948839123097943	-0.1920061442949277	-0.15456644196893177	-0.19814381135151637	4.898979485566357	3.246299668616799	-0.16552117772047362	-0.3229465567669167	-0.1791928897671983	-0.18569533817705186	-0.28131244310816045	-0.18246934851039895	-0.2948839123097943	-0.22941573387056174	-0.26486709475408987	2.23606797749979	-0.2696397632157249	-0.37314944235401715	-0.18569533817705186	-0.3594921833113794	-0.30151134457776363	-0.2696397632157249	-0.3374335284742965	-0.15829386472065318	-0.5	-0.20996077415111275	-0.24253562503633297	-0.3535533905932738	-0.28131244310816045	-0.20412414523193156	-0.22941573387056174	0.8607045829494878	3.3166247903554	-0.25264557631995566	-0.29040893477575785	-0.17247690788294068	-0.4525696378552518	-0.3394725845892895	-0.21847177966477777	-0.3846546290810361	-0.19200614429492774	-1.196842693269434	-0.27668578554642986	-0.4108907018066591	-0.23208655415225363	-0.1582938647206532	-0.2267198031908075	-0.6356541215523501	-0.23735633163877065	-0.22941573387056174	-0.9229582069908974	-0.18246934851039895	-0.24253562503633297	-0.17586311452816472	-0.2128289624261387	-0.23473314273897755	-0.13875355177929796	-0.32504016005888514	-0.35156152465532625	-0.20412414523193156	-0.34956331860724565	-0.28131244310816045	-0.21847177966477777	-0.30369887999256406	-0.46322229953384697	1.7528257728722636	-0.5636629835321745	-0.17247690788294068	-0.26726124191242434	5.294549845314153	-0.23473314273897755	-0.2948839123097943	-0.20705964456619622	-0.19509557590325882	-0.2212488394343549	-0.25758631737822163	-0.1655211777204736	-0.13453455879926252	1.407171791335772	-0.2624568735074515	-0.24509318917116377	-0.13875355177929796	-0.17247690788294068	4.898979485566357	-0.2858859374484328	-0.4982632806157665	-0.8014585244561055	-0.2624568735074515	-0.17586311452816475	-0.5602397818244311	-0.4649905549752771	-0.27668578554642986	-0.17586311452816475	-0.20412414523193156	-0.7590666219788959	-0.3080430342483094	-0.31661411651647203	-0.19509557590325882	-0.1791928897671983	1.5356461035094906	-0.37121456442938844	-0.19814381135151637	-0.23735633163877065	-0.32294655676691675	-0.24253562503633297	-0.7939992333804207	-0.36537824161523874	-0.2551249838734923	-0.23735633163877065	-0.3333333333333333	-0.27668578554642986	-0.2720030885687344	-0.32920264919416004	-0.18246934851039895	-0.27200308856873445	2.3498381072820274	-0.38655567174253425	0.4895604370122276	-0.14685503674071937	-0.6150237485921274	-0.15456644196893177	-0.5138530371810842	-0.3374335284742965	-0.1791928897671983	-0.2881535892102149	-0.2993131766627907	-0.13875355177929796	-0.25758631737822163	-0.24763027827182432	-0.21282896242613866	-0.3102001240015427	-0.13453455879926254	-0.37507920583043236	-0.27668578554642986	-0.3250401600588851	-0.20705964456619622	-0.4895604370122276	-0.14285714285714282	-0.3614599097156672	-0.20996077415111275	-0.320844473959874	-0.24509318917116377	-0.22399783296167977	-0.15829386472065318	-0.27200308856873445	-0.22941573387056174	-0.2212488394343549	-0.20115274729832733	-0.2212488394343549	-0.1920061442949277	-0.28131244310816045	-0.1981438113515164	-0.3922322702763681	-0.3959953779169898	-0.18569533817705186	-0.25512498387349225	-0.1655211777204736	-0.37507920583043236	1.9659259560992794	-0.21566554640687685	-0.2501475361591977	-0.23735633163877065	-0.2212488394343549	-0.19509557590325882	-0.19509557590325882	-0.21847177966477777	-0.22399783296167977	-0.1655211777204736	-0.2501475361591977	-0.15075567228888181	-0.23208655415225363	-0.4982632806157665	-0.2624568735074515	-0.20412414523193154	-0.2836056643812807	-0.2696397632157249	-0.24509318917116377	-0.6702800625998364	-0.2526455763199557	-0.1981438113515164	-0.20115274729832733	2.9109593282157538	-0.15075567228888181	-0.4328222410508556	-0.18569533817705186	-0.48432210483785254	-0.3884522373020416	-0.23735633163877065	3.037642626655204	-0.22671980319080756	-0.3229465567669167	-0.20996077415111275	2.489979919597747	-0.2813124431081604	-0.20115274729832733	-0.15075567228888181	-0.18887346974078106	-0.5636629835321744	0.8944271909999157	-0.2212488394343549	-0.25264557631995566	-0.20115274729832733	-0.2128289624261387	-0.23735633163877065	-0.5568156500335374	-0.20115274729832733	-0.20412414523193156	-0.36927447293799814	3.5841531560682287	-0.15075567228888181	-0.20412414523193156	-0.18569533817705186	-0.15829386472065324	-0.3144854510165755	-0.20996077415111275	-0.20705964456619622	-0.26726124191242434	-0.50866615647324	-0.25512498387349225	-0.2128289624261387	-0.21847177966477777	-0.25264557631995566	1.5036188231122245	-0.23735633163877065	-0.2156655464068768	-0.39411590014501025	-0.27200308856873445	-0.21566554640687685	-0.39034440946753785	-0.3394725845892895	-0.1791928897671983	-0.1690308509457033	-0.8278848098781416	2.561840199950815	-0.5482499746302602	-0.18246934851039895	1.6124515496597098	-0.18569533817705186	-0.22671980319080756	-0.2648670947540899	0.3374335284742965	4.829526304341279	-0.13453455879926252	-0.1981438113515164	-0.2993131766627907	-0.2790059343047124	-0.6755077198756877	-0.20996077415111275	-0.22671980319080756	-0.1981438113515164	-0.23208655415225363	-0.1655211777204736	-0.21282896242613866	-0.3673290665430173	-0.19509557590325882	3.037642626655204	-0.1582938647206532	-0.2212488394343549	-0.1791928897671983	0.2128289624261387	-0.13875355177929796	-0.16552117772047362	-0.1690308509457033	2.7368898475707506	2.433737233777904	-0.3435293617149026	0.8014585244561055	-0.20705964456619622	-0.15075567228888181	-0.47907013758040845	-0.3292026491941601	-0.20996077415111275	-0.47204458153496665	-0.15075567228888181	-0.24253562503633297	-0.23208655415225368	-0.2373563316387707	-0.22941573387056174	-0.33538716258335044	-0.59959704495119	-0.20115274729832733	0.6460052899517692	-0.2790059343047124	-0.25264557631995566	-0.8944271909999157	-0.17586311452816472	-0.2476302782718242	-0.36537824161523874	-0.2993131766627907	-0.3475586442716827	-0.2624568735074515	-0.15075567228888181	2.0069710911953504	-0.1690308509457033	-0.18887346974078106	1.4466456045468217	-0.21847177966477777	-0.19509557590325882	-0.14285714285714282	-0.1655211777204736	-0.4596797996101012	-0.31661411651647203	-0.2212488394343549	-0.1791928897671983	-0.27668578554642986	-0.15456644196893177	-0.31661411651647203	-0.20115274729832733	-0.25758631737822163	-0.31873372471469325	-0.24253562503633297	-0.1690308509457033	-0.18246934851039895	-0.2648670947540899	-0.15456644196893177	-0.2743516305843671	-0.22941573387056174	-1.0714342538774189	-0.2790059343047124	-0.2926522780543869	-0.3594921833113794	5.385164807134504	-0.34150448045918413	-0.34150448045918413	4.308737331435318	-0.2624568735074515	-0.9801960588196068	-0.16194372377257246	-0.30151134457776363	-0.1655211777204736	-0.23473314273897755	1.0224747162910903	-0.2600301104929761	-0.30151134457776363	-0.21847177966477777	-0.23208655415225363	-0.4273808630513265	-0.5413902920037097	-0.2993131766627907	-0.20996077415111275	-0.20996077415111275	-0.38274902388722587	4.636809247747852	-0.23995690956687127	-0.35156152465532625	-0.2696397632157249	-0.18569533817705186	-0.30151134457776363	-0.2128289624261387	-0.2790059343047124	-0.25758631737822163	-0.39599537791698985	-0.36927447293799814	-0.12106256360515263	4.5197977198732495	-0.3435293617149026	-0.2624568735074515	-0.20996077415111275	-0.2720030885687344	-0.5482499746302602	-0.30151134457776363	-0.3673290665430172	-0.21566554640687685	-0.1690308509457033	-0.23208655415225363	-0.3692744729379982	-0.3475586442716827	-0.32504016005888514	-0.2881535892102149	-0.22671980319080756	6.6332495807108	-0.3435293617149026	-0.1655211777204736	-0.26003011049297603	-0.22941573387056174	-0.2267198031908075	-0.26003011049297603	3.0964875737063187	-0.1791928897671983	-0.1655211777204736	-0.2212488394343549	-0.17919288976719827	-0.3144854510165755	-0.2070596445661962	-0.24509318917116377	-0.24509318917116377	-0.1950955759032588	-0.22671980319080756	-0.4400385804161289	-0.3555390414743726	-0.1981438113515164	-0.15456644196893177	-0.6930102148559838	-0.2624568735074515	-0.7000473020914822	-0.2648670947540899	4.2130748865881795	-0.2836056643812807	-0.22941573387056174	-0.21847177966477777	-0.3036988799925641	-0.24509318917116377	-0.1791928897671983	-0.22399783296167977	-0.23473314273897755	-0.23995690956687127	-0.20412414523193156	-0.25758631737822163	-0.2836056643812807	-0.2476302782718242	-0.9025054731314698	-0.17247690788294068	-0.17247690788294068	-0.2790059343047124	2.07977012839935
CHEMBL4289577	1.0	-0.4034732923929645	-0.49304555839388076	3.708651825213003	-0.31873372471469325	-0.4773162810930013	-0.19200614429492774	-0.2267198031908075	-0.20412414523193156	-0.27200308856873445	-0.20996077415111275	4.358898943540673	-0.34956331860724565	-0.23735633163877065	-0.31661411651647203	-0.3435293617149026	-0.6494620449782256	-0.18246934851039898	-0.10599978800063599	-0.2212488394343549	4.698608632023214	-0.19200614429492774	-0.24763027827182427	-0.13875355177929796	-0.1582938647206532	-0.1981438113515164	-0.26003011049297603	-0.22399783296167977	-0.1690308509457033	-0.20412414523193156	-0.24253562503633297	-0.1655211777204736	-0.31661411651647203	-0.23995690956687127	-1.4213142608824831	-0.27200308856873445	-0.21282896242613866	-0.5687964589945211	-0.30151134457776363	-0.18569533817705186	-0.22941573387056174	-0.26726124191242434	-0.2948839123097943	-0.4982632806157666	-0.35156152465532625	-0.18569533817705186	-0.4860696825186039	-0.33538716258335044	-0.18887346974078106	5.580578567035603	-0.5807716340663575	3.7416573867739404	-0.16194372377257246	-0.22671980319080756	3.5260226631284604	-0.15075567228888181	-0.17247690788294068	-0.18887346974078106	-0.18246934851039895	5.125692857821981	-0.20996077415111275	-0.23208655415225363	-0.2696397632157249	-0.2836056643812807	3.8101497843667955	0.9004805334635956	-0.23473314273897758	-0.3374335284742965	-0.30151134457776363	3.3911649915626345	-0.20705964456619622	-0.18569533817705186	-0.2881535892102149	-0.21847177966477777	-0.6615887548252178	-0.3333333333333333	-0.23995690956687127	-0.2501475361591977	-0.31873372471469325	-0.2128289624261387	-0.26726124191242434	-1.3829755454176698	3.9976408137139705	-0.1655211777204736	-0.18569533817705186	-0.23473314273897758	-0.2813124431081604	-0.38274902388722587	4.358898943540673	-0.2551249838734923	-0.1690308509457033	1.4540243640362678	-0.17247690788294068	-0.20996077415111275	-0.14285714285714285	2.9282192686181108	-0.4685212856658182	-0.2648670947540899	-0.2948839123097943	-0.1920061442949277	-0.15456644196893177	-0.19814381135151637	-0.20412414523193154	-0.3080430342483094	-0.16552117772047362	-0.3229465567669167	-0.1791928897671983	-0.18569533817705186	-0.28131244310816045	-0.18246934851039895	-0.2948839123097943	-0.22941573387056174	-0.26486709475408987	-0.447213595499958	-0.2696397632157249	-0.37314944235401715	-0.18569533817705186	-0.3594921833113794	-0.30151134457776363	-0.2696397632157249	-0.3374335284742965	-0.15829386472065318	-0.5	-0.20996077415111275	-0.24253562503633297	-0.3535533905932738	-0.28131244310816045	-0.20412414523193156	-0.22941573387056174	0.8607045829494878	-0.3015113445777637	-0.25264557631995566	-0.29040893477575785	-0.17247690788294068	-0.4525696378552518	2.9457459759522218	4.577250212976685	-0.3846546290810361	-0.19200614429492774	0.835531691527718	-0.27668578554642986	-0.4108907018066591	-0.23208655415225363	6.317364237487888	-0.2267198031908075	-0.6356541215523501	-0.23735633163877065	-0.22941573387056174	-0.9229582069908974	-0.18246934851039895	-0.24253562503633297	-0.17586311452816472	-0.2128289624261387	-0.23473314273897755	-0.13875355177929796	-0.32504016005888514	-0.35156152465532625	-0.20412414523193156	-0.34956331860724565	-0.28131244310816045	-0.21847177966477777	3.2927352251825366	-0.46322229953384697	-0.5705073575917088	-0.5636629835321745	-0.17247690788294068	-0.26726124191242434	-0.18887346974078106	-0.23473314273897755	-0.2948839123097943	-0.20705964456619622	-0.19509557590325882	-0.2212488394343549	-0.25758631737822163	-0.1655211777204736	-0.13453455879926252	-0.7106452859254234	-0.2624568735074515	-0.24509318917116377	-0.13875355177929796	-0.17247690788294068	-0.20412414523193154	-0.2858859374484328	-0.4982632806157665	1.247725202846437	3.8101497843667955	-0.17586311452816475	-0.5602397818244311	2.1505813167606567	-0.27668578554642986	-0.17586311452816475	-0.20412414523193156	1.317407419908661	-0.3080430342483094	-0.31661411651647203	-0.19509557590325882	-0.1791928897671983	-0.651191702121113	-0.37121456442938844	-0.19814381135151637	4.2130748865881795	-0.32294655676691675	-0.24253562503633297	-0.7939992333804207	-0.36537824161523874	-0.2551249838734923	-0.23735633163877065	-0.3333333333333333	-0.27668578554642986	-0.2720030885687344	-0.32920264919416004	-0.18246934851039895	-0.27200308856873445	-0.42556123202745383	-0.38655567174253425	0.4895604370122276	-0.14685503674071937	-0.6150237485921274	-0.15456644196893177	-0.5138530371810842	2.9635466413829517	-0.1791928897671983	-0.2881535892102149	-0.2993131766627907	-0.13875355177929796	-0.25758631737822163	-0.24763027827182432	-0.21282896242613866	-0.3102001240015427	-0.13453455879926254	-0.37507920583043236	-0.27668578554642986	-0.3250401600588851	-0.20705964456619622	2.0426487199475702	-0.14285714285714282	-0.3614599097156672	-0.20996077415111275	-0.320844473959874	-0.24509318917116377	-0.22399783296167977	-0.15829386472065318	-0.27200308856873445	-0.22941573387056174	-0.2212488394343549	-0.20115274729832733	-0.2212488394343549	-0.1920061442949277	-0.28131244310816045	-0.1981438113515164	-0.3922322702763681	-0.3959953779169898	-0.18569533817705186	-0.25512498387349225	-0.1655211777204736	-0.37507920583043236	-0.5086661564732401	-0.21566554640687685	-0.2501475361591977	-0.23735633163877065	-0.2212488394343549	-0.19509557590325882	-0.19509557590325882	-0.21847177966477777	-0.22399783296167977	-0.1655211777204736	-0.2501475361591977	-0.15075567228888181	-0.23208655415225363	-0.4982632806157665	-0.2624568735074515	-0.20412414523193154	-0.2836056643812807	-0.2696397632157249	-0.24509318917116377	-0.6702800625998364	3.9581140290126395	-0.1981438113515164	-0.20115274729832733	-0.3435293617149026	-0.15075567228888181	2.3104173149052714	-0.18569533817705186	-0.48432210483785254	-0.3884522373020416	-0.23735633163877065	-0.3292026491941601	-0.22671980319080756	-0.3229465567669167	-0.20996077415111275	2.489979919597747	-0.2813124431081604	-0.20115274729832733	-0.15075567228888181	-0.18887346974078106	1.774109759227996	0.8944271909999157	-0.2212488394343549	-0.25264557631995566	-0.20115274729832733	-0.2128289624261387	-0.23735633163877065	-0.5568156500335374	-0.20115274729832733	-0.20412414523193156	2.70801280154532	-0.2790059343047124	-0.15075567228888181	-0.20412414523193156	-0.18569533817705186	-0.15829386472065324	-0.3144854510165755	-0.20996077415111275	-0.20705964456619622	-0.26726124191242434	1.965925956099279	-0.25512498387349225	-0.2128289624261387	-0.21847177966477777	-0.25264557631995566	1.5036188231122245	-0.23735633163877065	-0.2156655464068768	-0.39411590014501025	-0.27200308856873445	-0.21566554640687685	-0.39034440946753785	-0.3394725845892895	-0.1791928897671983	-0.1690308509457033	-0.8278848098781416	2.561840199950815	1.8239854925199042	-0.18246934851039895	1.6124515496597098	5.385164807134504	4.410730716621165	-0.2648670947540899	0.3374335284742965	-0.20705964456619622	-0.13453455879926252	-0.1981438113515164	-0.2993131766627907	-0.2790059343047124	-0.6755077198756877	-0.20996077415111275	-0.22671980319080756	-0.1981438113515164	-0.23208655415225363	-0.1655211777204736	-0.21282896242613866	-0.3673290665430173	-0.19509557590325882	-0.3292026491941601	-0.1582938647206532	-0.2212488394343549	-0.1791928897671983	0.2128289624261387	-0.13875355177929796	-0.16552117772047362	-0.1690308509457033	-0.36537824161523874	-0.4108907018066591	-0.3435293617149026	0.8014585244561055	-0.20705964456619622	-0.15075567228888181	-0.47907013758040845	-0.3292026491941601	-0.20996077415111275	-0.47204458153496665	-0.15075567228888181	-0.24253562503633297	-0.23208655415225368	-0.2373563316387707	-0.22941573387056174	-0.33538716258335044	-0.59959704495119	-0.20115274729832733	0.6460052899517692	-0.2790059343047124	-0.25264557631995566	1.118033988749895	-0.17586311452816472	-0.2476302782718242	-0.36537824161523874	-0.2993131766627907	2.877212281960425	-0.2624568735074515	-0.15075567228888181	-0.4982632806157666	-0.1690308509457033	-0.18887346974078106	1.4466456045468217	-0.21847177966477777	-0.19509557590325882	-0.14285714285714282	-0.1655211777204736	-0.4596797996101012	-0.31661411651647203	-0.2212488394343549	-0.1791928897671983	-0.27668578554642986	-0.15456644196893177	-0.31661411651647203	-0.20115274729832733	-0.25758631737822163	-0.31873372471469325	-0.24253562503633297	-0.1690308509457033	5.480372501812327	-0.2648670947540899	6.469709642413859	3.644957377763735	-0.22941573387056174	-1.0714342538774189	-0.2790059343047124	-0.2926522780543869	-0.3594921833113794	-0.18569533817705186	-0.34150448045918413	-0.34150448045918413	-0.23208655415225363	-0.2624568735074515	1.020204061220407	-0.16194372377257246	-0.30151134457776363	-0.1655211777204736	-0.23473314273897755	1.0224747162910903	-0.2600301104929761	-0.30151134457776363	-0.21847177966477777	-0.23208655415225363	-0.4273808630513265	1.8470962903655979	-0.2993131766627907	-0.20996077415111275	-0.20996077415111275	-0.38274902388722587	-0.21566554640687685	-0.23995690956687127	-0.35156152465532625	3.708651825213003	-0.18569533817705186	-0.30151134457776363	-0.2128289624261387	-0.2790059343047124	-0.25758631737822163	2.5252820001591645	-0.36927447293799814	-0.12106256360515263	-0.2212488394343549	-0.3435293617149026	-0.2624568735074515	-0.20996077415111275	3.676428842267733	-0.5482499746302602	3.3166247903553994	-0.3673290665430172	-0.21566554640687685	-0.1690308509457033	-0.23208655415225363	-0.3692744729379982	-0.3475586442716827	-0.32504016005888514	-0.2881535892102149	-0.22671980319080756	-0.1507556722888818	-0.3435293617149026	-0.1655211777204736	-0.26003011049297603	-0.22941573387056174	-0.2267198031908075	-0.26003011049297603	-0.3229465567669167	-0.1791928897671983	-0.1655211777204736	-0.2212488394343549	-0.17919288976719827	3.1797973380564857	-0.2070596445661962	-0.24509318917116377	4.080080737378785	-0.1950955759032588	-0.22671980319080756	-0.4400385804161289	2.812630635029938	-0.1981438113515164	-0.15456644196893177	-0.6930102148559838	-0.2624568735074515	-0.7000473020914822	-0.2648670947540899	-0.23735633163877065	-0.2836056643812807	-0.22941573387056174	-0.21847177966477777	3.2927352251825375	-0.24509318917116377	-0.1791928897671983	-0.22399783296167977	-0.23473314273897755	-0.23995690956687127	-0.20412414523193156	3.8821937833431974	-0.2836056643812807	-0.2476302782718242	-0.9025054731314698	-0.17247690788294068	-0.17247690788294068	-0.2790059343047124	-0.480822368945951
CHEMBL3805775	1.0	-0.4034732923929645	2.028210137938464	-0.2696397632157249	-0.31873372471469325	-0.4773162810930013	-0.19200614429492774	-0.2267198031908075	-0.20412414523193156	-0.27200308856873445	-0.20996077415111275	-0.22941573387056174	-0.34956331860724565	-0.23735633163877065	3.1584188696399282	-0.3435293617149026	-0.6494620449782256	-0.18246934851039898	-0.10599978800063599	-0.2212488394343549	-0.21282896242613866	-0.19200614429492774	-0.24763027827182427	-0.13875355177929796	-0.1582938647206532	-0.1981438113515164	-0.26003011049297603	-0.22399783296167977	-0.1690308509457033	-0.20412414523193156	-0.24253562503633297	-0.1655211777204736	-0.31661411651647203	4.1674148988042345	0.7035741690082724	-0.27200308856873445	-0.21282896242613866	-0.5687964589945211	-0.30151134457776363	-0.18569533817705186	-0.22941573387056174	-0.26726124191242434	-0.2948839123097943	-0.4982632806157666	-0.35156152465532625	-0.18569533817705186	2.0573181911252534	-0.33538716258335044	-0.18887346974078106	-0.1791928897671983	1.7218471794125927	-0.2672612419124243	-0.16194372377257246	-0.22671980319080756	-0.2836056643812807	-0.15075567228888181	-0.17247690788294068	-0.18887346974078106	-0.18246934851039895	-0.1950955759032588	-0.20996077415111275	-0.23208655415225363	-0.2696397632157249	-0.2836056643812807	-0.2624568735074515	-1.1105181765047318	-0.23473314273897758	-0.3374335284742965	-0.30151134457776363	-0.2948839123097943	-0.20705964456619622	-0.18569533817705186	-0.2881535892102149	-0.21847177966477777	1.51151299460068	-0.3333333333333333	-0.23995690956687127	-0.2501475361591977	-0.31873372471469325	-0.2128289624261387	-0.26726124191242434	0.7230785846599999	-0.2501475361591977	-0.1655211777204736	-0.18569533817705186	-0.23473314273897758	-0.2813124431081604	-0.38274902388722587	-0.22941573387056174	-0.2551249838734923	-0.1690308509457033	-0.6877463849533247	-0.17247690788294068	-0.20996077415111275	-0.14285714285714285	-0.34150448045918413	-0.4685212856658182	-0.2648670947540899	-0.2948839123097943	-0.1920061442949277	-0.15456644196893177	-0.19814381135151637	-0.20412414523193154	-0.3080430342483094	-0.16552117772047362	-0.3229465567669167	-0.1791928897671983	-0.18569533817705186	-0.28131244310816045	-0.18246934851039895	-0.2948839123097943	-0.22941573387056174	-0.26486709475408987	-0.447213595499958	-0.2696397632157249	-0.37314944235401715	-0.18569533817705186	-0.3594921833113794	-0.30151134457776363	3.708651825213003	-0.3374335284742965	-0.15829386472065318	-0.5	4.762794403112084	-0.24253562503633297	-0.3535533905932738	-0.28131244310816045	-0.20412414523193156	-0.22941573387056174	0.8607045829494878	-0.3015113445777637	-0.25264557631995566	-0.29040893477575785	-0.17247690788294068	-0.4525696378552518	-0.3394725845892895	-0.21847177966477777	-0.3846546290810361	5.208166663999915	-1.196842693269434	-0.27668578554642986	-0.4108907018066591	-0.23208655415225363	-0.1582938647206532	-0.2267198031908075	1.5731825942666269	-0.23735633163877065	-0.22941573387056174	1.083472677771923	-0.18246934851039895	-0.24253562503633297	-0.17586311452816472	-0.2128289624261387	4.260156824603145	-0.13875355177929796	-0.32504016005888514	-0.35156152465532625	-0.20412414523193156	-0.34956331860724565	-0.28131244310816045	-0.21847177966477777	-0.30369887999256406	-0.46322229953384697	-0.5705073575917088	-0.5636629835321745	-0.17247690788294068	-0.26726124191242434	-0.18887346974078106	-0.23473314273897755	-0.2948839123097943	-0.20705964456619622	-0.19509557590325882	-0.2212488394343549	-0.25758631737822163	-0.1655211777204736	7.433034373659254	-0.7106452859254234	-0.2624568735074515	-0.24509318917116377	-0.13875355177929796	-0.17247690788294068	-0.20412414523193154	-0.2858859374484328	-0.4982632806157665	1.247725202846437	3.8101497843667955	-0.17586311452816475	-0.5602397818244311	2.1505813167606567	-0.27668578554642986	-0.17586311452816475	-0.20412414523193156	1.317407419908661	-0.3080430342483094	-0.31661411651647203	-0.19509557590325882	-0.1791928897671983	1.5356461035094906	-0.37121456442938844	-0.19814381135151637	-0.23735633163877065	-0.32294655676691675	-0.24253562503633297	1.259447059844805	-0.36537824161523874	-0.2551249838734923	-0.23735633163877065	-0.3333333333333333	-0.27668578554642986	-0.2720030885687344	-0.32920264919416004	-0.18246934851039895	-0.27200308856873445	-0.42556123202745383	-0.38655567174253425	0.4895604370122276	-0.14685503674071937	1.6259534729986203	-0.15456644196893177	-0.5138530371810842	-0.3374335284742965	-0.1791928897671983	-0.2881535892102149	-0.2993131766627907	-0.13875355177929796	-0.25758631737822163	-0.24763027827182432	-0.21282896242613866	-0.3102001240015427	-0.13453455879926254	2.666103544146046	-0.27668578554642986	-0.3250401600588851	-0.20705964456619622	-0.4895604370122276	-0.14285714285714282	-0.3614599097156672	-0.20996077415111275	-0.320844473959874	-0.24509318917116377	-0.22399783296167977	-0.15829386472065318	-0.27200308856873445	-0.22941573387056174	-0.2212488394343549	-0.20115274729832733	-0.2212488394343549	-0.1920061442949277	-0.28131244310816045	-0.1981438113515164	-0.3922322702763681	-0.3959953779169898	-0.18569533817705186	-0.25512498387349225	-0.1655211777204736	-0.37507920583043236	-0.5086661564732401	-0.21566554640687685	-0.2501475361591977	-0.23735633163877065	-0.2212488394343549	-0.19509557590325882	-0.19509557590325882	-0.21847177966477777	-0.22399783296167977	-0.1655211777204736	-0.2501475361591977	-0.15075567228888181	-0.23208655415225363	2.00697109119535	-0.2624568735074515	4.898979485566357	-0.2836056643812807	-0.2696397632157249	-0.24509318917116377	1.4919136877222166	-0.2526455763199557	-0.1981438113515164	-0.20115274729832733	-0.3435293617149026	-0.15075567228888181	-0.4328222410508556	-0.18569533817705186	2.0647416048350555	2.5743190641542077	-0.23735633163877065	-0.3292026491941601	-0.22671980319080756	-0.3229465567669167	-0.20996077415111275	-0.40160966445124946	-0.2813124431081604	-0.20115274729832733	-0.15075567228888181	-0.18887346974078106	-0.5636629835321744	-1.118033988749895	-0.2212488394343549	-0.25264557631995566	-0.20115274729832733	-0.2128289624261387	-0.23735633163877065	-0.5568156500335374	4.971346468944375	-0.20412414523193156	2.70801280154532	-0.2790059343047124	-0.15075567228888181	-0.20412414523193156	-0.18569533817705186	-0.15829386472065324	-0.3144854510165755	-0.20996077415111275	-0.20705964456619622	-0.26726124191242434	-0.50866615647324	-0.25512498387349225	-0.2128289624261387	-0.21847177966477777	-0.25264557631995566	-0.6650621717611761	-0.23735633163877065	-0.2156655464068768	-0.39411590014501025	-0.27200308856873445	4.636809247747852	-0.39034440946753785	-0.3394725845892895	-0.1791928897671983	-0.1690308509457033	1.2078975094943376	-0.39034440946753785	1.8239854925199042	-0.18246934851039895	-0.6201736729460422	-0.18569533817705186	-0.22671980319080756	-0.2648670947540899	0.3374335284742965	-0.20705964456619622	-0.13453455879926252	-0.1981438113515164	-0.2993131766627907	3.5841531560682287	1.4803679818552302	-0.20996077415111275	-0.22671980319080756	-0.1981438113515164	-0.23208655415225363	-0.1655211777204736	-0.21282896242613866	-0.3673290665430173	-0.19509557590325882	-0.3292026491941601	-0.1582938647206532	-0.2212488394343549	-0.1791928897671983	0.2128289624261387	-0.13875355177929796	-0.16552117772047362	-0.1690308509457033	-0.36537824161523874	-0.4108907018066591	-0.3435293617149026	0.8014585244561055	-0.20705964456619622	-0.15075567228888181	2.0873770280289223	-0.3292026491941601	-0.20996077415111275	-0.47204458153496665	-0.15075567228888181	-0.24253562503633297	-0.23208655415225368	-0.2373563316387707	-0.22941573387056174	-0.33538716258335044	1.6677867384776799	-0.20115274729832733	0.6460052899517692	-0.2790059343047124	-0.25264557631995566	-0.8944271909999157	-0.17586311452816472	-0.2476302782718242	-0.36537824161523874	-0.2993131766627907	-0.3475586442716827	-0.2624568735074515	-0.15075567228888181	-0.4982632806157666	-0.1690308509457033	-0.18887346974078106	1.4466456045468217	-0.21847177966477777	-0.19509557590325882	-0.14285714285714282	-0.1655211777204736	-0.4596797996101012	-0.31661411651647203	-0.2212488394343549	-0.1791928897671983	-0.27668578554642986	-0.15456644196893177	-0.31661411651647203	-0.20115274729832733	-0.25758631737822163	-0.31873372471469325	-0.24253562503633297	-0.1690308509457033	-0.18246934851039895	-0.2648670947540899	-0.15456644196893177	-0.2743516305843671	-0.22941573387056174	0.9333283833152567	-0.2790059343047124	-0.2926522780543869	-0.3594921833113794	-0.18569533817705186	-0.34150448045918413	-0.34150448045918413	-0.23208655415225363	-0.2624568735074515	-0.9801960588196068	-0.16194372377257246	-0.30151134457776363	-0.1655211777204736	-0.23473314273897755	1.0224747162910903	-0.2600301104929761	-0.30151134457776363	-0.21847177966477777	4.308737331435318	-0.4273808630513265	1.8470962903655979	-0.2993131766627907	-0.20996077415111275	-0.20996077415111275	2.61267811957802	-0.21566554640687685	-0.23995690956687127	2.8444523358476395	-0.2696397632157249	-0.18569533817705186	-0.30151134457776363	-0.2128289624261387	-0.2790059343047124	-0.25758631737822163	2.5252820001591645	-0.36927447293799814	-0.12106256360515263	-0.2212488394343549	-0.3435293617149026	-0.2624568735074515	-0.20996077415111275	-0.2720030885687344	-0.5482499746302602	-0.30151134457776363	-0.3673290665430172	-0.21566554640687685	-0.1690308509457033	-0.23208655415225363	-0.3692744729379982	-0.3475586442716827	3.0765429103247968	3.4703714874447615	-0.22671980319080756	-0.1507556722888818	-0.3435293617149026	-0.1655211777204736	-0.26003011049297603	-0.22941573387056174	-0.2267198031908075	-0.26003011049297603	-0.3229465567669167	-0.1791928897671983	-0.1655211777204736	-0.2212488394343549	-0.17919288976719827	-0.3144854510165755	-0.2070596445661962	-0.24509318917116377	-0.24509318917116377	-0.1950955759032588	-0.22671980319080756	-0.4400385804161289	-0.3555390414743726	-0.1981438113515164	-0.15456644196893177	1.4429801733987608	-0.2624568735074515	1.4284749002137	-0.2648670947540899	4.2130748865881795	-0.2836056643812807	-0.22941573387056174	-0.21847177966477777	-0.3036988799925641	-0.24509318917116377	-0.1791928897671983	-0.22399783296167977	-0.23473314273897755	-0.23995690956687127	-0.20412414523193156	-0.25758631737822163	-0.2836056643812807	-0.2476302782718242	-0.9025054731314698	-0.17247690788294068	5.797877595757314	-0.2790059343047124	-0.480822368945951
CHEMBL293261	1.0	-0.4034732923929645	-0.49304555839388076	-0.2696397632157249	-0.31873372471469325	-0.4773162810930013	-0.19200614429492774	-0.2267198031908075	-0.20412414523193156	-0.27200308856873445	-0.20996077415111275	-0.22941573387056174	-0.34956331860724565	-0.23735633163877065	-0.31661411651647203	-0.3435293617149026	-0.6494620449782256	-0.18246934851039898	-0.10599978800063599	-0.2212488394343549	-0.21282896242613866	-0.19200614429492774	-0.24763027827182427	-0.13875355177929796	-0.1582938647206532	-0.1981438113515164	-0.26003011049297603	-0.22399783296167977	-0.1690308509457033	4.898979485566357	-0.24253562503633297	-0.1655211777204736	-0.31661411651647203	-0.23995690956687127	-1.4213142608824831	-0.27200308856873445	-0.21282896242613866	-0.5687964589945211	3.3166247903553994	-0.18569533817705186	-0.22941573387056174	-0.26726124191242434	3.3911649915626345	2.0069710911953504	-0.35156152465532625	-0.18569533817705186	-0.4860696825186039	-0.33538716258335044	-0.18887346974078106	-0.1791928897671983	-0.5807716340663575	-0.2672612419124243	-0.16194372377257246	-0.22671980319080756	3.5260226631284604	-0.15075567228888181	-0.17247690788294068	-0.18887346974078106	-0.18246934851039895	-0.1950955759032588	-0.20996077415111275	-0.23208655415225363	-0.2696397632157249	-0.2836056643812807	-0.2624568735074515	0.9004805334635956	-0.23473314273897758	-0.3374335284742965	-0.30151134457776363	-0.2948839123097943	-0.20705964456619622	-0.18569533817705186	-0.2881535892102149	-0.21847177966477777	-0.6615887548252178	-0.3333333333333333	-0.23995690956687127	-0.2501475361591977	-0.31873372471469325	-0.2128289624261387	-0.26726124191242434	0.7230785846599999	-0.2501475361591977	-0.1655211777204736	-0.18569533817705186	-0.23473314273897758	-0.2813124431081604	-0.38274902388722587	-0.22941573387056174	-0.2551249838734923	-0.1690308509457033	1.4540243640362678	-0.17247690788294068	-0.20996077415111275	-0.14285714285714285	-0.34150448045918413	-0.4685212856658182	-0.2648670947540899	-0.2948839123097943	-0.1920061442949277	-0.15456644196893177	5.04683943030627	-0.20412414523193154	-0.3080430342483094	-0.16552117772047362	-0.3229465567669167	-0.1791928897671983	-0.18569533817705186	-0.28131244310816045	-0.18246934851039895	-0.2948839123097943	-0.22941573387056174	-0.26486709475408987	-0.447213595499958	-0.2696397632157249	-0.37314944235401715	-0.18569533817705186	2.7817016514482464	-0.30151134457776363	-0.2696397632157249	2.9635466413829517	-0.15829386472065318	-0.5	-0.20996077415111275	-0.24253562503633297	-0.3535533905932738	-0.28131244310816045	4.898979485566357	-0.22941573387056174	0.8607045829494878	-0.3015113445777637	-0.25264557631995566	-0.29040893477575785	-0.17247690788294068	-0.4525696378552518	2.9457459759522218	-0.21847177966477777	-0.3846546290810361	-0.19200614429492774	0.835531691527718	-0.27668578554642986	-0.4108907018066591	-0.23208655415225363	-0.1582938647206532	-0.2267198031908075	-0.6356541215523501	-0.23735633163877065	-0.22941573387056174	-0.9229582069908974	-0.18246934851039895	-0.24253562503633297	-0.17586311452816472	-0.2128289624261387	-0.23473314273897755	-0.13875355177929796	-0.32504016005888514	-0.35156152465532625	-0.20412414523193156	-0.34956331860724565	-0.28131244310816045	-0.21847177966477777	-0.30369887999256406	-0.46322229953384697	-0.5705073575917088	-0.5636629835321745	-0.17247690788294068	-0.26726124191242434	-0.18887346974078106	-0.23473314273897755	-0.2948839123097943	-0.20705964456619622	-0.19509557590325882	-0.2212488394343549	-0.25758631737822163	-0.1655211777204736	-0.13453455879926252	1.407171791335772	-0.2624568735074515	-0.24509318917116377	-0.13875355177929796	-0.17247690788294068	-0.20412414523193154	-0.2858859374484328	-0.4982632806157665	-0.8014585244561055	-0.2624568735074515	5.686240703077327	-0.5602397818244311	-0.4649905549752771	-0.27668578554642986	-0.17586311452816475	-0.20412414523193156	-0.7590666219788959	-0.3080430342483094	-0.31661411651647203	-0.19509557590325882	-0.1791928897671983	-0.651191702121113	2.6938598207673974	-0.19814381135151637	-0.23735633163877065	-0.32294655676691675	-0.24253562503633297	-0.7939992333804207	-0.36537824161523874	-0.2551249838734923	-0.23735633163877065	-0.3333333333333333	-0.27668578554642986	-0.2720030885687344	3.0376426266552037	-0.18246934851039895	-0.27200308856873445	-0.42556123202745383	-0.38655567174253425	0.4895604370122276	-0.14685503674071937	-0.6150237485921274	-0.15456644196893177	1.946081715281553	2.9635466413829517	-0.1791928897671983	-0.2881535892102149	-0.2993131766627907	-0.13875355177929796	-0.25758631737822163	-0.24763027827182432	-0.21282896242613866	-0.3102001240015427	-0.13453455879926254	-0.37507920583043236	-0.27668578554642986	-0.3250401600588851	-0.20705964456619622	-0.4895604370122276	-0.14285714285714282	-0.3614599097156672	-0.20996077415111275	-0.320844473959874	-0.24509318917116377	-0.22399783296167977	-0.15829386472065318	-0.27200308856873445	-0.22941573387056174	-0.2212488394343549	-0.20115274729832733	-0.2212488394343549	-0.1920061442949277	3.5547663265485734	-0.1981438113515164	-0.3922322702763681	-0.3959953779169898	-0.18569533817705186	-0.25512498387349225	-0.1655211777204736	-0.37507920583043236	1.9659259560992794	-0.21566554640687685	-0.2501475361591977	-0.23735633163877065	-0.2212488394343549	-0.19509557590325882	-0.19509557590325882	-0.21847177966477777	-0.22399783296167977	-0.1655211777204736	-0.2501475361591977	-0.15075567228888181	-0.23208655415225363	-0.4982632806157665	-0.2624568735074515	-0.20412414523193154	-0.2836056643812807	-0.2696397632157249	-0.24509318917116377	-0.6702800625998364	3.9581140290126395	-0.1981438113515164	-0.20115274729832733	-0.3435293617149026	-0.15075567228888181	-0.4328222410508556	-0.18569533817705186	-0.48432210483785254	-0.3884522373020416	-0.23735633163877065	-0.3292026491941601	-0.22671980319080756	-0.3229465567669167	-0.20996077415111275	-0.40160966445124946	-0.2813124431081604	-0.20115274729832733	-0.15075567228888181	-0.18887346974078106	-0.5636629835321744	0.8944271909999157	-0.2212488394343549	-0.25264557631995566	-0.20115274729832733	-0.2128289624261387	-0.23735633163877065	-0.5568156500335374	-0.20115274729832733	-0.20412414523193156	-0.36927447293799814	-0.2790059343047124	-0.15075567228888181	-0.20412414523193156	-0.18569533817705186	-0.15829386472065324	-0.3144854510165755	-0.20996077415111275	-0.20705964456619622	-0.26726124191242434	-0.50866615647324	-0.25512498387349225	-0.2128289624261387	-0.21847177966477777	-0.25264557631995566	-0.6650621717611761	-0.23735633163877065	-0.2156655464068768	-0.39411590014501025	-0.27200308856873445	-0.21566554640687685	-0.39034440946753785	-0.3394725845892895	-0.1791928897671983	5.916079783099615	-0.8278848098781416	-0.39034440946753785	-0.5482499746302602	-0.18246934851039895	1.6124515496597098	-0.18569533817705186	-0.22671980319080756	-0.2648670947540899	0.3374335284742965	-0.20705964456619622	-0.13453455879926252	-0.1981438113515164	-0.2993131766627907	-0.2790059343047124	-0.6755077198756877	-0.20996077415111275	-0.22671980319080756	-0.1981438113515164	-0.23208655415225363	-0.1655211777204736	-0.21282896242613866	-0.3673290665430173	-0.19509557590325882	-0.3292026491941601	-0.1582938647206532	-0.2212488394343549	-0.1791928897671983	0.2128289624261387	-0.13875355177929796	-0.16552117772047362	-0.1690308509457033	-0.36537824161523874	-0.4108907018066591	2.9109593282157538	-1.2477252028464367	-0.20705964456619622	-0.15075567228888181	-0.47907013758040845	-0.3292026491941601	-0.20996077415111275	-0.47204458153496665	-0.15075567228888181	-0.24253562503633297	-0.23208655415225368	-0.2373563316387707	-0.22941573387056174	-0.33538716258335044	-0.59959704495119	-0.20115274729832733	-1.5479749400731073	-0.2790059343047124	-0.25264557631995566	1.118033988749895	-0.17586311452816472	-0.2476302782718242	-0.36537824161523874	-0.2993131766627907	-0.3475586442716827	-0.2624568735074515	-0.15075567228888181	2.0069710911953504	-0.1690308509457033	-0.18887346974078106	-0.6912543036504516	-0.21847177966477777	-0.19509557590325882	-0.14285714285714282	-0.1655211777204736	-0.4596797996101012	-0.31661411651647203	-0.2212488394343549	-0.1791928897671983	-0.27668578554642986	-0.15456644196893177	-0.31661411651647203	-0.20115274729832733	-0.25758631737822163	-0.31873372471469325	-0.24253562503633297	-0.1690308509457033	-0.18246934851039895	-0.2648670947540899	-0.15456644196893177	-0.2743516305843671	-0.22941573387056174	-1.0714342538774189	-0.2790059343047124	-0.2926522780543869	-0.3594921833113794	-0.18569533817705186	-0.34150448045918413	-0.34150448045918413	-0.23208655415225363	-0.2624568735074515	-0.9801960588196068	6.1749845977628715	-0.30151134457776363	-0.1655211777204736	-0.23473314273897755	-0.9780192938436516	-0.2600301104929761	-0.30151134457776363	-0.21847177966477777	-0.23208655415225363	-0.4273808630513265	-0.5413902920037097	-0.2993131766627907	-0.20996077415111275	4.762794403112084	-0.38274902388722587	-0.21566554640687685	-0.23995690956687127	-0.35156152465532625	-0.2696397632157249	-0.18569533817705186	-0.30151134457776363	-0.2128289624261387	-0.2790059343047124	-0.25758631737822163	-0.39599537791698985	-0.36927447293799814	-0.12106256360515263	-0.2212488394343549	-0.3435293617149026	-0.2624568735074515	-0.20996077415111275	-0.2720030885687344	-0.5482499746302602	-0.30151134457776363	-0.3673290665430172	-0.21566554640687685	-0.1690308509457033	-0.23208655415225363	-0.3692744729379982	-0.3475586442716827	-0.32504016005888514	-0.2881535892102149	-0.22671980319080756	-0.1507556722888818	-0.3435293617149026	-0.1655211777204736	-0.26003011049297603	-0.22941573387056174	4.410730716621164	-0.26003011049297603	-0.3229465567669167	-0.1791928897671983	-0.1655211777204736	-0.2212488394343549	-0.17919288976719827	-0.3144854510165755	-0.2070596445661962	-0.24509318917116377	-0.24509318917116377	-0.1950955759032588	-0.22671980319080756	-0.4400385804161289	-0.3555390414743726	-0.1981438113515164	-0.15456644196893177	-0.6930102148559838	-0.2624568735074515	-0.7000473020914822	-0.2648670947540899	-0.23735633163877065	-0.2836056643812807	-0.22941573387056174	-0.21847177966477777	-0.3036988799925641	4.080080737378785	-0.1791928897671983	-0.22399783296167977	-0.23473314273897755	-0.23995690956687127	-0.20412414523193156	-0.25758631737822163	-0.2836056643812807	-0.2476302782718242	-0.9025054731314698	-0.17247690788294068	-0.17247690788294068	-0.2790059343047124	-0.480822368945951
