Compound_ID	AD	f_0	f_1	f_2	f_3	f_4	f_5	f_6	f_7	f_8	f_9	f_10	f_11	f_12	f_13	f_14	f_15	f_16	f_17	f_18	f_19	f_20	f_21	f_22	f_23	f_24	f_25	f_26	f_27	f_28	f_29	f_30	f_31	f_32	f_33	f_34	f_35	f_36	f_37	f_38	f_39	f_40	f_41	f_42	f_43	f_44	f_45	f_46	f_47	f_48	f_49	f_50	f_51	f_52	f_53	f_54	f_55	f_56	f_57	f_58	f_59	f_60	f_61	f_62	f_63	f_64	f_65	f_66	f_67	f_68	f_69	f_70	f_71	f_72	f_73	f_74	f_75	f_76	f_77	f_78	f_79	f_80	f_81	f_82	f_83	f_84	f_85	f_86	f_87	f_88	f_89	f_90	f_91	f_92	f_93	f_94	f_95	f_96	f_97	f_98	f_99	f_100	f_101	f_102	f_103	f_104	f_105	f_106	f_107	f_108	f_109	f_110	f_111	f_112	f_113	f_114	f_115	f_116	f_117	f_118	f_119	f_120	f_121	f_122	f_123	f_124	f_125	f_126	f_127	f_128	f_129	f_130	f_131	f_132	f_133	f_134	f_135	f_136	f_137	f_138	f_139	f_140	f_141	f_142	f_143	f_144	f_145	f_146	f_147	f_148	f_149	f_150	f_151	f_152	f_153	f_154	f_155	f_156	f_157	f_158	f_159	f_160	f_161	f_162	f_163	f_164	f_165	f_166	f_167	f_168	f_169	f_170	f_171	f_172	f_173	f_174	f_175	f_176	f_177	f_178	f_179	f_180	f_181	f_182	f_183	f_184	f_185	f_186	f_187	f_188	f_189	f_190	f_191	f_192	f_193	f_194	f_195	f_196	f_197	f_198	f_199	f_200	f_201	f_202	f_203	f_204	f_205	f_206	f_207	f_208	f_209	f_210	f_211	f_212	f_213	f_214	f_215	f_216	f_217	f_218	f_219	f_220	f_221	f_222	f_223	f_224	f_225	f_226	f_227	f_228	f_229	f_230	f_231	f_232	f_233	f_234	f_235	f_236	f_237	f_238	f_239	f_240	f_241	f_242	f_243	f_244	f_245	f_246	f_247	f_248	f_249	f_250	f_251	f_252	f_253	f_254	f_255
CHEMBL2203775	1.0	-0.6773651374345779	1.9227505550564006	-0.44114057808584267	-0.5325822869186925	1.7623734748629933	-0.4515346001644073	2.041241452319315	-0.4147561745291069	-0.417423554968361	-0.43852900965351466	-0.42273777254298056	-0.5748670307160534	-0.5025189076296059	-0.6171274788623805	1.7027539661332138	1.2799601057612793	1.8602235496510249	-0.4567023079103962	-0.6396021490668312	-0.7131029484479491	-0.42008402520840293	-0.47720307236775805	-0.43852900965351455	-0.34807660606390833	-0.8055657454315978	1.8954135676924422	-0.5125710918850697	-0.5674166198386184	-0.43591191066311263	-0.44114057808584267	-0.31200181528856974	-0.5599636792095521	-0.5674166198386184	0.4721013497313325	-0.47974861141928293	-0.31200181528856974	-0.7079623250943702	1.9320518697697837	-0.6345982446609011	-1.2669025285343474	1.6744195954404892	-0.6071683634985884	-0.5	1.7623734748629933	-0.4227377725429805	-0.9713772015605465	-0.6096568017575164	-0.4147561745291069	-0.5325822869186925	1.4930394055974097	-0.5823168146036952	-0.401308720486581	-0.48989794855663565	-0.697718103218451	-0.5275893435844942	3.1428001817576856	-0.5823168146036952	-0.42802582500385306	-0.6596856715021066	-0.4592793267718459	-0.45153460016440716	-0.5200882648923052	-0.4848296205433155	0.7494750471814302	0.7893267062596194	-0.46698464234769554	-0.7494750471814302	-0.7182565144416703	-0.4924276291394298	-0.47974861141928293	-0.4147561745291069	-0.6021937915964948	-0.43591191066311263	0.9344045068798316	0.8498365855987976	-0.9496528264568824	-0.3567530340063379	-0.9620113505096065	-0.3821333249059768	-0.49495446222729916	0.9163856236737701	0.0	-0.5350766804317946	2.8030595529069404	-0.401308720486581	-0.3538740740066775	-0.5075494959826194	-0.5798335076138013	1.8776441210345145	-0.39859566564740406	0.8414208107221103	-0.3451573177657113	-0.417423554968361	2.803059552906941	-0.6723024857298247	-0.44634774067904087	-0.7573665300986739	-0.5350766804317946	-0.42273777254298056	-0.2763853991962833	0.0	-0.4093999099320298	-0.5225902946060395	-0.26610476205223	-0.5350766804317946	-0.6849776002149329	-0.37935661206098825	0.547531146505959	-0.44634774067904087	2.6754242162397546	1.8018255582785347	-0.5823168146036952	-0.42802582500385306	-0.6320985150523428	-0.6672491627731317	-0.3904053750620288	-0.45153460016440716	-0.45153460016440716	2.1067976863543567	-0.6622047124617104	-0.49495446222729916	1.1574206847596227	0.31818758500921507	2.0	2.2404056498161564	0.7234234744197365	-0.40939990993202974	-0.46442036401282394	0.43066048256466466	-0.5250906251391786	-0.6723024857298247	1.9509488846168157	-0.44634774067904087	-0.6900655593423541	-0.6021937915964948	-0.4924276291394297	0.7442343124174324	-0.44114057808584267	-1.5513198917674609	-0.45153460016440716	-0.6121460921524144	-0.398595665647404	-0.604680714526124	-0.5	1.2455682756148325	-0.4669846423476955	2.4267032964268394	0.9104441523631592	-0.39314422749502875	-0.37096452512212347	2.0734380384147726	1.7779408948284405	-0.3538740740066775	-0.4746540241984123	-0.4120816918460671	-0.7785997794633075	-0.5500190982169268	-0.5325822869186925	0.8414208107221103	-0.5075494959826194	1.4874257067701304	-0.6171274788623805	1.8181186857726193	1.5334116705410037	-0.6246075000734318	-0.48229075645035463	-0.4489436352114809	0.6672491627731317	-0.5150787536377127	-0.42008402520840293	-0.33631224270913823	-0.40671062665559465	0.7337993857053428	-0.5525062514530826	2.202057357058073	1.1728081374219168	-0.4721013497313325	-0.7286042804780002	-0.6799001036500848	-0.5947367404095808	-0.5300865358950272	-0.4848296205433155	1.3112201362143716	0.9496528264568824	-0.6071683634985884	-0.43328912241312095	1.2799601057612793	-0.6875202437097319	1.9605483926697655	-0.5100613704506707	-0.5798335076138013	-1.0	-0.7182565144416703	-0.6121460921524144	-0.45153460016440716	-0.401308720486581	-0.802846395157571	-0.6396021490668312	-0.6748326170487492	-0.5350766804317946	1.0361363787251783	-0.40671062665559465	-0.7866377537428374	-0.5175844477297376	-0.4898979485566356	-0.4567023079103961	1.5573741890248738	1.521679342499718	-0.6171274788623805	1.7395327033355898	-0.48229075645035463	1.7779408948284405	1.127413975016396	-0.3931442274950287	0.20921530482028264	-0.4227377725429805	-0.6799001036500848	2.118189241714917	-0.6900655593423541	2.3956482285140717	-0.37935661206098825	-0.5599636792095521	-0.4695449296338764	-0.4437467711557988	1.922750555056401	-0.4411405780858426	1.8263801180653316	2.0	1.770122406313567	1.7701224063135674	1.4438064670958708	-0.46442036401282394	-0.45412077791469985	-0.816496580927726	-0.3931442274950287	-0.8442198661015043	-0.5200882648923052	-0.47974861141928293	2.322014766817728	-0.3333333333333333	2.655550423537096	-0.5599636792095521	-0.49495446222729916	-0.3765697654002881	-0.4567023079103961	1.98005932250398	-0.4974785517554907	2.2146697055682827	2.266851089371805	-0.5848002582004748	-0.4489436352114809	1.153614783048992	-0.3480766060639084	2.9734272887141264	-0.45927932677184585	0.922359077939127
CHEMBL1258489	1.0	-0.6773651374345779	-0.5200882648923051	-0.44114057808584267	-0.5325822869186925	-0.5674166198386184	-0.4515346001644073	2.041241452319315	-0.4147561745291069	-0.417423554968361	-0.43852900965351466	-0.42273777254298056	1.7395327033355898	-0.5025189076296059	1.6204107485918646	-0.5872839058897636	-0.7812743502698718	-0.5375697991715019	-0.4567023079103962	-0.6396021490668312	-0.7131029484479491	-0.42008402520840293	-0.47720307236775805	-0.43852900965351455	-0.34807660606390833	-0.8055657454315978	-0.5275893435844942	-0.5125710918850697	-0.5674166198386184	-0.43591191066311263	-0.44114057808584267	-0.31200181528856974	-0.5599636792095521	-0.5674166198386184	0.4721013497313325	-0.47974861141928293	-0.31200181528856974	1.412504542338043	-0.5175844477297376	1.575800135618642	-1.2669025285343474	-0.5972218688332599	1.6469896327237161	-0.5	-0.5674166198386184	2.36553264210221	1.0294662036472237	-0.6096568017575164	-0.4147561745291069	1.8776441210345145	-0.6697746866231371	-0.5823168146036952	-0.401308720486581	-0.48989794855663565	-0.697718103218451	-0.5275893435844942	-0.31818758500921507	-0.5823168146036952	2.3363076281460313	1.5158734579197342	-0.4592793267718459	-0.45153460016440716	-0.5200882648923052	-0.4848296205433155	-1.334267236462008	0.7893267062596194	-0.46698464234769554	1.334267236462008	-0.7182565144416703	-0.4924276291394298	-0.47974861141928293	-0.4147561745291069	-0.6021937915964948	-0.43591191066311263	-1.0702003175682502	-1.176696810829104	-0.9496528264568824	-0.3567530340063379	-0.9620113505096065	-0.3821333249059768	-0.49495446222729916	0.9163856236737701	0.0	-0.5350766804317946	-0.3567530340063379	-0.401308720486581	-0.3538740740066775	1.9702511930663886	-0.5798335076138013	-0.5325822869186925	-0.39859566564740406	0.8414208107221103	2.8972296067000616	-0.417423554968361	-0.35675303400633795	-0.6723024857298247	2.2404056498161564	1.3203646586675997	-0.5350766804317946	-0.42273777254298056	-0.2763853991962833	0.0	-0.4093999099320298	-0.5225902946060395	-0.26610476205223	1.8688910142617752	-0.6849776002149329	-0.37935661206098825	0.547531146505959	2.2404056498161564	-0.37377250079820107	-0.5549926825077344	1.717278249436375	-0.42802582500385306	-0.6320985150523428	-0.6672491627731317	-0.3904053750620288	-0.45153460016440716	-0.45153460016440716	-0.4746540241984123	1.510107042703689	-0.49495446222729916	1.1574206847596227	0.31818758500921507	-0.5	-0.44634774067904087	0.7234234744197365	-0.40939990993202974	-0.46442036401282394	-2.3220147668177282	-0.5250906251391786	1.4874257067701302	-0.5125710918850697	-0.44634774067904087	-0.6900655593423541	-0.6021937915964948	-0.4924276291394297	0.7442343124174324	-0.44114057808584267	0.6446123751179859	-0.45153460016440716	-0.6121460921524144	2.508808013192484	-0.604680714526124	-0.5	1.2455682756148325	-0.4669846423476955	-0.4120816918460671	-1.0983650094345585	-0.39314422749502875	-0.37096452512212347	2.0734380384147726	-0.5624483934807594	-0.3538740740066775	-0.4746540241984123	-0.4120816918460671	-0.7785997794633075	1.8181186857726193	1.8776441210345145	0.8414208107221103	-0.5075494959826194	-0.6723024857298248	1.6204107485918646	-0.5500190982169268	-0.6521405955174383	-0.6246075000734318	-0.48229075645035463	-0.4489436352114809	0.6672491627731317	-0.5150787536377127	-0.42008402520840293	-0.33631224270913823	-0.40671062665559465	0.7337993857053428	-0.5525062514530826	-0.45412077791469985	1.1728081374219168	2.118189241714917	1.372487132993442	1.4708043058552855	-0.5947367404095808	1.8864844365675972	-0.4848296205433155	1.3112201362143716	0.9496528264568824	-0.6071683634985884	2.307927774486216	1.2799601057612793	1.4545026261396838	-0.5100613704506707	-0.5100613704506707	-0.5798335076138013	-1.0	-0.7182565144416703	1.633596967815023	-0.45153460016440716	-0.401308720486581	1.2455682756148325	-0.6396021490668312	-0.6748326170487492	-0.5350766804317946	1.0361363787251783	-0.40671062665559465	1.2712331632215472	-0.5175844477297376	-0.4898979485566356	-0.4567023079103961	-0.6421064423997772	1.521679342499718	1.6204107485918644	-0.5748670307160534	-0.48229075645035463	1.7779408948284405	1.127413975016396	2.543595785118439	0.20921530482028264	-0.4227377725429805	1.4708043058552855	-0.4721013497313325	1.449137674618944	-0.417423554968361	-0.37935661206098825	-0.5599636792095521	-0.4695449296338764	-0.4437467711557988	-0.5200882648923052	2.266851089371805	-0.547531146505959	-0.5	1.770122406313567	-0.5649326828660322	-0.6926136035471839	2.15322168769582	2.202057357058073	-0.816496580927726	-0.3931442274950287	-0.8442198661015043	-0.5200882648923052	-0.47974861141928293	2.322014766817728	-0.3333333333333333	-0.376569765400288	-0.5599636792095521	-0.49495446222729916	-0.3765697654002881	-0.4567023079103961	-0.5050353737560759	-0.4974785517554907	2.2146697055682827	2.266851089371805	-0.5848002582004748	-0.4489436352114809	-0.8668404866978301	-0.3480766060639084	-0.3363122427091382	-0.45927932677184585	0.922359077939127
CHEMBL1287853	1.0	-0.6773651374345779	-0.5200882648923051	-0.44114057808584267	-0.5325822869186925	1.7623734748629933	-0.4515346001644073	-0.48989794855663565	-0.4147561745291069	-0.417423554968361	-0.43852900965351466	2.3655326421022105	-0.5748670307160534	-0.5025189076296059	1.6204107485918646	-0.5872839058897636	1.2799601057612793	-0.5375697991715019	-0.4567023079103962	-0.6396021490668312	-0.7131029484479491	-0.42008402520840293	2.0955439264845026	-0.43852900965351455	-0.34807660606390833	-0.8055657454315978	1.8954135676924422	-0.5125710918850697	1.7623734748629933	-0.43591191066311263	-0.44114057808584267	-0.31200181528856974	1.785830112073707	1.7623734748629933	0.4721013497313325	-0.47974861141928293	-0.31200181528856974	-0.7079623250943702	-0.5175844477297376	-0.6345982446609011	-1.2669025285343474	1.6744195954404892	-0.6071683634985884	-0.5	-0.5674166198386184	-0.4227377725429805	1.0294662036472237	1.6402671094904604	-0.4147561745291069	-0.5325822869186925	-0.6697746866231371	1.717278249436375	2.4918471713934216	-0.48989794855663565	-0.697718103218451	-0.5275893435844942	-0.31818758500921507	1.717278249436375	-0.42802582500385306	-0.6596856715021066	-0.4592793267718459	-0.45153460016440716	-0.5200882648923052	2.0625802501080033	0.7494750471814302	0.7893267062596194	-0.46698464234769554	1.334267236462008	-0.7182565144416703	-0.4924276291394298	-0.47974861141928293	-0.4147561745291069	1.6605950010691222	-0.43591191066311263	0.9344045068798316	0.8498365855987976	1.0530163994045705	-0.3567530340063379	-0.9620113505096065	-0.3821333249059768	-0.49495446222729916	0.9163856236737701	0.0	-0.5350766804317946	-0.3567530340063379	-0.401308720486581	-0.3538740740066775	1.9702511930663886	-0.5798335076138013	1.8776441210345145	-0.39859566564740406	0.8414208107221103	2.8972296067000616	-0.417423554968361	-0.35675303400633795	1.4874257067701302	-0.44634774067904087	-0.7573665300986739	-0.5350766804317946	2.3655326421022105	-0.2763853991962833	0.0	-0.4093999099320298	1.913544913331889	-0.26610476205223	-0.5350766804317946	-0.6849776002149329	-0.37935661206098825	0.547531146505959	-0.44634774067904087	-0.37377250079820107	-0.5549926825077344	1.717278249436375	-0.42802582500385306	-0.6320985150523428	1.4986905279040497	-0.3904053750620288	-0.45153460016440716	-0.45153460016440716	-0.4746540241984123	-0.6622047124617104	2.02038788679668	1.1574206847596227	0.31818758500921507	-0.5	-0.44634774067904087	-1.3823162163794966	-0.40939990993202974	2.15322168769582	0.43066048256466466	-0.5250906251391786	-0.6723024857298247	-0.5125710918850697	-0.44634774067904087	-0.6900655593423541	-0.6021937915964948	-0.4924276291394297	0.7442343124174324	-0.44114057808584267	0.6446123751179859	-0.45153460016440716	-0.6121460921524144	-0.398595665647404	1.653765327679881	-0.5	-0.802846395157571	2.1413980446394323	-0.4120816918460671	-1.0983650094345585	-0.39314422749502875	-0.37096452512212347	-0.48229075645035463	-0.5624483934807594	-0.3538740740066775	-0.4746540241984123	-0.4120816918460671	-0.7785997794633075	-0.5500190982169268	-0.5325822869186925	0.8414208107221103	-0.5075494959826194	-0.6723024857298248	-0.6171274788623805	-0.5500190982169268	-0.6521405955174383	-0.6246075000734318	-0.48229075645035463	2.227451113164655	0.6672491627731317	-0.5150787536377127	-0.42008402520840293	-0.33631224270913823	-0.40671062665559465	0.7337993857053428	1.8099342720014773	-0.45412077791469985	-0.8526543840309756	2.118189241714917	1.372487132993442	-0.6799001036500848	-0.5947367404095808	-0.5300865358950272	-0.4848296205433155	-0.762648446573665	0.9496528264568824	1.6469896327237161	-0.43328912241312095	1.2799601057612793	-0.6875202437097319	1.9605483926697655	-0.5100613704506707	-0.5798335076138013	1.0	-0.7182565144416703	-0.6121460921524144	-0.45153460016440716	-0.401308720486581	1.2455682756148325	-0.6396021490668312	1.481848942591583	-0.5350766804317946	1.0361363787251783	-0.40671062665559465	1.2712331632215472	-0.5175844477297376	-0.4898979485566356	-0.4567023079103961	1.5573741890248738	-0.657168676783943	-0.6171274788623805	-0.5748670307160534	2.0734380384147726	-0.5624483934807594	-0.886985634522986	-0.3931442274950287	0.20921530482028264	-0.4227377725429805	-0.6799001036500848	-0.4721013497313325	-0.6900655593423541	2.3956482285140717	-0.37935661206098825	-0.5599636792095521	-0.4695449296338764	-0.4437467711557988	-0.5200882648923052	-0.4411405780858426	-0.547531146505959	-0.5	-0.564932682866032	-0.5649326828660322	-0.6926136035471839	-0.46442036401282394	-0.45412077791469985	-0.816496580927726	-0.3931442274950287	1.1845255485610255	-0.5200882648923052	-0.47974861141928293	-0.4306604825646646	-0.3333333333333333	2.655550423537096	-0.5599636792095521	2.02038788679668	-0.3765697654002881	2.189610130448908	-0.5050353737560759	2.010136912377877	-0.45153460016440716	-0.4411405780858426	-0.5848002582004748	-0.4489436352114809	-0.8668404866978301	-0.3480766060639084	-0.3363122427091382	-0.45927932677184585	0.922359077939127
CHEMBL535	1.0	1.476308632870234	-0.5200882648923051	-0.44114057808584267	-0.5325822869186925	-0.5674166198386184	-0.4515346001644073	-0.48989794855663565	-0.4147561745291069	2.3956482285140717	-0.43852900965351466	-0.42273777254298056	-0.5748670307160534	-0.5025189076296059	-0.6171274788623805	-0.5872839058897636	1.2799601057612793	-0.5375697991715019	-0.4567023079103962	1.563471919941143	-0.7131029484479491	-0.42008402520840293	-0.47720307236775805	2.2803508501982757	-0.34807660606390833	1.2413636077142653	-0.5275893435844942	-0.5125710918850697	-0.5674166198386184	-0.43591191066311263	-0.44114057808584267	-0.31200181528856974	-0.5599636792095521	-0.5674166198386184	0.4721013497313325	2.0844250013389534	-0.31200181528856974	1.412504542338043	-0.5175844477297376	1.575800135618642	0.7893267062596194	-0.5972218688332599	-0.6071683634985884	-0.5	-0.5674166198386184	-0.4227377725429805	-0.9713772015605465	-0.6096568017575164	-0.4147561745291069	-0.5325822869186925	1.4930394055974097	-0.5823168146036952	2.4918471713934216	-0.48989794855663565	-0.697718103218451	-0.5275893435844942	-0.31818758500921507	-0.5823168146036952	2.3363076281460313	1.5158734579197342	2.1773242158072694	-0.45153460016440716	-0.5200882648923052	-0.4848296205433155	-1.334267236462008	-1.2669025285343474	-0.46698464234769554	1.334267236462008	-0.7182565144416703	-0.4924276291394298	-0.47974861141928293	-0.4147561745291069	-0.6021937915964948	-0.43591191066311263	-1.0702003175682502	0.8498365855987976	-0.9496528264568824	-0.3567530340063379	-0.9620113505096065	2.6168877060016893	-0.49495446222729916	0.9163856236737701	0.0	1.8688910142617752	-0.3567530340063379	-0.401308720486581	-0.3538740740066775	-0.5075494959826194	-0.5798335076138013	-0.5325822869186925	-0.39859566564740406	0.8414208107221103	-0.3451573177657113	-0.417423554968361	-0.35675303400633795	-0.6723024857298247	-0.44634774067904087	1.3203646586675997	-0.5350766804317946	-0.42273777254298056	-0.2763853991962833	0.0	-0.4093999099320298	-0.5225902946060395	-0.26610476205223	-0.5350766804317946	-0.6849776002149329	-0.37935661206098825	0.547531146505959	2.2404056498161564	-0.37377250079820107	-0.5549926825077344	-0.5823168146036952	-0.42802582500385306	1.5820318766564287	-0.6672491627731317	-0.3904053750620288	-0.45153460016440716	-0.45153460016440716	-0.4746540241984123	-0.6622047124617104	-0.49495446222729916	1.1574206847596227	-3.1428001817576856	2.0	-0.44634774067904087	0.7234234744197365	-0.40939990993202974	-0.46442036401282394	0.43066048256466466	-0.5250906251391786	1.4874257067701302	-0.5125710918850697	-0.44634774067904087	-0.6900655593423541	1.6605950010691222	-0.4924276291394297	0.7442343124174324	-0.44114057808584267	0.6446123751179859	-0.45153460016440716	-0.6121460921524144	-0.398595665647404	1.653765327679881	-0.5	1.2455682756148325	-0.4669846423476955	-0.4120816918460671	-1.0983650094345585	-0.39314422749502875	-0.37096452512212347	-0.48229075645035463	-0.5624483934807594	-0.3538740740066775	-0.4746540241984123	-0.4120816918460671	1.2843569011659686	-0.5500190982169268	-0.5325822869186925	-1.1884659700082725	1.9702511930663886	1.4874257067701304	-0.6171274788623805	1.8181186857726193	-0.6521405955174383	1.6010054312227044	-0.48229075645035463	-0.4489436352114809	-1.4986905279040497	-0.5150787536377127	-0.42008402520840293	-0.33631224270913823	-0.40671062665559465	-1.3627702877384937	-0.5525062514530826	-0.45412077791469985	-0.8526543840309756	-0.4721013497313325	-0.7286042804780002	-0.6799001036500848	-0.5947367404095808	1.8864844365675972	-0.4848296205433155	1.3112201362143716	0.9496528264568824	-0.6071683634985884	-0.43328912241312095	1.2799601057612793	1.4545026261396838	-0.5100613704506707	1.9605483926697655	1.7246329970051526	-1.0	-0.7182565144416703	-0.6121460921524144	-0.45153460016440716	-0.401308720486581	1.2455682756148325	1.563471919941143	-0.6748326170487492	-0.5350766804317946	-0.9651239166318637	-0.40671062665559465	-0.7866377537428374	-0.5175844477297376	-0.4898979485566356	-0.4567023079103961	-0.6421064423997772	1.521679342499718	-0.6171274788623805	1.7395327033355898	2.0734380384147726	-0.5624483934807594	1.127413975016396	-0.3931442274950287	0.20921530482028264	-0.4227377725429805	-0.6799001036500848	-0.4721013497313325	1.449137674618944	-0.417423554968361	-0.37935661206098825	-0.5599636792095521	-0.4695449296338764	-0.4437467711557988	-0.5200882648923052	-0.4411405780858426	-0.547531146505959	-0.5	-0.564932682866032	-0.5649326828660322	1.4438064670958708	-0.46442036401282394	-0.45412077791469985	1.224744871391589	2.543595785118439	-0.8442198661015043	1.922750555056401	-0.47974861141928293	-0.4306604825646646	-0.3333333333333333	-0.376569765400288	1.785830112073707	-0.49495446222729916	-0.3765697654002881	-0.4567023079103961	-0.5050353737560759	-0.4974785517554907	-0.45153460016440716	-0.4411405780858426	-0.5848002582004748	-0.4489436352114809	1.153614783048992	2.872930793333453	2.9734272887141264	-0.45927932677184585	-1.0841764600337107
CHEMBL1908395	1.0	-0.6773651374345779	-0.5200882648923051	2.266851089371805	-0.5325822869186925	1.7623734748629933	-0.4515346001644073	-0.48989794855663565	-0.4147561745291069	-0.417423554968361	2.2803508501982765	-0.42273777254298056	1.7395327033355898	-0.5025189076296059	-0.6171274788623805	1.7027539661332138	-0.7812743502698718	-0.5375697991715019	2.1896101304489086	-0.6396021490668312	-0.7131029484479491	2.3804761428476167	-0.47720307236775805	2.2803508501982757	-0.34807660606390833	1.2413636077142653	-0.5275893435844942	-0.5125710918850697	-0.5674166198386184	-0.43591191066311263	2.266851089371805	3.205109557055308	1.785830112073707	-0.5674166198386184	0.4721013497313325	2.0844250013389534	-0.31200181528856974	-0.7079623250943702	-0.5175844477297376	1.575800135618642	0.7893267062596194	1.6744195954404892	-0.6071683634985884	-0.5	-0.5674166198386184	-0.4227377725429805	1.0294662036472237	-0.6096568017575164	-0.4147561745291069	-0.5325822869186925	-0.6697746866231371	-0.5823168146036952	-0.401308720486581	-0.48989794855663565	1.433243591340365	1.8954135676924422	-0.31818758500921507	1.717278249436375	-0.42802582500385306	-0.6596856715021066	-0.4592793267718459	-0.45153460016440716	-0.5200882648923052	-0.4848296205433155	0.7494750471814302	0.7893267062596194	-0.46698464234769554	-0.7494750471814302	1.3922602578513894	-0.4924276291394298	-0.47974861141928293	-0.4147561745291069	-0.6021937915964948	-0.43591191066311263	-1.0702003175682502	0.8498365855987976	-0.9496528264568824	-0.3567530340063379	1.0394887747117223	-0.3821333249059768	-0.49495446222729916	0.9163856236737701	0.0	-0.5350766804317946	-0.3567530340063379	-0.401308720486581	2.8258639822852074	-0.5075494959826194	1.7246329970051526	-0.5325822869186925	-0.39859566564740406	0.8414208107221103	-0.3451573177657113	-0.417423554968361	-0.35675303400633795	-0.6723024857298247	-0.44634774067904087	1.3203646586675997	-0.5350766804317946	-0.42273777254298056	-0.2763853991962833	0.0	-0.4093999099320298	-0.5225902946060395	-0.26610476205223	1.8688910142617752	1.4599017539934431	-0.37935661206098825	0.547531146505959	-0.44634774067904087	-0.37377250079820107	-0.5549926825077344	1.717278249436375	2.3363076281460313	1.5820318766564287	-0.6672491627731317	2.561440143699653	-0.45153460016440716	-0.45153460016440716	2.1067976863543567	-0.6622047124617104	-0.49495446222729916	-0.8639900886233803	0.31818758500921507	2.0	-0.44634774067904087	0.7234234744197365	-0.40939990993202974	2.15322168769582	0.43066048256466466	-0.5250906251391786	-0.6723024857298247	-0.5125710918850697	-0.44634774067904087	1.449137674618944	-0.6021937915964948	-0.4924276291394297	-1.3436628536405228	-0.44114057808584267	0.6446123751179859	2.2146697055682827	1.633596967815023	-0.398595665647404	-0.604680714526124	-0.5	-0.802846395157571	-0.4669846423476955	-0.4120816918460671	-1.0983650094345585	-0.39314422749502875	-0.37096452512212347	-0.48229075645035463	-0.5624483934807594	-0.3538740740066775	-0.4746540241984123	-0.4120816918460671	-0.7785997794633075	-0.5500190982169268	-0.5325822869186925	0.8414208107221103	-0.5075494959826194	-0.6723024857298248	-0.6171274788623805	1.8181186857726193	-0.6521405955174383	-0.6246075000734318	2.0734380384147726	2.227451113164655	0.6672491627731317	-0.5150787536377127	-0.42008402520840293	-0.33631224270913823	-0.40671062665559465	-1.3627702877384937	-0.5525062514530826	-0.45412077791469985	-0.8526543840309756	-0.4721013497313325	-0.7286042804780002	-0.6799001036500848	1.6814162167135063	1.8864844365675972	-0.4848296205433155	-0.762648446573665	-1.0530163994045705	-0.6071683634985884	2.307927774486216	-0.7812743502698718	-0.6875202437097319	-0.5100613704506707	-0.5100613704506707	1.7246329970051526	-1.0	-0.7182565144416703	-0.6121460921524144	-0.45153460016440716	-0.401308720486581	-0.802846395157571	-0.6396021490668312	1.481848942591583	-0.5350766804317946	1.0361363787251783	-0.40671062665559465	1.2712331632215472	-0.5175844477297376	-0.4898979485566356	-0.4567023079103961	1.5573741890248738	-0.657168676783943	1.6204107485918644	-0.5748670307160534	2.0734380384147726	-0.5624483934807594	1.127413975016396	-0.3931442274950287	0.20921530482028264	-0.4227377725429805	-0.6799001036500848	2.118189241714917	-0.6900655593423541	-0.417423554968361	-0.37935661206098825	-0.5599636792095521	-0.4695449296338764	-0.4437467711557988	-0.5200882648923052	2.266851089371805	-0.547531146505959	2.0	-0.564932682866032	-0.5649326828660322	1.4438064670958708	-0.46442036401282394	2.202057357058073	-0.816496580927726	-0.3931442274950287	-0.8442198661015043	-0.5200882648923052	-0.47974861141928293	-0.4306604825646646	-0.3333333333333333	-0.376569765400288	1.785830112073707	-0.49495446222729916	-0.3765697654002881	-0.4567023079103961	1.98005932250398	2.010136912377877	-0.45153460016440716	2.266851089371805	-0.5848002582004748	-0.4489436352114809	1.153614783048992	2.872930793333453	-0.3363122427091382	-0.45927932677184585	0.922359077939127
CHEMBL246166	1.0	-0.6773651374345779	-0.5200882648923051	-0.44114057808584267	-0.5325822869186925	-0.5674166198386184	-0.4515346001644073	-0.48989794855663565	2.4110551244604124	-0.417423554968361	-0.43852900965351466	-0.42273777254298056	-0.5748670307160534	-0.5025189076296059	-0.6171274788623805	-0.5872839058897636	1.2799601057612793	1.8602235496510249	-0.4567023079103962	-0.6396021490668312	-0.7131029484479491	2.3804761428476167	-0.47720307236775805	-0.43852900965351455	2.8729307933334525	1.2413636077142653	1.8954135676924422	-0.5125710918850697	-0.5674166198386184	2.2940414692472895	-0.44114057808584267	-0.31200181528856974	1.785830112073707	1.7623734748629933	0.4721013497313325	-0.47974861141928293	-0.31200181528856974	-0.7079623250943702	1.9320518697697837	-0.6345982446609011	0.7893267062596194	1.6744195954404892	-0.6071683634985884	-0.5	-0.5674166198386184	-0.4227377725429805	-0.9713772015605465	-0.6096568017575164	-0.4147561745291069	-0.5325822869186925	-0.6697746866231371	1.717278249436375	-0.401308720486581	-0.48989794855663565	-0.697718103218451	1.8954135676924422	-0.31818758500921507	1.717278249436375	-0.42802582500385306	1.5158734579197342	2.1773242158072694	2.2146697055682827	-0.5200882648923052	-0.4848296205433155	0.7494750471814302	0.7893267062596194	2.1413980446394327	1.334267236462008	1.3922602578513894	-0.4924276291394298	-0.47974861141928293	-0.4147561745291069	-0.6021937915964948	2.2940414692472895	0.9344045068798316	0.8498365855987976	-0.9496528264568824	-0.3567530340063379	-0.9620113505096065	-0.3821333249059768	-0.49495446222729916	0.9163856236737701	0.0	-0.5350766804317946	-0.3567530340063379	-0.401308720486581	-0.3538740740066775	-0.5075494959826194	1.7246329970051526	1.8776441210345145	2.5088080131924846	0.8414208107221103	-0.3451573177657113	-0.417423554968361	2.803059552906941	-0.6723024857298247	-0.44634774067904087	1.3203646586675997	-0.5350766804317946	-0.42273777254298056	3.6181361349331636	0.0	2.4425994626281775	1.913544913331889	-0.26610476205223	-0.5350766804317946	1.4599017539934431	-0.37935661206098825	0.547531146505959	-0.44634774067904087	-0.37377250079820107	-0.5549926825077344	-0.5823168146036952	-0.42802582500385306	-0.6320985150523428	-0.6672491627731317	-0.3904053750620288	-0.45153460016440716	-0.45153460016440716	-0.4746540241984123	-0.6622047124617104	-0.49495446222729916	1.1574206847596227	0.31818758500921507	-0.5	-0.44634774067904087	0.7234234744197365	2.442599462628177	-0.46442036401282394	0.43066048256466466	-0.5250906251391786	-0.6723024857298247	-0.5125710918850697	-0.44634774067904087	1.449137674618944	-0.6021937915964948	-0.4924276291394297	0.7442343124174324	-0.44114057808584267	0.6446123751179859	-0.45153460016440716	1.633596967815023	-0.398595665647404	1.653765327679881	2.0	1.2455682756148325	-0.4669846423476955	2.4267032964268394	-1.0983650094345585	-0.39314422749502875	2.695675549220764	-0.48229075645035463	1.7779408948284405	-0.3538740740066775	-0.4746540241984123	-0.4120816918460671	1.2843569011659686	-0.5500190982169268	1.8776441210345145	0.8414208107221103	-0.5075494959826194	1.4874257067701304	-0.6171274788623805	1.8181186857726193	1.5334116705410037	-0.6246075000734318	2.0734380384147726	2.227451113164655	-1.4986905279040497	-0.5150787536377127	-0.42008402520840293	-0.33631224270913823	-0.40671062665559465	0.7337993857053428	-0.5525062514530826	2.202057357058073	1.1728081374219168	-0.4721013497313325	-0.7286042804780002	-0.6799001036500848	-0.5947367404095808	-0.5300865358950272	-0.4848296205433155	-0.762648446573665	0.9496528264568824	-0.6071683634985884	-0.43328912241312095	1.2799601057612793	-0.6875202437097319	-0.5100613704506707	-0.5100613704506707	-0.5798335076138013	-1.0	1.3922602578513894	-0.6121460921524144	-0.45153460016440716	-0.401308720486581	-0.802846395157571	-0.6396021490668312	-0.6748326170487492	-0.5350766804317946	1.0361363787251783	-0.40671062665559465	-0.7866377537428374	-0.5175844477297376	-0.4898979485566356	-0.4567023079103961	-0.6421064423997772	1.521679342499718	-0.6171274788623805	-0.5748670307160534	-0.48229075645035463	-0.5624483934807594	1.127413975016396	-0.3931442274950287	0.20921530482028264	-0.4227377725429805	1.4708043058552855	-0.4721013497313325	-0.6900655593423541	-0.417423554968361	2.636042099193021	-0.5599636792095521	-0.4695449296338764	2.253537524104939	-0.5200882648923052	-0.4411405780858426	-0.547531146505959	-0.5	-0.564932682866032	-0.5649326828660322	-0.6926136035471839	-0.46442036401282394	-0.45412077791469985	-0.816496580927726	-0.3931442274950287	-0.8442198661015043	-0.5200882648923052	-0.47974861141928293	-0.4306604825646646	-0.3333333333333333	-0.376569765400288	-0.5599636792095521	-0.49495446222729916	2.6555504235370964	-0.4567023079103961	-0.5050353737560759	-0.4974785517554907	-0.45153460016440716	-0.4411405780858426	1.709985565117844	-0.4489436352114809	-0.8668404866978301	2.872930793333453	2.9734272887141264	2.177324215807269	-1.0841764600337107
CHEMBL1835736	1.0	1.476308632870234	1.9227505550564006	-0.44114057808584267	-0.5325822869186925	-0.5674166198386184	-0.4515346001644073	-0.48989794855663565	-0.4147561745291069	-0.417423554968361	-0.43852900965351466	-0.42273777254298056	1.7395327033355898	-0.5025189076296059	-0.6171274788623805	-0.5872839058897636	1.2799601057612793	-0.5375697991715019	-0.4567023079103962	-0.6396021490668312	-0.7131029484479491	-0.42008402520840293	2.0955439264845026	-0.43852900965351455	-0.34807660606390833	-0.8055657454315978	1.8954135676924422	1.9509488846168157	-0.5674166198386184	-0.43591191066311263	-0.44114057808584267	-0.31200181528856974	-0.5599636792095521	-0.5674166198386184	0.4721013497313325	-0.47974861141928293	-0.31200181528856974	-0.7079623250943702	-0.5175844477297376	-0.6345982446609011	-1.2669025285343474	-0.5972218688332599	-0.6071683634985884	-0.5	-0.5674166198386184	-0.4227377725429805	-0.9713772015605465	1.6402671094904604	-0.4147561745291069	-0.5325822869186925	-0.6697746866231371	1.717278249436375	-0.401308720486581	-0.48989794855663565	-0.697718103218451	-0.5275893435844942	-0.31818758500921507	-0.5823168146036952	-0.42802582500385306	-0.6596856715021066	-0.4592793267718459	2.2146697055682827	1.922750555056401	-0.4848296205433155	0.7494750471814302	0.7893267062596194	-0.46698464234769554	-0.7494750471814302	-0.7182565144416703	-0.4924276291394298	-0.47974861141928293	-0.4147561745291069	-0.6021937915964948	-0.43591191066311263	0.9344045068798316	-1.176696810829104	-0.9496528264568824	-0.3567530340063379	1.0394887747117223	-0.3821333249059768	2.02038788679668	-1.0912436578730051	0.0	-0.5350766804317946	-0.3567530340063379	-0.401308720486581	-0.3538740740066775	-0.5075494959826194	-0.5798335076138013	1.8776441210345145	-0.39859566564740406	0.8414208107221103	-0.3451573177657113	-0.417423554968361	2.803059552906941	-0.6723024857298247	-0.44634774067904087	-0.7573665300986739	1.8688910142617752	2.3655326421022105	-0.2763853991962833	0.0	-0.4093999099320298	-0.5225902946060395	-0.26610476205223	-0.5350766804317946	-0.6849776002149329	-0.37935661206098825	0.547531146505959	-0.44634774067904087	-0.37377250079820107	-0.5549926825077344	-0.5823168146036952	-0.42802582500385306	1.5820318766564287	-0.6672491627731317	-0.3904053750620288	-0.45153460016440716	-0.45153460016440716	2.1067976863543567	-0.6622047124617104	-0.49495446222729916	1.1574206847596227	0.31818758500921507	-0.5	-0.44634774067904087	0.7234234744197365	-0.40939990993202974	-0.46442036401282394	0.43066048256466466	1.9044331628182152	-0.6723024857298247	-0.5125710918850697	-0.44634774067904087	-0.6900655593423541	-0.6021937915964948	-0.4924276291394297	-1.3436628536405228	-0.44114057808584267	-1.5513198917674609	-0.45153460016440716	-0.6121460921524144	-0.398595665647404	1.653765327679881	-0.5	1.2455682756148325	-0.4669846423476955	-0.4120816918460671	0.9104441523631592	2.5435957851184394	-0.37096452512212347	2.0734380384147726	1.7779408948284405	-0.3538740740066775	-0.4746540241984123	-0.4120816918460671	-0.7785997794633075	1.8181186857726193	-0.5325822869186925	0.8414208107221103	-0.5075494959826194	1.4874257067701304	1.6204107485918646	-0.5500190982169268	-0.6521405955174383	1.6010054312227044	-0.48229075645035463	-0.4489436352114809	0.6672491627731317	-0.5150787536377127	2.3804761428476167	-0.33631224270913823	-0.40671062665559465	-1.3627702877384937	-0.5525062514530826	2.202057357058073	1.1728081374219168	-0.4721013497313325	1.372487132993442	1.4708043058552855	1.6814162167135063	-0.5300865358950272	-0.4848296205433155	1.3112201362143716	0.9496528264568824	-0.6071683634985884	-0.43328912241312095	-0.7812743502698718	-0.6875202437097319	-0.5100613704506707	-0.5100613704506707	-0.5798335076138013	1.0	1.3922602578513894	-0.6121460921524144	-0.45153460016440716	-0.401308720486581	1.2455682756148325	-0.6396021490668312	-0.6748326170487492	-0.5350766804317946	1.0361363787251783	-0.40671062665559465	-0.7866377537428374	-0.5175844477297376	-0.4898979485566356	-0.4567023079103961	-0.6421064423997772	-0.657168676783943	-0.6171274788623805	-0.5748670307160534	-0.48229075645035463	1.7779408948284405	-0.886985634522986	-0.3931442274950287	0.20921530482028264	-0.4227377725429805	-0.6799001036500848	-0.4721013497313325	-0.6900655593423541	-0.417423554968361	-0.37935661206098825	1.785830112073707	-0.4695449296338764	-0.4437467711557988	-0.5200882648923052	-0.4411405780858426	-0.547531146505959	-0.5	-0.564932682866032	-0.5649326828660322	-0.6926136035471839	-0.46442036401282394	-0.45412077791469985	-0.816496580927726	-0.3931442274950287	1.1845255485610255	-0.5200882648923052	2.0844250013389534	-0.4306604825646646	-0.3333333333333333	2.655550423537096	-0.5599636792095521	-0.49495446222729916	-0.3765697654002881	-0.4567023079103961	1.98005932250398	2.010136912377877	-0.45153460016440716	-0.4411405780858426	1.709985565117844	-0.4489436352114809	-0.8668404866978301	-0.3480766060639084	2.9734272887141264	-0.45927932677184585	-1.0841764600337107
CHEMBL4753549	1.0	-0.6773651374345779	1.9227505550564006	-0.44114057808584267	-0.5325822869186925	-0.5674166198386184	-0.4515346001644073	-0.48989794855663565	2.4110551244604124	2.3956482285140717	-0.43852900965351466	-0.42273777254298056	-0.5748670307160534	-0.5025189076296059	1.6204107485918646	1.7027539661332138	-0.7812743502698718	-0.5375697991715019	-0.4567023079103962	-0.6396021490668312	-0.7131029484479491	-0.42008402520840293	-0.47720307236775805	-0.43852900965351455	2.8729307933334525	1.2413636077142653	-0.5275893435844942	-0.5125710918850697	1.7623734748629933	2.2940414692472895	-0.44114057808584267	-0.31200181528856974	-0.5599636792095521	1.7623734748629933	0.4721013497313325	-0.47974861141928293	3.205109557055308	1.412504542338043	-0.5175844477297376	-0.6345982446609011	0.7893267062596194	1.6744195954404892	-0.6071683634985884	-0.5	1.7623734748629933	-0.4227377725429805	-0.9713772015605465	1.6402671094904604	2.4110551244604124	-0.5325822869186925	1.4930394055974097	1.717278249436375	-0.401308720486581	-0.48989794855663565	-0.697718103218451	-0.5275893435844942	-0.31818758500921507	-0.5823168146036952	-0.42802582500385306	-0.6596856715021066	-0.4592793267718459	-0.45153460016440716	-0.5200882648923052	-0.4848296205433155	0.7494750471814302	-1.2669025285343474	-0.46698464234769554	-0.7494750471814302	1.3922602578513894	2.030755263971698	-0.47974861141928293	-0.4147561745291069	1.6605950010691222	-0.43591191066311263	0.9344045068798316	-1.176696810829104	1.0530163994045705	-0.3567530340063379	-0.9620113505096065	-0.3821333249059768	-0.49495446222729916	0.9163856236737701	0.0	-0.5350766804317946	2.8030595529069404	2.4918471713934216	-0.3538740740066775	1.9702511930663886	-0.5798335076138013	-0.5325822869186925	-0.39859566564740406	-1.1884659700082725	-0.3451573177657113	-0.417423554968361	-0.35675303400633795	-0.6723024857298247	-0.44634774067904087	1.3203646586675997	-0.5350766804317946	-0.42273777254298056	-0.2763853991962833	0.0	-0.4093999099320298	-0.5225902946060395	-0.26610476205223	1.8688910142617752	1.4599017539934431	-0.37935661206098825	0.547531146505959	-0.44634774067904087	-0.37377250079820107	-0.5549926825077344	1.717278249436375	-0.42802582500385306	1.5820318766564287	-0.6672491627731317	-0.3904053750620288	-0.45153460016440716	-0.45153460016440716	-0.4746540241984123	-0.6622047124617104	2.02038788679668	-0.8639900886233803	0.31818758500921507	2.0	-0.44634774067904087	0.7234234744197365	-0.40939990993202974	-0.46442036401282394	0.43066048256466466	-0.5250906251391786	-0.6723024857298247	-0.5125710918850697	2.2404056498161564	-0.6900655593423541	-0.6021937915964948	2.030755263971698	0.7442343124174324	2.266851089371805	0.6446123751179859	2.2146697055682827	1.633596967815023	-0.398595665647404	-0.604680714526124	-0.5	-0.802846395157571	-0.4669846423476955	-0.4120816918460671	-1.0983650094345585	-0.39314422749502875	-0.37096452512212347	-0.48229075645035463	-0.5624483934807594	-0.3538740740066775	-0.4746540241984123	2.4267032964268394	-0.7785997794633075	1.8181186857726193	1.8776441210345145	0.8414208107221103	-0.5075494959826194	-0.6723024857298248	-0.6171274788623805	-0.5500190982169268	-0.6521405955174383	-0.6246075000734318	2.0734380384147726	-0.4489436352114809	0.6672491627731317	-0.5150787536377127	2.3804761428476167	-0.33631224270913823	-0.40671062665559465	0.7337993857053428	1.8099342720014773	-0.45412077791469985	-0.8526543840309756	2.118189241714917	-0.7286042804780002	-0.6799001036500848	-0.5947367404095808	-0.5300865358950272	-0.4848296205433155	1.3112201362143716	-1.0530163994045705	-0.6071683634985884	-0.43328912241312095	1.2799601057612793	-0.6875202437097319	1.9605483926697655	-0.5100613704506707	-0.5798335076138013	1.0	-0.7182565144416703	1.633596967815023	-0.45153460016440716	-0.401308720486581	1.2455682756148325	-0.6396021490668312	1.481848942591583	-0.5350766804317946	1.0361363787251783	-0.40671062665559465	1.2712331632215472	-0.5175844477297376	-0.4898979485566356	-0.4567023079103961	-0.6421064423997772	-0.657168676783943	1.6204107485918644	-0.5748670307160534	2.0734380384147726	-0.5624483934807594	1.127413975016396	-0.3931442274950287	0.20921530482028264	-0.4227377725429805	-0.6799001036500848	2.118189241714917	1.449137674618944	-0.417423554968361	-0.37935661206098825	-0.5599636792095521	2.129721645125082	-0.4437467711557988	1.922750555056401	2.266851089371805	-0.547531146505959	-0.5	-0.564932682866032	-0.5649326828660322	-0.6926136035471839	-0.46442036401282394	2.202057357058073	-0.816496580927726	2.543595785118439	1.1845255485610255	-0.5200882648923052	-0.47974861141928293	-0.4306604825646646	-0.3333333333333333	-0.376569765400288	-0.5599636792095521	-0.49495446222729916	-0.3765697654002881	-0.4567023079103961	-0.5050353737560759	2.010136912377877	2.2146697055682827	-0.4411405780858426	-0.5848002582004748	-0.4489436352114809	-0.8668404866978301	-0.3480766060639084	-0.3363122427091382	-0.45927932677184585	0.922359077939127
CHEMBL3623373	1.0	-0.6773651374345779	-0.5200882648923051	-0.44114057808584267	-0.5325822869186925	-0.5674166198386184	-0.4515346001644073	2.041241452319315	-0.4147561745291069	2.3956482285140717	-0.43852900965351466	-0.42273777254298056	-0.5748670307160534	-0.5025189076296059	-0.6171274788623805	1.7027539661332138	-0.7812743502698718	-0.5375697991715019	-0.4567023079103962	-0.6396021490668312	-0.7131029484479491	-0.42008402520840293	-0.47720307236775805	-0.43852900965351455	-0.34807660606390833	1.2413636077142653	-0.5275893435844942	-0.5125710918850697	-0.5674166198386184	2.2940414692472895	-0.44114057808584267	-0.31200181528856974	1.785830112073707	-0.5674166198386184	0.4721013497313325	2.0844250013389534	3.205109557055308	-0.7079623250943702	-0.5175844477297376	-0.6345982446609011	0.7893267062596194	1.6744195954404892	-0.6071683634985884	-0.5	-0.5674166198386184	-0.4227377725429805	-0.9713772015605465	-0.6096568017575164	-0.4147561745291069	-0.5325822869186925	-0.6697746866231371	-0.5823168146036952	-0.401308720486581	-0.48989794855663565	1.433243591340365	1.8954135676924422	-0.31818758500921507	1.717278249436375	-0.42802582500385306	-0.6596856715021066	2.1773242158072694	-0.45153460016440716	-0.5200882648923052	-0.4848296205433155	0.7494750471814302	-1.2669025285343474	-0.46698464234769554	-0.7494750471814302	-0.7182565144416703	-0.4924276291394298	-0.47974861141928293	-0.4147561745291069	1.6605950010691222	-0.43591191066311263	-1.0702003175682502	-1.176696810829104	1.0530163994045705	-0.3567530340063379	-0.9620113505096065	-0.3821333249059768	-0.49495446222729916	0.9163856236737701	0.0	-0.5350766804317946	-0.3567530340063379	-0.401308720486581	-0.3538740740066775	-0.5075494959826194	-0.5798335076138013	1.8776441210345145	-0.39859566564740406	-1.1884659700082725	2.8972296067000616	2.3956482285140717	-0.35675303400633795	1.4874257067701302	-0.44634774067904087	-0.7573665300986739	1.8688910142617752	-0.42273777254298056	3.6181361349331636	0.0	-0.4093999099320298	-0.5225902946060395	-0.26610476205223	1.8688910142617752	-0.6849776002149329	-0.37935661206098825	0.547531146505959	-0.44634774067904087	-0.37377250079820107	-0.5549926825077344	-0.5823168146036952	-0.42802582500385306	-0.6320985150523428	1.4986905279040497	-0.3904053750620288	-0.45153460016440716	-0.45153460016440716	2.1067976863543567	-0.6622047124617104	-0.49495446222729916	-0.8639900886233803	0.31818758500921507	-0.5	-0.44634774067904087	0.7234234744197365	-0.40939990993202974	-0.46442036401282394	0.43066048256466466	-0.5250906251391786	-0.6723024857298247	1.9509488846168157	2.2404056498161564	1.449137674618944	-0.6021937915964948	-0.4924276291394297	0.7442343124174324	-0.44114057808584267	0.6446123751179859	-0.45153460016440716	-0.6121460921524144	-0.398595665647404	1.653765327679881	-0.5	1.2455682756148325	-0.4669846423476955	-0.4120816918460671	-1.0983650094345585	2.5435957851184394	-0.37096452512212347	-0.48229075645035463	-0.5624483934807594	-0.3538740740066775	-0.4746540241984123	-0.4120816918460671	1.2843569011659686	-0.5500190982169268	1.8776441210345145	-1.1884659700082725	-0.5075494959826194	-0.6723024857298248	-0.6171274788623805	1.8181186857726193	1.5334116705410037	1.6010054312227044	-0.48229075645035463	-0.4489436352114809	0.6672491627731317	-0.5150787536377127	-0.42008402520840293	-0.33631224270913823	-0.40671062665559465	-1.3627702877384937	1.8099342720014773	-0.45412077791469985	1.1728081374219168	-0.4721013497313325	1.372487132993442	1.4708043058552855	1.6814162167135063	1.8864844365675972	-0.4848296205433155	1.3112201362143716	-1.0530163994045705	-0.6071683634985884	-0.43328912241312095	-0.7812743502698718	-0.6875202437097319	1.9605483926697655	-0.5100613704506707	-0.5798335076138013	1.0	-0.7182565144416703	-0.6121460921524144	2.2146697055682827	-0.401308720486581	1.2455682756148325	1.563471919941143	1.481848942591583	1.8688910142617752	-0.9651239166318637	-0.40671062665559465	-0.7866377537428374	-0.5175844477297376	-0.4898979485566356	-0.4567023079103961	-0.6421064423997772	-0.657168676783943	1.6204107485918644	-0.5748670307160534	-0.48229075645035463	-0.5624483934807594	1.127413975016396	2.543595785118439	0.20921530482028264	2.36553264210221	-0.6799001036500848	-0.4721013497313325	-0.6900655593423541	-0.417423554968361	-0.37935661206098825	-0.5599636792095521	-0.4695449296338764	-0.4437467711557988	-0.5200882648923052	2.266851089371805	-0.547531146505959	-0.5	-0.564932682866032	-0.5649326828660322	1.4438064670958708	2.15322168769582	2.202057357058073	-0.816496580927726	-0.3931442274950287	-0.8442198661015043	-0.5200882648923052	-0.47974861141928293	2.322014766817728	-0.3333333333333333	-0.376569765400288	-0.5599636792095521	-0.49495446222729916	-0.3765697654002881	2.189610130448908	-0.5050353737560759	-0.4974785517554907	-0.45153460016440716	2.266851089371805	-0.5848002582004748	-0.4489436352114809	-0.8668404866978301	-0.3480766060639084	-0.3363122427091382	-0.45927932677184585	-1.0841764600337107
CHEMBL1765770	1.0	-0.6773651374345779	-0.5200882648923051	-0.44114057808584267	1.8776441210345145	-0.5674166198386184	-0.4515346001644073	-0.48989794855663565	-0.4147561745291069	-0.417423554968361	2.2803508501982765	-0.42273777254298056	-0.5748670307160534	-0.5025189076296059	-0.6171274788623805	1.7027539661332138	1.2799601057612793	-0.5375697991715019	-0.4567023079103962	-0.6396021490668312	-0.7131029484479491	2.3804761428476167	-0.47720307236775805	-0.43852900965351455	-0.34807660606390833	1.2413636077142653	-0.5275893435844942	-0.5125710918850697	-0.5674166198386184	-0.43591191066311263	2.266851089371805	-0.31200181528856974	-0.5599636792095521	-0.5674166198386184	0.4721013497313325	-0.47974861141928293	-0.31200181528856974	-0.7079623250943702	-0.5175844477297376	1.575800135618642	0.7893267062596194	1.6744195954404892	-0.6071683634985884	-0.5	-0.5674166198386184	-0.4227377725429805	-0.9713772015605465	-0.6096568017575164	-0.4147561745291069	-0.5325822869186925	-0.6697746866231371	-0.5823168146036952	-0.401308720486581	-0.48989794855663565	-0.697718103218451	-0.5275893435844942	-0.31818758500921507	-0.5823168146036952	-0.42802582500385306	1.5158734579197342	2.1773242158072694	-0.45153460016440716	1.922750555056401	-0.4848296205433155	-1.334267236462008	-1.2669025285343474	-0.46698464234769554	-0.7494750471814302	1.3922602578513894	-0.4924276291394298	-0.47974861141928293	-0.4147561745291069	1.6605950010691222	-0.43591191066311263	-1.0702003175682502	0.8498365855987976	1.0530163994045705	-0.3567530340063379	-0.9620113505096065	-0.3821333249059768	-0.49495446222729916	-1.0912436578730051	0.0	-0.5350766804317946	-0.3567530340063379	-0.401308720486581	-0.3538740740066775	-0.5075494959826194	1.7246329970051526	-0.5325822869186925	-0.39859566564740406	0.8414208107221103	-0.3451573177657113	-0.417423554968361	-0.35675303400633795	1.4874257067701302	-0.44634774067904087	-0.7573665300986739	-0.5350766804317946	2.3655326421022105	-0.2763853991962833	0.0	-0.4093999099320298	-0.5225902946060395	-0.26610476205223	-0.5350766804317946	1.4599017539934431	-0.37935661206098825	0.547531146505959	-0.44634774067904087	-0.37377250079820107	-0.5549926825077344	-0.5823168146036952	-0.42802582500385306	-0.6320985150523428	1.4986905279040497	-0.3904053750620288	-0.45153460016440716	-0.45153460016440716	-0.4746540241984123	-0.6622047124617104	-0.49495446222729916	-0.8639900886233803	0.31818758500921507	2.0	-0.44634774067904087	0.7234234744197365	-0.40939990993202974	2.15322168769582	0.43066048256466466	1.9044331628182152	-0.6723024857298247	-0.5125710918850697	-0.44634774067904087	-0.6900655593423541	-0.6021937915964948	-0.4924276291394297	0.7442343124174324	2.266851089371805	0.6446123751179859	-0.45153460016440716	-0.6121460921524144	-0.398595665647404	-0.604680714526124	-0.5	-0.802846395157571	-0.4669846423476955	-0.4120816918460671	-1.0983650094345585	-0.39314422749502875	-0.37096452512212347	-0.48229075645035463	-0.5624483934807594	-0.3538740740066775	-0.4746540241984123	-0.4120816918460671	-0.7785997794633075	-0.5500190982169268	-0.5325822869186925	-1.1884659700082725	1.9702511930663886	-0.6723024857298248	1.6204107485918646	-0.5500190982169268	-0.6521405955174383	-0.6246075000734318	2.0734380384147726	-0.4489436352114809	0.6672491627731317	-0.5150787536377127	-0.42008402520840293	-0.33631224270913823	-0.40671062665559465	0.7337993857053428	-0.5525062514530826	-0.45412077791469985	-0.8526543840309756	-0.4721013497313325	-0.7286042804780002	-0.6799001036500848	1.6814162167135063	-0.5300865358950272	-0.4848296205433155	-0.762648446573665	-1.0530163994045705	1.6469896327237161	-0.43328912241312095	-0.7812743502698718	-0.6875202437097319	-0.5100613704506707	-0.5100613704506707	1.7246329970051526	-1.0	-0.7182565144416703	-0.6121460921524144	-0.45153460016440716	-0.401308720486581	-0.802846395157571	-0.6396021490668312	-0.6748326170487492	-0.5350766804317946	1.0361363787251783	-0.40671062665559465	-0.7866377537428374	-0.5175844477297376	-0.4898979485566356	-0.4567023079103961	-0.6421064423997772	-0.657168676783943	-0.6171274788623805	-0.5748670307160534	-0.48229075645035463	-0.5624483934807594	-0.886985634522986	-0.3931442274950287	0.20921530482028264	-0.4227377725429805	-0.6799001036500848	-0.4721013497313325	-0.6900655593423541	-0.417423554968361	-0.37935661206098825	-0.5599636792095521	-0.4695449296338764	-0.4437467711557988	-0.5200882648923052	2.266851089371805	-0.547531146505959	-0.5	-0.564932682866032	-0.5649326828660322	1.4438064670958708	-0.46442036401282394	-0.45412077791469985	-0.816496580927726	-0.3931442274950287	-0.8442198661015043	-0.5200882648923052	-0.47974861141928293	2.322014766817728	-0.3333333333333333	-0.376569765400288	-0.5599636792095521	-0.49495446222729916	-0.3765697654002881	-0.4567023079103961	-0.5050353737560759	-0.4974785517554907	-0.45153460016440716	-0.4411405780858426	1.709985565117844	2.227451113164655	-0.8668404866978301	-0.3480766060639084	-0.3363122427091382	-0.45927932677184585	-1.0841764600337107
CHEMBL410130	1.0	-0.6773651374345779	-0.5200882648923051	-0.44114057808584267	-0.5325822869186925	-0.5674166198386184	-0.4515346001644073	2.041241452319315	2.4110551244604124	-0.417423554968361	-0.43852900965351466	-0.42273777254298056	-0.5748670307160534	-0.5025189076296059	-0.6171274788623805	1.7027539661332138	1.2799601057612793	1.8602235496510249	-0.4567023079103962	-0.6396021490668312	-0.7131029484479491	-0.42008402520840293	-0.47720307236775805	-0.43852900965351455	-0.34807660606390833	1.2413636077142653	-0.5275893435844942	-0.5125710918850697	-0.5674166198386184	-0.43591191066311263	-0.44114057808584267	3.205109557055308	1.785830112073707	-0.5674166198386184	0.4721013497313325	-0.47974861141928293	-0.31200181528856974	-0.7079623250943702	1.9320518697697837	-0.6345982446609011	0.7893267062596194	-0.5972218688332599	-0.6071683634985884	-0.5	-0.5674166198386184	-0.4227377725429805	-0.9713772015605465	-0.6096568017575164	-0.4147561745291069	-0.5325822869186925	-0.6697746866231371	-0.5823168146036952	-0.401308720486581	-0.48989794855663565	1.433243591340365	-0.5275893435844942	-0.31818758500921507	1.717278249436375	-0.42802582500385306	-0.6596856715021066	-0.4592793267718459	-0.45153460016440716	-0.5200882648923052	-0.4848296205433155	-1.334267236462008	0.7893267062596194	-0.46698464234769554	-0.7494750471814302	1.3922602578513894	-0.4924276291394298	-0.47974861141928293	2.4110551244604124	1.6605950010691222	-0.43591191066311263	-1.0702003175682502	-1.176696810829104	1.0530163994045705	-0.3567530340063379	-0.9620113505096065	-0.3821333249059768	-0.49495446222729916	-1.0912436578730051	0.0	-0.5350766804317946	-0.3567530340063379	-0.401308720486581	-0.3538740740066775	-0.5075494959826194	-0.5798335076138013	-0.5325822869186925	-0.39859566564740406	-1.1884659700082725	2.8972296067000616	-0.417423554968361	2.803059552906941	-0.6723024857298247	-0.44634774067904087	1.3203646586675997	-0.5350766804317946	-0.42273777254298056	-0.2763853991962833	0.0	-0.4093999099320298	-0.5225902946060395	-0.26610476205223	1.8688910142617752	-0.6849776002149329	-0.37935661206098825	0.547531146505959	-0.44634774067904087	-0.37377250079820107	-0.5549926825077344	-0.5823168146036952	-0.42802582500385306	-0.6320985150523428	1.4986905279040497	-0.3904053750620288	-0.45153460016440716	-0.45153460016440716	-0.4746540241984123	-0.6622047124617104	-0.49495446222729916	-0.8639900886233803	0.31818758500921507	-0.5	-0.44634774067904087	0.7234234744197365	-0.40939990993202974	-0.46442036401282394	0.43066048256466466	-0.5250906251391786	-0.6723024857298247	-0.5125710918850697	-0.44634774067904087	1.449137674618944	-0.6021937915964948	-0.4924276291394297	0.7442343124174324	-0.44114057808584267	0.6446123751179859	-0.45153460016440716	-0.6121460921524144	-0.398595665647404	-0.604680714526124	-0.5	1.2455682756148325	-0.4669846423476955	-0.4120816918460671	0.9104441523631592	-0.39314422749502875	-0.37096452512212347	-0.48229075645035463	-0.5624483934807594	-0.3538740740066775	-0.4746540241984123	-0.4120816918460671	-0.7785997794633075	-0.5500190982169268	-0.5325822869186925	-1.1884659700082725	-0.5075494959826194	-0.6723024857298248	-0.6171274788623805	-0.5500190982169268	-0.6521405955174383	-0.6246075000734318	-0.48229075645035463	-0.4489436352114809	-1.4986905279040497	-0.5150787536377127	-0.42008402520840293	-0.33631224270913823	-0.40671062665559465	-1.3627702877384937	-0.5525062514530826	-0.45412077791469985	-0.8526543840309756	-0.4721013497313325	1.372487132993442	1.4708043058552855	1.6814162167135063	-0.5300865358950272	2.0625802501080033	1.3112201362143716	0.9496528264568824	1.6469896327237161	-0.43328912241312095	1.2799601057612793	-0.6875202437097319	-0.5100613704506707	-0.5100613704506707	-0.5798335076138013	1.0	1.3922602578513894	-0.6121460921524144	-0.45153460016440716	-0.401308720486581	-0.802846395157571	1.563471919941143	1.481848942591583	-0.5350766804317946	-0.9651239166318637	-0.40671062665559465	-0.7866377537428374	-0.5175844477297376	-0.4898979485566356	-0.4567023079103961	1.5573741890248738	-0.657168676783943	-0.6171274788623805	1.7395327033355898	2.0734380384147726	1.7779408948284405	-0.886985634522986	-0.3931442274950287	0.20921530482028264	-0.4227377725429805	1.4708043058552855	-0.4721013497313325	-0.6900655593423541	-0.417423554968361	-0.37935661206098825	-0.5599636792095521	2.129721645125082	-0.4437467711557988	-0.5200882648923052	-0.4411405780858426	-0.547531146505959	-0.5	-0.564932682866032	-0.5649326828660322	-0.6926136035471839	-0.46442036401282394	-0.45412077791469985	-0.816496580927726	-0.3931442274950287	-0.8442198661015043	-0.5200882648923052	-0.47974861141928293	-0.4306604825646646	-0.3333333333333333	-0.376569765400288	-0.5599636792095521	-0.49495446222729916	-0.3765697654002881	-0.4567023079103961	1.98005932250398	-0.4974785517554907	-0.45153460016440716	2.266851089371805	-0.5848002582004748	-0.4489436352114809	-0.8668404866978301	-0.3480766060639084	-0.3363122427091382	-0.45927932677184585	-1.0841764600337107
CHEMBL1835744	1.0	-0.6773651374345779	1.9227505550564006	-0.44114057808584267	-0.5325822869186925	-0.5674166198386184	2.214669705568283	-0.48989794855663565	-0.4147561745291069	-0.417423554968361	-0.43852900965351466	-0.42273777254298056	1.7395327033355898	-0.5025189076296059	1.6204107485918646	-0.5872839058897636	1.2799601057612793	-0.5375697991715019	-0.4567023079103962	-0.6396021490668312	-0.7131029484479491	-0.42008402520840293	2.0955439264845026	2.2803508501982757	-0.34807660606390833	-0.8055657454315978	-0.5275893435844942	-0.5125710918850697	-0.5674166198386184	-0.43591191066311263	-0.44114057808584267	-0.31200181528856974	-0.5599636792095521	-0.5674166198386184	0.4721013497313325	-0.47974861141928293	-0.31200181528856974	-0.7079623250943702	-0.5175844477297376	-0.6345982446609011	-1.2669025285343474	-0.5972218688332599	-0.6071683634985884	-0.5	1.7623734748629933	-0.4227377725429805	-0.9713772015605465	1.6402671094904604	2.4110551244604124	-0.5325822869186925	1.4930394055974097	-0.5823168146036952	-0.401308720486581	-0.48989794855663565	-0.697718103218451	-0.5275893435844942	-0.31818758500921507	-0.5823168146036952	-0.42802582500385306	-0.6596856715021066	-0.4592793267718459	2.2146697055682827	-0.5200882648923052	-0.4848296205433155	0.7494750471814302	0.7893267062596194	-0.46698464234769554	1.334267236462008	-0.7182565144416703	-0.4924276291394298	-0.47974861141928293	-0.4147561745291069	-0.6021937915964948	-0.43591191066311263	-1.0702003175682502	-1.176696810829104	-0.9496528264568824	-0.3567530340063379	-0.9620113505096065	-0.3821333249059768	-0.49495446222729916	-1.0912436578730051	0.0	-0.5350766804317946	-0.3567530340063379	2.4918471713934216	-0.3538740740066775	-0.5075494959826194	-0.5798335076138013	-0.5325822869186925	-0.39859566564740406	-1.1884659700082725	-0.3451573177657113	-0.417423554968361	-0.35675303400633795	-0.6723024857298247	-0.44634774067904087	-0.7573665300986739	1.8688910142617752	-0.42273777254298056	-0.2763853991962833	0.0	-0.4093999099320298	1.913544913331889	-0.26610476205223	1.8688910142617752	-0.6849776002149329	-0.37935661206098825	-1.8263801180653316	-0.44634774067904087	-0.37377250079820107	1.8018255582785347	-0.5823168146036952	2.3363076281460313	-0.6320985150523428	-0.6672491627731317	-0.3904053750620288	-0.45153460016440716	-0.45153460016440716	-0.4746540241984123	-0.6622047124617104	-0.49495446222729916	1.1574206847596227	0.31818758500921507	2.0	-0.44634774067904087	-1.3823162163794966	-0.40939990993202974	-0.46442036401282394	0.43066048256466466	-0.5250906251391786	-0.6723024857298247	-0.5125710918850697	-0.44634774067904087	-0.6900655593423541	1.6605950010691222	-0.4924276291394297	-1.3436628536405228	-0.44114057808584267	-1.5513198917674609	-0.45153460016440716	-0.6121460921524144	-0.398595665647404	-0.604680714526124	-0.5	-0.802846395157571	-0.4669846423476955	-0.4120816918460671	0.9104441523631592	-0.39314422749502875	-0.37096452512212347	-0.48229075645035463	-0.5624483934807594	-0.3538740740066775	-0.4746540241984123	-0.4120816918460671	-0.7785997794633075	-0.5500190982169268	1.8776441210345145	-1.1884659700082725	-0.5075494959826194	1.4874257067701304	-0.6171274788623805	1.8181186857726193	-0.6521405955174383	1.6010054312227044	2.0734380384147726	-0.4489436352114809	0.6672491627731317	-0.5150787536377127	-0.42008402520840293	-0.33631224270913823	-0.40671062665559465	0.7337993857053428	-0.5525062514530826	-0.45412077791469985	1.1728081374219168	-0.4721013497313325	1.372487132993442	-0.6799001036500848	-0.5947367404095808	-0.5300865358950272	-0.4848296205433155	-0.762648446573665	-1.0530163994045705	-0.6071683634985884	-0.43328912241312095	-0.7812743502698718	-0.6875202437097319	-0.5100613704506707	-0.5100613704506707	-0.5798335076138013	-1.0	-0.7182565144416703	-0.6121460921524144	-0.45153460016440716	-0.401308720486581	1.2455682756148325	-0.6396021490668312	-0.6748326170487492	-0.5350766804317946	1.0361363787251783	-0.40671062665559465	-0.7866377537428374	-0.5175844477297376	-0.4898979485566356	2.189610130448908	1.5573741890248738	-0.657168676783943	-0.6171274788623805	-0.5748670307160534	-0.48229075645035463	1.7779408948284405	-0.886985634522986	-0.3931442274950287	0.20921530482028264	-0.4227377725429805	-0.6799001036500848	2.118189241714917	-0.6900655593423541	-0.417423554968361	-0.37935661206098825	1.785830112073707	-0.4695449296338764	-0.4437467711557988	1.922750555056401	-0.4411405780858426	-0.547531146505959	-0.5	-0.564932682866032	-0.5649326828660322	-0.6926136035471839	-0.46442036401282394	-0.45412077791469985	1.224744871391589	-0.3931442274950287	1.1845255485610255	-0.5200882648923052	-0.47974861141928293	-0.4306604825646646	-0.3333333333333333	-0.376569765400288	-0.5599636792095521	-0.49495446222729916	-0.3765697654002881	-0.4567023079103961	1.98005932250398	-0.4974785517554907	2.2146697055682827	-0.4411405780858426	-0.5848002582004748	-0.4489436352114809	-0.8668404866978301	-0.3480766060639084	2.9734272887141264	-0.45927932677184585	0.922359077939127
CHEMBL4870188	1.0	1.476308632870234	-0.5200882648923051	-0.44114057808584267	-0.5325822869186925	1.7623734748629933	-0.4515346001644073	-0.48989794855663565	-0.4147561745291069	-0.417423554968361	-0.43852900965351466	-0.42273777254298056	-0.5748670307160534	-0.5025189076296059	-0.6171274788623805	-0.5872839058897636	1.2799601057612793	-0.5375697991715019	-0.4567023079103962	-0.6396021490668312	1.4023220660866367	2.3804761428476167	-0.47720307236775805	2.2803508501982757	-0.34807660606390833	-0.8055657454315978	1.8954135676924422	-0.5125710918850697	1.7623734748629933	-0.43591191066311263	-0.44114057808584267	-0.31200181528856974	-0.5599636792095521	-0.5674166198386184	0.4721013497313325	-0.47974861141928293	-0.31200181528856974	-0.7079623250943702	1.9320518697697837	1.575800135618642	0.7893267062596194	-0.5972218688332599	-0.6071683634985884	-0.5	1.7623734748629933	-0.4227377725429805	1.0294662036472237	1.6402671094904604	-0.4147561745291069	-0.5325822869186925	-0.6697746866231371	1.717278249436375	-0.401308720486581	-0.48989794855663565	1.433243591340365	-0.5275893435844942	-0.31818758500921507	-0.5823168146036952	2.3363076281460313	-0.6596856715021066	2.1773242158072694	2.2146697055682827	1.922750555056401	-0.4848296205433155	0.7494750471814302	0.7893267062596194	-0.46698464234769554	-0.7494750471814302	1.3922602578513894	-0.4924276291394298	-0.47974861141928293	-0.4147561745291069	1.6605950010691222	-0.43591191066311263	0.9344045068798316	0.8498365855987976	-0.9496528264568824	-0.3567530340063379	1.0394887747117223	-0.3821333249059768	-0.49495446222729916	-1.0912436578730051	0.0	-0.5350766804317946	2.8030595529069404	-0.401308720486581	-0.3538740740066775	-0.5075494959826194	1.7246329970051526	1.8776441210345145	-0.39859566564740406	0.8414208107221103	-0.3451573177657113	-0.417423554968361	-0.35675303400633795	-0.6723024857298247	-0.44634774067904087	1.3203646586675997	-0.5350766804317946	-0.42273777254298056	-0.2763853991962833	0.0	-0.4093999099320298	-0.5225902946060395	-0.26610476205223	-0.5350766804317946	-0.6849776002149329	2.636042099193021	0.547531146505959	-0.44634774067904087	-0.37377250079820107	-0.5549926825077344	1.717278249436375	-0.42802582500385306	1.5820318766564287	-0.6672491627731317	-0.3904053750620288	2.2146697055682827	2.2146697055682827	-0.4746540241984123	-0.6622047124617104	-0.49495446222729916	-0.8639900886233803	0.31818758500921507	-0.5	-0.44634774067904087	0.7234234744197365	-0.40939990993202974	2.15322168769582	0.43066048256466466	-0.5250906251391786	-0.6723024857298247	1.9509488846168157	-0.44634774067904087	-0.6900655593423541	-0.6021937915964948	2.030755263971698	-1.3436628536405228	-0.44114057808584267	0.6446123751179859	-0.45153460016440716	-0.6121460921524144	-0.398595665647404	-0.604680714526124	2.0	-0.802846395157571	-0.4669846423476955	-0.4120816918460671	-1.0983650094345585	-0.39314422749502875	-0.37096452512212347	-0.48229075645035463	1.7779408948284405	-0.3538740740066775	2.1067976863543567	2.4267032964268394	1.2843569011659686	-0.5500190982169268	-0.5325822869186925	0.8414208107221103	-0.5075494959826194	-0.6723024857298248	-0.6171274788623805	-0.5500190982169268	-0.6521405955174383	-0.6246075000734318	-0.48229075645035463	-0.4489436352114809	0.6672491627731317	1.9414506867883017	-0.42008402520840293	-0.33631224270913823	-0.40671062665559465	0.7337993857053428	-0.5525062514530826	-0.45412077791469985	1.1728081374219168	-0.4721013497313325	-0.7286042804780002	-0.6799001036500848	-0.5947367404095808	-0.5300865358950272	-0.4848296205433155	-0.762648446573665	0.9496528264568824	-0.6071683634985884	2.307927774486216	-0.7812743502698718	1.4545026261396838	-0.5100613704506707	-0.5100613704506707	-0.5798335076138013	1.0	1.3922602578513894	-0.6121460921524144	-0.45153460016440716	-0.401308720486581	-0.802846395157571	-0.6396021490668312	1.481848942591583	-0.5350766804317946	1.0361363787251783	-0.40671062665559465	1.2712331632215472	-0.5175844477297376	-0.4898979485566356	-0.4567023079103961	-0.6421064423997772	-0.657168676783943	-0.6171274788623805	-0.5748670307160534	2.0734380384147726	-0.5624483934807594	1.127413975016396	-0.3931442274950287	0.20921530482028264	-0.4227377725429805	-0.6799001036500848	2.118189241714917	1.449137674618944	-0.417423554968361	-0.37935661206098825	-0.5599636792095521	-0.4695449296338764	-0.4437467711557988	1.922750555056401	-0.4411405780858426	-0.547531146505959	-0.5	1.770122406313567	-0.5649326828660322	-0.6926136035471839	-0.46442036401282394	-0.45412077791469985	-0.816496580927726	-0.3931442274950287	1.1845255485610255	-0.5200882648923052	-0.47974861141928293	-0.4306604825646646	-0.3333333333333333	2.655550423537096	-0.5599636792095521	-0.49495446222729916	-0.3765697654002881	-0.4567023079103961	1.98005932250398	-0.4974785517554907	-0.45153460016440716	-0.4411405780858426	1.709985565117844	-0.4489436352114809	-0.8668404866978301	-0.3480766060639084	-0.3363122427091382	-0.45927932677184585	-1.0841764600337107
CHEMBL575925	1.0	-0.6773651374345779	-0.5200882648923051	-0.44114057808584267	1.8776441210345145	-0.5674166198386184	2.214669705568283	2.041241452319315	-0.4147561745291069	-0.417423554968361	-0.43852900965351466	2.3655326421022105	-0.5748670307160534	-0.5025189076296059	1.6204107485918646	-0.5872839058897636	-0.7812743502698718	-0.5375697991715019	-0.4567023079103962	-0.6396021490668312	-0.7131029484479491	-0.42008402520840293	-0.47720307236775805	-0.43852900965351455	-0.34807660606390833	1.2413636077142653	-0.5275893435844942	-0.5125710918850697	-0.5674166198386184	2.2940414692472895	-0.44114057808584267	-0.31200181528856974	-0.5599636792095521	-0.5674166198386184	0.4721013497313325	-0.47974861141928293	-0.31200181528856974	-0.7079623250943702	-0.5175844477297376	1.575800135618642	0.7893267062596194	-0.5972218688332599	-0.6071683634985884	-0.5	-0.5674166198386184	-0.4227377725429805	1.0294662036472237	-0.6096568017575164	2.4110551244604124	-0.5325822869186925	1.4930394055974097	-0.5823168146036952	-0.401308720486581	-0.48989794855663565	1.433243591340365	-0.5275893435844942	-0.31818758500921507	1.717278249436375	-0.42802582500385306	-0.6596856715021066	2.1773242158072694	-0.45153460016440716	-0.5200882648923052	-0.4848296205433155	0.7494750471814302	0.7893267062596194	-0.46698464234769554	-0.7494750471814302	-0.7182565144416703	-0.4924276291394298	2.0844250013389534	-0.4147561745291069	1.6605950010691222	-0.43591191066311263	-1.0702003175682502	-1.176696810829104	1.0530163994045705	2.8030595529069404	-0.9620113505096065	-0.3821333249059768	-0.49495446222729916	-1.0912436578730051	0.0	-0.5350766804317946	-0.3567530340063379	-0.401308720486581	-0.3538740740066775	-0.5075494959826194	1.7246329970051526	1.8776441210345145	-0.39859566564740406	-1.1884659700082725	-0.3451573177657113	2.3956482285140717	-0.35675303400633795	-0.6723024857298247	-0.44634774067904087	-0.7573665300986739	-0.5350766804317946	-0.42273777254298056	-0.2763853991962833	0.0	-0.4093999099320298	-0.5225902946060395	-0.26610476205223	1.8688910142617752	1.4599017539934431	-0.37935661206098825	0.547531146505959	2.2404056498161564	-0.37377250079820107	-0.5549926825077344	-0.5823168146036952	-0.42802582500385306	-0.6320985150523428	1.4986905279040497	-0.3904053750620288	-0.45153460016440716	2.2146697055682827	2.1067976863543567	1.510107042703689	-0.49495446222729916	-0.8639900886233803	0.31818758500921507	-0.5	-0.44634774067904087	0.7234234744197365	2.442599462628177	-0.46442036401282394	0.43066048256466466	1.9044331628182152	-0.6723024857298247	-0.5125710918850697	-0.44634774067904087	1.449137674618944	-0.6021937915964948	-0.4924276291394297	0.7442343124174324	-0.44114057808584267	0.6446123751179859	-0.45153460016440716	-0.6121460921524144	-0.398595665647404	-0.604680714526124	-0.5	1.2455682756148325	-0.4669846423476955	-0.4120816918460671	0.9104441523631592	2.5435957851184394	-0.37096452512212347	-0.48229075645035463	1.7779408948284405	-0.3538740740066775	-0.4746540241984123	-0.4120816918460671	-0.7785997794633075	-0.5500190982169268	1.8776441210345145	-1.1884659700082725	-0.5075494959826194	-0.6723024857298248	-0.6171274788623805	1.8181186857726193	1.5334116705410037	-0.6246075000734318	-0.48229075645035463	-0.4489436352114809	0.6672491627731317	-0.5150787536377127	2.3804761428476167	-0.33631224270913823	-0.40671062665559465	-1.3627702877384937	-0.5525062514530826	-0.45412077791469985	1.1728081374219168	-0.4721013497313325	1.372487132993442	1.4708043058552855	1.6814162167135063	-0.5300865358950272	-0.4848296205433155	-0.762648446573665	-1.0530163994045705	-0.6071683634985884	-0.43328912241312095	1.2799601057612793	-0.6875202437097319	1.9605483926697655	-0.5100613704506707	-0.5798335076138013	1.0	-0.7182565144416703	-0.6121460921524144	-0.45153460016440716	-0.401308720486581	1.2455682756148325	1.563471919941143	1.481848942591583	-0.5350766804317946	-0.9651239166318637	-0.40671062665559465	-0.7866377537428374	1.9320518697697837	-0.4898979485566356	2.189610130448908	-0.6421064423997772	-0.657168676783943	1.6204107485918644	-0.5748670307160534	-0.48229075645035463	-0.5624483934807594	-0.886985634522986	-0.3931442274950287	0.20921530482028264	2.36553264210221	-0.6799001036500848	-0.4721013497313325	-0.6900655593423541	-0.417423554968361	-0.37935661206098825	-0.5599636792095521	-0.4695449296338764	-0.4437467711557988	1.922750555056401	-0.4411405780858426	-0.547531146505959	-0.5	-0.564932682866032	-0.5649326828660322	1.4438064670958708	-0.46442036401282394	-0.45412077791469985	-0.816496580927726	-0.3931442274950287	-0.8442198661015043	-0.5200882648923052	-0.47974861141928293	-0.4306604825646646	-0.3333333333333333	2.655550423537096	-0.5599636792095521	-0.49495446222729916	-0.3765697654002881	-0.4567023079103961	-0.5050353737560759	-0.4974785517554907	-0.45153460016440716	2.266851089371805	-0.5848002582004748	-0.4489436352114809	-0.8668404866978301	-0.3480766060639084	-0.3363122427091382	-0.45927932677184585	-1.0841764600337107
CHEMBL486949	1.0	-0.6773651374345779	1.9227505550564006	-0.44114057808584267	-0.5325822869186925	-0.5674166198386184	-0.4515346001644073	-0.48989794855663565	-0.4147561745291069	-0.417423554968361	-0.43852900965351466	2.3655326421022105	-0.5748670307160534	-0.5025189076296059	-0.6171274788623805	-0.5872839058897636	-0.7812743502698718	-0.5375697991715019	-0.4567023079103962	-0.6396021490668312	1.4023220660866367	-0.42008402520840293	2.0955439264845026	-0.43852900965351455	2.8729307933334525	-0.8055657454315978	-0.5275893435844942	1.9509488846168157	-0.5674166198386184	-0.43591191066311263	-0.44114057808584267	-0.31200181528856974	-0.5599636792095521	1.7623734748629933	0.4721013497313325	-0.47974861141928293	-0.31200181528856974	1.412504542338043	1.9320518697697837	-0.6345982446609011	0.7893267062596194	-0.5972218688332599	-0.6071683634985884	-0.5	-0.5674166198386184	-0.4227377725429805	1.0294662036472237	1.6402671094904604	-0.4147561745291069	-0.5325822869186925	-0.6697746866231371	-0.5823168146036952	-0.401308720486581	-0.48989794855663565	-0.697718103218451	-0.5275893435844942	-0.31818758500921507	-0.5823168146036952	-0.42802582500385306	-0.6596856715021066	-0.4592793267718459	2.2146697055682827	1.922750555056401	-0.4848296205433155	0.7494750471814302	-1.2669025285343474	-0.46698464234769554	1.334267236462008	1.3922602578513894	2.030755263971698	-0.47974861141928293	-0.4147561745291069	-0.6021937915964948	2.2940414692472895	-1.0702003175682502	0.8498365855987976	1.0530163994045705	-0.3567530340063379	-0.9620113505096065	-0.3821333249059768	-0.49495446222729916	0.9163856236737701	0.0	-0.5350766804317946	-0.3567530340063379	-0.401308720486581	-0.3538740740066775	1.9702511930663886	-0.5798335076138013	-0.5325822869186925	-0.39859566564740406	-1.1884659700082725	-0.3451573177657113	-0.417423554968361	-0.35675303400633795	-0.6723024857298247	-0.44634774067904087	1.3203646586675997	-0.5350766804317946	-0.42273777254298056	-0.2763853991962833	0.0	-0.4093999099320298	-0.5225902946060395	-0.26610476205223	1.8688910142617752	-0.6849776002149329	-0.37935661206098825	0.547531146505959	-0.44634774067904087	-0.37377250079820107	-0.5549926825077344	-0.5823168146036952	-0.42802582500385306	1.5820318766564287	-0.6672491627731317	2.561440143699653	-0.45153460016440716	-0.45153460016440716	-0.4746540241984123	-0.6622047124617104	2.02038788679668	-0.8639900886233803	0.31818758500921507	-0.5	2.2404056498161564	0.7234234744197365	-0.40939990993202974	2.15322168769582	0.43066048256466466	-0.5250906251391786	-0.6723024857298247	-0.5125710918850697	-0.44634774067904087	-0.6900655593423541	1.6605950010691222	-0.4924276291394297	0.7442343124174324	2.266851089371805	-1.5513198917674609	-0.45153460016440716	1.633596967815023	-0.398595665647404	-0.604680714526124	2.0	1.2455682756148325	-0.4669846423476955	-0.4120816918460671	-1.0983650094345585	-0.39314422749502875	2.695675549220764	-0.48229075645035463	1.7779408948284405	-0.3538740740066775	-0.4746540241984123	-0.4120816918460671	1.2843569011659686	1.8181186857726193	-0.5325822869186925	0.8414208107221103	-0.5075494959826194	-0.6723024857298248	-0.6171274788623805	-0.5500190982169268	-0.6521405955174383	-0.6246075000734318	-0.48229075645035463	-0.4489436352114809	-1.4986905279040497	-0.5150787536377127	-0.42008402520840293	2.973427288714127	-0.40671062665559465	0.7337993857053428	-0.5525062514530826	-0.45412077791469985	-0.8526543840309756	-0.4721013497313325	-0.7286042804780002	-0.6799001036500848	-0.5947367404095808	-0.5300865358950272	2.0625802501080033	-0.762648446573665	-1.0530163994045705	1.6469896327237161	-0.43328912241312095	-0.7812743502698718	-0.6875202437097319	-0.5100613704506707	-0.5100613704506707	-0.5798335076138013	1.0	-0.7182565144416703	-0.6121460921524144	-0.45153460016440716	-0.401308720486581	1.2455682756148325	-0.6396021490668312	-0.6748326170487492	-0.5350766804317946	-0.9651239166318637	-0.40671062665559465	-0.7866377537428374	-0.5175844477297376	-0.4898979485566356	-0.4567023079103961	-0.6421064423997772	1.521679342499718	1.6204107485918644	-0.5748670307160534	-0.48229075645035463	1.7779408948284405	-0.886985634522986	-0.3931442274950287	0.20921530482028264	-0.4227377725429805	-0.6799001036500848	-0.4721013497313325	1.449137674618944	2.3956482285140717	-0.37935661206098825	1.785830112073707	-0.4695449296338764	-0.4437467711557988	-0.5200882648923052	2.266851089371805	-0.547531146505959	2.0	-0.564932682866032	-0.5649326828660322	-0.6926136035471839	2.15322168769582	-0.45412077791469985	1.224744871391589	-0.3931442274950287	1.1845255485610255	-0.5200882648923052	2.0844250013389534	-0.4306604825646646	3.0	-0.376569765400288	-0.5599636792095521	2.02038788679668	-0.3765697654002881	2.189610130448908	-0.5050353737560759	-0.4974785517554907	-0.45153460016440716	-0.4411405780858426	1.709985565117844	-0.4489436352114809	1.153614783048992	-0.3480766060639084	-0.3363122427091382	-0.45927932677184585	0.922359077939127
CHEMBL3612513	1.0	-0.6773651374345779	-0.5200882648923051	2.266851089371805	1.8776441210345145	-0.5674166198386184	-0.4515346001644073	-0.48989794855663565	-0.4147561745291069	-0.417423554968361	-0.43852900965351466	-0.42273777254298056	-0.5748670307160534	-0.5025189076296059	1.6204107485918646	-0.5872839058897636	-0.7812743502698718	-0.5375697991715019	2.1896101304489086	-0.6396021490668312	-0.7131029484479491	-0.42008402520840293	-0.47720307236775805	2.2803508501982757	-0.34807660606390833	-0.8055657454315978	-0.5275893435844942	1.9509488846168157	-0.5674166198386184	-0.43591191066311263	-0.44114057808584267	-0.31200181528856974	-0.5599636792095521	-0.5674166198386184	0.4721013497313325	-0.47974861141928293	-0.31200181528856974	-0.7079623250943702	-0.5175844477297376	-0.6345982446609011	-1.2669025285343474	1.6744195954404892	1.6469896327237161	-0.5	1.7623734748629933	2.36553264210221	-0.9713772015605465	-0.6096568017575164	2.4110551244604124	-0.5325822869186925	1.4930394055974097	1.717278249436375	-0.401308720486581	-0.48989794855663565	-0.697718103218451	-0.5275893435844942	-0.31818758500921507	-0.5823168146036952	-0.42802582500385306	-0.6596856715021066	-0.4592793267718459	-0.45153460016440716	-0.5200882648923052	-0.4848296205433155	0.7494750471814302	-1.2669025285343474	2.1413980446394327	-0.7494750471814302	-0.7182565144416703	-0.4924276291394298	2.0844250013389534	-0.4147561745291069	-0.6021937915964948	-0.43591191066311263	-1.0702003175682502	-1.176696810829104	-0.9496528264568824	2.8030595529069404	1.0394887747117223	-0.3821333249059768	2.02038788679668	0.9163856236737701	0.0	-0.5350766804317946	2.8030595529069404	-0.401308720486581	-0.3538740740066775	-0.5075494959826194	-0.5798335076138013	-0.5325822869186925	-0.39859566564740406	-1.1884659700082725	-0.3451573177657113	-0.417423554968361	-0.35675303400633795	1.4874257067701302	2.2404056498161564	-0.7573665300986739	-0.5350766804317946	-0.42273777254298056	-0.2763853991962833	0.0	-0.4093999099320298	1.913544913331889	-0.26610476205223	1.8688910142617752	-0.6849776002149329	-0.37935661206098825	0.547531146505959	-0.44634774067904087	-0.37377250079820107	-0.5549926825077344	1.717278249436375	2.3363076281460313	1.5820318766564287	-0.6672491627731317	-0.3904053750620288	-0.45153460016440716	-0.45153460016440716	-0.4746540241984123	-0.6622047124617104	-0.49495446222729916	-0.8639900886233803	0.31818758500921507	-0.5	-0.44634774067904087	-1.3823162163794966	-0.40939990993202974	-0.46442036401282394	-2.3220147668177282	-0.5250906251391786	-0.6723024857298247	-0.5125710918850697	-0.44634774067904087	-0.6900655593423541	-0.6021937915964948	-0.4924276291394297	0.7442343124174324	-0.44114057808584267	0.6446123751179859	2.2146697055682827	-0.6121460921524144	-0.398595665647404	-0.604680714526124	-0.5	-0.802846395157571	2.1413980446394323	2.4267032964268394	0.9104441523631592	-0.39314422749502875	-0.37096452512212347	-0.48229075645035463	-0.5624483934807594	-0.3538740740066775	-0.4746540241984123	-0.4120816918460671	1.2843569011659686	-0.5500190982169268	-0.5325822869186925	-1.1884659700082725	1.9702511930663886	1.4874257067701304	-0.6171274788623805	1.8181186857726193	-0.6521405955174383	-0.6246075000734318	-0.48229075645035463	-0.4489436352114809	0.6672491627731317	-0.5150787536377127	-0.42008402520840293	-0.33631224270913823	2.458750606599731	-1.3627702877384937	-0.5525062514530826	-0.45412077791469985	-0.8526543840309756	-0.4721013497313325	-0.7286042804780002	-0.6799001036500848	-0.5947367404095808	-0.5300865358950272	-0.4848296205433155	-0.762648446573665	0.9496528264568824	-0.6071683634985884	-0.43328912241312095	1.2799601057612793	-0.6875202437097319	-0.5100613704506707	-0.5100613704506707	-0.5798335076138013	-1.0	1.3922602578513894	-0.6121460921524144	-0.45153460016440716	-0.401308720486581	1.2455682756148325	-0.6396021490668312	1.481848942591583	-0.5350766804317946	-0.9651239166318637	-0.40671062665559465	1.2712331632215472	-0.5175844477297376	2.0412414523193148	2.189610130448908	-0.6421064423997772	-0.657168676783943	-0.6171274788623805	-0.5748670307160534	2.0734380384147726	-0.5624483934807594	-0.886985634522986	2.543595785118439	0.20921530482028264	-0.4227377725429805	-0.6799001036500848	-0.4721013497313325	-0.6900655593423541	2.3956482285140717	-0.37935661206098825	-0.5599636792095521	2.129721645125082	-0.4437467711557988	-0.5200882648923052	-0.4411405780858426	-0.547531146505959	2.0	-0.564932682866032	-0.5649326828660322	1.4438064670958708	-0.46442036401282394	-0.45412077791469985	-0.816496580927726	-0.3931442274950287	-0.8442198661015043	-0.5200882648923052	-0.47974861141928293	2.322014766817728	-0.3333333333333333	-0.376569765400288	-0.5599636792095521	-0.49495446222729916	-0.3765697654002881	-0.4567023079103961	-0.5050353737560759	-0.4974785517554907	-0.45153460016440716	-0.4411405780858426	1.709985565117844	-0.4489436352114809	-0.8668404866978301	-0.3480766060639084	-0.3363122427091382	2.177324215807269	0.922359077939127
CHEMBL2063326	1.0	-0.6773651374345779	-0.5200882648923051	-0.44114057808584267	1.8776441210345145	1.7623734748629933	-0.4515346001644073	-0.48989794855663565	-0.4147561745291069	-0.417423554968361	-0.43852900965351466	2.3655326421022105	1.7395327033355898	-0.5025189076296059	1.6204107485918646	-0.5872839058897636	-0.7812743502698718	-0.5375697991715019	-0.4567023079103962	-0.6396021490668312	1.4023220660866367	-0.42008402520840293	2.0955439264845026	-0.43852900965351455	-0.34807660606390833	1.2413636077142653	-0.5275893435844942	-0.5125710918850697	-0.5674166198386184	-0.43591191066311263	-0.44114057808584267	-0.31200181528856974	-0.5599636792095521	1.7623734748629933	-2.118189241714917	-0.47974861141928293	-0.31200181528856974	-0.7079623250943702	1.9320518697697837	-0.6345982446609011	0.7893267062596194	1.6744195954404892	-0.6071683634985884	2.0	-0.5674166198386184	-0.4227377725429805	-0.9713772015605465	-0.6096568017575164	-0.4147561745291069	-0.5325822869186925	-0.6697746866231371	-0.5823168146036952	-0.401308720486581	-0.48989794855663565	-0.697718103218451	1.8954135676924422	-0.31818758500921507	-0.5823168146036952	2.3363076281460313	1.5158734579197342	-0.4592793267718459	-0.45153460016440716	-0.5200882648923052	-0.4848296205433155	-1.334267236462008	0.7893267062596194	-0.46698464234769554	1.334267236462008	-0.7182565144416703	-0.4924276291394298	-0.47974861141928293	-0.4147561745291069	-0.6021937915964948	-0.43591191066311263	0.9344045068798316	0.8498365855987976	-0.9496528264568824	-0.3567530340063379	-0.9620113505096065	-0.3821333249059768	-0.49495446222729916	0.9163856236737701	0.0	-0.5350766804317946	2.8030595529069404	2.4918471713934216	-0.3538740740066775	1.9702511930663886	-0.5798335076138013	-0.5325822869186925	-0.39859566564740406	0.8414208107221103	-0.3451573177657113	-0.417423554968361	-0.35675303400633795	-0.6723024857298247	-0.44634774067904087	-0.7573665300986739	-0.5350766804317946	2.3655326421022105	-0.2763853991962833	0.0	-0.4093999099320298	1.913544913331889	3.7579184689814915	-0.5350766804317946	1.4599017539934431	-0.37935661206098825	0.547531146505959	-0.44634774067904087	2.6754242162397546	1.8018255582785347	1.717278249436375	-0.42802582500385306	-0.6320985150523428	-0.6672491627731317	-0.3904053750620288	-0.45153460016440716	-0.45153460016440716	-0.4746540241984123	-0.6622047124617104	2.02038788679668	1.1574206847596227	0.31818758500921507	-0.5	-0.44634774067904087	0.7234234744197365	2.442599462628177	-0.46442036401282394	0.43066048256466466	1.9044331628182152	-0.6723024857298247	-0.5125710918850697	-0.44634774067904087	1.449137674618944	-0.6021937915964948	-0.4924276291394297	0.7442343124174324	2.266851089371805	0.6446123751179859	-0.45153460016440716	-0.6121460921524144	2.508808013192484	-0.604680714526124	2.0	1.2455682756148325	2.1413980446394323	-0.4120816918460671	0.9104441523631592	-0.39314422749502875	-0.37096452512212347	-0.48229075645035463	-0.5624483934807594	-0.3538740740066775	-0.4746540241984123	-0.4120816918460671	1.2843569011659686	1.8181186857726193	-0.5325822869186925	0.8414208107221103	-0.5075494959826194	-0.6723024857298248	1.6204107485918646	-0.5500190982169268	-0.6521405955174383	-0.6246075000734318	-0.48229075645035463	2.227451113164655	0.6672491627731317	-0.5150787536377127	-0.42008402520840293	-0.33631224270913823	-0.40671062665559465	0.7337993857053428	-0.5525062514530826	-0.45412077791469985	1.1728081374219168	2.118189241714917	-0.7286042804780002	-0.6799001036500848	1.6814162167135063	-0.5300865358950272	-0.4848296205433155	1.3112201362143716	0.9496528264568824	-0.6071683634985884	-0.43328912241312095	-0.7812743502698718	-0.6875202437097319	-0.5100613704506707	-0.5100613704506707	-0.5798335076138013	-1.0	-0.7182565144416703	-0.6121460921524144	-0.45153460016440716	-0.401308720486581	-0.802846395157571	1.563471919941143	-0.6748326170487492	-0.5350766804317946	1.0361363787251783	-0.40671062665559465	1.2712331632215472	-0.5175844477297376	-0.4898979485566356	-0.4567023079103961	1.5573741890248738	-0.657168676783943	-0.6171274788623805	-0.5748670307160534	-0.48229075645035463	-0.5624483934807594	1.127413975016396	-0.3931442274950287	0.20921530482028264	-0.4227377725429805	1.4708043058552855	-0.4721013497313325	1.449137674618944	2.3956482285140717	-0.37935661206098825	-0.5599636792095521	2.129721645125082	2.253537524104939	-0.5200882648923052	-0.4411405780858426	-0.547531146505959	-0.5	1.770122406313567	-0.5649326828660322	1.4438064670958708	-0.46442036401282394	-0.45412077791469985	1.224744871391589	-0.3931442274950287	-0.8442198661015043	-0.5200882648923052	-0.47974861141928293	2.322014766817728	-0.3333333333333333	-0.376569765400288	-0.5599636792095521	-0.49495446222729916	-0.3765697654002881	-0.4567023079103961	-0.5050353737560759	-0.4974785517554907	-0.45153460016440716	2.266851089371805	-0.5848002582004748	2.227451113164655	-0.8668404866978301	-0.3480766060639084	-0.3363122427091382	-0.45927932677184585	0.922359077939127
CHEMBL4473820	1.0	-0.6773651374345779	-0.5200882648923051	-0.44114057808584267	1.8776441210345145	1.7623734748629933	-0.4515346001644073	-0.48989794855663565	-0.4147561745291069	-0.417423554968361	-0.43852900965351466	-0.42273777254298056	-0.5748670307160534	-0.5025189076296059	-0.6171274788623805	-0.5872839058897636	-0.7812743502698718	-0.5375697991715019	-0.4567023079103962	1.563471919941143	-0.7131029484479491	-0.42008402520840293	-0.47720307236775805	2.2803508501982757	-0.34807660606390833	1.2413636077142653	-0.5275893435844942	-0.5125710918850697	1.7623734748629933	-0.43591191066311263	-0.44114057808584267	-0.31200181528856974	1.785830112073707	-0.5674166198386184	0.4721013497313325	-0.47974861141928293	-0.31200181528856974	-0.7079623250943702	-0.5175844477297376	-0.6345982446609011	0.7893267062596194	1.6744195954404892	-0.6071683634985884	-0.5	-0.5674166198386184	-0.4227377725429805	1.0294662036472237	-0.6096568017575164	-0.4147561745291069	1.8776441210345145	1.4930394055974097	-0.5823168146036952	-0.401308720486581	-0.48989794855663565	1.433243591340365	1.8954135676924422	-0.31818758500921507	-0.5823168146036952	-0.42802582500385306	-0.6596856715021066	-0.4592793267718459	-0.45153460016440716	-0.5200882648923052	2.0625802501080033	-1.334267236462008	-1.2669025285343474	-0.46698464234769554	-0.7494750471814302	-0.7182565144416703	-0.4924276291394298	-0.47974861141928293	-0.4147561745291069	-0.6021937915964948	-0.43591191066311263	-1.0702003175682502	0.8498365855987976	1.0530163994045705	-0.3567530340063379	-0.9620113505096065	-0.3821333249059768	-0.49495446222729916	-1.0912436578730051	0.0	-0.5350766804317946	2.8030595529069404	2.4918471713934216	-0.3538740740066775	-0.5075494959826194	-0.5798335076138013	-0.5325822869186925	-0.39859566564740406	0.8414208107221103	-0.3451573177657113	-0.417423554968361	-0.35675303400633795	-0.6723024857298247	-0.44634774067904087	-0.7573665300986739	1.8688910142617752	2.3655326421022105	-0.2763853991962833	0.0	-0.4093999099320298	1.913544913331889	3.7579184689814915	1.8688910142617752	1.4599017539934431	-0.37935661206098825	0.547531146505959	-0.44634774067904087	2.6754242162397546	1.8018255582785347	-0.5823168146036952	2.3363076281460313	-0.6320985150523428	-0.6672491627731317	-0.3904053750620288	-0.45153460016440716	-0.45153460016440716	-0.4746540241984123	1.510107042703689	-0.49495446222729916	1.1574206847596227	0.31818758500921507	2.0	-0.44634774067904087	0.7234234744197365	-0.40939990993202974	-0.46442036401282394	0.43066048256466466	1.9044331628182152	-0.6723024857298247	-0.5125710918850697	-0.44634774067904087	-0.6900655593423541	-0.6021937915964948	-0.4924276291394297	-1.3436628536405228	2.266851089371805	0.6446123751179859	-0.45153460016440716	-0.6121460921524144	-0.398595665647404	-0.604680714526124	2.0	1.2455682756148325	-0.4669846423476955	-0.4120816918460671	0.9104441523631592	-0.39314422749502875	-0.37096452512212347	-0.48229075645035463	-0.5624483934807594	-0.3538740740066775	-0.4746540241984123	-0.4120816918460671	1.2843569011659686	1.8181186857726193	-0.5325822869186925	0.8414208107221103	-0.5075494959826194	-0.6723024857298248	1.6204107485918646	1.8181186857726193	1.5334116705410037	-0.6246075000734318	-0.48229075645035463	-0.4489436352114809	0.6672491627731317	-0.5150787536377127	-0.42008402520840293	-0.33631224270913823	-0.40671062665559465	-1.3627702877384937	-0.5525062514530826	-0.45412077791469985	-0.8526543840309756	-0.4721013497313325	-0.7286042804780002	-0.6799001036500848	-0.5947367404095808	-0.5300865358950272	-0.4848296205433155	-0.762648446573665	-1.0530163994045705	-0.6071683634985884	-0.43328912241312095	-0.7812743502698718	-0.6875202437097319	1.9605483926697655	-0.5100613704506707	-0.5798335076138013	1.0	-0.7182565144416703	-0.6121460921524144	2.2146697055682827	-0.401308720486581	-0.802846395157571	-0.6396021490668312	-0.6748326170487492	-0.5350766804317946	1.0361363787251783	-0.40671062665559465	1.2712331632215472	-0.5175844477297376	-0.4898979485566356	-0.4567023079103961	-0.6421064423997772	1.521679342499718	-0.6171274788623805	-0.5748670307160534	-0.48229075645035463	-0.5624483934807594	1.127413975016396	-0.3931442274950287	0.20921530482028264	-0.4227377725429805	-0.6799001036500848	-0.4721013497313325	-0.6900655593423541	-0.417423554968361	-0.37935661206098825	-0.5599636792095521	-0.4695449296338764	2.253537524104939	-0.5200882648923052	2.266851089371805	-0.547531146505959	-0.5	-0.564932682866032	1.7701224063135674	1.4438064670958708	-0.46442036401282394	-0.45412077791469985	-0.816496580927726	-0.3931442274950287	-0.8442198661015043	-0.5200882648923052	-0.47974861141928293	2.322014766817728	-0.3333333333333333	-0.376569765400288	-0.5599636792095521	-0.49495446222729916	-0.3765697654002881	2.189610130448908	-0.5050353737560759	2.010136912377877	-0.45153460016440716	-0.4411405780858426	-0.5848002582004748	-0.4489436352114809	1.153614783048992	-0.3480766060639084	-0.3363122427091382	-0.45927932677184585	-1.0841764600337107
CHEMBL4579738	1.0	-0.6773651374345779	1.9227505550564006	-0.44114057808584267	-0.5325822869186925	1.7623734748629933	-0.4515346001644073	-0.48989794855663565	-0.4147561745291069	-0.417423554968361	-0.43852900965351466	-0.42273777254298056	-0.5748670307160534	-0.5025189076296059	-0.6171274788623805	1.7027539661332138	1.2799601057612793	-0.5375697991715019	-0.4567023079103962	-0.6396021490668312	1.4023220660866367	-0.42008402520840293	-0.47720307236775805	-0.43852900965351455	-0.34807660606390833	-0.8055657454315978	1.8954135676924422	1.9509488846168157	1.7623734748629933	-0.43591191066311263	-0.44114057808584267	-0.31200181528856974	-0.5599636792095521	-0.5674166198386184	-2.118189241714917	-0.47974861141928293	-0.31200181528856974	1.412504542338043	-0.5175844477297376	-0.6345982446609011	-1.2669025285343474	-0.5972218688332599	1.6469896327237161	-0.5	-0.5674166198386184	2.36553264210221	1.0294662036472237	-0.6096568017575164	-0.4147561745291069	-0.5325822869186925	-0.6697746866231371	1.717278249436375	-0.401308720486581	-0.48989794855663565	-0.697718103218451	-0.5275893435844942	3.1428001817576856	1.717278249436375	-0.42802582500385306	1.5158734579197342	-0.4592793267718459	-0.45153460016440716	-0.5200882648923052	-0.4848296205433155	-1.334267236462008	0.7893267062596194	-0.46698464234769554	-0.7494750471814302	1.3922602578513894	2.030755263971698	-0.47974861141928293	-0.4147561745291069	-0.6021937915964948	-0.43591191066311263	0.9344045068798316	0.8498365855987976	-0.9496528264568824	-0.3567530340063379	1.0394887747117223	2.6168877060016893	-0.49495446222729916	-1.0912436578730051	0.0	-0.5350766804317946	-0.3567530340063379	-0.401308720486581	-0.3538740740066775	-0.5075494959826194	1.7246329970051526	1.8776441210345145	-0.39859566564740406	0.8414208107221103	-0.3451573177657113	-0.417423554968361	2.803059552906941	-0.6723024857298247	-0.44634774067904087	1.3203646586675997	-0.5350766804317946	-0.42273777254298056	-0.2763853991962833	0.0	-0.4093999099320298	1.913544913331889	-0.26610476205223	-0.5350766804317946	-0.6849776002149329	-0.37935661206098825	0.547531146505959	-0.44634774067904087	-0.37377250079820107	1.8018255582785347	-0.5823168146036952	-0.42802582500385306	-0.6320985150523428	-0.6672491627731317	-0.3904053750620288	-0.45153460016440716	-0.45153460016440716	-0.4746540241984123	1.510107042703689	-0.49495446222729916	1.1574206847596227	0.31818758500921507	-0.5	-0.44634774067904087	-1.3823162163794966	-0.40939990993202974	-0.46442036401282394	-2.3220147668177282	-0.5250906251391786	-0.6723024857298247	-0.5125710918850697	2.2404056498161564	-0.6900655593423541	-0.6021937915964948	-0.4924276291394297	0.7442343124174324	-0.44114057808584267	0.6446123751179859	-0.45153460016440716	-0.6121460921524144	-0.398595665647404	1.653765327679881	-0.5	-0.802846395157571	-0.4669846423476955	-0.4120816918460671	-1.0983650094345585	-0.39314422749502875	-0.37096452512212347	-0.48229075645035463	-0.5624483934807594	-0.3538740740066775	-0.4746540241984123	-0.4120816918460671	-0.7785997794633075	-0.5500190982169268	1.8776441210345145	-1.1884659700082725	-0.5075494959826194	-0.6723024857298248	-0.6171274788623805	-0.5500190982169268	-0.6521405955174383	-0.6246075000734318	-0.48229075645035463	2.227451113164655	-1.4986905279040497	-0.5150787536377127	-0.42008402520840293	2.973427288714127	-0.40671062665559465	-1.3627702877384937	-0.5525062514530826	-0.45412077791469985	1.1728081374219168	-0.4721013497313325	-0.7286042804780002	-0.6799001036500848	-0.5947367404095808	-0.5300865358950272	2.0625802501080033	1.3112201362143716	-1.0530163994045705	-0.6071683634985884	-0.43328912241312095	-0.7812743502698718	-0.6875202437097319	1.9605483926697655	-0.5100613704506707	1.7246329970051526	-1.0	-0.7182565144416703	-0.6121460921524144	-0.45153460016440716	-0.401308720486581	-0.802846395157571	1.563471919941143	-0.6748326170487492	-0.5350766804317946	1.0361363787251783	-0.40671062665559465	-0.7866377537428374	1.9320518697697837	-0.4898979485566356	-0.4567023079103961	-0.6421064423997772	-0.657168676783943	-0.6171274788623805	-0.5748670307160534	2.0734380384147726	-0.5624483934807594	1.127413975016396	-0.3931442274950287	0.20921530482028264	-0.4227377725429805	1.4708043058552855	-0.4721013497313325	-0.6900655593423541	-0.417423554968361	-0.37935661206098825	-0.5599636792095521	-0.4695449296338764	-0.4437467711557988	1.922750555056401	-0.4411405780858426	-0.547531146505959	-0.5	-0.564932682866032	-0.5649326828660322	-0.6926136035471839	-0.46442036401282394	-0.45412077791469985	-0.816496580927726	-0.3931442274950287	-0.8442198661015043	-0.5200882648923052	-0.47974861141928293	2.322014766817728	-0.3333333333333333	-0.376569765400288	1.785830112073707	2.02038788679668	-0.3765697654002881	-0.4567023079103961	-0.5050353737560759	2.010136912377877	-0.45153460016440716	-0.4411405780858426	-0.5848002582004748	-0.4489436352114809	1.153614783048992	-0.3480766060639084	-0.3363122427091382	2.177324215807269	0.922359077939127
