Compound_ID	AD	f_0	f_1	f_2	f_3	f_4	f_5	f_6	f_7	f_8	f_9	f_10	f_11	f_12	f_13	f_14	f_15	f_16	f_17	f_18	f_19	f_20	f_21	f_22	f_23	f_24	f_25	f_26	f_27	f_28	f_29	f_30	f_31	f_32	f_33	f_34	f_35	f_36	f_37	f_38	f_39	f_40	f_41	f_42	f_43	f_44	f_45	f_46	f_47	f_48	f_49	f_50	f_51	f_52	f_53	f_54	f_55	f_56	f_57	f_58	f_59	f_60	f_61	f_62	f_63	f_64	f_65	f_66	f_67	f_68	f_69	f_70	f_71	f_72	f_73	f_74	f_75	f_76	f_77	f_78	f_79	f_80	f_81	f_82	f_83	f_84	f_85	f_86	f_87	f_88	f_89	f_90	f_91	f_92	f_93	f_94	f_95	f_96	f_97	f_98	f_99	f_100	f_101	f_102	f_103	f_104	f_105	f_106	f_107	f_108	f_109	f_110	f_111	f_112	f_113	f_114	f_115	f_116	f_117	f_118	f_119	f_120	f_121	f_122	f_123	f_124	f_125	f_126	f_127	f_128	f_129	f_130	f_131	f_132	f_133	f_134	f_135	f_136	f_137	f_138	f_139	f_140	f_141	f_142	f_143	f_144	f_145	f_146	f_147	f_148	f_149	f_150	f_151	f_152	f_153	f_154	f_155	f_156	f_157	f_158	f_159	f_160	f_161	f_162	f_163	f_164	f_165	f_166	f_167	f_168	f_169	f_170	f_171	f_172	f_173	f_174	f_175	f_176	f_177	f_178	f_179	f_180	f_181	f_182	f_183	f_184	f_185	f_186	f_187	f_188	f_189	f_190	f_191	f_192	f_193	f_194	f_195	f_196	f_197	f_198	f_199	f_200	f_201	f_202	f_203	f_204	f_205	f_206	f_207	f_208	f_209	f_210	f_211	f_212	f_213	f_214	f_215	f_216	f_217	f_218	f_219	f_220	f_221	f_222	f_223	f_224	f_225	f_226	f_227	f_228	f_229	f_230	f_231	f_232	f_233	f_234	f_235	f_236	f_237	f_238	f_239	f_240	f_241	f_242	f_243	f_244	f_245	f_246	f_247	f_248	f_249	f_250	f_251	f_252	f_253	f_254	f_255	f_256	f_257	f_258	f_259	f_260	f_261	f_262	f_263	f_264	f_265	f_266	f_267	f_268	f_269	f_270	f_271	f_272	f_273	f_274	f_275	f_276	f_277	f_278	f_279	f_280	f_281	f_282	f_283	f_284	f_285	f_286	f_287	f_288	f_289	f_290	f_291	f_292	f_293	f_294	f_295	f_296	f_297	f_298	f_299	f_300	f_301	f_302	f_303	f_304	f_305	f_306	f_307	f_308	f_309	f_310	f_311	f_312	f_313	f_314	f_315	f_316	f_317	f_318	f_319	f_320	f_321	f_322	f_323	f_324	f_325	f_326	f_327	f_328	f_329	f_330	f_331	f_332	f_333	f_334	f_335	f_336	f_337	f_338	f_339	f_340	f_341	f_342	f_343	f_344	f_345	f_346	f_347	f_348	f_349	f_350	f_351	f_352	f_353	f_354	f_355	f_356	f_357	f_358	f_359	f_360	f_361	f_362	f_363	f_364	f_365	f_366	f_367	f_368	f_369	f_370	f_371	f_372	f_373	f_374	f_375	f_376	f_377	f_378	f_379	f_380	f_381	f_382	f_383	f_384	f_385	f_386	f_387	f_388	f_389	f_390	f_391	f_392	f_393	f_394	f_395	f_396	f_397	f_398	f_399	f_400	f_401	f_402	f_403	f_404	f_405	f_406	f_407	f_408	f_409	f_410	f_411	f_412	f_413	f_414	f_415	f_416	f_417	f_418	f_419	f_420	f_421	f_422	f_423	f_424	f_425	f_426	f_427	f_428	f_429	f_430	f_431	f_432	f_433	f_434	f_435	f_436	f_437	f_438	f_439	f_440	f_441	f_442	f_443	f_444	f_445	f_446	f_447	f_448	f_449	f_450	f_451	f_452	f_453	f_454	f_455	f_456	f_457	f_458	f_459	f_460	f_461	f_462	f_463	f_464	f_465	f_466	f_467	f_468	f_469	f_470	f_471	f_472	f_473	f_474	f_475	f_476	f_477	f_478	f_479	f_480	f_481	f_482	f_483	f_484	f_485	f_486	f_487	f_488	f_489	f_490	f_491	f_492	f_493	f_494	f_495	f_496	f_497	f_498	f_499	f_500	f_501	f_502	f_503	f_504	f_505	f_506	f_507	f_508	f_509	f_510	f_511
CHEMBL4084775	1.0	-0.5616371084701743	-0.7206801266590055	-0.5301374837096382	-0.4167165638785894	-0.5852057359806528	-0.2878765849748735	-0.25537695922762454	-0.25537695922762454	2.399712626473256	-0.317999364001908	-0.32763490773780746	-0.4581228472908512	-0.2665300196340371	3.0521778247153644	1.5425013273341408	1.5238221347339345	-0.1617962004226434	-0.3179993640019079	-0.2878765849748735	-0.38235955645093633	-0.317999364001908	3.1446603773522006	-0.2773500981126145	2.886751345948128	-0.20628424925175864	-0.35557950110937986	-0.1924500897298753	-0.3179993640019079	-0.38235955645093633	-0.3646203187956106	-0.3179993640019079	-0.4904144462736839	-0.5852057359806528	0.5852057359806528	-0.3370999312316211	-0.317999364001908	1.5238221347339345	-0.4581228472908512	-0.2878765849748735	-0.2878765849748735	-0.37354368381881425	-0.4499488723511388	-0.4662524041201569	-0.4904144462736839	-0.2878765849748735	-0.48239444701999146	-0.6802106785137817	-0.23186944788008415	-0.2665300196340371	-0.5459058939351291	-0.47434164902525694	-0.2773500981126145	-0.37354368381881425	-0.42511515094885177	-0.1777046633277277	-0.21938172723813923	-0.3555795011093798	-0.28787658497487356	-0.37354368381881425	-0.2878765849748735	3.751922584079138	-0.42511515094885177	-0.317999364001908	-0.3910769444375215	0.8130294884889122	-0.5222329678670934	-0.3997040325158947	-0.3179993640019079	-0.36462031879561063	-0.408248290463863	-0.32763490773780746	-0.3997040325158947	-0.36462031879561063	-0.5301374837096382	2.1081851067789197	-0.36462031879561063	-0.3997040325158947	-0.5380275868489703	-0.28787658497487356	-0.37354368381881425	0.7958224257542214	-0.2878765849748735	-0.3081753835709564	-0.34641016151377535	2.5018511664883785	-0.2773500981126145	-0.317999364001908	-0.32763490773780746	3.751922584079138	-0.21938172723813926	0.9599836599916585	-0.38235955645093633	-0.3555795011093798	-0.24384310418681002	-0.4499488723511388	-0.5616371084701743	-0.2665300196340371	-0.36462031879561063	-0.317999364001908	-0.2665300196340371	-0.4581228472908512	-0.37354368381881425	-0.5143113152870139	-0.2665300196340371	-0.21938172723813926	2.8123105996832765	-0.2665300196340371	-0.3555795011093798	-0.3081753835709564	-0.2773500981126145	-0.3910769444375215	-0.4904144462736839	-0.5222329678670934	-0.2981423969999719	2.182820625326997	-0.2665300196340371	-0.4417261042993862	-0.2981423969999719	-0.3555795011093798	-0.4984050996048313	-0.317999364001908	2.1447610589527213	-0.3555795011093798	3.6055512754639887	-0.24384310418681002	3.473710792030141	-0.34641016151377535	-0.37354368381881425	-1.1427520960125939	-0.40824829046386296	-0.3081753835709564	-0.2665300196340371	2.886751345948128	-0.4334498677803327	-0.5063696835418333	-0.2665300196340371	-0.7703868735637632	-0.2665300196340371	0.6642111641550713	-0.4581228472908512	-0.5143113152870138	-0.23186944788008415	2.5570415597837943	-0.23186944788008415	-0.7370936756031577	-0.37354368381881425	-0.4167165638785895	-1.0206207261596576	-0.3464101615137754	-0.317999364001908	-0.2665300196340371	-0.3179993640019079	-0.2773500981126145	-0.4904144462736839	-0.408248290463863	-0.39970403251589476	-0.3370999312316211	1.755942292142123	-0.37354368381881425	-0.3370999312316211	-0.6642111641550715	-0.3555795011093798	-0.4334498677803327	-0.5852057359806528	-0.25537695922762454	-0.4334498677803327	-0.25537695922762454	-0.36462031879561063	-0.40824829046386296	-0.3081753835709564	-0.20628424925175864	-0.3370999312316211	-0.38235955645093633	-0.21938172723813926	-0.2981423969999719	1.0523910308057693	-0.2665300196340371	-0.3555795011093798	-0.32763490773780746	-0.2665300196340371	-0.40824829046386296	-0.3646203187956106	-0.5380275868489703	1.0964703329371188	-0.3370999312316211	-0.35557950110937986	-0.6721992649890746	-0.47434164902525694	-0.5616371084701743	-0.2773500981126145	3.1446603773522006	-0.6245565802918223	3.751922584079138	-0.39970403251589476	-0.2878765849748735	-0.2193817272381393	-0.7206801266590055	-0.42511515094885177	-0.32763490773780746	-0.4904144462736839	-0.6642111641550715	3.4737107920301407	-0.6324555320336758	-0.5773502691896258	-0.32763490773780746	-0.24384310418681	-0.34641016151377546	3.1446603773522006	-0.317999364001908	-0.5380275868489705	-0.2062842492517587	-0.4581228472908512	2.2638462845343543	2.182820625326997	0.4417261042993862	-0.2878765849748735	-0.5773502691896258	-0.3370999312316211	-0.6009252125773317	-0.38235955645093633	-0.23186944788008415	-0.4167165638785894	-0.44994887235113873	-0.24384310418681002	-0.4743416490252569	-0.35557950110937986	-0.2773500981126145	-0.5222329678670935	-0.3081753835709564	-0.2665300196340371	-0.2981423969999719	-0.37354368381881425	-0.3179993640019079	-0.5773502691896258	2.6153393661244047	-0.44994887235113873	-0.3370999312316211	-0.39970403251589476	-0.5063696835418333	-0.28787658497487356	-0.24384310418681	-0.4167165638785894	-0.317999364001908	-0.25537695922762454	-0.3081753835709564	-0.4167165638785894	-0.42511515094885177	-0.2981423969999719	-0.2878765849748735	1.7088007490635064	-0.5143113152870138	-0.2981423969999719	-0.25537695922762454	-0.20628424925175864	-0.2981423969999719	1.6861605068622503	-0.21938172723813923	-0.40824829046386296	-0.40824829046386296	2.4494897427831774	-0.2773500981126145	-0.3555795011093798	-0.32763490773780746	-0.24384310418681002	-0.2773500981126145	-0.3555795011093798	-0.3081753835709564	2.7425789196365495	-0.5459058939351292	-0.37354368381881425	-0.2981423969999719	-0.4904144462736839	-0.29814239699997197	-0.4581228472908512	-0.4167165638785894	-0.4581228472908512	-0.3997040325158947	-0.42511515094885177	-0.3997040325158947	-0.2878765849748735	-0.4984050996048313	-0.23186944788008415	-0.37354368381881425	-0.7125253031944253	-0.40824829046386296	-0.3370999312316211	-0.21938172723813923	-0.3910769444375215	-0.2773500981126145	-0.7044027300535327	-0.2878765849748735	-0.3081753835709564	-0.19245008972987537	-0.36462031879561063	-0.787295821622217	-1.4361406616345072	-0.24384310418680993	2.6153393661244047	-0.2773500981126145	-0.2062842492517587	-0.317999364001908	-0.7788179357521117	-0.4581228472908512	-0.3081753835709564	-0.4984050996048313	-0.32763490773780746	-0.21938172723813923	-0.2773500981126146	-0.2981423969999719	-0.4167165638785894	-0.4581228472908512	-0.25537695922762454	-0.3910769444375215	-0.3081753835709564	1.505545305418162	-0.34641016151377535	-0.2773500981126145	-0.32763490773780746	-0.4334498677803327	-1.1078234188139946	-0.4334498677803327	-0.3370999312316211	-0.4984050996048313	-0.5852057359806528	-0.23186944788008415	-0.40824829046386296	-0.3370999312316211	-0.3081753835709564	4.3127717305695645	-0.6721992649890746	-0.5222329678670934	-0.5063696835418333	-0.2665300196340371	-0.5773502691896258	-0.3555795011093798	-0.3081753835709564	-0.24384310418681002	0.2553769592276246	-0.36462031879561063	-0.25537695922762454	-0.3081753835709564	-0.4499488723511388	-0.5930633506894812	-0.37354368381881425	-0.3910769444375215	-0.3997040325158947	-0.4499488723511388	-0.2665300196340371	-0.37354368381881425	-0.3081753835709564	-0.39970403251589476	2.8123105996832765	1.6425934395178774	-0.3370999312316211	-0.24384310418681002	-0.24384310418680993	0.1617962004226434	-0.2981423969999719	-0.3370999312316211	-0.25537695922762454	-0.4662524041201569	-0.5143113152870138	-0.4984050996048313	-1.419642425184812	-0.3179993640019079	-0.25537695922762454	-0.5222329678670934	-0.4904144462736839	-0.3910769444375215	-0.5616371084701743	-0.25537695922762454	-0.34641016151377535	3.1446603773522006	-0.41671656387858935	-0.6087933726884441	-0.4662524041201569	-0.48239444701999135	-0.42511515094885177	-1.755942292142123	-0.3555795011093798	2.5570415597837943	-0.9898474527915804	-0.2665300196340371	-0.4581228472908512	-0.5301374837096382	2.7425789196365495	-0.4167165638785894	-0.48239444701999146	-0.2981423969999719	-0.6562445689730082	-0.37354368381881425	-0.3464101615137754	-0.74535599249993	-0.2553769592276246	-0.26653001963403705	-0.24384310418681	-0.34641016151377535	-0.4167165638785894	3.2449055093647767	-0.38235955645093633	-0.37354368381881425	-0.3555795011093798	6.180614856144978	-0.317999364001908	-0.3910769444375215	-0.37354368381881425	-0.4984050996048313	-0.5301374837096382	-0.2773500981126145	-0.24384310418681	-0.2981423969999719	-0.6087933726884441	-0.39970403251589476	3.354101966249684	0.6642111641550713	-0.36462031879561063	-0.3910769444375215	-0.4167165638785894	-0.25537695922762454	-0.2773500981126145	-0.5301374837096382	-0.25537695922762454	2.4494897427831774	0.7703868735637632	-0.317999364001908	-0.3997040325158947	-0.23186944788008415	3.0521778247153644	-0.8570374987923711	-0.2665300196340371	-0.2773500981126145	-0.2665300196340371	-0.3464101615137754	-0.6166698388447784	-0.6245565802918223	-0.49840509960483137	-0.3179993640019079	-0.2878765849748735	-0.5616371084701743	-0.40824829046386296	-0.4499488723511388	-0.47434164902525694	-0.2981423969999719	-0.3555795011093798	-0.408248290463863	-0.2665300196340371	2.5570415597837943	-0.26653001963403705	-0.5063696835418333	-0.4167165638785894	-0.2665300196340371	-0.21938172723813923	-0.3276349077378074	-0.48239444701999146	-0.37354368381881425	-0.3910769444375215	1.3416407864998738	2.8867513459481287	2.352303835250313	-0.408248290463863	-0.38235955645093633	-0.2665300196340371	-0.3910769444375215	-0.34641016151377535	-0.48239444701999135	-0.26653001963403716	-0.4334498677803327	-0.14433756729740646	1.9748417658131499	-0.4417261042993862	-0.25537695922762454	-0.4417261042993862	3.354101966249684	-0.2981423969999719	2.8123105996832765	-0.3179993640019079	-0.24384310418681002	-0.38235955645093633	-0.26653001963403716	-0.4417261042993862	-0.5063696835418333	-0.3179993640019079	-0.5459058939351291	-0.4662524041201569	-0.36462031879561063	-0.2878765849748735	-0.44994887235113873	-0.2193817272381393	-0.2773500981126145	2.1081851067789197	-0.25537695922762454	-0.6562445689730082	-0.2665300196340371	-0.3081753835709564	-0.3370999312316211	-0.29814239699997197	-0.317999364001908	-0.4334498677803327	-0.38235955645093633	-0.1617962004226434	-0.37354368381881425	-0.3370999312316211	-0.40824829046386296	-0.4167165638785894	-0.3081753835709564	-0.48239444701999135	-0.5222329678670934	-1.4701327567878506	3.915780041490243	2.742578919636549	-0.24384310418681002	-0.4662524041201569
CHEMBL2031895	1.0	1.7805091311075736	-0.7206801266590055	1.8863031397110384	-0.4167165638785894	-0.5852057359806528	-0.2878765849748735	-0.25537695922762454	-0.25537695922762454	-0.4167165638785894	3.1446603773522006	-0.32763490773780746	-0.4581228472908512	-0.2665300196340371	-0.32763490773780746	-0.648297659314349	-0.6562445689730082	-0.1617962004226434	-0.3179993640019079	-0.2878765849748735	-0.38235955645093633	3.1446603773522006	-0.317999364001908	-0.2773500981126145	-0.34641016151377535	-0.20628424925175864	2.8123105996832765	-0.1924500897298753	-0.3179993640019079	-0.38235955645093633	-0.3646203187956106	-0.3179993640019079	-0.4904144462736839	-0.5852057359806528	0.5852057359806528	-0.3370999312316211	-0.317999364001908	-0.6562445689730082	-0.4581228472908512	-0.2878765849748735	-0.2878765849748735	-0.37354368381881425	2.222474733128352	-0.4662524041201569	-0.4904144462736839	-0.2878765849748735	-0.48239444701999146	-0.6802106785137817	-0.23186944788008415	-0.2665300196340371	-0.5459058939351291	-0.47434164902525694	-0.2773500981126145	-0.37354368381881425	-0.42511515094885177	-0.1777046633277277	-0.21938172723813923	-0.3555795011093798	-0.28787658497487356	-0.37354368381881425	-0.2878765849748735	-0.2665300196340371	-0.42511515094885177	-0.317999364001908	-0.3910769444375215	0.8130294884889122	-0.5222329678670934	-0.3997040325158947	-0.3179993640019079	-0.36462031879561063	-0.408248290463863	-0.32763490773780746	-0.3997040325158947	-0.36462031879561063	1.8863031397110384	2.1081851067789197	2.7425789196365495	-0.3997040325158947	-0.5380275868489703	-0.28787658497487356	2.677063067368169	-1.2565617248750864	3.4737107920301407	-0.3081753835709564	-0.34641016151377535	-0.39970403251589476	-0.2773500981126145	-0.317999364001908	-0.32763490773780746	3.751922584079138	-0.21938172723813926	-1.0416843970122254	-0.38235955645093633	-0.3555795011093798	-0.24384310418681002	2.222474733128352	-0.5616371084701743	-0.2665300196340371	2.7425789196365495	3.1446603773522006	-0.2665300196340371	-0.4581228472908512	2.677063067368169	-0.5143113152870139	-0.2665300196340371	-0.21938172723813926	-0.3555795011093798	-0.2665300196340371	-0.3555795011093798	3.2449055093647767	-0.2773500981126145	-0.3910769444375215	-0.4904144462736839	-0.5222329678670934	-0.2981423969999719	-0.4581228472908512	3.751922584079138	-0.4417261042993862	-0.2981423969999719	-0.3555795011093798	-0.4984050996048313	-0.317999364001908	2.1447610589527213	-0.3555795011093798	-0.2773500981126145	-0.24384310418681002	-0.28787658497487356	-0.34641016151377535	-0.37354368381881425	0.8750804338835177	-0.40824829046386296	-0.3081753835709564	-0.2665300196340371	-0.34641016151377535	-0.4334498677803327	-0.5063696835418333	3.751922584079138	-0.7703868735637632	-0.2665300196340371	0.6642111641550713	-0.4581228472908512	-0.5143113152870138	-0.23186944788008415	2.5570415597837943	-0.23186944788008415	-0.7370936756031577	-0.37354368381881425	-0.4167165638785895	-1.0206207261596576	2.8867513459481287	-0.317999364001908	-0.2665300196340371	-0.3179993640019079	3.6055512754639887	-0.4904144462736839	-0.408248290463863	-0.39970403251589476	-0.3370999312316211	-0.5694947974514993	-0.37354368381881425	-0.3370999312316211	1.505545305418162	2.8123105996832765	-0.4334498677803327	-0.5852057359806528	-0.25537695922762454	-0.4334498677803327	-0.25537695922762454	-0.36462031879561063	-0.40824829046386296	-0.3081753835709564	-0.20628424925175864	-0.3370999312316211	-0.38235955645093633	-0.21938172723813926	-0.2981423969999719	1.0523910308057693	-0.2665300196340371	-0.3555795011093798	-0.32763490773780746	-0.2665300196340371	-0.40824829046386296	-0.3646203187956106	-0.5380275868489703	1.0964703329371188	2.9664793948382653	-0.35557950110937986	1.4876541110413943	2.1081851067789197	1.7805091311075736	-0.2773500981126145	3.1446603773522006	1.6011359603844901	-0.2665300196340371	-0.39970403251589476	-0.2878765849748735	-0.2193817272381393	-0.7206801266590055	-0.42511515094885177	-0.32763490773780746	-0.4904144462736839	-0.6642111641550715	-0.2878765849748735	-0.6324555320336758	1.7320508075688774	-0.32763490773780746	-0.24384310418681	-0.34641016151377546	-0.317999364001908	3.1446603773522006	-0.5380275868489705	4.847679857416329	2.182820625326997	-0.4417261042993862	-0.4581228472908512	0.4417261042993862	-0.2878765849748735	1.7320508075688774	-0.3370999312316211	-0.6009252125773317	-0.38235955645093633	-0.23186944788008415	-0.4167165638785894	-0.44994887235113873	-0.24384310418681002	-0.4743416490252569	-0.35557950110937986	-0.2773500981126145	-0.5222329678670935	-0.3081753835709564	-0.2665300196340371	3.354101966249684	-0.37354368381881425	3.1446603773522006	-0.5773502691896258	-0.38235955645093633	-0.44994887235113873	-0.3370999312316211	-0.39970403251589476	-0.5063696835418333	-0.28787658497487356	-0.24384310418681	-0.4167165638785894	-0.317999364001908	-0.25537695922762454	-0.3081753835709564	-0.4167165638785894	-0.42511515094885177	3.3541019662496834	-0.2878765849748735	1.7088007490635064	-0.5143113152870138	-0.2981423969999719	-0.25537695922762454	-0.20628424925175864	-0.2981423969999719	-0.5930633506894812	-0.21938172723813923	-0.40824829046386296	-0.40824829046386296	2.4494897427831774	-0.2773500981126145	-0.3555795011093798	-0.32763490773780746	-0.24384310418681002	-0.2773500981126145	-0.3555795011093798	-0.3081753835709564	-0.36462031879561063	1.831817555204545	-0.37354368381881425	-0.2981423969999719	-0.4904144462736839	-0.29814239699997197	-0.4581228472908512	-0.4167165638785894	2.182820625326997	-0.3997040325158947	-0.42511515094885177	-0.3997040325158947	-0.2878765849748735	2.0064000163579108	-0.23186944788008415	-0.37354368381881425	-0.7125253031944253	-0.40824829046386296	-0.3370999312316211	4.558264777059114	-0.3910769444375215	-0.2773500981126145	1.419642425184812	-0.2878765849748735	-0.3081753835709564	-0.19245008972987537	-0.36462031879561063	-0.787295821622217	0.6963106238227912	4.100997661323621	-0.38235955645093633	-0.2773500981126145	-0.2062842492517587	-0.317999364001908	-0.7788179357521117	-0.4581228472908512	-0.3081753835709564	2.0064000163579108	-0.32763490773780746	-0.21938172723813923	-0.2773500981126146	-0.2981423969999719	-0.4167165638785894	-0.4581228472908512	-0.25537695922762454	-0.3910769444375215	-0.3081753835709564	1.505545305418162	-0.34641016151377535	-0.2773500981126145	-0.32763490773780746	-0.4334498677803327	-1.1078234188139946	-0.4334498677803327	-0.3370999312316211	-0.4984050996048313	-0.5852057359806528	-0.23186944788008415	-0.40824829046386296	-0.3370999312316211	3.2449055093647767	-0.23186944788008415	1.4876541110413943	1.914854215512676	1.9748417658131503	-0.2665300196340371	1.7320508075688774	-0.3555795011093798	-0.3081753835709564	-0.24384310418681002	0.2553769592276246	-0.36462031879561063	-0.25537695922762454	-0.3081753835709564	-0.4499488723511388	-0.5930633506894812	-0.37354368381881425	-0.3910769444375215	-0.3997040325158947	-0.4499488723511388	-0.2665300196340371	-0.37354368381881425	-0.3081753835709564	-0.39970403251589476	-0.3555795011093798	-0.6087933726884441	-0.3370999312316211	-0.24384310418681002	-0.24384310418680993	0.1617962004226434	-0.2981423969999719	-0.3370999312316211	-0.25537695922762454	-0.4662524041201569	-0.5143113152870138	-0.4984050996048313	0.7044027300535327	-0.3179993640019079	-0.25537695922762454	1.914854215512676	2.0390916450326855	-0.3910769444375215	1.7805091311075736	-0.25537695922762454	-0.34641016151377535	-0.317999364001908	-0.41671656387858935	-0.6087933726884441	-0.4662524041201569	-0.48239444701999135	-0.42511515094885177	0.5694947974514993	-0.3555795011093798	-0.3910769444375215	1.0102566786223346	-0.2665300196340371	-0.4581228472908512	-0.5301374837096382	-0.36462031879561063	-0.4167165638785894	-0.48239444701999146	-0.2981423969999719	1.5238221347339345	-0.37354368381881425	-0.3464101615137754	1.3416407864998738	-0.2553769592276246	-0.26653001963403705	-0.24384310418681	-0.34641016151377535	-0.4167165638785894	-0.3081753835709564	-0.38235955645093633	-0.37354368381881425	-0.3555795011093798	-0.1617962004226434	-0.317999364001908	-0.3910769444375215	-0.37354368381881425	-0.4984050996048313	-0.5301374837096382	-0.2773500981126145	4.100997661323622	-0.2981423969999719	1.6425934395178774	2.5018511664883785	-0.2981423969999719	-1.5055453054181616	-0.36462031879561063	-0.3910769444375215	-0.4167165638785894	-0.25537695922762454	-0.2773500981126145	-0.5301374837096382	-0.25537695922762454	-0.40824829046386296	0.7703868735637632	-0.317999364001908	-0.3997040325158947	-0.23186944788008415	-0.32763490773780746	1.1668100887173243	-0.2665300196340371	3.6055512754639887	-0.2665300196340371	-0.3464101615137754	-0.6166698388447784	1.6011359603844901	2.006400016357911	-0.3179993640019079	-0.2878765849748735	-0.5616371084701743	-0.40824829046386296	-0.4499488723511388	-0.47434164902525694	3.3541019662496834	-0.3555795011093798	-0.408248290463863	-0.2665300196340371	-0.3910769444375215	-0.26653001963403705	-0.5063696835418333	-0.4167165638785894	-0.2665300196340371	-0.21938172723813923	-0.3276349077378074	-0.48239444701999146	-0.37354368381881425	-0.3910769444375215	-0.74535599249993	-0.3464101615137754	-0.42511515094885177	-0.408248290463863	-0.38235955645093633	-0.2665300196340371	-0.3910769444375215	-0.34641016151377535	-0.48239444701999135	-0.26653001963403716	-0.4334498677803327	-0.14433756729740646	-0.5063696835418332	-0.4417261042993862	-0.25537695922762454	-0.4417261042993862	-0.2981423969999719	-0.2981423969999719	-0.3555795011093798	-0.3179993640019079	-0.24384310418681002	-0.38235955645093633	-0.26653001963403716	-0.4417261042993862	-0.5063696835418333	-0.3179993640019079	-0.5459058939351291	-0.4662524041201569	-0.36462031879561063	-0.2878765849748735	2.2224747331283514	-0.2193817272381393	-0.2773500981126145	-0.47434164902525694	-0.25537695922762454	-0.6562445689730082	3.751922584079138	-0.3081753835709564	-0.3370999312316211	-0.29814239699997197	-0.317999364001908	2.307071876895319	-0.38235955645093633	-0.1617962004226434	-0.37354368381881425	-0.3370999312316211	-0.40824829046386296	-0.4167165638785894	3.2449055093647767	-0.48239444701999135	-0.5222329678670934	-1.4701327567878506	-0.25537695922762454	-0.3646203187956106	-0.24384310418681002	-0.4662524041201569
CHEMBL561667	1.0	-0.5616371084701743	-0.7206801266590055	-0.5301374837096382	-0.4167165638785894	-0.5852057359806528	-0.2878765849748735	-0.25537695922762454	-0.25537695922762454	-0.4167165638785894	-0.317999364001908	-0.32763490773780746	-0.4581228472908512	-0.2665300196340371	-0.32763490773780746	-0.648297659314349	-0.6562445689730082	-0.1617962004226434	3.1446603773522006	-0.2878765849748735	-0.38235955645093633	3.1446603773522006	-0.317999364001908	-0.2773500981126145	-0.34641016151377535	-0.20628424925175864	-0.35557950110937986	5.196152422706633	-0.3179993640019079	-0.38235955645093633	-0.3646203187956106	-0.3179993640019079	-0.4904144462736839	-0.5852057359806528	0.5852057359806528	-0.3370999312316211	3.1446603773522006	-0.6562445689730082	-0.4581228472908512	3.4737107920301407	3.4737107920301407	-0.37354368381881425	-0.4499488723511388	-0.4662524041201569	-0.4904144462736839	-0.2878765849748735	-0.48239444701999146	-0.6802106785137817	-0.23186944788008415	-0.2665300196340371	-0.5459058939351291	-0.47434164902525694	-0.2773500981126145	-0.37354368381881425	-0.42511515094885177	5.627314338711377	-0.21938172723813923	-0.3555795011093798	-0.28787658497487356	-0.37354368381881425	-0.2878765849748735	-0.2665300196340371	-0.42511515094885177	-0.317999364001908	-0.3910769444375215	-1.2299676877139956	1.914854215512676	-0.3997040325158947	-0.3179993640019079	-0.36462031879561063	2.449489742783178	-0.32763490773780746	-0.3997040325158947	-0.36462031879561063	-0.5301374837096382	2.1081851067789197	-0.36462031879561063	-0.3997040325158947	-0.5380275868489703	-0.28787658497487356	-0.37354368381881425	0.7958224257542214	-0.2878765849748735	-0.3081753835709564	-0.34641016151377535	-0.39970403251589476	-0.2773500981126145	-0.317999364001908	-0.32763490773780746	-0.2665300196340371	-0.21938172723813926	0.9599836599916585	-0.38235955645093633	-0.3555795011093798	-0.24384310418681002	-0.4499488723511388	-0.5616371084701743	-0.2665300196340371	-0.36462031879561063	-0.317999364001908	-0.2665300196340371	-0.4581228472908512	-0.37354368381881425	-0.5143113152870139	-0.2665300196340371	-0.21938172723813926	-0.3555795011093798	-0.2665300196340371	-0.3555795011093798	-0.3081753835709564	-0.2773500981126145	2.5570415597837943	-0.4904144462736839	-0.5222329678670934	-0.2981423969999719	2.182820625326997	-0.2665300196340371	-0.4417261042993862	-0.2981423969999719	-0.3555795011093798	-0.4984050996048313	-0.317999364001908	-0.4662524041201569	-0.3555795011093798	-0.2773500981126145	-0.24384310418681002	-0.28787658497487356	-0.34641016151377535	-0.37354368381881425	-1.1427520960125939	-0.40824829046386296	-0.3081753835709564	-0.2665300196340371	-0.34641016151377535	-0.4334498677803327	-0.5063696835418333	-0.2665300196340371	-0.7703868735637632	-0.2665300196340371	0.6642111641550713	-0.4581228472908512	-0.5143113152870138	-0.23186944788008415	-0.3910769444375215	-0.23186944788008415	-0.7370936756031577	2.677063067368169	-0.4167165638785895	0.9797958971132712	-0.3464101615137754	-0.317999364001908	-0.2665300196340371	-0.3179993640019079	-0.2773500981126145	-0.4904144462736839	-0.408248290463863	-0.39970403251589476	-0.3370999312316211	-0.5694947974514993	-0.37354368381881425	-0.3370999312316211	-0.6642111641550715	-0.3555795011093798	-0.4334498677803327	-0.5852057359806528	-0.25537695922762454	-0.4334498677803327	-0.25537695922762454	-0.36462031879561063	-0.40824829046386296	-0.3081753835709564	-0.20628424925175864	-0.3370999312316211	-0.38235955645093633	-0.21938172723813926	-0.2981423969999719	-0.9502171443197724	-0.2665300196340371	-0.3555795011093798	-0.32763490773780746	-0.2665300196340371	-0.40824829046386296	-0.3646203187956106	1.85864075456917	1.0964703329371188	-0.3370999312316211	-0.35557950110937986	1.4876541110413943	-0.47434164902525694	-0.5616371084701743	-0.2773500981126145	-0.317999364001908	-0.6245565802918223	-0.2665300196340371	-0.39970403251589476	-0.2878765849748735	-0.2193817272381393	-0.7206801266590055	-0.42511515094885177	-0.32763490773780746	-0.4904144462736839	-0.6642111641550715	-0.2878765849748735	-0.6324555320336758	-0.5773502691896258	-0.32763490773780746	-0.24384310418681	-0.34641016151377546	-0.317999364001908	-0.317999364001908	1.8586407545691706	-0.2062842492517587	-0.4581228472908512	-0.4417261042993862	-0.4581228472908512	0.4417261042993862	-0.2878765849748735	-0.5773502691896258	-0.3370999312316211	-0.6009252125773317	-0.38235955645093633	-0.23186944788008415	-0.4167165638785894	-0.44994887235113873	-0.24384310418681002	-0.4743416490252569	-0.35557950110937986	3.6055512754639887	-0.5222329678670935	-0.3081753835709564	-0.2665300196340371	-0.2981423969999719	2.677063067368169	-0.3179993640019079	-0.5773502691896258	-0.38235955645093633	-0.44994887235113873	-0.3370999312316211	-0.39970403251589476	-0.5063696835418333	-0.28787658497487356	-0.24384310418681	-0.4167165638785894	-0.317999364001908	-0.25537695922762454	-0.3081753835709564	-0.4167165638785894	-0.42511515094885177	3.3541019662496834	-0.2878765849748735	-0.5852057359806528	-0.5143113152870138	-0.2981423969999719	-0.25537695922762454	-0.20628424925175864	-0.2981423969999719	-0.5930633506894812	-0.21938172723813923	-0.40824829046386296	2.4494897427831774	-0.40824829046386296	-0.2773500981126145	-0.3555795011093798	-0.32763490773780746	4.100997661323623	-0.2773500981126145	-0.3555795011093798	-0.3081753835709564	-0.36462031879561063	-0.5459058939351292	-0.37354368381881425	-0.2981423969999719	-0.4904144462736839	-0.29814239699997197	-0.4581228472908512	-0.4167165638785894	-0.4581228472908512	-0.3997040325158947	-0.42511515094885177	-0.3997040325158947	-0.2878765849748735	-0.4984050996048313	-0.23186944788008415	-0.37354368381881425	-0.7125253031944253	-0.40824829046386296	-0.3370999312316211	-0.21938172723813923	-0.3910769444375215	-0.2773500981126145	-0.7044027300535327	-0.2878765849748735	-0.3081753835709564	-0.19245008972987537	-0.36462031879561063	1.2701705922171767	0.6963106238227912	-0.24384310418680993	-0.38235955645093633	-0.2773500981126145	-0.2062842492517587	-0.317999364001908	-0.7788179357521117	-0.4581228472908512	-0.3081753835709564	-0.4984050996048313	-0.32763490773780746	-0.21938172723813923	-0.2773500981126146	3.3541019662496834	-0.4167165638785894	-0.4581228472908512	-0.25537695922762454	-0.3910769444375215	-0.3081753835709564	-0.6642111641550715	-0.34641016151377535	-0.2773500981126145	-0.32763490773780746	-0.4334498677803327	-1.1078234188139946	-0.4334498677803327	-0.3370999312316211	-0.4984050996048313	1.7088007490635064	-0.23186944788008415	-0.40824829046386296	-0.3370999312316211	-0.3081753835709564	-0.23186944788008415	-0.6721992649890746	-0.5222329678670934	-0.5063696835418333	-0.2665300196340371	-0.5773502691896258	-0.3555795011093798	-0.3081753835709564	-0.24384310418681002	-3.915780041490244	-0.36462031879561063	-0.25537695922762454	-0.3081753835709564	-0.4499488723511388	1.6861605068622505	-0.37354368381881425	-0.3910769444375215	-0.3997040325158947	-0.4499488723511388	-0.2665300196340371	-0.37354368381881425	-0.3081753835709564	-0.39970403251589476	2.8123105996832765	-0.6087933726884441	-0.3370999312316211	-0.24384310418681002	-0.24384310418680993	0.1617962004226434	-0.2981423969999719	-0.3370999312316211	-0.25537695922762454	-0.4662524041201569	-0.5143113152870138	-0.4984050996048313	-1.419642425184812	-0.3179993640019079	-0.25537695922762454	-0.5222329678670934	-0.4904144462736839	-0.3910769444375215	-0.5616371084701743	-0.25537695922762454	-0.34641016151377535	-0.317999364001908	-0.41671656387858935	-0.6087933726884441	-0.4662524041201569	-0.48239444701999135	-0.42511515094885177	-1.755942292142123	-0.3555795011093798	-0.3910769444375215	1.0102566786223346	-0.2665300196340371	-0.4581228472908512	-0.5301374837096382	-0.36462031879561063	-0.4167165638785894	-0.48239444701999146	-0.2981423969999719	-0.6562445689730082	-0.37354368381881425	-0.3464101615137754	1.3416407864998738	-0.2553769592276246	-0.26653001963403705	-0.24384310418681	-0.34641016151377535	-0.4167165638785894	-0.3081753835709564	-0.38235955645093633	-0.37354368381881425	-0.3555795011093798	-0.1617962004226434	-0.317999364001908	-0.3910769444375215	-0.37354368381881425	-0.4984050996048313	-0.5301374837096382	-0.2773500981126145	-0.24384310418681	-0.2981423969999719	-0.6087933726884441	-0.39970403251589476	-0.2981423969999719	-1.5055453054181616	-0.36462031879561063	-0.3910769444375215	-0.4167165638785894	-0.25537695922762454	-0.2773500981126145	-0.5301374837096382	-0.25537695922762454	2.4494897427831774	-1.2980491157307241	-0.317999364001908	-0.3997040325158947	-0.23186944788008415	-0.32763490773780746	-0.8570374987923711	-0.2665300196340371	-0.2773500981126145	-0.2665300196340371	-0.3464101615137754	-0.6166698388447784	-0.6245565802918223	-0.49840509960483137	-0.3179993640019079	-0.2878765849748735	-0.5616371084701743	-0.40824829046386296	-0.4499488723511388	2.1081851067789197	-0.2981423969999719	-0.3555795011093798	-0.408248290463863	-0.2665300196340371	-0.3910769444375215	-0.26653001963403705	-0.5063696835418333	-0.4167165638785894	-0.2665300196340371	-0.21938172723813923	-0.3276349077378074	-0.48239444701999146	-0.37354368381881425	-0.3910769444375215	-0.74535599249993	-0.3464101615137754	-0.42511515094885177	-0.408248290463863	-0.38235955645093633	-0.2665300196340371	2.5570415597837943	-0.34641016151377535	-0.48239444701999135	-0.26653001963403716	-0.4334498677803327	6.92820323027551	-0.5063696835418332	-0.4417261042993862	-0.25537695922762454	2.2638462845343543	-0.2981423969999719	-0.2981423969999719	-0.3555795011093798	-0.3179993640019079	-0.24384310418681002	-0.38235955645093633	-0.26653001963403716	-0.4417261042993862	-0.5063696835418333	-0.3179993640019079	-0.5459058939351291	-0.4662524041201569	-0.36462031879561063	-0.2878765849748735	-0.44994887235113873	-0.2193817272381393	-0.2773500981126145	-0.47434164902525694	-0.25537695922762454	-0.6562445689730082	3.751922584079138	-0.3081753835709564	-0.3370999312316211	-0.29814239699997197	-0.317999364001908	-0.4334498677803327	2.6153393661244047	-0.1617962004226434	-0.37354368381881425	-0.3370999312316211	-0.40824829046386296	-0.4167165638785894	-0.3081753835709564	-0.48239444701999135	-0.5222329678670934	-1.4701327567878506	-0.25537695922762454	-0.3646203187956106	-0.24384310418681002	-0.4662524041201569
CHEMBL3806280	1.0	-0.5616371084701743	-0.7206801266590055	1.8863031397110384	2.399712626473256	1.7088007490635062	-0.2878765849748735	-0.25537695922762454	-0.25537695922762454	-0.4167165638785894	-0.317999364001908	-0.32763490773780746	-0.4581228472908512	-0.2665300196340371	-0.32763490773780746	1.5425013273341408	-0.6562445689730082	-0.1617962004226434	-0.3179993640019079	-0.2878765849748735	-0.38235955645093633	-0.317999364001908	-0.317999364001908	-0.2773500981126145	-0.34641016151377535	-0.20628424925175864	2.8123105996832765	-0.1924500897298753	-0.3179993640019079	-0.38235955645093633	2.742578919636549	-0.3179993640019079	-0.4904144462736839	-0.5852057359806528	0.5852057359806528	-0.3370999312316211	-0.317999364001908	-0.6562445689730082	-0.4581228472908512	-0.2878765849748735	-0.2878765849748735	-0.37354368381881425	-0.4499488723511388	-0.4662524041201569	-0.4904144462736839	-0.2878765849748735	-0.48239444701999146	-0.6802106785137817	-0.23186944788008415	-0.2665300196340371	-0.5459058939351291	2.1081851067789197	-0.2773500981126145	-0.37354368381881425	-0.42511515094885177	-0.1777046633277277	-0.21938172723813923	2.8123105996832765	-0.28787658497487356	-0.37354368381881425	-0.2878765849748735	-0.2665300196340371	-0.42511515094885177	-0.317999364001908	-0.3910769444375215	-1.2299676877139956	-0.5222329678670934	-0.3997040325158947	3.1446603773522006	2.7425789196365495	-0.408248290463863	-0.32763490773780746	-0.3997040325158947	-0.36462031879561063	-0.5301374837096382	2.1081851067789197	-0.36462031879561063	-0.3997040325158947	-0.5380275868489703	3.473710792030141	-0.37354368381881425	0.7958224257542214	-0.2878765849748735	-0.3081753835709564	-0.34641016151377535	-0.39970403251589476	-0.2773500981126145	-0.317999364001908	-0.32763490773780746	-0.2665300196340371	-0.21938172723813926	0.9599836599916585	2.6153393661244047	-0.3555795011093798	-0.24384310418681002	-0.4499488723511388	-0.5616371084701743	-0.2665300196340371	-0.36462031879561063	-0.317999364001908	-0.2665300196340371	2.182820625326997	-0.37354368381881425	-0.5143113152870139	-0.2665300196340371	-0.21938172723813926	-0.3555795011093798	-0.2665300196340371	-0.3555795011093798	3.2449055093647767	-0.2773500981126145	-0.3910769444375215	-0.4904144462736839	-0.5222329678670934	-0.2981423969999719	-0.4581228472908512	-0.2665300196340371	-0.4417261042993862	-0.2981423969999719	-0.3555795011093798	2.0064000163579108	-0.317999364001908	2.1447610589527213	2.8123105996832765	-0.2773500981126145	-0.24384310418681002	3.473710792030141	-0.34641016151377535	-0.37354368381881425	0.8750804338835177	-0.40824829046386296	-0.3081753835709564	-0.2665300196340371	-0.34641016151377535	-0.4334498677803327	1.9748417658131503	-0.2665300196340371	-0.7703868735637632	-0.2665300196340371	0.6642111641550713	-0.4581228472908512	-0.5143113152870138	-0.23186944788008415	-0.3910769444375215	-0.23186944788008415	-0.7370936756031577	-0.37354368381881425	-0.4167165638785895	-1.0206207261596576	-0.3464101615137754	-0.317999364001908	-0.2665300196340371	3.1446603773522006	-0.2773500981126145	-0.4904144462736839	-0.408248290463863	-0.39970403251589476	-0.3370999312316211	-0.5694947974514993	-0.37354368381881425	-0.3370999312316211	-0.6642111641550715	2.8123105996832765	-0.4334498677803327	-0.5852057359806528	-0.25537695922762454	2.307071876895319	-0.25537695922762454	-0.36462031879561063	-0.40824829046386296	-0.3081753835709564	-0.20628424925175864	-0.3370999312316211	2.6153393661244047	-0.21938172723813926	-0.2981423969999719	1.0523910308057693	-0.2665300196340371	-0.3555795011093798	-0.32763490773780746	-0.2665300196340371	-0.40824829046386296	-0.3646203187956106	-0.5380275868489703	-0.9120173797327437	-0.3370999312316211	-0.35557950110937986	-0.6721992649890746	2.1081851067789197	-0.5616371084701743	-0.2773500981126145	-0.317999364001908	1.6011359603844901	-0.2665300196340371	2.5018511664883785	-0.2878765849748735	-0.2193817272381393	1.3875781543136076	-0.42511515094885177	-0.32763490773780746	-0.4904144462736839	1.505545305418162	-0.2878765849748735	-0.6324555320336758	-0.5773502691896258	-0.32763490773780746	-0.24384310418681	-0.34641016151377546	3.1446603773522006	3.1446603773522006	-0.5380275868489705	4.847679857416329	-0.4581228472908512	2.2638462845343543	-0.4581228472908512	0.4417261042993862	-0.2878765849748735	-0.5773502691896258	2.9664793948382653	1.6641005886756874	-0.38235955645093633	-0.23186944788008415	2.399712626473256	-0.44994887235113873	-0.24384310418681002	-0.4743416490252569	-0.35557950110937986	-0.2773500981126145	1.9148542155126764	-0.3081753835709564	-0.2665300196340371	-0.2981423969999719	-0.37354368381881425	-0.3179993640019079	1.7320508075688774	-0.38235955645093633	-0.44994887235113873	-0.3370999312316211	2.5018511664883785	-0.5063696835418333	-0.28787658497487356	-0.24384310418681	-0.4167165638785894	-0.317999364001908	-0.25537695922762454	-0.3081753835709564	-0.4167165638785894	-0.42511515094885177	-0.2981423969999719	-0.2878765849748735	-0.5852057359806528	-0.5143113152870138	-0.2981423969999719	-0.25537695922762454	-0.20628424925175864	-0.2981423969999719	1.6861605068622503	-0.21938172723813923	-0.40824829046386296	-0.40824829046386296	2.4494897427831774	-0.2773500981126145	-0.3555795011093798	-0.32763490773780746	-0.24384310418681002	-0.2773500981126145	-0.3555795011093798	3.2449055093647767	-0.36462031879561063	-0.5459058939351292	-0.37354368381881425	-0.2981423969999719	-0.4904144462736839	-0.29814239699997197	-0.4581228472908512	-0.4167165638785894	-0.4581228472908512	-0.3997040325158947	-0.42511515094885177	2.501851166488378	-0.2878765849748735	2.0064000163579108	-0.23186944788008415	-0.37354368381881425	-0.7125253031944253	-0.40824829046386296	-0.3370999312316211	-0.21938172723813923	-0.3910769444375215	3.6055512754639882	1.419642425184812	-0.2878765849748735	-0.3081753835709564	-0.19245008972987537	-0.36462031879561063	-0.787295821622217	0.6963106238227912	4.100997661323621	2.6153393661244047	-0.2773500981126145	-0.2062842492517587	-0.317999364001908	-0.7788179357521117	-0.4581228472908512	-0.3081753835709564	-0.4984050996048313	-0.32763490773780746	-0.21938172723813923	3.6055512754639896	-0.2981423969999719	-0.4167165638785894	2.182820625326997	-0.25537695922762454	-0.3910769444375215	-0.3081753835709564	-0.6642111641550715	-0.34641016151377535	-0.2773500981126145	-0.32763490773780746	-0.4334498677803327	-1.1078234188139946	-0.4334498677803327	-0.3370999312316211	-0.4984050996048313	-0.5852057359806528	4.3127717305695645	-0.40824829046386296	-0.3370999312316211	-0.3081753835709564	4.3127717305695645	-0.6721992649890746	-0.5222329678670934	-0.5063696835418333	-0.2665300196340371	1.7320508075688774	-0.3555795011093798	3.2449055093647767	-0.24384310418681002	0.2553769592276246	-0.36462031879561063	-0.25537695922762454	-0.3081753835709564	-0.4499488723511388	-0.5930633506894812	-0.37354368381881425	2.5570415597837943	-0.3997040325158947	-0.4499488723511388	3.751922584079138	-0.37354368381881425	-0.3081753835709564	-0.39970403251589476	-0.3555795011093798	-0.6087933726884441	-0.3370999312316211	-0.24384310418681002	-0.24384310418680993	0.1617962004226434	-0.2981423969999719	-0.3370999312316211	-0.25537695922762454	-0.4662524041201569	1.9443476553533445	-0.4984050996048313	0.7044027300535327	-0.3179993640019079	-0.25537695922762454	1.914854215512676	-0.4904144462736839	-0.3910769444375215	-0.5616371084701743	-0.25537695922762454	-0.34641016151377535	-0.317999364001908	-0.41671656387858935	1.6425934395178774	-0.4662524041201569	-0.48239444701999135	-0.42511515094885177	0.5694947974514993	-0.3555795011093798	-0.3910769444375215	1.0102566786223346	-0.2665300196340371	-0.4581228472908512	-0.5301374837096382	-0.36462031879561063	-0.4167165638785894	-0.48239444701999146	-0.2981423969999719	-0.6562445689730082	-0.37354368381881425	-0.3464101615137754	1.3416407864998738	-0.2553769592276246	-0.26653001963403705	-0.24384310418681	-0.34641016151377535	-0.4167165638785894	-0.3081753835709564	-0.38235955645093633	-0.37354368381881425	-0.3555795011093798	-0.1617962004226434	3.1446603773522006	-0.3910769444375215	-0.37354368381881425	2.0064000163579108	1.8863031397110384	-0.2773500981126145	-0.24384310418681	-0.2981423969999719	-0.6087933726884441	-0.39970403251589476	-0.2981423969999719	0.6642111641550713	-0.36462031879561063	-0.3910769444375215	-0.4167165638785894	-0.25537695922762454	-0.2773500981126145	-0.5301374837096382	-0.25537695922762454	-0.40824829046386296	0.7703868735637632	-0.317999364001908	-0.3997040325158947	-0.23186944788008415	-0.32763490773780746	-0.8570374987923711	-0.2665300196340371	-0.2773500981126145	-0.2665300196340371	2.8867513459481287	-0.6166698388447784	-0.6245565802918223	-0.49840509960483137	-0.3179993640019079	-0.2878765849748735	-0.5616371084701743	2.4494897427831774	-0.4499488723511388	2.1081851067789197	-0.2981423969999719	-0.3555795011093798	-0.408248290463863	-0.2665300196340371	-0.3910769444375215	-0.26653001963403705	-0.5063696835418333	2.399712626473256	-0.2665300196340371	-0.21938172723813923	-0.3276349077378074	-0.48239444701999146	-0.37354368381881425	2.5570415597837943	1.3416407864998738	-0.3464101615137754	-0.42511515094885177	-0.408248290463863	-0.38235955645093633	-0.2665300196340371	-0.3910769444375215	-0.34641016151377535	-0.48239444701999135	-0.26653001963403716	-0.4334498677803327	-0.14433756729740646	1.9748417658131499	-0.4417261042993862	-0.25537695922762454	-0.4417261042993862	-0.2981423969999719	-0.2981423969999719	-0.3555795011093798	-0.3179993640019079	-0.24384310418681002	-0.38235955645093633	-0.26653001963403716	-0.4417261042993862	-0.5063696835418333	-0.3179993640019079	-0.5459058939351291	2.1447610589527213	2.7425789196365495	-0.2878765849748735	2.2224747331283514	-0.2193817272381393	-0.2773500981126145	-0.47434164902525694	-0.25537695922762454	1.5238221347339345	-0.2665300196340371	-0.3081753835709564	-0.3370999312316211	3.3541019662496843	3.1446603773522006	-0.4334498677803327	-0.38235955645093633	-0.1617962004226434	-0.37354368381881425	-0.3370999312316211	-0.40824829046386296	-0.4167165638785894	-0.3081753835709564	-0.48239444701999135	-0.5222329678670934	0.6802106785137817	-0.25537695922762454	-0.3646203187956106	-0.24384310418681002	-0.4662524041201569
CHEMBL397666	1.0	-0.5616371084701743	-0.7206801266590055	-0.5301374837096382	-0.4167165638785894	-0.5852057359806528	-0.2878765849748735	-0.25537695922762454	3.915780041490243	-0.4167165638785894	-0.317999364001908	-0.32763490773780746	-0.4581228472908512	-0.2665300196340371	-0.32763490773780746	-0.648297659314349	-0.6562445689730082	-0.1617962004226434	-0.3179993640019079	-0.2878765849748735	-0.38235955645093633	-0.317999364001908	-0.317999364001908	-0.2773500981126145	-0.34641016151377535	-0.20628424925175864	-0.35557950110937986	-0.1924500897298753	3.1446603773522006	-0.38235955645093633	-0.3646203187956106	-0.3179993640019079	-0.4904144462736839	-0.5852057359806528	0.5852057359806528	2.9664793948382653	-0.317999364001908	-0.6562445689730082	-0.4581228472908512	-0.2878765849748735	-0.2878765849748735	-0.37354368381881425	2.222474733128352	-0.4662524041201569	-0.4904144462736839	-0.2878765849748735	-0.48239444701999146	-0.6802106785137817	-0.23186944788008415	-0.2665300196340371	-0.5459058939351291	-0.47434164902525694	-0.2773500981126145	-0.37354368381881425	-0.42511515094885177	-0.1777046633277277	-0.21938172723813923	-0.3555795011093798	-0.28787658497487356	-0.37354368381881425	-0.2878765849748735	-0.2665300196340371	-0.42511515094885177	-0.317999364001908	-0.3910769444375215	0.8130294884889122	1.914854215512676	-0.3997040325158947	3.1446603773522006	-0.36462031879561063	-0.408248290463863	-0.32763490773780746	-0.3997040325158947	-0.36462031879561063	1.8863031397110384	-0.47434164902525694	-0.36462031879561063	-0.3997040325158947	1.85864075456917	-0.28787658497487356	-0.37354368381881425	0.7958224257542214	-0.2878765849748735	-0.3081753835709564	2.886751345948128	-0.39970403251589476	-0.2773500981126145	-0.317999364001908	-0.32763490773780746	-0.2665300196340371	-0.21938172723813926	0.9599836599916585	-0.38235955645093633	-0.3555795011093798	-0.24384310418681002	2.222474733128352	-0.5616371084701743	-0.2665300196340371	-0.36462031879561063	-0.317999364001908	-0.2665300196340371	-0.4581228472908512	-0.37354368381881425	-0.5143113152870139	-0.2665300196340371	-0.21938172723813926	-0.3555795011093798	-0.2665300196340371	-0.3555795011093798	-0.3081753835709564	-0.2773500981126145	2.5570415597837943	-0.4904144462736839	1.914854215512676	-0.2981423969999719	-0.4581228472908512	-0.2665300196340371	-0.4417261042993862	-0.2981423969999719	2.8123105996832765	-0.4984050996048313	-0.317999364001908	-0.4662524041201569	-0.3555795011093798	-0.2773500981126145	-0.24384310418681002	-0.28787658497487356	-0.34641016151377535	-0.37354368381881425	0.8750804338835177	2.4494897427831774	-0.3081753835709564	3.751922584079138	2.886751345948128	2.307071876895319	-0.5063696835418333	-0.2665300196340371	-0.7703868735637632	-0.2665300196340371	0.6642111641550713	-0.4581228472908512	-0.5143113152870138	-0.23186944788008415	-0.3910769444375215	-0.23186944788008415	-0.7370936756031577	-0.37354368381881425	-0.4167165638785895	-1.0206207261596576	-0.3464101615137754	-0.317999364001908	-0.2665300196340371	-0.3179993640019079	-0.2773500981126145	-0.4904144462736839	-0.408248290463863	-0.39970403251589476	-0.3370999312316211	-0.5694947974514993	-0.37354368381881425	-0.3370999312316211	-0.6642111641550715	-0.3555795011093798	-0.4334498677803327	-0.5852057359806528	-0.25537695922762454	-0.4334498677803327	-0.25537695922762454	-0.36462031879561063	-0.40824829046386296	-0.3081753835709564	-0.20628424925175864	-0.3370999312316211	2.6153393661244047	-0.21938172723813926	-0.2981423969999719	1.0523910308057693	-0.2665300196340371	-0.3555795011093798	-0.32763490773780746	-0.2665300196340371	-0.40824829046386296	-0.3646203187956106	-0.5380275868489703	-0.9120173797327437	-0.3370999312316211	-0.35557950110937986	1.4876541110413943	-0.47434164902525694	-0.5616371084701743	-0.2773500981126145	-0.317999364001908	-0.6245565802918223	-0.2665300196340371	-0.39970403251589476	-0.2878765849748735	4.558264777059116	1.3875781543136076	-0.42511515094885177	-0.32763490773780746	2.0390916450326855	1.505545305418162	-0.2878765849748735	-0.6324555320336758	-0.5773502691896258	-0.32763490773780746	-0.24384310418681	-0.34641016151377546	-0.317999364001908	-0.317999364001908	1.8586407545691706	-0.2062842492517587	2.182820625326997	2.2638462845343543	-0.4581228472908512	0.4417261042993862	3.4737107920301407	-0.5773502691896258	-0.3370999312316211	-0.6009252125773317	2.6153393661244047	-0.23186944788008415	-0.4167165638785894	-0.44994887235113873	-0.24384310418681002	-0.4743416490252569	-0.35557950110937986	-0.2773500981126145	-0.5222329678670935	-0.3081753835709564	-0.2665300196340371	-0.2981423969999719	-0.37354368381881425	-0.3179993640019079	-0.5773502691896258	-0.38235955645093633	-0.44994887235113873	-0.3370999312316211	-0.39970403251589476	1.9748417658131503	-0.28787658497487356	-0.24384310418681	-0.4167165638785894	-0.317999364001908	-0.25537695922762454	-0.3081753835709564	-0.4167165638785894	-0.42511515094885177	-0.2981423969999719	-0.2878765849748735	1.7088007490635064	-0.5143113152870138	-0.2981423969999719	-0.25537695922762454	-0.20628424925175864	-0.2981423969999719	1.6861605068622503	-0.21938172723813923	-0.40824829046386296	2.4494897427831774	2.4494897427831774	-0.2773500981126145	-0.3555795011093798	-0.32763490773780746	-0.24384310418681002	-0.2773500981126145	-0.3555795011093798	-0.3081753835709564	-0.36462031879561063	-0.5459058939351292	-0.37354368381881425	-0.2981423969999719	-0.4904144462736839	-0.29814239699997197	-0.4581228472908512	-0.4167165638785894	-0.4581228472908512	2.501851166488378	-0.42511515094885177	-0.3997040325158947	-0.2878765849748735	-0.4984050996048313	-0.23186944788008415	-0.37354368381881425	-0.7125253031944253	-0.40824829046386296	-0.3370999312316211	-0.21938172723813923	-0.3910769444375215	-0.2773500981126145	1.419642425184812	-0.2878765849748735	-0.3081753835709564	-0.19245008972987537	-0.36462031879561063	1.2701705922171767	-1.4361406616345072	-0.24384310418680993	-0.38235955645093633	-0.2773500981126145	-0.2062842492517587	-0.317999364001908	-0.7788179357521117	2.182820625326997	-0.3081753835709564	-0.4984050996048313	-0.32763490773780746	-0.21938172723813923	-0.2773500981126146	3.3541019662496834	-0.4167165638785894	-0.4581228472908512	-0.25537695922762454	-0.3910769444375215	-0.3081753835709564	1.505545305418162	-0.34641016151377535	-0.2773500981126145	3.0521778247153644	-0.4334498677803327	0.90267093384844	-0.4334498677803327	-0.3370999312316211	2.0064000163579108	-0.5852057359806528	-0.23186944788008415	-0.40824829046386296	-0.3370999312316211	-0.3081753835709564	4.3127717305695645	-0.6721992649890746	1.914854215512676	1.9748417658131503	-0.2665300196340371	-0.5773502691896258	-0.3555795011093798	3.2449055093647767	4.100997661323623	0.2553769592276246	2.7425789196365495	-0.25537695922762454	3.2449055093647767	-0.4499488723511388	1.6861605068622505	-0.37354368381881425	2.5570415597837943	-0.3997040325158947	-0.4499488723511388	-0.2665300196340371	2.677063067368169	-0.3081753835709564	-0.39970403251589476	2.8123105996832765	-0.6087933726884441	-0.3370999312316211	-0.24384310418681002	-0.24384310418680993	0.1617962004226434	-0.2981423969999719	-0.3370999312316211	-0.25537695922762454	-0.4662524041201569	-0.5143113152870138	-0.4984050996048313	0.7044027300535327	-0.3179993640019079	-0.25537695922762454	-0.5222329678670934	2.0390916450326855	-0.3910769444375215	-0.5616371084701743	-0.25537695922762454	-0.34641016151377535	3.1446603773522006	-0.41671656387858935	-0.6087933726884441	-0.4662524041201569	-0.48239444701999135	-0.42511515094885177	0.5694947974514993	-0.3555795011093798	-0.3910769444375215	-0.9898474527915804	-0.2665300196340371	2.182820625326997	-0.5301374837096382	-0.36462031879561063	-0.4167165638785894	2.0729923534102337	-0.2981423969999719	-0.6562445689730082	-0.37354368381881425	-0.3464101615137754	1.3416407864998738	-0.2553769592276246	-0.26653001963403705	-0.24384310418681	2.886751345948128	-0.4167165638785894	-0.3081753835709564	-0.38235955645093633	-0.37354368381881425	2.8123105996832765	-0.1617962004226434	-0.317999364001908	-0.3910769444375215	-0.37354368381881425	-0.4984050996048313	-0.5301374837096382	-0.2773500981126145	-0.24384310418681	-0.2981423969999719	-0.6087933726884441	-0.39970403251589476	-0.2981423969999719	-1.5055453054181616	-0.36462031879561063	-0.3910769444375215	-0.4167165638785894	-0.25537695922762454	-0.2773500981126145	1.8863031397110384	-0.25537695922762454	-0.40824829046386296	0.7703868735637632	-0.317999364001908	-0.3997040325158947	4.3127717305695645	-0.32763490773780746	1.1668100887173243	-0.2665300196340371	-0.2773500981126145	-0.2665300196340371	-0.3464101615137754	-0.6166698388447784	-0.6245565802918223	-0.49840509960483137	-0.3179993640019079	-0.2878765849748735	-0.5616371084701743	-0.40824829046386296	-0.4499488723511388	2.1081851067789197	-0.2981423969999719	-0.3555795011093798	-0.408248290463863	-0.2665300196340371	-0.3910769444375215	-0.26653001963403705	1.9748417658131503	-0.4167165638785894	-0.2665300196340371	-0.21938172723813923	-0.3276349077378074	-0.48239444701999146	2.677063067368169	-0.3910769444375215	-0.74535599249993	2.8867513459481287	-0.42511515094885177	-0.408248290463863	-0.38235955645093633	-0.2665300196340371	-0.3910769444375215	-0.34641016151377535	-0.48239444701999135	-0.26653001963403716	-0.4334498677803327	-0.14433756729740646	-0.5063696835418332	-0.4417261042993862	-0.25537695922762454	-0.4417261042993862	-0.2981423969999719	-0.2981423969999719	-0.3555795011093798	-0.3179993640019079	-0.24384310418681002	-0.38235955645093633	-0.26653001963403716	-0.4417261042993862	-0.5063696835418333	-0.3179993640019079	1.8318175552045448	-0.4662524041201569	-0.36462031879561063	3.4737107920301407	-0.44994887235113873	-0.2193817272381393	-0.2773500981126145	-0.47434164902525694	-0.25537695922762454	-0.6562445689730082	-0.2665300196340371	-0.3081753835709564	-0.3370999312316211	-0.29814239699997197	-0.317999364001908	-0.4334498677803327	-0.38235955645093633	-0.1617962004226434	-0.37354368381881425	-0.3370999312316211	-0.40824829046386296	-0.4167165638785894	-0.3081753835709564	2.0729923534102332	1.914854215512676	0.6802106785137817	3.915780041490243	-0.3646203187956106	-0.24384310418681002	-0.4662524041201569
CHEMBL393313	1.0	-0.5616371084701743	-0.7206801266590055	1.8863031397110384	-0.4167165638785894	1.7088007490635062	-0.2878765849748735	-0.25537695922762454	-0.25537695922762454	-0.4167165638785894	-0.317999364001908	-0.32763490773780746	-0.4581228472908512	-0.2665300196340371	-0.32763490773780746	-0.648297659314349	1.5238221347339345	-0.1617962004226434	-0.3179993640019079	-0.2878765849748735	-0.38235955645093633	-0.317999364001908	-0.317999364001908	-0.2773500981126145	-0.34641016151377535	-0.20628424925175864	-0.35557950110937986	-0.1924500897298753	-0.3179993640019079	-0.38235955645093633	-0.3646203187956106	-0.3179993640019079	-0.4904144462736839	1.7088007490635064	0.5852057359806528	-0.3370999312316211	-0.317999364001908	-0.6562445689730082	-0.4581228472908512	-0.2878765849748735	-0.2878765849748735	-0.37354368381881425	-0.4499488723511388	2.1447610589527213	-0.4904144462736839	3.4737107920301407	-0.48239444701999146	-0.6802106785137817	-0.23186944788008415	-0.2665300196340371	-0.5459058939351291	2.1081851067789197	-0.2773500981126145	-0.37354368381881425	-0.42511515094885177	-0.1777046633277277	-0.21938172723813923	-0.3555795011093798	-0.28787658497487356	-0.37354368381881425	-0.2878765849748735	-0.2665300196340371	-0.42511515094885177	3.1446603773522006	2.5570415597837943	0.8130294884889122	-0.5222329678670934	-0.3997040325158947	-0.3179993640019079	-0.36462031879561063	-0.408248290463863	3.0521778247153644	-0.3997040325158947	-0.36462031879561063	-0.5301374837096382	-0.47434164902525694	-0.36462031879561063	-0.3997040325158947	1.85864075456917	-0.28787658497487356	-0.37354368381881425	0.7958224257542214	-0.2878765849748735	-0.3081753835709564	-0.34641016151377535	-0.39970403251589476	3.6055512754639887	-0.317999364001908	-0.32763490773780746	-0.2665300196340371	-0.21938172723813926	-1.0416843970122254	-0.38235955645093633	-0.3555795011093798	-0.24384310418681002	-0.4499488723511388	-0.5616371084701743	-0.2665300196340371	-0.36462031879561063	-0.317999364001908	-0.2665300196340371	-0.4581228472908512	-0.37354368381881425	-0.5143113152870139	-0.2665300196340371	-0.21938172723813926	-0.3555795011093798	-0.2665300196340371	2.8123105996832765	-0.3081753835709564	-0.2773500981126145	-0.3910769444375215	2.0390916450326855	-0.5222329678670934	-0.2981423969999719	-0.4581228472908512	-0.2665300196340371	-0.4417261042993862	-0.2981423969999719	-0.3555795011093798	-0.4984050996048313	-0.317999364001908	-0.4662524041201569	-0.3555795011093798	-0.2773500981126145	-0.24384310418681002	-0.28787658497487356	2.886751345948128	-0.37354368381881425	-1.1427520960125939	-0.40824829046386296	-0.3081753835709564	-0.2665300196340371	-0.34641016151377535	-0.4334498677803327	-0.5063696835418333	3.751922584079138	1.2980491157307241	-0.2665300196340371	-1.5055453054181616	2.182820625326997	-0.5143113152870138	-0.23186944788008415	2.5570415597837943	-0.23186944788008415	-0.7370936756031577	-0.37354368381881425	-0.4167165638785895	0.9797958971132712	-0.3464101615137754	-0.317999364001908	-0.2665300196340371	-0.3179993640019079	-0.2773500981126145	-0.4904144462736839	-0.408248290463863	-0.39970403251589476	-0.3370999312316211	-0.5694947974514993	2.677063067368169	-0.3370999312316211	-0.6642111641550715	-0.3555795011093798	-0.4334498677803327	-0.5852057359806528	-0.25537695922762454	-0.4334498677803327	-0.25537695922762454	-0.36462031879561063	-0.40824829046386296	-0.3081753835709564	-0.20628424925175864	-0.3370999312316211	-0.38235955645093633	-0.21938172723813926	-0.2981423969999719	1.0523910308057693	-0.2665300196340371	-0.3555795011093798	3.0521778247153644	-0.2665300196340371	-0.40824829046386296	-0.3646203187956106	-0.5380275868489703	1.0964703329371188	-0.3370999312316211	-0.35557950110937986	-0.6721992649890746	2.1081851067789197	-0.5616371084701743	-0.2773500981126145	-0.317999364001908	-0.6245565802918223	-0.2665300196340371	-0.39970403251589476	-0.2878765849748735	-0.2193817272381393	-0.7206801266590055	-0.42511515094885177	-0.32763490773780746	-0.4904144462736839	-0.6642111641550715	-0.2878765849748735	1.5811388300841895	-0.5773502691896258	-0.32763490773780746	-0.24384310418681	-0.34641016151377546	-0.317999364001908	-0.317999364001908	-0.5380275868489705	-0.2062842492517587	2.182820625326997	-0.4417261042993862	-0.4581228472908512	0.4417261042993862	-0.2878765849748735	-0.5773502691896258	-0.3370999312316211	1.6641005886756874	-0.38235955645093633	-0.23186944788008415	2.399712626473256	-0.44994887235113873	-0.24384310418681002	2.1081851067789192	-0.35557950110937986	3.6055512754639887	-0.5222329678670935	-0.3081753835709564	-0.2665300196340371	-0.2981423969999719	-0.37354368381881425	-0.3179993640019079	1.7320508075688774	-0.38235955645093633	-0.44994887235113873	2.9664793948382653	-0.39970403251589476	-0.5063696835418333	-0.28787658497487356	-0.24384310418681	2.399712626473256	-0.317999364001908	-0.25537695922762454	-0.3081753835709564	-0.4167165638785894	-0.42511515094885177	-0.2981423969999719	-0.2878765849748735	-0.5852057359806528	1.9443476553533445	-0.2981423969999719	-0.25537695922762454	-0.20628424925175864	-0.2981423969999719	1.6861605068622503	-0.21938172723813923	-0.40824829046386296	2.4494897427831774	-0.40824829046386296	-0.2773500981126145	-0.3555795011093798	-0.32763490773780746	-0.24384310418681002	-0.2773500981126145	-0.3555795011093798	-0.3081753835709564	-0.36462031879561063	1.831817555204545	-0.37354368381881425	-0.2981423969999719	-0.4904144462736839	-0.29814239699997197	-0.4581228472908512	-0.4167165638785894	-0.4581228472908512	-0.3997040325158947	-0.42511515094885177	-0.3997040325158947	-0.2878765849748735	-0.4984050996048313	-0.23186944788008415	-0.37354368381881425	-0.7125253031944253	2.4494897427831774	-0.3370999312316211	-0.21938172723813923	-0.3910769444375215	-0.2773500981126145	-0.7044027300535327	-0.2878765849748735	-0.3081753835709564	-0.19245008972987537	-0.36462031879561063	-0.787295821622217	-1.4361406616345072	-0.24384310418680993	-0.38235955645093633	-0.2773500981126145	-0.2062842492517587	-0.317999364001908	-0.7788179357521117	-0.4581228472908512	-0.3081753835709564	-0.4984050996048313	-0.32763490773780746	-0.21938172723813923	-0.2773500981126146	-0.2981423969999719	-0.4167165638785894	2.182820625326997	-0.25537695922762454	-0.3910769444375215	-0.3081753835709564	1.505545305418162	-0.34641016151377535	-0.2773500981126145	-0.32763490773780746	-0.4334498677803327	0.90267093384844	-0.4334498677803327	-0.3370999312316211	2.0064000163579108	1.7088007490635064	-0.23186944788008415	-0.40824829046386296	-0.3370999312316211	-0.3081753835709564	-0.23186944788008415	1.4876541110413943	1.914854215512676	-0.5063696835418333	-0.2665300196340371	-0.5773502691896258	-0.3555795011093798	-0.3081753835709564	-0.24384310418681002	0.2553769592276246	-0.36462031879561063	-0.25537695922762454	3.2449055093647767	-0.4499488723511388	-0.5930633506894812	-0.37354368381881425	-0.3910769444375215	-0.3997040325158947	-0.4499488723511388	-0.2665300196340371	-0.37354368381881425	-0.3081753835709564	-0.39970403251589476	-0.3555795011093798	-0.6087933726884441	-0.3370999312316211	4.100997661323623	4.100997661323621	0.1617962004226434	-0.2981423969999719	2.9664793948382653	-0.25537695922762454	-0.4662524041201569	-0.5143113152870138	-0.4984050996048313	0.7044027300535327	-0.3179993640019079	-0.25537695922762454	-0.5222329678670934	-0.4904144462736839	-0.3910769444375215	-0.5616371084701743	-0.25537695922762454	-0.34641016151377535	-0.317999364001908	2.3997126264732556	-0.6087933726884441	-0.4662524041201569	-0.48239444701999135	-0.42511515094885177	0.5694947974514993	-0.3555795011093798	-0.3910769444375215	-0.9898474527915804	-0.2665300196340371	-0.4581228472908512	-0.5301374837096382	-0.36462031879561063	-0.4167165638785894	2.0729923534102337	-0.2981423969999719	1.5238221347339345	-0.37354368381881425	2.8867513459481287	-0.74535599249993	-0.2553769592276246	-0.26653001963403705	-0.24384310418681	2.886751345948128	-0.4167165638785894	3.2449055093647767	-0.38235955645093633	2.677063067368169	-0.3555795011093798	-0.1617962004226434	-0.317999364001908	-0.3910769444375215	-0.37354368381881425	-0.4984050996048313	1.8863031397110384	-0.2773500981126145	-0.24384310418681	-0.2981423969999719	1.6425934395178774	-0.39970403251589476	-0.2981423969999719	0.6642111641550713	-0.36462031879561063	2.5570415597837943	-0.4167165638785894	-0.25537695922762454	-0.2773500981126145	-0.5301374837096382	-0.25537695922762454	-0.40824829046386296	0.7703868735637632	-0.317999364001908	-0.3997040325158947	-0.23186944788008415	-0.32763490773780746	1.1668100887173243	-0.2665300196340371	-0.2773500981126145	-0.2665300196340371	-0.3464101615137754	1.6216132799251584	-0.6245565802918223	2.006400016357911	-0.3179993640019079	-0.2878765849748735	-0.5616371084701743	-0.40824829046386296	-0.4499488723511388	-0.47434164902525694	-0.2981423969999719	-0.3555795011093798	-0.408248290463863	-0.2665300196340371	-0.3910769444375215	-0.26653001963403705	-0.5063696835418333	-0.4167165638785894	-0.2665300196340371	-0.21938172723813923	-0.3276349077378074	-0.48239444701999146	-0.37354368381881425	-0.3910769444375215	1.3416407864998738	-0.3464101615137754	-0.42511515094885177	-0.408248290463863	-0.38235955645093633	-0.2665300196340371	2.5570415597837943	-0.34641016151377535	-0.48239444701999135	-0.26653001963403716	-0.4334498677803327	-0.14433756729740646	1.9748417658131499	-0.4417261042993862	-0.25537695922762454	-0.4417261042993862	-0.2981423969999719	-0.2981423969999719	-0.3555795011093798	-0.3179993640019079	-0.24384310418681002	2.6153393661244047	-0.26653001963403716	-0.4417261042993862	-0.5063696835418333	-0.3179993640019079	-0.5459058939351291	-0.4662524041201569	-0.36462031879561063	-0.2878765849748735	-0.44994887235113873	-0.2193817272381393	-0.2773500981126145	-0.47434164902525694	-0.25537695922762454	-0.6562445689730082	-0.2665300196340371	-0.3081753835709564	-0.3370999312316211	-0.29814239699997197	-0.317999364001908	-0.4334498677803327	-0.38235955645093633	-0.1617962004226434	-0.37354368381881425	-0.3370999312316211	-0.40824829046386296	-0.4167165638785894	-0.3081753835709564	-0.48239444701999135	1.914854215512676	0.6802106785137817	-0.25537695922762454	-0.3646203187956106	-0.24384310418681002	-0.4662524041201569
CHEMBL3409737	1.0	-0.5616371084701743	-0.7206801266590055	-0.5301374837096382	-0.4167165638785894	-0.5852057359806528	-0.2878765849748735	-0.25537695922762454	-0.25537695922762454	-0.4167165638785894	-0.317999364001908	-0.32763490773780746	-0.4581228472908512	-0.2665300196340371	-0.32763490773780746	-0.648297659314349	-0.6562445689730082	-0.1617962004226434	-0.3179993640019079	-0.2878765849748735	-0.38235955645093633	-0.317999364001908	-0.317999364001908	-0.2773500981126145	-0.34641016151377535	-0.20628424925175864	-0.35557950110937986	-0.1924500897298753	3.1446603773522006	-0.38235955645093633	-0.3646203187956106	3.1446603773522006	-0.4904144462736839	-0.5852057359806528	0.5852057359806528	-0.3370999312316211	-0.317999364001908	1.5238221347339345	-0.4581228472908512	-0.2878765849748735	-0.2878765849748735	-0.37354368381881425	-0.4499488723511388	-0.4662524041201569	2.0390916450326855	-0.2878765849748735	-0.48239444701999146	-0.6802106785137817	-0.23186944788008415	-0.2665300196340371	-0.5459058939351291	-0.47434164902525694	-0.2773500981126145	-0.37354368381881425	-0.42511515094885177	-0.1777046633277277	-0.21938172723813923	-0.3555795011093798	-0.28787658497487356	-0.37354368381881425	-0.2878765849748735	-0.2665300196340371	-0.42511515094885177	-0.317999364001908	-0.3910769444375215	-1.2299676877139956	-0.5222329678670934	-0.3997040325158947	-0.3179993640019079	-0.36462031879561063	-0.408248290463863	-0.32763490773780746	-0.3997040325158947	-0.36462031879561063	-0.5301374837096382	2.1081851067789197	2.7425789196365495	-0.3997040325158947	-0.5380275868489703	-0.28787658497487356	-0.37354368381881425	-1.2565617248750864	-0.2878765849748735	-0.3081753835709564	-0.34641016151377535	2.5018511664883785	-0.2773500981126145	-0.317999364001908	-0.32763490773780746	-0.2665300196340371	-0.21938172723813926	0.9599836599916585	-0.38235955645093633	2.8123105996832765	-0.24384310418681002	-0.4499488723511388	-0.5616371084701743	-0.2665300196340371	-0.36462031879561063	3.1446603773522006	-0.2665300196340371	-0.4581228472908512	-0.37354368381881425	-0.5143113152870139	-0.2665300196340371	-0.21938172723813926	-0.3555795011093798	-0.2665300196340371	-0.3555795011093798	-0.3081753835709564	-0.2773500981126145	-0.3910769444375215	-0.4904144462736839	-0.5222329678670934	-0.2981423969999719	-0.4581228472908512	-0.2665300196340371	-0.4417261042993862	-0.2981423969999719	-0.3555795011093798	-0.4984050996048313	-0.317999364001908	-0.4662524041201569	-0.3555795011093798	-0.2773500981126145	4.100997661323623	-0.28787658497487356	2.886751345948128	-0.37354368381881425	0.8750804338835177	-0.40824829046386296	-0.3081753835709564	-0.2665300196340371	2.886751345948128	-0.4334498677803327	-0.5063696835418333	-0.2665300196340371	-0.7703868735637632	-0.2665300196340371	0.6642111641550713	-0.4581228472908512	-0.5143113152870138	-0.23186944788008415	-0.3910769444375215	-0.23186944788008415	-0.7370936756031577	-0.37354368381881425	-0.4167165638785895	-1.0206207261596576	-0.3464101615137754	-0.317999364001908	-0.2665300196340371	-0.3179993640019079	-0.2773500981126145	-0.4904144462736839	-0.408248290463863	-0.39970403251589476	-0.3370999312316211	-0.5694947974514993	-0.37354368381881425	-0.3370999312316211	-0.6642111641550715	2.8123105996832765	-0.4334498677803327	-0.5852057359806528	-0.25537695922762454	-0.4334498677803327	-0.25537695922762454	-0.36462031879561063	-0.40824829046386296	-0.3081753835709564	-0.20628424925175864	-0.3370999312316211	-0.38235955645093633	-0.21938172723813926	-0.2981423969999719	-0.9502171443197724	-0.2665300196340371	-0.3555795011093798	-0.32763490773780746	3.751922584079138	-0.40824829046386296	-0.3646203187956106	-0.5380275868489703	-0.9120173797327437	-0.3370999312316211	-0.35557950110937986	-0.6721992649890746	-0.47434164902525694	-0.5616371084701743	3.6055512754639887	-0.317999364001908	-0.6245565802918223	-0.2665300196340371	-0.39970403251589476	-0.2878765849748735	-0.2193817272381393	1.3875781543136076	2.352303835250313	-0.32763490773780746	-0.4904144462736839	-0.6642111641550715	-0.2878765849748735	1.5811388300841895	-0.5773502691896258	3.0521778247153644	-0.24384310418681	-0.34641016151377546	-0.317999364001908	-0.317999364001908	-0.5380275868489705	-0.2062842492517587	-0.4581228472908512	-0.4417261042993862	-0.4581228472908512	-2.2638462845343543	-0.2878765849748735	-0.5773502691896258	-0.3370999312316211	-0.6009252125773317	-0.38235955645093633	-0.23186944788008415	-0.4167165638785894	2.2224747331283514	-0.24384310418681002	-0.4743416490252569	-0.35557950110937986	3.6055512754639887	-0.5222329678670935	-0.3081753835709564	-0.2665300196340371	-0.2981423969999719	-0.37354368381881425	3.1446603773522006	-0.5773502691896258	-0.38235955645093633	-0.44994887235113873	-0.3370999312316211	-0.39970403251589476	-0.5063696835418333	-0.28787658497487356	-0.24384310418681	-0.4167165638785894	-0.317999364001908	-0.25537695922762454	-0.3081753835709564	-0.4167165638785894	-0.42511515094885177	-0.2981423969999719	-0.2878765849748735	-0.5852057359806528	-0.5143113152870138	3.3541019662496834	-0.25537695922762454	4.8476798574163285	-0.2981423969999719	-0.5930633506894812	-0.21938172723813923	-0.40824829046386296	-0.40824829046386296	-0.40824829046386296	-0.2773500981126145	-0.3555795011093798	-0.32763490773780746	-0.24384310418681002	-0.2773500981126145	-0.3555795011093798	-0.3081753835709564	-0.36462031879561063	1.831817555204545	-0.37354368381881425	-0.2981423969999719	-0.4904144462736839	-0.29814239699997197	-0.4581228472908512	-0.4167165638785894	-0.4581228472908512	-0.3997040325158947	-0.42511515094885177	-0.3997040325158947	-0.2878765849748735	-0.4984050996048313	-0.23186944788008415	-0.37354368381881425	-0.7125253031944253	-0.40824829046386296	2.9664793948382653	-0.21938172723813923	2.5570415597837943	-0.2773500981126145	-0.7044027300535327	-0.2878765849748735	-0.3081753835709564	-0.19245008972987537	-0.36462031879561063	-0.787295821622217	-1.4361406616345072	-0.24384310418680993	-0.38235955645093633	-0.2773500981126145	-0.2062842492517587	-0.317999364001908	1.283997137321049	-0.4581228472908512	-0.3081753835709564	-0.4984050996048313	-0.32763490773780746	-0.21938172723813923	-0.2773500981126146	-0.2981423969999719	-0.4167165638785894	-0.4581228472908512	-0.25537695922762454	-0.3910769444375215	-0.3081753835709564	-0.6642111641550715	-0.34641016151377535	-0.2773500981126145	-0.32763490773780746	-0.4334498677803327	0.90267093384844	-0.4334498677803327	-0.3370999312316211	-0.4984050996048313	-0.5852057359806528	-0.23186944788008415	-0.40824829046386296	-0.3370999312316211	-0.3081753835709564	-0.23186944788008415	-0.6721992649890746	-0.5222329678670934	-0.5063696835418333	-0.2665300196340371	-0.5773502691896258	-0.3555795011093798	3.2449055093647767	-0.24384310418681002	0.2553769592276246	-0.36462031879561063	-0.25537695922762454	-0.3081753835709564	-0.4499488723511388	-0.5930633506894812	-0.37354368381881425	-0.3910769444375215	-0.3997040325158947	-0.4499488723511388	-0.2665300196340371	-0.37354368381881425	-0.3081753835709564	-0.39970403251589476	-0.3555795011093798	-0.6087933726884441	-0.3370999312316211	-0.24384310418681002	-0.24384310418680993	0.1617962004226434	-0.2981423969999719	-0.3370999312316211	-0.25537695922762454	-0.4662524041201569	1.9443476553533445	-0.4984050996048313	0.7044027300535327	-0.3179993640019079	-0.25537695922762454	-0.5222329678670934	-0.4904144462736839	-0.3910769444375215	1.7805091311075736	-0.25537695922762454	-0.34641016151377535	-0.317999364001908	-0.41671656387858935	-0.6087933726884441	-0.4662524041201569	-0.48239444701999135	-0.42511515094885177	0.5694947974514993	2.8123105996832765	2.5570415597837943	-0.9898474527915804	3.751922584079138	-0.4581228472908512	-0.5301374837096382	-0.36462031879561063	-0.4167165638785894	-0.48239444701999146	-0.2981423969999719	-0.6562445689730082	2.677063067368169	-0.3464101615137754	1.3416407864998738	-0.2553769592276246	-0.26653001963403705	-0.24384310418681	-0.34641016151377535	2.399712626473256	-0.3081753835709564	-0.38235955645093633	2.677063067368169	-0.3555795011093798	-0.1617962004226434	-0.317999364001908	2.5570415597837943	-0.37354368381881425	-0.4984050996048313	1.8863031397110384	-0.2773500981126145	-0.24384310418681	-0.2981423969999719	-0.6087933726884441	-0.39970403251589476	3.354101966249684	0.6642111641550713	-0.36462031879561063	-0.3910769444375215	-0.4167165638785894	-0.25537695922762454	-0.2773500981126145	-0.5301374837096382	-0.25537695922762454	-0.40824829046386296	0.7703868735637632	-0.317999364001908	2.501851166488378	-0.23186944788008415	-0.32763490773780746	1.1668100887173243	3.751922584079138	-0.2773500981126145	3.751922584079138	-0.3464101615137754	1.6216132799251584	-0.6245565802918223	-0.49840509960483137	-0.3179993640019079	-0.2878765849748735	-0.5616371084701743	2.4494897427831774	-0.4499488723511388	-0.47434164902525694	-0.2981423969999719	-0.3555795011093798	-0.408248290463863	-0.2665300196340371	-0.3910769444375215	-0.26653001963403705	-0.5063696835418333	-0.4167165638785894	-0.2665300196340371	-0.21938172723813923	-0.3276349077378074	2.0729923534102337	-0.37354368381881425	-0.3910769444375215	1.3416407864998738	2.8867513459481287	-0.42511515094885177	-0.408248290463863	-0.38235955645093633	3.751922584079138	-0.3910769444375215	-0.34641016151377535	2.0729923534102332	-0.26653001963403716	-0.4334498677803327	-0.14433756729740646	1.9748417658131499	-0.4417261042993862	-0.25537695922762454	-0.4417261042993862	3.354101966249684	-0.2981423969999719	-0.3555795011093798	-0.3179993640019079	4.100997661323623	-0.38235955645093633	-0.26653001963403716	-0.4417261042993862	-0.5063696835418333	-0.3179993640019079	-0.5459058939351291	-0.4662524041201569	-0.36462031879561063	-0.2878765849748735	-0.44994887235113873	-0.2193817272381393	-0.2773500981126145	2.1081851067789197	-0.25537695922762454	1.5238221347339345	-0.2665300196340371	-0.3081753835709564	-0.3370999312316211	-0.29814239699997197	-0.317999364001908	-0.4334498677803327	-0.38235955645093633	-0.1617962004226434	-0.37354368381881425	-0.3370999312316211	-0.40824829046386296	2.399712626473256	-0.3081753835709564	-0.48239444701999135	1.914854215512676	0.6802106785137817	-0.25537695922762454	-0.3646203187956106	-0.24384310418681002	-0.4662524041201569
CHEMBL3104851	1.0	-0.5616371084701743	-0.7206801266590055	-0.5301374837096382	-0.4167165638785894	-0.5852057359806528	-0.2878765849748735	-0.25537695922762454	-0.25537695922762454	-0.4167165638785894	-0.317999364001908	-0.32763490773780746	-0.4581228472908512	-0.2665300196340371	-0.32763490773780746	-0.648297659314349	-0.6562445689730082	-0.1617962004226434	3.1446603773522006	-0.2878765849748735	-0.38235955645093633	3.1446603773522006	-0.317999364001908	-0.2773500981126145	-0.34641016151377535	4.8476798574163285	-0.35557950110937986	-0.1924500897298753	-0.3179993640019079	-0.38235955645093633	-0.3646203187956106	-0.3179993640019079	-0.4904144462736839	-0.5852057359806528	0.5852057359806528	-0.3370999312316211	-0.317999364001908	-0.6562445689730082	-0.4581228472908512	3.4737107920301407	3.4737107920301407	-0.37354368381881425	-0.4499488723511388	-0.4662524041201569	-0.4904144462736839	-0.2878765849748735	-0.48239444701999146	-0.6802106785137817	-0.23186944788008415	-0.2665300196340371	-0.5459058939351291	-0.47434164902525694	-0.2773500981126145	-0.37354368381881425	-0.42511515094885177	-0.1777046633277277	-0.21938172723813923	-0.3555795011093798	-0.28787658497487356	-0.37354368381881425	-0.2878765849748735	-0.2665300196340371	-0.42511515094885177	-0.317999364001908	-0.3910769444375215	-1.2299676877139956	-0.5222329678670934	2.501851166488378	-0.3179993640019079	2.7425789196365495	-0.408248290463863	-0.32763490773780746	-0.3997040325158947	-0.36462031879561063	-0.5301374837096382	-0.47434164902525694	-0.36462031879561063	-0.3997040325158947	-0.5380275868489703	-0.28787658497487356	-0.37354368381881425	-1.2565617248750864	-0.2878765849748735	-0.3081753835709564	-0.34641016151377535	-0.39970403251589476	-0.2773500981126145	-0.317999364001908	-0.32763490773780746	-0.2665300196340371	-0.21938172723813926	-1.0416843970122254	-0.38235955645093633	-0.3555795011093798	-0.24384310418681002	-0.4499488723511388	-0.5616371084701743	-0.2665300196340371	2.7425789196365495	-0.317999364001908	-0.2665300196340371	-0.4581228472908512	-0.37354368381881425	-0.5143113152870139	-0.2665300196340371	-0.21938172723813926	-0.3555795011093798	-0.2665300196340371	-0.3555795011093798	-0.3081753835709564	-0.2773500981126145	-0.3910769444375215	-0.4904144462736839	1.914854215512676	-0.2981423969999719	-0.4581228472908512	-0.2665300196340371	-0.4417261042993862	-0.2981423969999719	-0.3555795011093798	-0.4984050996048313	-0.317999364001908	-0.4662524041201569	-0.3555795011093798	-0.2773500981126145	-0.24384310418681002	-0.28787658497487356	-0.34641016151377535	-0.37354368381881425	-1.1427520960125939	-0.40824829046386296	-0.3081753835709564	-0.2665300196340371	-0.34641016151377535	-0.4334498677803327	-0.5063696835418333	-0.2665300196340371	-0.7703868735637632	-0.2665300196340371	0.6642111641550713	-0.4581228472908512	-0.5143113152870138	-0.23186944788008415	-0.3910769444375215	-0.23186944788008415	1.3566796637913192	-0.37354368381881425	-0.4167165638785895	0.9797958971132712	-0.3464101615137754	-0.317999364001908	-0.2665300196340371	-0.3179993640019079	-0.2773500981126145	-0.4904144462736839	-0.408248290463863	-0.39970403251589476	-0.3370999312316211	-0.5694947974514993	-0.37354368381881425	-0.3370999312316211	-0.6642111641550715	-0.3555795011093798	-0.4334498677803327	-0.5852057359806528	-0.25537695922762454	2.307071876895319	-0.25537695922762454	-0.36462031879561063	-0.40824829046386296	-0.3081753835709564	-0.20628424925175864	-0.3370999312316211	-0.38235955645093633	-0.21938172723813926	-0.2981423969999719	-0.9502171443197724	3.751922584079138	-0.3555795011093798	-0.32763490773780746	-0.2665300196340371	2.4494897427831774	-0.3646203187956106	1.85864075456917	-0.9120173797327437	-0.3370999312316211	-0.35557950110937986	1.4876541110413943	-0.47434164902525694	-0.5616371084701743	-0.2773500981126145	-0.317999364001908	-0.6245565802918223	-0.2665300196340371	-0.39970403251589476	-0.2878765849748735	-0.2193817272381393	-0.7206801266590055	-0.42511515094885177	-0.32763490773780746	-0.4904144462736839	-0.6642111641550715	-0.2878765849748735	1.5811388300841895	-0.5773502691896258	-0.32763490773780746	-0.24384310418681	-0.34641016151377546	3.1446603773522006	-0.317999364001908	-0.5380275868489705	-0.2062842492517587	2.182820625326997	-0.4417261042993862	-0.4581228472908512	-2.2638462845343543	-0.2878765849748735	-0.5773502691896258	2.9664793948382653	-0.6009252125773317	-0.38235955645093633	-0.23186944788008415	-0.4167165638785894	-0.44994887235113873	-0.24384310418681002	-0.4743416490252569	-0.35557950110937986	-0.2773500981126145	-0.5222329678670935	-0.3081753835709564	-0.2665300196340371	-0.2981423969999719	-0.37354368381881425	-0.3179993640019079	-0.5773502691896258	-0.38235955645093633	-0.44994887235113873	2.9664793948382653	-0.39970403251589476	1.9748417658131503	-0.28787658497487356	-0.24384310418681	-0.4167165638785894	-0.317999364001908	-0.25537695922762454	-0.3081753835709564	-0.4167165638785894	-0.42511515094885177	-0.2981423969999719	-0.2878765849748735	-0.5852057359806528	-0.5143113152870138	-0.2981423969999719	3.915780041490243	-0.20628424925175864	-0.2981423969999719	-0.5930633506894812	-0.21938172723813923	-0.40824829046386296	-0.40824829046386296	-0.40824829046386296	-0.2773500981126145	-0.3555795011093798	3.0521778247153644	-0.24384310418681002	-0.2773500981126145	-0.3555795011093798	-0.3081753835709564	-0.36462031879561063	-0.5459058939351292	-0.37354368381881425	3.354101966249684	-0.4904144462736839	-0.29814239699997197	-0.4581228472908512	-0.4167165638785894	-0.4581228472908512	2.501851166488378	-0.42511515094885177	-0.3997040325158947	-0.2878765849748735	-0.4984050996048313	-0.23186944788008415	-0.37354368381881425	-0.7125253031944253	-0.40824829046386296	-0.3370999312316211	-0.21938172723813923	-0.3910769444375215	-0.2773500981126145	-0.7044027300535327	-0.2878765849748735	-0.3081753835709564	-0.19245008972987537	-0.36462031879561063	-0.787295821622217	0.6963106238227912	-0.24384310418680993	-0.38235955645093633	-0.2773500981126145	-0.2062842492517587	-0.317999364001908	-0.7788179357521117	-0.4581228472908512	-0.3081753835709564	-0.4984050996048313	-0.32763490773780746	-0.21938172723813923	-0.2773500981126146	-0.2981423969999719	-0.4167165638785894	-0.4581228472908512	-0.25537695922762454	-0.3910769444375215	-0.3081753835709564	1.505545305418162	-0.34641016151377535	-0.2773500981126145	-0.32763490773780746	-0.4334498677803327	-1.1078234188139946	-0.4334498677803327	-0.3370999312316211	-0.4984050996048313	-0.5852057359806528	-0.23186944788008415	-0.40824829046386296	-0.3370999312316211	-0.3081753835709564	-0.23186944788008415	-0.6721992649890746	-0.5222329678670934	-0.5063696835418333	-0.2665300196340371	-0.5773502691896258	-0.3555795011093798	-0.3081753835709564	-0.24384310418681002	-3.915780041490244	-0.36462031879561063	-0.25537695922762454	-0.3081753835709564	-0.4499488723511388	-0.5930633506894812	-0.37354368381881425	-0.3910769444375215	-0.3997040325158947	-0.4499488723511388	-0.2665300196340371	-0.37354368381881425	-0.3081753835709564	2.5018511664883785	-0.3555795011093798	-0.6087933726884441	-0.3370999312316211	-0.24384310418681002	-0.24384310418680993	0.1617962004226434	-0.2981423969999719	-0.3370999312316211	-0.25537695922762454	-0.4662524041201569	-0.5143113152870138	2.0064000163579108	-1.419642425184812	-0.3179993640019079	-0.25537695922762454	-0.5222329678670934	-0.4904144462736839	-0.3910769444375215	-0.5616371084701743	-0.25537695922762454	-0.34641016151377535	-0.317999364001908	-0.41671656387858935	-0.6087933726884441	-0.4662524041201569	-0.48239444701999135	-0.42511515094885177	-1.755942292142123	-0.3555795011093798	-0.3910769444375215	-0.9898474527915804	3.751922584079138	-0.4581228472908512	-0.5301374837096382	2.7425789196365495	-0.4167165638785894	-0.48239444701999146	-0.2981423969999719	-0.6562445689730082	-0.37354368381881425	-0.3464101615137754	-0.74535599249993	-0.2553769592276246	-0.26653001963403705	4.100997661323622	-0.34641016151377535	-0.4167165638785894	-0.3081753835709564	-0.38235955645093633	-0.37354368381881425	-0.3555795011093798	6.180614856144978	-0.317999364001908	-0.3910769444375215	-0.37354368381881425	2.0064000163579108	1.8863031397110384	-0.2773500981126145	-0.24384310418681	-0.2981423969999719	-0.6087933726884441	-0.39970403251589476	-0.2981423969999719	-1.5055453054181616	2.7425789196365495	-0.3910769444375215	-0.4167165638785894	-0.25537695922762454	-0.2773500981126145	-0.5301374837096382	-0.25537695922762454	-0.40824829046386296	-1.2980491157307241	-0.317999364001908	-0.3997040325158947	-0.23186944788008415	-0.32763490773780746	-0.8570374987923711	-0.2665300196340371	-0.2773500981126145	3.751922584079138	-0.3464101615137754	1.6216132799251584	-0.6245565802918223	-0.49840509960483137	-0.3179993640019079	-0.2878765849748735	-0.5616371084701743	-0.40824829046386296	-0.4499488723511388	-0.47434164902525694	-0.2981423969999719	2.8123105996832765	-0.408248290463863	-0.2665300196340371	-0.3910769444375215	-0.26653001963403705	-0.5063696835418333	2.399712626473256	-0.2665300196340371	-0.21938172723813923	-0.3276349077378074	-0.48239444701999146	-0.37354368381881425	-0.3910769444375215	-0.74535599249993	-0.3464101615137754	2.352303835250313	-0.408248290463863	-0.38235955645093633	-0.2665300196340371	-0.3910769444375215	2.886751345948128	-0.48239444701999135	-0.26653001963403716	-0.4334498677803327	-0.14433756729740646	-0.5063696835418332	-0.4417261042993862	-0.25537695922762454	-0.4417261042993862	3.354101966249684	-0.2981423969999719	-0.3555795011093798	-0.3179993640019079	-0.24384310418681002	-0.38235955645093633	-0.26653001963403716	-0.4417261042993862	-0.5063696835418333	-0.3179993640019079	-0.5459058939351291	-0.4662524041201569	-0.36462031879561063	-0.2878765849748735	-0.44994887235113873	-0.2193817272381393	-0.2773500981126145	-0.47434164902525694	-0.25537695922762454	-0.6562445689730082	3.751922584079138	-0.3081753835709564	-0.3370999312316211	-0.29814239699997197	3.1446603773522006	2.307071876895319	2.6153393661244047	-0.1617962004226434	-0.37354368381881425	-0.3370999312316211	-0.40824829046386296	-0.4167165638785894	-0.3081753835709564	-0.48239444701999135	-0.5222329678670934	0.6802106785137817	-0.25537695922762454	-0.3646203187956106	-0.24384310418681002	2.1447610589527213
CHEMBL246361	1.0	-0.5616371084701743	-0.7206801266590055	-0.5301374837096382	2.399712626473256	1.7088007490635062	-0.2878765849748735	-0.25537695922762454	-0.25537695922762454	-0.4167165638785894	-0.317999364001908	-0.32763490773780746	-0.4581228472908512	-0.2665300196340371	-0.32763490773780746	-0.648297659314349	-0.6562445689730082	-0.1617962004226434	-0.3179993640019079	-0.2878765849748735	-0.38235955645093633	-0.317999364001908	-0.317999364001908	-0.2773500981126145	-0.34641016151377535	-0.20628424925175864	-0.35557950110937986	-0.1924500897298753	-0.3179993640019079	-0.38235955645093633	-0.3646203187956106	-0.3179993640019079	-0.4904144462736839	-0.5852057359806528	-1.7088007490635064	2.9664793948382653	-0.317999364001908	-0.6562445689730082	-0.4581228472908512	-0.2878765849748735	-0.2878765849748735	-0.37354368381881425	-0.4499488723511388	-0.4662524041201569	-0.4904144462736839	3.4737107920301407	-0.48239444701999146	-0.6802106785137817	-0.23186944788008415	-0.2665300196340371	-0.5459058939351291	-0.47434164902525694	-0.2773500981126145	-0.37354368381881425	-0.42511515094885177	-0.1777046633277277	-0.21938172723813923	-0.3555795011093798	-0.28787658497487356	-0.37354368381881425	-0.2878765849748735	-0.2665300196340371	-0.42511515094885177	-0.317999364001908	-0.3910769444375215	0.8130294884889122	-0.5222329678670934	2.501851166488378	-0.3179993640019079	-0.36462031879561063	-0.408248290463863	-0.32763490773780746	2.501851166488378	-0.36462031879561063	-0.5301374837096382	-0.47434164902525694	-0.36462031879561063	-0.3997040325158947	1.85864075456917	-0.28787658497487356	-0.37354368381881425	-1.2565617248750864	-0.2878765849748735	3.2449055093647767	-0.34641016151377535	-0.39970403251589476	-0.2773500981126145	-0.317999364001908	-0.32763490773780746	-0.2665300196340371	-0.21938172723813926	-1.0416843970122254	-0.38235955645093633	-0.3555795011093798	-0.24384310418681002	-0.4499488723511388	-0.5616371084701743	-0.2665300196340371	-0.36462031879561063	3.1446603773522006	-0.2665300196340371	-0.4581228472908512	-0.37354368381881425	-0.5143113152870139	-0.2665300196340371	-0.21938172723813926	-0.3555795011093798	-0.2665300196340371	-0.3555795011093798	-0.3081753835709564	-0.2773500981126145	-0.3910769444375215	-0.4904144462736839	-0.5222329678670934	-0.2981423969999719	-0.4581228472908512	-0.2665300196340371	-0.4417261042993862	-0.2981423969999719	-0.3555795011093798	-0.4984050996048313	-0.317999364001908	-0.4662524041201569	-0.3555795011093798	-0.2773500981126145	4.100997661323623	-0.28787658497487356	-0.34641016151377535	2.677063067368169	-1.1427520960125939	-0.40824829046386296	-0.3081753835709564	-0.2665300196340371	-0.34641016151377535	-0.4334498677803327	-0.5063696835418333	-0.2665300196340371	-0.7703868735637632	-0.2665300196340371	-1.5055453054181616	-0.4581228472908512	-0.5143113152870138	-0.23186944788008415	2.5570415597837943	-0.23186944788008415	-0.7370936756031577	-0.37354368381881425	-0.4167165638785895	-1.0206207261596576	-0.3464101615137754	-0.317999364001908	-0.2665300196340371	-0.3179993640019079	-0.2773500981126145	-0.4904144462736839	-0.408248290463863	-0.39970403251589476	-0.3370999312316211	-0.5694947974514993	-0.37354368381881425	-0.3370999312316211	-0.6642111641550715	-0.3555795011093798	-0.4334498677803327	-0.5852057359806528	-0.25537695922762454	-0.4334498677803327	-0.25537695922762454	-0.36462031879561063	-0.40824829046386296	-0.3081753835709564	-0.20628424925175864	-0.3370999312316211	-0.38235955645093633	-0.21938172723813926	-0.2981423969999719	1.0523910308057693	-0.2665300196340371	-0.3555795011093798	-0.32763490773780746	-0.2665300196340371	-0.40824829046386296	-0.3646203187956106	-0.5380275868489703	-0.9120173797327437	-0.3370999312316211	-0.35557950110937986	-0.6721992649890746	-0.47434164902525694	-0.5616371084701743	3.6055512754639887	-0.317999364001908	1.6011359603844901	-0.2665300196340371	-0.39970403251589476	-0.2878765849748735	-0.2193817272381393	-0.7206801266590055	-0.42511515094885177	-0.32763490773780746	-0.4904144462736839	-0.6642111641550715	-0.2878765849748735	1.5811388300841895	-0.5773502691896258	-0.32763490773780746	-0.24384310418681	-0.34641016151377546	-0.317999364001908	3.1446603773522006	1.8586407545691706	-0.2062842492517587	-0.4581228472908512	2.2638462845343543	-0.4581228472908512	0.4417261042993862	-0.2878765849748735	-0.5773502691896258	-0.3370999312316211	-0.6009252125773317	-0.38235955645093633	-0.23186944788008415	-0.4167165638785894	-0.44994887235113873	4.100997661323623	-0.4743416490252569	2.8123105996832765	-0.2773500981126145	-0.5222329678670935	-0.3081753835709564	-0.2665300196340371	-0.2981423969999719	-0.37354368381881425	3.1446603773522006	-0.5773502691896258	-0.38235955645093633	-0.44994887235113873	-0.3370999312316211	-0.39970403251589476	-0.5063696835418333	-0.28787658497487356	-0.24384310418681	-0.4167165638785894	-0.317999364001908	-0.25537695922762454	-0.3081753835709564	-0.4167165638785894	-0.42511515094885177	-0.2981423969999719	-0.2878765849748735	-0.5852057359806528	-0.5143113152870138	-0.2981423969999719	-0.25537695922762454	-0.20628424925175864	3.3541019662496834	1.6861605068622503	-0.21938172723813923	-0.40824829046386296	-0.40824829046386296	-0.40824829046386296	-0.2773500981126145	-0.3555795011093798	-0.32763490773780746	-0.24384310418681002	-0.2773500981126145	-0.3555795011093798	3.2449055093647767	-0.36462031879561063	-0.5459058939351292	-0.37354368381881425	-0.2981423969999719	-0.4904144462736839	-0.29814239699997197	-0.4581228472908512	-0.4167165638785894	-0.4581228472908512	-0.3997040325158947	2.352303835250313	-0.3997040325158947	-0.2878765849748735	-0.4984050996048313	-0.23186944788008415	-0.37354368381881425	-0.7125253031944253	-0.40824829046386296	-0.3370999312316211	-0.21938172723813923	-0.3910769444375215	-0.2773500981126145	-0.7044027300535327	-0.2878765849748735	-0.3081753835709564	-0.19245008972987537	-0.36462031879561063	-0.787295821622217	0.6963106238227912	-0.24384310418680993	-0.38235955645093633	3.6055512754639887	-0.2062842492517587	-0.317999364001908	1.283997137321049	2.182820625326997	-0.3081753835709564	-0.4984050996048313	-0.32763490773780746	-0.21938172723813923	-0.2773500981126146	-0.2981423969999719	-0.4167165638785894	-0.4581228472908512	-0.25537695922762454	-0.3910769444375215	-0.3081753835709564	-0.6642111641550715	-0.34641016151377535	-0.2773500981126145	-0.32763490773780746	-0.4334498677803327	-1.1078234188139946	-0.4334498677803327	-0.3370999312316211	-0.4984050996048313	-0.5852057359806528	-0.23186944788008415	-0.40824829046386296	-0.3370999312316211	-0.3081753835709564	-0.23186944788008415	-0.6721992649890746	-0.5222329678670934	-0.5063696835418333	-0.2665300196340371	-0.5773502691896258	-0.3555795011093798	-0.3081753835709564	-0.24384310418681002	0.2553769592276246	-0.36462031879561063	-0.25537695922762454	-0.3081753835709564	-0.4499488723511388	-0.5930633506894812	-0.37354368381881425	-0.3910769444375215	-0.3997040325158947	-0.4499488723511388	-0.2665300196340371	-0.37354368381881425	-0.3081753835709564	-0.39970403251589476	-0.3555795011093798	-0.6087933726884441	-0.3370999312316211	-0.24384310418681002	-0.24384310418680993	0.1617962004226434	-0.2981423969999719	-0.3370999312316211	-0.25537695922762454	-0.4662524041201569	-0.5143113152870138	-0.4984050996048313	0.7044027300535327	-0.3179993640019079	-0.25537695922762454	-0.5222329678670934	-0.4904144462736839	-0.3910769444375215	-0.5616371084701743	-0.25537695922762454	-0.34641016151377535	-0.317999364001908	-0.41671656387858935	-0.6087933726884441	-0.4662524041201569	-0.48239444701999135	-0.42511515094885177	-1.755942292142123	-0.3555795011093798	-0.3910769444375215	-0.9898474527915804	-0.2665300196340371	-0.4581228472908512	-0.5301374837096382	-0.36462031879561063	-0.4167165638785894	-0.48239444701999146	-0.2981423969999719	1.5238221347339345	-0.37354368381881425	-0.3464101615137754	-0.74535599249993	-0.2553769592276246	-0.26653001963403705	-0.24384310418681	-0.34641016151377535	-0.4167165638785894	-0.3081753835709564	-0.38235955645093633	2.677063067368169	-0.3555795011093798	-0.1617962004226434	-0.317999364001908	-0.3910769444375215	-0.37354368381881425	-0.4984050996048313	1.8863031397110384	-0.2773500981126145	-0.24384310418681	3.3541019662496834	1.6425934395178774	-0.39970403251589476	-0.2981423969999719	0.6642111641550713	-0.36462031879561063	-0.3910769444375215	-0.4167165638785894	-0.25537695922762454	-0.2773500981126145	-0.5301374837096382	-0.25537695922762454	-0.40824829046386296	-1.2980491157307241	-0.317999364001908	-0.3997040325158947	-0.23186944788008415	-0.32763490773780746	-0.8570374987923711	-0.2665300196340371	-0.2773500981126145	-0.2665300196340371	-0.3464101615137754	1.6216132799251584	-0.6245565802918223	-0.49840509960483137	-0.3179993640019079	-0.2878765849748735	-0.5616371084701743	-0.40824829046386296	-0.4499488723511388	-0.47434164902525694	-0.2981423969999719	-0.3555795011093798	-0.408248290463863	-0.2665300196340371	-0.3910769444375215	-0.26653001963403705	-0.5063696835418333	-0.4167165638785894	-0.2665300196340371	-0.21938172723813923	-0.3276349077378074	-0.48239444701999146	-0.37354368381881425	-0.3910769444375215	-0.74535599249993	-0.3464101615137754	-0.42511515094885177	-0.408248290463863	-0.38235955645093633	-0.2665300196340371	-0.3910769444375215	-0.34641016151377535	-0.48239444701999135	-0.26653001963403716	-0.4334498677803327	-0.14433756729740646	-0.5063696835418332	-0.4417261042993862	-0.25537695922762454	-0.4417261042993862	-0.2981423969999719	3.3541019662496834	-0.3555795011093798	-0.3179993640019079	-0.24384310418681002	-0.38235955645093633	-0.26653001963403716	-0.4417261042993862	-0.5063696835418333	-0.3179993640019079	-0.5459058939351291	-0.4662524041201569	-0.36462031879561063	-0.2878765849748735	-0.44994887235113873	-0.2193817272381393	-0.2773500981126145	-0.47434164902525694	-0.25537695922762454	-0.6562445689730082	-0.2665300196340371	-0.3081753835709564	-0.3370999312316211	-0.29814239699997197	-0.317999364001908	-0.4334498677803327	-0.38235955645093633	-0.1617962004226434	-0.37354368381881425	-0.3370999312316211	-0.40824829046386296	-0.4167165638785894	-0.3081753835709564	-0.48239444701999135	-0.5222329678670934	0.6802106785137817	-0.25537695922762454	-0.3646203187956106	-0.24384310418681002	-0.4662524041201569
