Compound_ID	AD	f_0	f_1	f_2	f_3	f_4	f_5	f_6	f_7	f_8	f_9	f_10	f_11	f_12	f_13	f_14	f_15	f_16	f_17	f_18	f_19	f_20	f_21	f_22	f_23	f_24	f_25	f_26	f_27	f_28	f_29	f_30	f_31	f_32	f_33	f_34	f_35	f_36	f_37	f_38	f_39	f_40	f_41	f_42	f_43	f_44	f_45	f_46	f_47	f_48	f_49	f_50	f_51	f_52	f_53	f_54	f_55	f_56	f_57	f_58	f_59	f_60	f_61	f_62	f_63	f_64	f_65	f_66	f_67	f_68	f_69	f_70	f_71	f_72	f_73	f_74	f_75	f_76	f_77	f_78	f_79	f_80	f_81	f_82	f_83	f_84	f_85	f_86	f_87	f_88	f_89	f_90	f_91	f_92	f_93	f_94	f_95	f_96	f_97	f_98	f_99	f_100	f_101	f_102	f_103	f_104	f_105	f_106	f_107	f_108	f_109	f_110	f_111	f_112	f_113	f_114	f_115	f_116	f_117	f_118	f_119	f_120	f_121	f_122	f_123	f_124	f_125	f_126	f_127	f_128	f_129	f_130	f_131	f_132	f_133	f_134	f_135	f_136	f_137	f_138	f_139	f_140	f_141	f_142	f_143	f_144	f_145	f_146	f_147	f_148	f_149	f_150	f_151	f_152	f_153	f_154	f_155	f_156	f_157	f_158	f_159	f_160	f_161	f_162	f_163	f_164	f_165	f_166	f_167	f_168	f_169	f_170	f_171	f_172	f_173	f_174	f_175	f_176	f_177	f_178	f_179	f_180	f_181	f_182	f_183	f_184	f_185	f_186	f_187	f_188	f_189	f_190	f_191	f_192	f_193	f_194	f_195	f_196	f_197	f_198	f_199	f_200	f_201	f_202	f_203	f_204	f_205	f_206	f_207	f_208	f_209	f_210	f_211	f_212	f_213	f_214	f_215	f_216	f_217	f_218	f_219	f_220	f_221	f_222	f_223	f_224	f_225	f_226	f_227	f_228	f_229	f_230	f_231	f_232	f_233	f_234	f_235	f_236	f_237	f_238	f_239	f_240	f_241	f_242	f_243	f_244	f_245	f_246	f_247	f_248	f_249	f_250	f_251	f_252	f_253	f_254	f_255
CHEMBL2171128	1.0	-0.43475802416973014	1.7771302964035811	-0.43475802416973014	-0.4931969619160719	-0.5731665164641667	-0.41244549671241	-0.4124454967124099	-0.2551921043650176	-0.27572339728950374	-0.25819888974716115	3.0845235797908424	-0.45448583811729526	-0.38264532596500644	-0.37561319374834196	-0.6255432421712243	1.2401334744626313	-0.34182408133375586	-0.2869720215917757	-0.4523081376574625	2.2885122100598942	-0.3393398225253192	-0.3112400083086718	2.6294445220661444	-0.27572339728950374	-0.5919955368044005	-0.33433886603473084	-0.35165909932405354	-0.4931969619160719	3.013667496725861	-0.48466414026525667	-0.37561319374834196	2.493127809501511	-0.4391682133431575	-1.9682916921611147	-0.370888069118607	-0.27572339728950374	-0.6870225614927066	-0.3442978847374036	-0.4868005648270824	0.7611827255205555	2.232429133790897	-0.41469810982568234	2.8838265717970164	-0.36374124361651966	-0.28973605376997424	-0.8341777595705917	-0.552235945051653	-0.27572339728950374	-0.38961479311103503	-0.6529598679454096	2.521904042583698	-0.2670666578007805	-0.3988171487163462	2.18981177057554	-0.37561319374834196	-0.2869720215917757	-0.3112400083086718	-0.33933982252531925	-0.6550772577278446	-0.34182408133375586	-0.25819888974716115	-0.4169456801065213	-0.38264532596500644	-0.9090119523573581	0.8295018954139963	-0.35893503009349875	-0.5878103637789966	1.8108201919135594	-0.4889348004153919	3.013667496725861	-0.31385898535260576	-0.3164640213848822	-0.36134243644333836	-0.7745966692414834	1.7073059529625254	-0.5333551478959264	-0.32419917505309154	-0.5564247846072881	-0.25215831342412987	-0.370888069118607	0.9652764009255209	0.3442978847374036	-0.3661316543125935	-0.24909649144269788	-0.31385898535260576	-0.3565188159918101	-0.3685138655950445	-0.3589350300934988	-0.27572339728950374	-0.2785656631692523	-0.7500884590437705	-0.2699746235780195	-0.3267520731276744	-0.2670666578007805	-0.4889348004153919	-0.370888069118607	2.1099411963018904	-0.3565188159918101	-0.3086066999241838	-0.297921795862109	0.24909649144269785	-0.33933982252531925	-0.40565621161929283	-0.25819888974716115	2.55151015707025	-0.5459486832355503	-0.3988171487163462	0.9190274907868942	-0.2551921043650176	-0.2728599544537922	-0.5564247846072881	-0.7302967433402215	-0.4523081376574625	-0.47824107331659804	1.9203900877613311	-0.3086066999241838	-0.39422837614619993	-0.40565621161929283	-0.34182408133375586	-0.45012706993133317	-0.3368448423330154	1.5465138438191957	0.6402825046991014	2.767457954407215	-0.2813874297663251	0.8941537912713831	-0.2924820040854895	-0.5249411950230576	0.7150479945408699	-0.5080547786603903	-0.4325468462415931	3.0368111930480994	-0.24909649144269788	1.6598500055174643	-0.3685138655950445	-0.3442978847374036	1.195425825507559	-0.3267520731276744	0.6870225614927066	-0.2785656631692523	-0.4413674147523748	-0.35409357943479	-0.35893503009349875	-0.3343388660347309	-0.7215685393812522	2.9468984587725093	2.824112206711617	1.0501700542565202	-0.27572339728950374	-0.38961479311103503	-0.3732544513450796	-0.35893503009349875	-0.34921514788478913	-0.22344724953291126	-0.41694568010652133	-0.5480450318089376	-0.39422837614619993	-0.3872983346207417	0.8040724087286836	-0.4325468462415931	-0.48038446141526137	-0.579442124843851	-0.5689824313581613	1.63707055437449	-0.5627049417950517	-0.3368448423330154	-0.33182160974507974	0.8201995322647244	-0.2699746235780195	-0.30329545094478133	-0.21320071635561041	-0.3343388660347309	1.0910894511799618	-0.4214261501141096	3.664883701977405	1.2724846096713838	-0.2521583134241299	1.665640709864818	-0.4825254612665732	2.6133861624418526	-0.31646402138488217	3.1599168702460627	-0.6066545473141627	-0.6977597630049235	-0.4236592728681617	-0.36374124361651966	-0.9090119523573581	-0.3732544513450796	-0.4258877989981323	-0.3267520731276744	-0.38264532596500644	-0.5291502622129182	2.0016999578079715	-0.604559055184799	3.268415469694709	-0.30329545094478133	-0.5101705328640018	-0.42811183441394524	-0.3368448423330154	-0.34182408133375586	1.2985112193821484	-0.4191883226430045	1.6540981256071403	-0.579442124843851	-0.4369651145421804	-0.456660254290794	-0.6276459144608478	-0.604559055184799	-0.36374124361651966	-0.48038446141526137	-0.297921795862109	-0.3803084612008576	1.751084904435372	-0.3849752306800133	0.5165088686167205	-0.2869720215917757	-0.514397522346836	-0.37561319374834196	2.05422933384478	-0.3442978847374036	-0.2551921043650176	-0.3565188159918101	-0.3872983346207417	-0.25819888974716115	2.925481423362924	-0.3779644730092272	-0.32163376045133846	-0.370888069118607	-0.38961479311103503	-0.36134243644333836	-0.6234414529713428	2.465141593686472	-0.3467614903682866	-0.6318540525518814	-0.27572339728950374	-0.6487290812422555	-0.46099955865567255	-0.34921514788478913	-0.3467614903682866	2.9909774231755653	-0.27572339728950374	2.6294445220661444	-0.37561319374834196	-0.27572339728950374	-0.3086066999241838	-0.34182408133375586	-0.370888069118607	-0.2952104124049812	-0.3393398225253192	-0.45448583811729537	-0.4325468462415931	-0.9811557810392122	-0.3368448423330154	-0.2728599544537922	3.2129545473095193	1.2472191289246473
CHEMBL257858	1.0	2.3001300594962646	-0.5627049417950517	-0.43475802416973014	2.0275875100994067	-0.5731665164641667	-0.41244549671241	2.424562779739307	-0.2551921043650176	-0.27572339728950374	-0.25819888974716115	-0.3241991750530915	-0.45448583811729526	-0.38264532596500644	-0.37561319374834196	1.5986105077709065	1.2401334744626313	-0.34182408133375586	-0.2869720215917757	-0.4523081376574625	-0.4369651145421805	-0.3393398225253192	-0.3112400083086718	-0.3803084612008576	-0.27572339728950374	1.6892019243895198	-0.33433886603473084	-0.35165909932405354	-0.4931969619160719	-0.33182160974507974	-0.48466414026525667	-0.37561319374834196	-0.4011025813393598	2.277031828846455	0.5080547786603903	-0.370888069118607	3.626823148961934	-0.6870225614927066	-0.3442978847374036	-0.4868005648270824	0.7611827255205555	-0.44794255049964155	2.4113927126900783	-0.3467614903682866	-0.36374124361651966	-0.28973605376997424	-0.8341777595705917	1.8108201919135594	-0.27572339728950374	-0.38961479311103503	-0.6529598679454096	2.521904042583698	-0.2670666578007805	-0.3988171487163462	-0.456660254290794	-0.37561319374834196	-0.2869720215917757	-0.3112400083086718	-0.33933982252531925	-0.6550772577278446	-0.34182408133375586	-0.25819888974716115	-0.4169456801065213	-0.38264532596500644	1.100095545945992	0.8295018954139963	-0.35893503009349875	-0.5878103637789966	-0.552235945051653	-0.4889348004153919	-0.33182160974507974	-0.31385898535260576	-0.3164640213848822	-0.36134243644333836	1.2909944487358056	-0.5857181006513774	1.8749233113151278	-0.32419917505309154	-0.5564247846072881	-0.25215831342412987	2.6962312440420084	-1.0359727007116153	0.3442978847374036	-0.3661316543125935	-0.24909649144269788	-0.31385898535260576	-0.3565188159918101	-0.3685138655950445	-0.3589350300934988	-0.27572339728950374	-0.2785656631692523	-0.7500884590437705	-0.2699746235780195	-0.3267520731276744	-0.2670666578007805	2.045262474977062	-0.370888069118607	-0.47394685773836137	2.804901046297012	-0.3086066999241838	-0.297921795862109	0.24909649144269785	-0.33933982252531925	-0.40565621161929283	-0.25819888974716115	-0.39192475766909796	1.8316739845831782	-0.3988171487163462	0.9190274907868942	-0.2551921043650176	-0.2728599544537922	-0.5564247846072881	1.3693063937629153	-0.4523081376574625	-0.47824107331659804	1.9203900877613311	-0.3086066999241838	-0.39422837614619993	-0.40565621161929283	-0.34182408133375586	-0.45012706993133317	-0.3368448423330154	1.5465138438191957	0.6402825046991014	-0.36134243644333836	-0.2813874297663251	0.8941537912713831	-0.2924820040854895	-0.5249411950230576	0.7150479945408699	-0.5080547786603903	-0.4325468462415931	3.0368111930480994	-0.24909649144269788	-0.6024640760767093	-0.3685138655950445	-0.3442978847374036	1.195425825507559	-0.3267520731276744	0.6870225614927066	-0.2785656631692523	-0.4413674147523748	-0.35409357943479	-0.35893503009349875	-0.3343388660347309	-0.7215685393812522	2.9468984587725093	2.824112206711617	1.0501700542565202	-0.27572339728950374	-0.38961479311103503	-0.3732544513450796	2.786019519297157	-0.34921514788478913	-0.22344724953291126	-0.41694568010652133	1.8246675764932863	-0.39422837614619993	-0.3872983346207417	0.8040724087286836	-0.4325468462415931	2.0816659994661326	1.7257978961565512	-0.5689824313581613	1.63707055437449	-0.5627049417950517	2.9687258770949763	-0.33182160974507974	0.8201995322647244	-0.2699746235780195	-0.30329545094478133	-0.21320071635561041	-0.3343388660347309	1.0910894511799618	2.3728949893812477	-0.2728599544537922	1.2724846096713838	-0.2521583134241299	-0.6003695719475777	-0.4825254612665732	2.6133861624418526	-0.31646402138488217	-0.31646402138488217	-0.6066545473141627	1.4331580194499465	-0.4236592728681617	-0.36374124361651966	1.100095545945992	2.679137506321349	-0.4258877989981323	-0.3267520731276744	2.6133861624418526	1.8898223650461363	-0.4995753714732969	-0.604559055184799	-0.30595865466681527	3.2971150634964936	-0.5101705328640018	-0.42811183441394524	-0.3368448423330154	2.925481423362924	1.2985112193821484	-0.4191883226430045	1.6540981256071403	-0.579442124843851	-0.4369651145421804	-0.456660254290794	-0.6276459144608478	1.6540981256071403	-0.36374124361651966	-0.48038446141526137	-0.297921795862109	-0.3803084612008576	1.751084904435372	-0.3849752306800133	0.5165088686167205	-0.2869720215917757	-0.514397522346836	-0.37561319374834196	-0.48680056482708234	-0.3442978847374036	-0.2551921043650176	-0.3565188159918101	-0.3872983346207417	-0.25819888974716115	-0.34182408133375586	-0.3779644730092272	-0.32163376045133846	-0.370888069118607	2.566637657710839	-0.36134243644333836	1.6039998547320953	-0.40565621161929283	-0.3467614903682866	1.5826439602013793	-0.27572339728950374	1.5414755233187538	-0.46099955865567255	-0.34921514788478913	-0.3467614903682866	-0.3343388660347309	-0.27572339728950374	-0.3803084612008576	-0.37561319374834196	-0.27572339728950374	3.24037034920393	-0.34182408133375586	-0.370888069118607	-0.2952104124049812	-0.3393398225253192	-0.45448583811729537	-0.4325468462415931	-0.9811557810392122	-0.3368448423330154	-0.2728599544537922	3.2129545473095193	1.2472191289246473
CHEMBL585573	1.0	-0.43475802416973014	1.7771302964035811	-0.43475802416973014	-0.4931969619160719	-0.5731665164641667	-0.41244549671241	-0.4124454967124099	-0.2551921043650176	-0.27572339728950374	-0.25819888974716115	-0.3241991750530915	-0.45448583811729526	-0.38264532596500644	-0.37561319374834196	-0.6255432421712243	1.2401334744626313	-0.34182408133375586	-0.2869720215917757	-0.4523081376574625	2.2885122100598942	-0.3393398225253192	-0.3112400083086718	-0.3803084612008576	3.626823148961934	-0.5919955368044005	-0.33433886603473084	-0.35165909932405354	2.0275875100994067	-0.33182160974507974	-0.48466414026525667	2.662313296348138	-0.4011025813393598	-0.4391682133431575	0.5080547786603903	-0.370888069118607	-0.27572339728950374	-0.6870225614927066	-0.3442978847374036	-0.4868005648270824	-1.3137450003428848	-0.44794255049964155	-0.41469810982568234	-0.3467614903682866	-0.36374124361651966	-0.28973605376997424	1.1987852571312478	1.8108201919135594	-0.27572339728950374	-0.38961479311103503	-0.6529598679454096	-0.396525792859072	-0.2670666578007805	2.5074147468799985	-0.456660254290794	-0.37561319374834196	3.4846602621858476	-0.3112400083086718	-0.33933982252531925	-0.6550772577278446	-0.34182408133375586	-0.25819888974716115	-0.4169456801065213	-0.38264532596500644	1.100095545945992	0.8295018954139963	2.786019519297157	-0.5878103637789966	-0.552235945051653	-0.4889348004153919	-0.33182160974507974	-0.31385898535260576	-0.3164640213848822	-0.36134243644333836	1.2909944487358056	1.7073059529625254	-0.5333551478959264	-0.32419917505309154	-0.5564247846072881	-0.25215831342412987	-0.370888069118607	-1.0359727007116153	0.3442978847374036	-0.3661316543125935	-0.24909649144269788	-0.31385898535260576	2.804901046297012	-0.3685138655950445	-0.3589350300934988	-0.27572339728950374	-0.2785656631692523	1.3331760913570414	-0.2699746235780195	-0.3267520731276744	-0.2670666578007805	-0.4889348004153919	-0.370888069118607	-0.47394685773836137	-0.3565188159918101	-0.3086066999241838	-0.297921795862109	0.24909649144269785	-0.33933982252531925	-0.40565621161929283	-0.25819888974716115	-0.39192475766909796	-0.5459486832355503	-0.3988171487163462	0.9190274907868942	-0.2551921043650176	-0.2728599544537922	-0.5564247846072881	-0.7302967433402215	-0.4523081376574625	-0.47824107331659804	-0.5207275367504819	-0.3086066999241838	-0.39422837614619993	-0.40565621161929283	-0.34182408133375586	-0.45012706993133317	2.968725877094976	-0.6466156148531127	0.6402825046991014	-0.36134243644333836	-0.2813874297663251	-1.1183758429051855	-0.2924820040854895	-0.5249411950230576	0.7150479945408699	-0.5080547786603903	-0.4325468462415931	-0.329292779969071	-0.24909649144269788	1.6598500055174643	-0.3685138655950445	2.9044616430411736	-0.8365219979879686	-0.3267520731276744	-1.4555562743489547	-0.2785656631692523	-0.4413674147523748	-0.35409357943479	-0.35893503009349875	-0.3343388660347309	1.3858697343671667	-0.33933982252531925	-0.35409357943479	1.0501700542565202	-0.27572339728950374	2.566637657710839	-0.3732544513450796	-0.35893503009349875	-0.34921514788478913	-0.22344724953291126	-0.41694568010652133	-0.5480450318089376	-0.39422837614619993	-0.3872983346207417	-1.2436690889332926	-0.4325468462415931	-0.48038446141526137	-0.579442124843851	-0.5689824313581613	-0.6108472217815261	1.7771302964035811	2.9687258770949763	3.013667496725861	0.8201995322647244	-0.2699746235780195	-0.30329545094478133	-0.21320071635561041	-0.3343388660347309	1.0910894511799618	-0.4214261501141096	-0.2728599544537922	1.2724846096713838	-0.2521583134241299	1.665640709864818	2.072429499108951	-0.38264532596500644	-0.31646402138488217	-0.31646402138488217	-0.6066545473141627	-0.6977597630049235	-0.4236592728681617	-0.36374124361651966	1.100095545945992	-0.3732544513450796	-0.4258877989981323	-0.3267520731276744	-0.38264532596500644	-0.5291502622129182	2.0016999578079715	-0.604559055184799	-0.30595865466681527	-0.30329545094478133	-0.5101705328640018	-0.42811183441394524	-0.3368448423330154	-0.34182408133375586	-0.7701127145253434	-0.4191883226430045	-0.604559055184799	-0.579442124843851	-0.4369651145421804	-0.456660254290794	-0.6276459144608478	-0.604559055184799	-0.36374124361651966	-0.48038446141526137	-0.297921795862109	-0.3803084612008576	-0.5710745364014457	-0.3849752306800133	0.5165088686167205	-0.2869720215917757	-0.514397522346836	-0.37561319374834196	-0.48680056482708234	-0.3442978847374036	-0.2551921043650176	-0.3565188159918101	-0.3872983346207417	-0.25819888974716115	-0.34182408133375586	-0.3779644730092272	-0.32163376045133846	-0.370888069118607	-0.38961479311103503	2.767457954407215	-0.6234414529713428	-0.40565621161929283	2.8838265717970164	-0.6318540525518814	-0.27572339728950374	-0.6487290812422555	-0.46099955865567255	-0.34921514788478913	-0.3467614903682866	-0.3343388660347309	-0.27572339728950374	-0.3803084612008576	-0.37561319374834196	-0.27572339728950374	-0.3086066999241838	-0.34182408133375586	-0.370888069118607	-0.2952104124049812	-0.3393398225253192	-0.45448583811729537	-0.4325468462415931	-0.9811557810392122	-0.3368448423330154	-0.2728599544537922	-0.3112400083086718	-0.8017837257372732
CHEMBL86738	1.0	2.3001300594962646	-0.5627049417950517	-0.43475802416973014	2.0275875100994067	-0.5731665164641667	-0.41244549671241	-0.4124454967124099	-0.2551921043650176	-0.27572339728950374	-0.25819888974716115	-0.3241991750530915	-0.45448583811729526	-0.38264532596500644	-0.37561319374834196	1.5986105077709065	1.2401334744626313	-0.34182408133375586	-0.2869720215917757	2.2108821768696765	-0.4369651145421805	-0.3393398225253192	-0.3112400083086718	-0.3803084612008576	-0.27572339728950374	1.6892019243895198	-0.33433886603473084	-0.35165909932405354	-0.4931969619160719	-0.33182160974507974	-0.48466414026525667	-0.37561319374834196	2.493127809501511	-0.4391682133431575	0.5080547786603903	2.6962312440420084	-0.27572339728950374	-0.6870225614927066	-0.3442978847374036	-0.4868005648270824	0.7611827255205555	-0.44794255049964155	-0.41469810982568234	-0.3467614903682866	-0.36374124361651966	-0.28973605376997424	1.1987852571312478	-0.552235945051653	-0.27572339728950374	-0.38961479311103503	1.5314876902719607	-0.396525792859072	-0.2670666578007805	-0.3988171487163462	-0.456660254290794	-0.37561319374834196	-0.2869720215917757	3.2129545473095193	-0.33933982252531925	-0.6550772577278446	-0.34182408133375586	-0.25819888974716115	-0.4169456801065213	-0.38264532596500644	1.100095545945992	0.8295018954139963	-0.35893503009349875	-0.5878103637789966	-0.552235945051653	2.045262474977062	-0.33182160974507974	-0.31385898535260576	-0.3164640213848822	-0.36134243644333836	1.2909944487358056	-0.5857181006513774	1.8749233113151278	-0.32419917505309154	-0.5564247846072881	-0.25215831342412987	-0.370888069118607	-1.0359727007116153	0.3442978847374036	-0.3661316543125935	-0.24909649144269788	-0.31385898535260576	-0.3565188159918101	-0.3685138655950445	-0.3589350300934988	-0.27572339728950374	-0.2785656631692523	-0.7500884590437705	-0.2699746235780195	-0.3267520731276744	-0.2670666578007805	-0.4889348004153919	-0.370888069118607	-0.47394685773836137	-0.3565188159918101	-0.3086066999241838	-0.297921795862109	0.24909649144269785	-0.33933982252531925	-0.40565621161929283	-0.25819888974716115	-0.39192475766909796	1.8316739845831782	-0.3988171487163462	0.9190274907868942	-0.2551921043650176	-0.2728599544537922	1.7971880974097465	1.3693063937629153	-0.4523081376574625	-0.47824107331659804	-0.5207275367504819	-0.3086066999241838	-0.39422837614619993	2.465141593686472	-0.34182408133375586	-0.45012706993133317	-0.3368448423330154	1.5465138438191957	0.6402825046991014	-0.36134243644333836	-0.2813874297663251	0.8941537912713831	-0.2924820040854895	1.9049752800522275	0.7150479945408699	1.9682916921611147	-0.4325468462415931	-0.329292779969071	-0.24909649144269788	1.6598500055174643	-0.3685138655950445	-0.3442978847374036	-0.8365219979879686	-0.3267520731276744	0.6870225614927066	-0.2785656631692523	-0.4413674147523748	-0.35409357943479	-0.35893503009349875	-0.3343388660347309	-0.7215685393812522	-0.33933982252531925	-0.35409357943479	1.0501700542565202	-0.27572339728950374	-0.38961479311103503	-0.3732544513450796	-0.35893503009349875	2.863564212655271	-0.22344724953291126	-0.41694568010652133	-0.5480450318089376	2.5366007636881758	-0.3872983346207417	-1.2436690889332926	-0.4325468462415931	-0.48038446141526137	1.7257978961565512	1.7575235101952094	1.63707055437449	-0.5627049417950517	-0.3368448423330154	-0.33182160974507974	-1.2192155209340498	-0.2699746235780195	-0.30329545094478133	-0.21320071635561041	-0.3343388660347309	1.0910894511799618	-0.4214261501141096	-0.2728599544537922	-0.7858641215772721	-0.2521583134241299	-0.6003695719475777	-0.4825254612665732	-0.38264532596500644	-0.31646402138488217	3.1599168702460627	-0.6066545473141627	1.4331580194499465	-0.4236592728681617	-0.36374124361651966	1.100095545945992	-0.3732544513450796	-0.4258877989981323	-0.3267520731276744	-0.38264532596500644	-0.5291502622129182	-0.4995753714732969	1.6540981256071403	-0.30595865466681527	-0.30329545094478133	-0.5101705328640018	-0.42811183441394524	-0.3368448423330154	-0.34182408133375586	-0.7701127145253434	-0.4191883226430045	-0.604559055184799	-0.579442124843851	2.288512210059894	2.18981177057554	1.5932550136313832	1.6540981256071403	-0.36374124361651966	-0.48038446141526137	-0.297921795862109	-0.3803084612008576	-0.5710745364014457	-0.3849752306800133	0.5165088686167205	-0.2869720215917757	-0.514397522346836	-0.37561319374834196	-0.48680056482708234	-0.3442978847374036	-0.2551921043650176	-0.3565188159918101	-0.3872983346207417	-0.25819888974716115	-0.34182408133375586	-0.3779644730092272	-0.32163376045133846	-0.370888069118607	-0.38961479311103503	2.767457954407215	1.6039998547320953	-0.40565621161929283	-0.3467614903682866	1.5826439602013793	-0.27572339728950374	1.5414755233187538	-0.46099955865567255	-0.34921514788478913	-0.3467614903682866	-0.3343388660347309	-0.27572339728950374	-0.3803084612008576	-0.37561319374834196	-0.27572339728950374	-0.3086066999241838	-0.34182408133375586	-0.370888069118607	-0.2952104124049812	-0.3393398225253192	-0.45448583811729537	-0.4325468462415931	-0.9811557810392122	-0.3368448423330154	-0.2728599544537922	-0.3112400083086718	-0.8017837257372732
CHEMBL97162	1.0	2.3001300594962646	-0.5627049417950517	2.3001300594962646	-0.4931969619160719	-0.5731665164641667	-0.41244549671241	-0.4124454967124099	-0.2551921043650176	-0.27572339728950374	-0.25819888974716115	-0.3241991750530915	-0.45448583811729526	-0.38264532596500644	-0.37561319374834196	-0.6255432421712243	-0.8063648152335495	-0.34182408133375586	-0.2869720215917757	-0.4523081376574625	2.2885122100598942	-0.3393398225253192	3.2129545473095193	-0.3803084612008576	-0.27572339728950374	-0.5919955368044005	-0.33433886603473084	-0.35165909932405354	-0.4931969619160719	-0.33182160974507974	-0.48466414026525667	-0.37561319374834196	-0.4011025813393598	-0.4391682133431575	0.5080547786603903	-0.370888069118607	-0.27572339728950374	-0.6870225614927066	-0.3442978847374036	-0.4868005648270824	0.7611827255205555	-0.44794255049964155	-0.41469810982568234	-0.3467614903682866	-0.36374124361651966	-0.28973605376997424	1.1987852571312478	1.8108201919135594	-0.27572339728950374	-0.38961479311103503	-0.6529598679454096	-0.396525792859072	-0.2670666578007805	-0.3988171487163462	-0.456660254290794	-0.37561319374834196	-0.2869720215917757	-0.3112400083086718	-0.33933982252531925	-0.6550772577278446	-0.34182408133375586	-0.25819888974716115	2.398393958043934	-0.38264532596500644	1.100095545945992	-1.2055427546683417	2.786019519297157	-0.5878103637789966	1.8108201919135594	-0.4889348004153919	-0.33182160974507974	-0.31385898535260576	3.159916870246063	-0.36134243644333836	1.2909944487358056	1.7073059529625254	-0.5333551478959264	-0.32419917505309154	-0.5564247846072881	-0.25215831342412987	-0.370888069118607	-1.0359727007116153	0.3442978847374036	-0.3661316543125935	-0.24909649144269788	-0.31385898535260576	-0.3565188159918101	-0.3685138655950445	-0.3589350300934988	-0.27572339728950374	-0.2785656631692523	1.3331760913570414	-0.2699746235780195	-0.3267520731276744	-0.2670666578007805	-0.4889348004153919	-0.370888069118607	-0.47394685773836137	2.804901046297012	-0.3086066999241838	-0.297921795862109	0.24909649144269785	-0.33933982252531925	-0.40565621161929283	-0.25819888974716115	-0.39192475766909796	-0.5459486832355503	-0.3988171487163462	-1.0881067324153437	-0.2551921043650176	-0.2728599544537922	-0.5564247846072881	-0.7302967433402215	-0.4523081376574625	-0.47824107331659804	-0.5207275367504819	-0.3086066999241838	-0.39422837614619993	-0.40565621161929283	-0.34182408133375586	-0.45012706993133317	-0.3368448423330154	-0.6466156148531127	0.6402825046991014	-0.36134243644333836	-0.2813874297663251	-1.1183758429051855	-0.2924820040854895	-0.5249411950230576	0.7150479945408699	-0.5080547786603903	2.31188831611886	3.0368111930480994	-0.24909649144269788	-0.6024640760767093	2.7136021011998728	2.9044616430411736	1.195425825507559	-0.3267520731276744	-1.4555562743489547	-0.2785656631692523	-0.4413674147523748	-0.35409357943479	-0.35893503009349875	-0.3343388660347309	-0.7215685393812522	2.9468984587725093	-0.35409357943479	-0.9522267331341506	-0.27572339728950374	-0.38961479311103503	-0.3732544513450796	-0.35893503009349875	-0.34921514788478913	-0.22344724953291126	-0.41694568010652133	-0.5480450318089376	-0.39422837614619993	-0.3872983346207417	0.8040724087286836	-0.4325468462415931	-0.48038446141526137	-0.579442124843851	-0.5689824313581613	-0.6108472217815261	1.7771302964035811	-0.3368448423330154	-0.33182160974507974	0.8201995322647244	-0.2699746235780195	-0.30329545094478133	-0.21320071635561041	-0.3343388660347309	1.0910894511799618	-0.4214261501141096	-0.2728599544537922	-0.7858641215772721	3.9657625656704067	-0.6003695719475777	-0.4825254612665732	-0.38264532596500644	3.1599168702460627	-0.31646402138488217	-0.6066545473141627	1.4331580194499465	-0.4236592728681617	-0.36374124361651966	-0.9090119523573581	2.679137506321349	-0.4258877989981323	-0.3267520731276744	-0.38264532596500644	-0.5291502622129182	-0.4995753714732969	-0.604559055184799	3.268415469694709	-0.30329545094478133	-0.5101705328640018	-0.42811183441394524	-0.3368448423330154	-0.34182408133375586	-0.7701127145253434	-0.4191883226430045	-0.604559055184799	-0.579442124843851	2.288512210059894	-0.456660254290794	-0.6276459144608478	-0.604559055184799	-0.36374124361651966	-0.48038446141526137	-0.297921795862109	-0.3803084612008576	1.751084904435372	-0.3849752306800133	0.5165088686167205	3.4846602621858476	-0.514397522346836	-0.37561319374834196	-0.48680056482708234	-0.3442978847374036	3.918616535916159	2.804901046297012	-0.3872983346207417	-0.25819888974716115	-0.34182408133375586	-0.3779644730092272	-0.32163376045133846	-0.370888069118607	-0.38961479311103503	-0.36134243644333836	-0.6234414529713428	-0.40565621161929283	-0.3467614903682866	1.5826439602013793	-0.27572339728950374	-0.6487290812422555	-0.46099955865567255	-0.34921514788478913	-0.3467614903682866	-0.3343388660347309	-0.27572339728950374	-0.3803084612008576	-0.37561319374834196	-0.27572339728950374	-0.3086066999241838	-0.34182408133375586	-0.370888069118607	-0.2952104124049812	-0.3393398225253192	-0.45448583811729537	-0.4325468462415931	1.0192061437387938	-0.3368448423330154	-0.2728599544537922	-0.3112400083086718	-0.8017837257372732
CHEMBL2071201	1.0	2.3001300594962646	-0.5627049417950517	-0.43475802416973014	-0.4931969619160719	-0.5731665164641667	-0.41244549671241	-0.4124454967124099	-0.2551921043650176	-0.27572339728950374	-0.25819888974716115	-0.3241991750530915	-0.45448583811729526	2.6133861624418526	-0.37561319374834196	-0.6255432421712243	-0.8063648152335495	-0.34182408133375586	-0.2869720215917757	-0.4523081376574625	2.2885122100598942	-0.3393398225253192	-0.3112400083086718	-0.3803084612008576	-0.27572339728950374	-0.5919955368044005	-0.33433886603473084	-0.35165909932405354	-0.4931969619160719	-0.33182160974507974	-0.48466414026525667	-0.37561319374834196	-0.4011025813393598	2.277031828846455	0.5080547786603903	-0.370888069118607	-0.27572339728950374	-0.6870225614927066	-0.3442978847374036	-0.4868005648270824	0.7611827255205555	-0.44794255049964155	-0.41469810982568234	-0.3467614903682866	2.749207073845788	-0.28973605376997424	-0.8341777595705917	1.8108201919135594	-0.27572339728950374	-0.38961479311103503	-0.6529598679454096	2.521904042583698	-0.2670666578007805	-0.3988171487163462	2.18981177057554	-0.37561319374834196	-0.2869720215917757	-0.3112400083086718	-0.33933982252531925	1.5265375010400002	2.925481423362924	3.872983346207417	-0.4169456801065213	-0.38264532596500644	1.100095545945992	-1.2055427546683417	2.786019519297157	-0.5878103637789966	-0.552235945051653	-0.4889348004153919	-0.33182160974507974	-0.31385898535260576	3.159916870246063	-0.36134243644333836	-0.7745966692414834	-0.5857181006513774	-0.5333551478959264	-0.32419917505309154	-0.5564247846072881	-0.25215831342412987	-0.370888069118607	-1.0359727007116153	0.3442978847374036	-0.3661316543125935	-0.24909649144269788	-0.31385898535260576	-0.3565188159918101	2.7136021011998728	-0.3589350300934988	3.626823148961934	-0.2785656631692523	-0.7500884590437705	-0.2699746235780195	-0.3267520731276744	-0.2670666578007805	-0.4889348004153919	2.6962312440420084	-0.47394685773836137	-0.3565188159918101	-0.3086066999241838	-0.297921795862109	0.24909649144269785	-0.33933982252531925	-0.40565621161929283	-0.25819888974716115	-0.39192475766909796	-0.5459486832355503	-0.3988171487163462	-1.0881067324153437	-0.2551921043650176	-0.2728599544537922	-0.5564247846072881	-0.7302967433402215	-0.4523081376574625	-0.47824107331659804	-0.5207275367504819	-0.3086066999241838	-0.39422837614619993	-0.40565621161929283	-0.34182408133375586	-0.45012706993133317	-0.3368448423330154	1.5465138438191957	0.6402825046991014	-0.36134243644333836	-0.2813874297663251	0.8941537912713831	-0.2924820040854895	-0.5249411950230576	0.7150479945408699	1.9682916921611147	-0.4325468462415931	-0.329292779969071	-0.24909649144269788	-0.6024640760767093	-0.3685138655950445	-0.3442978847374036	1.195425825507559	-0.3267520731276744	0.6870225614927066	-0.2785656631692523	2.265686062395524	-0.35409357943479	-0.35893503009349875	-0.3343388660347309	1.3858697343671667	-0.33933982252531925	-0.35409357943479	1.0501700542565202	-0.27572339728950374	-0.38961479311103503	2.679137506321349	-0.35893503009349875	-0.34921514788478913	-0.22344724953291126	-0.41694568010652133	-0.5480450318089376	-0.39422837614619993	-0.3872983346207417	0.8040724087286836	-0.4325468462415931	-0.48038446141526137	-0.579442124843851	-0.5689824313581613	-0.6108472217815261	-0.5627049417950517	2.9687258770949763	-0.33182160974507974	0.8201995322647244	-0.2699746235780195	-0.30329545094478133	4.69041575982343	-0.3343388660347309	1.0910894511799618	-0.4214261501141096	-0.2728599544537922	-0.7858641215772721	-0.2521583134241299	1.665640709864818	-0.4825254612665732	-0.38264532596500644	-0.31646402138488217	-0.31646402138488217	-0.6066545473141627	-0.6977597630049235	-0.4236592728681617	-0.36374124361651966	-0.9090119523573581	-0.3732544513450796	-0.4258877989981323	-0.3267520731276744	-0.38264532596500644	1.8898223650461363	2.0016999578079715	-0.604559055184799	-0.30595865466681527	-0.30329545094478133	1.9601288894248496	-0.42811183441394524	-0.3368448423330154	-0.34182408133375586	-0.7701127145253434	-0.4191883226430045	1.6540981256071403	-0.579442124843851	-0.4369651145421804	-0.456660254290794	-0.6276459144608478	-0.604559055184799	2.749207073845788	-0.48038446141526137	-0.297921795862109	-0.3803084612008576	-0.5710745364014457	-0.3849752306800133	-1.9360751784923524	-0.2869720215917757	1.9440218052328475	-0.37561319374834196	2.05422933384478	-0.3442978847374036	-0.2551921043650176	-0.3565188159918101	-0.3872983346207417	3.872983346207417	-0.34182408133375586	-0.3779644730092272	3.1091263510296048	-0.370888069118607	-0.38961479311103503	-0.36134243644333836	-0.6234414529713428	-0.40565621161929283	-0.3467614903682866	-0.6318540525518814	-0.27572339728950374	1.5414755233187538	-0.46099955865567255	-0.34921514788478913	-0.3467614903682866	-0.3343388660347309	-0.27572339728950374	-0.3803084612008576	-0.37561319374834196	-0.27572339728950374	-0.3086066999241838	-0.34182408133375586	-0.370888069118607	-0.2952104124049812	2.9468984587725093	-0.45448583811729537	-0.4325468462415931	1.0192061437387938	-0.3368448423330154	-0.2728599544537922	3.2129545473095193	1.2472191289246473
CHEMBL8682	1.0	-0.43475802416973014	1.7771302964035811	-0.43475802416973014	-0.4931969619160719	-0.5731665164641667	-0.41244549671241	-0.4124454967124099	-0.2551921043650176	-0.27572339728950374	3.872983346207417	-0.3241991750530915	-0.45448583811729526	2.6133861624418526	-0.37561319374834196	-0.6255432421712243	-0.8063648152335495	-0.34182408133375586	3.4846602621858476	-0.4523081376574625	-0.4369651145421805	-0.3393398225253192	-0.3112400083086718	2.6294445220661444	-0.27572339728950374	-0.5919955368044005	-0.33433886603473084	-0.35165909932405354	-0.4931969619160719	-0.33182160974507974	-0.48466414026525667	-0.37561319374834196	-0.4011025813393598	-0.4391682133431575	-1.9682916921611147	-0.370888069118607	-0.27572339728950374	-0.6870225614927066	-0.3442978847374036	-0.4868005648270824	0.7611827255205555	-0.44794255049964155	-0.41469810982568234	-0.3467614903682866	-0.36374124361651966	-0.28973605376997424	-0.8341777595705917	-0.552235945051653	-0.27572339728950374	-0.38961479311103503	-0.6529598679454096	-0.396525792859072	-0.2670666578007805	-0.3988171487163462	-0.456660254290794	-0.37561319374834196	-0.2869720215917757	-0.3112400083086718	-0.33933982252531925	-0.6550772577278446	-0.34182408133375586	-0.25819888974716115	-0.4169456801065213	-0.38264532596500644	-0.9090119523573581	-1.2055427546683417	-0.35893503009349875	-0.5878103637789966	-0.552235945051653	-0.4889348004153919	-0.33182160974507974	3.186144245246149	-0.3164640213848822	-0.36134243644333836	-0.7745966692414834	-0.5857181006513774	-0.5333551478959264	-0.32419917505309154	-0.5564247846072881	-0.25215831342412987	-0.370888069118607	0.9652764009255209	0.3442978847374036	-0.3661316543125935	4.014508571390456	-0.31385898535260576	-0.3565188159918101	-0.3685138655950445	-0.3589350300934988	-0.27572339728950374	-0.2785656631692523	-0.7500884590437705	-0.2699746235780195	-0.3267520731276744	-0.2670666578007805	-0.4889348004153919	-0.370888069118607	-0.47394685773836137	-0.3565188159918101	-0.3086066999241838	-0.297921795862109	0.24909649144269785	-0.33933982252531925	-0.40565621161929283	-0.25819888974716115	-0.39192475766909796	1.8316739845831782	-0.3988171487163462	-1.0881067324153437	-0.2551921043650176	-0.2728599544537922	-0.5564247846072881	-0.7302967433402215	-0.4523081376574625	-0.47824107331659804	-0.5207275367504819	-0.3086066999241838	-0.39422837614619993	-0.40565621161929283	-0.34182408133375586	-0.45012706993133317	-0.3368448423330154	-0.6466156148531127	-1.5618105955744435	-0.36134243644333836	-0.2813874297663251	0.8941537912713831	-0.2924820040854895	-0.5249411950230576	0.7150479945408699	1.9682916921611147	-0.4325468462415931	-0.329292779969071	-0.24909649144269788	1.6598500055174643	2.7136021011998728	-0.3442978847374036	-0.8365219979879686	-0.3267520731276744	0.6870225614927066	-0.2785656631692523	-0.4413674147523748	-0.35409357943479	-0.35893503009349875	-0.3343388660347309	-0.7215685393812522	-0.33933982252531925	-0.35409357943479	-0.9522267331341506	-0.27572339728950374	-0.38961479311103503	-0.3732544513450796	-0.35893503009349875	-0.34921514788478913	-0.22344724953291126	-0.41694568010652133	-0.5480450318089376	-0.39422837614619993	-0.3872983346207417	-1.2436690889332926	-0.4325468462415931	2.0816659994661326	1.7257978961565512	-0.5689824313581613	-0.6108472217815261	-0.5627049417950517	-0.3368448423330154	-0.33182160974507974	-1.2192155209340498	-0.2699746235780195	-0.30329545094478133	-0.21320071635561041	2.9909774231755657	-0.916515138991168	-0.4214261501141096	-0.2728599544537922	-0.7858641215772721	-0.2521583134241299	-0.6003695719475777	-0.4825254612665732	-0.38264532596500644	-0.31646402138488217	-0.31646402138488217	-0.6066545473141627	-0.6977597630049235	-0.4236592728681617	-0.36374124361651966	-0.9090119523573581	-0.3732544513450796	-0.4258877989981323	-0.3267520731276744	-0.38264532596500644	-0.5291502622129182	-0.4995753714732969	-0.604559055184799	-0.30595865466681527	-0.30329545094478133	-0.5101705328640018	2.3358382544339817	-0.3368448423330154	-0.34182408133375586	-0.7701127145253434	2.3855626361320073	-0.604559055184799	1.7257978961565512	-0.4369651145421804	-0.456660254290794	-0.6276459144608478	-0.604559055184799	-0.36374124361651966	-0.48038446141526137	-0.297921795862109	-0.3803084612008576	-0.5710745364014457	-0.3849752306800133	0.5165088686167205	-0.2869720215917757	-0.514397522346836	-0.37561319374834196	-0.48680056482708234	-0.3442978847374036	-0.2551921043650176	-0.3565188159918101	-0.3872983346207417	-0.25819888974716115	-0.34182408133375586	-0.3779644730092272	-0.32163376045133846	-0.370888069118607	-0.38961479311103503	-0.36134243644333836	1.6039998547320953	-0.40565621161929283	-0.3467614903682866	-0.6318540525518814	-0.27572339728950374	-0.6487290812422555	-0.46099955865567255	-0.34921514788478913	-0.3467614903682866	-0.3343388660347309	-0.27572339728950374	2.6294445220661444	-0.37561319374834196	-0.27572339728950374	-0.3086066999241838	-0.34182408133375586	-0.370888069118607	-0.2952104124049812	-0.3393398225253192	-0.45448583811729537	2.31188831611886	-0.9811557810392122	-0.3368448423330154	-0.2728599544537922	-0.3112400083086718	-0.8017837257372732
CHEMBL4469360	1.0	2.3001300594962646	-0.5627049417950517	-0.43475802416973014	2.0275875100994067	1.7446936819843315	2.4245627797393072	-0.4124454967124099	-0.2551921043650176	-0.27572339728950374	-0.25819888974716115	-0.3241991750530915	-0.45448583811729526	-0.38264532596500644	2.662313296348138	-0.6255432421712243	-0.8063648152335495	-0.34182408133375586	3.4846602621858476	-0.4523081376574625	-0.4369651145421805	-0.3393398225253192	-0.3112400083086718	-0.3803084612008576	3.626823148961934	1.6892019243895198	-0.33433886603473084	-0.35165909932405354	-0.4931969619160719	-0.33182160974507974	-0.48466414026525667	-0.37561319374834196	-0.4011025813393598	-0.4391682133431575	0.5080547786603903	-0.370888069118607	-0.27572339728950374	-0.6870225614927066	2.9044616430411736	-0.4868005648270824	0.7611827255205555	2.232429133790897	-0.41469810982568234	2.8838265717970164	2.749207073845788	-0.28973605376997424	1.1987852571312478	-0.552235945051653	-0.27572339728950374	-0.38961479311103503	-0.6529598679454096	-0.396525792859072	-0.2670666578007805	-0.3988171487163462	-0.456660254290794	-0.37561319374834196	-0.2869720215917757	-0.3112400083086718	-0.33933982252531925	-0.6550772577278446	-0.34182408133375586	-0.25819888974716115	-0.4169456801065213	-0.38264532596500644	-0.9090119523573581	0.8295018954139963	-0.35893503009349875	1.7012289364397415	-0.552235945051653	-0.4889348004153919	3.013667496725861	-0.31385898535260576	-0.3164640213848822	-0.36134243644333836	1.2909944487358056	-0.5857181006513774	1.8749233113151278	-0.32419917505309154	1.7971880974097465	-0.25215831342412987	2.6962312440420084	0.9652764009255209	0.3442978847374036	-0.3661316543125935	-0.24909649144269788	-0.31385898535260576	-0.3565188159918101	-0.3685138655950445	-0.3589350300934988	-0.27572339728950374	-0.2785656631692523	-0.7500884590437705	-0.2699746235780195	-0.3267520731276744	-0.2670666578007805	2.045262474977062	2.6962312440420084	-0.47394685773836137	-0.3565188159918101	-0.3086066999241838	-0.297921795862109	0.24909649144269785	-0.33933982252531925	-0.40565621161929283	-0.25819888974716115	-0.39192475766909796	-0.5459486832355503	-0.3988171487163462	0.9190274907868942	3.918616535916159	-0.2728599544537922	-0.5564247846072881	1.3693063937629153	-0.4523081376574625	-0.47824107331659804	-0.5207275367504819	-0.3086066999241838	-0.39422837614619993	-0.40565621161929283	-0.34182408133375586	-0.45012706993133317	-0.3368448423330154	1.5465138438191957	0.6402825046991014	-0.36134243644333836	-0.2813874297663251	0.8941537912713831	-0.2924820040854895	-0.5249411950230576	0.7150479945408699	-0.5080547786603903	-0.4325468462415931	-0.329292779969071	-0.24909649144269788	-0.6024640760767093	-0.3685138655950445	-0.3442978847374036	-0.8365219979879686	-0.3267520731276744	0.6870225614927066	-0.2785656631692523	-0.4413674147523748	-0.35409357943479	2.786019519297157	-0.3343388660347309	-0.7215685393812522	-0.33933982252531925	-0.35409357943479	-0.9522267331341506	-0.27572339728950374	-0.38961479311103503	-0.3732544513450796	-0.35893503009349875	-0.34921514788478913	-0.22344724953291126	-0.41694568010652133	-0.5480450318089376	-0.39422837614619993	-0.3872983346207417	-1.2436690889332926	-0.4325468462415931	2.0816659994661326	-0.579442124843851	1.7575235101952094	-0.6108472217815261	1.7771302964035811	-0.3368448423330154	-0.33182160974507974	0.8201995322647244	-0.2699746235780195	-0.30329545094478133	-0.21320071635561041	-0.3343388660347309	-0.916515138991168	-0.4214261501141096	-0.2728599544537922	1.2724846096713838	-0.2521583134241299	-0.6003695719475777	2.072429499108951	2.6133861624418526	-0.31646402138488217	-0.31646402138488217	-0.6066545473141627	1.4331580194499465	2.3603873774083293	-0.36374124361651966	1.100095545945992	2.679137506321349	-0.4258877989981323	-0.3267520731276744	-0.38264532596500644	1.8898223650461363	-0.4995753714732969	-0.604559055184799	-0.30595865466681527	-0.30329545094478133	-0.5101705328640018	-0.42811183441394524	-0.3368448423330154	2.925481423362924	1.2985112193821484	-0.4191883226430045	-0.604559055184799	-0.579442124843851	-0.4369651145421804	-0.456660254290794	1.5932550136313832	-0.604559055184799	2.749207073845788	-0.48038446141526137	-0.297921795862109	-0.3803084612008576	-0.5710745364014457	-0.3849752306800133	0.5165088686167205	-0.2869720215917757	-0.514397522346836	-0.37561319374834196	-0.48680056482708234	-0.3442978847374036	-0.2551921043650176	-0.3565188159918101	-0.3872983346207417	-0.25819888974716115	-0.34182408133375586	-0.3779644730092272	-0.32163376045133846	-0.370888069118607	-0.38961479311103503	2.767457954407215	1.6039998547320953	-0.40565621161929283	-0.3467614903682866	-0.6318540525518814	3.626823148961934	-0.6487290812422555	-0.46099955865567255	-0.34921514788478913	-0.3467614903682866	-0.3343388660347309	-0.27572339728950374	-0.3803084612008576	-0.37561319374834196	-0.27572339728950374	-0.3086066999241838	-0.34182408133375586	-0.370888069118607	-0.2952104124049812	-0.3393398225253192	-0.45448583811729537	-0.4325468462415931	-0.9811557810392122	-0.3368448423330154	-0.2728599544537922	-0.3112400083086718	1.2472191289246473
CHEMBL166851	1.0	-0.43475802416973014	-0.5627049417950517	-0.43475802416973014	-0.4931969619160719	-0.5731665164641667	-0.41244549671241	-0.4124454967124099	-0.2551921043650176	-0.27572339728950374	-0.25819888974716115	-0.3241991750530915	2.2002885813615087	2.6133861624418526	-0.37561319374834196	-0.6255432421712243	-0.8063648152335495	2.925481423362924	-0.2869720215917757	2.2108821768696765	-0.4369651145421805	-0.3393398225253192	-0.3112400083086718	-0.3803084612008576	-0.27572339728950374	-0.5919955368044005	-0.33433886603473084	-0.35165909932405354	-0.4931969619160719	-0.33182160974507974	-0.48466414026525667	-0.37561319374834196	-0.4011025813393598	-0.4391682133431575	0.5080547786603903	-0.370888069118607	-0.27572339728950374	-0.6870225614927066	-0.3442978847374036	-0.4868005648270824	0.7611827255205555	-0.44794255049964155	-0.41469810982568234	-0.3467614903682866	-0.36374124361651966	-0.28973605376997424	-0.8341777595705917	-0.552235945051653	-0.27572339728950374	-0.38961479311103503	-0.6529598679454096	-0.396525792859072	-0.2670666578007805	-0.3988171487163462	-0.456660254290794	-0.37561319374834196	-0.2869720215917757	-0.3112400083086718	-0.33933982252531925	1.5265375010400002	-0.34182408133375586	-0.25819888974716115	-0.4169456801065213	-0.38264532596500644	-0.9090119523573581	-1.2055427546683417	-0.35893503009349875	1.7012289364397415	-0.552235945051653	2.045262474977062	-0.33182160974507974	-0.31385898535260576	-0.3164640213848822	-0.36134243644333836	-0.7745966692414834	-0.5857181006513774	-0.5333551478959264	-0.32419917505309154	1.7971880974097465	-0.25215831342412987	-0.370888069118607	-1.0359727007116153	0.3442978847374036	-0.3661316543125935	-0.24909649144269788	-0.31385898535260576	-0.3565188159918101	-0.3685138655950445	-0.3589350300934988	-0.27572339728950374	-0.2785656631692523	-0.7500884590437705	-0.2699746235780195	-0.3267520731276744	-0.2670666578007805	-0.4889348004153919	-0.370888069118607	-0.47394685773836137	2.804901046297012	-0.3086066999241838	-0.297921795862109	0.24909649144269785	-0.33933982252531925	-0.40565621161929283	-0.25819888974716115	-0.39192475766909796	-0.5459486832355503	-0.3988171487163462	0.9190274907868942	-0.2551921043650176	3.664883701977405	-0.5564247846072881	-0.7302967433402215	2.2108821768696765	-0.47824107331659804	-0.5207275367504819	-0.3086066999241838	-0.39422837614619993	-0.40565621161929283	2.925481423362924	-0.45012706993133317	2.968725877094976	1.5465138438191957	-1.5618105955744435	-0.36134243644333836	-0.2813874297663251	0.8941537912713831	-0.2924820040854895	-0.5249411950230576	0.7150479945408699	-0.5080547786603903	-0.4325468462415931	3.0368111930480994	-0.24909649144269788	-0.6024640760767093	-0.3685138655950445	-0.3442978847374036	1.195425825507559	-0.3267520731276744	0.6870225614927066	-0.2785656631692523	-0.4413674147523748	-0.35409357943479	-0.35893503009349875	-0.3343388660347309	1.3858697343671667	-0.33933982252531925	-0.35409357943479	1.0501700542565202	-0.27572339728950374	-0.38961479311103503	-0.3732544513450796	-0.35893503009349875	2.863564212655271	-0.22344724953291126	2.398393958043935	-0.5480450318089376	-0.39422837614619993	-0.3872983346207417	-1.2436690889332926	-0.4325468462415931	-0.48038446141526137	-0.579442124843851	-0.5689824313581613	-0.6108472217815261	-0.5627049417950517	-0.3368448423330154	-0.33182160974507974	-1.2192155209340498	-0.2699746235780195	-0.30329545094478133	-0.21320071635561041	-0.3343388660347309	-0.916515138991168	-0.4214261501141096	-0.2728599544537922	-0.7858641215772721	-0.2521583134241299	1.665640709864818	-0.4825254612665732	-0.38264532596500644	-0.31646402138488217	-0.31646402138488217	-0.6066545473141627	-0.6977597630049235	-0.4236592728681617	-0.36374124361651966	-0.9090119523573581	-0.3732544513450796	-0.4258877989981323	-0.3267520731276744	-0.38264532596500644	-0.5291502622129182	-0.4995753714732969	-0.604559055184799	-0.30595865466681527	-0.30329545094478133	-0.5101705328640018	-0.42811183441394524	-0.3368448423330154	-0.34182408133375586	-0.7701127145253434	-0.4191883226430045	-0.604559055184799	-0.579442124843851	-0.4369651145421804	-0.456660254290794	-0.6276459144608478	-0.604559055184799	-0.36374124361651966	-0.48038446141526137	-0.297921795862109	-0.3803084612008576	-0.5710745364014457	-0.3849752306800133	0.5165088686167205	-0.2869720215917757	-0.514397522346836	-0.37561319374834196	-0.48680056482708234	-0.3442978847374036	-0.2551921043650176	-0.3565188159918101	-0.3872983346207417	-0.25819888974716115	-0.34182408133375586	-0.3779644730092272	-0.32163376045133846	-0.370888069118607	-0.38961479311103503	-0.36134243644333836	-0.6234414529713428	-0.40565621161929283	-0.3467614903682866	1.5826439602013793	-0.27572339728950374	-0.6487290812422555	-0.46099955865567255	-0.34921514788478913	-0.3467614903682866	-0.3343388660347309	-0.27572339728950374	-0.3803084612008576	-0.37561319374834196	-0.27572339728950374	-0.3086066999241838	-0.34182408133375586	2.6962312440420084	-0.2952104124049812	-0.3393398225253192	-0.45448583811729537	-0.4325468462415931	-0.9811557810392122	-0.3368448423330154	-0.2728599544537922	-0.3112400083086718	-0.8017837257372732
CHEMBL213185	1.0	-0.43475802416973014	-0.5627049417950517	-0.43475802416973014	-0.4931969619160719	-0.5731665164641667	-0.41244549671241	-0.4124454967124099	-0.2551921043650176	-0.27572339728950374	-0.25819888974716115	-0.3241991750530915	-0.45448583811729526	-0.38264532596500644	-0.37561319374834196	-0.6255432421712243	1.2401334744626313	-0.34182408133375586	-0.2869720215917757	-0.4523081376574625	-0.4369651145421805	-0.3393398225253192	-0.3112400083086718	-0.3803084612008576	-0.27572339728950374	-0.5919955368044005	-0.33433886603473084	-0.35165909932405354	-0.4931969619160719	-0.33182160974507974	-0.48466414026525667	2.662313296348138	-0.4011025813393598	2.277031828846455	-1.9682916921611147	-0.370888069118607	-0.27572339728950374	-0.6870225614927066	-0.3442978847374036	-0.4868005648270824	-1.3137450003428848	-0.44794255049964155	-0.41469810982568234	-0.3467614903682866	-0.36374124361651966	-0.28973605376997424	-0.8341777595705917	1.8108201919135594	-0.27572339728950374	-0.38961479311103503	1.5314876902719607	2.521904042583698	-0.2670666578007805	-0.3988171487163462	-0.456660254290794	2.662313296348138	-0.2869720215917757	-0.3112400083086718	-0.33933982252531925	1.5265375010400002	-0.34182408133375586	-0.25819888974716115	-0.4169456801065213	-0.38264532596500644	1.100095545945992	0.8295018954139963	-0.35893503009349875	-0.5878103637789966	-0.552235945051653	-0.4889348004153919	-0.33182160974507974	-0.31385898535260576	-0.3164640213848822	-0.36134243644333836	-0.7745966692414834	-0.5857181006513774	-0.5333551478959264	-0.32419917505309154	-0.5564247846072881	-0.25215831342412987	-0.370888069118607	-1.0359727007116153	0.3442978847374036	2.7312579729755537	-0.24909649144269788	3.186144245246149	2.804901046297012	-0.3685138655950445	-0.3589350300934988	-0.27572339728950374	-0.2785656631692523	-0.7500884590437705	-0.2699746235780195	-0.3267520731276744	-0.2670666578007805	-0.4889348004153919	-0.370888069118607	-0.47394685773836137	-0.3565188159918101	-0.3086066999241838	-0.297921795862109	0.24909649144269785	-0.33933982252531925	-0.40565621161929283	-0.25819888974716115	-0.39192475766909796	-0.5459486832355503	-0.3988171487163462	-1.0881067324153437	-0.2551921043650176	-0.2728599544537922	1.7971880974097465	-0.7302967433402215	-0.4523081376574625	-0.47824107331659804	-0.5207275367504819	-0.3086066999241838	-0.39422837614619993	-0.40565621161929283	-0.34182408133375586	-0.45012706993133317	-0.3368448423330154	-0.6466156148531127	0.6402825046991014	-0.36134243644333836	-0.2813874297663251	-1.1183758429051855	-0.2924820040854895	-0.5249411950230576	0.7150479945408699	-0.5080547786603903	2.31188831611886	-0.329292779969071	-0.24909649144269788	1.6598500055174643	-0.3685138655950445	-0.3442978847374036	-0.8365219979879686	-0.3267520731276744	0.6870225614927066	-0.2785656631692523	-0.4413674147523748	-0.35409357943479	-0.35893503009349875	-0.3343388660347309	-0.7215685393812522	-0.33933982252531925	-0.35409357943479	1.0501700542565202	-0.27572339728950374	-0.38961479311103503	-0.3732544513450796	-0.35893503009349875	2.863564212655271	-0.22344724953291126	-0.41694568010652133	-0.5480450318089376	-0.39422837614619993	-0.3872983346207417	0.8040724087286836	-0.4325468462415931	-0.48038446141526137	-0.579442124843851	-0.5689824313581613	-0.6108472217815261	-0.5627049417950517	-0.3368448423330154	-0.33182160974507974	0.8201995322647244	3.7040518354904273	-0.30329545094478133	-0.21320071635561041	-0.3343388660347309	1.0910894511799618	-0.4214261501141096	3.664883701977405	1.2724846096713838	-0.2521583134241299	-0.6003695719475777	-0.4825254612665732	-0.38264532596500644	-0.31646402138488217	-0.31646402138488217	-0.6066545473141627	-0.6977597630049235	-0.4236592728681617	-0.36374124361651966	-0.9090119523573581	-0.3732544513450796	-0.4258877989981323	-0.3267520731276744	-0.38264532596500644	1.8898223650461363	-0.4995753714732969	-0.604559055184799	-0.30595865466681527	3.2971150634964936	-0.5101705328640018	-0.42811183441394524	-0.3368448423330154	-0.34182408133375586	1.2985112193821484	-0.4191883226430045	1.6540981256071403	-0.579442124843851	-0.4369651145421804	-0.456660254290794	1.5932550136313832	-0.604559055184799	-0.36374124361651966	-0.48038446141526137	-0.297921795862109	2.6294445220661444	-0.5710745364014457	2.5975697143777743	0.5165088686167205	-0.2869720215917757	-0.514397522346836	-0.37561319374834196	-0.48680056482708234	-0.3442978847374036	-0.2551921043650176	-0.3565188159918101	-0.3872983346207417	3.872983346207417	-0.34182408133375586	2.6457513110645903	-0.32163376045133846	-0.370888069118607	-0.38961479311103503	-0.36134243644333836	-0.6234414529713428	-0.40565621161929283	-0.3467614903682866	-0.6318540525518814	-0.27572339728950374	1.5414755233187538	-0.46099955865567255	-0.34921514788478913	-0.3467614903682866	2.9909774231755653	-0.27572339728950374	-0.3803084612008576	-0.37561319374834196	-0.27572339728950374	3.24037034920393	-0.34182408133375586	-0.370888069118607	-0.2952104124049812	-0.3393398225253192	-0.45448583811729537	-0.4325468462415931	-0.9811557810392122	-0.3368448423330154	-0.2728599544537922	-0.3112400083086718	1.2472191289246473
CHEMBL1083022	1.0	2.3001300594962646	1.7771302964035811	-0.43475802416973014	-0.4931969619160719	-0.5731665164641667	-0.41244549671241	-0.4124454967124099	-0.2551921043650176	-0.27572339728950374	-0.25819888974716115	-0.3241991750530915	-0.45448583811729526	-0.38264532596500644	-0.37561319374834196	1.5986105077709065	1.2401334744626313	-0.34182408133375586	-0.2869720215917757	-0.4523081376574625	-0.4369651145421805	-0.3393398225253192	-0.3112400083086718	-0.3803084612008576	-0.27572339728950374	1.6892019243895198	2.9909774231755653	-0.35165909932405354	2.0275875100994067	-0.33182160974507974	-0.48466414026525667	-0.37561319374834196	-0.4011025813393598	-0.4391682133431575	0.5080547786603903	-0.370888069118607	-0.27572339728950374	-0.6870225614927066	-0.3442978847374036	2.05422933384478	0.7611827255205555	-0.44794255049964155	-0.41469810982568234	-0.3467614903682866	2.749207073845788	-0.28973605376997424	-0.8341777595705917	1.8108201919135594	-0.27572339728950374	-0.38961479311103503	-0.6529598679454096	-0.396525792859072	-0.2670666578007805	-0.3988171487163462	2.18981177057554	-0.37561319374834196	3.4846602621858476	-0.3112400083086718	-0.33933982252531925	-0.6550772577278446	-0.34182408133375586	-0.25819888974716115	-0.4169456801065213	-0.38264532596500644	-0.9090119523573581	0.8295018954139963	-0.35893503009349875	-0.5878103637789966	1.8108201919135594	-0.4889348004153919	-0.33182160974507974	-0.31385898535260576	-0.3164640213848822	-0.36134243644333836	1.2909944487358056	-0.5857181006513774	-0.5333551478959264	-0.32419917505309154	1.7971880974097465	-0.25215831342412987	-0.370888069118607	0.9652764009255209	0.3442978847374036	-0.3661316543125935	-0.24909649144269788	-0.31385898535260576	-0.3565188159918101	-0.3685138655950445	-0.3589350300934988	-0.27572339728950374	-0.2785656631692523	-0.7500884590437705	-0.2699746235780195	-0.3267520731276744	-0.2670666578007805	-0.4889348004153919	-0.370888069118607	2.1099411963018904	-0.3565188159918101	-0.3086066999241838	3.3565855667130946	0.24909649144269785	-0.33933982252531925	-0.40565621161929283	-0.25819888974716115	-0.39192475766909796	-0.5459486832355503	-0.3988171487163462	0.9190274907868942	-0.2551921043650176	-0.2728599544537922	-0.5564247846072881	-0.7302967433402215	-0.4523081376574625	-0.47824107331659804	-0.5207275367504819	-0.3086066999241838	-0.39422837614619993	-0.40565621161929283	2.925481423362924	-0.45012706993133317	-0.3368448423330154	1.5465138438191957	0.6402825046991014	-0.36134243644333836	-0.2813874297663251	0.8941537912713831	-0.2924820040854895	-0.5249411950230576	0.7150479945408699	-0.5080547786603903	-0.4325468462415931	-0.329292779969071	-0.24909649144269788	-0.6024640760767093	-0.3685138655950445	-0.3442978847374036	1.195425825507559	3.060424346900049	0.6870225614927066	-0.2785656631692523	-0.4413674147523748	-0.35409357943479	-0.35893503009349875	-0.3343388660347309	-0.7215685393812522	2.9468984587725093	-0.35409357943479	1.0501700542565202	-0.27572339728950374	-0.38961479311103503	-0.3732544513450796	2.786019519297157	-0.34921514788478913	-0.22344724953291126	2.398393958043935	-0.5480450318089376	2.5366007636881758	-0.3872983346207417	0.8040724087286836	-0.4325468462415931	2.0816659994661326	-0.579442124843851	-0.5689824313581613	-0.6108472217815261	-0.5627049417950517	-0.3368448423330154	-0.33182160974507974	0.8201995322647244	-0.2699746235780195	-0.30329545094478133	-0.21320071635561041	-0.3343388660347309	1.0910894511799618	-0.4214261501141096	-0.2728599544537922	1.2724846096713838	-0.2521583134241299	1.665640709864818	2.072429499108951	-0.38264532596500644	-0.31646402138488217	-0.31646402138488217	-0.6066545473141627	1.4331580194499465	-0.4236592728681617	-0.36374124361651966	-0.9090119523573581	-0.3732544513450796	-0.4258877989981323	-0.3267520731276744	-0.38264532596500644	-0.5291502622129182	-0.4995753714732969	-0.604559055184799	3.268415469694709	-0.30329545094478133	-0.5101705328640018	-0.42811183441394524	-0.3368448423330154	-0.34182408133375586	1.2985112193821484	-0.4191883226430045	-0.604559055184799	1.7257978961565512	-0.4369651145421804	-0.456660254290794	-0.6276459144608478	1.6540981256071403	-0.36374124361651966	-0.48038446141526137	-0.297921795862109	-0.3803084612008576	1.751084904435372	-0.3849752306800133	0.5165088686167205	-0.2869720215917757	-0.514397522346836	-0.37561319374834196	-0.48680056482708234	-0.3442978847374036	-0.2551921043650176	-0.3565188159918101	2.5819888974716116	-0.25819888974716115	2.925481423362924	-0.3779644730092272	-0.32163376045133846	-0.370888069118607	2.566637657710839	-0.36134243644333836	-0.6234414529713428	2.465141593686472	-0.3467614903682866	-0.6318540525518814	-0.27572339728950374	-0.6487290812422555	-0.46099955865567255	-0.34921514788478913	2.8838265717970164	-0.3343388660347309	3.626823148961934	-0.3803084612008576	-0.37561319374834196	-0.27572339728950374	-0.3086066999241838	2.925481423362924	-0.370888069118607	-0.2952104124049812	-0.3393398225253192	2.200288581361509	-0.4325468462415931	1.0192061437387938	-0.3368448423330154	-0.2728599544537922	3.2129545473095193	1.2472191289246473
CHEMBL1836813	1.0	-0.43475802416973014	-0.5627049417950517	-0.43475802416973014	-0.4931969619160719	-0.5731665164641667	-0.41244549671241	-0.4124454967124099	-0.2551921043650176	-0.27572339728950374	-0.25819888974716115	-0.3241991750530915	-0.45448583811729526	-0.38264532596500644	2.662313296348138	-0.6255432421712243	-0.8063648152335495	-0.34182408133375586	-0.2869720215917757	-0.4523081376574625	-0.4369651145421805	-0.3393398225253192	-0.3112400083086718	-0.3803084612008576	-0.27572339728950374	-0.5919955368044005	-0.33433886603473084	-0.35165909932405354	-0.4931969619160719	-0.33182160974507974	-0.48466414026525667	-0.37561319374834196	-0.4011025813393598	-0.4391682133431575	0.5080547786603903	-0.370888069118607	3.626823148961934	-0.6870225614927066	-0.3442978847374036	-0.4868005648270824	0.7611827255205555	2.232429133790897	-0.41469810982568234	-0.3467614903682866	-0.36374124361651966	-0.28973605376997424	1.1987852571312478	1.8108201919135594	-0.27572339728950374	-0.38961479311103503	1.5314876902719607	-0.396525792859072	-0.2670666578007805	-0.3988171487163462	-0.456660254290794	-0.37561319374834196	-0.2869720215917757	-0.3112400083086718	-0.33933982252531925	-0.6550772577278446	-0.34182408133375586	-0.25819888974716115	-0.4169456801065213	-0.38264532596500644	1.100095545945992	-1.2055427546683417	-0.35893503009349875	1.7012289364397415	1.8108201919135594	-0.4889348004153919	-0.33182160974507974	-0.31385898535260576	-0.3164640213848822	-0.36134243644333836	1.2909944487358056	-0.5857181006513774	1.8749233113151278	-0.32419917505309154	-0.5564247846072881	-0.25215831342412987	-0.370888069118607	-1.0359727007116153	0.3442978847374036	-0.3661316543125935	-0.24909649144269788	3.186144245246149	-0.3565188159918101	-0.3685138655950445	2.7860195192971573	-0.27572339728950374	-0.2785656631692523	1.3331760913570414	-0.2699746235780195	-0.3267520731276744	-0.2670666578007805	-0.4889348004153919	-0.370888069118607	-0.47394685773836137	2.804901046297012	-0.3086066999241838	-0.297921795862109	0.24909649144269785	-0.33933982252531925	-0.40565621161929283	-0.25819888974716115	-0.39192475766909796	-0.5459486832355503	2.5074147468799985	0.9190274907868942	-0.2551921043650176	-0.2728599544537922	1.7971880974097465	-0.7302967433402215	-0.4523081376574625	-0.47824107331659804	-0.5207275367504819	-0.3086066999241838	-0.39422837614619993	-0.40565621161929283	-0.34182408133375586	2.221594893532063	2.968725877094976	-0.6466156148531127	0.6402825046991014	2.767457954407215	-0.2813874297663251	0.8941537912713831	-0.2924820040854895	-0.5249411950230576	0.7150479945408699	-0.5080547786603903	-0.4325468462415931	-0.329292779969071	-0.24909649144269788	1.6598500055174643	-0.3685138655950445	2.9044616430411736	1.195425825507559	-0.3267520731276744	0.6870225614927066	-0.2785656631692523	2.265686062395524	-0.35409357943479	-0.35893503009349875	-0.3343388660347309	-0.7215685393812522	-0.33933982252531925	-0.35409357943479	1.0501700542565202	-0.27572339728950374	-0.38961479311103503	-0.3732544513450796	-0.35893503009349875	-0.34921514788478913	-0.22344724953291126	-0.41694568010652133	-0.5480450318089376	2.5366007636881758	-0.3872983346207417	0.8040724087286836	2.31188831611886	2.0816659994661326	-0.579442124843851	1.7575235101952094	-0.6108472217815261	-0.5627049417950517	-0.3368448423330154	-0.33182160974507974	0.8201995322647244	-0.2699746235780195	3.2971150634964936	-0.21320071635561041	-0.3343388660347309	1.0910894511799618	-0.4214261501141096	3.664883701977405	-0.7858641215772721	3.9657625656704067	1.665640709864818	-0.4825254612665732	-0.38264532596500644	-0.31646402138488217	-0.31646402138488217	-0.6066545473141627	1.4331580194499465	-0.4236592728681617	-0.36374124361651966	1.100095545945992	2.679137506321349	-0.4258877989981323	-0.3267520731276744	-0.38264532596500644	1.8898223650461363	-0.4995753714732969	-0.604559055184799	3.268415469694709	3.2971150634964936	1.9601288894248496	-0.42811183441394524	-0.3368448423330154	2.925481423362924	1.2985112193821484	-0.4191883226430045	-0.604559055184799	-0.579442124843851	-0.4369651145421804	-0.456660254290794	-0.6276459144608478	1.6540981256071403	2.749207073845788	-0.48038446141526137	-0.297921795862109	-0.3803084612008576	-0.5710745364014457	-0.3849752306800133	0.5165088686167205	-0.2869720215917757	-0.514397522346836	2.662313296348138	-0.48680056482708234	-0.3442978847374036	-0.2551921043650176	-0.3565188159918101	-0.3872983346207417	-0.25819888974716115	2.925481423362924	-0.3779644730092272	-0.32163376045133846	-0.370888069118607	-0.38961479311103503	-0.36134243644333836	-0.6234414529713428	-0.40565621161929283	-0.3467614903682866	-0.6318540525518814	3.626823148961934	1.5414755233187538	-0.46099955865567255	-0.34921514788478913	-0.3467614903682866	-0.3343388660347309	-0.27572339728950374	-0.3803084612008576	-0.37561319374834196	-0.27572339728950374	-0.3086066999241838	-0.34182408133375586	-0.370888069118607	-0.2952104124049812	-0.3393398225253192	-0.45448583811729537	-0.4325468462415931	1.0192061437387938	-0.3368448423330154	-0.2728599544537922	-0.3112400083086718	1.2472191289246473
CHEMBL114385	1.0	-0.43475802416973014	-0.5627049417950517	-0.43475802416973014	-0.4931969619160719	-0.5731665164641667	-0.41244549671241	-0.4124454967124099	-0.2551921043650176	-0.27572339728950374	-0.25819888974716115	-0.3241991750530915	-0.45448583811729526	-0.38264532596500644	-0.37561319374834196	-0.6255432421712243	-0.8063648152335495	-0.34182408133375586	-0.2869720215917757	-0.4523081376574625	-0.4369651145421805	2.9468984587725093	-0.3112400083086718	2.6294445220661444	-0.27572339728950374	-0.5919955368044005	-0.33433886603473084	-0.35165909932405354	-0.4931969619160719	-0.33182160974507974	-0.48466414026525667	-0.37561319374834196	-0.4011025813393598	-0.4391682133431575	0.5080547786603903	-0.370888069118607	-0.27572339728950374	1.4555562743489547	-0.3442978847374036	-0.4868005648270824	-1.3137450003428848	-0.44794255049964155	-0.41469810982568234	-0.3467614903682866	-0.36374124361651966	-0.28973605376997424	-0.8341777595705917	-0.552235945051653	-0.27572339728950374	-0.38961479311103503	-0.6529598679454096	-0.396525792859072	-0.2670666578007805	-0.3988171487163462	-0.456660254290794	-0.37561319374834196	-0.2869720215917757	-0.3112400083086718	2.9468984587725093	1.5265375010400002	-0.34182408133375586	-0.25819888974716115	2.398393958043934	-0.38264532596500644	1.100095545945992	-1.2055427546683417	2.786019519297157	-0.5878103637789966	1.8108201919135594	-0.4889348004153919	-0.33182160974507974	-0.31385898535260576	-0.3164640213848822	2.767457954407215	-0.7745966692414834	-0.5857181006513774	-0.5333551478959264	-0.32419917505309154	-0.5564247846072881	-0.25215831342412987	-0.370888069118607	-1.0359727007116153	0.3442978847374036	-0.3661316543125935	-0.24909649144269788	3.186144245246149	-0.3565188159918101	-0.3685138655950445	-0.3589350300934988	-0.27572339728950374	-0.2785656631692523	1.3331760913570414	-0.2699746235780195	-0.3267520731276744	-0.2670666578007805	-0.4889348004153919	2.6962312440420084	-0.47394685773836137	-0.3565188159918101	-0.3086066999241838	-0.297921795862109	0.24909649144269785	-0.33933982252531925	-0.40565621161929283	-0.25819888974716115	-0.39192475766909796	-0.5459486832355503	-0.3988171487163462	0.9190274907868942	-0.2551921043650176	-0.2728599544537922	-0.5564247846072881	-0.7302967433402215	-0.4523081376574625	2.0909956417273157	1.9203900877613311	-0.3086066999241838	-0.39422837614619993	-0.40565621161929283	-0.34182408133375586	2.221594893532063	-0.3368448423330154	1.5465138438191957	0.6402825046991014	-0.36134243644333836	-0.2813874297663251	0.8941537912713831	-0.2924820040854895	-0.5249411950230576	0.7150479945408699	-0.5080547786603903	-0.4325468462415931	-0.329292779969071	-0.24909649144269788	-0.6024640760767093	2.7136021011998728	-0.3442978847374036	-0.8365219979879686	-0.3267520731276744	0.6870225614927066	-0.2785656631692523	2.265686062395524	2.824112206711617	-0.35893503009349875	-0.3343388660347309	-0.7215685393812522	-0.33933982252531925	-0.35409357943479	1.0501700542565202	-0.27572339728950374	-0.38961479311103503	-0.3732544513450796	-0.35893503009349875	-0.34921514788478913	-0.22344724953291126	-0.41694568010652133	-0.5480450318089376	-0.39422837614619993	-0.3872983346207417	-1.2436690889332926	-0.4325468462415931	2.0816659994661326	-0.579442124843851	-0.5689824313581613	-0.6108472217815261	-0.5627049417950517	-0.3368448423330154	-0.33182160974507974	-1.2192155209340498	-0.2699746235780195	-0.30329545094478133	-0.21320071635561041	-0.3343388660347309	-0.916515138991168	-0.4214261501141096	-0.2728599544537922	-0.7858641215772721	-0.2521583134241299	-0.6003695719475777	-0.4825254612665732	-0.38264532596500644	-0.31646402138488217	-0.31646402138488217	-0.6066545473141627	-0.6977597630049235	-0.4236592728681617	-0.36374124361651966	-0.9090119523573581	-0.3732544513450796	2.3480362723525348	-0.3267520731276744	-0.38264532596500644	1.8898223650461363	-0.4995753714732969	-0.604559055184799	-0.30595865466681527	-0.30329545094478133	1.9601288894248496	-0.42811183441394524	-0.3368448423330154	-0.34182408133375586	-0.7701127145253434	2.3855626361320073	-0.604559055184799	-0.579442124843851	-0.4369651145421804	-0.456660254290794	1.5932550136313832	-0.604559055184799	-0.36374124361651966	2.0816659994661326	-0.297921795862109	2.6294445220661444	-0.5710745364014457	-0.3849752306800133	0.5165088686167205	-0.2869720215917757	1.9440218052328475	-0.37561319374834196	-0.48680056482708234	-0.3442978847374036	-0.2551921043650176	-0.3565188159918101	-0.3872983346207417	-0.25819888974716115	-0.34182408133375586	-0.3779644730092272	-0.32163376045133846	2.6962312440420084	-0.38961479311103503	-0.36134243644333836	-0.6234414529713428	-0.40565621161929283	-0.3467614903682866	-0.6318540525518814	-0.27572339728950374	1.5414755233187538	-0.46099955865567255	-0.34921514788478913	-0.3467614903682866	-0.3343388660347309	-0.27572339728950374	-0.3803084612008576	-0.37561319374834196	-0.27572339728950374	-0.3086066999241838	-0.34182408133375586	-0.370888069118607	-0.2952104124049812	-0.3393398225253192	-0.45448583811729537	2.31188831611886	-0.9811557810392122	-0.3368448423330154	-0.2728599544537922	3.2129545473095193	1.2472191289246473
CHEMBL209195	1.0	-0.43475802416973014	-0.5627049417950517	-0.43475802416973014	-0.4931969619160719	-0.5731665164641667	2.4245627797393072	-0.4124454967124099	-0.2551921043650176	-0.27572339728950374	-0.25819888974716115	3.0845235797908424	2.2002885813615087	-0.38264532596500644	2.662313296348138	-0.6255432421712243	-0.8063648152335495	-0.34182408133375586	-0.2869720215917757	2.2108821768696765	-0.4369651145421805	-0.3393398225253192	-0.3112400083086718	-0.3803084612008576	-0.27572339728950374	1.6892019243895198	-0.33433886603473084	-0.35165909932405354	-0.4931969619160719	-0.33182160974507974	2.0632844828435215	-0.37561319374834196	-0.4011025813393598	-0.4391682133431575	0.5080547786603903	-0.370888069118607	-0.27572339728950374	-0.6870225614927066	-0.3442978847374036	2.05422933384478	0.7611827255205555	-0.44794255049964155	-0.41469810982568234	-0.3467614903682866	-0.36374124361651966	-0.28973605376997424	1.1987852571312478	-0.552235945051653	3.626823148961934	-0.38961479311103503	-0.6529598679454096	-0.396525792859072	-0.2670666578007805	2.5074147468799985	2.18981177057554	2.662313296348138	-0.2869720215917757	-0.3112400083086718	-0.33933982252531925	-0.6550772577278446	-0.34182408133375586	-0.25819888974716115	-0.4169456801065213	2.6133861624418526	1.100095545945992	0.8295018954139963	-0.35893503009349875	1.7012289364397415	-0.552235945051653	-0.4889348004153919	-0.33182160974507974	-0.31385898535260576	-0.3164640213848822	-0.36134243644333836	-0.7745966692414834	-0.5857181006513774	1.8749233113151278	-0.32419917505309154	-0.5564247846072881	-0.25215831342412987	-0.370888069118607	0.9652764009255209	0.3442978847374036	-0.3661316543125935	-0.24909649144269788	-0.31385898535260576	-0.3565188159918101	-0.3685138655950445	-0.3589350300934988	-0.27572339728950374	-0.2785656631692523	-0.7500884590437705	-0.2699746235780195	-0.3267520731276744	-0.2670666578007805	-0.4889348004153919	-0.370888069118607	-0.47394685773836137	2.804901046297012	-0.3086066999241838	-0.297921795862109	0.24909649144269785	-0.33933982252531925	2.465141593686472	-0.25819888974716115	-0.39192475766909796	-0.5459486832355503	-0.3988171487163462	0.9190274907868942	3.918616535916159	-0.2728599544537922	-0.5564247846072881	1.3693063937629153	-0.4523081376574625	2.0909956417273157	-0.5207275367504819	-0.3086066999241838	-0.39422837614619993	-0.40565621161929283	-0.34182408133375586	-0.45012706993133317	-0.3368448423330154	1.5465138438191957	0.6402825046991014	-0.36134243644333836	-0.2813874297663251	0.8941537912713831	3.419013771895895	-0.5249411950230576	0.7150479945408699	-0.5080547786603903	-0.4325468462415931	-0.329292779969071	-0.24909649144269788	-0.6024640760767093	-0.3685138655950445	2.9044616430411736	-0.8365219979879686	-0.3267520731276744	0.6870225614927066	3.5898178857471565	2.265686062395524	-0.35409357943479	-0.35893503009349875	-0.3343388660347309	-0.7215685393812522	2.9468984587725093	2.824112206711617	-0.9522267331341506	-0.27572339728950374	-0.38961479311103503	-0.3732544513450796	-0.35893503009349875	-0.34921514788478913	-0.22344724953291126	2.398393958043935	1.8246675764932863	-0.39422837614619993	-0.3872983346207417	-1.2436690889332926	2.31188831611886	-0.48038446141526137	-0.579442124843851	-0.5689824313581613	-0.6108472217815261	1.7771302964035811	-0.3368448423330154	-0.33182160974507974	0.8201995322647244	-0.2699746235780195	-0.30329545094478133	-0.21320071635561041	-0.3343388660347309	1.0910894511799618	-0.4214261501141096	-0.2728599544537922	1.2724846096713838	-0.2521583134241299	-0.6003695719475777	2.072429499108951	-0.38264532596500644	-0.31646402138488217	-0.31646402138488217	-0.6066545473141627	1.4331580194499465	2.3603873774083293	-0.36374124361651966	1.100095545945992	-0.3732544513450796	-0.4258877989981323	3.060424346900049	-0.38264532596500644	1.8898223650461363	-0.4995753714732969	1.6540981256071403	-0.30595865466681527	-0.30329545094478133	1.9601288894248496	-0.42811183441394524	-0.3368448423330154	-0.34182408133375586	1.2985112193821484	-0.4191883226430045	-0.604559055184799	-0.579442124843851	2.288512210059894	-0.456660254290794	1.5932550136313832	-0.604559055184799	-0.36374124361651966	-0.48038446141526137	-0.297921795862109	2.6294445220661444	-0.5710745364014457	-0.3849752306800133	0.5165088686167205	-0.2869720215917757	-0.514397522346836	-0.37561319374834196	-0.48680056482708234	-0.3442978847374036	-0.2551921043650176	-0.3565188159918101	-0.3872983346207417	-0.25819888974716115	-0.34182408133375586	-0.3779644730092272	-0.32163376045133846	-0.370888069118607	-0.38961479311103503	-0.36134243644333836	1.6039998547320953	-0.40565621161929283	2.8838265717970164	1.5826439602013793	-0.27572339728950374	1.5414755233187538	-0.46099955865567255	-0.34921514788478913	-0.3467614903682866	-0.3343388660347309	-0.27572339728950374	-0.3803084612008576	-0.37561319374834196	-0.27572339728950374	3.24037034920393	-0.34182408133375586	-0.370888069118607	-0.2952104124049812	-0.3393398225253192	-0.45448583811729537	-0.4325468462415931	1.0192061437387938	-0.3368448423330154	-0.2728599544537922	-0.3112400083086718	-0.8017837257372732
CHEMBL1163016	1.0	-0.43475802416973014	-0.5627049417950517	2.3001300594962646	-0.4931969619160719	-0.5731665164641667	2.4245627797393072	-0.4124454967124099	-0.2551921043650176	-0.27572339728950374	3.872983346207417	-0.3241991750530915	-0.45448583811729526	-0.38264532596500644	-0.37561319374834196	1.5986105077709065	1.2401334744626313	-0.34182408133375586	-0.2869720215917757	-0.4523081376574625	2.2885122100598942	-0.3393398225253192	-0.3112400083086718	-0.3803084612008576	-0.27572339728950374	-0.5919955368044005	-0.33433886603473084	-0.35165909932405354	-0.4931969619160719	-0.33182160974507974	-0.48466414026525667	-0.37561319374834196	2.493127809501511	-0.4391682133431575	0.5080547786603903	-0.370888069118607	-0.27572339728950374	1.4555562743489547	2.9044616430411736	2.05422933384478	0.7611827255205555	-0.44794255049964155	-0.41469810982568234	-0.3467614903682866	-0.36374124361651966	-0.28973605376997424	-0.8341777595705917	-0.552235945051653	-0.27572339728950374	-0.38961479311103503	-0.6529598679454096	-0.396525792859072	3.7443835491660447	-0.3988171487163462	-0.456660254290794	-0.37561319374834196	-0.2869720215917757	-0.3112400083086718	2.9468984587725093	-0.6550772577278446	2.925481423362924	-0.25819888974716115	-0.4169456801065213	2.6133861624418526	-0.9090119523573581	0.8295018954139963	2.786019519297157	1.7012289364397415	-0.552235945051653	-0.4889348004153919	-0.33182160974507974	-0.31385898535260576	-0.3164640213848822	-0.36134243644333836	1.2909944487358056	1.7073059529625254	-0.5333551478959264	-0.32419917505309154	-0.5564247846072881	-0.25215831342412987	-0.370888069118607	-1.0359727007116153	0.3442978847374036	-0.3661316543125935	-0.24909649144269788	-0.31385898535260576	-0.3565188159918101	-0.3685138655950445	-0.3589350300934988	-0.27572339728950374	-0.2785656631692523	-0.7500884590437705	3.7040518354904273	-0.3267520731276744	-0.2670666578007805	-0.4889348004153919	-0.370888069118607	-0.47394685773836137	-0.3565188159918101	3.24037034920393	-0.297921795862109	0.24909649144269785	-0.33933982252531925	-0.40565621161929283	-0.25819888974716115	-0.39192475766909796	1.8316739845831782	-0.3988171487163462	0.9190274907868942	-0.2551921043650176	-0.2728599544537922	-0.5564247846072881	-0.7302967433402215	-0.4523081376574625	-0.47824107331659804	-0.5207275367504819	3.24037034920393	-0.39422837614619993	2.465141593686472	-0.34182408133375586	-0.45012706993133317	-0.3368448423330154	-0.6466156148531127	0.6402825046991014	-0.36134243644333836	-0.2813874297663251	0.8941537912713831	-0.2924820040854895	-0.5249411950230576	0.7150479945408699	-0.5080547786603903	-0.4325468462415931	3.0368111930480994	-0.24909649144269788	-0.6024640760767093	-0.3685138655950445	-0.3442978847374036	1.195425825507559	-0.3267520731276744	0.6870225614927066	-0.2785656631692523	-0.4413674147523748	-0.35409357943479	-0.35893503009349875	-0.3343388660347309	-0.7215685393812522	-0.33933982252531925	-0.35409357943479	-0.9522267331341506	-0.27572339728950374	-0.38961479311103503	-0.3732544513450796	-0.35893503009349875	-0.34921514788478913	-0.22344724953291126	2.398393958043935	1.8246675764932863	2.5366007636881758	-0.3872983346207417	0.8040724087286836	-0.4325468462415931	-0.48038446141526137	-0.579442124843851	-0.5689824313581613	-0.6108472217815261	1.7771302964035811	-0.3368448423330154	-0.33182160974507974	0.8201995322647244	-0.2699746235780195	-0.30329545094478133	-0.21320071635561041	-0.3343388660347309	1.0910894511799618	-0.4214261501141096	-0.2728599544537922	-0.7858641215772721	-0.2521583134241299	-0.6003695719475777	-0.4825254612665732	2.6133861624418526	-0.31646402138488217	-0.31646402138488217	-0.6066545473141627	-0.6977597630049235	-0.4236592728681617	-0.36374124361651966	-0.9090119523573581	-0.3732544513450796	-0.4258877989981323	-0.3267520731276744	-0.38264532596500644	1.8898223650461363	-0.4995753714732969	1.6540981256071403	-0.30595865466681527	-0.30329545094478133	-0.5101705328640018	-0.42811183441394524	-0.3368448423330154	-0.34182408133375586	-0.7701127145253434	-0.4191883226430045	-0.604559055184799	-0.579442124843851	-0.4369651145421804	-0.456660254290794	-0.6276459144608478	-0.604559055184799	-0.36374124361651966	-0.48038446141526137	-0.297921795862109	-0.3803084612008576	1.751084904435372	-0.3849752306800133	0.5165088686167205	-0.2869720215917757	-0.514397522346836	-0.37561319374834196	-0.48680056482708234	-0.3442978847374036	-0.2551921043650176	-0.3565188159918101	-0.3872983346207417	-0.25819888974716115	2.925481423362924	2.6457513110645903	-0.32163376045133846	-0.370888069118607	-0.38961479311103503	-0.36134243644333836	1.6039998547320953	-0.40565621161929283	-0.3467614903682866	1.5826439602013793	-0.27572339728950374	1.5414755233187538	-0.46099955865567255	-0.34921514788478913	-0.3467614903682866	2.9909774231755653	-0.27572339728950374	-0.3803084612008576	-0.37561319374834196	3.626823148961934	-0.3086066999241838	-0.34182408133375586	-0.370888069118607	-0.2952104124049812	-0.3393398225253192	-0.45448583811729537	2.31188831611886	1.0192061437387938	-0.3368448423330154	-0.2728599544537922	-0.3112400083086718	-0.8017837257372732
CHEMBL2042135	1.0	-0.43475802416973014	1.7771302964035811	-0.43475802416973014	-0.4931969619160719	-0.5731665164641667	-0.41244549671241	-0.4124454967124099	-0.2551921043650176	-0.27572339728950374	-0.25819888974716115	-0.3241991750530915	-0.45448583811729526	2.6133861624418526	-0.37561319374834196	-0.6255432421712243	-0.8063648152335495	-0.34182408133375586	-0.2869720215917757	-0.4523081376574625	-0.4369651145421805	-0.3393398225253192	-0.3112400083086718	-0.3803084612008576	3.626823148961934	-0.5919955368044005	-0.33433886603473084	-0.35165909932405354	2.0275875100994067	-0.33182160974507974	-0.48466414026525667	-0.37561319374834196	2.493127809501511	-0.4391682133431575	0.5080547786603903	-0.370888069118607	-0.27572339728950374	-0.6870225614927066	-0.3442978847374036	-0.4868005648270824	0.7611827255205555	2.232429133790897	-0.41469810982568234	-0.3467614903682866	-0.36374124361651966	-0.28973605376997424	-0.8341777595705917	-0.552235945051653	3.626823148961934	-0.38961479311103503	-0.6529598679454096	-0.396525792859072	-0.2670666578007805	-0.3988171487163462	2.18981177057554	2.662313296348138	-0.2869720215917757	-0.3112400083086718	-0.33933982252531925	1.5265375010400002	-0.34182408133375586	-0.25819888974716115	-0.4169456801065213	2.6133861624418526	-0.9090119523573581	-1.2055427546683417	-0.35893503009349875	-0.5878103637789966	1.8108201919135594	-0.4889348004153919	-0.33182160974507974	-0.31385898535260576	-0.3164640213848822	-0.36134243644333836	1.2909944487358056	-0.5857181006513774	-0.5333551478959264	-0.32419917505309154	1.7971880974097465	-0.25215831342412987	-0.370888069118607	0.9652764009255209	0.3442978847374036	-0.3661316543125935	-0.24909649144269788	-0.31385898535260576	-0.3565188159918101	2.7136021011998728	-0.3589350300934988	-0.27572339728950374	-0.2785656631692523	-0.7500884590437705	-0.2699746235780195	-0.3267520731276744	-0.2670666578007805	-0.4889348004153919	-0.370888069118607	2.1099411963018904	-0.3565188159918101	-0.3086066999241838	-0.297921795862109	0.24909649144269785	-0.33933982252531925	-0.40565621161929283	-0.25819888974716115	2.55151015707025	-0.5459486832355503	2.5074147468799985	0.9190274907868942	-0.2551921043650176	-0.2728599544537922	1.7971880974097465	-0.7302967433402215	-0.4523081376574625	2.0909956417273157	1.9203900877613311	-0.3086066999241838	-0.39422837614619993	-0.40565621161929283	-0.34182408133375586	-0.45012706993133317	-0.3368448423330154	-0.6466156148531127	0.6402825046991014	-0.36134243644333836	-0.2813874297663251	0.8941537912713831	-0.2924820040854895	1.9049752800522275	0.7150479945408699	-0.5080547786603903	-0.4325468462415931	-0.329292779969071	-0.24909649144269788	-0.6024640760767093	-0.3685138655950445	-0.3442978847374036	1.195425825507559	-0.3267520731276744	0.6870225614927066	3.5898178857471565	2.265686062395524	-0.35409357943479	-0.35893503009349875	-0.3343388660347309	-0.7215685393812522	-0.33933982252531925	-0.35409357943479	1.0501700542565202	-0.27572339728950374	-0.38961479311103503	-0.3732544513450796	-0.35893503009349875	2.863564212655271	-0.22344724953291126	-0.41694568010652133	-0.5480450318089376	-0.39422837614619993	-0.3872983346207417	-1.2436690889332926	-0.4325468462415931	-0.48038446141526137	-0.579442124843851	-0.5689824313581613	1.63707055437449	-0.5627049417950517	-0.3368448423330154	-0.33182160974507974	-1.2192155209340498	-0.2699746235780195	-0.30329545094478133	-0.21320071635561041	-0.3343388660347309	1.0910894511799618	2.3728949893812477	-0.2728599544537922	1.2724846096713838	-0.2521583134241299	1.665640709864818	2.072429499108951	2.6133861624418526	-0.31646402138488217	-0.31646402138488217	1.6483845780556543	1.4331580194499465	-0.4236592728681617	-0.36374124361651966	-0.9090119523573581	-0.3732544513450796	-0.4258877989981323	-0.3267520731276744	-0.38264532596500644	-0.5291502622129182	-0.4995753714732969	-0.604559055184799	3.268415469694709	-0.30329545094478133	1.9601288894248496	-0.42811183441394524	-0.3368448423330154	2.925481423362924	-0.7701127145253434	-0.4191883226430045	-0.604559055184799	-0.579442124843851	-0.4369651145421804	-0.456660254290794	1.5932550136313832	1.6540981256071403	-0.36374124361651966	-0.48038446141526137	-0.297921795862109	-0.3803084612008576	-0.5710745364014457	-0.3849752306800133	0.5165088686167205	-0.2869720215917757	-0.514397522346836	-0.37561319374834196	2.05422933384478	-0.3442978847374036	3.918616535916159	-0.3565188159918101	-0.3872983346207417	-0.25819888974716115	-0.34182408133375586	-0.3779644730092272	3.1091263510296048	-0.370888069118607	2.566637657710839	-0.36134243644333836	-0.6234414529713428	-0.40565621161929283	-0.3467614903682866	-0.6318540525518814	-0.27572339728950374	-0.6487290812422555	-0.46099955865567255	-0.34921514788478913	-0.3467614903682866	-0.3343388660347309	-0.27572339728950374	-0.3803084612008576	-0.37561319374834196	-0.27572339728950374	-0.3086066999241838	-0.34182408133375586	2.6962312440420084	-0.2952104124049812	-0.3393398225253192	-0.45448583811729537	-0.4325468462415931	1.0192061437387938	-0.3368448423330154	3.664883701977405	3.2129545473095193	1.2472191289246473
CHEMBL4450810	1.0	2.3001300594962646	-0.5627049417950517	-0.43475802416973014	-0.4931969619160719	1.7446936819843315	-0.41244549671241	-0.4124454967124099	-0.2551921043650176	-0.27572339728950374	-0.25819888974716115	-0.3241991750530915	-0.45448583811729526	-0.38264532596500644	-0.37561319374834196	-0.6255432421712243	1.2401334744626313	-0.34182408133375586	3.4846602621858476	-0.4523081376574625	-0.4369651145421805	-0.3393398225253192	-0.3112400083086718	-0.3803084612008576	-0.27572339728950374	-0.5919955368044005	-0.33433886603473084	-0.35165909932405354	-0.4931969619160719	-0.33182160974507974	-0.48466414026525667	-0.37561319374834196	-0.4011025813393598	-0.4391682133431575	0.5080547786603903	-0.370888069118607	-0.27572339728950374	-0.6870225614927066	-0.3442978847374036	-0.4868005648270824	0.7611827255205555	-0.44794255049964155	-0.41469810982568234	-0.3467614903682866	-0.36374124361651966	-0.28973605376997424	-0.8341777595705917	-0.552235945051653	-0.27572339728950374	2.566637657710839	-0.6529598679454096	2.521904042583698	-0.2670666578007805	-0.3988171487163462	2.18981177057554	-0.37561319374834196	-0.2869720215917757	-0.3112400083086718	-0.33933982252531925	-0.6550772577278446	-0.34182408133375586	-0.25819888974716115	2.398393958043934	-0.38264532596500644	1.100095545945992	0.8295018954139963	-0.35893503009349875	-0.5878103637789966	-0.552235945051653	-0.4889348004153919	-0.33182160974507974	-0.31385898535260576	-0.3164640213848822	-0.36134243644333836	1.2909944487358056	1.7073059529625254	-0.5333551478959264	-0.32419917505309154	1.7971880974097465	-0.25215831342412987	2.6962312440420084	-1.0359727007116153	0.3442978847374036	-0.3661316543125935	-0.24909649144269788	-0.31385898535260576	-0.3565188159918101	-0.3685138655950445	-0.3589350300934988	-0.27572339728950374	-0.2785656631692523	1.3331760913570414	-0.2699746235780195	-0.3267520731276744	-0.2670666578007805	2.045262474977062	-0.370888069118607	-0.47394685773836137	-0.3565188159918101	3.24037034920393	-0.297921795862109	0.24909649144269785	-0.33933982252531925	-0.40565621161929283	-0.25819888974716115	-0.39192475766909796	-0.5459486832355503	-0.3988171487163462	0.9190274907868942	-0.2551921043650176	-0.2728599544537922	-0.5564247846072881	1.3693063937629153	-0.4523081376574625	-0.47824107331659804	-0.5207275367504819	-0.3086066999241838	-0.39422837614619993	-0.40565621161929283	-0.34182408133375586	-0.45012706993133317	-0.3368448423330154	-0.6466156148531127	0.6402825046991014	-0.36134243644333836	-0.2813874297663251	-1.1183758429051855	-0.2924820040854895	-0.5249411950230576	0.7150479945408699	-0.5080547786603903	-0.4325468462415931	-0.329292779969071	-0.24909649144269788	1.6598500055174643	-0.3685138655950445	-0.3442978847374036	1.195425825507559	-0.3267520731276744	0.6870225614927066	-0.2785656631692523	2.265686062395524	-0.35409357943479	-0.35893503009349875	-0.3343388660347309	-0.7215685393812522	2.9468984587725093	2.824112206711617	-0.9522267331341506	-0.27572339728950374	-0.38961479311103503	-0.3732544513450796	-0.35893503009349875	-0.34921514788478913	-0.22344724953291126	2.398393958043935	-0.5480450318089376	-0.39422837614619993	-0.3872983346207417	-1.2436690889332926	-0.4325468462415931	-0.48038446141526137	-0.579442124843851	-0.5689824313581613	1.63707055437449	-0.5627049417950517	2.9687258770949763	-0.33182160974507974	0.8201995322647244	-0.2699746235780195	-0.30329545094478133	-0.21320071635561041	-0.3343388660347309	1.0910894511799618	-0.4214261501141096	-0.2728599544537922	1.2724846096713838	-0.2521583134241299	1.665640709864818	-0.4825254612665732	-0.38264532596500644	-0.31646402138488217	-0.31646402138488217	-0.6066545473141627	1.4331580194499465	-0.4236592728681617	-0.36374124361651966	-0.9090119523573581	2.679137506321349	-0.4258877989981323	-0.3267520731276744	-0.38264532596500644	-0.5291502622129182	2.0016999578079715	1.6540981256071403	-0.30595865466681527	-0.30329545094478133	1.9601288894248496	2.3358382544339817	2.968725877094976	-0.34182408133375586	1.2985112193821484	-0.4191883226430045	1.6540981256071403	-0.579442124843851	-0.4369651145421804	-0.456660254290794	-0.6276459144608478	1.6540981256071403	2.749207073845788	-0.48038446141526137	-0.297921795862109	-0.3803084612008576	1.751084904435372	-0.3849752306800133	0.5165088686167205	-0.2869720215917757	1.9440218052328475	-0.37561319374834196	-0.48680056482708234	-0.3442978847374036	-0.2551921043650176	-0.3565188159918101	-0.3872983346207417	-0.25819888974716115	2.925481423362924	-0.3779644730092272	-0.32163376045133846	-0.370888069118607	-0.38961479311103503	-0.36134243644333836	-0.6234414529713428	-0.40565621161929283	-0.3467614903682866	-0.6318540525518814	-0.27572339728950374	-0.6487290812422555	-0.46099955865567255	-0.34921514788478913	-0.3467614903682866	-0.3343388660347309	-0.27572339728950374	-0.3803084612008576	-0.37561319374834196	-0.27572339728950374	-0.3086066999241838	-0.34182408133375586	2.6962312440420084	3.38741439318936	-0.3393398225253192	-0.45448583811729537	-0.4325468462415931	-0.9811557810392122	-0.3368448423330154	3.664883701977405	3.2129545473095193	1.2472191289246473
CHEMBL458023	1.0	-0.43475802416973014	-0.5627049417950517	-0.43475802416973014	-0.4931969619160719	-0.5731665164641667	-0.41244549671241	-0.4124454967124099	-0.2551921043650176	-0.27572339728950374	-0.25819888974716115	-0.3241991750530915	-0.45448583811729526	-0.38264532596500644	-0.37561319374834196	-0.6255432421712243	-0.8063648152335495	-0.34182408133375586	-0.2869720215917757	-0.4523081376574625	2.2885122100598942	2.9468984587725093	-0.3112400083086718	2.6294445220661444	3.626823148961934	-0.5919955368044005	-0.33433886603473084	-0.35165909932405354	2.0275875100994067	-0.33182160974507974	-0.48466414026525667	-0.37561319374834196	-0.4011025813393598	-0.4391682133431575	0.5080547786603903	-0.370888069118607	-0.27572339728950374	-0.6870225614927066	2.9044616430411736	-0.4868005648270824	0.7611827255205555	-0.44794255049964155	-0.41469810982568234	-0.3467614903682866	-0.36374124361651966	-0.28973605376997424	-0.8341777595705917	1.8108201919135594	-0.27572339728950374	-0.38961479311103503	-0.6529598679454096	-0.396525792859072	3.7443835491660447	-0.3988171487163462	-0.456660254290794	-0.37561319374834196	-0.2869720215917757	-0.3112400083086718	-0.33933982252531925	-0.6550772577278446	-0.34182408133375586	-0.25819888974716115	2.398393958043934	-0.38264532596500644	1.100095545945992	0.8295018954139963	-0.35893503009349875	-0.5878103637789966	-0.552235945051653	-0.4889348004153919	-0.33182160974507974	-0.31385898535260576	-0.3164640213848822	2.767457954407215	1.2909944487358056	1.7073059529625254	-0.5333551478959264	-0.32419917505309154	1.7971880974097465	-0.25215831342412987	-0.370888069118607	-1.0359727007116153	0.3442978847374036	-0.3661316543125935	-0.24909649144269788	-0.31385898535260576	-0.3565188159918101	-0.3685138655950445	2.7860195192971573	-0.27572339728950374	-0.2785656631692523	1.3331760913570414	-0.2699746235780195	-0.3267520731276744	-0.2670666578007805	-0.4889348004153919	-0.370888069118607	2.1099411963018904	-0.3565188159918101	-0.3086066999241838	-0.297921795862109	0.24909649144269785	-0.33933982252531925	-0.40565621161929283	-0.25819888974716115	-0.39192475766909796	-0.5459486832355503	-0.3988171487163462	0.9190274907868942	-0.2551921043650176	-0.2728599544537922	-0.5564247846072881	1.3693063937629153	-0.4523081376574625	2.0909956417273157	1.9203900877613311	-0.3086066999241838	-0.39422837614619993	-0.40565621161929283	-0.34182408133375586	2.221594893532063	-0.3368448423330154	1.5465138438191957	0.6402825046991014	-0.36134243644333836	-0.2813874297663251	-1.1183758429051855	3.419013771895895	1.9049752800522275	0.7150479945408699	-0.5080547786603903	2.31188831611886	-0.329292779969071	-0.24909649144269788	-0.6024640760767093	-0.3685138655950445	-0.3442978847374036	-0.8365219979879686	3.060424346900049	0.6870225614927066	-0.2785656631692523	-0.4413674147523748	-0.35409357943479	-0.35893503009349875	2.9909774231755653	-0.7215685393812522	2.9468984587725093	-0.35409357943479	-0.9522267331341506	-0.27572339728950374	-0.38961479311103503	2.679137506321349	-0.35893503009349875	-0.34921514788478913	-0.22344724953291126	-0.41694568010652133	-0.5480450318089376	-0.39422837614619993	2.5819888974716116	-1.2436690889332926	-0.4325468462415931	-0.48038446141526137	-0.579442124843851	-0.5689824313581613	-0.6108472217815261	-0.5627049417950517	-0.3368448423330154	-0.33182160974507974	-1.2192155209340498	-0.2699746235780195	-0.30329545094478133	-0.21320071635561041	-0.3343388660347309	1.0910894511799618	-0.4214261501141096	-0.2728599544537922	1.2724846096713838	-0.2521583134241299	-0.6003695719475777	-0.4825254612665732	-0.38264532596500644	-0.31646402138488217	-0.31646402138488217	-0.6066545473141627	1.4331580194499465	-0.4236592728681617	-0.36374124361651966	1.100095545945992	-0.3732544513450796	-0.4258877989981323	-0.3267520731276744	-0.38264532596500644	-0.5291502622129182	2.0016999578079715	-0.604559055184799	-0.30595865466681527	-0.30329545094478133	-0.5101705328640018	-0.42811183441394524	-0.3368448423330154	-0.34182408133375586	1.2985112193821484	-0.4191883226430045	-0.604559055184799	-0.579442124843851	-0.4369651145421804	-0.456660254290794	1.5932550136313832	-0.604559055184799	-0.36374124361651966	2.0816659994661326	-0.297921795862109	-0.3803084612008576	1.751084904435372	-0.3849752306800133	0.5165088686167205	-0.2869720215917757	1.9440218052328475	-0.37561319374834196	2.05422933384478	-0.3442978847374036	-0.2551921043650176	-0.3565188159918101	-0.3872983346207417	-0.25819888974716115	-0.34182408133375586	-0.3779644730092272	-0.32163376045133846	-0.370888069118607	-0.38961479311103503	-0.36134243644333836	-0.6234414529713428	-0.40565621161929283	-0.3467614903682866	-0.6318540525518814	-0.27572339728950374	1.5414755233187538	-0.46099955865567255	-0.34921514788478913	-0.3467614903682866	-0.3343388660347309	-0.27572339728950374	-0.3803084612008576	-0.37561319374834196	3.626823148961934	-0.3086066999241838	-0.34182408133375586	-0.370888069118607	3.38741439318936	-0.3393398225253192	-0.45448583811729537	-0.4325468462415931	-0.9811557810392122	-0.3368448423330154	-0.2728599544537922	-0.3112400083086718	-0.8017837257372732
CHEMBL24828	1.0	2.3001300594962646	-0.5627049417950517	-0.43475802416973014	-0.4931969619160719	-0.5731665164641667	-0.41244549671241	-0.4124454967124099	-0.2551921043650176	-0.27572339728950374	-0.25819888974716115	-0.3241991750530915	-0.45448583811729526	-0.38264532596500644	-0.37561319374834196	-0.6255432421712243	-0.8063648152335495	-0.34182408133375586	-0.2869720215917757	2.2108821768696765	-0.4369651145421805	-0.3393398225253192	-0.3112400083086718	-0.3803084612008576	-0.27572339728950374	-0.5919955368044005	2.9909774231755653	-0.35165909932405354	-0.4931969619160719	-0.33182160974507974	2.0632844828435215	-0.37561319374834196	-0.4011025813393598	2.277031828846455	0.5080547786603903	-0.370888069118607	-0.27572339728950374	-0.6870225614927066	-0.3442978847374036	2.05422933384478	-1.3137450003428848	-0.44794255049964155	-0.41469810982568234	-0.3467614903682866	-0.36374124361651966	-0.28973605376997424	1.1987852571312478	-0.552235945051653	-0.27572339728950374	2.566637657710839	-0.6529598679454096	-0.396525792859072	-0.2670666578007805	-0.3988171487163462	-0.456660254290794	-0.37561319374834196	3.4846602621858476	-0.3112400083086718	-0.33933982252531925	-0.6550772577278446	-0.34182408133375586	-0.25819888974716115	-0.4169456801065213	-0.38264532596500644	-0.9090119523573581	-1.2055427546683417	-0.35893503009349875	1.7012289364397415	-0.552235945051653	-0.4889348004153919	-0.33182160974507974	-0.31385898535260576	-0.3164640213848822	-0.36134243644333836	1.2909944487358056	-0.5857181006513774	-0.5333551478959264	-0.32419917505309154	1.7971880974097465	-0.25215831342412987	2.6962312440420084	0.9652764009255209	0.3442978847374036	-0.3661316543125935	-0.24909649144269788	-0.31385898535260576	-0.3565188159918101	-0.3685138655950445	-0.3589350300934988	-0.27572339728950374	-0.2785656631692523	1.3331760913570414	3.7040518354904273	-0.3267520731276744	-0.2670666578007805	-0.4889348004153919	2.6962312440420084	-0.47394685773836137	-0.3565188159918101	-0.3086066999241838	-0.297921795862109	0.24909649144269785	-0.33933982252531925	-0.40565621161929283	-0.25819888974716115	-0.39192475766909796	-0.5459486832355503	-0.3988171487163462	0.9190274907868942	-0.2551921043650176	-0.2728599544537922	-0.5564247846072881	-0.7302967433402215	2.2108821768696765	-0.47824107331659804	-0.5207275367504819	-0.3086066999241838	2.5366007636881758	-0.40565621161929283	-0.34182408133375586	2.221594893532063	-0.3368448423330154	1.5465138438191957	0.6402825046991014	-0.36134243644333836	-0.2813874297663251	-1.1183758429051855	3.419013771895895	-0.5249411950230576	-1.3985075234594526	-0.5080547786603903	-0.4325468462415931	-0.329292779969071	-0.24909649144269788	1.6598500055174643	-0.3685138655950445	-0.3442978847374036	1.195425825507559	-0.3267520731276744	-1.4555562743489547	-0.2785656631692523	-0.4413674147523748	2.824112206711617	-0.35893503009349875	-0.3343388660347309	-0.7215685393812522	-0.33933982252531925	-0.35409357943479	-0.9522267331341506	-0.27572339728950374	-0.38961479311103503	-0.3732544513450796	-0.35893503009349875	-0.34921514788478913	-0.22344724953291126	-0.41694568010652133	-0.5480450318089376	-0.39422837614619993	-0.3872983346207417	0.8040724087286836	-0.4325468462415931	-0.48038446141526137	-0.579442124843851	-0.5689824313581613	-0.6108472217815261	-0.5627049417950517	-0.3368448423330154	-0.33182160974507974	0.8201995322647244	-0.2699746235780195	3.2971150634964936	-0.21320071635561041	-0.3343388660347309	1.0910894511799618	-0.4214261501141096	-0.2728599544537922	-0.7858641215772721	-0.2521583134241299	-0.6003695719475777	2.072429499108951	-0.38264532596500644	-0.31646402138488217	-0.31646402138488217	-0.6066545473141627	1.4331580194499465	-0.4236592728681617	2.749207073845788	-0.9090119523573581	2.679137506321349	-0.4258877989981323	-0.3267520731276744	2.6133861624418526	-0.5291502622129182	-0.4995753714732969	-0.604559055184799	-0.30595865466681527	-0.30329545094478133	-0.5101705328640018	-0.42811183441394524	-0.3368448423330154	-0.34182408133375586	1.2985112193821484	2.3855626361320073	-0.604559055184799	-0.579442124843851	-0.4369651145421804	-0.456660254290794	-0.6276459144608478	1.6540981256071403	-0.36374124361651966	-0.48038446141526137	-0.297921795862109	-0.3803084612008576	1.751084904435372	2.5975697143777743	0.5165088686167205	-0.2869720215917757	1.9440218052328475	-0.37561319374834196	-0.48680056482708234	-0.3442978847374036	-0.2551921043650176	2.804901046297012	2.5819888974716116	-0.25819888974716115	-0.34182408133375586	2.6457513110645903	-0.32163376045133846	-0.370888069118607	-0.38961479311103503	-0.36134243644333836	-0.6234414529713428	-0.40565621161929283	-0.3467614903682866	-0.6318540525518814	-0.27572339728950374	1.5414755233187538	-0.46099955865567255	-0.34921514788478913	-0.3467614903682866	-0.3343388660347309	3.626823148961934	-0.3803084612008576	-0.37561319374834196	-0.27572339728950374	-0.3086066999241838	-0.34182408133375586	-0.370888069118607	-0.2952104124049812	-0.3393398225253192	2.200288581361509	-0.4325468462415931	1.0192061437387938	-0.3368448423330154	-0.2728599544537922	3.2129545473095193	-0.8017837257372732
