Compound_ID	AD	f_0	f_1	f_2	f_3	f_4	f_5	f_6	f_7	f_8	f_9	f_10	f_11	f_12	f_13	f_14	f_15	f_16	f_17	f_18	f_19	f_20	f_21	f_22	f_23	f_24	f_25	f_26	f_27	f_28	f_29	f_30	f_31	f_32	f_33	f_34	f_35	f_36	f_37	f_38	f_39	f_40	f_41	f_42	f_43	f_44	f_45	f_46	f_47	f_48	f_49	f_50	f_51	f_52	f_53	f_54	f_55	f_56	f_57	f_58	f_59	f_60	f_61	f_62	f_63	f_64	f_65	f_66	f_67	f_68	f_69	f_70	f_71	f_72	f_73	f_74	f_75	f_76	f_77	f_78	f_79	f_80	f_81	f_82	f_83	f_84	f_85	f_86	f_87	f_88	f_89	f_90	f_91	f_92	f_93	f_94	f_95	f_96	f_97	f_98	f_99	f_100	f_101	f_102	f_103	f_104	f_105	f_106	f_107	f_108	f_109	f_110	f_111	f_112	f_113	f_114	f_115	f_116	f_117	f_118	f_119	f_120	f_121	f_122	f_123	f_124	f_125	f_126	f_127	f_128	f_129	f_130	f_131	f_132	f_133	f_134	f_135	f_136	f_137	f_138	f_139	f_140	f_141	f_142	f_143	f_144	f_145	f_146	f_147	f_148	f_149	f_150	f_151	f_152	f_153	f_154	f_155	f_156	f_157	f_158	f_159	f_160	f_161	f_162	f_163	f_164	f_165	f_166	f_167	f_168	f_169	f_170	f_171	f_172	f_173	f_174	f_175	f_176	f_177	f_178	f_179	f_180	f_181	f_182	f_183	f_184	f_185	f_186	f_187	f_188	f_189	f_190	f_191	f_192	f_193	f_194	f_195	f_196	f_197	f_198	f_199	f_200	f_201	f_202	f_203	f_204	f_205	f_206	f_207	f_208	f_209	f_210	f_211	f_212	f_213	f_214	f_215	f_216	f_217	f_218	f_219	f_220	f_221	f_222	f_223	f_224	f_225	f_226	f_227	f_228	f_229	f_230	f_231	f_232	f_233	f_234	f_235	f_236	f_237	f_238	f_239	f_240	f_241	f_242	f_243	f_244	f_245	f_246	f_247	f_248	f_249	f_250	f_251	f_252	f_253	f_254	f_255
CHEMBL4095856	1.0	2.006745381713143	-0.4558423058385518	-0.4983193229757468	2.3754698783308417	-0.690065559342354	-0.31716197120135853	2.3267559183223914	-0.2507132682112035	-0.30678599553894814	-0.23836564731139806	-0.23836564731139806	-0.5234239225902136	-0.429782940327066	-0.447213595499958	1.695582495781317	1.4855627054164149	2.73030134866931	2.15322168769582	-0.37563851570163515	2.1937410968480306	-0.30678599553894814	-0.2741249873151301	-0.5483605572060236	-0.29617443887954614	1.449137674618944	-0.3373017270780278	-0.28529870107872785	-0.3662599370166147	-0.35675303400633795	1.8805811245074378	-0.21199957600127198	-0.4983193229757468	-0.4209693455269847	0.5067117097095317	-0.3849001794597506	-0.37563851570163515	-0.6063390625908324	-0.34710506725031165	2.006745381713143	0.6815914679145112	-0.429782940327066	2.42670329642684	-0.4120816918460671	3.1529631254723283	-0.3662599370166148	-0.7503500583621179	-0.4209693455269847	-0.3171619712013585	-0.39405520311955033	-0.5400617248673216	-0.5317505248607238	-0.21199957600127192	-0.3567530340063379	-0.4729526514634586	-0.5980503604017327	-0.19775273765841178	-0.3373017270780278	-0.3567530340063379	-0.6479562703178932	-0.35675303400633795	-0.28529870107872796	-0.3662599370166148	-0.37563851570163515	-0.7416198487095663	1.0	-0.3567530340063379	-0.4983193229757468	-0.4297829403270659	2.041241452319315	2.73030134866931	-0.34710506725031165	2.6621338286681095	-0.3067859955389482	-0.6229443807375882	1.823617666987474	1.9104973174542799	-0.23836564731139806	-0.6063390625908324	-0.19775273765841178	-0.43852900965351455	1.0217416718310184	0.27412498731513013	-0.27412498731513	-0.21199957600127192	-0.25071326821120343	-0.33730172707802786	-0.3849001794597506	-0.3756385157016351	-0.29617443887954614	-0.29617443887954614	-0.7416198487095663	-0.3171619712013585	-0.3373017270780278	-0.2626128657194451	-0.447213595499958	-0.3662599370166148	-0.43852900965351455	2.8030595529069404	-0.429782940327066	-0.25071326821120343	0.16620562382863333	-0.3171619712013585	-0.3662599370166148	-0.21199957600127192	-0.5483605572060236	1.823617666987474	-0.4031128874149275	0.8128433340529315	-0.29617443887954614	-0.22549380840084868	-0.5317505248607238	1.9104973174542803	-0.6312655864226274	-0.4983193229757468	2.4806946917841692	-0.29617443887954614	-0.38490017945975047	-0.35675303400633795	-0.27412498731513	-0.447213595499958	-0.22549380840084868	1.6269784336399213	0.7503500583621179	2.8809720581775866	-0.447213595499958	0.8404891542123694	-0.3171619712013585	-0.3662599370166148	0.7416198487095663	-0.4031128874149275	-0.4983193229757468	-0.464420364012824	-0.25071326821120343	-0.4814437448655852	-0.3662599370166148	-0.23836564731139806	1.272681542986758	-0.30678599553894814	0.5897678246195885	-0.34710506725031165	-0.5150787536377128	-0.3662599370166148	-0.4120816918460671	-0.29617443887954614	-0.8219949365267863	-0.3171619712013585	3.055050463303893	-0.8687444855261387	-0.22549380840084868	-0.4983193229757468	-0.3756385157016351	-0.5317505248607238	-0.27412498731513013	4.716990566028301	-0.43852900965351455	2.326755918322391	-0.29617443887954614	-0.31716197120135853	0.6985699678629191	-0.39405520311955033	-0.4814437448655851	1.8516401995451028	-0.7071067811865475	1.6720999872456608	-0.4031128874149275	-0.39405520311955033	-0.4031128874149274	0.8687444855261387	-0.39405520311955033	-0.28529870107872785	-0.1825741858350553	-0.3171619712013585	-0.7242859683401484	3.2596012026013246	-0.32732683535398854	-0.7416198487095663	-0.27412498731513	-0.6312655864226274	-0.447213595499958	1.5043795713638373	-0.32732683535398854	-0.34710506725031165	-0.5067117097095317	-0.6312655864226274	2.23606797749979	-0.3373017270780278	1.272681542986758	-0.3756385157016351	-0.39405520311955033	-0.39405520311955033	-0.34710506725031165	1.823617666987474	-0.447213595499958	1.823617666987474	-0.2852987010787279	-0.30678599553894814	-0.4814437448655852	-0.39405520311955033	-0.39405520311955033	-0.48989794855663565	1.3327112976879407	2.7303013486693097	-0.673145600891813	-0.4983193229757468	-0.3171619712013585	2.42670329642684	-0.5067117097095317	1.770122406313567	1.9104973174542799	-0.45584230583855173	-0.21199957600127198	-0.39405520311955033	1.4491376746189437	-0.37563851570163515	0.48989794855663565	-0.28529870107872796	-0.5566499393061832	-0.3662599370166148	-0.6396021490668313	-0.30678599553894814	-0.31716197120135853	-0.35675303400633795	-0.30678599553894814	-0.2626128657194451	2.537715508089904	-0.30678599553894814	3.259601202601325	-0.3373017270780278	-0.3756385157016351	2.6621338286681104	1.272681542986758	-0.4814437448655852	-0.2961744388795461	-0.6647258571142535	-0.27412498731513	-0.6229443807375882	-0.3373017270780278	-0.35675303400633795	-0.39405520311955033	-0.3373017270780278	-0.34710506725031165	-0.447213595499958	-0.4729526514634586	-0.2626128657194451	-0.3849001794597506	-0.4120816918460671	-0.3373017270780278	-0.34710506725031165	-0.3662599370166148	-0.4983193229757468	-0.4983193229757469	-1.0108111250054497	-0.31716197120135853	-0.21199957600127198	-0.3171619712013585	1.1637999741136082
CHEMBL247228	1.0	-0.4983193229757468	-0.4558423058385518	-0.4983193229757468	-0.4209693455269847	-0.690065559342354	-0.31716197120135853	-0.429782940327066	-0.2507132682112035	-0.30678599553894814	-0.23836564731139806	-0.23836564731139806	-0.5234239225902136	-0.429782940327066	-0.447213595499958	-0.5897678246195885	-0.673145600891813	-0.3662599370166148	-0.464420364012824	2.6621338286681104	-0.4558423058385518	-0.30678599553894814	-0.2741249873151301	-0.5483605572060236	-0.29617443887954614	1.449137674618944	-0.3373017270780278	-0.28529870107872785	-0.3662599370166147	-0.35675303400633795	-0.5317505248607238	-0.21199957600127198	-0.4983193229757468	-0.4209693455269847	-1.9735087641318605	-0.3849001794597506	-0.37563851570163515	1.6492422502470643	-0.34710506725031165	-0.4983193229757468	0.6815914679145112	-0.429782940327066	2.42670329642684	-0.4120816918460671	-0.3171619712013585	-0.3662599370166148	-0.7503500583621179	-0.4209693455269847	-0.3171619712013585	2.537715508089904	-0.5400617248673216	-0.5317505248607238	-0.21199957600127192	-0.3567530340063379	2.114376559483697	-0.5980503604017327	-0.19775273765841178	2.964704653791087	-0.3567530340063379	-0.6479562703178932	-0.35675303400633795	-0.28529870107872796	2.73030134866931	-0.37563851570163515	-0.7416198487095663	-1.0	-0.3567530340063379	-0.4983193229757468	-0.4297829403270659	-0.48989794855663565	-0.3662599370166148	-0.34710506725031165	2.6621338286681095	-0.3067859955389482	-0.6229443807375882	-0.5483605572060236	1.9104973174542799	-0.23836564731139806	-0.6063390625908324	-0.19775273765841178	-0.43852900965351455	-0.978720969859186	0.27412498731513013	-0.27412498731513	-0.21199957600127192	-0.25071326821120343	-0.33730172707802786	-0.3849001794597506	2.6621338286681095	-0.29617443887954614	-0.29617443887954614	-0.7416198487095663	-0.3171619712013585	-0.3373017270780278	-0.2626128657194451	-0.447213595499958	-0.3662599370166148	2.2803508501982757	-0.35675303400633795	-0.429782940327066	-0.25071326821120343	0.16620562382863333	-0.3171619712013585	-0.3662599370166148	-0.21199957600127192	-0.5483605572060236	-0.5483605572060236	-0.4031128874149275	0.8128433340529315	-0.29617443887954614	-0.22549380840084868	-0.5317505248607238	-0.5234239225902136	-0.6312655864226274	-0.4983193229757468	2.4806946917841692	-0.29617443887954614	-0.38490017945975047	-0.35675303400633795	-0.27412498731513	-0.447213595499958	-0.22549380840084868	-0.6146362971528592	0.7503500583621179	-0.34710506725031165	-0.447213595499958	0.8404891542123694	-0.3171619712013585	-0.3662599370166148	0.7416198487095663	2.4806946917841692	-0.4983193229757468	-0.464420364012824	-0.25071326821120343	-0.4814437448655852	-0.3662599370166148	-0.23836564731139806	1.272681542986758	3.2596012026013246	0.5897678246195885	-0.34710506725031165	-0.5150787536377128	-0.3662599370166148	-0.4120816918460671	-0.29617443887954614	1.2165525060596438	-0.3171619712013585	-0.32732683535398854	1.1510864433221337	-0.22549380840084868	-0.4983193229757468	-0.3756385157016351	-0.5317505248607238	-0.27412498731513013	-0.21199957600127192	-0.43852900965351455	-0.4297829403270659	-0.29617443887954614	-0.31716197120135853	-1.4314958357846705	-0.39405520311955033	-0.4814437448655851	-0.5400617248673216	-0.7071067811865475	-0.5980503604017327	2.4806946917841692	-0.39405520311955033	-0.4031128874149274	-1.1510864433221337	-0.39405520311955033	-0.28529870107872785	-0.1825741858350553	-0.3171619712013585	1.3806701271484076	3.2596012026013246	-0.32732683535398854	-0.7416198487095663	-0.27412498731513	1.5841193017775368	-0.447213595499958	1.5043795713638373	-0.32732683535398854	-0.34710506725031165	-0.5067117097095317	-0.6312655864226274	-0.447213595499958	-0.3373017270780278	-0.7857425178439984	2.6621338286681095	-0.39405520311955033	-0.39405520311955033	-0.34710506725031165	1.823617666987474	2.23606797749979	-0.5483605572060236	-0.2852987010787279	-0.30678599553894814	-0.4814437448655852	2.537715508089904	2.537715508089904	-0.48989794855663565	1.3327112976879407	-0.3662599370166147	-0.673145600891813	-0.4983193229757468	-0.3171619712013585	-0.4120816918460671	-0.5067117097095317	-0.564932682866032	-0.5234239225902136	2.19374109684803	-0.21199957600127198	-0.39405520311955033	-0.690065559342354	-0.37563851570163515	0.48989794855663565	-0.28529870107872796	1.796461167760864	-0.3662599370166148	-0.6396021490668313	-0.30678599553894814	-0.31716197120135853	-0.35675303400633795	3.2596012026013246	3.807886552931954	-0.39405520311955033	-0.30678599553894814	-0.3067859955389482	-0.3373017270780278	-0.3756385157016351	-0.37563851570163515	-0.7857425178439984	-0.4814437448655852	-0.2961744388795461	1.504379571363837	-0.27412498731513	-0.6229443807375882	2.964704653791087	-0.35675303400633795	-0.39405520311955033	-0.3373017270780278	-0.34710506725031165	-0.447213595499958	2.114376559483697	-0.2626128657194451	-0.3849001794597506	-0.4120816918460671	-0.3373017270780278	-0.34710506725031165	-0.3662599370166148	-0.4983193229757468	-0.4983193229757469	-1.0108111250054497	-0.31716197120135853	-0.21199957600127198	-0.3171619712013585	-0.859254186495094
CHEMBL255501	1.0	-0.4983193229757468	-0.4558423058385518	-0.4983193229757468	-0.4209693455269847	1.4491376746189437	-0.31716197120135853	-0.429782940327066	-0.2507132682112035	-0.30678599553894814	-0.23836564731139806	-0.23836564731139806	-0.5234239225902136	-0.429782940327066	-0.447213595499958	-0.5897678246195885	1.4855627054164149	-0.3662599370166148	2.15322168769582	-0.37563851570163515	-0.4558423058385518	-0.30678599553894814	-0.2741249873151301	1.823617666987474	-0.29617443887954614	1.449137674618944	-0.3373017270780278	-0.28529870107872785	-0.3662599370166147	-0.35675303400633795	1.8805811245074378	-0.21199957600127198	-0.4983193229757468	-0.4209693455269847	0.5067117097095317	-0.3849001794597506	-0.37563851570163515	1.6492422502470643	2.8809720581775866	-0.4983193229757468	0.6815914679145112	-0.429782940327066	-0.4120816918460671	-0.4120816918460671	3.1529631254723283	-0.3662599370166148	1.3327112976879407	-0.4209693455269847	-0.3171619712013585	-0.39405520311955033	-0.5400617248673216	1.8805811245074378	-0.21199957600127192	-0.3567530340063379	-0.4729526514634586	1.672099987245661	-0.19775273765841178	-0.3373017270780278	-0.3567530340063379	-0.6479562703178932	-0.35675303400633795	-0.28529870107872796	-0.3662599370166148	-0.37563851570163515	-0.7416198487095663	1.0	-0.3567530340063379	-0.4983193229757468	-0.4297829403270659	2.041241452319315	-0.3662599370166148	-0.34710506725031165	-0.3756385157016351	-0.3067859955389482	-0.6229443807375882	-0.5483605572060236	-0.5234239225902136	-0.23836564731139806	-0.6063390625908324	-0.19775273765841178	2.2803508501982757	1.0217416718310184	0.27412498731513013	-0.27412498731513	-0.21199957600127192	-0.25071326821120343	-0.33730172707802786	-0.3849001794597506	-0.3756385157016351	-0.29617443887954614	-0.29617443887954614	-0.7416198487095663	-0.3171619712013585	-0.3373017270780278	-0.2626128657194451	-0.447213595499958	-0.3662599370166148	-0.43852900965351455	-0.35675303400633795	-0.429782940327066	-0.25071326821120343	0.16620562382863333	-0.3171619712013585	2.73030134866931	-0.21199957600127192	1.823617666987474	-0.5483605572060236	-0.4031128874149275	0.8128433340529315	-0.29617443887954614	-0.22549380840084868	-0.5317505248607238	-0.5234239225902136	1.5841193017775368	2.006745381713143	-0.4031128874149275	-0.29617443887954614	-0.38490017945975047	-0.35675303400633795	-0.27412498731513	-0.447213595499958	-0.22549380840084868	-0.6146362971528592	-1.3327112976879407	-0.34710506725031165	2.23606797749979	0.8404891542123694	-0.3171619712013585	-0.3662599370166148	0.7416198487095663	2.4806946917841692	-0.4983193229757468	2.15322168769582	-0.25071326821120343	-0.4814437448655852	-0.3662599370166148	-0.23836564731139806	-0.7857425178439984	-0.30678599553894814	0.5897678246195885	2.8809720581775866	1.9414506867883021	-0.3662599370166148	-0.4120816918460671	-0.29617443887954614	1.2165525060596438	-0.3171619712013585	-0.32732683535398854	-0.8687444855261387	-0.22549380840084868	2.006745381713143	-0.3756385157016351	1.8805811245074378	-0.27412498731513013	-0.21199957600127192	-0.43852900965351455	-0.4297829403270659	-0.29617443887954614	-0.31716197120135853	0.6985699678629191	-0.39405520311955033	-0.4814437448655851	-0.5400617248673216	1.4142135623730951	-0.5980503604017327	2.4806946917841692	-0.39405520311955033	-0.4031128874149274	0.8687444855261387	-0.39405520311955033	-0.28529870107872785	-0.1825741858350553	-0.3171619712013585	-0.7242859683401484	-0.30678599553894814	3.055050463303893	-0.7416198487095663	-0.27412498731513	1.5841193017775368	-0.447213595499958	1.5043795713638373	-0.32732683535398854	-0.34710506725031165	-0.5067117097095317	1.5841193017775368	-0.447213595499958	-0.3373017270780278	-0.7857425178439984	-0.3756385157016351	-0.39405520311955033	-0.39405520311955033	-0.34710506725031165	-0.5483605572060236	-0.447213595499958	-0.5483605572060236	-0.2852987010787279	-0.30678599553894814	-0.4814437448655852	-0.39405520311955033	-0.39405520311955033	-0.48989794855663565	1.3327112976879407	-0.3662599370166147	-0.673145600891813	-0.4983193229757468	-0.3171619712013585	2.42670329642684	-0.5067117097095317	-0.564932682866032	-0.5234239225902136	-0.45584230583855173	-0.21199957600127198	-0.39405520311955033	-0.690065559342354	-0.37563851570163515	0.48989794855663565	-0.28529870107872796	-0.5566499393061832	-0.3662599370166148	1.5634719199411433	-0.30678599553894814	-0.31716197120135853	-0.35675303400633795	-0.30678599553894814	-0.2626128657194451	-0.39405520311955033	-0.30678599553894814	-0.3067859955389482	-0.3373017270780278	-0.3756385157016351	-0.37563851570163515	1.272681542986758	2.077085870705811	-0.2961744388795461	-0.6647258571142535	-0.27412498731513	-0.6229443807375882	-0.3373017270780278	-0.35675303400633795	-0.39405520311955033	-0.3373017270780278	-0.34710506725031165	-0.447213595499958	-0.4729526514634586	-0.2626128657194451	-0.3849001794597506	-0.4120816918460671	-0.3373017270780278	-0.34710506725031165	-0.3662599370166148	2.006745381713143	-0.4983193229757469	0.9893045053244826	-0.31716197120135853	-0.21199957600127198	-0.3171619712013585	-0.859254186495094
CHEMBL248933	1.0	2.006745381713143	-0.4558423058385518	-0.4983193229757468	-0.4209693455269847	-0.690065559342354	-0.31716197120135853	-0.429782940327066	-0.2507132682112035	-0.30678599553894814	-0.23836564731139806	-0.23836564731139806	-0.5234239225902136	-0.429782940327066	-0.447213595499958	-0.5897678246195885	-0.673145600891813	-0.3662599370166148	2.15322168769582	-0.37563851570163515	-0.4558423058385518	-0.30678599553894814	-0.2741249873151301	-0.5483605572060236	-0.29617443887954614	1.449137674618944	-0.3373017270780278	-0.28529870107872785	-0.3662599370166147	-0.35675303400633795	-0.5317505248607238	-0.21199957600127198	-0.4983193229757468	-0.4209693455269847	0.5067117097095317	-0.3849001794597506	-0.37563851570163515	-0.6063390625908324	-0.34710506725031165	-0.4983193229757468	0.6815914679145112	2.3267559183223914	-0.4120816918460671	-0.4120816918460671	-0.3171619712013585	-0.3662599370166148	1.3327112976879407	-0.4209693455269847	-0.3171619712013585	2.537715508089904	1.8516401995451028	-0.5317505248607238	-0.21199957600127192	-0.3567530340063379	2.114376559483697	-0.5980503604017327	-0.19775273765841178	-0.3373017270780278	-0.3567530340063379	-0.6479562703178932	-0.35675303400633795	-0.28529870107872796	-0.3662599370166148	-0.37563851570163515	-0.7416198487095663	-1.0	-0.3567530340063379	-0.4983193229757468	2.326755918322391	-0.48989794855663565	-0.3662599370166148	-0.34710506725031165	-0.3756385157016351	-0.3067859955389482	1.6052797503622467	1.823617666987474	1.9104973174542799	-0.23836564731139806	1.649242250247064	-0.19775273765841178	-0.43852900965351455	-0.978720969859186	0.27412498731513013	-0.27412498731513	-0.21199957600127192	-0.25071326821120343	-0.33730172707802786	2.5980762113533165	-0.3756385157016351	-0.29617443887954614	-0.29617443887954614	-0.7416198487095663	-0.3171619712013585	-0.3373017270780278	-0.2626128657194451	2.23606797749979	-0.3662599370166148	-0.43852900965351455	-0.35675303400633795	2.3267559183223914	-0.25071326821120343	0.16620562382863333	-0.3171619712013585	-0.3662599370166148	-0.21199957600127192	-0.5483605572060236	-0.5483605572060236	-0.4031128874149275	0.8128433340529315	-0.29617443887954614	-0.22549380840084868	1.8805811245074378	-0.5234239225902136	-0.6312655864226274	-0.4983193229757468	-0.4031128874149275	-0.29617443887954614	-0.38490017945975047	-0.35675303400633795	-0.27412498731513	-0.447213595499958	-0.22549380840084868	-0.6146362971528592	0.7503500583621179	-0.34710506725031165	-0.447213595499958	0.8404891542123694	-0.3171619712013585	2.73030134866931	0.7416198487095663	-0.4031128874149275	-0.4983193229757468	-0.464420364012824	-0.25071326821120343	-0.4814437448655852	-0.3662599370166148	-0.23836564731139806	1.272681542986758	-0.30678599553894814	0.5897678246195885	-0.34710506725031165	1.9414506867883021	-0.3662599370166148	-0.4120816918460671	-0.29617443887954614	-0.8219949365267863	-0.3171619712013585	-0.32732683535398854	1.1510864433221337	-0.22549380840084868	-0.4983193229757468	-0.3756385157016351	-0.5317505248607238	-0.27412498731513013	-0.21199957600127192	-0.43852900965351455	-0.4297829403270659	-0.29617443887954614	-0.31716197120135853	-1.4314958357846705	-0.39405520311955033	-0.4814437448655851	1.8516401995451028	1.4142135623730951	-0.5980503604017327	-0.4031128874149275	-0.39405520311955033	-0.4031128874149274	-1.1510864433221337	2.537715508089904	-0.28529870107872785	-0.1825741858350553	-0.3171619712013585	1.3806701271484076	-0.30678599553894814	-0.32732683535398854	-0.7416198487095663	-0.27412498731513	-0.6312655864226274	2.23606797749979	-0.6647258571142536	-0.32732683535398854	-0.34710506725031165	-0.5067117097095317	1.5841193017775368	2.23606797749979	-0.3373017270780278	-0.7857425178439984	-0.3756385157016351	-0.39405520311955033	-0.39405520311955033	-0.34710506725031165	1.823617666987474	-0.447213595499958	-0.5483605572060236	-0.2852987010787279	-0.30678599553894814	-0.4814437448655852	2.537715508089904	2.537715508089904	2.041241452319315	-0.7503500583621179	-0.3662599370166147	1.4855627054164149	-0.4983193229757468	-0.3171619712013585	-0.4120816918460671	-0.5067117097095317	-0.564932682866032	-0.5234239225902136	-0.45584230583855173	-0.21199957600127198	-0.39405520311955033	-0.690065559342354	-0.37563851570163515	0.48989794855663565	-0.28529870107872796	-0.5566499393061832	-0.3662599370166148	-0.6396021490668313	-0.30678599553894814	-0.31716197120135853	-0.35675303400633795	-0.30678599553894814	-0.2626128657194451	-0.39405520311955033	-0.30678599553894814	-0.3067859955389482	-0.3373017270780278	-0.3756385157016351	-0.37563851570163515	-0.7857425178439984	-0.4814437448655852	-0.2961744388795461	-0.6647258571142535	-0.27412498731513	1.6052797503622467	-0.3373017270780278	-0.35675303400633795	-0.39405520311955033	-0.3373017270780278	-0.34710506725031165	-0.447213595499958	-0.4729526514634586	-0.2626128657194451	-0.3849001794597506	-0.4120816918460671	-0.3373017270780278	-0.34710506725031165	-0.3662599370166148	2.006745381713143	-0.4983193229757469	-1.0108111250054497	-0.31716197120135853	-0.21199957600127198	-0.3171619712013585	1.1637999741136082
CHEMBL1289926	1.0	-0.4983193229757468	2.1937410968480306	-0.4983193229757468	-0.4209693455269847	-0.690065559342354	-0.31716197120135853	-0.429782940327066	-0.2507132682112035	3.2596012026013246	-0.23836564731139806	-0.23836564731139806	-0.5234239225902136	-0.429782940327066	-0.447213595499958	-0.5897678246195885	-0.673145600891813	-0.3662599370166148	-0.464420364012824	-0.37563851570163515	-0.4558423058385518	-0.30678599553894814	-0.2741249873151301	-0.5483605572060236	-0.29617443887954614	-0.6900655593423541	-0.3373017270780278	-0.28529870107872785	-0.3662599370166147	-0.35675303400633795	-0.5317505248607238	-0.21199957600127198	-0.4983193229757468	-0.4209693455269847	0.5067117097095317	-0.3849001794597506	-0.37563851570163515	-0.6063390625908324	-0.34710506725031165	-0.4983193229757468	0.6815914679145112	2.3267559183223914	-0.4120816918460671	-0.4120816918460671	3.1529631254723283	-0.3662599370166148	1.3327112976879407	-0.4209693455269847	-0.3171619712013585	-0.39405520311955033	-0.5400617248673216	-0.5317505248607238	-0.21199957600127192	-0.3567530340063379	-0.4729526514634586	-0.5980503604017327	-0.19775273765841178	2.964704653791087	-0.3567530340063379	-0.6479562703178932	-0.35675303400633795	-0.28529870107872796	-0.3662599370166148	-0.37563851570163515	-0.7416198487095663	1.0	-0.3567530340063379	2.006745381713143	-0.4297829403270659	2.041241452319315	-0.3662599370166148	-0.34710506725031165	-0.3756385157016351	-0.3067859955389482	-0.6229443807375882	1.823617666987474	-0.5234239225902136	-0.23836564731139806	1.649242250247064	-0.19775273765841178	2.2803508501982757	-0.978720969859186	0.27412498731513013	-0.27412498731513	4.716990566028301	-0.25071326821120343	-0.33730172707802786	-0.3849001794597506	-0.3756385157016351	3.376388603226826	3.376388603226826	1.348399724926484	-0.3171619712013585	-0.3373017270780278	-0.2626128657194451	-0.447213595499958	-0.3662599370166148	-0.43852900965351455	-0.35675303400633795	-0.429782940327066	-0.25071326821120343	0.16620562382863333	-0.3171619712013585	-0.3662599370166148	-0.21199957600127192	-0.5483605572060236	-0.5483605572060236	-0.4031128874149275	0.8128433340529315	-0.29617443887954614	-0.22549380840084868	-0.5317505248607238	-0.5234239225902136	-0.6312655864226274	-0.4983193229757468	-0.4031128874149275	-0.29617443887954614	2.5980762113533156	2.803059552906941	-0.27412498731513	2.23606797749979	-0.22549380840084868	1.6269784336399213	0.7503500583621179	-0.34710506725031165	2.23606797749979	0.8404891542123694	-0.3171619712013585	-0.3662599370166148	0.7416198487095663	-0.4031128874149275	-0.4983193229757468	2.15322168769582	-0.25071326821120343	-0.4814437448655852	-0.3662599370166148	-0.23836564731139806	-0.7857425178439984	3.2596012026013246	0.5897678246195885	-0.34710506725031165	-0.5150787536377128	-0.3662599370166148	-0.4120816918460671	-0.29617443887954614	-0.8219949365267863	-0.3171619712013585	-0.32732683535398854	1.1510864433221337	-0.22549380840084868	-0.4983193229757468	2.6621338286681095	-0.5317505248607238	-0.27412498731513013	-0.21199957600127192	-0.43852900965351455	-0.4297829403270659	-0.29617443887954614	-0.31716197120135853	-1.4314958357846705	-0.39405520311955033	-0.4814437448655851	-0.5400617248673216	1.4142135623730951	-0.5980503604017327	-0.4031128874149275	-0.39405520311955033	-0.4031128874149274	0.8687444855261387	-0.39405520311955033	3.505098327538656	-0.1825741858350553	-0.3171619712013585	1.3806701271484076	-0.30678599553894814	3.055050463303893	1.3483997249264843	-0.27412498731513	-0.6312655864226274	-0.447213595499958	-0.6647258571142536	-0.32732683535398854	-0.34710506725031165	1.9735087641318605	-0.6312655864226274	-0.447213595499958	-0.3373017270780278	-0.7857425178439984	-0.3756385157016351	-0.39405520311955033	-0.39405520311955033	-0.34710506725031165	-0.5483605572060236	2.23606797749979	-0.5483605572060236	-0.2852987010787279	-0.30678599553894814	-0.4814437448655852	2.537715508089904	-0.39405520311955033	2.041241452319315	-0.7503500583621179	-0.3662599370166147	-0.673145600891813	-0.4983193229757468	-0.3171619712013585	-0.4120816918460671	-0.5067117097095317	-0.564932682866032	-0.5234239225902136	2.19374109684803	-0.21199957600127198	-0.39405520311955033	1.4491376746189437	-0.37563851570163515	0.48989794855663565	-0.28529870107872796	-0.5566499393061832	-0.3662599370166148	-0.6396021490668313	-0.30678599553894814	-0.31716197120135853	-0.35675303400633795	-0.30678599553894814	-0.2626128657194451	-0.39405520311955033	-0.30678599553894814	-0.3067859955389482	-0.3373017270780278	-0.3756385157016351	-0.37563851570163515	1.272681542986758	2.077085870705811	-0.2961744388795461	-0.6647258571142535	-0.27412498731513	-0.6229443807375882	-0.3373017270780278	-0.35675303400633795	-0.39405520311955033	-0.3373017270780278	-0.34710506725031165	-0.447213595499958	-0.4729526514634586	-0.2626128657194451	-0.3849001794597506	-0.4120816918460671	-0.3373017270780278	-0.34710506725031165	-0.3662599370166148	-0.4983193229757468	-0.4983193229757469	-1.0108111250054497	-0.31716197120135853	-0.21199957600127198	3.1529631254723283	-0.859254186495094
CHEMBL246166	1.0	-0.4983193229757468	-0.4558423058385518	-0.4983193229757468	-0.4209693455269847	-0.690065559342354	-0.31716197120135853	-0.429782940327066	-0.2507132682112035	-0.30678599553894814	-0.23836564731139806	-0.23836564731139806	-0.5234239225902136	-0.429782940327066	-0.447213595499958	-0.5897678246195885	1.4855627054164149	-0.3662599370166148	-0.464420364012824	-0.37563851570163515	-0.4558423058385518	-0.30678599553894814	-0.2741249873151301	-0.5483605572060236	3.376388603226826	1.449137674618944	-0.3373017270780278	-0.28529870107872785	-0.3662599370166147	2.8030595529069404	-0.5317505248607238	-0.21199957600127198	2.006745381713143	2.3754698783308417	0.5067117097095317	-0.3849001794597506	-0.37563851570163515	-0.6063390625908324	-0.34710506725031165	-0.4983193229757468	0.6815914679145112	2.3267559183223914	-0.4120816918460671	-0.4120816918460671	-0.3171619712013585	-0.3662599370166148	-0.7503500583621179	-0.4209693455269847	-0.3171619712013585	-0.39405520311955033	-0.5400617248673216	1.8805811245074378	-0.21199957600127192	-0.3567530340063379	-0.4729526514634586	-0.5980503604017327	-0.19775273765841178	2.964704653791087	-0.3567530340063379	-0.6479562703178932	2.803059552906941	3.5050983275386574	-0.3662599370166148	-0.37563851570163515	1.3483997249264843	1.0	2.8030595529069404	2.006745381713143	2.326755918322391	-0.48989794855663565	-0.3662599370166148	-0.34710506725031165	-0.3756385157016351	3.259601202601325	1.6052797503622467	1.823617666987474	-0.5234239225902136	-0.23836564731139806	-0.6063390625908324	-0.19775273765841178	-0.43852900965351455	1.0217416718310184	0.27412498731513013	-0.27412498731513	-0.21199957600127192	-0.25071326821120343	-0.33730172707802786	-0.3849001794597506	2.6621338286681095	3.376388603226826	-0.29617443887954614	1.348399724926484	-0.3171619712013585	-0.3373017270780278	-0.2626128657194451	-0.447213595499958	-0.3662599370166148	2.2803508501982757	-0.35675303400633795	-0.429782940327066	-0.25071326821120343	0.16620562382863333	-0.3171619712013585	2.73030134866931	-0.21199957600127192	-0.5483605572060236	1.823617666987474	-0.4031128874149275	0.8128433340529315	-0.29617443887954614	-0.22549380840084868	-0.5317505248607238	-0.5234239225902136	-0.6312655864226274	-0.4983193229757468	-0.4031128874149275	-0.29617443887954614	-0.38490017945975047	-0.35675303400633795	-0.27412498731513	-0.447213595499958	-0.22549380840084868	1.6269784336399213	0.7503500583621179	-0.34710506725031165	-0.447213595499958	0.8404891542123694	3.1529631254723283	-0.3662599370166148	0.7416198487095663	-0.4031128874149275	-0.4983193229757468	-0.464420364012824	-0.25071326821120343	2.077085870705811	-0.3662599370166148	-0.23836564731139806	1.272681542986758	-0.30678599553894814	0.5897678246195885	-0.34710506725031165	-0.5150787536377128	-0.3662599370166148	2.42670329642684	3.376388603226826	-0.8219949365267863	-0.3171619712013585	-0.32732683535398854	-0.8687444855261387	-0.22549380840084868	-0.4983193229757468	-0.3756385157016351	1.8805811245074378	-0.27412498731513013	-0.21199957600127192	-0.43852900965351455	2.326755918322391	-0.29617443887954614	3.1529631254723283	0.6985699678629191	-0.39405520311955033	2.0770858707058104	-0.5400617248673216	1.4142135623730951	1.6720999872456608	-0.4031128874149275	2.537715508089904	2.4806946917841683	-1.1510864433221337	-0.39405520311955033	-0.28529870107872785	-0.1825741858350553	-0.3171619712013585	1.3806701271484076	-0.30678599553894814	3.055050463303893	1.3483997249264843	-0.27412498731513	-0.6312655864226274	-0.447213595499958	-0.6647258571142536	-0.32732683535398854	-0.34710506725031165	-0.5067117097095317	1.5841193017775368	-0.447213595499958	-0.3373017270780278	1.272681542986758	-0.3756385157016351	-0.39405520311955033	-0.39405520311955033	-0.34710506725031165	-0.5483605572060236	2.23606797749979	-0.5483605572060236	-0.2852987010787279	-0.30678599553894814	-0.4814437448655852	-0.39405520311955033	-0.39405520311955033	-0.48989794855663565	1.3327112976879407	-0.3662599370166147	-0.673145600891813	-0.4983193229757468	-0.3171619712013585	-0.4120816918460671	-0.5067117097095317	-0.564932682866032	-0.5234239225902136	-0.45584230583855173	-0.21199957600127198	-0.39405520311955033	1.4491376746189437	-0.37563851570163515	0.48989794855663565	-0.28529870107872796	1.796461167760864	-0.3662599370166148	-0.6396021490668313	-0.30678599553894814	3.1529631254723283	-0.35675303400633795	-0.30678599553894814	-0.2626128657194451	-0.39405520311955033	-0.30678599553894814	-0.3067859955389482	-0.3373017270780278	-0.3756385157016351	-0.37563851570163515	-0.7857425178439984	-0.4814437448655852	-0.2961744388795461	-0.6647258571142535	-0.27412498731513	-0.6229443807375882	-0.3373017270780278	-0.35675303400633795	-0.39405520311955033	-0.3373017270780278	-0.34710506725031165	-0.447213595499958	-0.4729526514634586	3.807886552931954	-0.3849001794597506	-0.4120816918460671	-0.3373017270780278	-0.34710506725031165	-0.3662599370166148	2.006745381713143	-0.4983193229757469	-1.0108111250054497	-0.31716197120135853	4.716990566028302	-0.3171619712013585	-0.859254186495094
CHEMBL1240703	1.0	-0.4983193229757468	-0.4558423058385518	-0.4983193229757468	2.3754698783308417	-0.690065559342354	3.1529631254723283	-0.429782940327066	-0.2507132682112035	-0.30678599553894814	-0.23836564731139806	-0.23836564731139806	-0.5234239225902136	2.3267559183223914	-0.447213595499958	-0.5897678246195885	-0.673145600891813	-0.3662599370166148	-0.464420364012824	-0.37563851570163515	-0.4558423058385518	-0.30678599553894814	-0.2741249873151301	-0.5483605572060236	-0.29617443887954614	-0.6900655593423541	-0.3373017270780278	-0.28529870107872785	-0.3662599370166147	2.8030595529069404	-0.5317505248607238	-0.21199957600127198	-0.4983193229757468	-0.4209693455269847	0.5067117097095317	-0.3849001794597506	-0.37563851570163515	1.6492422502470643	2.8809720581775866	-0.4983193229757468	0.6815914679145112	-0.429782940327066	-0.4120816918460671	-0.4120816918460671	-0.3171619712013585	-0.3662599370166148	1.3327112976879407	2.3754698783308417	-0.3171619712013585	-0.39405520311955033	-0.5400617248673216	-0.5317505248607238	-0.21199957600127192	-0.3567530340063379	-0.4729526514634586	1.672099987245661	-0.19775273765841178	-0.3373017270780278	2.8030595529069404	1.5433140256662548	-0.35675303400633795	-0.28529870107872796	-0.3662599370166148	-0.37563851570163515	-0.7416198487095663	1.0	-0.3567530340063379	-0.4983193229757468	-0.4297829403270659	-0.48989794855663565	-0.3662599370166148	-0.34710506725031165	-0.3756385157016351	-0.3067859955389482	1.6052797503622467	-0.5483605572060236	1.9104973174542799	-0.23836564731139806	1.649242250247064	-0.19775273765841178	-0.43852900965351455	-0.978720969859186	0.27412498731513013	-0.27412498731513	-0.21199957600127192	-0.25071326821120343	-0.33730172707802786	-0.3849001794597506	-0.3756385157016351	-0.29617443887954614	-0.29617443887954614	1.348399724926484	-0.3171619712013585	-0.3373017270780278	-0.2626128657194451	-0.447213595499958	2.73030134866931	-0.43852900965351455	2.8030595529069404	-0.429782940327066	-0.25071326821120343	0.16620562382863333	-0.3171619712013585	-0.3662599370166148	-0.21199957600127192	-0.5483605572060236	1.823617666987474	-0.4031128874149275	-1.2302493704584911	-0.29617443887954614	-0.22549380840084868	-0.5317505248607238	-0.5234239225902136	1.5841193017775368	2.006745381713143	-0.4031128874149275	-0.29617443887954614	2.5980762113533156	-0.35675303400633795	-0.27412498731513	-0.447213595499958	4.43471156521669	1.6269784336399213	-1.3327112976879407	-0.34710506725031165	-0.447213595499958	0.8404891542123694	-0.3171619712013585	-0.3662599370166148	-1.3483997249264843	-0.4031128874149275	-0.4983193229757468	-0.464420364012824	-0.25071326821120343	2.077085870705811	-0.3662599370166148	-0.23836564731139806	-0.7857425178439984	-0.30678599553894814	0.5897678246195885	2.8809720581775866	-0.5150787536377128	2.73030134866931	-0.4120816918460671	-0.29617443887954614	1.2165525060596438	-0.3171619712013585	-0.32732683535398854	-0.8687444855261387	-0.22549380840084868	-0.4983193229757468	-0.3756385157016351	-0.5317505248607238	-0.27412498731513013	-0.21199957600127192	-0.43852900965351455	-0.4297829403270659	-0.29617443887954614	-0.31716197120135853	0.6985699678629191	-0.39405520311955033	2.0770858707058104	-0.5400617248673216	1.4142135623730951	-0.5980503604017327	-0.4031128874149275	2.537715508089904	2.4806946917841683	0.8687444855261387	-0.39405520311955033	3.505098327538656	5.477225575051659	-0.3171619712013585	-0.7242859683401484	-0.30678599553894814	-0.32732683535398854	1.3483997249264843	-0.27412498731513	-0.6312655864226274	-0.447213595499958	-0.6647258571142536	-0.32732683535398854	-0.34710506725031165	-0.5067117097095317	1.5841193017775368	-0.447213595499958	2.964704653791087	-0.7857425178439984	-0.3756385157016351	-0.39405520311955033	-0.39405520311955033	2.8809720581775866	-0.5483605572060236	2.23606797749979	1.823617666987474	3.5050983275386565	-0.30678599553894814	2.077085870705811	2.537715508089904	2.537715508089904	-0.48989794855663565	-0.7503500583621179	-0.3662599370166147	-0.673145600891813	-0.4983193229757468	-0.3171619712013585	-0.4120816918460671	-0.5067117097095317	1.770122406313567	1.9104973174542799	-0.45584230583855173	-0.21199957600127198	2.537715508089904	-0.690065559342354	2.6621338286681104	0.48989794855663565	3.5050983275386574	-0.5566499393061832	-0.3662599370166148	-0.6396021490668313	-0.30678599553894814	-0.31716197120135853	-0.35675303400633795	-0.30678599553894814	-0.2626128657194451	-0.39405520311955033	-0.30678599553894814	-0.3067859955389482	-0.3373017270780278	2.6621338286681095	-0.37563851570163515	-0.7857425178439984	-0.4814437448655852	-0.2961744388795461	1.504379571363837	-0.27412498731513	-0.6229443807375882	-0.3373017270780278	-0.35675303400633795	2.537715508089904	-0.3373017270780278	2.8809720581775866	2.23606797749979	-0.4729526514634586	-0.2626128657194451	2.5980762113533165	-0.4120816918460671	-0.3373017270780278	-0.34710506725031165	-0.3662599370166148	-0.4983193229757468	2.0067453817131433	0.9893045053244826	-0.31716197120135853	-0.21199957600127198	-0.3171619712013585	-0.859254186495094
CHEMBL3109344	1.0	-0.4983193229757468	2.1937410968480306	-0.4983193229757468	-0.4209693455269847	1.4491376746189437	-0.31716197120135853	-0.429782940327066	-0.2507132682112035	-0.30678599553894814	-0.23836564731139806	4.195235392680606	-0.5234239225902136	2.3267559183223914	2.23606797749979	-0.5897678246195885	1.4855627054164149	-0.3662599370166148	-0.464420364012824	-0.37563851570163515	-0.4558423058385518	3.2596012026013246	-0.2741249873151301	-0.5483605572060236	-0.29617443887954614	-0.6900655593423541	-0.3373017270780278	-0.28529870107872785	-0.3662599370166147	2.8030595529069404	-0.5317505248607238	-0.21199957600127198	-0.4983193229757468	-0.4209693455269847	0.5067117097095317	2.5980762113533165	-0.37563851570163515	-0.6063390625908324	-0.34710506725031165	-0.4983193229757468	-1.4671545156803887	-0.429782940327066	-0.4120816918460671	-0.4120816918460671	-0.3171619712013585	-0.3662599370166148	1.3327112976879407	-0.4209693455269847	-0.3171619712013585	-0.39405520311955033	1.8516401995451028	-0.5317505248607238	4.716990566028301	-0.3567530340063379	-0.4729526514634586	1.672099987245661	-0.19775273765841178	2.964704653791087	-0.3567530340063379	-0.6479562703178932	-0.35675303400633795	-0.28529870107872796	-0.3662599370166148	-0.37563851570163515	1.3483997249264843	1.0	-0.3567530340063379	2.006745381713143	-0.4297829403270659	-0.48989794855663565	-0.3662599370166148	-0.34710506725031165	-0.3756385157016351	-0.3067859955389482	1.6052797503622467	-0.5483605572060236	1.9104973174542799	-0.23836564731139806	1.649242250247064	-0.19775273765841178	-0.43852900965351455	1.0217416718310184	0.27412498731513013	-0.27412498731513	-0.21199957600127192	-0.25071326821120343	-0.33730172707802786	-0.3849001794597506	-0.3756385157016351	-0.29617443887954614	-0.29617443887954614	1.348399724926484	-0.3171619712013585	-0.3373017270780278	-0.2626128657194451	-0.447213595499958	-0.3662599370166148	-0.43852900965351455	-0.35675303400633795	-0.429782940327066	-0.25071326821120343	0.16620562382863333	-0.3171619712013585	-0.3662599370166148	-0.21199957600127192	1.823617666987474	-0.5483605572060236	-0.4031128874149275	0.8128433340529315	-0.29617443887954614	-0.22549380840084868	-0.5317505248607238	-0.5234239225902136	-0.6312655864226274	-0.4983193229757468	-0.4031128874149275	-0.29617443887954614	-0.38490017945975047	-0.35675303400633795	-0.27412498731513	-0.447213595499958	-0.22549380840084868	-0.6146362971528592	0.7503500583621179	-0.34710506725031165	-0.447213595499958	0.8404891542123694	-0.3171619712013585	-0.3662599370166148	-1.3483997249264843	2.4806946917841692	2.006745381713143	-0.464420364012824	-0.25071326821120343	-0.4814437448655852	-0.3662599370166148	-0.23836564731139806	-0.7857425178439984	3.2596012026013246	-1.695582495781317	-0.34710506725031165	-0.5150787536377128	-0.3662599370166148	-0.4120816918460671	-0.29617443887954614	-0.8219949365267863	-0.3171619712013585	3.055050463303893	-0.8687444855261387	-0.22549380840084868	-0.4983193229757468	-0.3756385157016351	-0.5317505248607238	-0.27412498731513013	-0.21199957600127192	-0.43852900965351455	-0.4297829403270659	3.376388603226826	-0.31716197120135853	0.6985699678629191	-0.39405520311955033	-0.4814437448655851	-0.5400617248673216	-0.7071067811865475	-0.5980503604017327	2.4806946917841692	-0.39405520311955033	-0.4031128874149274	0.8687444855261387	2.537715508089904	-0.28529870107872785	-0.1825741858350553	-0.3171619712013585	1.3806701271484076	-0.30678599553894814	-0.32732683535398854	-0.7416198487095663	-0.27412498731513	1.5841193017775368	2.23606797749979	1.5043795713638373	-0.32732683535398854	-0.34710506725031165	-0.5067117097095317	1.5841193017775368	-0.447213595499958	-0.3373017270780278	-0.7857425178439984	2.6621338286681095	2.537715508089904	-0.39405520311955033	-0.34710506725031165	-0.5483605572060236	-0.447213595499958	1.823617666987474	-0.2852987010787279	-0.30678599553894814	-0.4814437448655852	-0.39405520311955033	-0.39405520311955033	-0.48989794855663565	-0.7503500583621179	-0.3662599370166147	-0.673145600891813	2.006745381713143	-0.3171619712013585	-0.4120816918460671	-0.5067117097095317	-0.564932682866032	-0.5234239225902136	2.19374109684803	-0.21199957600127198	-0.39405520311955033	1.4491376746189437	-0.37563851570163515	0.48989794855663565	-0.28529870107872796	-0.5566499393061832	-0.3662599370166148	-0.6396021490668313	-0.30678599553894814	-0.31716197120135853	2.8030595529069404	-0.30678599553894814	-0.2626128657194451	-0.39405520311955033	-0.30678599553894814	-0.3067859955389482	-0.3373017270780278	-0.3756385157016351	-0.37563851570163515	1.272681542986758	-0.4814437448655852	-0.2961744388795461	-0.6647258571142535	-0.27412498731513	-0.6229443807375882	-0.3373017270780278	2.8030595529069404	-0.39405520311955033	2.964704653791087	-0.34710506725031165	-0.447213595499958	-0.4729526514634586	-0.2626128657194451	-0.3849001794597506	-0.4120816918460671	2.9647046537910864	-0.34710506725031165	-0.3662599370166148	-0.4983193229757468	-0.4983193229757469	0.9893045053244826	-0.31716197120135853	4.716990566028302	-0.3171619712013585	1.1637999741136082
CHEMBL4547269	1.0	2.006745381713143	-0.4558423058385518	-0.4983193229757468	-0.4209693455269847	1.4491376746189437	-0.31716197120135853	-0.429782940327066	-0.2507132682112035	-0.30678599553894814	-0.23836564731139806	4.195235392680606	1.9104973174542803	-0.429782940327066	2.23606797749979	1.695582495781317	-0.673145600891813	-0.3662599370166148	2.15322168769582	-0.37563851570163515	2.1937410968480306	-0.30678599553894814	3.6479709850398083	-0.5483605572060236	-0.29617443887954614	-0.6900655593423541	-0.3373017270780278	-0.28529870107872785	-0.3662599370166147	-0.35675303400633795	-0.5317505248607238	-0.21199957600127198	-0.4983193229757468	-0.4209693455269847	0.5067117097095317	-0.3849001794597506	-0.37563851570163515	-0.6063390625908324	-0.34710506725031165	-0.4983193229757468	0.6815914679145112	2.3267559183223914	-0.4120816918460671	-0.4120816918460671	-0.3171619712013585	-0.3662599370166148	-0.7503500583621179	-0.4209693455269847	-0.3171619712013585	-0.39405520311955033	-0.5400617248673216	-0.5317505248607238	-0.21199957600127192	-0.3567530340063379	-0.4729526514634586	1.672099987245661	-0.19775273765841178	-0.3373017270780278	-0.3567530340063379	-0.6479562703178932	-0.35675303400633795	-0.28529870107872796	-0.3662599370166148	-0.37563851570163515	1.3483997249264843	-1.0	-0.3567530340063379	2.006745381713143	-0.4297829403270659	-0.48989794855663565	-0.3662599370166148	-0.34710506725031165	-0.3756385157016351	-0.3067859955389482	1.6052797503622467	1.823617666987474	-0.5234239225902136	-0.23836564731139806	-0.6063390625908324	-0.19775273765841178	-0.43852900965351455	1.0217416718310184	0.27412498731513013	-0.27412498731513	-0.21199957600127192	-0.25071326821120343	-0.33730172707802786	-0.3849001794597506	2.6621338286681095	-0.29617443887954614	-0.29617443887954614	-0.7416198487095663	-0.3171619712013585	-0.3373017270780278	-0.2626128657194451	2.23606797749979	-0.3662599370166148	-0.43852900965351455	-0.35675303400633795	-0.429782940327066	-0.25071326821120343	0.16620562382863333	-0.3171619712013585	-0.3662599370166148	-0.21199957600127192	-0.5483605572060236	-0.5483605572060236	-0.4031128874149275	0.8128433340529315	-0.29617443887954614	-0.22549380840084868	-0.5317505248607238	-0.5234239225902136	-0.6312655864226274	-0.4983193229757468	-0.4031128874149275	-0.29617443887954614	-0.38490017945975047	-0.35675303400633795	-0.27412498731513	-0.447213595499958	-0.22549380840084868	1.6269784336399213	0.7503500583621179	-0.34710506725031165	-0.447213595499958	0.8404891542123694	3.1529631254723283	-0.3662599370166148	-1.3483997249264843	-0.4031128874149275	-0.4983193229757468	-0.464420364012824	-0.25071326821120343	-0.4814437448655852	-0.3662599370166148	-0.23836564731139806	-0.7857425178439984	-0.30678599553894814	0.5897678246195885	-0.34710506725031165	-0.5150787536377128	-0.3662599370166148	-0.4120816918460671	-0.29617443887954614	-0.8219949365267863	-0.3171619712013585	-0.32732683535398854	-0.8687444855261387	-0.22549380840084868	-0.4983193229757468	-0.3756385157016351	-0.5317505248607238	-0.27412498731513013	-0.21199957600127192	-0.43852900965351455	2.326755918322391	-0.29617443887954614	-0.31716197120135853	0.6985699678629191	-0.39405520311955033	-0.4814437448655851	-0.5400617248673216	-0.7071067811865475	-0.5980503604017327	-0.4031128874149275	-0.39405520311955033	-0.4031128874149274	0.8687444855261387	-0.39405520311955033	-0.28529870107872785	5.477225575051659	-0.3171619712013585	1.3806701271484076	-0.30678599553894814	-0.32732683535398854	-0.7416198487095663	-0.27412498731513	-0.6312655864226274	2.23606797749979	-0.6647258571142536	-0.32732683535398854	-0.34710506725031165	-0.5067117097095317	1.5841193017775368	-0.447213595499958	-0.3373017270780278	-0.7857425178439984	-0.3756385157016351	-0.39405520311955033	-0.39405520311955033	-0.34710506725031165	-0.5483605572060236	-0.447213595499958	-0.5483605572060236	-0.2852987010787279	-0.30678599553894814	-0.4814437448655852	-0.39405520311955033	-0.39405520311955033	-0.48989794855663565	1.3327112976879407	-0.3662599370166147	1.4855627054164149	-0.4983193229757468	-0.3171619712013585	-0.4120816918460671	1.9735087641318605	1.770122406313567	1.9104973174542799	-0.45584230583855173	-0.21199957600127198	-0.39405520311955033	1.4491376746189437	-0.37563851570163515	0.48989794855663565	-0.28529870107872796	-0.5566499393061832	2.73030134866931	1.5634719199411433	-0.30678599553894814	-0.31716197120135853	2.8030595529069404	-0.30678599553894814	-0.2626128657194451	2.537715508089904	-0.30678599553894814	-0.3067859955389482	2.964704653791087	-0.3756385157016351	-0.37563851570163515	-0.7857425178439984	-0.4814437448655852	-0.2961744388795461	1.504379571363837	-0.27412498731513	-0.6229443807375882	-0.3373017270780278	-0.35675303400633795	-0.39405520311955033	-0.3373017270780278	-0.34710506725031165	-0.447213595499958	-0.4729526514634586	-0.2626128657194451	-0.3849001794597506	-0.4120816918460671	-0.3373017270780278	-0.34710506725031165	-0.3662599370166148	2.006745381713143	2.0067453817131433	0.9893045053244826	-0.31716197120135853	-0.21199957600127198	-0.3171619712013585	1.1637999741136082
CHEMBL3085970	1.0	-0.4983193229757468	-0.4558423058385518	2.006745381713143	-0.4209693455269847	-0.690065559342354	3.1529631254723283	-0.429782940327066	-0.2507132682112035	-0.30678599553894814	-0.23836564731139806	-0.23836564731139806	1.9104973174542803	-0.429782940327066	-0.447213595499958	1.695582495781317	-0.673145600891813	-0.3662599370166148	-0.464420364012824	-0.37563851570163515	2.1937410968480306	3.2596012026013246	-0.2741249873151301	1.823617666987474	-0.29617443887954614	1.449137674618944	-0.3373017270780278	-0.28529870107872785	-0.3662599370166147	-0.35675303400633795	-0.5317505248607238	4.716990566028302	-0.4983193229757468	-0.4209693455269847	0.5067117097095317	-0.3849001794597506	-0.37563851570163515	1.6492422502470643	-0.34710506725031165	-0.4983193229757468	0.6815914679145112	2.3267559183223914	-0.4120816918460671	-0.4120816918460671	-0.3171619712013585	-0.3662599370166148	-0.7503500583621179	-0.4209693455269847	-0.3171619712013585	-0.39405520311955033	-0.5400617248673216	-0.5317505248607238	-0.21199957600127192	-0.3567530340063379	-0.4729526514634586	-0.5980503604017327	-0.19775273765841178	-0.3373017270780278	2.8030595529069404	1.5433140256662548	-0.35675303400633795	-0.28529870107872796	2.73030134866931	-0.37563851570163515	-0.7416198487095663	1.0	-0.3567530340063379	-0.4983193229757468	-0.4297829403270659	-0.48989794855663565	-0.3662599370166148	-0.34710506725031165	-0.3756385157016351	-0.3067859955389482	-0.6229443807375882	-0.5483605572060236	-0.5234239225902136	-0.23836564731139806	-0.6063390625908324	-0.19775273765841178	-0.43852900965351455	1.0217416718310184	0.27412498731513013	-0.27412498731513	-0.21199957600127192	-0.25071326821120343	-0.33730172707802786	-0.3849001794597506	-0.3756385157016351	-0.29617443887954614	-0.29617443887954614	1.348399724926484	-0.3171619712013585	-0.3373017270780278	-0.2626128657194451	-0.447213595499958	-0.3662599370166148	2.2803508501982757	-0.35675303400633795	-0.429782940327066	3.988620176087328	0.16620562382863333	-0.3171619712013585	-0.3662599370166148	-0.21199957600127192	1.823617666987474	-0.5483605572060236	-0.4031128874149275	0.8128433340529315	-0.29617443887954614	-0.22549380840084868	-0.5317505248607238	-0.5234239225902136	1.5841193017775368	-0.4983193229757468	2.4806946917841692	-0.29617443887954614	-0.38490017945975047	-0.35675303400633795	-0.27412498731513	-0.447213595499958	-0.22549380840084868	-0.6146362971528592	0.7503500583621179	-0.34710506725031165	-0.447213595499958	0.8404891542123694	-0.3171619712013585	-0.3662599370166148	0.7416198487095663	2.4806946917841692	2.006745381713143	-0.464420364012824	-0.25071326821120343	-0.4814437448655852	2.73030134866931	-0.23836564731139806	1.272681542986758	3.2596012026013246	0.5897678246195885	-0.34710506725031165	-0.5150787536377128	-0.3662599370166148	-0.4120816918460671	-0.29617443887954614	1.2165525060596438	-0.3171619712013585	-0.32732683535398854	-0.8687444855261387	-0.22549380840084868	-0.4983193229757468	-0.3756385157016351	-0.5317505248607238	-0.27412498731513013	-0.21199957600127192	-0.43852900965351455	-0.4297829403270659	-0.29617443887954614	-0.31716197120135853	0.6985699678629191	-0.39405520311955033	-0.4814437448655851	1.8516401995451028	1.4142135623730951	-0.5980503604017327	-0.4031128874149275	-0.39405520311955033	-0.4031128874149274	0.8687444855261387	-0.39405520311955033	-0.28529870107872785	-0.1825741858350553	-0.3171619712013585	1.3806701271484076	-0.30678599553894814	3.055050463303893	-0.7416198487095663	-0.27412498731513	-0.6312655864226274	-0.447213595499958	1.5043795713638373	-0.32732683535398854	-0.34710506725031165	1.9735087641318605	-0.6312655864226274	-0.447213595499958	-0.3373017270780278	-0.7857425178439984	2.6621338286681095	-0.39405520311955033	-0.39405520311955033	-0.34710506725031165	-0.5483605572060236	-0.447213595499958	-0.5483605572060236	-0.2852987010787279	-0.30678599553894814	-0.4814437448655852	-0.39405520311955033	-0.39405520311955033	-0.48989794855663565	1.3327112976879407	-0.3662599370166147	1.4855627054164149	-0.4983193229757468	-0.3171619712013585	-0.4120816918460671	-0.5067117097095317	1.770122406313567	1.9104973174542799	2.19374109684803	-0.21199957600127198	-0.39405520311955033	-0.690065559342354	-0.37563851570163515	0.48989794855663565	3.5050983275386574	-0.5566499393061832	-0.3662599370166148	-0.6396021490668313	3.2596012026013246	-0.31716197120135853	2.8030595529069404	-0.30678599553894814	-0.2626128657194451	-0.39405520311955033	-0.30678599553894814	-0.3067859955389482	2.964704653791087	-0.3756385157016351	-0.37563851570163515	1.272681542986758	-0.4814437448655852	-0.2961744388795461	-0.6647258571142535	-0.27412498731513	-0.6229443807375882	-0.3373017270780278	-0.35675303400633795	-0.39405520311955033	-0.3373017270780278	-0.34710506725031165	-0.447213595499958	-0.4729526514634586	-0.2626128657194451	-0.3849001794597506	2.42670329642684	-0.3373017270780278	-0.34710506725031165	-0.3662599370166148	-0.4983193229757468	2.0067453817131433	-1.0108111250054497	-0.31716197120135853	-0.21199957600127198	-0.3171619712013585	1.1637999741136082
CHEMBL3969260	1.0	-0.4983193229757468	-0.4558423058385518	-0.4983193229757468	-0.4209693455269847	-0.690065559342354	-0.31716197120135853	-0.429782940327066	-0.2507132682112035	-0.30678599553894814	-0.23836564731139806	-0.23836564731139806	-0.5234239225902136	-0.429782940327066	-0.447213595499958	-0.5897678246195885	-0.673145600891813	-0.3662599370166148	-0.464420364012824	2.6621338286681104	2.1937410968480306	-0.30678599553894814	-0.2741249873151301	-0.5483605572060236	3.376388603226826	1.449137674618944	-0.3373017270780278	3.505098327538656	-0.3662599370166147	-0.35675303400633795	-0.5317505248607238	-0.21199957600127198	2.006745381713143	-0.4209693455269847	0.5067117097095317	-0.3849001794597506	-0.37563851570163515	1.6492422502470643	-0.34710506725031165	-0.4983193229757468	0.6815914679145112	2.3267559183223914	-0.4120816918460671	-0.4120816918460671	-0.3171619712013585	-0.3662599370166148	-0.7503500583621179	2.3754698783308417	-0.3171619712013585	2.537715508089904	1.8516401995451028	-0.5317505248607238	-0.21199957600127192	-0.3567530340063379	-0.4729526514634586	-0.5980503604017327	-0.19775273765841178	-0.3373017270780278	2.8030595529069404	-0.6479562703178932	-0.35675303400633795	-0.28529870107872796	-0.3662599370166148	-0.37563851570163515	-0.7416198487095663	-1.0	-0.3567530340063379	-0.4983193229757468	-0.4297829403270659	2.041241452319315	-0.3662599370166148	-0.34710506725031165	-0.3756385157016351	-0.3067859955389482	-0.6229443807375882	1.823617666987474	1.9104973174542799	-0.23836564731139806	1.649242250247064	-0.19775273765841178	2.2803508501982757	-0.978720969859186	0.27412498731513013	-0.27412498731513	-0.21199957600127192	-0.25071326821120343	-0.33730172707802786	-0.3849001794597506	-0.3756385157016351	-0.29617443887954614	-0.29617443887954614	-0.7416198487095663	-0.3171619712013585	-0.3373017270780278	-0.2626128657194451	-0.447213595499958	2.73030134866931	-0.43852900965351455	-0.35675303400633795	-0.429782940327066	-0.25071326821120343	0.16620562382863333	-0.3171619712013585	-0.3662599370166148	-0.21199957600127192	-0.5483605572060236	-0.5483605572060236	-0.4031128874149275	-1.2302493704584911	-0.29617443887954614	-0.22549380840084868	-0.5317505248607238	1.9104973174542803	-0.6312655864226274	-0.4983193229757468	-0.4031128874149275	-0.29617443887954614	-0.38490017945975047	-0.35675303400633795	-0.27412498731513	-0.447213595499958	4.43471156521669	-0.6146362971528592	0.7503500583621179	2.8809720581775866	-0.447213595499958	0.8404891542123694	-0.3171619712013585	-0.3662599370166148	0.7416198487095663	-0.4031128874149275	2.006745381713143	2.15322168769582	-0.25071326821120343	-0.4814437448655852	-0.3662599370166148	-0.23836564731139806	-0.7857425178439984	-0.30678599553894814	0.5897678246195885	-0.34710506725031165	-0.5150787536377128	-0.3662599370166148	-0.4120816918460671	-0.29617443887954614	-0.8219949365267863	-0.3171619712013585	-0.32732683535398854	1.1510864433221337	-0.22549380840084868	2.006745381713143	-0.3756385157016351	-0.5317505248607238	-0.27412498731513013	4.716990566028301	-0.43852900965351455	2.326755918322391	-0.29617443887954614	3.1529631254723283	-1.4314958357846705	-0.39405520311955033	2.0770858707058104	-0.5400617248673216	-0.7071067811865475	1.6720999872456608	-0.4031128874149275	-0.39405520311955033	-0.4031128874149274	-1.1510864433221337	-0.39405520311955033	-0.28529870107872785	-0.1825741858350553	-0.3171619712013585	1.3806701271484076	-0.30678599553894814	-0.32732683535398854	-0.7416198487095663	-0.27412498731513	1.5841193017775368	-0.447213595499958	1.5043795713638373	-0.32732683535398854	-0.34710506725031165	-0.5067117097095317	-0.6312655864226274	-0.447213595499958	-0.3373017270780278	1.272681542986758	-0.3756385157016351	2.537715508089904	-0.39405520311955033	-0.34710506725031165	1.823617666987474	-0.447213595499958	-0.5483605572060236	-0.2852987010787279	-0.30678599553894814	2.077085870705811	2.537715508089904	-0.39405520311955033	2.041241452319315	-0.7503500583621179	-0.3662599370166147	-0.673145600891813	-0.4983193229757468	-0.3171619712013585	2.42670329642684	-0.5067117097095317	-0.564932682866032	-0.5234239225902136	-0.45584230583855173	-0.21199957600127198	-0.39405520311955033	-0.690065559342354	-0.37563851570163515	0.48989794855663565	-0.28529870107872796	1.796461167760864	-0.3662599370166148	-0.6396021490668313	-0.30678599553894814	-0.31716197120135853	-0.35675303400633795	-0.30678599553894814	-0.2626128657194451	-0.39405520311955033	-0.30678599553894814	-0.3067859955389482	-0.3373017270780278	-0.3756385157016351	-0.37563851570163515	1.272681542986758	-0.4814437448655852	-0.2961744388795461	1.504379571363837	-0.27412498731513	1.6052797503622467	-0.3373017270780278	-0.35675303400633795	-0.39405520311955033	-0.3373017270780278	-0.34710506725031165	-0.447213595499958	-0.4729526514634586	-0.2626128657194451	2.5980762113533165	-0.4120816918460671	-0.3373017270780278	-0.34710506725031165	-0.3662599370166148	-0.4983193229757468	-0.4983193229757469	-1.0108111250054497	3.1529631254723283	-0.21199957600127198	-0.3171619712013585	-0.859254186495094
CHEMBL3115681	1.0	-0.4983193229757468	-0.4558423058385518	2.006745381713143	-0.4209693455269847	1.4491376746189437	-0.31716197120135853	-0.429782940327066	-0.2507132682112035	-0.30678599553894814	-0.23836564731139806	-0.23836564731139806	-0.5234239225902136	-0.429782940327066	-0.447213595499958	1.695582495781317	-0.673145600891813	2.73030134866931	-0.464420364012824	-0.37563851570163515	-0.4558423058385518	-0.30678599553894814	-0.2741249873151301	1.823617666987474	-0.29617443887954614	-0.6900655593423541	-0.3373017270780278	-0.28529870107872785	-0.3662599370166147	-0.35675303400633795	-0.5317505248607238	-0.21199957600127198	-0.4983193229757468	2.3754698783308417	0.5067117097095317	-0.3849001794597506	-0.37563851570163515	-0.6063390625908324	-0.34710506725031165	-0.4983193229757468	-1.4671545156803887	-0.429782940327066	-0.4120816918460671	-0.4120816918460671	-0.3171619712013585	-0.3662599370166148	1.3327112976879407	2.3754698783308417	-0.3171619712013585	-0.39405520311955033	-0.5400617248673216	1.8805811245074378	-0.21199957600127192	-0.3567530340063379	-0.4729526514634586	-0.5980503604017327	-0.19775273765841178	-0.3373017270780278	-0.3567530340063379	1.5433140256662548	-0.35675303400633795	-0.28529870107872796	-0.3662599370166148	-0.37563851570163515	1.3483997249264843	-1.0	-0.3567530340063379	-0.4983193229757468	-0.4297829403270659	-0.48989794855663565	-0.3662599370166148	2.8809720581775866	-0.3756385157016351	-0.3067859955389482	-0.6229443807375882	-0.5483605572060236	1.9104973174542799	-0.23836564731139806	-0.6063390625908324	-0.19775273765841178	-0.43852900965351455	-0.978720969859186	0.27412498731513013	-0.27412498731513	-0.21199957600127192	-0.25071326821120343	-0.33730172707802786	-0.3849001794597506	-0.3756385157016351	-0.29617443887954614	-0.29617443887954614	-0.7416198487095663	-0.3171619712013585	-0.3373017270780278	-0.2626128657194451	-0.447213595499958	-0.3662599370166148	-0.43852900965351455	-0.35675303400633795	-0.429782940327066	-0.25071326821120343	0.16620562382863333	-0.3171619712013585	-0.3662599370166148	-0.21199957600127192	1.823617666987474	1.823617666987474	-0.4031128874149275	0.8128433340529315	-0.29617443887954614	-0.22549380840084868	-0.5317505248607238	-0.5234239225902136	1.5841193017775368	-0.4983193229757468	-0.4031128874149275	-0.29617443887954614	-0.38490017945975047	-0.35675303400633795	3.647970985039808	-0.447213595499958	-0.22549380840084868	1.6269784336399213	0.7503500583621179	-0.34710506725031165	-0.447213595499958	0.8404891542123694	-0.3171619712013585	-0.3662599370166148	0.7416198487095663	-0.4031128874149275	-0.4983193229757468	-0.464420364012824	-0.25071326821120343	-0.4814437448655852	-0.3662599370166148	-0.23836564731139806	-0.7857425178439984	-0.30678599553894814	0.5897678246195885	-0.34710506725031165	-0.5150787536377128	-0.3662599370166148	2.42670329642684	-0.29617443887954614	-0.8219949365267863	-0.3171619712013585	-0.32732683535398854	-0.8687444855261387	-0.22549380840084868	-0.4983193229757468	-0.3756385157016351	1.8805811245074378	3.6479709850398088	-0.21199957600127192	-0.43852900965351455	-0.4297829403270659	-0.29617443887954614	-0.31716197120135853	0.6985699678629191	-0.39405520311955033	2.0770858707058104	-0.5400617248673216	1.4142135623730951	-0.5980503604017327	-0.4031128874149275	-0.39405520311955033	-0.4031128874149274	0.8687444855261387	-0.39405520311955033	-0.28529870107872785	-0.1825741858350553	-0.3171619712013585	1.3806701271484076	-0.30678599553894814	-0.32732683535398854	1.3483997249264843	-0.27412498731513	-0.6312655864226274	-0.447213595499958	-0.6647258571142536	-0.32732683535398854	-0.34710506725031165	-0.5067117097095317	-0.6312655864226274	-0.447213595499958	-0.3373017270780278	-0.7857425178439984	-0.3756385157016351	-0.39405520311955033	-0.39405520311955033	-0.34710506725031165	1.823617666987474	-0.447213595499958	-0.5483605572060236	-0.2852987010787279	-0.30678599553894814	-0.4814437448655852	-0.39405520311955033	-0.39405520311955033	-0.48989794855663565	1.3327112976879407	2.7303013486693097	1.4855627054164149	-0.4983193229757468	-0.3171619712013585	-0.4120816918460671	1.9735087641318605	1.770122406313567	-0.5234239225902136	-0.45584230583855173	-0.21199957600127198	-0.39405520311955033	1.4491376746189437	-0.37563851570163515	0.48989794855663565	-0.28529870107872796	-0.5566499393061832	-0.3662599370166148	-0.6396021490668313	-0.30678599553894814	-0.31716197120135853	-0.35675303400633795	-0.30678599553894814	-0.2626128657194451	-0.39405520311955033	-0.30678599553894814	-0.3067859955389482	-0.3373017270780278	2.6621338286681095	-0.37563851570163515	-0.7857425178439984	-0.4814437448655852	-0.2961744388795461	1.504379571363837	-0.27412498731513	1.6052797503622467	-0.3373017270780278	-0.35675303400633795	-0.39405520311955033	2.964704653791087	-0.34710506725031165	-0.447213595499958	-0.4729526514634586	-0.2626128657194451	2.5980762113533165	-0.4120816918460671	-0.3373017270780278	-0.34710506725031165	2.73030134866931	-0.4983193229757468	-0.4983193229757469	0.9893045053244826	-0.31716197120135853	-0.21199957600127198	3.1529631254723283	1.1637999741136082
CHEMBL273198	1.0	-0.4983193229757468	-0.4558423058385518	-0.4983193229757468	-0.4209693455269847	-0.690065559342354	-0.31716197120135853	-0.429782940327066	3.9886201760873283	-0.30678599553894814	-0.23836564731139806	-0.23836564731139806	-0.5234239225902136	-0.429782940327066	-0.447213595499958	-0.5897678246195885	-0.673145600891813	-0.3662599370166148	-0.464420364012824	-0.37563851570163515	2.1937410968480306	-0.30678599553894814	-0.2741249873151301	1.823617666987474	-0.29617443887954614	-0.6900655593423541	-0.3373017270780278	-0.28529870107872785	-0.3662599370166147	-0.35675303400633795	-0.5317505248607238	-0.21199957600127198	-0.4983193229757468	-0.4209693455269847	0.5067117097095317	2.5980762113533165	-0.37563851570163515	-0.6063390625908324	-0.34710506725031165	2.006745381713143	-1.4671545156803887	-0.429782940327066	-0.4120816918460671	-0.4120816918460671	-0.3171619712013585	2.73030134866931	-0.7503500583621179	-0.4209693455269847	-0.3171619712013585	-0.39405520311955033	1.8516401995451028	-0.5317505248607238	-0.21199957600127192	-0.3567530340063379	-0.4729526514634586	1.672099987245661	-0.19775273765841178	-0.3373017270780278	-0.3567530340063379	1.5433140256662548	-0.35675303400633795	-0.28529870107872796	-0.3662599370166148	2.6621338286681104	-0.7416198487095663	-1.0	-0.3567530340063379	-0.4983193229757468	-0.4297829403270659	-0.48989794855663565	-0.3662599370166148	2.8809720581775866	-0.3756385157016351	-0.3067859955389482	-0.6229443807375882	-0.5483605572060236	-0.5234239225902136	-0.23836564731139806	1.649242250247064	-0.19775273765841178	-0.43852900965351455	1.0217416718310184	0.27412498731513013	-0.27412498731513	-0.21199957600127192	-0.25071326821120343	-0.33730172707802786	2.5980762113533165	-0.3756385157016351	-0.29617443887954614	-0.29617443887954614	1.348399724926484	-0.3171619712013585	-0.3373017270780278	-0.2626128657194451	-0.447213595499958	-0.3662599370166148	-0.43852900965351455	-0.35675303400633795	-0.429782940327066	-0.25071326821120343	0.16620562382863333	-0.3171619712013585	2.73030134866931	-0.21199957600127192	1.823617666987474	1.823617666987474	-0.4031128874149275	0.8128433340529315	3.376388603226826	-0.22549380840084868	-0.5317505248607238	-0.5234239225902136	1.5841193017775368	-0.4983193229757468	-0.4031128874149275	-0.29617443887954614	-0.38490017945975047	-0.35675303400633795	-0.27412498731513	2.23606797749979	-0.22549380840084868	-0.6146362971528592	0.7503500583621179	-0.34710506725031165	-0.447213595499958	-1.1897833481707565	-0.3171619712013585	-0.3662599370166148	0.7416198487095663	-0.4031128874149275	-0.4983193229757468	-0.464420364012824	-0.25071326821120343	-0.4814437448655852	-0.3662599370166148	-0.23836564731139806	1.272681542986758	-0.30678599553894814	0.5897678246195885	-0.34710506725031165	-0.5150787536377128	-0.3662599370166148	2.42670329642684	-0.29617443887954614	-0.8219949365267863	3.1529631254723283	-0.32732683535398854	1.1510864433221337	-0.22549380840084868	-0.4983193229757468	-0.3756385157016351	-0.5317505248607238	-0.27412498731513013	-0.21199957600127192	-0.43852900965351455	-0.4297829403270659	-0.29617443887954614	-0.31716197120135853	-1.4314958357846705	-0.39405520311955033	-0.4814437448655851	-0.5400617248673216	1.4142135623730951	-0.5980503604017327	-0.4031128874149275	-0.39405520311955033	-0.4031128874149274	-1.1510864433221337	-0.39405520311955033	-0.28529870107872785	-0.1825741858350553	-0.3171619712013585	1.3806701271484076	-0.30678599553894814	-0.32732683535398854	-0.7416198487095663	-0.27412498731513	-0.6312655864226274	-0.447213595499958	-0.6647258571142536	-0.32732683535398854	-0.34710506725031165	-0.5067117097095317	1.5841193017775368	2.23606797749979	-0.3373017270780278	1.272681542986758	-0.3756385157016351	-0.39405520311955033	-0.39405520311955033	-0.34710506725031165	-0.5483605572060236	-0.447213595499958	-0.5483605572060236	-0.2852987010787279	-0.30678599553894814	-0.4814437448655852	-0.39405520311955033	-0.39405520311955033	-0.48989794855663565	-0.7503500583621179	-0.3662599370166147	-0.673145600891813	2.006745381713143	-0.3171619712013585	-0.4120816918460671	-0.5067117097095317	1.770122406313567	-0.5234239225902136	2.19374109684803	-0.21199957600127198	2.537715508089904	-0.690065559342354	-0.37563851570163515	0.48989794855663565	-0.28529870107872796	-0.5566499393061832	-0.3662599370166148	1.5634719199411433	-0.30678599553894814	-0.31716197120135853	-0.35675303400633795	-0.30678599553894814	-0.2626128657194451	-0.39405520311955033	-0.30678599553894814	-0.3067859955389482	-0.3373017270780278	-0.3756385157016351	-0.37563851570163515	-0.7857425178439984	-0.4814437448655852	-0.2961744388795461	-0.6647258571142535	-0.27412498731513	-0.6229443807375882	-0.3373017270780278	-0.35675303400633795	2.537715508089904	-0.3373017270780278	-0.34710506725031165	2.23606797749979	-0.4729526514634586	-0.2626128657194451	-0.3849001794597506	-0.4120816918460671	-0.3373017270780278	-0.34710506725031165	-0.3662599370166148	-0.4983193229757468	-0.4983193229757469	-1.0108111250054497	-0.31716197120135853	-0.21199957600127198	-0.3171619712013585	1.1637999741136082
CHEMBL4742978	1.0	-0.4983193229757468	-0.4558423058385518	2.006745381713143	-0.4209693455269847	1.4491376746189437	-0.31716197120135853	2.3267559183223914	-0.2507132682112035	-0.30678599553894814	-0.23836564731139806	-0.23836564731139806	-0.5234239225902136	-0.429782940327066	-0.447213595499958	-0.5897678246195885	-0.673145600891813	-0.3662599370166148	-0.464420364012824	-0.37563851570163515	2.1937410968480306	-0.30678599553894814	-0.2741249873151301	-0.5483605572060236	-0.29617443887954614	-0.6900655593423541	-0.3373017270780278	-0.28529870107872785	-0.3662599370166147	-0.35675303400633795	-0.5317505248607238	-0.21199957600127198	-0.4983193229757468	-0.4209693455269847	-1.9735087641318605	-0.3849001794597506	-0.37563851570163515	-0.6063390625908324	-0.34710506725031165	-0.4983193229757468	-1.4671545156803887	2.3267559183223914	-0.4120816918460671	-0.4120816918460671	-0.3171619712013585	-0.3662599370166148	1.3327112976879407	-0.4209693455269847	-0.3171619712013585	-0.39405520311955033	-0.5400617248673216	1.8805811245074378	-0.21199957600127192	-0.3567530340063379	2.114376559483697	1.672099987245661	-0.19775273765841178	-0.3373017270780278	-0.3567530340063379	-0.6479562703178932	-0.35675303400633795	-0.28529870107872796	-0.3662599370166148	-0.37563851570163515	1.3483997249264843	1.0	-0.3567530340063379	-0.4983193229757468	2.326755918322391	-0.48989794855663565	-0.3662599370166148	-0.34710506725031165	-0.3756385157016351	-0.3067859955389482	1.6052797503622467	1.823617666987474	-0.5234239225902136	-0.23836564731139806	-0.6063390625908324	-0.19775273765841178	-0.43852900965351455	1.0217416718310184	0.27412498731513013	-0.27412498731513	-0.21199957600127192	-0.25071326821120343	-0.33730172707802786	-0.3849001794597506	2.6621338286681095	-0.29617443887954614	-0.29617443887954614	-0.7416198487095663	-0.3171619712013585	-0.3373017270780278	-0.2626128657194451	-0.447213595499958	-0.3662599370166148	-0.43852900965351455	-0.35675303400633795	2.3267559183223914	-0.25071326821120343	0.16620562382863333	-0.3171619712013585	-0.3662599370166148	-0.21199957600127192	-0.5483605572060236	-0.5483605572060236	-0.4031128874149275	0.8128433340529315	-0.29617443887954614	-0.22549380840084868	-0.5317505248607238	-0.5234239225902136	-0.6312655864226274	-0.4983193229757468	-0.4031128874149275	-0.29617443887954614	-0.38490017945975047	2.803059552906941	-0.27412498731513	2.23606797749979	-0.22549380840084868	-0.6146362971528592	0.7503500583621179	-0.34710506725031165	-0.447213595499958	-1.1897833481707565	-0.3171619712013585	-0.3662599370166148	0.7416198487095663	2.4806946917841692	-0.4983193229757468	-0.464420364012824	-0.25071326821120343	2.077085870705811	-0.3662599370166148	-0.23836564731139806	1.272681542986758	-0.30678599553894814	-1.695582495781317	-0.34710506725031165	-0.5150787536377128	-0.3662599370166148	-0.4120816918460671	-0.29617443887954614	-0.8219949365267863	-0.3171619712013585	-0.32732683535398854	-0.8687444855261387	-0.22549380840084868	-0.4983193229757468	-0.3756385157016351	-0.5317505248607238	-0.27412498731513013	-0.21199957600127192	-0.43852900965351455	-0.4297829403270659	3.376388603226826	-0.31716197120135853	0.6985699678629191	-0.39405520311955033	-0.4814437448655851	-0.5400617248673216	1.4142135623730951	1.6720999872456608	-0.4031128874149275	-0.39405520311955033	-0.4031128874149274	-1.1510864433221337	-0.39405520311955033	-0.28529870107872785	-0.1825741858350553	-0.3171619712013585	1.3806701271484076	-0.30678599553894814	-0.32732683535398854	-0.7416198487095663	-0.27412498731513	-0.6312655864226274	-0.447213595499958	-0.6647258571142536	-0.32732683535398854	2.8809720581775866	-0.5067117097095317	-0.6312655864226274	-0.447213595499958	-0.3373017270780278	-0.7857425178439984	-0.3756385157016351	-0.39405520311955033	-0.39405520311955033	-0.34710506725031165	1.823617666987474	-0.447213595499958	1.823617666987474	-0.2852987010787279	-0.30678599553894814	-0.4814437448655852	-0.39405520311955033	-0.39405520311955033	-0.48989794855663565	-0.7503500583621179	2.7303013486693097	-0.673145600891813	-0.4983193229757468	3.1529631254723283	-0.4120816918460671	-0.5067117097095317	-0.564932682866032	-0.5234239225902136	-0.45584230583855173	-0.21199957600127198	-0.39405520311955033	1.4491376746189437	-0.37563851570163515	0.48989794855663565	-0.28529870107872796	-0.5566499393061832	-0.3662599370166148	1.5634719199411433	-0.30678599553894814	-0.31716197120135853	-0.35675303400633795	-0.30678599553894814	-0.2626128657194451	-0.39405520311955033	-0.30678599553894814	-0.3067859955389482	-0.3373017270780278	-0.3756385157016351	-0.37563851570163515	-0.7857425178439984	-0.4814437448655852	-0.2961744388795461	-0.6647258571142535	-0.27412498731513	-0.6229443807375882	-0.3373017270780278	-0.35675303400633795	-0.39405520311955033	-0.3373017270780278	-0.34710506725031165	-0.447213595499958	-0.4729526514634586	3.807886552931954	-0.3849001794597506	2.42670329642684	-0.3373017270780278	-0.34710506725031165	-0.3662599370166148	-0.4983193229757468	-0.4983193229757469	0.9893045053244826	-0.31716197120135853	-0.21199957600127198	-0.3171619712013585	1.1637999741136082
CHEMBL4226338	1.0	2.006745381713143	-0.4558423058385518	-0.4983193229757468	-0.4209693455269847	-0.690065559342354	-0.31716197120135853	-0.429782940327066	-0.2507132682112035	-0.30678599553894814	-0.23836564731139806	-0.23836564731139806	-0.5234239225902136	2.3267559183223914	2.23606797749979	-0.5897678246195885	-0.673145600891813	-0.3662599370166148	-0.464420364012824	-0.37563851570163515	-0.4558423058385518	-0.30678599553894814	-0.2741249873151301	-0.5483605572060236	-0.29617443887954614	-0.6900655593423541	-0.3373017270780278	-0.28529870107872785	-0.3662599370166147	-0.35675303400633795	1.8805811245074378	-0.21199957600127198	-0.4983193229757468	-0.4209693455269847	0.5067117097095317	-0.3849001794597506	-0.37563851570163515	1.6492422502470643	-0.34710506725031165	2.006745381713143	-1.4671545156803887	-0.429782940327066	2.42670329642684	-0.4120816918460671	-0.3171619712013585	-0.3662599370166148	-0.7503500583621179	-0.4209693455269847	-0.3171619712013585	-0.39405520311955033	-0.5400617248673216	-0.5317505248607238	-0.21199957600127192	-0.3567530340063379	-0.4729526514634586	1.672099987245661	-0.19775273765841178	-0.3373017270780278	-0.3567530340063379	-0.6479562703178932	-0.35675303400633795	3.5050983275386574	-0.3662599370166148	-0.37563851570163515	-0.7416198487095663	-1.0	-0.3567530340063379	2.006745381713143	-0.4297829403270659	-0.48989794855663565	2.73030134866931	-0.34710506725031165	-0.3756385157016351	-0.3067859955389482	1.6052797503622467	-0.5483605572060236	1.9104973174542799	-0.23836564731139806	1.649242250247064	-0.19775273765841178	-0.43852900965351455	1.0217416718310184	0.27412498731513013	-0.27412498731513	-0.21199957600127192	-0.25071326821120343	-0.33730172707802786	-0.3849001794597506	2.6621338286681095	3.376388603226826	-0.29617443887954614	1.348399724926484	-0.3171619712013585	-0.3373017270780278	-0.2626128657194451	-0.447213595499958	-0.3662599370166148	-0.43852900965351455	-0.35675303400633795	-0.429782940327066	-0.25071326821120343	0.16620562382863333	-0.3171619712013585	2.73030134866931	-0.21199957600127192	-0.5483605572060236	-0.5483605572060236	-0.4031128874149275	0.8128433340529315	3.376388603226826	-0.22549380840084868	-0.5317505248607238	-0.5234239225902136	-0.6312655864226274	-0.4983193229757468	2.4806946917841692	-0.29617443887954614	2.5980762113533156	2.803059552906941	-0.27412498731513	-0.447213595499958	-0.22549380840084868	-0.6146362971528592	0.7503500583621179	-0.34710506725031165	-0.447213595499958	-1.1897833481707565	3.1529631254723283	2.73030134866931	0.7416198487095663	2.4806946917841692	-0.4983193229757468	-0.464420364012824	-0.25071326821120343	-0.4814437448655852	-0.3662599370166148	-0.23836564731139806	1.272681542986758	3.2596012026013246	-1.695582495781317	-0.34710506725031165	-0.5150787536377128	-0.3662599370166148	-0.4120816918460671	-0.29617443887954614	-0.8219949365267863	-0.3171619712013585	-0.32732683535398854	-0.8687444855261387	-0.22549380840084868	-0.4983193229757468	2.6621338286681095	-0.5317505248607238	-0.27412498731513013	-0.21199957600127192	-0.43852900965351455	-0.4297829403270659	-0.29617443887954614	-0.31716197120135853	-1.4314958357846705	-0.39405520311955033	-0.4814437448655851	-0.5400617248673216	-0.7071067811865475	-0.5980503604017327	-0.4031128874149275	-0.39405520311955033	-0.4031128874149274	-1.1510864433221337	-0.39405520311955033	-0.28529870107872785	-0.1825741858350553	-0.3171619712013585	1.3806701271484076	3.2596012026013246	-0.32732683535398854	-0.7416198487095663	-0.27412498731513	-0.6312655864226274	-0.447213595499958	-0.6647258571142536	-0.32732683535398854	-0.34710506725031165	-0.5067117097095317	1.5841193017775368	-0.447213595499958	-0.3373017270780278	-0.7857425178439984	-0.3756385157016351	-0.39405520311955033	-0.39405520311955033	-0.34710506725031165	-0.5483605572060236	-0.447213595499958	-0.5483605572060236	-0.2852987010787279	-0.30678599553894814	-0.4814437448655852	-0.39405520311955033	-0.39405520311955033	2.041241452319315	-0.7503500583621179	-0.3662599370166147	-0.673145600891813	-0.4983193229757468	-0.3171619712013585	-0.4120816918460671	-0.5067117097095317	1.770122406313567	-0.5234239225902136	-0.45584230583855173	-0.21199957600127198	-0.39405520311955033	1.4491376746189437	-0.37563851570163515	0.48989794855663565	-0.28529870107872796	-0.5566499393061832	-0.3662599370166148	1.5634719199411433	-0.30678599553894814	-0.31716197120135853	-0.35675303400633795	-0.30678599553894814	-0.2626128657194451	-0.39405520311955033	-0.30678599553894814	-0.3067859955389482	-0.3373017270780278	-0.3756385157016351	-0.37563851570163515	-0.7857425178439984	-0.4814437448655852	-0.2961744388795461	-0.6647258571142535	-0.27412498731513	-0.6229443807375882	2.964704653791087	-0.35675303400633795	-0.39405520311955033	-0.3373017270780278	-0.34710506725031165	-0.447213595499958	-0.4729526514634586	-0.2626128657194451	-0.3849001794597506	-0.4120816918460671	-0.3373017270780278	2.8809720581775866	-0.3662599370166148	-0.4983193229757468	-0.4983193229757469	-1.0108111250054497	-0.31716197120135853	-0.21199957600127198	-0.3171619712013585	1.1637999741136082
CHEMBL2023479	1.0	2.006745381713143	-0.4558423058385518	-0.4983193229757468	-0.4209693455269847	-0.690065559342354	-0.31716197120135853	2.3267559183223914	-0.2507132682112035	-0.30678599553894814	-0.23836564731139806	-0.23836564731139806	-0.5234239225902136	-0.429782940327066	2.23606797749979	-0.5897678246195885	-0.673145600891813	-0.3662599370166148	-0.464420364012824	-0.37563851570163515	2.1937410968480306	3.2596012026013246	-0.2741249873151301	-0.5483605572060236	3.376388603226826	1.449137674618944	-0.3373017270780278	-0.28529870107872785	-0.3662599370166147	-0.35675303400633795	-0.5317505248607238	-0.21199957600127198	-0.4983193229757468	-0.4209693455269847	0.5067117097095317	-0.3849001794597506	-0.37563851570163515	-0.6063390625908324	-0.34710506725031165	-0.4983193229757468	0.6815914679145112	-0.429782940327066	2.42670329642684	-0.4120816918460671	-0.3171619712013585	-0.3662599370166148	-0.7503500583621179	-0.4209693455269847	-0.3171619712013585	-0.39405520311955033	-0.5400617248673216	-0.5317505248607238	-0.21199957600127192	2.8030595529069404	-0.4729526514634586	-0.5980503604017327	-0.19775273765841178	-0.3373017270780278	-0.3567530340063379	-0.6479562703178932	-0.35675303400633795	3.5050983275386574	-0.3662599370166148	-0.37563851570163515	-0.7416198487095663	-1.0	-0.3567530340063379	2.006745381713143	2.326755918322391	-0.48989794855663565	2.73030134866931	-0.34710506725031165	-0.3756385157016351	-0.3067859955389482	1.6052797503622467	1.823617666987474	-0.5234239225902136	-0.23836564731139806	1.649242250247064	-0.19775273765841178	-0.43852900965351455	1.0217416718310184	0.27412498731513013	-0.27412498731513	-0.21199957600127192	-0.25071326821120343	-0.33730172707802786	-0.3849001794597506	-0.3756385157016351	-0.29617443887954614	-0.29617443887954614	1.348399724926484	-0.3171619712013585	-0.3373017270780278	-0.2626128657194451	-0.447213595499958	-0.3662599370166148	-0.43852900965351455	-0.35675303400633795	-0.429782940327066	-0.25071326821120343	0.16620562382863333	3.1529631254723283	-0.3662599370166148	-0.21199957600127192	-0.5483605572060236	-0.5483605572060236	-0.4031128874149275	0.8128433340529315	3.376388603226826	-0.22549380840084868	-0.5317505248607238	-0.5234239225902136	-0.6312655864226274	-0.4983193229757468	-0.4031128874149275	-0.29617443887954614	-0.38490017945975047	2.803059552906941	-0.27412498731513	-0.447213595499958	-0.22549380840084868	-0.6146362971528592	0.7503500583621179	2.8809720581775866	-0.447213595499958	0.8404891542123694	-0.3171619712013585	-0.3662599370166148	0.7416198487095663	-0.4031128874149275	-0.4983193229757468	-0.464420364012824	-0.25071326821120343	-0.4814437448655852	-0.3662599370166148	4.195235392680606	-0.7857425178439984	-0.30678599553894814	0.5897678246195885	-0.34710506725031165	-0.5150787536377128	-0.3662599370166148	-0.4120816918460671	-0.29617443887954614	1.2165525060596438	-0.3171619712013585	-0.32732683535398854	-0.8687444855261387	-0.22549380840084868	-0.4983193229757468	-0.3756385157016351	-0.5317505248607238	-0.27412498731513013	-0.21199957600127192	-0.43852900965351455	-0.4297829403270659	3.376388603226826	-0.31716197120135853	-1.4314958357846705	-0.39405520311955033	-0.4814437448655851	-0.5400617248673216	1.4142135623730951	-0.5980503604017327	-0.4031128874149275	-0.39405520311955033	-0.4031128874149274	-1.1510864433221337	-0.39405520311955033	-0.28529870107872785	-0.1825741858350553	-0.3171619712013585	1.3806701271484076	-0.30678599553894814	-0.32732683535398854	-0.7416198487095663	-0.27412498731513	-0.6312655864226274	2.23606797749979	-0.6647258571142536	3.055050463303893	-0.34710506725031165	-0.5067117097095317	1.5841193017775368	-0.447213595499958	-0.3373017270780278	1.272681542986758	-0.3756385157016351	-0.39405520311955033	-0.39405520311955033	-0.34710506725031165	-0.5483605572060236	-0.447213595499958	1.823617666987474	-0.2852987010787279	3.2596012026013246	2.077085870705811	-0.39405520311955033	-0.39405520311955033	-0.48989794855663565	-0.7503500583621179	-0.3662599370166147	-0.673145600891813	-0.4983193229757468	-0.3171619712013585	2.42670329642684	1.9735087641318605	-0.564932682866032	-0.5234239225902136	-0.45584230583855173	-0.21199957600127198	-0.39405520311955033	-0.690065559342354	-0.37563851570163515	0.48989794855663565	-0.28529870107872796	-0.5566499393061832	-0.3662599370166148	-0.6396021490668313	-0.30678599553894814	3.1529631254723283	-0.35675303400633795	-0.30678599553894814	-0.2626128657194451	-0.39405520311955033	-0.30678599553894814	-0.3067859955389482	-0.3373017270780278	-0.3756385157016351	-0.37563851570163515	-0.7857425178439984	-0.4814437448655852	-0.2961744388795461	-0.6647258571142535	-0.27412498731513	-0.6229443807375882	-0.3373017270780278	-0.35675303400633795	-0.39405520311955033	-0.3373017270780278	2.8809720581775866	-0.447213595499958	-0.4729526514634586	-0.2626128657194451	-0.3849001794597506	-0.4120816918460671	-0.3373017270780278	-0.34710506725031165	2.73030134866931	2.006745381713143	-0.4983193229757469	-1.0108111250054497	3.1529631254723283	-0.21199957600127198	-0.3171619712013585	1.1637999741136082
CHEMBL4475726	1.0	2.006745381713143	-0.4558423058385518	-0.4983193229757468	2.3754698783308417	-0.690065559342354	-0.31716197120135853	-0.429782940327066	3.9886201760873283	-0.30678599553894814	-0.23836564731139806	-0.23836564731139806	-0.5234239225902136	-0.429782940327066	2.23606797749979	1.695582495781317	-0.673145600891813	2.73030134866931	-0.464420364012824	-0.37563851570163515	-0.4558423058385518	-0.30678599553894814	-0.2741249873151301	-0.5483605572060236	-0.29617443887954614	1.449137674618944	-0.3373017270780278	-0.28529870107872785	-0.3662599370166147	-0.35675303400633795	-0.5317505248607238	-0.21199957600127198	-0.4983193229757468	-0.4209693455269847	0.5067117097095317	-0.3849001794597506	-0.37563851570163515	-0.6063390625908324	2.8809720581775866	-0.4983193229757468	0.6815914679145112	-0.429782940327066	-0.4120816918460671	-0.4120816918460671	-0.3171619712013585	-0.3662599370166148	-0.7503500583621179	-0.4209693455269847	-0.3171619712013585	-0.39405520311955033	-0.5400617248673216	-0.5317505248607238	-0.21199957600127192	-0.3567530340063379	-0.4729526514634586	-0.5980503604017327	-0.19775273765841178	-0.3373017270780278	-0.3567530340063379	-0.6479562703178932	-0.35675303400633795	-0.28529870107872796	-0.3662599370166148	-0.37563851570163515	1.3483997249264843	1.0	-0.3567530340063379	2.006745381713143	2.326755918322391	-0.48989794855663565	-0.3662599370166148	2.8809720581775866	-0.3756385157016351	-0.3067859955389482	1.6052797503622467	-0.5483605572060236	-0.5234239225902136	-0.23836564731139806	1.649242250247064	-0.19775273765841178	-0.43852900965351455	-0.978720969859186	0.27412498731513013	-0.27412498731513	-0.21199957600127192	3.9886201760873274	2.964704653791087	-0.3849001794597506	-0.3756385157016351	-0.29617443887954614	-0.29617443887954614	-0.7416198487095663	-0.3171619712013585	-0.3373017270780278	-0.2626128657194451	-0.447213595499958	-0.3662599370166148	-0.43852900965351455	-0.35675303400633795	-0.429782940327066	-0.25071326821120343	0.16620562382863333	-0.3171619712013585	-0.3662599370166148	-0.21199957600127192	-0.5483605572060236	1.823617666987474	-0.4031128874149275	0.8128433340529315	-0.29617443887954614	-0.22549380840084868	-0.5317505248607238	1.9104973174542803	-0.6312655864226274	-0.4983193229757468	-0.4031128874149275	-0.29617443887954614	2.5980762113533156	-0.35675303400633795	-0.27412498731513	-0.447213595499958	-0.22549380840084868	-0.6146362971528592	0.7503500583621179	-0.34710506725031165	-0.447213595499958	0.8404891542123694	-0.3171619712013585	-0.3662599370166148	0.7416198487095663	-0.4031128874149275	2.006745381713143	-0.464420364012824	-0.25071326821120343	2.077085870705811	-0.3662599370166148	4.195235392680606	-0.7857425178439984	-0.30678599553894814	0.5897678246195885	-0.34710506725031165	-0.5150787536377128	-0.3662599370166148	2.42670329642684	-0.29617443887954614	-0.8219949365267863	-0.3171619712013585	-0.32732683535398854	1.1510864433221337	-0.22549380840084868	-0.4983193229757468	-0.3756385157016351	-0.5317505248607238	-0.27412498731513013	-0.21199957600127192	-0.43852900965351455	2.326755918322391	-0.29617443887954614	-0.31716197120135853	-1.4314958357846705	-0.39405520311955033	-0.4814437448655851	1.8516401995451028	1.4142135623730951	-0.5980503604017327	-0.4031128874149275	-0.39405520311955033	-0.4031128874149274	-1.1510864433221337	-0.39405520311955033	-0.28529870107872785	-0.1825741858350553	-0.3171619712013585	-0.7242859683401484	-0.30678599553894814	3.055050463303893	1.3483997249264843	-0.27412498731513	-0.6312655864226274	-0.447213595499958	-0.6647258571142536	-0.32732683535398854	-0.34710506725031165	-0.5067117097095317	1.5841193017775368	-0.447213595499958	-0.3373017270780278	1.272681542986758	-0.3756385157016351	-0.39405520311955033	-0.39405520311955033	-0.34710506725031165	1.823617666987474	-0.447213595499958	-0.5483605572060236	3.5050983275386565	-0.30678599553894814	-0.4814437448655852	-0.39405520311955033	-0.39405520311955033	-0.48989794855663565	-0.7503500583621179	-0.3662599370166147	-0.673145600891813	-0.4983193229757468	-0.3171619712013585	-0.4120816918460671	-0.5067117097095317	-0.564932682866032	-0.5234239225902136	-0.45584230583855173	-0.21199957600127198	2.537715508089904	-0.690065559342354	-0.37563851570163515	0.48989794855663565	-0.28529870107872796	-0.5566499393061832	-0.3662599370166148	-0.6396021490668313	-0.30678599553894814	-0.31716197120135853	2.8030595529069404	-0.30678599553894814	-0.2626128657194451	-0.39405520311955033	-0.30678599553894814	-0.3067859955389482	-0.3373017270780278	-0.3756385157016351	-0.37563851570163515	1.272681542986758	-0.4814437448655852	-0.2961744388795461	-0.6647258571142535	-0.27412498731513	-0.6229443807375882	-0.3373017270780278	-0.35675303400633795	-0.39405520311955033	-0.3373017270780278	-0.34710506725031165	-0.447213595499958	-0.4729526514634586	-0.2626128657194451	-0.3849001794597506	-0.4120816918460671	-0.3373017270780278	-0.34710506725031165	-0.3662599370166148	-0.4983193229757468	-0.4983193229757469	-1.0108111250054497	-0.31716197120135853	-0.21199957600127198	-0.3171619712013585	1.1637999741136082
CHEMBL5083125	1.0	2.006745381713143	-0.4558423058385518	-0.4983193229757468	-0.4209693455269847	-0.690065559342354	-0.31716197120135853	-0.429782940327066	-0.2507132682112035	-0.30678599553894814	-0.23836564731139806	-0.23836564731139806	1.9104973174542803	-0.429782940327066	-0.447213595499958	-0.5897678246195885	1.4855627054164149	2.73030134866931	-0.464420364012824	-0.37563851570163515	-0.4558423058385518	-0.30678599553894814	-0.2741249873151301	-0.5483605572060236	-0.29617443887954614	-0.6900655593423541	-0.3373017270780278	-0.28529870107872785	-0.3662599370166147	-0.35675303400633795	-0.5317505248607238	-0.21199957600127198	-0.4983193229757468	2.3754698783308417	-1.9735087641318605	-0.3849001794597506	-0.37563851570163515	-0.6063390625908324	-0.34710506725031165	-0.4983193229757468	-1.4671545156803887	-0.429782940327066	-0.4120816918460671	2.42670329642684	-0.3171619712013585	-0.3662599370166148	-0.7503500583621179	2.3754698783308417	-0.3171619712013585	-0.39405520311955033	-0.5400617248673216	1.8805811245074378	-0.21199957600127192	-0.3567530340063379	-0.4729526514634586	1.672099987245661	-0.19775273765841178	2.964704653791087	2.8030595529069404	-0.6479562703178932	-0.35675303400633795	-0.28529870107872796	-0.3662599370166148	-0.37563851570163515	1.3483997249264843	1.0	2.8030595529069404	-0.4983193229757468	-0.4297829403270659	-0.48989794855663565	-0.3662599370166148	-0.34710506725031165	2.6621338286681095	-0.3067859955389482	1.6052797503622467	-0.5483605572060236	-0.5234239225902136	-0.23836564731139806	-0.6063390625908324	-0.19775273765841178	-0.43852900965351455	1.0217416718310184	0.27412498731513013	-0.27412498731513	-0.21199957600127192	-0.25071326821120343	-0.33730172707802786	2.5980762113533165	-0.3756385157016351	-0.29617443887954614	-0.29617443887954614	-0.7416198487095663	-0.3171619712013585	-0.3373017270780278	-0.2626128657194451	2.23606797749979	2.73030134866931	-0.43852900965351455	-0.35675303400633795	-0.429782940327066	-0.25071326821120343	0.16620562382863333	-0.3171619712013585	-0.3662599370166148	-0.21199957600127192	-0.5483605572060236	-0.5483605572060236	-0.4031128874149275	0.8128433340529315	-0.29617443887954614	-0.22549380840084868	-0.5317505248607238	-0.5234239225902136	-0.6312655864226274	-0.4983193229757468	-0.4031128874149275	-0.29617443887954614	-0.38490017945975047	-0.35675303400633795	-0.27412498731513	-0.447213595499958	-0.22549380840084868	-0.6146362971528592	0.7503500583621179	-0.34710506725031165	-0.447213595499958	0.8404891542123694	3.1529631254723283	-0.3662599370166148	0.7416198487095663	-0.4031128874149275	-0.4983193229757468	-0.464420364012824	-0.25071326821120343	-0.4814437448655852	-0.3662599370166148	-0.23836564731139806	1.272681542986758	-0.30678599553894814	0.5897678246195885	2.8809720581775866	-0.5150787536377128	-0.3662599370166148	-0.4120816918460671	-0.29617443887954614	1.2165525060596438	-0.3171619712013585	-0.32732683535398854	1.1510864433221337	-0.22549380840084868	-0.4983193229757468	-0.3756385157016351	-0.5317505248607238	-0.27412498731513013	-0.21199957600127192	-0.43852900965351455	-0.4297829403270659	-0.29617443887954614	-0.31716197120135853	0.6985699678629191	-0.39405520311955033	-0.4814437448655851	1.8516401995451028	-0.7071067811865475	-0.5980503604017327	-0.4031128874149275	2.537715508089904	-0.4031128874149274	0.8687444855261387	-0.39405520311955033	-0.28529870107872785	-0.1825741858350553	-0.3171619712013585	1.3806701271484076	3.2596012026013246	-0.32732683535398854	-0.7416198487095663	-0.27412498731513	-0.6312655864226274	-0.447213595499958	-0.6647258571142536	-0.32732683535398854	-0.34710506725031165	1.9735087641318605	-0.6312655864226274	-0.447213595499958	-0.3373017270780278	-0.7857425178439984	-0.3756385157016351	-0.39405520311955033	-0.39405520311955033	-0.34710506725031165	1.823617666987474	-0.447213595499958	-0.5483605572060236	-0.2852987010787279	-0.30678599553894814	2.077085870705811	-0.39405520311955033	-0.39405520311955033	-0.48989794855663565	1.3327112976879407	-0.3662599370166147	1.4855627054164149	2.006745381713143	-0.3171619712013585	-0.4120816918460671	-0.5067117097095317	-0.564932682866032	-0.5234239225902136	2.19374109684803	-0.21199957600127198	-0.39405520311955033	1.4491376746189437	-0.37563851570163515	0.48989794855663565	-0.28529870107872796	1.796461167760864	-0.3662599370166148	1.5634719199411433	-0.30678599553894814	-0.31716197120135853	-0.35675303400633795	-0.30678599553894814	-0.2626128657194451	-0.39405520311955033	-0.30678599553894814	-0.3067859955389482	-0.3373017270780278	-0.3756385157016351	2.6621338286681104	-0.7857425178439984	-0.4814437448655852	3.3763886032268253	-0.6647258571142535	-0.27412498731513	1.6052797503622467	-0.3373017270780278	-0.35675303400633795	-0.39405520311955033	-0.3373017270780278	-0.34710506725031165	-0.447213595499958	-0.4729526514634586	-0.2626128657194451	-0.3849001794597506	-0.4120816918460671	-0.3373017270780278	-0.34710506725031165	-0.3662599370166148	-0.4983193229757468	-0.4983193229757469	-1.0108111250054497	-0.31716197120135853	-0.21199957600127198	-0.3171619712013585	1.1637999741136082
CHEMBL5083344	1.0	-0.4983193229757468	-0.4558423058385518	-0.4983193229757468	-0.4209693455269847	1.4491376746189437	-0.31716197120135853	2.3267559183223914	-0.2507132682112035	-0.30678599553894814	-0.23836564731139806	-0.23836564731139806	-0.5234239225902136	-0.429782940327066	-0.447213595499958	-0.5897678246195885	1.4855627054164149	-0.3662599370166148	-0.464420364012824	-0.37563851570163515	-0.4558423058385518	-0.30678599553894814	-0.2741249873151301	-0.5483605572060236	-0.29617443887954614	1.449137674618944	-0.3373017270780278	-0.28529870107872785	-0.3662599370166147	-0.35675303400633795	-0.5317505248607238	-0.21199957600127198	-0.4983193229757468	-0.4209693455269847	0.5067117097095317	-0.3849001794597506	-0.37563851570163515	1.6492422502470643	-0.34710506725031165	-0.4983193229757468	0.6815914679145112	-0.429782940327066	-0.4120816918460671	-0.4120816918460671	-0.3171619712013585	-0.3662599370166148	1.3327112976879407	-0.4209693455269847	-0.3171619712013585	-0.39405520311955033	1.8516401995451028	-0.5317505248607238	-0.21199957600127192	-0.3567530340063379	-0.4729526514634586	-0.5980503604017327	5.05682000583653	2.964704653791087	-0.3567530340063379	1.5433140256662548	2.803059552906941	-0.28529870107872796	-0.3662599370166148	-0.37563851570163515	-0.7416198487095663	-1.0	-0.3567530340063379	2.006745381713143	-0.4297829403270659	-0.48989794855663565	2.73030134866931	2.8809720581775866	-0.3756385157016351	-0.3067859955389482	1.6052797503622467	-0.5483605572060236	1.9104973174542799	-0.23836564731139806	-0.6063390625908324	5.05682000583653	-0.43852900965351455	-0.978720969859186	0.27412498731513013	-0.27412498731513	-0.21199957600127192	-0.25071326821120343	-0.33730172707802786	-0.3849001794597506	-0.3756385157016351	3.376388603226826	-0.29617443887954614	1.348399724926484	-0.3171619712013585	-0.3373017270780278	3.807886552931954	-0.447213595499958	-0.3662599370166148	2.2803508501982757	-0.35675303400633795	-0.429782940327066	-0.25071326821120343	0.16620562382863333	-0.3171619712013585	-0.3662599370166148	-0.21199957600127192	-0.5483605572060236	-0.5483605572060236	-0.4031128874149275	0.8128433340529315	-0.29617443887954614	-0.22549380840084868	-0.5317505248607238	-0.5234239225902136	-0.6312655864226274	-0.4983193229757468	2.4806946917841692	-0.29617443887954614	-0.38490017945975047	-0.35675303400633795	-0.27412498731513	-0.447213595499958	4.43471156521669	1.6269784336399213	0.7503500583621179	2.8809720581775866	2.23606797749979	0.8404891542123694	-0.3171619712013585	-0.3662599370166148	0.7416198487095663	-0.4031128874149275	2.006745381713143	-0.464420364012824	-0.25071326821120343	-0.4814437448655852	-0.3662599370166148	-0.23836564731139806	1.272681542986758	-0.30678599553894814	0.5897678246195885	-0.34710506725031165	-0.5150787536377128	-0.3662599370166148	-0.4120816918460671	-0.29617443887954614	1.2165525060596438	-0.3171619712013585	-0.32732683535398854	-0.8687444855261387	-0.22549380840084868	-0.4983193229757468	-0.3756385157016351	-0.5317505248607238	-0.27412498731513013	-0.21199957600127192	-0.43852900965351455	-0.4297829403270659	-0.29617443887954614	3.1529631254723283	0.6985699678629191	-0.39405520311955033	-0.4814437448655851	-0.5400617248673216	-0.7071067811865475	-0.5980503604017327	-0.4031128874149275	-0.39405520311955033	-0.4031128874149274	-1.1510864433221337	2.537715508089904	-0.28529870107872785	-0.1825741858350553	-0.3171619712013585	-0.7242859683401484	-0.30678599553894814	-0.32732683535398854	1.3483997249264843	-0.27412498731513	1.5841193017775368	2.23606797749979	-0.6647258571142536	3.055050463303893	-0.34710506725031165	1.9735087641318605	1.5841193017775368	2.23606797749979	-0.3373017270780278	1.272681542986758	-0.3756385157016351	-0.39405520311955033	-0.39405520311955033	2.8809720581775866	1.823617666987474	-0.447213595499958	-0.5483605572060236	-0.2852987010787279	-0.30678599553894814	2.077085870705811	2.537715508089904	2.537715508089904	-0.48989794855663565	-0.7503500583621179	-0.3662599370166147	-0.673145600891813	-0.4983193229757468	-0.3171619712013585	-0.4120816918460671	-0.5067117097095317	1.770122406313567	-0.5234239225902136	2.19374109684803	-0.21199957600127198	-0.39405520311955033	-0.690065559342354	-0.37563851570163515	0.48989794855663565	-0.28529870107872796	-0.5566499393061832	-0.3662599370166148	-0.6396021490668313	-0.30678599553894814	-0.31716197120135853	-0.35675303400633795	-0.30678599553894814	-0.2626128657194451	-0.39405520311955033	3.2596012026013246	-0.3067859955389482	2.964704653791087	-0.3756385157016351	-0.37563851570163515	1.272681542986758	-0.4814437448655852	-0.2961744388795461	-0.6647258571142535	-0.27412498731513	-0.6229443807375882	-0.3373017270780278	-0.35675303400633795	-0.39405520311955033	-0.3373017270780278	-0.34710506725031165	-0.447213595499958	-0.4729526514634586	-0.2626128657194451	-0.3849001794597506	-0.4120816918460671	-0.3373017270780278	-0.34710506725031165	2.73030134866931	-0.4983193229757468	-0.4983193229757469	0.9893045053244826	3.1529631254723283	-0.21199957600127198	-0.3171619712013585	1.1637999741136082
