Compound_ID	AD	f_0	f_1	f_2	f_3	f_4	f_5	f_6	f_7	f_8	f_9	f_10	f_11	f_12	f_13	f_14	f_15	f_16	f_17	f_18	f_19	f_20	f_21	f_22	f_23	f_24	f_25	f_26	f_27	f_28	f_29	f_30	f_31	f_32	f_33	f_34	f_35	f_36	f_37	f_38	f_39	f_40	f_41	f_42	f_43	f_44	f_45	f_46	f_47	f_48	f_49	f_50	f_51	f_52	f_53	f_54	f_55	f_56	f_57	f_58	f_59	f_60	f_61	f_62	f_63	f_64	f_65	f_66	f_67	f_68	f_69	f_70	f_71	f_72	f_73	f_74	f_75	f_76	f_77	f_78	f_79	f_80	f_81	f_82	f_83	f_84	f_85	f_86	f_87	f_88	f_89	f_90	f_91	f_92	f_93	f_94	f_95	f_96	f_97	f_98	f_99	f_100	f_101	f_102	f_103	f_104	f_105	f_106	f_107	f_108	f_109	f_110	f_111	f_112	f_113	f_114	f_115	f_116	f_117	f_118	f_119	f_120	f_121	f_122	f_123	f_124	f_125	f_126	f_127	f_128	f_129	f_130	f_131	f_132	f_133	f_134	f_135	f_136	f_137	f_138	f_139	f_140	f_141	f_142	f_143	f_144	f_145	f_146	f_147	f_148	f_149	f_150	f_151	f_152	f_153	f_154	f_155	f_156	f_157	f_158	f_159	f_160	f_161	f_162	f_163	f_164	f_165	f_166	f_167	f_168	f_169	f_170	f_171	f_172	f_173	f_174	f_175	f_176	f_177	f_178	f_179	f_180	f_181	f_182	f_183	f_184	f_185	f_186	f_187	f_188	f_189	f_190	f_191	f_192	f_193	f_194	f_195	f_196	f_197	f_198	f_199	f_200	f_201	f_202	f_203	f_204	f_205	f_206	f_207	f_208	f_209	f_210	f_211	f_212	f_213	f_214	f_215	f_216	f_217	f_218	f_219	f_220	f_221	f_222	f_223	f_224	f_225	f_226	f_227	f_228	f_229	f_230	f_231	f_232	f_233	f_234	f_235	f_236	f_237	f_238	f_239	f_240	f_241	f_242	f_243	f_244	f_245	f_246	f_247	f_248	f_249	f_250	f_251	f_252	f_253	f_254	f_255
CHEMBL257512	1.0	1.7251638983558857	-0.3956130625887607	-0.3118340473100409	-0.29296031766148345	-0.5427463895880401	-0.27573706286071076	-0.40767771256034563	-0.21532745943554765	-0.2832083787067895	-0.30013051991046036	-0.40166551726626826	-0.4352685256926918	-0.31643601613227496	-0.44496223623878756	-0.35829928604223926	1.385489234739996	-0.3709476780308946	2.758305172144738	-0.4488193945462509	-0.5667473261035905	-0.2523772325625343	-0.27824333745610097	-0.45650151414512014	-0.2243088616368177	-0.4849815466507112	-0.30013051991046036	-0.2856680199402452	-0.43915503282684	-0.5297875485756219	-0.332223329141004	-0.21532745943554762	-0.3895178274880811	-0.3792566630111541	0.638822694552945	-0.42156267823233634	-0.18626971424152214	1.301364048641568	-0.37303372633351084	-0.47743185531611554	-1.240158828929845	-0.41365202089425585	-0.3792566630111541	-0.35188398920288366	2.651197117123914	-0.2706746783336088	-0.8411696987931088	-0.4254958003273136	-0.2550510153051018	-0.40567797137318373	-0.6425414850946839	-0.5074742559794809	-0.3366501646120693	-0.37303372633351084	-0.5297875485756219	-0.38542925212112084	-0.17927197918702087	-0.4717494930441458	-0.32776066832815337	1.3423909351670966	-0.2732143382878626	-0.29775343088914713	-0.38542925212112084	-0.38131963485137044	-0.922735737730551	-1.0811249552346707	-0.33444112413495103	-0.6724387801454332	1.5124158075090164	2.452918001623592	-0.36254146571550083	4.005098791107482	-0.36254146571550083	-0.28320837870678955	1.157123837032879	0.9271937208540033	-0.6668108263973315	-0.19962605140237988	1.191759143062248	-0.16830069266853703	-0.3095165988026865	0.9774985999379038	0.06004805767690767	3.6266434030493486	-0.193046835626336	-0.24422258300730793	-0.16061919498779031	-0.31643601613227496	-0.4235310272854237	-0.41365202089425585	-0.22134808531896508	0.7605589428059089	-0.20916500663351886	-0.2550510153051018	-0.17927197918702087	-0.46223672582095254	-0.38131963485137044	1.3565161460232493	-0.39965262694272663	3.5620955335537996	-0.20284755894409	0.0	-0.35402955699167216	-0.4468922058820907	-0.13977131156292244	-0.4906253401206457	-0.6017917781166581	-0.2832083787067895	0.49625462891182986	-0.3187210590100133	-0.23013785002169967	-0.4584156711285423	-0.3833771276146009	-0.5130667782177495	-0.42156267823233634	-0.4526656657028506	-0.21226474130316753	-0.2523772325625344	-0.35188398920288366	-0.2856680199402452	-0.6054850215265134	-0.332223329141004	1.224744871391589	0.44496223623878756	-0.3209958085628648	2.8771127502720115	-1.1156270236570907	-0.2732143382878626	2.9900629074446226	0.5186491689825814	-0.37303372633351084	-0.44302942524536426	-0.4352685256926918	-0.3024950709910101	-0.5427463895880402	-0.32999657932147997	-0.24422258300730793	0.7723718776597304	-0.43332056734305097	0.6481265518483904	-0.3048473998130456	-0.4849815466507112	-0.2732143382878626	-0.48309685381140866	-0.2832083787067895	-0.638822694552945	-0.37511382607638066	-0.218354746875495	-1.0156919662556663	-0.2243088616368177	-0.4056779713731837	-0.295363476640788	-0.39965262694272663	-0.20916500663351886	-0.26033619813883174	-0.23585120338693305	-0.5223656321567648	-0.32999657932147997	-0.2655425022718972	-1.0605102233558332	-0.332223329141004	-0.38131963485137044	-0.4036739355464436	-0.651854796536712	-0.5482910294355557	-0.46223672582095254	-0.4254958003273136	-0.38542925212112084	-1.137521887242634	2.3611021048667715	-0.24145734127431245	-0.28320837870678955	5.271916487225102	0.7982824700322465	-0.3709476780308945	-0.3048473998130456	-0.7333165911365267	-0.3118340473100409	-0.599945708727211	1.7996051456369657	-0.4603273902788415	-0.36885555678165877	-0.29775343088914713	-0.5445951256958484	1.129249467422068	2.824622917073342	-0.27573706286071076	-0.5279333569710825	-0.39358619998522626	-0.38542925212112084	-0.25237723256253436	2.1369760566432805	-0.594409394578389	-0.5888753633396349	-0.47364562275300215	-0.25237723256253436	-0.3410427545452439	-0.5980999726097406	-0.5962545433952522	-0.41365202089425585	-0.429414907892783	-0.7842748501762349	-0.25770378116168946	1.8809687605754832	2.567276590262353	2.9321836827568095	-0.30013051991046036	-0.594409394578389	-0.4468922058820907	-0.4096732451993513	-0.5464433282985444	-0.24968173125224757	-0.46604845904772396	-0.7566404087133655	-0.3497310794839219	0.295363476640788	-0.35616793867473684	-0.5612135332663137	-0.3209958085628648	1.8056035228235054	2.8418456954102456	-0.35402955699167216	2.4291616756158882	-0.37718809874266357	-0.3388506450924548	-0.4717494930441458	-0.3410427545452439	-0.4176149546551433	-0.27824333745610097	-0.3095165988026865	-0.39763517315406705	-0.5112037804398081	3.160196529531535	-0.34973107948392185	1.5210167860651846	-0.24145734127431245	1.4625654666923127	-0.36465258274943624	3.3856589561212718	-0.40767771256034563	-0.17927197918702087	-0.31643601613227496	2.6957979769769964	-0.38131963485137044	-0.44109371155664995	-0.2856680199402452	-0.29296031766148345	-0.43136938400232516	2.8418456954102456	-0.25770378116168946	1.9633265553113415	2.9321836827568095	-0.7198484689028785	-0.22723837615371514	-0.14416100751597005	-0.32776066832815337	-1.00359929178011
CHEMBL374940	1.0	-0.5796550698475775	-0.3956130625887607	-0.3118340473100409	-0.29296031766148345	-0.5427463895880401	-0.27573706286071076	-0.40767771256034563	-0.21532745943554765	-0.2832083787067895	-0.30013051991046036	-0.40166551726626826	2.2974323686937566	-0.31643601613227496	-0.44496223623878756	-0.35829928604223926	-0.7217667051650981	2.6957979769769964	-0.36254146571550083	-0.4488193945462509	-0.5667473261035905	-0.2523772325625343	3.593976442141305	-0.45650151414512014	-0.2243088616368177	-0.4849815466507112	3.3318837427740964	-0.2856680199402452	-0.43915503282684	-0.5297875485756219	-0.332223329141004	-0.21532745943554762	-0.3895178274880811	-0.3792566630111541	0.638822694552945	-0.42156267823233634	-0.18626971424152214	-0.768424485864545	2.680722758847681	-0.47743185531611554	0.8063483294820533	-0.41365202089425585	-0.3792566630111541	-0.35188398920288366	-0.37718809874266357	3.6944719253253977	-0.8411696987931088	-0.4254958003273136	-0.2550510153051018	-0.40567797137318373	-0.6425414850946839	-0.5074742559794809	2.9704426289300234	-0.37303372633351084	1.8875490801710681	2.5945098730745815	-0.17927197918702087	2.119769103612839	3.0510067150546623	-0.7449394761262472	-0.2732143382878626	-0.29775343088914713	-0.38542925212112084	-0.38131963485137044	1.0837339003033295	0.9249624617007738	-0.33444112413495103	-0.6724387801454332	1.5124158075090164	-0.40767771256034563	-0.36254146571550083	-0.24968173125224757	-0.36254146571550083	-0.28320837870678955	-0.8642117360266479	0.9271937208540033	-0.6668108263973315	-0.19962605140237988	1.191759143062248	-0.16830069266853703	-0.3095165988026865	0.9774985999379038	0.06004805767690767	-0.27573706286071076	-0.193046835626336	-0.24422258300730793	-0.16061919498779031	-0.31643601613227496	-0.4235310272854237	2.4174909089967573	-0.22134808531896508	0.7605589428059089	-0.20916500663351886	-0.2550510153051018	-0.17927197918702087	-0.46223672582095254	2.6224718283646133	-0.737182526674372	-0.39965262694272663	-0.2807336273214235	-0.20284755894409	0.0	-0.35402955699167216	-0.4468922058820907	-0.13977131156292244	-0.4906253401206457	1.6617043242590608	-0.2832083787067895	0.49625462891182986	-0.3187210590100133	-0.23013785002169967	-0.4584156711285423	-0.3833771276146009	-0.5130667782177495	2.3721264989422735	2.2091359600850384	-0.21226474130316753	-0.2523772325625344	2.8418456954102456	-0.2856680199402452	1.651568518538838	-0.332223329141004	-0.816496580927726	0.44496223623878756	-0.3209958085628648	-0.34757066781809537	0.8963569174955458	-0.2732143382878626	-0.33444112413495114	-1.9280856112459803	-0.37303372633351084	-0.44302942524536426	-0.4352685256926918	-0.3024950709910101	-0.5427463895880402	-0.32999657932147997	-0.24422258300730793	-1.2947131154360225	-0.43332056734305097	0.6481265518483904	3.2803297670023497	-0.4849815466507112	-0.2732143382878626	-0.48309685381140866	-0.2832083787067895	1.5653795779747786	-0.37511382607638066	-0.218354746875495	0.9845504672902804	-0.2243088616368177	2.4650093684285816	-0.295363476640788	-0.39965262694272663	-0.20916500663351886	-0.26033619813883174	-0.23585120338693305	-0.5223656321567648	-0.32999657932147997	-0.2655425022718972	0.9429423479159332	-0.332223329141004	-0.38131963485137044	2.4772468865157817	-0.651854796536712	-0.5482910294355557	-0.46223672582095254	-0.4254958003273136	-0.38542925212112084	0.8791039638138402	-0.4235310272854237	-0.24145734127431245	-0.28320837870678955	-0.18968434011107688	-1.2526894145121406	-0.3709476780308945	-0.3048473998130456	-0.7333165911365267	-0.3118340473100409	-0.599945708727211	-0.5556774509255208	-0.4603273902788415	-0.36885555678165877	-0.29775343088914713	1.8362264971106095	-0.8855439199655962	-0.3540295569916722	-0.27573706286071076	-0.5279333569710825	-0.39358619998522626	-0.38542925212112084	-0.25237723256253436	-0.46795096130874764	-0.594409394578389	1.6981522105608078	-0.47364562275300215	-0.25237723256253436	-0.3410427545452439	-0.5980999726097406	1.6771360672670106	-0.41365202089425585	-0.429414907892783	1.2750631998148219	-0.25770378116168946	-0.5316409400090458	-0.3895178274880811	-0.3410427545452439	-0.30013051991046036	-0.594409394578389	-0.4468922058820907	-0.4096732451993513	1.8300159379998127	-0.24968173125224757	-0.46604845904772396	1.3216317665355164	-0.3497310794839219	0.295363476640788	-0.35616793867473684	-0.5612135332663137	-0.3209958085628648	1.8056035228235054	-0.35188398920288366	-0.35402955699167216	-0.4116646537108158	-0.37718809874266357	-0.3388506450924548	-0.4717494930441458	-0.3410427545452439	-0.4176149546551433	-0.27824333745610097	-0.3095165988026865	2.51486806880774	-0.5112037804398081	-0.31643601613227496	2.859339814681735	-0.6574549401173696	-0.24145734127431245	1.4625654666923127	-0.36465258274943624	-0.29536347664078805	2.452918001623592	-0.17927197918702087	-0.31643601613227496	-0.3709476780308946	-0.38131963485137044	-0.44109371155664995	-0.2856680199402452	-0.29296031766148345	-0.43136938400232516	-0.35188398920288366	-0.25770378116168946	-0.5093396191757931	-0.3410427545452439	-0.7198484689028785	-0.22723837615371514	-0.14416100751597005	3.0510067150546623	0.9964136166599662
CHEMBL256192	1.0	1.7251638983558857	-0.3956130625887607	-0.3118340473100409	-0.29296031766148345	-0.5427463895880401	-0.27573706286071076	-0.40767771256034563	-0.21532745943554765	-0.2832083787067895	-0.30013051991046036	-0.40166551726626826	-0.4352685256926918	-0.31643601613227496	2.2473817294089486	-0.35829928604223926	1.385489234739996	-0.3709476780308946	2.758305172144738	-0.4488193945462509	-0.5667473261035905	-0.2523772325625343	-0.27824333745610097	-0.45650151414512014	-0.2243088616368177	-0.4849815466507112	-0.30013051991046036	-0.2856680199402452	-0.43915503282684	-0.5297875485756219	-0.332223329141004	-0.21532745943554762	-0.3895178274880811	-0.3792566630111541	0.638822694552945	-0.42156267823233634	-0.18626971424152214	1.301364048641568	-0.37303372633351084	-0.47743185531611554	-1.240158828929845	-0.41365202089425585	-0.3792566630111541	-0.35188398920288366	2.651197117123914	-0.2706746783336088	-0.8411696987931088	-0.4254958003273136	-0.2550510153051018	2.4650093684285825	-0.6425414850946839	-0.5074742559794809	-0.3366501646120693	-0.37303372633351084	-0.5297875485756219	-0.38542925212112084	-0.17927197918702087	-0.4717494930441458	-0.32776066832815337	1.3423909351670966	-0.2732143382878626	-0.29775343088914713	-0.38542925212112084	-0.38131963485137044	-0.922735737730551	0.9249624617007738	-0.33444112413495103	-0.6724387801454332	-0.6611938297887955	2.452918001623592	-0.36254146571550083	4.005098791107482	-0.36254146571550083	-0.28320837870678955	1.157123837032879	-1.0785232659674804	-0.6668108263973315	-0.19962605140237988	1.191759143062248	-0.16830069266853703	-0.3095165988026865	0.9774985999379038	0.06004805767690767	3.6266434030493486	-0.193046835626336	-0.24422258300730793	-0.16061919498779031	-0.31643601613227496	-0.4235310272854237	-0.41365202089425585	-0.22134808531896508	0.7605589428059089	-0.20916500663351886	-0.2550510153051018	-0.17927197918702087	-0.46223672582095254	-0.38131963485137044	1.3565161460232493	-0.39965262694272663	3.5620955335537996	-0.20284755894409	0.0	-0.35402955699167216	-0.4468922058820907	-0.13977131156292244	-0.4906253401206457	-0.6017917781166581	-0.2832083787067895	0.49625462891182986	-0.3187210590100133	-0.23013785002169967	-0.4584156711285423	-0.3833771276146009	-0.5130667782177495	-0.42156267823233634	-0.4526656657028506	-0.21226474130316753	-0.2523772325625344	-0.35188398920288366	-0.2856680199402452	1.651568518538838	-0.332223329141004	1.224744871391589	-2.2473817294089486	-0.3209958085628648	2.8771127502720115	-1.1156270236570907	-0.2732143382878626	-0.33444112413495114	0.5186491689825814	-0.37303372633351084	-0.44302942524536426	-0.4352685256926918	-0.3024950709910101	-0.5427463895880402	-0.32999657932147997	-0.24422258300730793	0.7723718776597304	-0.43332056734305097	0.6481265518483904	-0.3048473998130456	-0.4849815466507112	-0.2732143382878626	-0.48309685381140866	-0.2832083787067895	-0.638822694552945	-0.37511382607638066	-0.218354746875495	0.9845504672902804	-0.2243088616368177	-0.4056779713731837	-0.295363476640788	-0.39965262694272663	-0.20916500663351886	-0.26033619813883174	-0.23585120338693305	-0.5223656321567648	-0.32999657932147997	-0.2655425022718972	-1.0605102233558332	-0.332223329141004	-0.38131963485137044	-0.4036739355464436	-0.651854796536712	-0.5482910294355557	-0.46223672582095254	-0.4254958003273136	-0.38542925212112084	-1.137521887242634	2.3611021048667715	-0.24145734127431245	-0.28320837870678955	5.271916487225102	0.7982824700322465	-0.3709476780308945	-0.3048473998130456	-0.7333165911365267	-0.3118340473100409	-0.599945708727211	1.7996051456369657	-0.4603273902788415	-0.36885555678165877	-0.29775343088914713	-0.5445951256958484	1.129249467422068	-0.3540295569916722	-0.27573706286071076	-0.5279333569710825	-0.39358619998522626	-0.38542925212112084	-0.25237723256253436	2.1369760566432805	-0.594409394578389	-0.5888753633396349	-0.47364562275300215	-0.25237723256253436	-0.3410427545452439	-0.5980999726097406	-0.5962545433952522	-0.41365202089425585	-0.429414907892783	-0.7842748501762349	-0.25770378116168946	-0.5316409400090458	2.567276590262353	2.9321836827568095	-0.30013051991046036	-0.594409394578389	-0.4468922058820907	-0.4096732451993513	-0.5464433282985444	-0.24968173125224757	-0.46604845904772396	-0.7566404087133655	2.8593398146817353	0.295363476640788	-0.35616793867473684	-0.5612135332663137	-0.3209958085628648	1.8056035228235054	2.8418456954102456	-0.35402955699167216	2.4291616756158882	-0.37718809874266357	-0.3388506450924548	-0.4717494930441458	-0.3410427545452439	-0.4176149546551433	-0.27824333745610097	-0.3095165988026865	-0.39763517315406705	-0.5112037804398081	3.160196529531535	-0.34973107948392185	-0.6574549401173696	-0.24145734127431245	1.4625654666923127	-0.36465258274943624	3.3856589561212718	2.452918001623592	-0.17927197918702087	-0.31643601613227496	2.6957979769769964	-0.38131963485137044	-0.44109371155664995	-0.2856680199402452	-0.29296031766148345	-0.43136938400232516	2.8418456954102456	-0.25770378116168946	1.9633265553113415	-0.3410427545452439	-0.7198484689028785	-0.22723837615371514	-0.14416100751597005	-0.32776066832815337	-1.00359929178011
CHEMBL256193	1.0	1.7251638983558857	-0.3956130625887607	-0.3118340473100409	-0.29296031766148345	-0.5427463895880401	-0.27573706286071076	-0.40767771256034563	-0.21532745943554765	-0.2832083787067895	-0.30013051991046036	-0.40166551726626826	-0.4352685256926918	-0.31643601613227496	2.2473817294089486	-0.35829928604223926	1.385489234739996	-0.3709476780308946	2.758305172144738	-0.4488193945462509	-0.5667473261035905	-0.2523772325625343	-0.27824333745610097	-0.45650151414512014	-0.2243088616368177	-0.4849815466507112	-0.30013051991046036	-0.2856680199402452	-0.43915503282684	-0.5297875485756219	3.0100234158317467	-0.21532745943554762	-0.3895178274880811	-0.3792566630111541	0.638822694552945	-0.42156267823233634	-0.18626971424152214	1.301364048641568	-0.37303372633351084	-0.47743185531611554	0.8063483294820533	-0.41365202089425585	-0.3792566630111541	-0.35188398920288366	2.651197117123914	-0.2706746783336088	-0.8411696987931088	-0.4254958003273136	-0.2550510153051018	-0.40567797137318373	-0.6425414850946839	-0.5074742559794809	-0.3366501646120693	-0.37303372633351084	-0.5297875485756219	-0.38542925212112084	-0.17927197918702087	-0.4717494930441458	-0.32776066832815337	1.3423909351670966	-0.2732143382878626	-0.29775343088914713	-0.38542925212112084	-0.38131963485137044	-0.922735737730551	-1.0811249552346707	-0.33444112413495103	-0.6724387801454332	-0.6611938297887955	2.452918001623592	-0.36254146571550083	4.005098791107482	-0.36254146571550083	-0.28320837870678955	1.157123837032879	-1.0785232659674804	-0.6668108263973315	-0.19962605140237988	1.191759143062248	-0.16830069266853703	-0.3095165988026865	0.9774985999379038	0.06004805767690767	3.6266434030493486	-0.193046835626336	-0.24422258300730793	-0.16061919498779031	-0.31643601613227496	-0.4235310272854237	-0.41365202089425585	-0.22134808531896508	0.7605589428059089	-0.20916500663351886	-0.2550510153051018	-0.17927197918702087	-0.46223672582095254	-0.38131963485137044	1.3565161460232493	-0.39965262694272663	3.5620955335537996	-0.20284755894409	0.0	-0.35402955699167216	-0.4468922058820907	-0.13977131156292244	-0.4906253401206457	-0.6017917781166581	3.5309689796830366	0.49625462891182986	-0.3187210590100133	-0.23013785002169967	-0.4584156711285423	-0.3833771276146009	-0.5130667782177495	-0.42156267823233634	-0.4526656657028506	-0.21226474130316753	-0.2523772325625344	-0.35188398920288366	-0.2856680199402452	1.651568518538838	-0.332223329141004	1.224744871391589	-2.2473817294089486	-0.3209958085628648	2.8771127502720115	-1.1156270236570907	-0.2732143382878626	-0.33444112413495114	0.5186491689825814	-0.37303372633351084	-0.44302942524536426	-0.4352685256926918	-0.3024950709910101	-0.5427463895880402	-0.32999657932147997	-0.24422258300730793	0.7723718776597304	-0.43332056734305097	0.6481265518483904	-0.3048473998130456	-0.4849815466507112	-0.2732143382878626	-0.48309685381140866	-0.2832083787067895	-0.638822694552945	-0.37511382607638066	-0.218354746875495	-1.0156919662556663	-0.2243088616368177	-0.4056779713731837	-0.295363476640788	-0.39965262694272663	-0.20916500663351886	-0.26033619813883174	-0.23585120338693305	-0.5223656321567648	-0.32999657932147997	-0.2655425022718972	-1.0605102233558332	-0.332223329141004	-0.38131963485137044	-0.4036739355464436	-0.651854796536712	-0.5482910294355557	-0.46223672582095254	-0.4254958003273136	-0.38542925212112084	-1.137521887242634	2.3611021048667715	-0.24145734127431245	-0.28320837870678955	5.271916487225102	0.7982824700322465	-0.3709476780308945	-0.3048473998130456	-0.7333165911365267	-0.3118340473100409	-0.599945708727211	1.7996051456369657	-0.4603273902788415	-0.36885555678165877	-0.29775343088914713	-0.5445951256958484	1.129249467422068	-0.3540295569916722	-0.27573706286071076	-0.5279333569710825	-0.39358619998522626	-0.38542925212112084	-0.25237723256253436	2.1369760566432805	-0.594409394578389	-0.5888753633396349	-0.47364562275300215	-0.25237723256253436	-0.3410427545452439	-0.5980999726097406	-0.5962545433952522	-0.41365202089425585	-0.429414907892783	-0.7842748501762349	-0.25770378116168946	-0.5316409400090458	2.567276590262353	2.9321836827568095	-0.30013051991046036	-0.594409394578389	-0.4468922058820907	-0.4096732451993513	-0.5464433282985444	-0.24968173125224757	-0.46604845904772396	-0.7566404087133655	-0.3497310794839219	0.295363476640788	-0.35616793867473684	-0.5612135332663137	3.115305475411393	1.8056035228235054	2.8418456954102456	-0.35402955699167216	2.4291616756158882	2.651197117123914	-0.3388506450924548	-0.4717494930441458	2.9321836827568095	-0.4176149546551433	-0.27824333745610097	-0.3095165988026865	-0.39763517315406705	-0.5112037804398081	3.160196529531535	-0.34973107948392185	-0.6574549401173696	-0.24145734127431245	1.4625654666923127	-0.36465258274943624	-0.29536347664078805	2.452918001623592	-0.17927197918702087	-0.31643601613227496	2.6957979769769964	-0.38131963485137044	-0.44109371155664995	-0.2856680199402452	-0.29296031766148345	-0.43136938400232516	2.8418456954102456	-0.25770378116168946	1.9633265553113415	-0.3410427545452439	-0.7198484689028785	-0.22723837615371514	-0.14416100751597005	-0.32776066832815337	-1.00359929178011
CHEMBL248198	1.0	1.7251638983558857	-0.3956130625887607	-0.3118340473100409	-0.29296031766148345	-0.5427463895880401	-0.27573706286071076	-0.40767771256034563	-0.21532745943554765	-0.2832083787067895	-0.30013051991046036	-0.40166551726626826	2.2974323686937566	-0.31643601613227496	-0.44496223623878756	-0.35829928604223926	-0.7217667051650981	-0.3709476780308946	-0.36254146571550083	-0.4488193945462509	-0.5667473261035905	-0.2523772325625343	-0.27824333745610097	-0.45650151414512014	-0.2243088616368177	-0.4849815466507112	-0.30013051991046036	-0.2856680199402452	-0.43915503282684	1.8875490801710681	3.0100234158317467	-0.21532745943554762	-0.3895178274880811	-0.3792566630111541	0.638822694552945	-0.42156267823233634	-0.18626971424152214	-0.768424485864545	-0.37303372633351084	-0.47743185531611554	0.8063483294820533	-0.41365202089425585	-0.3792566630111541	-0.35188398920288366	-0.37718809874266357	-0.2706746783336088	1.1888207592769657	-0.4254958003273136	-0.2550510153051018	-0.40567797137318373	-0.6425414850946839	-0.5074742559794809	-0.3366501646120693	-0.37303372633351084	-0.5297875485756219	-0.38542925212112084	-0.17927197918702087	-0.4717494930441458	-0.32776066832815337	-0.7449394761262472	-0.2732143382878626	-0.29775343088914713	-0.38542925212112084	-0.38131963485137044	1.0837339003033295	-1.0811249552346707	-0.33444112413495103	1.487124225321631	1.5124158075090164	-0.40767771256034563	-0.36254146571550083	-0.24968173125224757	-0.36254146571550083	-0.28320837870678955	1.157123837032879	0.9271937208540033	-0.6668108263973315	-0.19962605140237988	-0.8390957231764808	-0.16830069266853703	3.2308444970910566	0.9774985999379038	0.06004805767690767	-0.27573706286071076	-0.193046835626336	-0.24422258300730793	-0.16061919498779031	-0.31643601613227496	-0.4235310272854237	2.4174909089967573	-0.22134808531896508	0.7605589428059089	-0.20916500663351886	-0.2550510153051018	-0.17927197918702087	-0.46223672582095254	-0.38131963485137044	1.3565161460232493	-0.39965262694272663	-0.2807336273214235	-0.20284755894409	0.0	2.8246229170733415	-0.4468922058820907	-0.13977131156292244	-0.4906253401206457	1.6617043242590608	-0.2832083787067895	0.49625462891182986	-0.3187210590100133	-0.23013785002169967	-0.4584156711285423	-0.3833771276146009	1.9490640252984617	-0.42156267823233634	-0.4526656657028506	-0.21226474130316753	-0.2523772325625344	-0.35188398920288366	-0.2856680199402452	-0.6054850215265134	-0.332223329141004	1.224744871391589	0.44496223623878756	-0.3209958085628648	-0.34757066781809537	-1.1156270236570907	-0.2732143382878626	-0.33444112413495114	0.5186491689825814	-0.37303372633351084	-0.44302942524536426	2.2974323686937566	-0.3024950709910101	-0.5427463895880402	-0.32999657932147997	-0.24422258300730793	0.7723718776597304	2.3077602942588245	-1.5429085525783546	-0.3048473998130456	-0.4849815466507112	-0.2732143382878626	-0.48309685381140866	-0.2832083787067895	1.5653795779747786	-0.37511382607638066	-0.218354746875495	-1.0156919662556663	-0.2243088616368177	2.4650093684285816	-0.295363476640788	-0.39965262694272663	-0.20916500663351886	-0.26033619813883174	-0.23585120338693305	1.9143679033231158	-0.32999657932147997	-0.2655425022718972	0.9429423479159332	-0.332223329141004	-0.38131963485137044	-0.4036739355464436	-0.651854796536712	-0.5482910294355557	-0.46223672582095254	-0.4254958003273136	2.5945098730745815	-1.137521887242634	-0.4235310272854237	4.141518310118099	-0.28320837870678955	-0.18968434011107688	0.7982824700322465	-0.3709476780308945	-0.3048473998130456	-0.7333165911365267	-0.3118340473100409	-0.599945708727211	1.7996051456369657	-0.4603273902788415	2.711088342345192	-0.29775343088914713	1.8362264971106095	1.129249467422068	-0.3540295569916722	-0.27573706286071076	-0.5279333569710825	-0.39358619998522626	2.5945098730745815	-0.25237723256253436	-0.46795096130874764	-0.594409394578389	1.6981522105608078	-0.47364562275300215	-0.25237723256253436	-0.3410427545452439	-0.5980999726097406	-0.5962545433952522	-0.41365202089425585	-0.429414907892783	-0.7842748501762349	-0.25770378116168946	-0.5316409400090458	-0.3895178274880811	2.9321836827568095	-0.30013051991046036	-0.594409394578389	-0.4468922058820907	-0.4096732451993513	-0.5464433282985444	-0.24968173125224757	-0.46604845904772396	1.3216317665355164	-0.3497310794839219	0.295363476640788	-0.35616793867473684	-0.5612135332663137	-0.3209958085628648	-0.553831440490465	-0.35188398920288366	2.8246229170733415	2.4291616756158882	-0.37718809874266357	-0.3388506450924548	-0.4717494930441458	-0.3410427545452439	2.394550264191991	-0.27824333745610097	-0.3095165988026865	-0.39763517315406705	-0.5112037804398081	-0.31643601613227496	-0.34973107948392185	1.5210167860651846	-0.24145734127431245	1.4625654666923127	-0.36465258274943624	-0.29536347664078805	-0.40767771256034563	-0.17927197918702087	-0.31643601613227496	-0.3709476780308946	2.6224718283646133	2.2670919439566055	-0.2856680199402452	-0.29296031766148345	-0.43136938400232516	-0.35188398920288366	-0.25770378116168946	1.9633265553113415	-0.3410427545452439	1.3891812557774845	-0.22723837615371514	-0.14416100751597005	-0.32776066832815337	-1.00359929178011
CHEMBL248011	1.0	1.7251638983558857	-0.3956130625887607	-0.3118340473100409	-0.29296031766148345	-0.5427463895880401	-0.27573706286071076	-0.40767771256034563	-0.21532745943554765	-0.2832083787067895	-0.30013051991046036	-0.40166551726626826	-0.4352685256926918	-0.31643601613227496	2.2473817294089486	-0.35829928604223926	-0.7217667051650981	-0.3709476780308946	-0.36254146571550083	-0.4488193945462509	-0.5667473261035905	-0.2523772325625343	-0.27824333745610097	-0.45650151414512014	-0.2243088616368177	-0.4849815466507112	-0.30013051991046036	-0.2856680199402452	-0.43915503282684	1.8875490801710681	-0.332223329141004	-0.21532745943554762	-0.3895178274880811	-0.3792566630111541	0.638822694552945	-0.42156267823233634	-0.18626971424152214	-0.768424485864545	-0.37303372633351084	-0.47743185531611554	0.8063483294820533	2.4174909089967573	-0.3792566630111541	-0.35188398920288366	-0.37718809874266357	-0.2706746783336088	-0.8411696987931088	-0.4254958003273136	-0.2550510153051018	-0.40567797137318373	-0.6425414850946839	1.9705433097682772	-0.3366501646120693	-0.37303372633351084	-0.5297875485756219	-0.38542925212112084	-0.17927197918702087	-0.4717494930441458	-0.32776066832815337	-0.7449394761262472	-0.2732143382878626	-0.29775343088914713	-0.38542925212112084	-0.38131963485137044	1.0837339003033295	-1.0811249552346707	-0.33444112413495103	1.487124225321631	1.5124158075090164	-0.40767771256034563	-0.36254146571550083	-0.24968173125224757	-0.36254146571550083	-0.28320837870678955	1.157123837032879	0.9271937208540033	1.4996757107301855	-0.19962605140237988	1.191759143062248	-0.16830069266853703	-0.3095165988026865	0.9774985999379038	0.06004805767690767	-0.27573706286071076	-0.193046835626336	-0.24422258300730793	-0.16061919498779031	-0.31643601613227496	-0.4235310272854237	2.4174909089967573	-0.22134808531896508	0.7605589428059089	-0.20916500663351886	-0.2550510153051018	5.5781165831653805	-0.46223672582095254	-0.38131963485137044	1.3565161460232493	-0.39965262694272663	-0.2807336273214235	-0.20284755894409	0.0	2.8246229170733415	-0.4468922058820907	-0.13977131156292244	-0.4906253401206457	1.6617043242590608	-0.2832083787067895	0.49625462891182986	-0.3187210590100133	-0.23013785002169967	-0.4584156711285423	-0.3833771276146009	-0.5130667782177495	-0.42156267823233634	-0.4526656657028506	-0.21226474130316753	-0.2523772325625344	-0.35188398920288366	3.5005668475217346	-0.6054850215265134	-0.332223329141004	1.224744871391589	0.44496223623878756	-0.3209958085628648	-0.34757066781809537	-1.1156270236570907	-0.2732143382878626	-0.33444112413495114	0.5186491689825814	-0.37303372633351084	-0.44302942524536426	-0.4352685256926918	-0.3024950709910101	-0.5427463895880402	-0.32999657932147997	-0.24422258300730793	0.7723718776597304	2.3077602942588245	-1.5429085525783546	-0.3048473998130456	-0.4849815466507112	-0.2732143382878626	-0.48309685381140866	3.5309689796830366	-0.638822694552945	-0.37511382607638066	-0.218354746875495	-1.0156919662556663	-0.2243088616368177	2.4650093684285816	-0.295363476640788	-0.39965262694272663	-0.20916500663351886	-0.26033619813883174	-0.23585120338693305	1.9143679033231158	-0.32999657932147997	-0.2655425022718972	0.9429423479159332	-0.332223329141004	-0.38131963485137044	-0.4036739355464436	-0.651854796536712	-0.5482910294355557	2.163393655542962	-0.4254958003273136	-0.38542925212112084	0.8791039638138402	-0.4235310272854237	-0.24145734127431245	-0.28320837870678955	-0.18968434011107688	0.7982824700322465	-0.3709476780308945	-0.3048473998130456	-0.7333165911365267	-0.3118340473100409	-0.599945708727211	1.7996051456369657	-0.4603273902788415	-0.36885555678165877	-0.29775343088914713	-0.5445951256958484	1.129249467422068	-0.3540295569916722	-0.27573706286071076	-0.5279333569710825	-0.39358619998522626	2.5945098730745815	-0.25237723256253436	-0.46795096130874764	-0.594409394578389	-0.5888753633396349	-0.47364562275300215	-0.25237723256253436	-0.3410427545452439	-0.5980999726097406	-0.5962545433952522	-0.41365202089425585	-0.429414907892783	-0.7842748501762349	-0.25770378116168946	-0.5316409400090458	-0.3895178274880811	-0.3410427545452439	-0.30013051991046036	-0.594409394578389	-0.4468922058820907	-0.4096732451993513	-0.5464433282985444	-0.24968173125224757	-0.46604845904772396	1.3216317665355164	-0.3497310794839219	0.295363476640788	-0.35616793867473684	-0.5612135332663137	-0.3209958085628648	-0.553831440490465	-0.35188398920288366	2.8246229170733415	2.4291616756158882	-0.37718809874266357	-0.3388506450924548	-0.4717494930441458	-0.3410427545452439	2.394550264191991	-0.27824333745610097	-0.3095165988026865	-0.39763517315406705	-0.5112037804398081	-0.31643601613227496	-0.34973107948392185	1.5210167860651846	-0.24145734127431245	1.4625654666923127	-0.36465258274943624	-0.29536347664078805	2.452918001623592	-0.17927197918702087	-0.31643601613227496	-0.3709476780308946	2.6224718283646133	2.2670919439566055	-0.2856680199402452	-0.29296031766148345	-0.43136938400232516	-0.35188398920288366	-0.25770378116168946	1.9633265553113415	-0.3410427545452439	-0.7198484689028785	-0.22723837615371514	-0.14416100751597005	-0.32776066832815337	-1.00359929178011
CHEMBL245601	1.0	1.7251638983558857	2.5277223999034093	-0.3118340473100409	-0.29296031766148345	-0.5427463895880401	-0.27573706286071076	-0.40767771256034563	-0.21532745943554765	-0.2832083787067895	-0.30013051991046036	-0.40166551726626826	-0.4352685256926918	-0.31643601613227496	-0.44496223623878756	-0.35829928604223926	-0.7217667051650981	-0.3709476780308946	-0.36254146571550083	-0.4488193945462509	-0.5667473261035905	-0.2523772325625343	-0.27824333745610097	-0.45650151414512014	-0.2243088616368177	-0.4849815466507112	-0.30013051991046036	-0.2856680199402452	2.2771001702132443	1.8875490801710681	-0.332223329141004	-0.21532745943554762	-0.3895178274880811	-0.3792566630111541	0.638822694552945	-0.42156267823233634	-0.18626971424152214	-0.768424485864545	-0.37303372633351084	-0.47743185531611554	0.8063483294820533	-0.41365202089425585	-0.3792566630111541	-0.35188398920288366	-0.37718809874266357	-0.2706746783336088	-0.8411696987931088	-0.4254958003273136	-0.2550510153051018	-0.40567797137318373	-0.6425414850946839	-0.5074742559794809	-0.3366501646120693	-0.37303372633351084	-0.5297875485756219	-0.38542925212112084	-0.17927197918702087	-0.4717494930441458	-0.32776066832815337	-0.7449394761262472	-0.2732143382878626	-0.29775343088914713	-0.38542925212112084	-0.38131963485137044	1.0837339003033295	-1.0811249552346707	-0.33444112413495103	1.487124225321631	1.5124158075090164	2.452918001623592	-0.36254146571550083	-0.24968173125224757	-0.36254146571550083	-0.28320837870678955	1.157123837032879	0.9271937208540033	-0.6668108263973315	-0.19962605140237988	-0.8390957231764808	-0.16830069266853703	-0.3095165988026865	0.9774985999379038	0.06004805767690767	-0.27573706286071076	-0.193046835626336	-0.24422258300730793	-0.16061919498779031	-0.31643601613227496	2.3611021048667715	2.4174909089967573	-0.22134808531896508	0.7605589428059089	-0.20916500663351886	-0.2550510153051018	-0.17927197918702087	-0.46223672582095254	-0.38131963485137044	1.3565161460232493	-0.39965262694272663	3.5620955335537996	-0.20284755894409	0.0	2.8246229170733415	-0.4468922058820907	-0.13977131156292244	-0.4906253401206457	1.6617043242590608	-0.2832083787067895	0.49625462891182986	-0.3187210590100133	-0.23013785002169967	2.181426297094443	-0.3833771276146009	-0.5130667782177495	2.3721264989422735	-0.4526656657028506	-0.21226474130316753	-0.2523772325625344	-0.35188398920288366	3.5005668475217346	-0.6054850215265134	-0.332223329141004	1.224744871391589	0.44496223623878756	-0.3209958085628648	-0.34757066781809537	-1.1156270236570907	-0.2732143382878626	-0.33444112413495114	0.5186491689825814	-0.37303372633351084	-0.44302942524536426	-0.4352685256926918	-0.3024950709910101	-0.5427463895880402	-0.32999657932147997	-0.24422258300730793	0.7723718776597304	2.3077602942588245	-1.5429085525783546	3.2803297670023497	2.061934122867175	-0.2732143382878626	-0.48309685381140866	-0.2832083787067895	-0.638822694552945	-0.37511382607638066	-0.218354746875495	-1.0156919662556663	-0.2243088616368177	2.4650093684285816	-0.295363476640788	-0.39965262694272663	-0.20916500663351886	-0.26033619813883174	-0.23585120338693305	1.9143679033231158	-0.32999657932147997	-0.2655425022718972	0.9429423479159332	-0.332223329141004	-0.38131963485137044	-0.4036739355464436	-0.651854796536712	-0.5482910294355557	-0.46223672582095254	-0.4254958003273136	-0.38542925212112084	-1.137521887242634	-0.4235310272854237	-0.24145734127431245	-0.28320837870678955	-0.18968434011107688	0.7982824700322465	-0.3709476780308945	-0.3048473998130456	-0.7333165911365267	-0.3118340473100409	-0.599945708727211	1.7996051456369657	-0.4603273902788415	-0.36885555678165877	-0.29775343088914713	-0.5445951256958484	1.129249467422068	-0.3540295569916722	-0.27573706286071076	-0.5279333569710825	-0.39358619998522626	2.5945098730745815	-0.25237723256253436	-0.46795096130874764	-0.594409394578389	-0.5888753633396349	-0.47364562275300215	-0.25237723256253436	-0.3410427545452439	-0.5980999726097406	-0.5962545433952522	-0.41365202089425585	-0.429414907892783	-0.7842748501762349	-0.25770378116168946	-0.5316409400090458	-0.3895178274880811	-0.3410427545452439	-0.30013051991046036	-0.594409394578389	-0.4468922058820907	-0.4096732451993513	-0.5464433282985444	-0.24968173125224757	-0.46604845904772396	1.3216317665355164	-0.3497310794839219	0.295363476640788	-0.35616793867473684	-0.5612135332663137	-0.3209958085628648	-0.553831440490465	-0.35188398920288366	2.8246229170733415	2.4291616756158882	-0.37718809874266357	-0.3388506450924548	-0.4717494930441458	-0.3410427545452439	2.394550264191991	-0.27824333745610097	-0.3095165988026865	-0.39763517315406705	-0.5112037804398081	-0.31643601613227496	-0.34973107948392185	1.5210167860651846	-0.24145734127431245	1.4625654666923127	-0.36465258274943624	-0.29536347664078805	-0.40767771256034563	-0.17927197918702087	-0.31643601613227496	-0.3709476780308946	2.6224718283646133	2.2670919439566055	-0.2856680199402452	3.413431580025466	-0.43136938400232516	-0.35188398920288366	-0.25770378116168946	1.9633265553113415	-0.3410427545452439	-0.7198484689028785	-0.22723837615371514	-0.14416100751597005	-0.32776066832815337	-1.00359929178011
CHEMBL221633	1.0	-0.5796550698475775	-0.3956130625887607	-0.3118340473100409	-0.29296031766148345	-0.5427463895880401	-0.27573706286071076	-0.40767771256034563	-0.21532745943554765	-0.2832083787067895	-0.30013051991046036	-0.40166551726626826	2.2974323686937566	-0.31643601613227496	-0.44496223623878756	-0.35829928604223926	-0.7217667051650981	2.6957979769769964	-0.36254146571550083	-0.4488193945462509	-0.5667473261035905	-0.2523772325625343	-0.27824333745610097	-0.45650151414512014	-0.2243088616368177	-0.4849815466507112	3.3318837427740964	-0.2856680199402452	-0.43915503282684	-0.5297875485756219	-0.332223329141004	-0.21532745943554762	-0.3895178274880811	-0.3792566630111541	0.638822694552945	-0.42156267823233634	-0.18626971424152214	-0.768424485864545	-0.37303372633351084	-0.47743185531611554	0.8063483294820533	-0.41365202089425585	-0.3792566630111541	-0.35188398920288366	-0.37718809874266357	3.6944719253253977	-0.8411696987931088	-0.4254958003273136	-0.2550510153051018	-0.40567797137318373	-0.6425414850946839	-0.5074742559794809	2.9704426289300234	-0.37303372633351084	1.8875490801710681	2.5945098730745815	-0.17927197918702087	2.119769103612839	3.0510067150546623	-0.7449394761262472	-0.2732143382878626	-0.29775343088914713	-0.38542925212112084	-0.38131963485137044	1.0837339003033295	0.9249624617007738	-0.33444112413495103	-0.6724387801454332	1.5124158075090164	-0.40767771256034563	-0.36254146571550083	-0.24968173125224757	-0.36254146571550083	-0.28320837870678955	1.157123837032879	0.9271937208540033	-0.6668108263973315	-0.19962605140237988	1.191759143062248	-0.16830069266853703	-0.3095165988026865	0.9774985999379038	0.06004805767690767	-0.27573706286071076	-0.193046835626336	-0.24422258300730793	-0.16061919498779031	-0.31643601613227496	-0.4235310272854237	2.4174909089967573	-0.22134808531896508	0.7605589428059089	-0.20916500663351886	-0.2550510153051018	-0.17927197918702087	-0.46223672582095254	2.6224718283646133	-0.737182526674372	-0.39965262694272663	-0.2807336273214235	-0.20284755894409	0.0	-0.35402955699167216	-0.4468922058820907	-0.13977131156292244	-0.4906253401206457	1.6617043242590608	-0.2832083787067895	0.49625462891182986	-0.3187210590100133	-0.23013785002169967	-0.4584156711285423	-0.3833771276146009	-0.5130667782177495	-0.42156267823233634	2.2091359600850384	-0.21226474130316753	-0.2523772325625344	-0.35188398920288366	-0.2856680199402452	1.651568518538838	-0.332223329141004	-0.816496580927726	0.44496223623878756	-0.3209958085628648	-0.34757066781809537	0.8963569174955458	-0.2732143382878626	-0.33444112413495114	0.5186491689825814	-0.37303372633351084	-0.44302942524536426	-0.4352685256926918	-0.3024950709910101	-0.5427463895880402	-0.32999657932147997	-0.24422258300730793	-1.2947131154360225	-0.43332056734305097	0.6481265518483904	-0.3048473998130456	-0.4849815466507112	-0.2732143382878626	-0.48309685381140866	-0.2832083787067895	1.5653795779747786	2.6658574824068997	-0.218354746875495	0.9845504672902804	-0.2243088616368177	2.4650093684285816	-0.295363476640788	-0.39965262694272663	-0.20916500663351886	-0.26033619813883174	-0.23585120338693305	-0.5223656321567648	-0.32999657932147997	-0.2655425022718972	0.9429423479159332	-0.332223329141004	-0.38131963485137044	2.4772468865157817	-0.651854796536712	-0.5482910294355557	-0.46223672582095254	-0.4254958003273136	-0.38542925212112084	0.8791039638138402	-0.4235310272854237	-0.24145734127431245	-0.28320837870678955	-0.18968434011107688	-1.2526894145121406	-0.3709476780308945	-0.3048473998130456	-0.7333165911365267	-0.3118340473100409	-0.599945708727211	-0.5556774509255208	2.172366930836451	-0.36885555678165877	-0.29775343088914713	1.8362264971106095	1.129249467422068	-0.3540295569916722	-0.27573706286071076	-0.5279333569710825	-0.39358619998522626	-0.38542925212112084	-0.25237723256253436	-0.46795096130874764	-0.594409394578389	-0.5888753633396349	-0.47364562275300215	-0.25237723256253436	-0.3410427545452439	-0.5980999726097406	1.6771360672670106	-0.41365202089425585	-0.429414907892783	1.2750631998148219	-0.25770378116168946	-0.5316409400090458	-0.3895178274880811	-0.3410427545452439	-0.30013051991046036	-0.594409394578389	-0.4468922058820907	-0.4096732451993513	1.8300159379998127	-0.24968173125224757	-0.46604845904772396	1.3216317665355164	2.8593398146817353	0.295363476640788	-0.35616793867473684	-0.5612135332663137	-0.3209958085628648	1.8056035228235054	-0.35188398920288366	-0.35402955699167216	-0.4116646537108158	-0.37718809874266357	-0.3388506450924548	-0.4717494930441458	-0.3410427545452439	-0.4176149546551433	-0.27824333745610097	-0.3095165988026865	2.51486806880774	-0.5112037804398081	-0.31643601613227496	2.859339814681735	-0.6574549401173696	-0.24145734127431245	1.4625654666923127	-0.36465258274943624	-0.29536347664078805	2.452918001623592	-0.17927197918702087	-0.31643601613227496	-0.3709476780308946	-0.38131963485137044	-0.44109371155664995	-0.2856680199402452	-0.29296031766148345	-0.43136938400232516	-0.35188398920288366	-0.25770378116168946	-0.5093396191757931	-0.3410427545452439	-0.7198484689028785	-0.22723837615371514	-0.14416100751597005	3.0510067150546623	0.9964136166599662
CHEMBL488230	1.0	-0.5796550698475775	2.5277223999034093	-0.3118340473100409	-0.29296031766148345	1.8424811646541364	-0.27573706286071076	-0.40767771256034563	-0.21532745943554765	-0.2832083787067895	-0.30013051991046036	-0.40166551726626826	-0.4352685256926918	-0.31643601613227496	-0.44496223623878756	-0.35829928604223926	-0.7217667051650981	2.6957979769769964	-0.36254146571550083	-0.4488193945462509	1.7644547295441833	-0.2523772325625343	-0.27824333745610097	-0.45650151414512014	-0.2243088616368177	2.061934122867175	-0.30013051991046036	-0.2856680199402452	-0.43915503282684	1.8875490801710681	3.0100234158317467	-0.21532745943554762	-0.3895178274880811	-0.3792566630111541	-1.5653795779747786	-0.42156267823233634	-0.18626971424152214	-0.768424485864545	-0.37303372633351084	-0.47743185531611554	0.8063483294820533	-0.41365202089425585	-0.3792566630111541	-0.35188398920288366	-0.37718809874266357	-0.2706746783336088	1.1888207592769657	-0.4254958003273136	-0.2550510153051018	-0.40567797137318373	1.5563197446350745	1.9705433097682772	-0.3366501646120693	-0.37303372633351084	-0.5297875485756219	-0.38542925212112084	-0.17927197918702087	2.119769103612839	-0.32776066832815337	-0.7449394761262472	-0.2732143382878626	-0.29775343088914713	-0.38542925212112084	2.6224718283646133	-0.922735737730551	0.9249624617007738	-0.33444112413495103	-0.6724387801454332	1.5124158075090164	-0.40767771256034563	-0.36254146571550083	-0.24968173125224757	-0.36254146571550083	-0.28320837870678955	-0.8642117360266479	0.9271937208540033	-0.6668108263973315	-0.19962605140237988	1.191759143062248	-0.16830069266853703	-0.3095165988026865	-1.023019368072267	0.06004805767690767	-0.27573706286071076	-0.193046835626336	-0.24422258300730793	-0.16061919498779031	-0.31643601613227496	-0.4235310272854237	-0.41365202089425585	-0.22134808531896508	0.7605589428059089	4.780914437337574	-0.2550510153051018	-0.17927197918702087	2.163393655542962	-0.38131963485137044	-0.737182526674372	-0.39965262694272663	3.5620955335537996	-0.20284755894409	0.0	-0.35402955699167216	-0.4468922058820907	-0.13977131156292244	-0.4906253401206457	-0.6017917781166581	-0.2832083787067895	0.49625462891182986	-0.3187210590100133	-0.23013785002169967	-0.4584156711285423	-0.3833771276146009	-0.5130667782177495	-0.42156267823233634	-0.4526656657028506	-0.21226474130316753	-0.2523772325625344	-0.35188398920288366	-0.2856680199402452	-0.6054850215265134	-0.332223329141004	-0.816496580927726	0.44496223623878756	-0.3209958085628648	-0.34757066781809537	0.8963569174955458	-0.2732143382878626	-0.33444112413495114	0.5186491689825814	-0.37303372633351084	-0.44302942524536426	2.2974323686937566	-0.3024950709910101	-0.5427463895880402	-0.32999657932147997	-0.24422258300730793	0.7723718776597304	2.3077602942588245	0.6481265518483904	-0.3048473998130456	2.061934122867175	-0.2732143382878626	-0.48309685381140866	-0.2832083787067895	-0.638822694552945	-0.37511382607638066	-0.218354746875495	0.9845504672902804	-0.2243088616368177	-0.4056779713731837	-0.295363476640788	-0.39965262694272663	-0.20916500663351886	-0.26033619813883174	-0.23585120338693305	-0.5223656321567648	-0.32999657932147997	-0.2655425022718972	0.9429423479159332	-0.332223329141004	-0.38131963485137044	-0.4036739355464436	1.5340839789980452	1.8238489165680147	-0.46223672582095254	-0.4254958003273136	-0.38542925212112084	-1.137521887242634	-0.4235310272854237	-0.24145734127431245	-0.28320837870678955	-0.18968434011107688	-1.2526894145121406	-0.3709476780308945	-0.3048473998130456	-0.7333165911365267	3.206833918958664	1.6668174894050114	-0.5556774509255208	-0.4603273902788415	-0.36885555678165877	3.358483551352586	-0.5445951256958484	-0.8855439199655962	-0.3540295569916722	-0.27573706286071076	-0.5279333569710825	-0.39358619998522626	-0.38542925212112084	-0.25237723256253436	-0.46795096130874764	-0.594409394578389	-0.5888753633396349	-0.47364562275300215	-0.25237723256253436	-0.3410427545452439	-0.5980999726097406	1.6771360672670106	-0.41365202089425585	2.328750077418554	-0.7842748501762349	-0.25770378116168946	-0.5316409400090458	-0.3895178274880811	-0.3410427545452439	-0.30013051991046036	-0.594409394578389	-0.4468922058820907	-0.4096732451993513	1.8300159379998127	-0.24968173125224757	-0.46604845904772396	-0.7566404087133655	-0.3497310794839219	0.295363476640788	-0.35616793867473684	-0.5612135332663137	-0.3209958085628648	-0.553831440490465	-0.35188398920288366	-0.35402955699167216	-0.4116646537108158	-0.37718809874266357	-0.3388506450924548	2.119769103612839	-0.3410427545452439	-0.4176149546551433	-0.27824333745610097	-0.3095165988026865	-0.39763517315406705	1.9561670673477052	-0.31643601613227496	-0.34973107948392185	-0.6574549401173696	-0.24145734127431245	-0.6837300775749651	-0.36465258274943624	-0.29536347664078805	-0.40767771256034563	-0.17927197918702087	-0.31643601613227496	-0.3709476780308946	-0.38131963485137044	-0.44109371155664995	-0.2856680199402452	-0.29296031766148345	2.3181988270048617	-0.35188398920288366	-0.25770378116168946	-0.5093396191757931	-0.3410427545452439	1.3891812557774845	-0.22723837615371514	-0.14416100751597005	-0.32776066832815337	0.9964136166599662
CHEMBL206213	1.0	1.7251638983558857	-0.3956130625887607	-0.3118340473100409	-0.29296031766148345	-0.5427463895880401	-0.27573706286071076	2.452918001623592	-0.21532745943554765	-0.2832083787067895	-0.30013051991046036	-0.40166551726626826	-0.4352685256926918	-0.31643601613227496	2.2473817294089486	-0.35829928604223926	-0.7217667051650981	-0.3709476780308946	-0.36254146571550083	-0.4488193945462509	-0.5667473261035905	-0.2523772325625343	-0.27824333745610097	2.190573238015819	-0.2243088616368177	2.061934122867175	-0.30013051991046036	-0.2856680199402452	-0.43915503282684	1.8875490801710681	-0.332223329141004	-0.21532745943554762	-0.3895178274880811	-0.3792566630111541	0.638822694552945	2.3721264989422735	-0.18626971424152214	1.301364048641568	-0.37303372633351084	2.0945397523545712	0.8063483294820533	-0.41365202089425585	2.6367367999823097	-0.35188398920288366	-0.37718809874266357	-0.2706746783336088	-0.8411696987931088	-0.4254958003273136	-0.2550510153051018	-0.40567797137318373	1.5563197446350745	-0.5074742559794809	-0.3366501646120693	-0.37303372633351084	-0.5297875485756219	-0.38542925212112084	-0.17927197918702087	2.119769103612839	-0.32776066832815337	-0.7449394761262472	-0.2732143382878626	-0.29775343088914713	2.5945098730745815	-0.38131963485137044	-0.922735737730551	-1.0811249552346707	-0.33444112413495103	-0.6724387801454332	-0.6611938297887955	-0.40767771256034563	-0.36254146571550083	-0.24968173125224757	-0.36254146571550083	-0.28320837870678955	1.157123837032879	0.9271937208540033	1.4996757107301855	-0.19962605140237988	-0.8390957231764808	-0.16830069266853703	-0.3095165988026865	0.9774985999379038	0.06004805767690767	-0.27573706286071076	-0.193046835626336	-0.24422258300730793	-0.16061919498779031	-0.31643601613227496	-0.4235310272854237	-0.41365202089425585	-0.22134808531896508	-1.3148224860925677	-0.20916500663351886	-0.2550510153051018	-0.17927197918702087	-0.46223672582095254	-0.38131963485137044	-0.737182526674372	2.502172968684897	-0.2807336273214235	-0.20284755894409	0.0	-0.35402955699167216	2.237676081251332	-0.13977131156292244	2.038215147538238	1.6617043242590608	-0.2832083787067895	0.49625462891182986	-0.3187210590100133	-0.23013785002169967	2.181426297094443	-0.3833771276146009	1.9490640252984617	-0.42156267823233634	-0.4526656657028506	-0.21226474130316753	-0.2523772325625344	-0.35188398920288366	-0.2856680199402452	-0.6054850215265134	3.0100234158317467	-0.816496580927726	0.44496223623878756	-0.3209958085628648	2.8771127502720115	0.8963569174955458	-0.2732143382878626	-0.33444112413495114	0.5186491689825814	-0.37303372633351084	-0.44302942524536426	-0.4352685256926918	-0.3024950709910101	-0.5427463895880402	-0.32999657932147997	-0.24422258300730793	-1.2947131154360225	-0.43332056734305097	0.6481265518483904	-0.3048473998130456	-0.4849815466507112	3.66013001464947	-0.48309685381140866	-0.2832083787067895	-0.638822694552945	-0.37511382607638066	-0.218354746875495	0.9845504672902804	-0.2243088616368177	-0.4056779713731837	-0.295363476640788	-0.39965262694272663	-0.20916500663351886	-0.26033619813883174	-0.23585120338693305	-0.5223656321567648	3.0303344418179807	-0.2655425022718972	-1.0605102233558332	3.010023415831747	-0.38131963485137044	-0.4036739355464436	1.5340839789980452	1.8238489165680147	-0.46223672582095254	2.350199459620396	-0.38542925212112084	-1.137521887242634	-0.4235310272854237	-0.24145734127431245	-0.28320837870678955	-0.18968434011107688	0.7982824700322465	-0.3709476780308945	-0.3048473998130456	-0.7333165911365267	-0.3118340473100409	-0.599945708727211	1.7996051456369657	-0.4603273902788415	-0.36885555678165877	-0.29775343088914713	-0.5445951256958484	1.129249467422068	-0.3540295569916722	-0.27573706286071076	-0.5279333569710825	-0.39358619998522626	-0.38542925212112084	-0.25237723256253436	-0.46795096130874764	-0.594409394578389	-0.5888753633396349	-0.47364562275300215	-0.25237723256253436	-0.3410427545452439	-0.5980999726097406	1.6771360672670106	-0.41365202089425585	-0.429414907892783	1.2750631998148219	-0.25770378116168946	-0.5316409400090458	-0.3895178274880811	-0.3410427545452439	-0.30013051991046036	1.6823421855727798	-0.4468922058820907	-0.4096732451993513	-0.5464433282985444	-0.24968173125224757	-0.46604845904772396	-0.7566404087133655	-0.3497310794839219	0.295363476640788	-0.35616793867473684	-0.5612135332663137	-0.3209958085628648	-0.553831440490465	-0.35188398920288366	-0.35402955699167216	-0.4116646537108158	-0.37718809874266357	-0.3388506450924548	-0.4717494930441458	-0.3410427545452439	-0.4176149546551433	-0.27824333745610097	-0.3095165988026865	-0.39763517315406705	-0.5112037804398081	-0.31643601613227496	-0.34973107948392185	-0.6574549401173696	4.141518310118099	-0.6837300775749651	-0.36465258274943624	-0.29536347664078805	-0.40767771256034563	-0.17927197918702087	-0.31643601613227496	-0.3709476780308946	-0.38131963485137044	-0.44109371155664995	-0.2856680199402452	-0.29296031766148345	-0.43136938400232516	-0.35188398920288366	-0.25770378116168946	1.9633265553113415	-0.3410427545452439	1.3891812557774845	-0.22723837615371514	-0.14416100751597005	-0.32776066832815337	0.9964136166599662
CHEMBL398750	1.0	1.7251638983558857	-0.3956130625887607	-0.3118340473100409	-0.29296031766148345	-0.5427463895880401	-0.27573706286071076	-0.40767771256034563	-0.21532745943554765	-0.2832083787067895	-0.30013051991046036	-0.40166551726626826	-0.4352685256926918	-0.31643601613227496	-0.44496223623878756	-0.35829928604223926	-0.7217667051650981	-0.3709476780308946	-0.36254146571550083	-0.4488193945462509	-0.5667473261035905	-0.2523772325625343	-0.27824333745610097	2.190573238015819	-0.2243088616368177	-0.4849815466507112	-0.30013051991046036	-0.2856680199402452	-0.43915503282684	1.8875490801710681	-0.332223329141004	-0.21532745943554762	-0.3895178274880811	-0.3792566630111541	0.638822694552945	-0.42156267823233634	-0.18626971424152214	1.301364048641568	-0.37303372633351084	-0.47743185531611554	-1.240158828929845	-0.41365202089425585	-0.3792566630111541	-0.35188398920288366	-0.37718809874266357	-0.2706746783336088	-0.8411696987931088	-0.4254958003273136	-0.2550510153051018	-0.40567797137318373	-0.6425414850946839	-0.5074742559794809	-0.3366501646120693	-0.37303372633351084	-0.5297875485756219	-0.38542925212112084	-0.17927197918702087	-0.4717494930441458	-0.32776066832815337	-0.7449394761262472	-0.2732143382878626	-0.29775343088914713	-0.38542925212112084	-0.38131963485137044	-0.922735737730551	-1.0811249552346707	-0.33444112413495103	-0.6724387801454332	1.5124158075090164	-0.40767771256034563	-0.36254146571550083	-0.24968173125224757	-0.36254146571550083	-0.28320837870678955	1.157123837032879	0.9271937208540033	-0.6668108263973315	-0.19962605140237988	-0.8390957231764808	-0.16830069266853703	-0.3095165988026865	0.9774985999379038	0.06004805767690767	-0.27573706286071076	-0.193046835626336	-0.24422258300730793	-0.16061919498779031	-0.31643601613227496	-0.4235310272854237	2.4174909089967573	-0.22134808531896508	0.7605589428059089	-0.20916500663351886	-0.2550510153051018	-0.17927197918702087	-0.46223672582095254	-0.38131963485137044	1.3565161460232493	-0.39965262694272663	-0.2807336273214235	-0.20284755894409	0.0	2.8246229170733415	-0.4468922058820907	-0.13977131156292244	2.038215147538238	1.6617043242590608	-0.2832083787067895	0.49625462891182986	-0.3187210590100133	-0.23013785002169967	-0.4584156711285423	-0.3833771276146009	1.9490640252984617	-0.42156267823233634	-0.4526656657028506	-0.21226474130316753	-0.2523772325625344	-0.35188398920288366	-0.2856680199402452	-0.6054850215265134	-0.332223329141004	-0.816496580927726	0.44496223623878756	-0.3209958085628648	-0.34757066781809537	-1.1156270236570907	-0.2732143382878626	-0.33444112413495114	0.5186491689825814	-0.37303372633351084	-0.44302942524536426	-0.4352685256926918	-0.3024950709910101	-0.5427463895880402	-0.32999657932147997	-0.24422258300730793	0.7723718776597304	2.3077602942588245	-1.5429085525783546	-0.3048473998130456	-0.4849815466507112	-0.2732143382878626	-0.48309685381140866	-0.2832083787067895	-0.638822694552945	2.6658574824068997	-0.218354746875495	-1.0156919662556663	-0.2243088616368177	2.4650093684285816	-0.295363476640788	-0.39965262694272663	-0.20916500663351886	-0.26033619813883174	-0.23585120338693305	1.9143679033231158	-0.32999657932147997	-0.2655425022718972	0.9429423479159332	-0.332223329141004	-0.38131963485137044	-0.4036739355464436	1.5340839789980452	-0.5482910294355557	-0.46223672582095254	2.350199459620396	2.5945098730745815	-1.137521887242634	-0.4235310272854237	-0.24145734127431245	-0.28320837870678955	-0.18968434011107688	0.7982824700322465	-0.3709476780308945	-0.3048473998130456	-0.7333165911365267	-0.3118340473100409	-0.599945708727211	1.7996051456369657	-0.4603273902788415	-0.36885555678165877	-0.29775343088914713	-0.5445951256958484	1.129249467422068	-0.3540295569916722	-0.27573706286071076	-0.5279333569710825	-0.39358619998522626	2.5945098730745815	-0.25237723256253436	-0.46795096130874764	-0.594409394578389	1.6981522105608078	-0.47364562275300215	-0.25237723256253436	-0.3410427545452439	-0.5980999726097406	-0.5962545433952522	-0.41365202089425585	-0.429414907892783	-0.7842748501762349	-0.25770378116168946	-0.5316409400090458	-0.3895178274880811	-0.3410427545452439	-0.30013051991046036	1.6823421855727798	2.237676081251332	-0.4096732451993513	-0.5464433282985444	-0.24968173125224757	-0.46604845904772396	1.3216317665355164	-0.3497310794839219	0.295363476640788	-0.35616793867473684	-0.5612135332663137	-0.3209958085628648	-0.553831440490465	-0.35188398920288366	2.8246229170733415	2.4291616756158882	-0.37718809874266357	-0.3388506450924548	-0.4717494930441458	-0.3410427545452439	-0.4176149546551433	-0.27824333745610097	-0.3095165988026865	-0.39763517315406705	-0.5112037804398081	-0.31643601613227496	-0.34973107948392185	-0.6574549401173696	-0.24145734127431245	-0.6837300775749651	-0.36465258274943624	-0.29536347664078805	-0.40767771256034563	-0.17927197918702087	-0.31643601613227496	-0.3709476780308946	-0.38131963485137044	2.2670919439566055	-0.2856680199402452	-0.29296031766148345	-0.43136938400232516	-0.35188398920288366	-0.25770378116168946	1.9633265553113415	-0.3410427545452439	-0.7198484689028785	-0.22723837615371514	-0.14416100751597005	-0.32776066832815337	0.9964136166599662
CHEMBL249283	1.0	-0.5796550698475775	-0.3956130625887607	-0.3118340473100409	-0.29296031766148345	-0.5427463895880401	-0.27573706286071076	-0.40767771256034563	-0.21532745943554765	-0.2832083787067895	-0.30013051991046036	2.489633680296956	-0.4352685256926918	-0.31643601613227496	2.2473817294089486	-0.35829928604223926	-0.7217667051650981	-0.3709476780308946	-0.36254146571550083	-0.4488193945462509	-0.5667473261035905	3.962322551231789	-0.27824333745610097	2.190573238015819	-0.2243088616368177	-0.4849815466507112	-0.30013051991046036	-0.2856680199402452	-0.43915503282684	1.8875490801710681	-0.332223329141004	-0.21532745943554762	-0.3895178274880811	-0.3792566630111541	0.638822694552945	-0.42156267823233634	-0.18626971424152214	1.301364048641568	-0.37303372633351084	-0.47743185531611554	0.8063483294820533	-0.41365202089425585	-0.3792566630111541	-0.35188398920288366	-0.37718809874266357	-0.2706746783336088	-0.8411696987931088	-0.4254958003273136	-0.2550510153051018	-0.40567797137318373	-0.6425414850946839	-0.5074742559794809	-0.3366501646120693	-0.37303372633351084	1.8875490801710681	-0.38542925212112084	-0.17927197918702087	-0.4717494930441458	-0.32776066832815337	-0.7449394761262472	-0.2732143382878626	-0.29775343088914713	2.5945098730745815	-0.38131963485137044	-0.922735737730551	-1.0811249552346707	-0.33444112413495103	1.487124225321631	1.5124158075090164	-0.40767771256034563	-0.36254146571550083	-0.24968173125224757	-0.36254146571550083	-0.28320837870678955	-0.8642117360266479	0.9271937208540033	-0.6668108263973315	-0.19962605140237988	-0.8390957231764808	-0.16830069266853703	-0.3095165988026865	0.9774985999379038	0.06004805767690767	-0.27573706286071076	-0.193046835626336	-0.24422258300730793	-0.16061919498779031	-0.31643601613227496	-0.4235310272854237	2.4174909089967573	-0.22134808531896508	0.7605589428059089	-0.20916500663351886	-0.2550510153051018	-0.17927197918702087	-0.46223672582095254	-0.38131963485137044	1.3565161460232493	-0.39965262694272663	-0.2807336273214235	-0.20284755894409	0.0	2.8246229170733415	-0.4468922058820907	-0.13977131156292244	2.038215147538238	1.6617043242590608	-0.2832083787067895	0.49625462891182986	-0.3187210590100133	-0.23013785002169967	-0.4584156711285423	-0.3833771276146009	1.9490640252984617	-0.42156267823233634	-0.4526656657028506	-0.21226474130316753	-0.2523772325625344	-0.35188398920288366	-0.2856680199402452	1.651568518538838	-0.332223329141004	1.224744871391589	0.44496223623878756	-0.3209958085628648	-0.34757066781809537	0.8963569174955458	-0.2732143382878626	-0.33444112413495114	0.5186491689825814	-0.37303372633351084	-0.44302942524536426	-0.4352685256926918	-0.3024950709910101	-0.5427463895880402	-0.32999657932147997	-0.24422258300730793	0.7723718776597304	-0.43332056734305097	0.6481265518483904	-0.3048473998130456	-0.4849815466507112	3.66013001464947	-0.48309685381140866	-0.2832083787067895	-0.638822694552945	2.6658574824068997	-0.218354746875495	-1.0156919662556663	-0.2243088616368177	-0.4056779713731837	-0.295363476640788	-0.39965262694272663	-0.20916500663351886	-0.26033619813883174	-0.23585120338693305	1.9143679033231158	-0.32999657932147997	-0.2655425022718972	0.9429423479159332	-0.332223329141004	-0.38131963485137044	2.4772468865157817	1.5340839789980452	-0.5482910294355557	-0.46223672582095254	2.350199459620396	2.5945098730745815	0.8791039638138402	-0.4235310272854237	-0.24145734127431245	-0.28320837870678955	-0.18968434011107688	0.7982824700322465	-0.3709476780308945	-0.3048473998130456	-0.7333165911365267	-0.3118340473100409	-0.599945708727211	-0.5556774509255208	-0.4603273902788415	-0.36885555678165877	-0.29775343088914713	-0.5445951256958484	1.129249467422068	-0.3540295569916722	-0.27573706286071076	-0.5279333569710825	-0.39358619998522626	2.5945098730745815	-0.25237723256253436	-0.46795096130874764	-0.594409394578389	1.6981522105608078	2.111283102729068	-0.25237723256253436	-0.3410427545452439	-0.5980999726097406	-0.5962545433952522	-0.41365202089425585	-0.429414907892783	1.2750631998148219	-0.25770378116168946	1.8809687605754832	-0.3895178274880811	-0.3410427545452439	-0.30013051991046036	1.6823421855727798	2.237676081251332	-0.4096732451993513	-0.5464433282985444	-0.24968173125224757	-0.46604845904772396	1.3216317665355164	-0.3497310794839219	0.295363476640788	-0.35616793867473684	-0.5612135332663137	3.115305475411393	-0.553831440490465	-0.35188398920288366	2.8246229170733415	2.4291616756158882	-0.37718809874266357	-0.3388506450924548	-0.4717494930441458	2.9321836827568095	-0.4176149546551433	-0.27824333745610097	-0.3095165988026865	-0.39763517315406705	-0.5112037804398081	-0.31643601613227496	-0.34973107948392185	-0.6574549401173696	-0.24145734127431245	-0.6837300775749651	-0.36465258274943624	-0.29536347664078805	-0.40767771256034563	-0.17927197918702087	-0.31643601613227496	-0.3709476780308946	-0.38131963485137044	2.2670919439566055	-0.2856680199402452	-0.29296031766148345	-0.43136938400232516	-0.35188398920288366	-0.25770378116168946	1.9633265553113415	-0.3410427545452439	-0.7198484689028785	-0.22723837615371514	-0.14416100751597005	-0.32776066832815337	0.9964136166599662
CHEMBL397132	1.0	1.7251638983558857	-0.3956130625887607	-0.3118340473100409	-0.29296031766148345	-0.5427463895880401	-0.27573706286071076	-0.40767771256034563	4.644089530528839	-0.2832083787067895	-0.30013051991046036	-0.40166551726626826	-0.4352685256926918	-0.31643601613227496	2.2473817294089486	-0.35829928604223926	-0.7217667051650981	-0.3709476780308946	-0.36254146571550083	-0.4488193945462509	-0.5667473261035905	-0.2523772325625343	-0.27824333745610097	2.190573238015819	-0.2243088616368177	-0.4849815466507112	-0.30013051991046036	-0.2856680199402452	-0.43915503282684	1.8875490801710681	-0.332223329141004	-0.21532745943554762	-0.3895178274880811	-0.3792566630111541	0.638822694552945	2.3721264989422735	-0.18626971424152214	-0.768424485864545	-0.37303372633351084	2.0945397523545712	-1.240158828929845	-0.41365202089425585	-0.3792566630111541	-0.35188398920288366	-0.37718809874266357	-0.2706746783336088	-0.8411696987931088	-0.4254958003273136	-0.2550510153051018	-0.40567797137318373	1.5563197446350745	-0.5074742559794809	-0.3366501646120693	-0.37303372633351084	-0.5297875485756219	2.5945098730745815	-0.17927197918702087	-0.4717494930441458	-0.32776066832815337	-0.7449394761262472	-0.2732143382878626	-0.29775343088914713	-0.38542925212112084	-0.38131963485137044	1.0837339003033295	0.9249624617007738	-0.33444112413495103	-0.6724387801454332	1.5124158075090164	-0.40767771256034563	-0.36254146571550083	-0.24968173125224757	-0.36254146571550083	-0.28320837870678955	1.157123837032879	0.9271937208540033	-0.6668108263973315	-0.19962605140237988	-0.8390957231764808	-0.16830069266853703	-0.3095165988026865	0.9774985999379038	0.06004805767690767	-0.27573706286071076	-0.193046835626336	-0.24422258300730793	-0.16061919498779031	-0.31643601613227496	-0.4235310272854237	2.4174909089967573	-0.22134808531896508	0.7605589428059089	-0.20916500663351886	-0.2550510153051018	-0.17927197918702087	-0.46223672582095254	-0.38131963485137044	1.3565161460232493	-0.39965262694272663	-0.2807336273214235	-0.20284755894409	0.0	2.8246229170733415	2.237676081251332	-0.13977131156292244	2.038215147538238	1.6617043242590608	-0.2832083787067895	0.49625462891182986	-0.3187210590100133	-0.23013785002169967	-0.4584156711285423	-0.3833771276146009	1.9490640252984617	-0.42156267823233634	-0.4526656657028506	-0.21226474130316753	-0.2523772325625344	2.8418456954102456	-0.2856680199402452	-0.6054850215265134	-0.332223329141004	1.224744871391589	0.44496223623878756	-0.3209958085628648	-0.34757066781809537	-1.1156270236570907	-0.2732143382878626	-0.33444112413495114	0.5186491689825814	-0.37303372633351084	-0.44302942524536426	-0.4352685256926918	-0.3024950709910101	-0.5427463895880402	-0.32999657932147997	-0.24422258300730793	0.7723718776597304	2.3077602942588245	-1.5429085525783546	-0.3048473998130456	-0.4849815466507112	-0.2732143382878626	-0.48309685381140866	3.5309689796830366	-0.638822694552945	2.6658574824068997	-0.218354746875495	-1.0156919662556663	-0.2243088616368177	2.4650093684285816	-0.295363476640788	-0.39965262694272663	-0.20916500663351886	-0.26033619813883174	-0.23585120338693305	1.9143679033231158	-0.32999657932147997	-0.2655425022718972	0.9429423479159332	-0.332223329141004	-0.38131963485137044	-0.4036739355464436	1.5340839789980452	-0.5482910294355557	-0.46223672582095254	-0.4254958003273136	-0.38542925212112084	-1.137521887242634	-0.4235310272854237	-0.24145734127431245	-0.28320837870678955	-0.18968434011107688	0.7982824700322465	-0.3709476780308945	-0.3048473998130456	-0.7333165911365267	-0.3118340473100409	-0.599945708727211	1.7996051456369657	-0.4603273902788415	-0.36885555678165877	-0.29775343088914713	-0.5445951256958484	1.129249467422068	-0.3540295569916722	-0.27573706286071076	-0.5279333569710825	-0.39358619998522626	2.5945098730745815	-0.25237723256253436	-0.46795096130874764	-0.594409394578389	-0.5888753633396349	-0.47364562275300215	-0.25237723256253436	-0.3410427545452439	-0.5980999726097406	-0.5962545433952522	-0.41365202089425585	-0.429414907892783	-0.7842748501762349	-0.25770378116168946	1.8809687605754832	-0.3895178274880811	-0.3410427545452439	-0.30013051991046036	-0.594409394578389	-0.4468922058820907	-0.4096732451993513	-0.5464433282985444	-0.24968173125224757	-0.46604845904772396	1.3216317665355164	-0.3497310794839219	0.295363476640788	-0.35616793867473684	-0.5612135332663137	-0.3209958085628648	1.8056035228235054	2.8418456954102456	2.8246229170733415	2.4291616756158882	-0.37718809874266357	-0.3388506450924548	-0.4717494930441458	-0.3410427545452439	2.394550264191991	-0.27824333745610097	-0.3095165988026865	-0.39763517315406705	-0.5112037804398081	-0.31643601613227496	-0.34973107948392185	-0.6574549401173696	-0.24145734127431245	1.4625654666923127	-0.36465258274943624	-0.29536347664078805	2.452918001623592	-0.17927197918702087	-0.31643601613227496	-0.3709476780308946	-0.38131963485137044	2.2670919439566055	3.5005668475217346	-0.29296031766148345	-0.43136938400232516	-0.35188398920288366	-0.25770378116168946	1.9633265553113415	-0.3410427545452439	-0.7198484689028785	-0.22723837615371514	-0.14416100751597005	-0.32776066832815337	0.9964136166599662
CHEMBL2011355	1.0	-0.5796550698475775	2.5277223999034093	-0.3118340473100409	-0.29296031766148345	-0.5427463895880401	-0.27573706286071076	-0.40767771256034563	-0.21532745943554765	3.5309689796830366	3.3318837427740964	2.489633680296956	2.2974323686937566	-0.31643601613227496	-0.44496223623878756	-0.35829928604223926	-0.7217667051650981	-0.3709476780308946	-0.36254146571550083	-0.4488193945462509	1.7644547295441833	-0.2523772325625343	-0.27824333745610097	-0.45650151414512014	-0.2243088616368177	-0.4849815466507112	-0.30013051991046036	-0.2856680199402452	-0.43915503282684	-0.5297875485756219	-0.332223329141004	-0.21532745943554762	-0.3895178274880811	-0.3792566630111541	0.638822694552945	-0.42156267823233634	-0.18626971424152214	-0.768424485864545	-0.37303372633351084	2.0945397523545712	0.8063483294820533	-0.41365202089425585	-0.3792566630111541	-0.35188398920288366	-0.37718809874266357	-0.2706746783336088	-0.8411696987931088	-0.4254958003273136	-0.2550510153051018	-0.40567797137318373	-0.6425414850946839	-0.5074742559794809	2.9704426289300234	-0.37303372633351084	-0.5297875485756219	-0.38542925212112084	-0.17927197918702087	2.119769103612839	-0.32776066832815337	-0.7449394761262472	-0.2732143382878626	-0.29775343088914713	-0.38542925212112084	2.6224718283646133	-0.922735737730551	-1.0811249552346707	-0.33444112413495103	-0.6724387801454332	1.5124158075090164	-0.40767771256034563	-0.36254146571550083	-0.24968173125224757	-0.36254146571550083	-0.28320837870678955	-0.8642117360266479	0.9271937208540033	1.4996757107301855	-0.19962605140237988	-0.8390957231764808	-0.16830069266853703	-0.3095165988026865	0.9774985999379038	0.06004805767690767	-0.27573706286071076	-0.193046835626336	-0.24422258300730793	-0.16061919498779031	-0.31643601613227496	-0.4235310272854237	-0.41365202089425585	-0.22134808531896508	-1.3148224860925677	-0.20916500663351886	-0.2550510153051018	-0.17927197918702087	-0.46223672582095254	-0.38131963485137044	-0.737182526674372	-0.39965262694272663	-0.2807336273214235	-0.20284755894409	0.0	-0.35402955699167216	-0.4468922058820907	-0.13977131156292244	-0.4906253401206457	1.6617043242590608	-0.2832083787067895	0.49625462891182986	-0.3187210590100133	-0.23013785002169967	-0.4584156711285423	-0.3833771276146009	-0.5130667782177495	-0.42156267823233634	-0.4526656657028506	-0.21226474130316753	-0.2523772325625344	-0.35188398920288366	-0.2856680199402452	-0.6054850215265134	-0.332223329141004	1.224744871391589	0.44496223623878756	-0.3209958085628648	-0.34757066781809537	0.8963569174955458	-0.2732143382878626	-0.33444112413495114	0.5186491689825814	2.680722758847681	-0.44302942524536426	-0.4352685256926918	-0.3024950709910101	-0.5427463895880402	-0.32999657932147997	-0.24422258300730793	0.7723718776597304	-0.43332056734305097	0.6481265518483904	-0.3048473998130456	-0.4849815466507112	-0.2732143382878626	2.069978291331162	-0.2832083787067895	1.5653795779747786	-0.37511382607638066	-0.218354746875495	-1.0156919662556663	-0.2243088616368177	-0.4056779713731837	3.3856589561212713	2.502172968684897	-0.20916500663351886	-0.26033619813883174	-0.23585120338693305	1.9143679033231158	-0.32999657932147997	-0.2655425022718972	0.9429423479159332	-0.332223329141004	-0.38131963485137044	2.4772468865157817	1.5340839789980452	1.8238489165680147	-0.46223672582095254	-0.4254958003273136	-0.38542925212112084	0.8791039638138402	-0.4235310272854237	-0.24145734127431245	3.530968979683037	-0.18968434011107688	0.7982824700322465	-0.3709476780308945	-0.3048473998130456	1.3636674965312805	-0.3118340473100409	-0.599945708727211	-0.5556774509255208	-0.4603273902788415	-0.36885555678165877	-0.29775343088914713	1.8362264971106095	-0.8855439199655962	-0.3540295569916722	-0.27573706286071076	-0.5279333569710825	-0.39358619998522626	-0.38542925212112084	-0.25237723256253436	-0.46795096130874764	-0.594409394578389	-0.5888753633396349	2.111283102729068	-0.25237723256253436	-0.3410427545452439	-0.5980999726097406	1.6771360672670106	-0.41365202089425585	-0.429414907892783	1.2750631998148219	-0.25770378116168946	-0.5316409400090458	2.567276590262353	-0.3410427545452439	-0.30013051991046036	1.6823421855727798	-0.4468922058820907	-0.4096732451993513	-0.5464433282985444	-0.24968173125224757	-0.46604845904772396	-0.7566404087133655	-0.3497310794839219	0.295363476640788	-0.35616793867473684	-0.5612135332663137	-0.3209958085628648	-0.553831440490465	-0.35188398920288366	-0.35402955699167216	2.4291616756158882	-0.37718809874266357	2.9511527113284726	-0.4717494930441458	2.9321836827568095	-0.4176149546551433	-0.27824333745610097	-0.3095165988026865	-0.39763517315406705	1.9561670673477052	3.160196529531535	2.859339814681735	-0.6574549401173696	-0.24145734127431245	1.4625654666923127	-0.36465258274943624	-0.29536347664078805	-0.40767771256034563	-0.17927197918702087	3.160196529531535	-0.3709476780308946	-0.38131963485137044	-0.44109371155664995	-0.2856680199402452	-0.29296031766148345	2.3181988270048617	-0.35188398920288366	-0.25770378116168946	-0.5093396191757931	-0.3410427545452439	-0.7198484689028785	-0.22723837615371514	-0.14416100751597005	-0.32776066832815337	0.9964136166599662
CHEMBL3582225	1.0	-0.5796550698475775	-0.3956130625887607	3.206833918958664	-0.29296031766148345	1.8424811646541364	-0.27573706286071076	-0.40767771256034563	-0.21532745943554765	-0.2832083787067895	-0.30013051991046036	2.489633680296956	2.2974323686937566	-0.31643601613227496	-0.44496223623878756	-0.35829928604223926	-0.7217667051650981	2.6957979769769964	-0.36254146571550083	-0.4488193945462509	-0.5667473261035905	-0.2523772325625343	3.593976442141305	-0.45650151414512014	4.458138625031752	-0.4849815466507112	3.3318837427740964	-0.2856680199402452	-0.43915503282684	-0.5297875485756219	-0.332223329141004	-0.21532745943554762	-0.3895178274880811	-0.3792566630111541	-1.5653795779747786	2.3721264989422735	-0.18626971424152214	-0.768424485864545	-0.37303372633351084	-0.47743185531611554	-1.240158828929845	-0.41365202089425585	-0.3792566630111541	-0.35188398920288366	-0.37718809874266357	-0.2706746783336088	-0.8411696987931088	-0.4254958003273136	-0.2550510153051018	-0.40567797137318373	-0.6425414850946839	-0.5074742559794809	-0.3366501646120693	-0.37303372633351084	-0.5297875485756219	2.5945098730745815	-0.17927197918702087	-0.4717494930441458	-0.32776066832815337	-0.7449394761262472	-0.2732143382878626	-0.29775343088914713	-0.38542925212112084	-0.38131963485137044	-0.922735737730551	-1.0811249552346707	-0.33444112413495103	-0.6724387801454332	-0.6611938297887955	-0.40767771256034563	-0.36254146571550083	-0.24968173125224757	-0.36254146571550083	-0.28320837870678955	-0.8642117360266479	-1.0785232659674804	-0.6668108263973315	-0.19962605140237988	1.191759143062248	-0.16830069266853703	-0.3095165988026865	0.9774985999379038	0.06004805767690767	-0.27573706286071076	-0.193046835626336	-0.24422258300730793	-0.16061919498779031	-0.31643601613227496	-0.4235310272854237	-0.41365202089425585	-0.22134808531896508	0.7605589428059089	-0.20916500663351886	-0.2550510153051018	5.5781165831653805	-0.46223672582095254	-0.38131963485137044	-0.737182526674372	-0.39965262694272663	-0.2807336273214235	-0.20284755894409	0.0	-0.35402955699167216	-0.4468922058820907	-0.13977131156292244	-0.4906253401206457	-0.6017917781166581	-0.2832083787067895	0.49625462891182986	-0.3187210590100133	-0.23013785002169967	-0.4584156711285423	-0.3833771276146009	-0.5130667782177495	-0.42156267823233634	-0.4526656657028506	-0.21226474130316753	-0.2523772325625344	-0.35188398920288366	-0.2856680199402452	1.651568518538838	-0.332223329141004	-0.816496580927726	0.44496223623878756	-0.3209958085628648	-0.34757066781809537	-1.1156270236570907	-0.2732143382878626	-0.33444112413495114	0.5186491689825814	-0.37303372633351084	-0.44302942524536426	-0.4352685256926918	-0.3024950709910101	-0.5427463895880402	-0.32999657932147997	-0.24422258300730793	0.7723718776597304	-0.43332056734305097	-1.5429085525783546	-0.3048473998130456	2.061934122867175	-0.2732143382878626	2.069978291331162	-0.2832083787067895	1.5653795779747786	-0.37511382607638066	-0.218354746875495	0.9845504672902804	-0.2243088616368177	2.4650093684285816	-0.295363476640788	-0.39965262694272663	-0.20916500663351886	-0.26033619813883174	-0.23585120338693305	-0.5223656321567648	-0.32999657932147997	3.765875486765087	0.9429423479159332	3.010023415831747	-0.38131963485137044	-0.4036739355464436	-0.651854796536712	-0.5482910294355557	-0.46223672582095254	-0.4254958003273136	-0.38542925212112084	0.8791039638138402	-0.4235310272854237	-0.24145734127431245	-0.28320837870678955	-0.18968434011107688	0.7982824700322465	-0.3709476780308945	-0.3048473998130456	-0.7333165911365267	3.206833918958664	-0.599945708727211	-0.5556774509255208	-0.4603273902788415	-0.36885555678165877	-0.29775343088914713	1.8362264971106095	-0.8855439199655962	-0.3540295569916722	-0.27573706286071076	-0.5279333569710825	-0.39358619998522626	-0.38542925212112084	-0.25237723256253436	-0.46795096130874764	-0.594409394578389	-0.5888753633396349	-0.47364562275300215	-0.25237723256253436	-0.3410427545452439	-0.5980999726097406	-0.5962545433952522	-0.41365202089425585	-0.429414907892783	1.2750631998148219	-0.25770378116168946	1.8809687605754832	-0.3895178274880811	-0.3410427545452439	-0.30013051991046036	1.6823421855727798	2.237676081251332	2.4409697526461347	1.8300159379998127	-0.24968173125224757	-0.46604845904772396	1.3216317665355164	-0.3497310794839219	0.295363476640788	-0.35616793867473684	-0.5612135332663137	-0.3209958085628648	1.8056035228235054	-0.35188398920288366	-0.35402955699167216	2.4291616756158882	-0.37718809874266357	-0.3388506450924548	-0.4717494930441458	-0.3410427545452439	-0.4176149546551433	-0.27824333745610097	-0.3095165988026865	2.51486806880774	-0.5112037804398081	-0.31643601613227496	2.859339814681735	-0.6574549401173696	-0.24145734127431245	1.4625654666923127	-0.36465258274943624	3.3856589561212718	-0.40767771256034563	-0.17927197918702087	-0.31643601613227496	-0.3709476780308946	-0.38131963485137044	-0.44109371155664995	-0.2856680199402452	-0.29296031766148345	-0.43136938400232516	2.8418456954102456	-0.25770378116168946	-0.5093396191757931	-0.3410427545452439	-0.7198484689028785	-0.22723837615371514	-0.14416100751597005	-0.32776066832815337	0.9964136166599662
CHEMBL3582224	1.0	-0.5796550698475775	-0.3956130625887607	3.206833918958664	-0.29296031766148345	1.8424811646541364	-0.27573706286071076	-0.40767771256034563	-0.21532745943554765	-0.2832083787067895	-0.30013051991046036	2.489633680296956	-0.4352685256926918	-0.31643601613227496	-0.44496223623878756	-0.35829928604223926	-0.7217667051650981	2.6957979769769964	-0.36254146571550083	-0.4488193945462509	-0.5667473261035905	-0.2523772325625343	3.593976442141305	-0.45650151414512014	-0.2243088616368177	-0.4849815466507112	-0.30013051991046036	-0.2856680199402452	-0.43915503282684	-0.5297875485756219	-0.332223329141004	-0.21532745943554762	2.567276590262353	-0.3792566630111541	-1.5653795779747786	-0.42156267823233634	-0.18626971424152214	-0.768424485864545	-0.37303372633351084	-0.47743185531611554	-1.240158828929845	-0.41365202089425585	-0.3792566630111541	-0.35188398920288366	-0.37718809874266357	-0.2706746783336088	-0.8411696987931088	-0.4254958003273136	-0.2550510153051018	-0.40567797137318373	-0.6425414850946839	-0.5074742559794809	-0.3366501646120693	-0.37303372633351084	-0.5297875485756219	2.5945098730745815	-0.17927197918702087	-0.4717494930441458	-0.32776066832815337	-0.7449394761262472	-0.2732143382878626	-0.29775343088914713	-0.38542925212112084	2.6224718283646133	-0.922735737730551	-1.0811249552346707	-0.33444112413495103	-0.6724387801454332	1.5124158075090164	-0.40767771256034563	-0.36254146571550083	-0.24968173125224757	-0.36254146571550083	-0.28320837870678955	-0.8642117360266479	-1.0785232659674804	-0.6668108263973315	-0.19962605140237988	1.191759143062248	-0.16830069266853703	-0.3095165988026865	0.9774985999379038	0.06004805767690767	-0.27573706286071076	-0.193046835626336	-0.24422258300730793	-0.16061919498779031	-0.31643601613227496	-0.4235310272854237	-0.41365202089425585	-0.22134808531896508	0.7605589428059089	-0.20916500663351886	-0.2550510153051018	-0.17927197918702087	-0.46223672582095254	-0.38131963485137044	-0.737182526674372	-0.39965262694272663	-0.2807336273214235	-0.20284755894409	0.0	-0.35402955699167216	-0.4468922058820907	-0.13977131156292244	-0.4906253401206457	-0.6017917781166581	-0.2832083787067895	0.49625462891182986	-0.3187210590100133	-0.23013785002169967	-0.4584156711285423	-0.3833771276146009	-0.5130667782177495	-0.42156267823233634	-0.4526656657028506	-0.21226474130316753	-0.2523772325625344	-0.35188398920288366	-0.2856680199402452	1.651568518538838	-0.332223329141004	-0.816496580927726	0.44496223623878756	-0.3209958085628648	-0.34757066781809537	-1.1156270236570907	-0.2732143382878626	-0.33444112413495114	0.5186491689825814	-0.37303372633351084	-0.44302942524536426	-0.4352685256926918	-0.3024950709910101	-0.5427463895880402	-0.32999657932147997	-0.24422258300730793	0.7723718776597304	-0.43332056734305097	-1.5429085525783546	-0.3048473998130456	-0.4849815466507112	-0.2732143382878626	2.069978291331162	-0.2832083787067895	-0.638822694552945	-0.37511382607638066	-0.218354746875495	0.9845504672902804	-0.2243088616368177	2.4650093684285816	-0.295363476640788	-0.39965262694272663	-0.20916500663351886	-0.26033619813883174	-0.23585120338693305	-0.5223656321567648	-0.32999657932147997	3.765875486765087	0.9429423479159332	-0.332223329141004	-0.38131963485137044	-0.4036739355464436	-0.651854796536712	1.8238489165680147	-0.46223672582095254	2.350199459620396	-0.38542925212112084	0.8791039638138402	-0.4235310272854237	-0.24145734127431245	-0.28320837870678955	-0.18968434011107688	0.7982824700322465	-0.3709476780308945	-0.3048473998130456	-0.7333165911365267	3.206833918958664	-0.599945708727211	-0.5556774509255208	2.172366930836451	-0.36885555678165877	-0.29775343088914713	-0.5445951256958484	-0.8855439199655962	-0.3540295569916722	-0.27573706286071076	-0.5279333569710825	-0.39358619998522626	-0.38542925212112084	-0.25237723256253436	-0.46795096130874764	-0.594409394578389	-0.5888753633396349	-0.47364562275300215	-0.25237723256253436	-0.3410427545452439	-0.5980999726097406	1.6771360672670106	-0.41365202089425585	-0.429414907892783	1.2750631998148219	-0.25770378116168946	1.8809687605754832	-0.3895178274880811	-0.3410427545452439	-0.30013051991046036	1.6823421855727798	2.237676081251332	2.4409697526461347	1.8300159379998127	-0.24968173125224757	-0.46604845904772396	1.3216317665355164	2.8593398146817353	0.295363476640788	-0.35616793867473684	-0.5612135332663137	-0.3209958085628648	1.8056035228235054	-0.35188398920288366	-0.35402955699167216	2.4291616756158882	-0.37718809874266357	-0.3388506450924548	-0.4717494930441458	-0.3410427545452439	-0.4176149546551433	-0.27824333745610097	-0.3095165988026865	2.51486806880774	-0.5112037804398081	-0.31643601613227496	2.859339814681735	-0.6574549401173696	-0.24145734127431245	1.4625654666923127	-0.36465258274943624	-0.29536347664078805	-0.40767771256034563	-0.17927197918702087	-0.31643601613227496	-0.3709476780308946	-0.38131963485137044	-0.44109371155664995	-0.2856680199402452	-0.29296031766148345	-0.43136938400232516	2.8418456954102456	-0.25770378116168946	-0.5093396191757931	-0.3410427545452439	-0.7198484689028785	-0.22723837615371514	-0.14416100751597005	-0.32776066832815337	0.9964136166599662
CHEMBL2013159	1.0	-0.5796550698475775	2.5277223999034093	-0.3118340473100409	-0.29296031766148345	-0.5427463895880401	-0.27573706286071076	-0.40767771256034563	-0.21532745943554765	-0.2832083787067895	-0.30013051991046036	2.489633680296956	2.2974323686937566	-0.31643601613227496	-0.44496223623878756	-0.35829928604223926	-0.7217667051650981	-0.3709476780308946	-0.36254146571550083	-0.4488193945462509	1.7644547295441833	-0.2523772325625343	-0.27824333745610097	-0.45650151414512014	-0.2243088616368177	-0.4849815466507112	-0.30013051991046036	-0.2856680199402452	-0.43915503282684	-0.5297875485756219	-0.332223329141004	-0.21532745943554762	-0.3895178274880811	-0.3792566630111541	0.638822694552945	-0.42156267823233634	-0.18626971424152214	-0.768424485864545	-0.37303372633351084	2.0945397523545712	0.8063483294820533	-0.41365202089425585	-0.3792566630111541	-0.35188398920288366	-0.37718809874266357	-0.2706746783336088	1.1888207592769657	-0.4254958003273136	-0.2550510153051018	-0.40567797137318373	-0.6425414850946839	-0.5074742559794809	2.9704426289300234	-0.37303372633351084	-0.5297875485756219	-0.38542925212112084	-0.17927197918702087	2.119769103612839	-0.32776066832815337	-0.7449394761262472	-0.2732143382878626	-0.29775343088914713	-0.38542925212112084	2.6224718283646133	-0.922735737730551	-1.0811249552346707	-0.33444112413495103	-0.6724387801454332	1.5124158075090164	-0.40767771256034563	-0.36254146571550083	-0.24968173125224757	-0.36254146571550083	-0.28320837870678955	-0.8642117360266479	0.9271937208540033	1.4996757107301855	-0.19962605140237988	-0.8390957231764808	-0.16830069266853703	-0.3095165988026865	-1.023019368072267	0.06004805767690767	-0.27573706286071076	-0.193046835626336	-0.24422258300730793	-0.16061919498779031	-0.31643601613227496	-0.4235310272854237	-0.41365202089425585	4.51777117727939	-1.3148224860925677	-0.20916500663351886	-0.2550510153051018	-0.17927197918702087	-0.46223672582095254	-0.38131963485137044	-0.737182526674372	-0.39965262694272663	-0.2807336273214235	-0.20284755894409	0.0	-0.35402955699167216	-0.4468922058820907	-0.13977131156292244	-0.4906253401206457	1.6617043242590608	-0.2832083787067895	0.49625462891182986	-0.3187210590100133	-0.23013785002169967	-0.4584156711285423	-0.3833771276146009	-0.5130667782177495	-0.42156267823233634	-0.4526656657028506	-0.21226474130316753	-0.2523772325625344	-0.35188398920288366	-0.2856680199402452	-0.6054850215265134	-0.332223329141004	1.224744871391589	0.44496223623878756	-0.3209958085628648	-0.34757066781809537	0.8963569174955458	-0.2732143382878626	-0.33444112413495114	0.5186491689825814	2.680722758847681	-0.44302942524536426	-0.4352685256926918	-0.3024950709910101	-0.5427463895880402	-0.32999657932147997	-0.24422258300730793	0.7723718776597304	-0.43332056734305097	0.6481265518483904	-0.3048473998130456	-0.4849815466507112	-0.2732143382878626	2.069978291331162	-0.2832083787067895	1.5653795779747786	-0.37511382607638066	-0.218354746875495	-1.0156919662556663	-0.2243088616368177	-0.4056779713731837	3.3856589561212713	2.502172968684897	-0.20916500663351886	-0.26033619813883174	-0.23585120338693305	-0.5223656321567648	-0.32999657932147997	-0.2655425022718972	0.9429423479159332	-0.332223329141004	-0.38131963485137044	2.4772468865157817	1.5340839789980452	1.8238489165680147	-0.46223672582095254	-0.4254958003273136	-0.38542925212112084	0.8791039638138402	-0.4235310272854237	-0.24145734127431245	3.530968979683037	-0.18968434011107688	0.7982824700322465	-0.3709476780308945	-0.3048473998130456	1.3636674965312805	-0.3118340473100409	-0.599945708727211	-0.5556774509255208	-0.4603273902788415	-0.36885555678165877	-0.29775343088914713	1.8362264971106095	-0.8855439199655962	-0.3540295569916722	-0.27573706286071076	-0.5279333569710825	-0.39358619998522626	-0.38542925212112084	-0.25237723256253436	-0.46795096130874764	-0.594409394578389	-0.5888753633396349	2.111283102729068	-0.25237723256253436	-0.3410427545452439	-0.5980999726097406	-0.5962545433952522	-0.41365202089425585	-0.429414907892783	1.2750631998148219	-0.25770378116168946	-0.5316409400090458	-0.3895178274880811	-0.3410427545452439	-0.30013051991046036	-0.594409394578389	-0.4468922058820907	-0.4096732451993513	-0.5464433282985444	-0.24968173125224757	-0.46604845904772396	-0.7566404087133655	-0.3497310794839219	0.295363476640788	-0.35616793867473684	-0.5612135332663137	-0.3209958085628648	-0.553831440490465	-0.35188398920288366	-0.35402955699167216	2.4291616756158882	-0.37718809874266357	2.9511527113284726	-0.4717494930441458	2.9321836827568095	-0.4176149546551433	-0.27824333745610097	-0.3095165988026865	-0.39763517315406705	1.9561670673477052	3.160196529531535	-0.34973107948392185	-0.6574549401173696	-0.24145734127431245	1.4625654666923127	-0.36465258274943624	-0.29536347664078805	-0.40767771256034563	-0.17927197918702087	3.160196529531535	-0.3709476780308946	-0.38131963485137044	-0.44109371155664995	-0.2856680199402452	-0.29296031766148345	2.3181988270048617	-0.35188398920288366	-0.25770378116168946	-0.5093396191757931	-0.3410427545452439	-0.7198484689028785	-0.22723837615371514	-0.14416100751597005	-0.32776066832815337	0.9964136166599662
CHEMBL193117	1.0	-0.5796550698475775	-0.3956130625887607	-0.3118340473100409	-0.29296031766148345	-0.5427463895880401	-0.27573706286071076	2.452918001623592	-0.21532745943554765	-0.2832083787067895	-0.30013051991046036	-0.40166551726626826	-0.4352685256926918	3.160196529531535	-0.44496223623878756	-0.35829928604223926	-0.7217667051650981	-0.3709476780308946	-0.36254146571550083	-0.4488193945462509	-0.5667473261035905	-0.2523772325625343	-0.27824333745610097	2.190573238015819	-0.2243088616368177	2.061934122867175	-0.30013051991046036	3.5005668475217346	-0.43915503282684	-0.5297875485756219	-0.332223329141004	-0.21532745943554762	-0.3895178274880811	-0.3792566630111541	0.638822694552945	2.3721264989422735	-0.18626971424152214	1.301364048641568	-0.37303372633351084	-0.47743185531611554	0.8063483294820533	-0.41365202089425585	-0.3792566630111541	-0.35188398920288366	-0.37718809874266357	-0.2706746783336088	1.1888207592769657	-0.4254958003273136	-0.2550510153051018	2.4650093684285825	1.5563197446350745	-0.5074742559794809	-0.3366501646120693	-0.37303372633351084	-0.5297875485756219	-0.38542925212112084	-0.17927197918702087	2.119769103612839	-0.32776066832815337	-0.7449394761262472	-0.2732143382878626	-0.29775343088914713	2.5945098730745815	-0.38131963485137044	-0.922735737730551	-1.0811249552346707	-0.33444112413495103	-0.6724387801454332	-0.6611938297887955	-0.40767771256034563	-0.36254146571550083	-0.24968173125224757	-0.36254146571550083	-0.28320837870678955	-0.8642117360266479	0.9271937208540033	1.4996757107301855	-0.19962605140237988	-0.8390957231764808	-0.16830069266853703	-0.3095165988026865	-1.023019368072267	0.06004805767690767	-0.27573706286071076	-0.193046835626336	-0.24422258300730793	-0.16061919498779031	-0.31643601613227496	-0.4235310272854237	-0.41365202089425585	-0.22134808531896508	-1.3148224860925677	-0.20916500663351886	-0.2550510153051018	-0.17927197918702087	2.163393655542962	-0.38131963485137044	-0.737182526674372	2.502172968684897	-0.2807336273214235	4.929810371913945	0.0	-0.35402955699167216	-0.4468922058820907	-0.13977131156292244	2.038215147538238	1.6617043242590608	-0.2832083787067895	0.49625462891182986	-0.3187210590100133	-0.23013785002169967	-0.4584156711285423	-0.3833771276146009	1.9490640252984617	-0.42156267823233634	-0.4526656657028506	-0.21226474130316753	-0.2523772325625344	-0.35188398920288366	-0.2856680199402452	1.651568518538838	-0.332223329141004	1.224744871391589	0.44496223623878756	-0.3209958085628648	-0.34757066781809537	0.8963569174955458	-0.2732143382878626	-0.33444112413495114	0.5186491689825814	-0.37303372633351084	-0.44302942524536426	-0.4352685256926918	-0.3024950709910101	-0.5427463895880402	-0.32999657932147997	-0.24422258300730793	-1.2947131154360225	-0.43332056734305097	0.6481265518483904	-0.3048473998130456	-0.4849815466507112	-0.2732143382878626	-0.48309685381140866	-0.2832083787067895	-0.638822694552945	-0.37511382607638066	-0.218354746875495	0.9845504672902804	-0.2243088616368177	-0.4056779713731837	-0.295363476640788	-0.39965262694272663	-0.20916500663351886	-0.26033619813883174	-0.23585120338693305	-0.5223656321567648	-0.32999657932147997	-0.2655425022718972	0.9429423479159332	-0.332223329141004	-0.38131963485137044	-0.4036739355464436	1.5340839789980452	-0.5482910294355557	-0.46223672582095254	2.350199459620396	-0.38542925212112084	0.8791039638138402	-0.4235310272854237	-0.24145734127431245	-0.28320837870678955	-0.18968434011107688	0.7982824700322465	-0.3709476780308945	-0.3048473998130456	-0.7333165911365267	-0.3118340473100409	-0.599945708727211	1.7996051456369657	-0.4603273902788415	-0.36885555678165877	-0.29775343088914713	-0.5445951256958484	1.129249467422068	-0.3540295569916722	-0.27573706286071076	-0.5279333569710825	-0.39358619998522626	-0.38542925212112084	-0.25237723256253436	-0.46795096130874764	1.6823421855727798	-0.5888753633396349	-0.47364562275300215	-0.25237723256253436	-0.3410427545452439	-0.5980999726097406	1.6771360672670106	-0.41365202089425585	-0.429414907892783	1.2750631998148219	-0.25770378116168946	-0.5316409400090458	-0.3895178274880811	-0.3410427545452439	-0.30013051991046036	1.6823421855727798	2.237676081251332	-0.4096732451993513	-0.5464433282985444	-0.24968173125224757	-0.46604845904772396	1.3216317665355164	-0.3497310794839219	0.295363476640788	-0.35616793867473684	1.7818529681205462	-0.3209958085628648	-0.553831440490465	-0.35188398920288366	-0.35402955699167216	-0.4116646537108158	-0.37718809874266357	-0.3388506450924548	-0.4717494930441458	2.9321836827568095	-0.4176149546551433	-0.27824333745610097	-0.3095165988026865	-0.39763517315406705	-0.5112037804398081	-0.31643601613227496	-0.34973107948392185	-0.6574549401173696	-0.24145734127431245	-0.6837300775749651	-0.36465258274943624	-0.29536347664078805	-0.40767771256034563	-0.17927197918702087	-0.31643601613227496	-0.3709476780308946	-0.38131963485137044	-0.44109371155664995	-0.2856680199402452	-0.29296031766148345	-0.43136938400232516	-0.35188398920288366	-0.25770378116168946	-0.5093396191757931	-0.3410427545452439	1.3891812557774845	-0.22723837615371514	-0.14416100751597005	-0.32776066832815337	0.9964136166599662
CHEMBL220688	1.0	-0.5796550698475775	-0.3956130625887607	-0.3118340473100409	-0.29296031766148345	-0.5427463895880401	-0.27573706286071076	-0.40767771256034563	-0.21532745943554765	-0.2832083787067895	-0.30013051991046036	-0.40166551726626826	-0.4352685256926918	-0.31643601613227496	-0.44496223623878756	-0.35829928604223926	-0.7217667051650981	2.6957979769769964	-0.36254146571550083	-0.4488193945462509	-0.5667473261035905	3.962322551231789	-0.27824333745610097	2.190573238015819	-0.2243088616368177	-0.4849815466507112	3.3318837427740964	-0.2856680199402452	-0.43915503282684	-0.5297875485756219	-0.332223329141004	-0.21532745943554762	2.567276590262353	-0.3792566630111541	0.638822694552945	-0.42156267823233634	-0.18626971424152214	-0.768424485864545	-0.37303372633351084	-0.47743185531611554	0.8063483294820533	-0.41365202089425585	-0.3792566630111541	-0.35188398920288366	-0.37718809874266357	3.6944719253253977	-0.8411696987931088	-0.4254958003273136	-0.2550510153051018	-0.40567797137318373	1.5563197446350745	-0.5074742559794809	2.9704426289300234	-0.37303372633351084	1.8875490801710681	2.5945098730745815	-0.17927197918702087	2.119769103612839	-0.32776066832815337	-0.7449394761262472	-0.2732143382878626	-0.29775343088914713	2.5945098730745815	-0.38131963485137044	1.0837339003033295	-1.0811249552346707	-0.33444112413495103	-0.6724387801454332	1.5124158075090164	-0.40767771256034563	-0.36254146571550083	-0.24968173125224757	-0.36254146571550083	-0.28320837870678955	-0.8642117360266479	0.9271937208540033	-0.6668108263973315	-0.19962605140237988	1.191759143062248	-0.16830069266853703	-0.3095165988026865	0.9774985999379038	0.06004805767690767	-0.27573706286071076	-0.193046835626336	-0.24422258300730793	-0.16061919498779031	-0.31643601613227496	-0.4235310272854237	2.4174909089967573	-0.22134808531896508	0.7605589428059089	-0.20916500663351886	-0.2550510153051018	-0.17927197918702087	-0.46223672582095254	2.6224718283646133	-0.737182526674372	-0.39965262694272663	-0.2807336273214235	-0.20284755894409	0.0	-0.35402955699167216	2.237676081251332	-0.13977131156292244	2.038215147538238	-0.6017917781166581	-0.2832083787067895	0.49625462891182986	-0.3187210590100133	-0.23013785002169967	-0.4584156711285423	-0.3833771276146009	1.9490640252984617	-0.42156267823233634	2.2091359600850384	-0.21226474130316753	-0.2523772325625344	-0.35188398920288366	-0.2856680199402452	1.651568518538838	-0.332223329141004	-0.816496580927726	0.44496223623878756	-0.3209958085628648	-0.34757066781809537	0.8963569174955458	-0.2732143382878626	-0.33444112413495114	-1.9280856112459803	-0.37303372633351084	-0.44302942524536426	-0.4352685256926918	-0.3024950709910101	-0.5427463895880402	-0.32999657932147997	-0.24422258300730793	-1.2947131154360225	-0.43332056734305097	0.6481265518483904	-0.3048473998130456	-0.4849815466507112	-0.2732143382878626	-0.48309685381140866	-0.2832083787067895	-0.638822694552945	-0.37511382607638066	-0.218354746875495	0.9845504672902804	-0.2243088616368177	2.4650093684285816	-0.295363476640788	-0.39965262694272663	-0.20916500663351886	-0.26033619813883174	-0.23585120338693305	-0.5223656321567648	-0.32999657932147997	-0.2655425022718972	0.9429423479159332	-0.332223329141004	-0.38131963485137044	-0.4036739355464436	1.5340839789980452	-0.5482910294355557	-0.46223672582095254	-0.4254958003273136	-0.38542925212112084	0.8791039638138402	-0.4235310272854237	-0.24145734127431245	-0.28320837870678955	-0.18968434011107688	-1.2526894145121406	-0.3709476780308945	-0.3048473998130456	-0.7333165911365267	-0.3118340473100409	-0.599945708727211	-0.5556774509255208	-0.4603273902788415	-0.36885555678165877	-0.29775343088914713	-0.5445951256958484	1.129249467422068	-0.3540295569916722	-0.27573706286071076	-0.5279333569710825	-0.39358619998522626	-0.38542925212112084	-0.25237723256253436	-0.46795096130874764	-0.594409394578389	-0.5888753633396349	-0.47364562275300215	-0.25237723256253436	-0.3410427545452439	-0.5980999726097406	1.6771360672670106	-0.41365202089425585	-0.429414907892783	1.2750631998148219	-0.25770378116168946	-0.5316409400090458	-0.3895178274880811	-0.3410427545452439	-0.30013051991046036	-0.594409394578389	-0.4468922058820907	-0.4096732451993513	1.8300159379998127	-0.24968173125224757	-0.46604845904772396	1.3216317665355164	-0.3497310794839219	0.295363476640788	-0.35616793867473684	-0.5612135332663137	3.115305475411393	1.8056035228235054	-0.35188398920288366	-0.35402955699167216	-0.4116646537108158	-0.37718809874266357	-0.3388506450924548	-0.4717494930441458	-0.3410427545452439	-0.4176149546551433	-0.27824333745610097	-0.3095165988026865	2.51486806880774	-0.5112037804398081	-0.31643601613227496	2.859339814681735	-0.6574549401173696	-0.24145734127431245	1.4625654666923127	-0.36465258274943624	-0.29536347664078805	2.452918001623592	-0.17927197918702087	-0.31643601613227496	-0.3709476780308946	-0.38131963485137044	-0.44109371155664995	-0.2856680199402452	-0.29296031766148345	-0.43136938400232516	-0.35188398920288366	-0.25770378116168946	1.9633265553113415	-0.3410427545452439	-0.7198484689028785	-0.22723837615371514	-0.14416100751597005	3.0510067150546623	0.9964136166599662
