Compound_ID	AD	f_0	f_1	f_2	f_3	f_4	f_5	f_6	f_7	f_8	f_9	f_10	f_11	f_12	f_13	f_14	f_15	f_16	f_17	f_18	f_19	f_20	f_21	f_22	f_23	f_24	f_25	f_26	f_27	f_28	f_29	f_30	f_31	f_32	f_33	f_34	f_35	f_36	f_37	f_38	f_39	f_40	f_41	f_42	f_43	f_44	f_45	f_46	f_47	f_48	f_49	f_50	f_51	f_52	f_53	f_54	f_55	f_56	f_57	f_58	f_59	f_60	f_61	f_62	f_63	f_64	f_65	f_66	f_67	f_68	f_69	f_70	f_71	f_72	f_73	f_74	f_75	f_76	f_77	f_78	f_79	f_80	f_81	f_82	f_83	f_84	f_85	f_86	f_87	f_88	f_89	f_90	f_91	f_92	f_93	f_94	f_95	f_96	f_97	f_98	f_99	f_100	f_101	f_102	f_103	f_104	f_105	f_106	f_107	f_108	f_109	f_110	f_111	f_112	f_113	f_114	f_115	f_116	f_117	f_118	f_119	f_120	f_121	f_122	f_123	f_124	f_125	f_126	f_127	f_128	f_129	f_130	f_131	f_132	f_133	f_134	f_135	f_136	f_137	f_138	f_139	f_140	f_141	f_142	f_143	f_144	f_145	f_146	f_147	f_148	f_149	f_150	f_151	f_152	f_153	f_154	f_155	f_156	f_157	f_158	f_159	f_160	f_161	f_162	f_163	f_164	f_165	f_166	f_167	f_168	f_169	f_170	f_171	f_172	f_173	f_174	f_175	f_176	f_177	f_178	f_179	f_180	f_181	f_182	f_183	f_184	f_185	f_186	f_187	f_188	f_189	f_190	f_191	f_192	f_193	f_194	f_195	f_196	f_197	f_198	f_199	f_200	f_201	f_202	f_203	f_204	f_205	f_206	f_207	f_208	f_209	f_210	f_211	f_212	f_213	f_214	f_215	f_216	f_217	f_218	f_219	f_220	f_221	f_222	f_223	f_224	f_225	f_226	f_227	f_228	f_229	f_230	f_231	f_232	f_233	f_234	f_235	f_236	f_237	f_238	f_239	f_240	f_241	f_242	f_243	f_244	f_245	f_246	f_247	f_248	f_249	f_250	f_251	f_252	f_253	f_254	f_255	f_256	f_257	f_258	f_259	f_260	f_261	f_262	f_263	f_264	f_265	f_266	f_267	f_268	f_269	f_270	f_271	f_272	f_273	f_274	f_275	f_276	f_277	f_278	f_279	f_280	f_281	f_282	f_283	f_284	f_285	f_286	f_287	f_288	f_289	f_290	f_291	f_292	f_293	f_294	f_295	f_296	f_297	f_298	f_299	f_300	f_301	f_302	f_303	f_304	f_305	f_306	f_307	f_308	f_309	f_310	f_311	f_312	f_313	f_314	f_315	f_316	f_317	f_318	f_319	f_320	f_321	f_322	f_323	f_324	f_325	f_326	f_327	f_328	f_329	f_330	f_331	f_332	f_333	f_334	f_335	f_336	f_337	f_338	f_339	f_340	f_341	f_342	f_343	f_344	f_345	f_346	f_347	f_348	f_349	f_350	f_351	f_352	f_353	f_354	f_355	f_356	f_357	f_358	f_359	f_360	f_361	f_362	f_363	f_364	f_365	f_366	f_367	f_368	f_369	f_370	f_371	f_372	f_373	f_374	f_375	f_376	f_377	f_378	f_379	f_380	f_381	f_382	f_383	f_384	f_385	f_386	f_387	f_388	f_389	f_390	f_391	f_392	f_393	f_394	f_395	f_396	f_397	f_398	f_399	f_400	f_401	f_402	f_403	f_404	f_405	f_406	f_407	f_408	f_409	f_410	f_411	f_412	f_413	f_414	f_415	f_416	f_417	f_418	f_419	f_420	f_421	f_422	f_423	f_424	f_425	f_426	f_427	f_428	f_429	f_430	f_431	f_432	f_433	f_434	f_435	f_436	f_437	f_438	f_439	f_440	f_441	f_442	f_443	f_444	f_445	f_446	f_447	f_448	f_449	f_450	f_451	f_452	f_453	f_454	f_455	f_456	f_457	f_458	f_459	f_460	f_461	f_462	f_463	f_464	f_465	f_466	f_467	f_468	f_469	f_470	f_471	f_472	f_473	f_474	f_475	f_476	f_477	f_478	f_479	f_480	f_481	f_482	f_483	f_484	f_485	f_486	f_487	f_488	f_489	f_490	f_491	f_492	f_493	f_494	f_495	f_496	f_497	f_498	f_499	f_500	f_501	f_502	f_503	f_504	f_505	f_506	f_507	f_508	f_509	f_510	f_511
CHEMBL3954122	1.0	-0.49296120809671423	-0.3434943879951159	-0.2035717108083572	-0.25772206775253464	-0.43227111425789944	-0.1326862231085688	-0.2870487828668123	-0.13928514900622418	-0.24209101306752095	4.804511768466525	-0.1989179361539351	2.589723279940671	-0.1632267870608547	-0.2799253631867321	-0.3466338684544398	-0.7983694431185243	-0.20357171080835723	-0.14560705143488706	-0.16872981624383912	-0.26527414191807375	-0.23397548065437376	-0.1989179361539351	-0.11846977555181848	-0.14560705143488706	-0.13928514900622418	-0.27267094157460586	-0.18436178168863	-0.24209101306752095	-0.1687298162438391	-0.3275357896270117	-0.10241831129983783	-0.2170286830706078	-0.4180870100439377	-1.5175167685588	-0.261518387332753	-0.20357171080835723	-0.6454972243679029	-0.2940512972485138	-0.14560705143488706	-0.22983323327664582	-0.25772206775253464	-0.26527414191807375	-0.3339737437860371	-0.40370517361463093	-0.21262162778128113	-0.42944875073540123	-0.5600324665913251	-0.11072124636128718	-0.15168668220223594	-0.3497571973346348	1.5051699980945148	-0.13928514900622418	-0.30434782608695654	-0.4875319129729083	-0.10241831129983783	-0.14560705143488706	-0.261518387332753	-0.17928429140015903	-0.23397548065437376	-0.23806041357580432	-0.13928514900622418	-0.4065987956759849	5.027198750072179	3.2857142857142856	-1.2993737310809605	-0.3009419175453115	-0.26899110619750616	-0.5252981913594169	-0.2799253631867321	-0.15168668220223594	-0.09341307986787181	-0.3275357896270117	-0.34349438799511595	-0.47389478915307837	-0.5840096620629068	-0.28704878286681235	-0.1893206114156883	-0.3077287274483319	-0.12576654244509558	-0.24209101306752095	1.0755075164360535	-0.4820885620538128	-0.2035717108083572	-0.2799253631867321	-0.21262162778128113	-0.18436178168863	-0.3110855084191276	-0.18436178168863002	-0.25	-0.11846977555181848	1.0316422414217608	-0.1575521978122203	-0.20813769394078804	-0.11072124636128718	-0.3110855084191276	-0.25388328404068955	-0.28704878286681235	-0.24209101306752095	-0.24607002807249065	10.70513895285811	-0.07223151185146151	4.9122738912451425	-0.3466338684544398	-0.12576654244509558	-0.1989179361539351	-0.1326862231085688	-0.14560705143488706	-0.2799253631867321	-0.1326862231085688	-0.46841144595368506	-0.33076425200295	-0.49296120809671423	-0.30094191754531147	-0.2577220677525346	-0.552032975754657	-0.19416996385988766	-0.11072124636128718	-0.3339737437860371	-0.1989179361539351	-0.443494498951694	-0.12576654244509558	-0.6616728385491063	-0.2035717108083572	-0.1989179361539351	-0.2256304299271065	-0.30434782608695654	-0.18436178168863	-0.2170286830706078	0.6915640748081247	-0.4123596559193922	-0.24209101306752095	-0.27267094157460586	-0.1326862231085688	-0.25388328404068955	2.5132559949600304	-0.22136353557447683	-0.982846068597633	-0.11846977555181848	0.5653624529417804	-0.2975100688289623	-0.5306566237485024	-0.18436178168863004	-0.34975719733463484	4.432026302139592	1.5175167685588002	-0.1893206114156883	-0.18436178168863	-1.0830200048138852	-0.15168668220223594	-0.20813769394078804	-0.2256304299271065	-0.2298332332766458	-0.1575521978122203	-0.15168668220223594	-0.1575521978122203	2.226827987653725	-0.18436178168863	-0.420938724006993	-0.2256304299271065	-0.13928514900622418	-0.5626977000082132	-0.5306566237485024	-0.47663006704025085	2.7616780535829646	-0.17407765595569788	-0.2905645665847724	-0.1575521978122203	-0.2170286830706078	-0.32753578962701174	-0.18436178168863	-0.2256304299271065	-0.1326862231085688	-0.1326862231085688	-0.26527414191807375	-0.11846977555181848	-0.7525926281572518	-0.1632267870608547	-0.23806041357580432	-0.1575521978122203	-0.14560705143488706	-0.26899110619750616	-0.26527414191807375	-0.6454972243679029	-0.8792076745395967	-0.4266193736570693	-0.09341307986787181	-0.5946679548965088	1.8940173144144137	-0.25	-0.22983323327664582	-0.3009419175453115	-0.7385489458759964	-0.2256304299271065	-0.41808701004393767	-0.23397548065437376	-0.16872981624383912	-0.4983774970738875	-0.41808701004393767	-0.2689911061975062	4.0	-0.4237827706911807	-0.2256304299271065	2.074307666084754	-0.27631520607789506	-0.2170286830706078	-0.2763152060778951	-0.5440258500848448	-0.3210193687528897	-0.18436178168863	1.5427627682389564	3.023301320939245	2.809325131113822	-0.44349449895169396	-0.30772872744833185	0.18436178168863002	-0.12576654244509558	-0.374218449213498	-0.1326862231085688	-0.4546213639405305	-0.15168668220223594	-0.1989179361539351	-0.26527414191807375	2.2268279876537247	-0.2170286830706078	-0.33076425200295	-0.1893206114156883	-0.3559573752873263	-0.38909436170517425	-0.3920364967327138	3.1473259089834484	-0.1941699638598877	-0.28350278971414183	4.0	-0.374218449213498	6.12644540768408	-0.25772206775253464	-0.25	-0.2870487828668123	-0.18436178168863002	-0.18436178168863	-0.22136353557447688	-0.22136353557447688	-0.24209101306752095	-0.25772206775253464	-0.1893206114156883	4.0	-0.25	-0.18436178168863	-0.17407765595569788	-0.35903516540862673	-0.2689911061975062	-0.2170286830706078	-0.30434782608695654	-0.17407765595569788	-0.2170286830706078	2.028557183760815	-0.15168668220223594	-0.1989179361539351	7.536577472566708	-0.35286487311298476	-0.23397548065437376	-0.2835027897141419	-0.2256304299271065	-0.1632267870608547	-0.28350278971414183	-0.17928429140015903	3.8238229066761997	-0.34033823739056385	3.823822906676199	-0.3210193687528897	5.577733510227169	2.44210061661815	-0.27267094157460586	-0.2763152060778951	-0.6267145158182865	2.0065111403931297	-0.20357171080835723	-0.2170286830706078	-0.3177300441449958	-0.18436178168863002	-0.5786821054903812	-0.17928429140015903	-0.2799253631867321	-0.47936127716217664	-0.261518387332753	3.7175950318065603	-0.16872981624383912	3.400767176874116	-0.3339737437860371	-0.4711552981879444	3.2857142857142856	-0.25772206775253464	-0.23397548065437376	-0.1740776559556979	-0.44069816885602997	0.6915640748081247	2.884888324556306	-0.35903516540862673	-0.13928514900622418	-0.25	3.7175950318065603	1.3853490243227224	-0.19416996385988766	-0.24209101306752095	2.3918466156002016	-0.32428771777631915	-0.20813769394078804	-0.11072124636128718	-0.1941699638598877	2.3285665595430642	-0.337164876792619	-0.23806041357580432	-0.12576654244509558	3.823822906676199	1.7280644943264485	-0.3978902276590028	-0.3077287274483319	-0.23806041357580432	6.592536572635638	-1.056984445115498	3.1473259089834484	-0.30434782608695654	-0.6725037594933304	-0.7667542552292018	-0.24209101306752095	2.45942686164986	-0.19416996385988766	-0.30434782608695654	-0.2256304299271065	-0.637437082435012	1.5175167685588	-0.6133436852128472	-0.10241831129983782	1.6968189741019764	-0.1575521978122203	-0.26527414191807375	-0.18436178168863	0.08347838711296825	4.0	4.273952113286562	-0.3009419175453115	-0.1575521978122203	-0.49567091418845	-0.3772167680771589	-0.25388328404068955	-0.2035717108083572	-0.1893206114156883	-0.12576654244509558	-0.11846977555181848	-0.11072124636128718	-0.38020317653268565	-0.22136353557447683	1.2993737310809603	-0.34033823739056385	-0.13928514900622418	-0.14560705143488706	0.0	-0.1326862231085688	-0.2763152060778951	-0.08347838711296823	-0.30434782608695654	-0.5760184328847832	-0.1326862231085688	0.6428086293643933	4.432026302139592	-0.13928514900622418	-0.3177300441449958	2.3285665595430642	-0.2035717108083572	1.9036806454865267	-0.18436178168863	4.432026302139592	-0.20813769394078804	-0.17407765595569788	2.9942473580817115	-0.25388328404068955	1.9639610121239315	-0.24607002807249065	0.33716487679261903	-0.261518387332753	3.527302151094556	-1.23005832311353	-0.18436178168863	-0.27631520607789506	-0.772453935761174	-0.29751006882896236	-0.3890943617051742	3.083681389036635	-0.24607002807249065	-0.5573666624152204	-0.1326862231085688	-0.14560705143488706	1.2480072611542792	-0.4008024080281012	-0.23397548065437376	-0.10241831129983783	-0.25	-0.12576654244509558	-0.2689911061975062	-0.3110855084191276	-0.29405129724851387	-0.25772206775253464	-0.13928514900622418	-0.3009419175453115	-0.23806041357580432	-0.20357171080835723	-0.2835027897141419	-0.34033823739056385	-0.10241831129983783	-0.2256304299271065	-0.2870487828668123	-0.1989179361539351	-0.23806041357580432	-0.22136353557447688	0.8247621221537363	3.572380825430676	-0.21262162778128113	-0.2689911061975062	-0.22136353557447688	-0.30434782608695654	-0.618688224889746	-0.24607002807249065	-0.1632267870608547	0.6833776965501084	-0.20357171080835723	-0.15168668220223594	-0.22136353557447688	-0.14560705143488706	0.7554152327780023	-0.337164876792619	-0.31441901276696615	-0.21262162778128113	-0.22136353557447683	1.3960585918351474	-0.4237827706911807	1.6519782861964367	-0.26527414191807375	-0.20813769394078804	2.425067500287854	-0.20357171080835723	-0.17928429140015906	3.527302151094556	-0.23806041357580432	-0.18436178168863004	-0.1575521978122203	-0.18436178168863002	-0.42944875073540123	-0.4123596559193922	-0.597333668678645	-0.451848057057532	-0.1632267870608547	-0.19416996385988766	-0.3620986880431675	-0.24607002807249065	-0.2689911061975062	-0.35903516540862673	1.2756460039026214	-0.2256304299271065	-0.40370517361463093	-0.24209101306752095	-0.14560705143488706	-0.17928429140015903	-0.29405129724851387	-0.3210193687528897	1.8940173144144137	-0.23806041357580432	-0.1575521978122203	-0.1893206114156883	-0.6160153734559949	-0.2035717108083572	-0.1893206114156883	-0.44069816885602997	-0.47663006704025085	-0.47936127716217664	-0.1687298162438391	5.926634795564849	-0.20357171080835723	-0.1326862231085688	-0.14560705143488706	-0.2975100688289623	-0.38020317653268565	-0.3210193687528897	-0.2799253631867321	-0.09341307986787181	-0.23806041357580432	-0.27267094157460586	-0.5306566237485024	-0.23397548065437376	-0.1893206114156883	-0.5786821054903812	-0.24607002807249065	-0.6508804192761097	-0.29405129724851387	-0.20357171080835723	-0.1687298162438391	-0.19416996385988766	-0.17407765595569788	-0.3978902276590028	2.785242495291165	-0.1632267870608547	-0.3466338684544398	-0.1740776559556979	3.9388178066884123	-0.17928429140015903	-0.34033823739056385	3.7175950318065603	-0.2905645665847724	1.141397759162648	-0.11846977555181848	-0.10241831129983783	-0.1575521978122203	-0.6725037594933305
CHEMBL3936249	1.0	-0.49296120809671423	-0.3434943879951159	-0.2035717108083572	-0.25772206775253464	-0.43227111425789944	-0.1326862231085688	-0.2870487828668123	-0.13928514900622418	4.130677910464576	-0.20813769394078804	-0.1989179361539351	2.589723279940671	-0.1632267870608547	-0.2799253631867321	-0.3466338684544398	1.2525529485370623	-0.20357171080835723	-0.14560705143488706	-0.16872981624383912	-0.26527414191807375	-0.23397548065437376	-0.1989179361539351	-0.11846977555181848	-0.14560705143488706	-0.13928514900622418	-0.27267094157460586	-0.18436178168863	-0.24209101306752095	-0.1687298162438391	-0.3275357896270117	-0.10241831129983783	-0.2170286830706078	-0.4180870100439377	0.6589713014833498	-0.261518387332753	-0.20357171080835723	-0.6454972243679029	3.400767176874116	-0.14560705143488706	-0.22983323327664582	-0.25772206775253464	-0.26527414191807375	-0.3339737437860371	-0.40370517361463093	-0.21262162778128113	-0.42944875073540123	-0.5600324665913251	-0.11072124636128718	6.592536572635638	2.859126295672014	-0.6643767822013193	-0.13928514900622418	3.2857142857142856	-0.4875319129729083	-0.10241831129983783	-0.14560705143488706	-0.261518387332753	-0.17928429140015903	4.273952113286562	-0.23806041357580432	-0.13928514900622418	-0.4065987956759849	-0.1989179361539351	-0.30434782608695654	0.7696015211636543	-0.3009419175453115	3.71759503180656	-0.5252981913594169	-0.2799253631867321	-0.15168668220223594	-0.09341307986787181	-0.3275357896270117	-0.34349438799511595	-0.47389478915307837	-0.5840096620629068	-0.28704878286681235	-0.1893206114156883	-0.3077287274483319	-0.12576654244509558	-0.24209101306752095	-0.9297935948543946	-0.4820885620538128	-0.2035717108083572	-0.2799253631867321	-0.21262162778128113	-0.18436178168863	-0.3110855084191276	-0.18436178168863002	-0.25	-0.11846977555181848	1.0316422414217608	-0.1575521978122203	-0.20813769394078804	-0.11072124636128718	-0.3110855084191276	-0.25388328404068955	3.483728410247222	-0.24209101306752095	-0.24607002807249065	-0.09341307986787181	-0.07223151185146151	-0.20357171080835723	-0.3466338684544398	-0.12576654244509558	-0.1989179361539351	-0.1326862231085688	-0.14560705143488706	-0.2799253631867321	-0.1326862231085688	-0.46841144595368506	3.0233013209392445	2.028557183760815	-0.30094191754531147	3.880148908940938	1.8114859871060225	-0.19416996385988766	-0.11072124636128718	-0.3339737437860371	-0.1989179361539351	2.2548193999333495	-0.12576654244509558	1.5113209153223905	-0.2035717108083572	-0.1989179361539351	-0.2256304299271065	-0.30434782608695654	-0.18436178168863	-0.2170286830706078	-1.4459976109624424	2.425067500287854	-0.24209101306752095	-0.27267094157460586	-0.1326862231085688	-0.25388328404068955	-0.3978902276590028	-0.22136353557447683	-0.982846068597633	-0.11846977555181848	0.5653624529417804	-0.2975100688289623	1.8844577740990123	-0.18436178168863004	-0.34975719733463484	-0.2256304299271065	-0.6589713014833499	-0.1893206114156883	-0.18436178168863	0.92334397846312	-0.15168668220223594	-0.20813769394078804	-0.2256304299271065	-0.2298332332766458	-0.1575521978122203	-0.15168668220223594	-0.1575521978122203	-0.4490692615434747	-0.18436178168863	-0.420938724006993	-0.2256304299271065	-0.13928514900622418	-0.5626977000082132	-0.5306566237485024	-0.47663006704025085	-0.3620986880431675	-0.17407765595569788	-0.2905645665847724	-0.1575521978122203	-0.2170286830706078	-0.32753578962701174	-0.18436178168863	-0.2256304299271065	-0.1326862231085688	-0.1326862231085688	-0.26527414191807375	-0.11846977555181848	-0.7525926281572518	-0.1632267870608547	-0.23806041357580432	-0.1575521978122203	-0.14560705143488706	-0.26899110619750616	-0.26527414191807375	-0.6454972243679029	-0.8792076745395967	-0.4266193736570693	-0.09341307986787181	1.6816107068927764	1.8940173144144137	-0.25	4.350980864444089	-0.3009419175453115	-0.7385489458759964	-0.2256304299271065	-0.41808701004393767	4.273952113286562	-0.16872981624383912	-0.4983774970738875	2.3918466156002016	-0.2689911061975062	-0.25	-0.4237827706911807	-0.2256304299271065	-0.4820885620538128	-0.27631520607789506	-0.2170286830706078	-0.2763152060778951	-0.5440258500848448	-0.3210193687528897	-0.18436178168863	1.5427627682389564	-0.33076425200295007	2.809325131113822	-0.44349449895169396	-0.30772872744833185	0.18436178168863002	-0.12576654244509558	-0.374218449213498	-0.1326862231085688	-0.4546213639405305	-0.15168668220223594	-0.1989179361539351	-0.26527414191807375	-0.44906926154347465	4.607685886729827	-0.33076425200295	-0.1893206114156883	-0.3559573752873263	-0.38909436170517425	-0.3920364967327138	-0.3177300441449958	-0.1941699638598877	-0.28350278971414183	-0.25	-0.374218449213498	-0.1632267870608547	-0.25772206775253464	-0.25	3.4837284102472217	-0.18436178168863002	-0.18436178168863	-0.22136353557447688	-0.22136353557447688	-0.24209101306752095	-0.25772206775253464	-0.1893206114156883	-0.25	-0.25	-0.18436178168863	-0.17407765595569788	-0.35903516540862673	-0.2689911061975062	-0.2170286830706078	3.2857142857142856	5.7445626465380295	-0.2170286830706078	-0.49296120809671423	-0.15168668220223594	-0.1989179361539351	-0.1326862231085688	2.8339460121886586	4.273952113286562	-0.2835027897141419	-0.2256304299271065	-0.1632267870608547	-0.28350278971414183	-0.17928429140015903	-0.26151838733275307	-0.34033823739056385	-0.261518387332753	-0.3210193687528897	-0.17928429140015903	2.44210061661815	-0.27267094157460586	-0.2763152060778951	-0.6267145158182865	-0.4983774970738875	-0.20357171080835723	-0.2170286830706078	-0.3177300441449958	-0.18436178168863002	-0.5786821054903812	-0.17928429140015903	-0.2799253631867321	-0.47936127716217664	3.823822906676199	-0.2689911061975062	-0.16872981624383912	-0.2940512972485138	-0.3339737437860371	-0.4711552981879444	-0.30434782608695654	-0.25772206775253464	-0.23397548065437376	-0.1740776559556979	-0.44069816885602997	0.6915640748081247	-0.3466338684544398	-0.35903516540862673	-0.13928514900622418	-0.25	-0.2689911061975062	-0.7218397547786816	-0.19416996385988766	-0.24209101306752095	2.3918466156002016	-0.32428771777631915	-0.20813769394078804	-0.11072124636128718	-0.1941699638598877	2.3285665595430642	-0.337164876792619	-0.23806041357580432	-0.12576654244509558	-0.261518387332753	1.7280644943264485	-0.3978902276590028	-0.3077287274483319	4.200614394385967	-0.15168668220223594	-1.056984445115498	-0.3177300441449958	-0.30434782608695654	-0.6725037594933304	-0.7667542552292018	-0.24209101306752095	-0.4065987956759849	-0.19416996385988766	-0.30434782608695654	-0.2256304299271065	-0.637437082435012	-0.6589713014833498	-0.6133436852128472	-0.10241831129983782	1.6968189741019764	-0.1575521978122203	-0.26527414191807375	-0.18436178168863	0.08347838711296825	-0.25	4.273952113286562	-0.3009419175453115	-0.1575521978122203	-0.49567091418845	-0.3772167680771589	3.9388178066884123	-0.2035717108083572	-0.1893206114156883	-0.12576654244509558	-0.11846977555181848	-0.11072124636128718	-0.38020317653268565	-0.22136353557447683	1.2993737310809603	-0.34033823739056385	-0.13928514900622418	-0.14560705143488706	0.0	-0.1326862231085688	-0.2763152060778951	-0.08347838711296823	-0.30434782608695654	-0.5760184328847832	-0.1326862231085688	0.6428086293643933	-0.2256304299271065	-0.13928514900622418	3.1473259089834484	-0.42944875073540123	-0.2035717108083572	-0.5252981913594169	-0.18436178168863	-0.2256304299271065	4.804511768466525	-0.17407765595569788	-0.3339737437860371	3.9388178066884123	-0.5091750772173155	-0.24607002807249065	-2.965907983989309	-0.261518387332753	3.527302151094556	0.8129695813681377	-0.18436178168863	-0.27631520607789506	-0.772453935761174	-0.29751006882896236	-0.3890943617051742	3.083681389036635	-0.24607002807249065	-0.5573666624152204	-0.1326862231085688	-0.14560705143488706	1.2480072611542792	2.49499498997493	-0.23397548065437376	-0.10241831129983783	-0.25	-0.12576654244509558	-0.2689911061975062	-0.3110855084191276	-0.29405129724851387	-0.25772206775253464	-0.13928514900622418	-0.3009419175453115	-0.23806041357580432	4.9122738912451425	-0.2835027897141419	-0.34033823739056385	-0.10241831129983783	-0.2256304299271065	-0.2870487828668123	-0.1989179361539351	-0.23806041357580432	-0.22136353557447688	-1.2124708120550654	-0.2799253631867321	4.703190406521939	-0.2689911061975062	-0.22136353557447688	-0.30434782608695654	-0.618688224889746	-0.24607002807249065	-0.1632267870608547	0.6833776965501084	-0.20357171080835723	-0.15168668220223594	-0.22136353557447688	-0.14560705143488706	-1.3237752650585946	-0.337164876792619	-0.31441901276696615	-0.21262162778128113	-0.22136353557447683	-0.7163023141353112	-0.4237827706911807	-0.6053348330034225	-0.26527414191807375	-0.20813769394078804	-0.4123596559193922	-0.20357171080835723	-0.17928429140015906	-0.2835027897141419	-0.23806041357580432	-0.18436178168863004	-0.1575521978122203	-0.18436178168863002	-0.42944875073540123	-0.4123596559193922	1.674106203007255	-0.451848057057532	6.12644540768408	-0.19416996385988766	-0.3620986880431675	-0.24607002807249065	3.7175950318065603	2.785242495291165	-0.7839165387111082	4.432026302139592	-0.40370517361463093	-0.24209101306752095	-0.14560705143488706	-0.17928429140015903	-0.29405129724851387	-0.3210193687528897	-0.5279782779119826	-0.23806041357580432	-0.1575521978122203	-0.1893206114156883	-0.6160153734559949	-0.2035717108083572	-0.1893206114156883	-0.44069816885602997	2.0980631922986746	-0.47936127716217664	-0.1687298162438391	-0.16872981624383912	-0.20357171080835723	-0.1326862231085688	-0.14560705143488706	-0.2975100688289623	-0.38020317653268565	-0.3210193687528897	-0.2799253631867321	-0.09341307986787181	-0.23806041357580432	-0.27267094157460586	-0.5306566237485024	-0.23397548065437376	-0.1893206114156883	-0.5786821054903812	-0.24607002807249065	-0.6508804192761097	-0.29405129724851387	-0.20357171080835723	-0.1687298162438391	-0.19416996385988766	-0.17407765595569788	-0.3978902276590028	-0.35903516540862673	-0.1632267870608547	-0.3466338684544398	-0.1740776559556979	-0.25388328404068955	5.57773351022717	2.9382534494718686	-0.2689911061975062	3.441575866437415	-0.8761187692655188	-0.11846977555181848	-0.10241831129983783	-0.1575521978122203	-0.6725037594933305
CHEMBL3983770	1.0	-0.49296120809671423	2.9112557146471296	4.912273891245142	-0.25772206775253464	-0.43227111425789944	-0.1326862231085688	-0.2870487828668123	-0.13928514900622418	-0.24209101306752095	-0.20813769394078804	-0.1989179361539351	-0.386141642138271	-0.1632267870608547	-0.2799253631867321	2.884888324556306	1.2525529485370623	-0.20357171080835723	-0.14560705143488706	-0.16872981624383912	-0.26527414191807375	-0.23397548065437376	-0.1989179361539351	-0.11846977555181848	-0.14560705143488706	-0.13928514900622418	-0.27267094157460586	-0.18436178168863	-0.24209101306752095	-0.1687298162438391	-0.3275357896270117	-0.10241831129983783	-0.2170286830706078	-0.4180870100439377	0.6589713014833498	-0.261518387332753	-0.20357171080835723	-0.6454972243679029	-0.2940512972485138	-0.14560705143488706	-0.22983323327664582	-0.25772206775253464	-0.26527414191807375	-0.3339737437860371	-0.40370517361463093	-0.21262162778128113	-0.42944875073540123	-0.5600324665913251	-0.11072124636128718	-0.15168668220223594	-0.3497571973346348	1.5051699980945148	-0.13928514900622418	-0.30434782608695654	-0.4875319129729083	-0.10241831129983783	-0.14560705143488706	-0.261518387332753	-0.17928429140015903	-0.23397548065437376	-0.23806041357580432	-0.13928514900622418	-0.4065987956759849	-0.1989179361539351	3.2857142857142856	0.7696015211636543	-0.3009419175453115	-0.26899110619750616	-0.5252981913594169	-0.2799253631867321	-0.15168668220223594	-0.09341307986787181	-0.3275357896270117	-0.34349438799511595	-0.47389478915307837	1.712300437749067	-0.28704878286681235	-0.1893206114156883	-0.3077287274483319	-0.12576654244509558	-0.24209101306752095	1.0755075164360535	-0.4820885620538128	-0.2035717108083572	-0.2799253631867321	-0.21262162778128113	-0.18436178168863	-0.3110855084191276	-0.18436178168863002	4.0	-0.11846977555181848	1.0316422414217608	-0.1575521978122203	-0.20813769394078804	-0.11072124636128718	-0.3110855084191276	-0.25388328404068955	-0.28704878286681235	-0.24209101306752095	-0.24607002807249065	-0.09341307986787181	-0.07223151185146151	-0.20357171080835723	-0.3466338684544398	-0.12576654244509558	-0.1989179361539351	-0.1326862231085688	-0.14560705143488706	-0.2799253631867321	-0.1326862231085688	-0.46841144595368506	-0.33076425200295	2.028557183760815	-0.30094191754531147	-0.2577220677525346	-0.552032975754657	-0.19416996385988766	-0.11072124636128718	-0.3339737437860371	-0.1989179361539351	-0.443494498951694	-0.12576654244509558	1.5113209153223905	-0.2035717108083572	-0.1989179361539351	-0.2256304299271065	3.2857142857142856	-0.18436178168863	-0.2170286830706078	0.6915640748081247	-0.4123596559193922	-0.24209101306752095	-0.27267094157460586	-0.1326862231085688	-0.25388328404068955	-0.3978902276590028	-0.22136353557447683	-0.982846068597633	-0.11846977555181848	0.5653624529417804	-0.2975100688289623	-0.5306566237485024	-0.18436178168863004	-0.34975719733463484	-0.2256304299271065	1.5175167685588002	-0.1893206114156883	-0.18436178168863	-1.0830200048138852	-0.15168668220223594	-0.20813769394078804	-0.2256304299271065	-0.2298332332766458	-0.1575521978122203	-0.15168668220223594	-0.1575521978122203	2.226827987653725	-0.18436178168863	-0.420938724006993	-0.2256304299271065	-0.13928514900622418	-0.5626977000082132	-0.5306566237485024	-0.47663006704025085	-0.3620986880431675	5.7445626465380295	-0.2905645665847724	-0.1575521978122203	-0.2170286830706078	-0.32753578962701174	-0.18436178168863	-0.2256304299271065	-0.1326862231085688	-0.1326862231085688	-0.26527414191807375	-0.11846977555181848	-0.7525926281572518	-0.1632267870608547	-0.23806041357580432	-0.1575521978122203	-0.14560705143488706	-0.26899110619750616	-0.26527414191807375	-0.6454972243679029	-0.8792076745395967	-0.4266193736570693	-0.09341307986787181	-0.5946679548965088	-0.5279782779119826	-0.25	-0.22983323327664582	-0.3009419175453115	-0.7385489458759964	-0.2256304299271065	-0.41808701004393767	-0.23397548065437376	-0.16872981624383912	-0.4983774970738875	-0.41808701004393767	-0.2689911061975062	4.0	-0.4237827706911807	-0.2256304299271065	-0.4820885620538128	-0.27631520607789506	-0.2170286830706078	-0.2763152060778951	-0.5440258500848448	3.115076837528041	-0.18436178168863	1.5427627682389564	3.023301320939245	-0.3559573752873263	2.254819399933349	-0.30772872744833185	0.18436178168863002	-0.12576654244509558	-0.374218449213498	-0.1326862231085688	2.19963265987388	-0.15168668220223594	-0.1989179361539351	-0.26527414191807375	2.2268279876537247	-0.2170286830706078	-0.33076425200295	-0.1893206114156883	-0.3559573752873263	-0.38909436170517425	-0.3920364967327138	3.1473259089834484	-0.1941699638598877	-0.28350278971414183	4.0	-0.374218449213498	-0.1632267870608547	3.8801489089409382	-0.25	-0.2870487828668123	-0.18436178168863002	-0.18436178168863	-0.22136353557447688	-0.22136353557447688	-0.24209101306752095	-0.25772206775253464	-0.1893206114156883	-0.25	-0.25	-0.18436178168863	-0.17407765595569788	-0.35903516540862673	-0.2689911061975062	-0.2170286830706078	-0.30434782608695654	-0.17407765595569788	-0.2170286830706078	2.028557183760815	-0.15168668220223594	-0.1989179361539351	-0.1326862231085688	-0.35286487311298476	-0.23397548065437376	-0.2835027897141419	-0.2256304299271065	-0.1632267870608547	-0.28350278971414183	-0.17928429140015903	3.8238229066761997	-0.34033823739056385	-0.261518387332753	-0.3210193687528897	-0.17928429140015903	2.44210061661815	3.6674241641784495	-0.2763152060778951	-0.6267145158182865	2.0065111403931297	-0.20357171080835723	-0.2170286830706078	-0.3177300441449958	-0.18436178168863002	-0.5786821054903812	-0.17928429140015903	-0.2799253631867321	-0.47936127716217664	-0.261518387332753	3.7175950318065603	-0.16872981624383912	-0.2940512972485138	-0.3339737437860371	-0.4711552981879444	-0.30434782608695654	-0.25772206775253464	-0.23397548065437376	-0.1740776559556979	-0.44069816885602997	0.6915640748081247	-0.3466338684544398	-0.35903516540862673	-0.13928514900622418	-0.25	3.7175950318065603	1.3853490243227224	-0.19416996385988766	-0.24209101306752095	-0.41808701004393767	-0.32428771777631915	-0.20813769394078804	9.031690238899282	-0.1941699638598877	-0.42944875073540123	2.9659079839893088	-0.23806041357580432	-0.12576654244509558	3.823822906676199	1.7280644943264485	-0.3978902276590028	-0.3077287274483319	-0.23806041357580432	-0.15168668220223594	-1.056984445115498	3.1473259089834484	-0.30434782608695654	-0.6725037594933304	1.3041988266515396	-0.24209101306752095	2.45942686164986	-0.19416996385988766	-0.30434782608695654	-0.2256304299271065	-0.637437082435012	1.5175167685588	-0.6133436852128472	-0.10241831129983782	1.6968189741019764	-0.1575521978122203	-0.26527414191807375	-0.18436178168863	0.08347838711296825	4.0	-0.23397548065437376	-0.3009419175453115	-0.1575521978122203	-0.49567091418845	-0.3772167680771589	-0.25388328404068955	-0.2035717108083572	-0.1893206114156883	-0.12576654244509558	-0.11846977555181848	-0.11072124636128718	-0.38020317653268565	-0.22136353557447683	1.2993737310809603	-0.34033823739056385	-0.13928514900622418	-0.14560705143488706	0.0	-0.1326862231085688	-0.2763152060778951	-0.08347838711296823	-0.30434782608695654	-0.5760184328847832	-0.1326862231085688	0.6428086293643933	-0.2256304299271065	-0.13928514900622418	-0.3177300441449958	2.3285665595430642	-0.2035717108083572	1.9036806454865267	-0.18436178168863	-0.2256304299271065	4.804511768466525	5.7445626465380295	-0.3339737437860371	-0.25388328404068955	1.9639610121239315	-0.24607002807249065	0.33716487679261903	-0.261518387332753	3.527302151094556	-1.23005832311353	5.4241176823128505	3.6190552600934063	-0.772453935761174	-0.29751006882896236	-0.3890943617051742	-0.32428771777631915	-0.24607002807249065	-0.5573666624152204	-0.1326862231085688	-0.14560705143488706	-0.801277389263827	-0.4008024080281012	-0.23397548065437376	-0.10241831129983783	-0.25	-0.12576654244509558	-0.2689911061975062	-0.3110855084191276	-0.29405129724851387	-0.25772206775253464	-0.13928514900622418	-0.3009419175453115	-0.23806041357580432	-0.20357171080835723	-0.2835027897141419	-0.34033823739056385	-0.10241831129983783	-0.2256304299271065	-0.2870487828668123	-0.1989179361539351	-0.23806041357580432	-0.22136353557447688	0.8247621221537363	3.572380825430676	-0.21262162778128113	-0.2689911061975062	-0.22136353557447688	-0.30434782608695654	-0.618688224889746	-0.24607002807249065	-0.1632267870608547	0.6833776965501084	-0.20357171080835723	-0.15168668220223594	-0.22136353557447688	-0.14560705143488706	0.7554152327780023	-0.337164876792619	-0.31441901276696615	-0.21262162778128113	-0.22136353557447683	1.3960585918351474	-0.4237827706911807	-0.6053348330034225	-0.26527414191807375	-0.20813769394078804	2.425067500287854	-0.20357171080835723	-0.17928429140015906	3.527302151094556	-0.23806041357580432	-0.18436178168863004	-0.1575521978122203	-0.18436178168863002	-0.42944875073540123	-0.4123596559193922	-0.597333668678645	-0.451848057057532	-0.1632267870608547	-0.19416996385988766	-0.3620986880431675	-0.24607002807249065	-0.2689911061975062	-0.35903516540862673	1.2756460039026214	-0.2256304299271065	-0.40370517361463093	-0.24209101306752095	-0.14560705143488706	-0.17928429140015903	-0.29405129724851387	-0.3210193687528897	1.8940173144144137	-0.23806041357580432	-0.1575521978122203	-0.1893206114156883	1.6233361099249175	-0.2035717108083572	-0.1893206114156883	-0.44069816885602997	2.0980631922986746	-0.47936127716217664	-0.1687298162438391	-0.16872981624383912	-0.20357171080835723	-0.1326862231085688	-0.14560705143488706	-0.2975100688289623	2.630172659575428	-0.3210193687528897	-0.2799253631867321	-0.09341307986787181	-0.23806041357580432	-0.27267094157460586	-0.5306566237485024	-0.23397548065437376	-0.1893206114156883	-0.5786821054903812	-0.24607002807249065	-0.6508804192761097	-0.29405129724851387	-0.20357171080835723	-0.1687298162438391	-0.19416996385988766	-0.17407765595569788	-0.3978902276590028	2.785242495291165	-0.1632267870608547	-0.3466338684544398	-0.1740776559556979	3.9388178066884123	-0.17928429140015903	-0.34033823739056385	3.7175950318065603	-0.2905645665847724	1.141397759162648	-0.11846977555181848	-0.10241831129983783	-0.1575521978122203	1.4869805348796974
CHEMBL4115694	1.0	-0.49296120809671423	-0.3434943879951159	-0.2035717108083572	-0.25772206775253464	2.313362996083484	-0.1326862231085688	-0.2870487828668123	-0.13928514900622418	4.130677910464576	-0.20813769394078804	-0.1989179361539351	-0.386141642138271	-0.1632267870608547	3.572380825430676	-0.3466338684544398	1.2525529485370623	-0.20357171080835723	-0.14560705143488706	-0.16872981624383912	-0.26527414191807375	-0.23397548065437376	-0.1989179361539351	-0.11846977555181848	-0.14560705143488706	-0.13928514900622418	-0.27267094157460586	-0.18436178168863	-0.24209101306752095	-0.1687298162438391	3.0531014675946446	-0.10241831129983783	-0.2170286830706078	-0.4180870100439377	-1.5175167685588	-0.261518387332753	-0.20357171080835723	1.5491933384829668	-0.2940512972485138	-0.14560705143488706	-0.22983323327664582	-0.25772206775253464	-0.26527414191807375	-0.3339737437860371	-0.40370517361463093	-0.21262162778128113	-0.42944875073540123	-0.5600324665913251	-0.11072124636128718	-0.15168668220223594	-0.3497571973346348	-0.6643767822013193	-0.13928514900622418	-0.30434782608695654	-0.4875319129729083	-0.10241831129983783	-0.14560705143488706	-0.261518387332753	-0.17928429140015903	-0.23397548065437376	4.200614394385967	-0.13928514900622418	-0.4065987956759849	-0.1989179361539351	-0.30434782608695654	0.7696015211636543	-0.3009419175453115	-0.26899110619750616	-0.5252981913594169	-0.2799253631867321	-0.15168668220223594	-0.09341307986787181	-0.3275357896270117	-0.34349438799511595	-0.47389478915307837	-0.5840096620629068	-0.28704878286681235	-0.1893206114156883	-0.3077287274483319	-0.12576654244509558	-0.24209101306752095	1.0755075164360535	2.074307666084754	-0.2035717108083572	-0.2799253631867321	-0.21262162778128113	-0.18436178168863	3.214550253664318	-0.18436178168863002	-0.25	-0.11846977555181848	-0.9693282805305133	-0.1575521978122203	4.804511768466525	-0.11072124636128718	-0.3110855084191276	-0.25388328404068955	-0.28704878286681235	-0.24209101306752095	-0.24607002807249065	-0.09341307986787181	-0.07223151185146151	-0.20357171080835723	-0.3466338684544398	-0.12576654244509558	-0.1989179361539351	-0.1326862231085688	-0.14560705143488706	-0.2799253631867321	-0.1326862231085688	-0.46841144595368506	-0.33076425200295	-0.49296120809671423	-0.30094191754531147	-0.2577220677525346	-0.552032975754657	-0.19416996385988766	-0.11072124636128718	-0.3339737437860371	-0.1989179361539351	-0.443494498951694	-0.12576654244509558	-0.6616728385491063	-0.2035717108083572	-0.1989179361539351	-0.2256304299271065	-0.30434782608695654	-0.18436178168863	-0.2170286830706078	-1.4459976109624424	2.425067500287854	-0.24209101306752095	-0.27267094157460586	-0.1326862231085688	-0.25388328404068955	-0.3978902276590028	-0.22136353557447683	1.0174533245341695	-0.11846977555181848	0.5653624529417804	-0.2975100688289623	-0.5306566237485024	-0.18436178168863004	-0.34975719733463484	-0.2256304299271065	-0.6589713014833499	-0.1893206114156883	-0.18436178168863	0.92334397846312	-0.15168668220223594	-0.20813769394078804	-0.2256304299271065	-0.2298332332766458	-0.1575521978122203	-0.15168668220223594	-0.1575521978122203	-0.4490692615434747	-0.18436178168863	-0.420938724006993	-0.2256304299271065	-0.13928514900622418	1.7771531676518384	-0.5306566237485024	2.0980631922986746	-0.3620986880431675	-0.17407765595569788	-0.2905645665847724	-0.1575521978122203	-0.2170286830706078	-0.32753578962701174	-0.18436178168863	-0.2256304299271065	-0.1326862231085688	-0.1326862231085688	-0.26527414191807375	-0.11846977555181848	-0.7525926281572518	-0.1632267870608547	-0.23806041357580432	-0.1575521978122203	-0.14560705143488706	-0.26899110619750616	-0.26527414191807375	1.5491933384829668	1.1373877059520179	-0.4266193736570693	-0.09341307986787181	1.6816107068927764	1.8940173144144137	-0.25	-0.22983323327664582	3.3229003395628145	-0.7385489458759964	-0.2256304299271065	2.3918466156002016	-0.23397548065437376	-0.16872981624383912	-0.4983774970738875	-0.41808701004393767	-0.2689911061975062	-0.25	-0.4237827706911807	-0.2256304299271065	-0.4820885620538128	-0.27631520607789506	-0.2170286830706078	-0.2763152060778951	1.8381479480139453	-0.3210193687528897	-0.18436178168863	1.5427627682389564	-0.33076425200295007	-0.3559573752873263	-0.44349449895169396	-0.30772872744833185	0.18436178168863002	-0.12576654244509558	-0.374218449213498	-0.1326862231085688	-0.4546213639405305	-0.15168668220223594	-0.1989179361539351	-0.26527414191807375	2.2268279876537247	-0.2170286830706078	-0.33076425200295	-0.1893206114156883	-0.3559573752873263	-0.38909436170517425	-0.3920364967327138	-0.3177300441449958	-0.1941699638598877	-0.28350278971414183	-0.25	-0.374218449213498	-0.1632267870608547	-0.25772206775253464	-0.25	-0.2870487828668123	-0.18436178168863002	-0.18436178168863	4.517455855612472	-0.22136353557447688	4.130677910464576	-0.25772206775253464	-0.1893206114156883	-0.25	-0.25	-0.18436178168863	-0.17407765595569788	-0.35903516540862673	-0.2689911061975062	-0.2170286830706078	-0.30434782608695654	-0.17407765595569788	-0.2170286830706078	-0.49296120809671423	-0.15168668220223594	-0.1989179361539351	-0.1326862231085688	-0.35286487311298476	-0.23397548065437376	-0.2835027897141419	-0.2256304299271065	-0.1632267870608547	-0.28350278971414183	-0.17928429140015903	-0.26151838733275307	-0.34033823739056385	-0.261518387332753	-0.3210193687528897	-0.17928429140015903	-0.4094835377359726	-0.27267094157460586	3.619055260093407	1.5956228470220177	-0.4983774970738875	-0.20357171080835723	-0.2170286830706078	3.1473259089834484	-0.18436178168863002	-0.5786821054903812	-0.17928429140015903	-0.2799253631867321	-0.47936127716217664	-0.261518387332753	-0.2689911061975062	-0.16872981624383912	-0.2940512972485138	2.9942473580817115	-0.4711552981879444	-0.30434782608695654	3.8801489089409382	-0.23397548065437376	-0.1740776559556979	-0.44069816885602997	0.6915640748081247	2.884888324556306	-0.35903516540862673	-0.13928514900622418	-0.25	-0.2689911061975062	1.3853490243227224	-0.19416996385988766	-0.24209101306752095	2.3918466156002016	-0.32428771777631915	-0.20813769394078804	-0.11072124636128718	-0.1941699638598877	-0.42944875073540123	-0.337164876792619	-0.23806041357580432	-0.12576654244509558	-0.261518387332753	-0.5786821054903811	-0.3978902276590028	-0.3077287274483319	-0.23806041357580432	-0.15168668220223594	-1.056984445115498	-0.3177300441449958	-0.30434782608695654	1.4869805348796974	1.3041988266515396	4.130677910464576	-0.4065987956759849	-0.19416996385988766	-0.30434782608695654	-0.2256304299271065	-0.637437082435012	-0.6589713014833498	-0.6133436852128472	-0.10241831129983782	-0.589338058604183	-0.1575521978122203	-0.26527414191807375	5.4241176823128505	0.08347838711296825	-0.25	-0.23397548065437376	3.3229003395628145	-0.1575521978122203	-0.49567091418845	-0.3772167680771589	-0.25388328404068955	-0.2035717108083572	-0.1893206114156883	-0.12576654244509558	-0.11846977555181848	-0.11072124636128718	-0.38020317653268565	-0.22136353557447683	1.2993737310809603	-0.34033823739056385	-0.13928514900622418	-0.14560705143488706	0.0	-0.1326862231085688	3.619055260093407	-0.08347838711296823	3.2857142857142856	-0.5760184328847832	-0.1326862231085688	-1.5556729550889759	4.432026302139592	-0.13928514900622418	3.1473259089834484	-0.42944875073540123	-0.2035717108083572	-0.5252981913594169	-0.18436178168863	-0.2256304299271065	-0.20813769394078804	-0.17407765595569788	-0.3339737437860371	-0.25388328404068955	-0.5091750772173155	4.06388379695477	0.33716487679261903	-0.261518387332753	-0.2835027897141419	0.8129695813681377	-0.18436178168863	-0.27631520607789506	1.2945755775256715	-0.29751006882896236	2.570070652315756	-0.32428771777631915	-0.24607002807249065	-0.5573666624152204	-0.1326862231085688	-0.14560705143488706	1.2480072611542792	-0.4008024080281012	-0.23397548065437376	-0.10241831129983783	4.0	-0.12576654244509558	-0.2689911061975062	-0.3110855084191276	-0.29405129724851387	-0.25772206775253464	-0.13928514900622418	-0.3009419175453115	-0.23806041357580432	-0.20357171080835723	-0.2835027897141419	-0.34033823739056385	-0.10241831129983783	-0.2256304299271065	-0.2870487828668123	-0.1989179361539351	-0.23806041357580432	-0.22136353557447688	0.8247621221537363	-0.2799253631867321	-0.21262162778128113	-0.2689911061975062	-0.22136353557447688	-0.30434782608695654	-0.618688224889746	4.06388379695477	-0.1632267870608547	0.6833776965501084	-0.20357171080835723	-0.15168668220223594	-0.22136353557447688	-0.14560705143488706	0.7554152327780023	-0.337164876792619	-0.31441901276696615	4.703190406521939	-0.22136353557447683	1.3960585918351474	2.359699518621347	1.6519782861964367	-0.26527414191807375	-0.20813769394078804	-0.4123596559193922	-0.20357171080835723	-0.17928429140015906	-0.2835027897141419	-0.23806041357580432	-0.18436178168863004	-0.1575521978122203	-0.18436178168863002	2.3285665595430642	-0.4123596559193922	1.674106203007255	-0.451848057057532	-0.1632267870608547	-0.19416996385988766	-0.3620986880431675	-0.24607002807249065	-0.2689911061975062	-0.35903516540862673	1.2756460039026214	-0.2256304299271065	-0.40370517361463093	-0.24209101306752095	-0.14560705143488706	-0.17928429140015903	-0.29405129724851387	-0.3210193687528897	1.8940173144144137	-0.23806041357580432	-0.1575521978122203	-0.1893206114156883	-0.6160153734559949	-0.2035717108083572	-0.1893206114156883	-0.44069816885602997	-0.47663006704025085	-0.47936127716217664	-0.1687298162438391	-0.16872981624383912	-0.20357171080835723	-0.1326862231085688	-0.14560705143488706	-0.2975100688289623	-0.38020317653268565	-0.3210193687528897	-0.2799253631867321	-0.09341307986787181	-0.23806041357580432	-0.27267094157460586	-0.5306566237485024	-0.23397548065437376	-0.1893206114156883	1.7280644943264487	-0.24607002807249065	-0.6508804192761097	-0.29405129724851387	-0.20357171080835723	-0.1687298162438391	-0.19416996385988766	-0.17407765595569788	-0.3978902276590028	-0.35903516540862673	-0.1632267870608547	-0.3466338684544398	-0.1740776559556979	-0.25388328404068955	-0.17928429140015903	-0.34033823739056385	-0.2689911061975062	-0.2905645665847724	1.141397759162648	-0.11846977555181848	-0.10241831129983783	-0.1575521978122203	-0.6725037594933305
CHEMBL3402571	1.0	-0.49296120809671423	-0.3434943879951159	-0.2035717108083572	-0.25772206775253464	-0.43227111425789944	-0.1326862231085688	-0.2870487828668123	-0.13928514900622418	-0.24209101306752095	-0.20813769394078804	-0.1989179361539351	-0.386141642138271	-0.1632267870608547	-0.2799253631867321	-0.3466338684544398	1.2525529485370623	4.9122738912451425	-0.14560705143488706	-0.16872981624383912	-0.26527414191807375	-0.23397548065437376	-0.1989179361539351	-0.11846977555181848	-0.14560705143488706	-0.13928514900622418	-0.27267094157460586	-0.18436178168863	-0.24209101306752095	-0.1687298162438391	3.0531014675946446	-0.10241831129983783	-0.2170286830706078	-0.4180870100439377	0.6589713014833498	-0.261518387332753	4.9122738912451425	-0.6454972243679029	-0.2940512972485138	-0.14560705143488706	-0.22983323327664582	-0.25772206775253464	3.769685174625259	-0.3339737437860371	-0.40370517361463093	-0.21262162778128113	-0.42944875073540123	-0.5600324665913251	-0.11072124636128718	-0.15168668220223594	-0.3497571973346348	-0.6643767822013193	-0.13928514900622418	3.2857142857142856	-0.4875319129729083	-0.10241831129983783	-0.14560705143488706	-0.261518387332753	-0.17928429140015903	-0.23397548065437376	-0.23806041357580432	-0.13928514900622418	-0.4065987956759849	-0.1989179361539351	-0.30434782608695654	0.7696015211636543	-0.3009419175453115	-0.26899110619750616	-0.5252981913594169	-0.2799253631867321	-0.15168668220223594	-0.09341307986787181	-0.3275357896270117	-0.34349438799511595	-0.47389478915307837	-0.5840096620629068	-0.28704878286681235	-0.1893206114156883	3.2496153618543846	-0.12576654244509558	-0.24209101306752095	1.0755075164360535	-0.4820885620538128	-0.2035717108083572	-0.2799253631867321	-0.21262162778128113	-0.18436178168863	-0.3110855084191276	-0.18436178168863002	-0.25	-0.11846977555181848	1.0316422414217608	-0.1575521978122203	-0.20813769394078804	-0.11072124636128718	-0.3110855084191276	-0.25388328404068955	-0.28704878286681235	-0.24209101306752095	-0.24607002807249065	-0.09341307986787181	-0.07223151185146151	4.9122738912451425	-0.3466338684544398	-0.12576654244509558	5.027198750072178	-0.1326862231085688	-0.14560705143488706	-0.2799253631867321	-0.1326862231085688	-0.46841144595368506	-0.33076425200295	2.028557183760815	-0.30094191754531147	-0.2577220677525346	-0.552032975754657	5.150127136664639	-0.11072124636128718	-0.3339737437860371	-0.1989179361539351	-0.443494498951694	-0.12576654244509558	-0.6616728385491063	-0.2035717108083572	5.027198750072179	-0.2256304299271065	-0.30434782608695654	-0.18436178168863	-0.2170286830706078	0.6915640748081247	-0.4123596559193922	-0.24209101306752095	-0.27267094157460586	-0.1326862231085688	-0.25388328404068955	-0.3978902276590028	-0.22136353557447683	1.0174533245341695	-0.11846977555181848	0.5653624529417804	3.3612307776208294	1.8844577740990123	-0.18436178168863004	-0.34975719733463484	-0.2256304299271065	-0.6589713014833499	-0.1893206114156883	-0.18436178168863	0.92334397846312	-0.15168668220223594	-0.20813769394078804	-0.2256304299271065	-0.2298332332766458	-0.1575521978122203	-0.15168668220223594	-0.1575521978122203	2.226827987653725	-0.18436178168863	-0.420938724006993	-0.2256304299271065	-0.13928514900622418	-0.5626977000082132	-0.5306566237485024	-0.47663006704025085	-0.3620986880431675	-0.17407765595569788	-0.2905645665847724	-0.1575521978122203	-0.2170286830706078	-0.32753578962701174	-0.18436178168863	-0.2256304299271065	-0.1326862231085688	-0.1326862231085688	-0.26527414191807375	-0.11846977555181848	-0.7525926281572518	-0.1632267870608547	-0.23806041357580432	-0.1575521978122203	-0.14560705143488706	-0.26899110619750616	-0.26527414191807375	-0.6454972243679029	-0.8792076745395967	-0.4266193736570693	-0.09341307986787181	-0.5946679548965088	1.8940173144144137	-0.25	-0.22983323327664582	-0.3009419175453115	-0.7385489458759964	-0.2256304299271065	-0.41808701004393767	-0.23397548065437376	-0.16872981624383912	-0.4983774970738875	-0.41808701004393767	3.7175950318065603	4.0	-0.4237827706911807	-0.2256304299271065	-0.4820885620538128	-0.27631520607789506	-0.2170286830706078	-0.2763152060778951	-0.5440258500848448	-0.3210193687528897	-0.18436178168863	1.5427627682389564	3.023301320939245	-0.3559573752873263	-0.44349449895169396	-0.30772872744833185	0.18436178168863002	-0.12576654244509558	-0.374218449213498	-0.1326862231085688	2.19963265987388	-0.15168668220223594	-0.1989179361539351	-0.26527414191807375	2.2268279876537247	-0.2170286830706078	-0.33076425200295	-0.1893206114156883	-0.3559573752873263	-0.38909436170517425	2.550782920299865	3.1473259089834484	-0.1941699638598877	-0.28350278971414183	4.0	-0.374218449213498	-0.1632267870608547	-0.25772206775253464	-0.25	-0.2870487828668123	-0.18436178168863002	-0.18436178168863	-0.22136353557447688	-0.22136353557447688	-0.24209101306752095	-0.25772206775253464	-0.1893206114156883	-0.25	-0.25	-0.18436178168863	-0.17407765595569788	2.785242495291165	-0.2689911061975062	-0.2170286830706078	-0.30434782608695654	-0.17407765595569788	-0.2170286830706078	2.028557183760815	-0.15168668220223594	-0.1989179361539351	-0.1326862231085688	-0.35286487311298476	-0.23397548065437376	-0.2835027897141419	-0.2256304299271065	-0.1632267870608547	-0.28350278971414183	-0.17928429140015903	-0.26151838733275307	-0.34033823739056385	-0.261518387332753	-0.3210193687528897	5.577733510227169	2.44210061661815	-0.27267094157460586	-0.2763152060778951	1.5956228470220177	-0.4983774970738875	4.9122738912451425	-0.2170286830706078	-0.3177300441449958	-0.18436178168863002	-0.5786821054903812	-0.17928429140015903	-0.2799253631867321	-0.47936127716217664	-0.261518387332753	3.7175950318065603	-0.16872981624383912	-0.2940512972485138	-0.3339737437860371	-0.4711552981879444	-0.30434782608695654	-0.25772206775253464	-0.23397548065437376	-0.1740776559556979	-0.44069816885602997	0.6915640748081247	-0.3466338684544398	-0.35903516540862673	-0.13928514900622418	-0.25	3.7175950318065603	1.3853490243227224	-0.19416996385988766	-0.24209101306752095	2.3918466156002016	-0.32428771777631915	-0.20813769394078804	-0.11072124636128718	-0.1941699638598877	-0.42944875073540123	2.9659079839893088	4.200614394385967	-0.12576654244509558	-0.261518387332753	1.7280644943264485	-0.3978902276590028	-0.3077287274483319	-0.23806041357580432	-0.15168668220223594	0.9460877164476424	3.1473259089834484	-0.30434782608695654	-0.6725037594933304	1.3041988266515396	-0.24209101306752095	2.45942686164986	-0.19416996385988766	-0.30434782608695654	-0.2256304299271065	-0.637437082435012	-0.6589713014833498	-0.6133436852128472	-0.10241831129983782	1.6968189741019764	-0.1575521978122203	-0.26527414191807375	-0.18436178168863	0.08347838711296825	-0.25	-0.23397548065437376	-0.3009419175453115	-0.1575521978122203	-0.49567091418845	-0.3772167680771589	-0.25388328404068955	-0.2035717108083572	-0.1893206114156883	-0.12576654244509558	-0.11846977555181848	-0.11072124636128718	-0.38020317653268565	-0.22136353557447683	1.2993737310809603	-0.34033823739056385	-0.13928514900622418	-0.14560705143488706	0.0	-0.1326862231085688	-0.2763152060778951	-0.08347838711296823	-0.30434782608695654	-0.5760184328847832	-0.1326862231085688	0.6428086293643933	-0.2256304299271065	-0.13928514900622418	-0.3177300441449958	-0.42944875073540123	-0.2035717108083572	1.9036806454865267	-0.18436178168863	-0.2256304299271065	-0.20813769394078804	-0.17407765595569788	-0.3339737437860371	-0.25388328404068955	-0.5091750772173155	-0.24607002807249065	0.33716487679261903	-0.261518387332753	3.527302151094556	-1.23005832311353	-0.18436178168863	-0.27631520607789506	1.2945755775256715	-0.29751006882896236	-0.3890943617051742	-0.32428771777631915	-0.24607002807249065	-0.5573666624152204	-0.1326862231085688	-0.14560705143488706	1.2480072611542792	-0.4008024080281012	-0.23397548065437376	-0.10241831129983783	-0.25	-0.12576654244509558	-0.2689911061975062	-0.3110855084191276	3.400767176874117	-0.25772206775253464	-0.13928514900622418	-0.3009419175453115	-0.23806041357580432	-0.20357171080835723	-0.2835027897141419	-0.34033823739056385	-0.10241831129983783	-0.2256304299271065	-0.2870487828668123	-0.1989179361539351	-0.23806041357580432	-0.22136353557447688	0.8247621221537363	-0.2799253631867321	-0.21262162778128113	-0.2689911061975062	-0.22136353557447688	-0.30434782608695654	-0.618688224889746	-0.24607002807249065	-0.1632267870608547	0.6833776965501084	-0.20357171080835723	-0.15168668220223594	-0.22136353557447688	-0.14560705143488706	0.7554152327780023	-0.337164876792619	-0.31441901276696615	-0.21262162778128113	-0.22136353557447683	-0.7163023141353112	-0.4237827706911807	-0.6053348330034225	-0.26527414191807375	-0.20813769394078804	-0.4123596559193922	-0.20357171080835723	-0.17928429140015906	-0.2835027897141419	-0.23806041357580432	-0.18436178168863004	-0.1575521978122203	-0.18436178168863002	-0.42944875073540123	-0.4123596559193922	1.674106203007255	2.2131333406899527	-0.1632267870608547	-0.19416996385988766	-0.3620986880431675	-0.24607002807249065	-0.2689911061975062	-0.35903516540862673	-0.7839165387111082	-0.2256304299271065	-0.40370517361463093	-0.24209101306752095	-0.14560705143488706	-0.17928429140015903	-0.29405129724851387	-0.3210193687528897	1.8940173144144137	-0.23806041357580432	-0.1575521978122203	-0.1893206114156883	-0.6160153734559949	-0.2035717108083572	-0.1893206114156883	-0.44069816885602997	2.0980631922986746	-0.47936127716217664	-0.1687298162438391	5.926634795564849	4.9122738912451425	-0.1326862231085688	-0.14560705143488706	-0.2975100688289623	-0.38020317653268565	-0.3210193687528897	-0.2799253631867321	-0.09341307986787181	-0.23806041357580432	-0.27267094157460586	-0.5306566237485024	-0.23397548065437376	-0.1893206114156883	1.7280644943264487	-0.24607002807249065	-0.6508804192761097	-0.29405129724851387	-0.20357171080835723	-0.1687298162438391	-0.19416996385988766	-0.17407765595569788	-0.3978902276590028	2.785242495291165	-0.1632267870608547	-0.3466338684544398	-0.1740776559556979	-0.25388328404068955	-0.17928429140015903	2.9382534494718686	-0.2689911061975062	-0.2905645665847724	1.141397759162648	-0.11846977555181848	-0.10241831129983783	-0.1575521978122203	-0.6725037594933305
CHEMBL3966856	1.0	2.028557183760815	-0.3434943879951159	-0.2035717108083572	-0.25772206775253464	2.313362996083484	-0.1326862231085688	-0.2870487828668123	-0.13928514900622418	-0.24209101306752095	-0.20813769394078804	-0.1989179361539351	-0.386141642138271	-0.1632267870608547	-0.2799253631867321	-0.3466338684544398	1.2525529485370623	-0.20357171080835723	-0.14560705143488706	-0.16872981624383912	-0.26527414191807375	-0.23397548065437376	-0.1989179361539351	-0.11846977555181848	-0.14560705143488706	-0.13928514900622418	-0.27267094157460586	-0.18436178168863	-0.24209101306752095	-0.1687298162438391	-0.3275357896270117	-0.10241831129983783	-0.2170286830706078	-0.4180870100439377	0.6589713014833498	-0.261518387332753	-0.20357171080835723	-0.6454972243679029	-0.2940512972485138	-0.14560705143488706	-0.22983323327664582	-0.25772206775253464	-0.26527414191807375	2.9942473580817115	2.47705520106755	-0.21262162778128113	-0.42944875073540123	-0.5600324665913251	-0.11072124636128718	-0.15168668220223594	-0.3497571973346348	-0.6643767822013193	-0.13928514900622418	-0.30434782608695654	-0.4875319129729083	-0.10241831129983783	-0.14560705143488706	-0.261518387332753	-0.17928429140015903	-0.23397548065437376	-0.23806041357580432	-0.13928514900622418	-0.4065987956759849	-0.1989179361539351	-0.30434782608695654	0.7696015211636543	-0.3009419175453115	-0.26899110619750616	1.9036806454865267	-0.2799253631867321	-0.15168668220223594	-0.09341307986787181	3.0531014675946446	2.91125571464713	-0.47389478915307837	-0.5840096620629068	3.483728410247222	-0.1893206114156883	3.2496153618543846	-0.12576654244509558	-0.24209101306752095	1.0755075164360535	-0.4820885620538128	-0.2035717108083572	-0.2799253631867321	-0.21262162778128113	-0.18436178168863	-0.3110855084191276	-0.18436178168863002	-0.25	-0.11846977555181848	-0.9693282805305133	-0.1575521978122203	-0.20813769394078804	-0.11072124636128718	-0.3110855084191276	-0.25388328404068955	-0.28704878286681235	4.130677910464576	-0.24607002807249065	-0.09341307986787181	-0.07223151185146151	-0.20357171080835723	-0.3466338684544398	-0.12576654244509558	-0.1989179361539351	-0.1326862231085688	-0.14560705143488706	-0.2799253631867321	-0.1326862231085688	2.1348752440581413	-0.33076425200295	-0.49296120809671423	-0.30094191754531147	-0.2577220677525346	-0.552032975754657	-0.19416996385988766	-0.11072124636128718	-0.3339737437860371	-0.1989179361539351	-0.443494498951694	-0.12576654244509558	1.5113209153223905	-0.2035717108083572	-0.1989179361539351	-0.2256304299271065	-0.30434782608695654	-0.18436178168863	-0.2170286830706078	0.6915640748081247	-0.4123596559193922	-0.24209101306752095	3.6674241641784495	-0.1326862231085688	-0.25388328404068955	2.5132559949600304	-0.22136353557447683	1.0174533245341695	-0.11846977555181848	0.5653624529417804	3.3612307776208294	-0.5306566237485024	-0.18436178168863004	-0.34975719733463484	4.432026302139592	-0.6589713014833499	-0.1893206114156883	-0.18436178168863	-1.0830200048138852	-0.15168668220223594	-0.20813769394078804	-0.2256304299271065	-0.2298332332766458	-0.1575521978122203	-0.15168668220223594	-0.1575521978122203	2.226827987653725	-0.18436178168863	2.375642683763604	-0.2256304299271065	-0.13928514900622418	-0.5626977000082132	-0.5306566237485024	2.0980631922986746	2.7616780535829646	-0.17407765595569788	-0.2905645665847724	-0.1575521978122203	-0.2170286830706078	-0.32753578962701174	-0.18436178168863	-0.2256304299271065	-0.1326862231085688	-0.1326862231085688	-0.26527414191807375	-0.11846977555181848	-0.7525926281572518	-0.1632267870608547	-0.23806041357580432	-0.1575521978122203	-0.14560705143488706	-0.26899110619750616	-0.26527414191807375	1.5491933384829668	-0.8792076745395967	-0.4266193736570693	-0.09341307986787181	-0.5946679548965088	1.8940173144144137	-0.25	-0.22983323327664582	-0.3009419175453115	-0.7385489458759964	-0.2256304299271065	-0.41808701004393767	-0.23397548065437376	-0.16872981624383912	-0.4983774970738875	2.3918466156002016	-0.2689911061975062	-0.25	2.359699518621347	-0.2256304299271065	2.074307666084754	-0.27631520607789506	-0.2170286830706078	-0.2763152060778951	1.8381479480139453	-0.3210193687528897	-0.18436178168863	-0.6481877969750897	3.023301320939245	-0.3559573752873263	-0.44349449895169396	3.249615361854384	0.18436178168863002	-0.12576654244509558	-0.374218449213498	-0.1326862231085688	2.19963265987388	-0.15168668220223594	5.027198750072179	-0.26527414191807375	2.2268279876537247	-0.2170286830706078	-0.33076425200295	-0.1893206114156883	-0.3559573752873263	-0.38909436170517425	-0.3920364967327138	3.1473259089834484	-0.1941699638598877	-0.28350278971414183	-0.25	-0.374218449213498	-0.1632267870608547	-0.25772206775253464	-0.25	-0.2870487828668123	-0.18436178168863002	-0.18436178168863	-0.22136353557447688	-0.22136353557447688	-0.24209101306752095	-0.25772206775253464	-0.1893206114156883	-0.25	-0.25	-0.18436178168863	-0.17407765595569788	-0.35903516540862673	3.7175950318065603	-0.2170286830706078	-0.30434782608695654	5.7445626465380295	-0.2170286830706078	2.028557183760815	-0.15168668220223594	-0.1989179361539351	-0.1326862231085688	-0.35286487311298476	-0.23397548065437376	3.527302151094556	-0.2256304299271065	-0.1632267870608547	3.5273021510945552	-0.17928429140015903	-0.26151838733275307	-0.34033823739056385	-0.261518387332753	-0.3210193687528897	-0.17928429140015903	2.44210061661815	-0.27267094157460586	-0.2763152060778951	-0.6267145158182865	-0.4983774970738875	-0.20357171080835723	-0.2170286830706078	-0.3177300441449958	-0.18436178168863002	-0.5786821054903812	5.57773351022717	-0.2799253631867321	-0.47936127716217664	-0.261518387332753	-0.2689911061975062	-0.16872981624383912	-0.2940512972485138	-0.3339737437860371	-0.4711552981879444	3.2857142857142856	-0.25772206775253464	4.273952113286562	-0.1740776559556979	-0.44069816885602997	0.6915640748081247	-0.3466338684544398	-0.35903516540862673	-0.13928514900622418	-0.25	-0.2689911061975062	-0.7218397547786816	-0.19416996385988766	-0.24209101306752095	-0.41808701004393767	3.083681389036635	-0.20813769394078804	-0.11072124636128718	-0.1941699638598877	-0.42944875073540123	2.9659079839893088	-0.23806041357580432	-0.12576654244509558	-0.261518387332753	1.7280644943264485	2.5132559949600304	3.2496153618543846	-0.23806041357580432	-0.15168668220223594	0.9460877164476424	-0.3177300441449958	-0.30434782608695654	-0.6725037594933304	-0.7667542552292018	4.130677910464576	2.45942686164986	-0.19416996385988766	-0.30434782608695654	-0.2256304299271065	-0.637437082435012	-0.6589713014833498	-0.6133436852128472	-0.10241831129983782	1.6968189741019764	-0.1575521978122203	-0.26527414191807375	-0.18436178168863	0.08347838711296825	-0.25	4.273952113286562	3.3229003395628145	-0.1575521978122203	2.0174675805564983	-0.3772167680771589	-0.25388328404068955	-0.2035717108083572	-0.1893206114156883	-0.12576654244509558	-0.11846977555181848	-0.11072124636128718	-0.38020317653268565	-0.22136353557447683	1.2993737310809603	-0.34033823739056385	-0.13928514900622418	-0.14560705143488706	0.0	-0.1326862231085688	-0.2763152060778951	-0.08347838711296823	-0.30434782608695654	1.736055554666638	-0.1326862231085688	0.6428086293643933	-0.2256304299271065	-0.13928514900622418	-0.3177300441449958	2.3285665595430642	-0.2035717108083572	1.9036806454865267	-0.18436178168863	-0.2256304299271065	4.804511768466525	-0.17407765595569788	-0.3339737437860371	-0.25388328404068955	-0.5091750772173155	-0.24607002807249065	0.33716487679261903	-0.261518387332753	-0.2835027897141419	0.8129695813681377	5.4241176823128505	-0.27631520607789506	-0.772453935761174	3.36123077762083	-0.3890943617051742	-0.32428771777631915	-0.24607002807249065	-0.5573666624152204	-0.1326862231085688	-0.14560705143488706	1.2480072611542792	-0.4008024080281012	-0.23397548065437376	-0.10241831129983783	-0.25	-0.12576654244509558	-0.2689911061975062	-0.3110855084191276	-0.29405129724851387	-0.25772206775253464	-0.13928514900622418	3.3229003395628145	-0.23806041357580432	-0.20357171080835723	-0.2835027897141419	-0.34033823739056385	-0.10241831129983783	-0.2256304299271065	-0.2870487828668123	5.027198750072179	-0.23806041357580432	-0.22136353557447688	0.8247621221537363	3.572380825430676	-0.21262162778128113	-0.2689911061975062	-0.22136353557447688	-0.30434782608695654	-0.618688224889746	-0.24607002807249065	-0.1632267870608547	0.6833776965501084	-0.20357171080835723	-0.15168668220223594	-0.22136353557447688	-0.14560705143488706	-1.3237752650585946	-0.337164876792619	-0.31441901276696615	-0.21262162778128113	-0.22136353557447683	-0.7163023141353112	-0.4237827706911807	-0.6053348330034225	-0.26527414191807375	-0.20813769394078804	-0.4123596559193922	-0.20357171080835723	-0.17928429140015906	-0.2835027897141419	-0.23806041357580432	-0.18436178168863004	-0.1575521978122203	-0.18436178168863002	-0.42944875073540123	2.425067500287854	-0.597333668678645	-0.451848057057532	-0.1632267870608547	-0.19416996385988766	-0.3620986880431675	-0.24607002807249065	-0.2689911061975062	-0.35903516540862673	-0.7839165387111082	-0.2256304299271065	-0.40370517361463093	-0.24209101306752095	-0.14560705143488706	-0.17928429140015903	-0.29405129724851387	-0.3210193687528897	1.8940173144144137	-0.23806041357580432	-0.1575521978122203	-0.1893206114156883	-0.6160153734559949	-0.2035717108083572	-0.1893206114156883	-0.44069816885602997	-0.47663006704025085	-0.47936127716217664	-0.1687298162438391	-0.16872981624383912	-0.20357171080835723	-0.1326862231085688	-0.14560705143488706	-0.2975100688289623	-0.38020317653268565	3.115076837528041	-0.2799253631867321	-0.09341307986787181	-0.23806041357580432	-0.27267094157460586	-0.5306566237485024	-0.23397548065437376	-0.1893206114156883	-0.5786821054903812	-0.24607002807249065	1.5363805245703521	-0.29405129724851387	-0.20357171080835723	-0.1687298162438391	-0.19416996385988766	-0.17407765595569788	-0.3978902276590028	2.785242495291165	-0.1632267870608547	-0.3466338684544398	-0.1740776559556979	-0.25388328404068955	-0.17928429140015903	2.9382534494718686	-0.2689911061975062	-0.2905645665847724	-0.8761187692655188	-0.11846977555181848	-0.10241831129983783	6.347102826149445	1.4869805348796974
CHEMBL3943034	1.0	-0.49296120809671423	-0.3434943879951159	-0.2035717108083572	-0.25772206775253464	-0.43227111425789944	-0.1326862231085688	-0.2870487828668123	-0.13928514900622418	-0.24209101306752095	4.804511768466525	-0.1989179361539351	-0.386141642138271	-0.1632267870608547	-0.2799253631867321	-0.3466338684544398	1.2525529485370623	-0.20357171080835723	-0.14560705143488706	-0.16872981624383912	-0.26527414191807375	-0.23397548065437376	-0.1989179361539351	-0.11846977555181848	-0.14560705143488706	-0.13928514900622418	-0.27267094157460586	-0.18436178168863	-0.24209101306752095	-0.1687298162438391	-0.3275357896270117	-0.10241831129983783	-0.2170286830706078	-0.4180870100439377	-1.5175167685588	-0.261518387332753	-0.20357171080835723	-0.6454972243679029	-0.2940512972485138	-0.14560705143488706	-0.22983323327664582	-0.25772206775253464	-0.26527414191807375	-0.3339737437860371	-0.40370517361463093	-0.21262162778128113	-0.42944875073540123	-0.5600324665913251	-0.11072124636128718	-0.15168668220223594	-0.3497571973346348	1.5051699980945148	-0.13928514900622418	-0.30434782608695654	-0.4875319129729083	-0.10241831129983783	-0.14560705143488706	-0.261518387332753	-0.17928429140015903	-0.23397548065437376	-0.23806041357580432	-0.13928514900622418	-0.4065987956759849	-0.1989179361539351	3.2857142857142856	0.7696015211636543	3.3229003395628145	-0.26899110619750616	-0.5252981913594169	-0.2799253631867321	-0.15168668220223594	-0.09341307986787181	-0.3275357896270117	-0.34349438799511595	-0.47389478915307837	-0.5840096620629068	-0.28704878286681235	-0.1893206114156883	-0.3077287274483319	-0.12576654244509558	-0.24209101306752095	1.0755075164360535	-0.4820885620538128	-0.2035717108083572	-0.2799253631867321	-0.21262162778128113	-0.18436178168863	-0.3110855084191276	-0.18436178168863002	4.0	-0.11846977555181848	1.0316422414217608	-0.1575521978122203	-0.20813769394078804	-0.11072124636128718	-0.3110855084191276	-0.25388328404068955	-0.28704878286681235	-0.24209101306752095	-0.24607002807249065	-0.09341307986787181	-0.07223151185146151	-0.20357171080835723	-0.3466338684544398	-0.12576654244509558	5.027198750072178	-0.1326862231085688	-0.14560705143488706	-0.2799253631867321	-0.1326862231085688	-0.46841144595368506	-0.33076425200295	2.028557183760815	-0.30094191754531147	-0.2577220677525346	-0.552032975754657	-0.19416996385988766	-0.11072124636128718	-0.3339737437860371	-0.1989179361539351	-0.443494498951694	-0.12576654244509558	-0.6616728385491063	-0.2035717108083572	-0.1989179361539351	-0.2256304299271065	-0.30434782608695654	-0.18436178168863	-0.2170286830706078	0.6915640748081247	-0.4123596559193922	-0.24209101306752095	-0.27267094157460586	-0.1326862231085688	-0.25388328404068955	-0.3978902276590028	-0.22136353557447683	-0.982846068597633	-0.11846977555181848	0.5653624529417804	-0.2975100688289623	-0.5306566237485024	-0.18436178168863004	-0.34975719733463484	-0.2256304299271065	1.5175167685588002	-0.1893206114156883	-0.18436178168863	-1.0830200048138852	-0.15168668220223594	-0.20813769394078804	-0.2256304299271065	-0.2298332332766458	-0.1575521978122203	-0.15168668220223594	-0.1575521978122203	2.226827987653725	-0.18436178168863	-0.420938724006993	-0.2256304299271065	-0.13928514900622418	-0.5626977000082132	-0.5306566237485024	2.0980631922986746	-0.3620986880431675	-0.17407765595569788	-0.2905645665847724	-0.1575521978122203	-0.2170286830706078	3.053101467594645	-0.18436178168863	-0.2256304299271065	-0.1326862231085688	-0.1326862231085688	-0.26527414191807375	-0.11846977555181848	-0.7525926281572518	-0.1632267870608547	-0.23806041357580432	-0.1575521978122203	-0.14560705143488706	-0.26899110619750616	-0.26527414191807375	-0.6454972243679029	-0.8792076745395967	-0.4266193736570693	-0.09341307986787181	-0.5946679548965088	-0.5279782779119826	-0.25	-0.22983323327664582	-0.3009419175453115	-0.7385489458759964	-0.2256304299271065	-0.41808701004393767	-0.23397548065437376	-0.16872981624383912	-0.4983774970738875	-0.41808701004393767	-0.2689911061975062	4.0	-0.4237827706911807	-0.2256304299271065	2.074307666084754	-0.27631520607789506	-0.2170286830706078	-0.2763152060778951	-0.5440258500848448	-0.3210193687528897	-0.18436178168863	1.5427627682389564	3.023301320939245	-0.3559573752873263	-0.44349449895169396	-0.30772872744833185	0.18436178168863002	-0.12576654244509558	-0.374218449213498	-0.1326862231085688	-0.4546213639405305	-0.15168668220223594	-0.1989179361539351	-0.26527414191807375	2.2268279876537247	-0.2170286830706078	-0.33076425200295	-0.1893206114156883	-0.3559573752873263	-0.38909436170517425	-0.3920364967327138	3.1473259089834484	-0.1941699638598877	-0.28350278971414183	4.0	-0.374218449213498	-0.1632267870608547	-0.25772206775253464	-0.25	-0.2870487828668123	-0.18436178168863002	-0.18436178168863	-0.22136353557447688	-0.22136353557447688	-0.24209101306752095	-0.25772206775253464	-0.1893206114156883	4.0	-0.25	-0.18436178168863	-0.17407765595569788	-0.35903516540862673	-0.2689911061975062	-0.2170286830706078	-0.30434782608695654	-0.17407765595569788	-0.2170286830706078	2.028557183760815	-0.15168668220223594	-0.1989179361539351	-0.1326862231085688	-0.35286487311298476	-0.23397548065437376	-0.2835027897141419	-0.2256304299271065	-0.1632267870608547	-0.28350278971414183	-0.17928429140015903	3.8238229066761997	2.9382534494718686	-0.261518387332753	-0.3210193687528897	-0.17928429140015903	2.44210061661815	-0.27267094157460586	3.619055260093407	-0.6267145158182865	2.0065111403931297	-0.20357171080835723	-0.2170286830706078	3.1473259089834484	-0.18436178168863002	-0.5786821054903812	-0.17928429140015903	-0.2799253631867321	-0.47936127716217664	-0.261518387332753	3.7175950318065603	-0.16872981624383912	3.400767176874116	-0.3339737437860371	-0.4711552981879444	-0.30434782608695654	-0.25772206775253464	-0.23397548065437376	-0.1740776559556979	-0.44069816885602997	0.6915640748081247	2.884888324556306	-0.35903516540862673	-0.13928514900622418	-0.25	3.7175950318065603	1.3853490243227224	-0.19416996385988766	4.130677910464576	-0.41808701004393767	-0.32428771777631915	-0.20813769394078804	-0.11072124636128718	-0.1941699638598877	2.3285665595430642	-0.337164876792619	-0.23806041357580432	-0.12576654244509558	3.823822906676199	1.7280644943264485	-0.3978902276590028	-0.3077287274483319	-0.23806041357580432	-0.15168668220223594	-1.056984445115498	3.1473259089834484	-0.30434782608695654	-0.6725037594933304	-0.7667542552292018	4.130677910464576	2.45942686164986	-0.19416996385988766	-0.30434782608695654	-0.2256304299271065	-0.637437082435012	1.5175167685588	-0.6133436852128472	-0.10241831129983782	1.6968189741019764	-0.1575521978122203	-0.26527414191807375	-0.18436178168863	0.08347838711296825	4.0	-0.23397548065437376	-0.3009419175453115	-0.1575521978122203	-0.49567091418845	-0.3772167680771589	-0.25388328404068955	-0.2035717108083572	-0.1893206114156883	-0.12576654244509558	-0.11846977555181848	-0.11072124636128718	-0.38020317653268565	-0.22136353557447683	1.2993737310809603	-0.34033823739056385	-0.13928514900622418	-0.14560705143488706	0.0	-0.1326862231085688	-0.2763152060778951	-0.08347838711296823	3.2857142857142856	1.736055554666638	-0.1326862231085688	0.6428086293643933	4.432026302139592	-0.13928514900622418	-0.3177300441449958	2.3285665595430642	-0.2035717108083572	1.9036806454865267	-0.18436178168863	4.432026302139592	-0.20813769394078804	-0.17407765595569788	-0.3339737437860371	-0.25388328404068955	-0.5091750772173155	-0.24607002807249065	0.33716487679261903	-0.261518387332753	3.527302151094556	0.8129695813681377	-0.18436178168863	-0.27631520607789506	-0.772453935761174	-0.29751006882896236	-0.3890943617051742	-0.32428771777631915	-0.24607002807249065	-0.5573666624152204	-0.1326862231085688	-0.14560705143488706	-0.801277389263827	-0.4008024080281012	-0.23397548065437376	-0.10241831129983783	-0.25	-0.12576654244509558	-0.2689911061975062	-0.3110855084191276	-0.29405129724851387	-0.25772206775253464	-0.13928514900622418	-0.3009419175453115	-0.23806041357580432	-0.20357171080835723	-0.2835027897141419	-0.34033823739056385	-0.10241831129983783	-0.2256304299271065	-0.2870487828668123	-0.1989179361539351	-0.23806041357580432	-0.22136353557447688	0.8247621221537363	3.572380825430676	-0.21262162778128113	3.7175950318065603	-0.22136353557447688	-0.30434782608695654	-0.618688224889746	-0.24607002807249065	-0.1632267870608547	0.6833776965501084	-0.20357171080835723	-0.15168668220223594	-0.22136353557447688	-0.14560705143488706	0.7554152327780023	-0.337164876792619	-0.31441901276696615	-0.21262162778128113	-0.22136353557447683	1.3960585918351474	-0.4237827706911807	-0.6053348330034225	-0.26527414191807375	-0.20813769394078804	2.425067500287854	-0.20357171080835723	-0.17928429140015906	3.527302151094556	-0.23806041357580432	-0.18436178168863004	-0.1575521978122203	-0.18436178168863002	-0.42944875073540123	-0.4123596559193922	-0.597333668678645	-0.451848057057532	-0.1632267870608547	-0.19416996385988766	-0.3620986880431675	-0.24607002807249065	-0.2689911061975062	-0.35903516540862673	1.2756460039026214	-0.2256304299271065	-0.40370517361463093	-0.24209101306752095	-0.14560705143488706	-0.17928429140015903	-0.29405129724851387	-0.3210193687528897	1.8940173144144137	-0.23806041357580432	-0.1575521978122203	-0.1893206114156883	-0.6160153734559949	-0.2035717108083572	-0.1893206114156883	-0.44069816885602997	2.0980631922986746	2.086109261724287	-0.1687298162438391	-0.16872981624383912	-0.20357171080835723	-0.1326862231085688	-0.14560705143488706	-0.2975100688289623	2.630172659575428	-0.3210193687528897	-0.2799253631867321	-0.09341307986787181	-0.23806041357580432	-0.27267094157460586	-0.5306566237485024	-0.23397548065437376	-0.1893206114156883	-0.5786821054903812	-0.24607002807249065	-0.6508804192761097	-0.29405129724851387	-0.20357171080835723	-0.1687298162438391	-0.19416996385988766	-0.17407765595569788	2.5132559949600304	2.785242495291165	-0.1632267870608547	-0.3466338684544398	-0.1740776559556979	3.9388178066884123	-0.17928429140015903	-0.34033823739056385	3.7175950318065603	-0.2905645665847724	1.141397759162648	-0.11846977555181848	-0.10241831129983783	-0.1575521978122203	-0.6725037594933305
CHEMBL3903870	1.0	-0.49296120809671423	-0.3434943879951159	-0.2035717108083572	-0.25772206775253464	2.313362996083484	-0.1326862231085688	-0.2870487828668123	-0.13928514900622418	-0.24209101306752095	-0.20813769394078804	-0.1989179361539351	-0.386141642138271	-0.1632267870608547	-0.2799253631867321	-0.3466338684544398	-0.7983694431185243	4.9122738912451425	-0.14560705143488706	-0.16872981624383912	-0.26527414191807375	-0.23397548065437376	-0.1989179361539351	-0.11846977555181848	-0.14560705143488706	-0.13928514900622418	-0.27267094157460586	-0.18436178168863	-0.24209101306752095	5.926634795564848	-0.3275357896270117	-0.10241831129983783	-0.2170286830706078	-0.4180870100439377	0.6589713014833498	-0.261518387332753	-0.20357171080835723	1.5491933384829668	-0.2940512972485138	-0.14560705143488706	-0.22983323327664582	-0.25772206775253464	-0.26527414191807375	-0.3339737437860371	-0.40370517361463093	-0.21262162778128113	-0.42944875073540123	-0.5600324665913251	-0.11072124636128718	-0.15168668220223594	-0.3497571973346348	1.5051699980945148	-0.13928514900622418	-0.30434782608695654	-0.4875319129729083	-0.10241831129983783	-0.14560705143488706	-0.261518387332753	-0.17928429140015903	-0.23397548065437376	-0.23806041357580432	-0.13928514900622418	-0.4065987956759849	-0.1989179361539351	-0.30434782608695654	0.7696015211636543	-0.3009419175453115	-0.26899110619750616	-0.5252981913594169	-0.2799253631867321	-0.15168668220223594	-0.09341307986787181	-0.3275357896270117	-0.34349438799511595	-0.47389478915307837	-0.5840096620629068	-0.28704878286681235	-0.1893206114156883	-0.3077287274483319	-0.12576654244509558	-0.24209101306752095	1.0755075164360535	2.074307666084754	-0.2035717108083572	-0.2799253631867321	-0.21262162778128113	-0.18436178168863	-0.3110855084191276	-0.18436178168863002	-0.25	-0.11846977555181848	-0.9693282805305133	-0.1575521978122203	-0.20813769394078804	-0.11072124636128718	-0.3110855084191276	-0.25388328404068955	-0.28704878286681235	-0.24209101306752095	-0.24607002807249065	-0.09341307986787181	-0.07223151185146151	-0.20357171080835723	-0.3466338684544398	-0.12576654244509558	-0.1989179361539351	-0.1326862231085688	-0.14560705143488706	-0.2799253631867321	-0.1326862231085688	-0.46841144595368506	-0.33076425200295	-0.49296120809671423	-0.30094191754531147	-0.2577220677525346	-0.552032975754657	-0.19416996385988766	-0.11072124636128718	-0.3339737437860371	-0.1989179361539351	-0.443494498951694	-0.12576654244509558	-0.6616728385491063	-0.2035717108083572	-0.1989179361539351	-0.2256304299271065	3.2857142857142856	-0.18436178168863	-0.2170286830706078	-1.4459976109624424	-0.4123596559193922	-0.24209101306752095	-0.27267094157460586	-0.1326862231085688	-0.25388328404068955	-0.3978902276590028	-0.22136353557447683	1.0174533245341695	-0.11846977555181848	0.5653624529417804	3.3612307776208294	1.8844577740990123	-0.18436178168863004	-0.34975719733463484	-0.2256304299271065	-0.6589713014833499	-0.1893206114156883	-0.18436178168863	0.92334397846312	-0.15168668220223594	-0.20813769394078804	-0.2256304299271065	-0.2298332332766458	-0.1575521978122203	-0.15168668220223594	-0.1575521978122203	-0.4490692615434747	-0.18436178168863	-0.420938724006993	4.432026302139592	-0.13928514900622418	1.7771531676518384	-0.5306566237485024	-0.47663006704025085	-0.3620986880431675	-0.17407765595569788	-0.2905645665847724	-0.1575521978122203	-0.2170286830706078	-0.32753578962701174	-0.18436178168863	-0.2256304299271065	-0.1326862231085688	-0.1326862231085688	-0.26527414191807375	-0.11846977555181848	1.3287400946891195	-0.1632267870608547	-0.23806041357580432	-0.1575521978122203	-0.14560705143488706	-0.26899110619750616	-0.26527414191807375	1.5491933384829668	1.1373877059520179	-0.4266193736570693	-0.09341307986787181	-0.5946679548965088	-0.5279782779119826	-0.25	-0.22983323327664582	-0.3009419175453115	-0.7385489458759964	-0.2256304299271065	2.3918466156002016	-0.23397548065437376	-0.16872981624383912	-0.4983774970738875	-0.41808701004393767	-0.2689911061975062	-0.25	-0.4237827706911807	-0.2256304299271065	-0.4820885620538128	-0.27631520607789506	-0.2170286830706078	-0.2763152060778951	1.8381479480139453	-0.3210193687528897	-0.18436178168863	1.5427627682389564	-0.33076425200295007	-0.3559573752873263	-0.44349449895169396	-0.30772872744833185	0.18436178168863002	-0.12576654244509558	-0.374218449213498	-0.1326862231085688	-0.4546213639405305	-0.15168668220223594	-0.1989179361539351	-0.26527414191807375	-0.44906926154347465	4.607685886729827	-0.33076425200295	-0.1893206114156883	-0.3559573752873263	-0.38909436170517425	2.550782920299865	-0.3177300441449958	-0.1941699638598877	-0.28350278971414183	-0.25	-0.374218449213498	-0.1632267870608547	-0.25772206775253464	-0.25	-0.2870487828668123	-0.18436178168863002	-0.18436178168863	-0.22136353557447688	-0.22136353557447688	4.130677910464576	-0.25772206775253464	-0.1893206114156883	-0.25	-0.25	-0.18436178168863	-0.17407765595569788	-0.35903516540862673	-0.2689911061975062	-0.2170286830706078	-0.30434782608695654	-0.17407765595569788	-0.2170286830706078	-0.49296120809671423	-0.15168668220223594	-0.1989179361539351	-0.1326862231085688	-0.35286487311298476	-0.23397548065437376	-0.2835027897141419	-0.2256304299271065	-0.1632267870608547	-0.28350278971414183	-0.17928429140015903	-0.26151838733275307	2.9382534494718686	-0.261518387332753	-0.3210193687528897	-0.17928429140015903	-0.4094835377359726	-0.27267094157460586	-0.2763152060778951	1.5956228470220177	-0.4983774970738875	-0.20357171080835723	-0.2170286830706078	-0.3177300441449958	-0.18436178168863002	-0.5786821054903812	-0.17928429140015903	-0.2799253631867321	-0.47936127716217664	-0.261518387332753	-0.2689911061975062	5.926634795564849	-0.2940512972485138	-0.3339737437860371	-0.4711552981879444	-0.30434782608695654	-0.25772206775253464	4.273952113286562	-0.1740776559556979	-0.44069816885602997	0.6915640748081247	-0.3466338684544398	-0.35903516540862673	-0.13928514900622418	-0.25	-0.2689911061975062	1.3853490243227224	-0.19416996385988766	-0.24209101306752095	-0.41808701004393767	3.083681389036635	-0.20813769394078804	-0.11072124636128718	-0.1941699638598877	-0.42944875073540123	-0.337164876792619	-0.23806041357580432	-0.12576654244509558	-0.261518387332753	-0.5786821054903811	-0.3978902276590028	-0.3077287274483319	-0.23806041357580432	-0.15168668220223594	-1.056984445115498	-0.3177300441449958	-0.30434782608695654	1.4869805348796974	1.3041988266515396	-0.24209101306752095	-0.4065987956759849	-0.19416996385988766	-0.30434782608695654	-0.2256304299271065	-0.637437082435012	-0.6589713014833498	-0.6133436852128472	-0.10241831129983782	-0.589338058604183	-0.1575521978122203	-0.26527414191807375	-0.18436178168863	0.08347838711296825	-0.25	-0.23397548065437376	-0.3009419175453115	-0.1575521978122203	-0.49567091418845	2.6509956200978113	-0.25388328404068955	-0.2035717108083572	-0.1893206114156883	-0.12576654244509558	-0.11846977555181848	-0.11072124636128718	-0.38020317653268565	-0.22136353557447683	-0.7696015211636542	-0.34033823739056385	-0.13928514900622418	-0.14560705143488706	0.0	-0.1326862231085688	-0.2763152060778951	-0.08347838711296823	-0.30434782608695654	-0.5760184328847832	-0.1326862231085688	-1.5556729550889759	-0.2256304299271065	-0.13928514900622418	-0.3177300441449958	-0.42944875073540123	-0.2035717108083572	1.9036806454865267	-0.18436178168863	-0.2256304299271065	-0.20813769394078804	-0.17407765595569788	-0.3339737437860371	-0.25388328404068955	1.9639610121239315	-0.24607002807249065	0.33716487679261903	-0.261518387332753	-0.2835027897141419	0.8129695813681377	-0.18436178168863	-0.27631520607789506	1.2945755775256715	-0.29751006882896236	-0.3890943617051742	-0.32428771777631915	-0.24607002807249065	1.7941510812051982	-0.1326862231085688	-0.14560705143488706	-0.801277389263827	-0.4008024080281012	-0.23397548065437376	-0.10241831129983783	4.0	-0.12576654244509558	-0.2689911061975062	-0.3110855084191276	-0.29405129724851387	-0.25772206775253464	-0.13928514900622418	-0.3009419175453115	-0.23806041357580432	-0.20357171080835723	-0.2835027897141419	-0.34033823739056385	-0.10241831129983783	-0.2256304299271065	-0.2870487828668123	-0.1989179361539351	-0.23806041357580432	4.517455855612472	0.8247621221537363	-0.2799253631867321	-0.21262162778128113	-0.2689911061975062	-0.22136353557447688	-0.30434782608695654	1.6163229875244611	-0.24607002807249065	-0.1632267870608547	0.6833776965501084	-0.20357171080835723	-0.15168668220223594	-0.22136353557447688	-0.14560705143488706	0.7554152327780023	-0.337164876792619	-0.31441901276696615	-0.21262162778128113	4.5174558556124715	1.3960585918351474	-0.4237827706911807	1.6519782861964367	-0.26527414191807375	-0.20813769394078804	-0.4123596559193922	-0.20357171080835723	-0.17928429140015906	-0.2835027897141419	-0.23806041357580432	-0.18436178168863004	-0.1575521978122203	-0.18436178168863002	2.3285665595430642	-0.4123596559193922	1.674106203007255	2.2131333406899527	-0.1632267870608547	-0.19416996385988766	2.7616780535829646	-0.24607002807249065	-0.2689911061975062	-0.35903516540862673	1.2756460039026214	-0.2256304299271065	-0.40370517361463093	4.130677910464576	-0.14560705143488706	-0.17928429140015903	-0.29405129724851387	-0.3210193687528897	-0.5279782779119826	-0.23806041357580432	-0.1575521978122203	-0.1893206114156883	-0.6160153734559949	-0.2035717108083572	5.282045058497703	2.269126741769346	-0.47663006704025085	-0.47936127716217664	-0.1687298162438391	-0.16872981624383912	-0.20357171080835723	-0.1326862231085688	-0.14560705143488706	-0.2975100688289623	-0.38020317653268565	-0.3210193687528897	-0.2799253631867321	-0.09341307986787181	-0.23806041357580432	-0.27267094157460586	-0.5306566237485024	-0.23397548065437376	-0.1893206114156883	1.7280644943264487	4.06388379695477	-0.6508804192761097	-0.29405129724851387	-0.20357171080835723	-0.1687298162438391	-0.19416996385988766	-0.17407765595569788	-0.3978902276590028	-0.35903516540862673	-0.1632267870608547	-0.3466338684544398	-0.1740776559556979	-0.25388328404068955	-0.17928429140015903	-0.34033823739056385	-0.2689911061975062	-0.2905645665847724	1.141397759162648	-0.11846977555181848	-0.10241831129983783	-0.1575521978122203	-0.6725037594933305
CHEMBL4075605	1.0	-0.49296120809671423	-0.3434943879951159	-0.2035717108083572	-0.25772206775253464	-0.43227111425789944	-0.1326862231085688	-0.2870487828668123	-0.13928514900622418	-0.24209101306752095	-0.20813769394078804	5.027198750072179	2.589723279940671	6.12644540768408	-0.2799253631867321	-0.3466338684544398	-0.7983694431185243	-0.20357171080835723	-0.14560705143488706	-0.16872981624383912	-0.26527414191807375	-0.23397548065437376	5.027198750072179	-0.11846977555181848	-0.14560705143488706	-0.13928514900622418	-0.27267094157460586	-0.18436178168863	-0.24209101306752095	5.926634795564848	-0.3275357896270117	-0.10241831129983783	-0.2170286830706078	-0.4180870100439377	0.6589713014833498	-0.261518387332753	-0.20357171080835723	1.5491933384829668	-0.2940512972485138	-0.14560705143488706	-0.22983323327664582	-0.25772206775253464	-0.26527414191807375	-0.3339737437860371	-0.40370517361463093	-0.21262162778128113	-0.42944875073540123	1.7856107630448044	-0.11072124636128718	-0.15168668220223594	-0.3497571973346348	-0.6643767822013193	-0.13928514900622418	-0.30434782608695654	-0.4875319129729083	9.76387901058454	-0.14560705143488706	-0.261518387332753	-0.17928429140015903	-0.23397548065437376	-0.23806041357580432	-0.13928514900622418	-0.4065987956759849	5.027198750072179	3.2857142857142856	-1.2993737310809605	-0.3009419175453115	-0.26899110619750616	-0.5252981913594169	-0.2799253631867321	-0.15168668220223594	-0.09341307986787181	-0.3275357896270117	-0.34349438799511595	-0.47389478915307837	-0.5840096620629068	3.483728410247222	-0.1893206114156883	3.2496153618543846	-0.12576654244509558	-0.24209101306752095	-0.9297935948543946	-0.4820885620538128	-0.2035717108083572	-0.2799253631867321	-0.21262162778128113	5.4241176823128505	-0.3110855084191276	-0.18436178168863002	-0.25	-0.11846977555181848	-0.9693282805305133	-0.1575521978122203	-0.20813769394078804	-0.11072124636128718	-0.3110855084191276	-0.25388328404068955	-0.28704878286681235	-0.24209101306752095	-0.24607002807249065	-0.09341307986787181	-0.07223151185146151	-0.20357171080835723	2.884888324556306	7.951240294584376	-0.1989179361539351	-0.1326862231085688	-0.14560705143488706	-0.2799253631867321	-0.1326862231085688	-0.46841144595368506	-0.33076425200295	-0.49296120809671423	-0.30094191754531147	-0.2577220677525346	1.8114859871060225	-0.19416996385988766	-0.11072124636128718	-0.3339737437860371	-0.1989179361539351	-0.443494498951694	-0.12576654244509558	-0.6616728385491063	-0.2035717108083572	-0.1989179361539351	-0.2256304299271065	-0.30434782608695654	-0.18436178168863	-0.2170286830706078	0.6915640748081247	2.425067500287854	-0.24209101306752095	-0.27267094157460586	-0.1326862231085688	-0.25388328404068955	-0.3978902276590028	-0.22136353557447683	1.0174533245341695	-0.11846977555181848	0.5653624529417804	-0.2975100688289623	-0.5306566237485024	-0.18436178168863004	-0.34975719733463484	-0.2256304299271065	1.5175167685588002	-0.1893206114156883	-0.18436178168863	0.92334397846312	-0.15168668220223594	-0.20813769394078804	-0.2256304299271065	-0.2298332332766458	-0.1575521978122203	-0.15168668220223594	-0.1575521978122203	-0.4490692615434747	-0.18436178168863	-0.420938724006993	-0.2256304299271065	-0.13928514900622418	-0.5626977000082132	1.8844577740990123	-0.47663006704025085	-0.3620986880431675	-0.17407765595569788	-0.2905645665847724	-0.1575521978122203	-0.2170286830706078	-0.32753578962701174	-0.18436178168863	-0.2256304299271065	-0.1326862231085688	-0.1326862231085688	-0.26527414191807375	-0.11846977555181848	-0.7525926281572518	-0.1632267870608547	-0.23806041357580432	6.347102826149446	-0.14560705143488706	-0.26899110619750616	-0.26527414191807375	-0.6454972243679029	-0.8792076745395967	-0.4266193736570693	-0.09341307986787181	-0.5946679548965088	-0.5279782779119826	-0.25	-0.22983323327664582	-0.3009419175453115	-0.7385489458759964	-0.2256304299271065	-0.41808701004393767	-0.23397548065437376	-0.16872981624383912	-0.4983774970738875	-0.41808701004393767	-0.2689911061975062	-0.25	2.359699518621347	-0.2256304299271065	-0.4820885620538128	-0.27631520607789506	-0.2170286830706078	-0.2763152060778951	-0.5440258500848448	-0.3210193687528897	-0.18436178168863	-0.6481877969750897	-0.33076425200295007	-0.3559573752873263	-0.44349449895169396	-0.30772872744833185	0.18436178168863002	-0.12576654244509558	-0.374218449213498	7.53657747256671	-0.4546213639405305	-0.15168668220223594	-0.1989179361539351	3.769685174625259	-0.44906926154347465	-0.2170286830706078	-0.33076425200295	-0.1893206114156883	-0.3559573752873263	2.5700706523157564	-0.3920364967327138	-0.3177300441449958	-0.1941699638598877	-0.28350278971414183	-0.25	-0.374218449213498	-0.1632267870608547	-0.25772206775253464	4.0	-0.2870487828668123	-0.18436178168863002	-0.18436178168863	-0.22136353557447688	-0.22136353557447688	-0.24209101306752095	-0.25772206775253464	-0.1893206114156883	-0.25	-0.25	-0.18436178168863	-0.17407765595569788	-0.35903516540862673	3.7175950318065603	-0.2170286830706078	-0.30434782608695654	-0.17407765595569788	-0.2170286830706078	-0.49296120809671423	-0.15168668220223594	-0.1989179361539351	-0.1326862231085688	2.8339460121886586	-0.23397548065437376	-0.2835027897141419	-0.2256304299271065	-0.1632267870608547	-0.28350278971414183	-0.17928429140015903	-0.26151838733275307	-0.34033823739056385	-0.261518387332753	-0.3210193687528897	-0.17928429140015903	-0.4094835377359726	-0.27267094157460586	-0.2763152060778951	-0.6267145158182865	2.0065111403931297	-0.20357171080835723	-0.2170286830706078	-0.3177300441449958	-0.18436178168863002	1.7280644943264487	-0.17928429140015903	-0.2799253631867321	-0.47936127716217664	-0.261518387332753	-0.2689911061975062	-0.16872981624383912	-0.2940512972485138	-0.3339737437860371	-0.4711552981879444	3.2857142857142856	-0.25772206775253464	-0.23397548065437376	-0.1740776559556979	-0.44069816885602997	0.6915640748081247	-0.3466338684544398	2.785242495291165	-0.13928514900622418	-0.25	-0.2689911061975062	-0.7218397547786816	-0.19416996385988766	-0.24209101306752095	-0.41808701004393767	-0.32428771777631915	-0.20813769394078804	-0.11072124636128718	-0.1941699638598877	-0.42944875073540123	2.9659079839893088	-0.23806041357580432	-0.12576654244509558	-0.261518387332753	-0.5786821054903811	-0.3978902276590028	-0.3077287274483319	-0.23806041357580432	-0.15168668220223594	0.9460877164476424	-0.3177300441449958	-0.30434782608695654	-0.6725037594933304	1.3041988266515396	-0.24209101306752095	-0.4065987956759849	-0.19416996385988766	-0.30434782608695654	-0.2256304299271065	1.5687822807232932	1.5175167685588	-0.6133436852128472	-0.10241831129983782	-0.589338058604183	6.347102826149446	-0.26527414191807375	-0.18436178168863	0.08347838711296825	-0.25	-0.23397548065437376	-0.3009419175453115	-0.1575521978122203	-0.49567091418845	-0.3772167680771589	-0.25388328404068955	-0.2035717108083572	-0.1893206114156883	-0.12576654244509558	-0.11846977555181848	-0.11072124636128718	-0.38020317653268565	-0.22136353557447683	-0.7696015211636542	-0.34033823739056385	-0.13928514900622418	-0.14560705143488706	0.0	-0.1326862231085688	-0.2763152060778951	-0.08347838711296823	-0.30434782608695654	1.736055554666638	-0.1326862231085688	0.6428086293643933	-0.2256304299271065	-0.13928514900622418	-0.3177300441449958	-0.42944875073540123	-0.2035717108083572	-0.5252981913594169	-0.18436178168863	-0.2256304299271065	-0.20813769394078804	-0.17407765595569788	-0.3339737437860371	-0.25388328404068955	-0.5091750772173155	-0.24607002807249065	0.33716487679261903	-0.261518387332753	-0.2835027897141419	0.8129695813681377	-0.18436178168863	-0.27631520607789506	1.2945755775256715	-0.29751006882896236	-0.3890943617051742	3.083681389036635	-0.24607002807249065	-0.5573666624152204	-0.1326862231085688	-0.14560705143488706	1.2480072611542792	2.49499498997493	-0.23397548065437376	9.76387901058454	-0.25	-0.12576654244509558	-0.2689911061975062	-0.3110855084191276	-0.29405129724851387	-0.25772206775253464	-0.13928514900622418	-0.3009419175453115	-0.23806041357580432	-0.20357171080835723	-0.2835027897141419	2.9382534494718686	-0.10241831129983783	-0.2256304299271065	-0.2870487828668123	-0.1989179361539351	-0.23806041357580432	-0.22136353557447688	0.8247621221537363	-0.2799253631867321	4.703190406521939	-0.2689911061975062	-0.22136353557447688	-0.30434782608695654	-0.618688224889746	-0.24607002807249065	-0.1632267870608547	0.6833776965501084	-0.20357171080835723	-0.15168668220223594	-0.22136353557447688	-0.14560705143488706	0.7554152327780023	2.9659079839893088	-0.31441901276696615	-0.21262162778128113	-0.22136353557447683	1.3960585918351474	-0.4237827706911807	1.6519782861964367	-0.26527414191807375	-0.20813769394078804	2.425067500287854	-0.20357171080835723	-0.17928429140015906	-0.2835027897141419	-0.23806041357580432	-0.18436178168863004	-0.1575521978122203	-0.18436178168863002	-0.42944875073540123	-0.4123596559193922	-0.597333668678645	-0.451848057057532	-0.1632267870608547	-0.19416996385988766	-0.3620986880431675	-0.24607002807249065	-0.2689911061975062	-0.35903516540862673	1.2756460039026214	-0.2256304299271065	-0.40370517361463093	-0.24209101306752095	-0.14560705143488706	-0.17928429140015903	-0.29405129724851387	-0.3210193687528897	1.8940173144144137	4.200614394385967	-0.1575521978122203	-0.1893206114156883	-0.6160153734559949	-0.2035717108083572	-0.1893206114156883	2.269126741769346	-0.47663006704025085	2.086109261724287	-0.1687298162438391	-0.16872981624383912	-0.20357171080835723	-0.1326862231085688	-0.14560705143488706	-0.2975100688289623	-0.38020317653268565	3.115076837528041	-0.2799253631867321	-0.09341307986787181	-0.23806041357580432	-0.27267094157460586	1.8844577740990123	-0.23397548065437376	-0.1893206114156883	-0.5786821054903812	-0.24607002807249065	-0.6508804192761097	-0.29405129724851387	-0.20357171080835723	-0.1687298162438391	-0.19416996385988766	-0.17407765595569788	-0.3978902276590028	2.785242495291165	-0.1632267870608547	-0.3466338684544398	-0.1740776559556979	-0.25388328404068955	-0.17928429140015903	-0.34033823739056385	3.7175950318065603	-0.2905645665847724	1.141397759162648	-0.11846977555181848	-0.10241831129983783	-0.1575521978122203	-0.6725037594933305
